{"layers":[{"0":{},"1":{},"2":{},"3":{},"4":{},"5":{},"6":{},"7":{},"8":{},"9":{},"10":{},"11":{},"12":{},"13":{},"14":{},"15":{},"16":{},"17":{},"18":{},"19":{},"20":{},"21":{},"22":{},"23":{},"24":{},"25":{},"26":{},"27":{},"28":{},"29":{},"30":{},"31":{},"32":{},"33":{},"34":{},"35":{},"36":{},"37":{},"38":{},"39":{},"40":{},"41":{},"42":{},"43":{},"44":{},"45":{},"46":{},"47":{},"48":{},"49":{},"50":{},"51":{},"52":{},"53":{},"54":{},"55":{},"56":{},"57":{},"58":{},"59":{},"60":{},"61":{},"62":{},"63":{},"64":{},"65":{},"66":{},"67":{},"68":{},"69":{},"70":{},"71":{},"72":{},"73":{},"74":{},"75":{},"76":{},"77":{},"78":{},"79":{},"80":{},"81":{},"82":{},"83":{},"84":{},"85":{},"86":{},"87":{},"88":{},"89":{},"90":{},"91":{},"92":{},"93":{},"94":{},"95":{},"96":{},"97":{},"98":{},"99":{},"100":{},"101":{},"102":{},"103":{},"104":{},"105":{},"106":{},"107":{},"108":{},"109":{},"110":{},"111":{},"112":{},"113":{},"114":{},"115":{},"116":{},"117":{},"118":{},"119":{},"120":{},"121":{},"122":{},"123":{},"124":{},"125":{},"126":{},"127":{},"128":{},"129":{},"130":{},"131":{},"132":{},"133":{},"134":{},"135":{},"136":{},"137":{},"138":{},"139":{},"140":{},"141":{},"142":{},"143":{},"144":{},"145":{},"146":{},"147":{},"148":{},"149":{},"150":{},"151":{},"152":{},"153":{},"154":{},"155":{},"156":{},"157":{},"158":{},"159":{},"160":{},"161":{},"162":{},"163":{},"164":{},"165":{},"166":{},"167":{},"168":{},"169":{},"170":{},"171":{},"172":{},"173":{},"174":{},"175":{},"176":{},"177":{},"178":{},"179":{},"180":{},"181":{},"182":{},"183":{},"184":{},"185":{},"186":{},"187":{},"188":{},"189":{},"190":{},"191":{},"192":{},"193":{},"194":{},"195":{},"196":{},"197":{},"198":{},"199":{},"200":{},"201":{},"202":{},"203":{},"204":{},"205":{},"206":{},"207":{},"208":{},"209":{},"210":{},"211":{},"212":{},"213":{},"214":{},"215":{},"216":{},"217":{},"218":{},"219":{},"220":{},"221":{},"222":{},"223":{},"224":{},"225":{},"226":{},"227":{},"228":{},"229":{},"230":{},"231":{},"232":{},"233":{},"234":{},"235":{},"236":{},"237":{},"238":{},"239":{},"240":{},"241":{},"242":{},"243":{},"244":{},"245":{},"246":{},"247":{},"248":{},"249":{},"250":{},"251":{},"252":{},"253":{},"254":{},"255":{},"256":{},"257":{},"258":{},"259":{},"260":{},"261":{},"262":{},"263":{},"264":{},"265":{},"266":{},"267":{},"268":{},"269":{},"270":{},"271":{},"272":{},"273":{},"274":{},"275":{},"276":{},"277":{},"278":{},"279":{},"280":{},"281":{},"282":{},"283":{},"284":{},"285":{},"286":{},"287":{},"288":{},"289":{},"290":{},"291":{},"292":{},"293":{},"294":{},"295":{},"296":{},"297":{},"298":{},"299":{},"300":{},"301":{},"302":{},"303":{},"304":{},"305":{},"306":{},"307":{},"308":{},"309":{},"310":{},"311":{},"312":{},"313":{},"314":{},"315":{},"316":{},"317":{},"318":{},"319":{},"320":{},"321":{},"322":{},"323":{},"324":{},"325":{},"326":{},"327":{},"328":{},"329":{},"330":{},"331":{},"332":{},"333":{},"334":{},"335":{},"336":{},"337":{},"338":{},"339":{},"340":{},"341":{},"342":{},"343":{},"344":{},"345":{},"346":{},"347":{},"348":{},"349":{},"350":{},"351":{},"352":{},"353":{},"354":{},"355":{},"356":{},"357":{},"358":{},"359":{},"360":{},"361":{},"362":{},"363":{},"364":{},"365":{},"366":{},"367":{},"368":{},"369":{},"370":{},"371":{},"372":{},"373":{},"374":{},"375":{},"376":{},"377":{},"378":{},"379":{},"380":{},"381":{},"382":{},"383":{},"384":{},"385":{},"386":{},"387":{},"388":{},"389":{},"390":{},"391":{},"392":{},"393":{},"394":{},"395":{},"396":{},"397":{},"398":{},"399":{},"400":{},"401":{},"402":{},"403":{},"404":{},"405":{},"406":{},"407":{},"408":{},"409":{},"410":{},"411":{},"412":{},"413":{},"414":{},"415":{},"416":{},"417":{},"418":{},"419":{},"420":{},"421":{},"422":{},"423":{},"424":{},"425":{},"426":{},"427":{},"428":{},"429":{},"430":{},"431":{},"432":{},"433":{},"434":{},"435":{},"436":{},"437":{},"438":{},"439":{},"440":{},"441":{},"442":{},"443":{},"444":{},"445":{},"446":{},"447":{},"448":{},"449":{},"450":{},"451":{},"452":{},"453":{},"454":{},"455":{},"456":{},"457":{},"458":{},"459":{},"460":{},"461":{},"462":{},"463":{},"464":{},"465":{},"466":{},"467":{},"468":{},"469":{},"470":{},"471":{},"472":{},"473":{},"474":{},"475":{},"476":{},"477":{},"478":{},"479":{},"480":{},"481":{},"482":{},"483":{},"484":{},"485":{},"486":{},"487":{},"488":{},"489":{},"490":{},"491":{},"492":{},"493":{},"494":{},"495":{},"496":{},"497":{},"498":{},"499":{},"500":{},"501":{},"502":{},"503":{},"504":{},"505":{},"506":{},"507":{},"508":{},"509":{},"510":{},"511":{},"512":{},"513":{},"514":{},"515":{},"516":{},"517":{},"518":{},"519":{},"520":{},"521":{},"522":{},"523":{},"524":{},"525":{},"526":{},"527":{},"528":{},"529":{},"530":{},"531":{},"532":{},"533":{},"534":{},"535":{},"536":{},"537":{},"538":{},"539":{},"540":{},"541":{},"542":{},"543":{},"544":{},"545":{},"546":{},"547":{},"548":{},"549":{},"550":{},"551":{},"552":{},"553":{},"554":{},"555":{},"556":{},"557":{},"558":{},"559":{},"560":{},"561":{},"562":{},"563":{},"564":{},"565":{},"566":{},"567":{},"568":{},"569":{},"570":{},"571":{},"572":{},"573":{},"574":{},"575":{}},{"0":{"bias":-0.08315044391199178,"weights":{"0":0.0966566328015906,"1":0.013442333679578552,"2":0.07988047245980626,"3":0.1292551547164465,"4":-0.13858020991545394,"5":-0.05691958586807424,"6":0.24801734508305492,"7":0.08025531256183814,"8":0.10605790375963821,"9":-0.05802433729007324,"10":0.17381608276511137,"11":0.1654265645482904,"12":0.1348714908893336,"13":0.06617616554069229,"14":0.17810492171662098,"15":-0.08606061389827785,"16":0.14050850342067622,"17":0.11169672316760705,"18":0.22833554667334266,"19":-0.045576763943598095,"20":-0.4256235264298941,"21":-0.09134231338779561,"22":-0.017813500766876038,"23":0.11666469980465036,"24":0.004294899813359761,"25":-0.023292050697918523,"26":-0.08673189055856113,"27":-0.16954928288347648,"28":-0.14372406648234867,"29":0.1947644164019472,"30":-0.1457024333016569,"31":-0.04586528411066891,"32":-0.18045468396991243,"33":-0.014261960596896401,"34":0.06563846882565277,"35":-0.1817355979116059,"36":-0.2393433427579567,"37":-0.38889553194079807,"38":-0.0763407910349263,"39":-0.025329136248985928,"40":-0.19784715600802474,"41":-0.08090936269639556,"42":-0.17369512515186863,"43":-0.07725477868684229,"44":-0.16839049494226327,"45":-0.10180046967366635,"46":-0.2089938850969179,"47":-0.02201171991994031,"48":0.14196128524954713,"49":0.11791193123155859,"50":-0.00807887665490545,"51":0.1731759571047787,"52":0.03129291186777686,"53":-0.015417365133470596,"54":0.05694001666263715,"55":-0.08164167303910763,"56":0.029473192832391956,"57":0.024554600880937586,"58":-0.081661229903955,"59":-0.4974434197103841,"60":-0.29772737199618365,"61":-0.27698556980806494,"62":0.014172987457329816,"63":-0.4456826603157652,"64":-0.16541959033957843,"65":-0.21263917998982163,"66":-0.32712090821165035,"67":-0.24646901940075128,"68":-0.16908788105094189,"69":-0.07002327961289191,"70":-0.29390668690733257,"71":0.3249365975089258,"72":0.11386432660178197,"73":-0.13323928008873864,"74":0.08949868818091816,"75":0.052586143067872154,"76":-0.0389440207431238,"77":-0.1275272966798642,"78":0.14176946972890228,"79":-0.01930752381007833,"80":-0.19897054733437017,"81":0.021528833127519357,"82":0.19067829742655623,"83":0.18142793105337435,"84":-0.11886938391139736,"85":0.1537362539161103,"86":0.1702998536142129,"87":0.1672838673720303,"88":-0.2967431082578839,"89":0.004049942278384736,"90":-0.141052380069213,"91":-0.11063070697184718,"92":0.014738586797536897,"93":-0.21706972201032573,"94":0.003292199958144583,"95":-0.23941340851955029,"96":0.2010815327068872,"97":0.025570297402930747,"98":0.11620212453709766,"99":0.019379060605018223,"100":0.23723146666043476,"101":0.15668649142916533,"102":-0.07589113252936748,"103":0.06740279897507388,"104":0.18847512963226065,"105":0.251765658768925,"106":0.06483714626398426,"107":-0.12063123190117507,"108":-0.044875982666010734,"109":-0.132305482350955,"110":0.12310393007645061,"111":-0.06434088740000138,"112":0.05498344021444145,"113":0.18422520393991193,"114":-0.10772291680431857,"115":-0.04501638263974621,"116":-0.1565495614078377,"117":-0.10347985053828258,"118":0.042448674611839876,"119":-0.05786656442778369,"120":-0.159306582324101,"121":-0.08689954431581666,"122":0.05714403880541373,"123":-0.15721604306824533,"124":-0.0383871067021508,"125":0.17676845589745377,"126":0.17267520751802354,"127":0.174754332697426,"128":0.07225018209501237,"129":0.15104126062897447,"130":0.15455885100967426,"131":0.21613112109850433,"132":-0.02718051387770578,"133":-0.12382363726515304,"134":0.17517570080255612,"135":0.15205392574107884,"136":0.13458258504897253,"137":0.2707948192038741,"138":0.2904810130474433,"139":0.0890858890401812,"140":0.02090991630918862,"141":-0.07043746657437414,"142":-0.21129558980495922,"143":-0.10339870793853283,"144":-0.15695427265083112,"145":0.06984908468633845,"146":-0.10764151879852765,"147":0.03438161348831904,"148":0.22821598331592513,"149":0.07711488130995146,"150":-0.19274385862413837,"151":0.14243278905427686,"152":0.5830290348502971,"153":0.2192025227746013,"154":0.017819677580830487,"155":-0.09854344751183373,"156":-0.03460949215489629,"157":0.03675134481968575,"158":0.13712485172280817,"159":0.2138615825368784,"160":0.19602215015353744,"161":0.15131201291998914,"162":0.05772172059296794,"163":-0.009686159978320728,"164":-0.027345347548858114,"165":0.22417156647403635,"166":-0.2638640146996593,"167":-0.15364491307652603,"168":0.12869846311347904,"169":-0.24252144709070814,"170":0.10199559478325582,"171":0.17446806995487446,"172":0.3190304818054933,"173":-0.06458849507180126,"174":-0.000686302625846459,"175":0.07618208793361557,"176":0.3215929727791458,"177":0.540041480152661,"178":-0.09305583850451235,"179":-0.022803650016024732,"180":-0.18502688348040847,"181":-0.09928127687354443,"182":0.24212995115589112,"183":0.3439365619677981,"184":0.12318750936698054,"185":0.25699166002684515,"186":0.1599592111904873,"187":-0.13649993625961257,"188":0.12703051931892967,"189":0.20926102983763464,"190":-0.0028748181705784827,"191":-0.37901690818985057,"192":-0.08562727462475143,"193":-0.2827215184883246,"194":0.12077233939908161,"195":-0.0007523730989879541,"196":0.06306989529041708,"197":0.20377129725932683,"198":0.08607548712643567,"199":0.28330802764717256,"200":0.020630620230873597,"201":-0.010683702924723617,"202":0.24515927867421672,"203":-0.02239727441458969,"204":-0.20117016105994878,"205":-0.02536778472870109,"206":0.2278320035539578,"207":0.11101282860145181,"208":0.1642027166179337,"209":0.13692012922446575,"210":0.06974597607970093,"211":0.02899581388555336,"212":0.09995863667982363,"213":0.04935641774953224,"214":-0.012241722982490173,"215":-0.051267530004370225,"216":0.11703867249618487,"217":-0.027142092267716442,"218":-0.2056377730569969,"219":0.09778376447865914,"220":0.07877122869967666,"221":0.15455831890188285,"222":-0.013919098405159803,"223":0.24650964139818066,"224":0.13383408679833642,"225":0.009754437767402252,"226":-0.016921038591499092,"227":0.15804725216868262,"228":-0.1289386599482956,"229":0.2871424159968087,"230":0.08771887504197146,"231":0.17105277205404013,"232":0.10275278460080338,"233":0.05546945666579143,"234":0.10180986421468591,"235":0.11649715642227497,"236":-0.09158949427281683,"237":-0.031015633458978637,"238":-0.07322233311882281,"239":0.17734801031110486,"240":-0.12255297355849218,"241":-0.02934958339869274,"242":-0.1944490176874991,"243":0.13214160427363827,"244":0.1548824610556794,"245":-0.16377205597621808,"246":0.10089839235771444,"247":-0.13780797486710764,"248":0.034861068980437414,"249":-0.14056206216828065,"250":0.26125415887026254,"251":0.1547686419570842,"252":0.14345999983619995,"253":-0.09663500033404779,"254":0.14831554048520412,"255":-0.0238779746224185,"256":-0.06950492727053376,"257":0.28704139360099973,"258":0.1957931914928536,"259":0.04856232727009448,"260":-0.06516637722626728,"261":-0.09213837080447877,"262":0.2571287772818898,"263":0.09953381357410954,"264":-0.21847950542201447,"265":-0.21230930427448624,"266":-0.07843215723843623,"267":0.1524760175473234,"268":0.1735537689004662,"269":0.029237390929682854,"270":-0.021377475896473763,"271":-0.25951596246511205,"272":-0.12142802954454328,"273":-0.000973696881112704,"274":-0.01157610809556077,"275":-0.4623616278071392,"276":-0.11673310408478903,"277":0.13671194302359235,"278":0.04454245091369896,"279":-0.036769534481888695,"280":0.09342612854987832,"281":-0.07084855998333416,"282":-0.09153278410681302,"283":-0.21374066735398997,"284":-0.04820998355119998,"285":-0.12352667778857757,"286":0.01091539899833327,"287":0.07320808464292747,"288":0.12206336124569246,"289":-0.07168319200304836,"290":-0.1277025207106725,"291":-0.09743257229610072,"292":0.1536975750722298,"293":-0.203383229916044,"294":-0.3131823561239239,"295":-0.3376125200677408,"296":-0.23204257297266165,"297":-0.005771325357550097,"298":-0.32532234603743054,"299":-0.20007033933740226,"300":-0.1789863721739392,"301":-0.27516292645426965,"302":-0.0699817299084663,"303":0.12210078134666116,"304":0.10311081414791012,"305":-0.11755368020713655,"306":-0.19553230158999999,"307":-0.19389593567309207,"308":-0.050209615449375196,"309":-0.21285984912967448,"310":-0.1201902445244326,"311":0.1431198339387665,"312":0.17229459504155448,"313":-0.1718067918681943,"314":-0.26367237424437495,"315":0.09286368705483188,"316":0.007087241119467941,"317":-0.07672887117416444,"318":-0.20114523609838186,"319":0.02929642950661674,"320":-0.15864872831893873,"321":-0.13813132656633434,"322":-0.1840426517018014,"323":-0.5482570360525345,"324":-0.10557521322043976,"325":-0.3445401162004684,"326":-0.09040842672277712,"327":0.031870455442733064,"328":0.05035700050791555,"329":-0.06985964044354999,"330":0.043861019200211716,"331":0.10756184901163765,"332":0.05113540881793627,"333":0.22138335470361187,"334":0.008140981189133784,"335":0.32032712638124705,"336":0.10775660206098014,"337":-0.02486157930676778,"338":0.034466359886126056,"339":-0.11868483103323364,"340":0.05034718048794551,"341":-0.25090354177739455,"342":0.06928672568875192,"343":-0.14746924988978205,"344":0.4225014237766097,"345":-0.015676842683854542,"346":-0.085152555005981,"347":-0.23891801114112954,"348":-0.0931566443880994,"349":-0.01954530271345187,"350":-0.23970992810569897,"351":-0.11538439141894133,"352":-0.020761506158118656,"353":0.05577543535140148,"354":0.29442771315129135,"355":0.34944228448657905,"356":0.3003285689849545,"357":0.2836210760589837,"358":0.23611793736311237,"359":0.3865787335640309,"360":-0.16813563430942888,"361":0.050625742711928275,"362":-0.010130387454531084,"363":-0.049937213895127605,"364":0.13037769240839137,"365":-0.05563420550478297,"366":0.02688683296289566,"367":-0.1497428150410457,"368":0.20083619736441907,"369":-0.18380715010617452,"370":0.10903830492783358,"371":0.24184995136470616,"372":0.16432935919563763,"373":0.2088989988599504,"374":0.11770330498081576,"375":-0.23691923852406796,"376":0.17789752125855204,"377":0.21005065658734534,"378":-0.02227021276162458,"379":-0.034553358055357475,"380":0.3862398141830955,"381":0.3126417389462609,"382":0.3105853455847596,"383":0.2681510974360281,"384":0.0905477379446747,"385":0.05330606588849146,"386":-0.06188319371893787,"387":-0.1398257840694935,"388":-0.08386908029682572,"389":0.15483231541762335,"390":0.11535336218202784,"391":0.03425209371404617,"392":0.2882462318496382,"393":0.14227992149053448,"394":0.002022693559160845,"395":0.3295307817607869,"396":-0.06185569872516671,"397":0.4596762987183088,"398":0.2932367313963105,"399":-0.09796773119303691,"400":0.046384710630299586,"401":0.3133588741202922,"402":-0.048077318014645494,"403":0.0855144616393562,"404":0.19126137904815727,"405":0.07713600521257773,"406":0.0753829053616432,"407":0.3287822375189621,"408":0.05554181803909314,"409":0.0056941704122229,"410":-0.008175636466220167,"411":0.06378810615649784,"412":0.13644486009307472,"413":-0.06059003698616242,"414":-0.19096955379245947,"415":-0.06293995371054974,"416":0.04197822819791078,"417":0.07239398047066405,"418":0.2902235822037531,"419":-0.08680709176745033,"420":-0.30235341665256277,"421":-0.08258967905140446,"422":0.16567744004054435,"423":-0.1212563228805582,"424":-0.33973519401094787,"425":-0.101893664561961,"426":-0.2050536440575737,"427":0.029653878696779865,"428":-0.06433996937186263,"429":0.25137298886213477,"430":0.23434592652197056,"431":0.27016066626986135,"432":0.03465950758199093,"433":0.09099259366847696,"434":-0.009835256861722326,"435":0.012133352167016215,"436":0.0431519076398141,"437":0.07751920671513053,"438":-0.17426709597861148,"439":-0.0199420300508702,"440":-0.07677313824741303,"441":-0.0987370819041197,"442":-0.1945619299063124,"443":-0.32916550147911805,"444":-0.3029187063698186,"445":-0.2533260825259674,"446":-0.3479925695549773,"447":-0.46814897712384423,"448":-0.3669557200908098,"449":-0.15084774191645497,"450":-0.21457931491835158,"451":0.08018627875216235,"452":0.1450819102515871,"453":0.15520441143114805,"454":0.2786727015087075,"455":0.4103446589771155,"456":-0.006502171411065115,"457":0.03533167130876046,"458":0.19891288019525596,"459":-0.04567496331350035,"460":0.006239617034164181,"461":-0.14215463166686906,"462":-0.36452520243592845,"463":-0.13190697583512107,"464":-0.2043773241898133,"465":0.19780755240447295,"466":-0.13046148699158616,"467":-0.20142309391907756,"468":-0.15528974463223613,"469":-0.15895013784188802,"470":-0.2215530174915789,"471":-0.24445359514444387,"472":-0.01565376660563398,"473":-0.17562221027073163,"474":-0.3699013843560309,"475":0.008468245807198113,"476":0.018345592130513066,"477":0.08163647606272474,"478":0.23123783445428556,"479":0.056735339923679316,"480":-0.03308321790449389,"481":0.25147812999423513,"482":0.1648043500113562,"483":0.05486388180251673,"484":-0.038675077118154245,"485":-0.04517496765718233,"486":-0.14448190797852922,"487":0.012167161848975585,"488":0.0002467128714650539,"489":-0.1873283814217668,"490":0.09566989393993983,"491":-0.12132909797353021,"492":-0.34985644278212347,"493":0.01708652563313733,"494":-0.23685119362272544,"495":-0.11197148683293962,"496":0.0662839370901147,"497":-0.20782170452909185,"498":-0.024087064464782176,"499":-0.2526450995543842,"500":0.06107484222860337,"501":-0.01788865349043147,"502":0.31225183051127475,"503":0.11674409462665661,"504":0.09826308533205182,"505":0.04152641714709111,"506":0.1748472860178285,"507":0.3929928094362532,"508":0.0013041623074451468,"509":0.15046757794432256,"510":-0.02789087320839914,"511":-0.21247902713818936,"512":-0.23748605752509555,"513":-0.06361997224647085,"514":-0.4356236466405219,"515":-0.2661480264200714,"516":0.010985885397961716,"517":-0.02876436499923734,"518":-0.0580427406731437,"519":0.09584152697432065,"520":-0.23562159282883424,"521":-0.2593430255088249,"522":0.06455236403006015,"523":-0.24460293362808933,"524":-0.040481499372656826,"525":-0.4412790371762332,"526":0.016717206182831956,"527":0.3039663099091548,"528":0.15962833731019013,"529":0.18377837803937297,"530":0.032255740416783335,"531":0.33969562238459605,"532":0.004791380507559775,"533":0.10393088446899182,"534":0.3125593005250716,"535":0.04859467058984234,"536":0.1273901320708146,"537":-0.06235886983692949,"538":0.027520341672428648,"539":0.15101122078748433,"540":0.18238533205154978,"541":0.31382584501421884,"542":-0.2557462270016162,"543":0.10159205456248685,"544":0.2845929846492669,"545":0.24918781834924897,"546":-0.11515260000229524,"547":-0.20655182069400177,"548":-0.25821110142677245,"549":-0.3888665268223137,"550":-0.43649789623136703,"551":-0.42043345087583467,"552":0.38708241276944516,"553":0.01541294940928066,"554":0.310774569568457,"555":0.06523329074561289,"556":0.0279345013739435,"557":0.09504253421953268,"558":0.33999592746991675,"559":0.10297488162475237,"560":0.025621619609666395,"561":0.2460528152491898,"562":0.3225557995756913,"563":0.2118043470359731,"564":0.5647193434679584,"565":0.4138767708170057,"566":0.38014824485292825,"567":0.126921408540901,"568":0.035571821104325226,"569":0.07049174564947588,"570":0.24109873776990423,"571":0.011788035617387551,"572":-0.1271327510526118,"573":-0.33224857795644214,"574":-0.31566955774481914,"575":0.006627631941795406}},"1":{"bias":0.026906670557648275,"weights":{"0":-0.0688221483170505,"1":0.31895647663322096,"2":0.2205947977933365,"3":0.0229465051548688,"4":0.17909370917777406,"5":0.11864226999305291,"6":0.14669454318569314,"7":-0.026484422351435142,"8":-0.3192838788607038,"9":-0.0169216750743421,"10":-0.03552855318294401,"11":-0.03203249042653075,"12":-0.09198559406563128,"13":-0.1140636603784708,"14":0.01866043980870292,"15":0.27316420323805884,"16":-0.1970213106892205,"17":-0.00090160044735843,"18":-0.17313155495439125,"19":-0.04694142514678268,"20":0.04130214437817386,"21":0.05708321443500409,"22":0.20069339076609607,"23":0.2511765042597406,"24":0.3408013344536914,"25":0.25411880603654974,"26":0.19985005860828287,"27":0.22569251055951828,"28":-0.05067825225314585,"29":-0.16390563230281724,"30":-0.2529036522512035,"31":-0.12844955282661652,"32":-0.38818381810636293,"33":-0.37281798428590524,"34":-0.4471613919543048,"35":-0.49019193709805886,"36":-0.14788548629696577,"37":-0.2967358777083724,"38":-0.27472938772105354,"39":-0.3192835014685117,"40":-0.398923512145932,"41":-0.49659825792959933,"42":-0.1569341264503469,"43":-0.24796911410979672,"44":-0.06445001897584902,"45":0.0238202898159377,"46":-0.07109584817469568,"47":0.31247479498938163,"48":0.19028871715697207,"49":0.08775216124321149,"50":0.38624336007337734,"51":0.03864400701424743,"52":-0.21052473887981038,"53":-0.05465851616240503,"54":-0.17411313856951863,"55":0.03922379151761502,"56":-0.048355184347790646,"57":-0.07445564207231095,"58":-0.16853362086021859,"59":-0.10223998223654684,"60":0.18130444687193073,"61":-0.10889975443651406,"62":0.07593899425080507,"63":-0.007182584725551321,"64":-0.43908642564127687,"65":-0.1257031649744325,"66":-0.25358637779950394,"67":-0.1865053447193213,"68":0.010459473918568147,"69":-0.03372178514200599,"70":0.21406542392738992,"71":0.23185368645406026,"72":-0.009154970958508233,"73":-0.18976582968028244,"74":-0.049808434205805316,"75":0.05648405640305178,"76":-0.0494522853354631,"77":-0.00528102201696439,"78":-0.032551927309597516,"79":-0.25247476180222583,"80":0.23526605573204865,"81":0.056994699255290986,"82":0.10219011270897842,"83":-0.1998985064065477,"84":-0.2083902454962685,"85":-0.10853543302583331,"86":-0.12388520000339248,"87":-0.02004904183705705,"88":0.02885379341164847,"89":-0.11258731106267426,"90":-0.05694029844256674,"91":0.11175702565966796,"92":0.07719523001798333,"93":-0.03280437551946983,"94":0.08221243275521319,"95":-0.005093022032279446,"96":0.021629583332047727,"97":-0.14427607508715604,"98":-0.14875978410244556,"99":0.08231974627618036,"100":0.2706277760232546,"101":0.2975042765550598,"102":-0.045703008428177476,"103":0.023976359120557775,"104":0.15066255499732337,"105":0.06132453451340366,"106":0.05296174432366795,"107":0.0944432243427819,"108":0.18654102576657583,"109":-0.1788158870436801,"110":0.14317111769410132,"111":-0.1513266487076796,"112":-0.29585887782955644,"113":-0.36852673761034355,"114":-0.035175591480064466,"115":0.06534273837657377,"116":0.000277562504491335,"117":0.07476373625428141,"118":0.05305391704839227,"119":0.1291205483283104,"120":-0.3497806298120508,"121":0.03483018652758282,"122":-0.012386341892406874,"123":0.4408852684106069,"124":0.2004435926422657,"125":0.3503108089848002,"126":-0.06677180743926804,"127":0.0829582996052998,"128":0.34400173316433325,"129":0.17427960001822415,"130":0.15045553298343098,"131":-0.0468658827952237,"132":0.20297299300354332,"133":-0.006399327107924294,"134":0.09380940103286237,"135":0.07222949997735355,"136":-0.09942782804264823,"137":0.2220038676440077,"138":-0.1832742504183405,"139":0.041933713846186146,"140":0.21800690258245325,"141":0.16151069943542015,"142":-0.0724340448301641,"143":0.06065341694045121,"144":0.01769473745754424,"145":0.042528978647114954,"146":0.08797479078837549,"147":0.21340634299392766,"148":0.3266040957671364,"149":0.3658515555495283,"150":-0.22255890227454486,"151":-0.11215932749442678,"152":0.17768505159293566,"153":0.07657902230060414,"154":0.03602251815665812,"155":0.20332148806498235,"156":0.05127602151812822,"157":0.04260188277798804,"158":-0.041761434778139046,"159":0.3182693335143225,"160":0.29650781524911457,"161":0.30169046525153137,"162":0.2045363589589106,"163":0.11596337656110145,"164":-0.021043260210437113,"165":0.10081521866677319,"166":0.003985932224625213,"167":0.0721805681913742,"168":0.19391767228395734,"169":-0.0066743194335578526,"170":0.20412066483003252,"171":0.16815439248397532,"172":0.39494614746309586,"173":0.012849490485077249,"174":0.13428134373386716,"175":0.12388935793389864,"176":0.24862675482680144,"177":0.34215007051933677,"178":0.007868403548959636,"179":0.0733347654662677,"180":-0.062419667210853076,"181":0.18380957299443204,"182":0.1892939490516766,"183":0.10864018324751953,"184":0.34416131603841804,"185":0.06776506513692888,"186":0.0536928952991226,"187":-0.1553131670695463,"188":0.33795122677507416,"189":0.10502452480165782,"190":-0.025088416059495487,"191":0.21739151105213717,"192":0.19094438994245633,"193":0.10089157109497657,"194":-0.12119269789431414,"195":0.021668503157792958,"196":0.3508396341887706,"197":0.17315202743080632,"198":0.10370698322795488,"199":-0.042035499294756924,"200":0.23724810099518429,"201":0.04430861577659131,"202":0.044272468090791994,"203":-0.20199073388752461,"204":-0.18203454630508956,"205":-0.10141432749980776,"206":0.14481864614047057,"207":0.15251188152065676,"208":0.10927467385094893,"209":0.14061309913140732,"210":0.16262854930892692,"211":-0.015242731008278573,"212":0.03735648228313602,"213":0.0738037733606258,"214":-0.3512999128170241,"215":-0.28132298988849325,"216":0.09709054531256966,"217":0.06842764025970414,"218":0.07670204351831124,"219":-0.03547066366015008,"220":0.20713253114445707,"221":-0.030192566967928543,"222":0.20042937252054996,"223":0.0456563008079793,"224":0.14884572346337133,"225":0.10218080894932012,"226":0.12881149694612773,"227":-0.04679606663443328,"228":-0.26632141914163066,"229":-0.18426761375989514,"230":-0.028627356806943186,"231":0.0399235686713317,"232":0.12005843597120117,"233":0.023312045375486853,"234":0.33904360748358087,"235":-0.002259773736621839,"236":-0.11338549063851994,"237":-0.30142450527059717,"238":-0.5369820877361674,"239":-0.44786760772237155,"240":0.11354546737796539,"241":-0.18419965258565177,"242":0.1262360499672743,"243":0.11788419510257113,"244":-0.019986649111429902,"245":-0.05244894472922749,"246":0.17390509831674214,"247":-0.06214008525087383,"248":0.15335867435483114,"249":-0.160266775583964,"250":0.13678407990918565,"251":-0.11166748166100404,"252":0.19179877599699072,"253":-0.335589988857939,"254":-0.30602003406359896,"255":-0.09925703718796021,"256":-0.08561402980248752,"257":0.18476786444055257,"258":-0.06332923238081804,"259":-0.027344909240043277,"260":-0.026290504151472327,"261":-0.08379370695556472,"262":-0.16424434029557713,"263":-0.501302575149262,"264":0.052939623136800354,"265":0.17660803825313318,"266":0.029052791744590054,"267":0.10847280064543308,"268":0.15930913818844597,"269":-0.02738637204058886,"270":-0.20648954197649472,"271":-0.13577484244108048,"272":0.04901472995585365,"273":0.010844679661708621,"274":-0.14685105770312104,"275":-0.32339682425703065,"276":-0.1921204650318812,"277":-0.0762078484434839,"278":0.02237216542984873,"279":0.12965236742471364,"280":0.09620195218160382,"281":0.07539090488863621,"282":0.09885754631891934,"283":-0.0000711761814133719,"284":-0.0016143160114955488,"285":-0.2518562433807791,"286":-0.05991211723805243,"287":-0.1236884245872163,"288":0.015392521658524365,"289":0.03173555427705336,"290":0.2699962641865845,"291":0.2983161609392409,"292":-0.25009584772683463,"293":-0.014761378824906789,"294":0.006713718917557184,"295":0.08650799531091376,"296":-0.2356623035116961,"297":-0.0942296125825732,"298":-0.18028528276431882,"299":0.05984561128924325,"300":0.02452945210746051,"301":-0.1665747669545721,"302":-0.03302950429724099,"303":-0.08182985015153739,"304":-0.03046941857771406,"305":-0.03693452420094973,"306":-0.13402566649362604,"307":-0.006004144777243051,"308":0.09634683182555627,"309":-0.134474238531534,"310":-0.08180886276224697,"311":-0.2371089685369407,"312":-0.0004158951057751954,"313":0.10016015088279422,"314":0.31954380522767967,"315":0.1970354573414757,"316":0.05222603913665267,"317":-0.07992954422926855,"318":0.0636500200600343,"319":-0.01612998329992762,"320":-0.06280311386467428,"321":0.03713023701010502,"322":0.2728465376982128,"323":-0.026398423153282526,"324":0.12421688387754556,"325":-0.13421601192054783,"326":-0.16817282410535558,"327":-0.038665380295659406,"328":0.09600861032965377,"329":0.016270274801017868,"330":-0.07228211286206244,"331":-0.16805415442665736,"332":0.2646608392622877,"333":-0.24361968081025098,"334":-0.16001966030182777,"335":-0.17127103296814247,"336":-0.023184353469687863,"337":0.0034743073006912126,"338":0.33445545714156677,"339":0.19790284786252574,"340":-0.029029398196181597,"341":-0.26384405836814373,"342":-0.05058452633299423,"343":-0.11073492951558052,"344":0.2620069902217024,"345":-0.05015371681008727,"346":0.20662590585904717,"347":0.1622511008883056,"348":0.19223012624462985,"349":0.033808129465693275,"350":0.003949791467521303,"351":-0.00035416475246042233,"352":-0.2526835218381363,"353":0.0013971462030882228,"354":-0.02716830536840424,"355":-0.2610728070785686,"356":-0.08534817761118815,"357":-0.05536479280076025,"358":-0.36092320410454376,"359":-0.39545302536855303,"360":-0.056548808288623444,"361":0.3198292509168327,"362":0.0463504738554389,"363":0.11342164340613922,"364":0.09501591359080251,"365":-0.03673191345467364,"366":0.11611417093563708,"367":0.1158708799799715,"368":0.10235884162075755,"369":0.11427991751738613,"370":0.0838475628542385,"371":0.28636446540759225,"372":0.6594487175317564,"373":0.06535527403787691,"374":0.11846089806668952,"375":0.13657205770122943,"376":0.09669801980975531,"377":0.02590370877914107,"378":0.3178082674084056,"379":0.0062754354254620625,"380":-0.2660616013712729,"381":0.047499160137435256,"382":-0.17579924917324974,"383":-0.12738636662645322,"384":0.11915215528241527,"385":-0.14569091879172044,"386":0.2025261213386372,"387":0.2590770691532108,"388":0.2571508147681879,"389":-0.03659803725108091,"390":0.035600781186103526,"391":-0.15180278698890143,"392":0.26889556234984124,"393":0.04909331495526619,"394":0.36447551820693624,"395":0.3302918098904674,"396":0.3224828008285619,"397":0.39860928186189587,"398":0.2272161070286127,"399":0.12242161093956225,"400":0.2521455065109997,"401":-0.130106349302945,"402":0.020328431032759737,"403":0.08534607341324033,"404":0.07131148638640657,"405":0.34688743816598305,"406":0.0024676683325623645,"407":-0.3468199039162378,"408":-0.059353455625843425,"409":-0.14234055903172946,"410":0.054842366154656784,"411":-0.03566916881166588,"412":0.10509912249186217,"413":-0.013344028090558019,"414":-0.10058415788553966,"415":-0.08110728349181914,"416":-0.20529755381958112,"417":-0.07111857547677831,"418":0.18533156649186544,"419":-0.020378797560723926,"420":0.129441723525085,"421":-0.09694122461117773,"422":0.004605203444519678,"423":-0.14380940081472252,"424":0.1660944454607893,"425":-0.1800075059637087,"426":0.08165383044717486,"427":-0.16928488134940178,"428":-0.04903974857621355,"429":0.09158130890095341,"430":-0.09320919315223981,"431":-0.08345950470121885,"432":0.00009453695516340789,"433":-0.022759870541426603,"434":0.018790643846271302,"435":-0.12597730032481247,"436":0.0012411499137053635,"437":-0.022258077555221967,"438":0.013141128841777327,"439":-0.25459667529729585,"440":-0.31344915420250374,"441":-0.03502412795065945,"442":-0.029283581703096005,"443":-0.14951245538752025,"444":-0.14476011700330768,"445":-0.2081505698350553,"446":-0.14546247996307504,"447":-0.045387592724652495,"448":0.13877772708198519,"449":-0.10080671702528335,"450":-0.17442708599751888,"451":-0.09677180334735082,"452":0.24119623907309182,"453":0.17127146425663278,"454":0.20576301896214125,"455":0.06037575532898729,"456":0.12004256881605724,"457":0.07857347709992228,"458":-0.23558391798551995,"459":0.05498636761241553,"460":0.018005838857694724,"461":0.03756690126512716,"462":0.31363921196877764,"463":-0.025301936339500786,"464":0.06160417951746651,"465":0.15674974774107017,"466":-0.04264474645696765,"467":0.11295633723445965,"468":0.2659959362793427,"469":0.08112520711747097,"470":0.09242701685423073,"471":0.2520053682981283,"472":0.011775005787342595,"473":-0.06654385128431474,"474":0.016915671961435265,"475":-0.006438840502369992,"476":0.2417459118333271,"477":0.008424838226633875,"478":-0.06861301432999277,"479":-0.2881370500326895,"480":-0.25816686345573436,"481":-0.026915356084792192,"482":-0.0088642164360335,"483":-0.06624955847524487,"484":-0.18707972409457607,"485":-0.1473703402360148,"486":0.23938707300474454,"487":0.22970129819665888,"488":0.0736890411638835,"489":-0.16042700818021763,"490":0.028711108201816892,"491":0.29325544025317773,"492":0.26291277216611497,"493":0.1491381757056344,"494":0.20519364038326124,"495":0.13614379666509435,"496":0.04696957490063417,"497":0.12658018586035902,"498":-0.32965982421296036,"499":0.060966635441423576,"500":-0.1249471137978157,"501":-0.12888087758102815,"502":0.05898054142175465,"503":-0.21822577738391616,"504":0.028992645163070204,"505":-0.281687532769467,"506":-0.0269844426432111,"507":-0.17219145767357122,"508":-0.10309409483660457,"509":-0.08686448357474671,"510":0.4359872602950909,"511":0.00890181916347718,"512":-0.26046345214850736,"513":-0.059360695176743056,"514":0.09315671101581062,"515":0.2059669517473438,"516":-0.11590693978881568,"517":-0.0889334764100532,"518":-0.047186729341996754,"519":0.01843870307746255,"520":0.023105718737517406,"521":0.2905287597050994,"522":-0.10777487916254479,"523":-0.09825269646659286,"524":0.09022924332227326,"525":0.02276647041918393,"526":-0.12960571751519112,"527":0.19409137793782602,"528":0.11266278625333526,"529":0.042045316505640376,"530":-0.03787181811031868,"531":-0.27129511170532666,"532":-0.27869535704863857,"533":0.15995001061944458,"534":0.14147826220013118,"535":0.0615241749898894,"536":0.017593580901515107,"537":-0.16955581743880377,"538":-0.1678677048856446,"539":-0.0814212374678689,"540":-0.06483611418458961,"541":-0.08217196389010341,"542":0.09449844974271278,"543":0.27100841059629455,"544":-0.15375432407002135,"545":0.31986278512407584,"546":0.014868385637298117,"547":0.1944843026994936,"548":-0.032460215120736935,"549":0.08550133072639293,"550":-0.13215455547598162,"551":0.11210484981544225,"552":0.004208145955809836,"553":-0.05846539823286943,"554":0.20139874290714113,"555":0.03002703981353903,"556":-0.23157595515253096,"557":-0.24009203441474125,"558":0.24940451622131005,"559":0.14222884136429692,"560":-0.2107892270590278,"561":-0.18341669023102547,"562":0.13036294539862023,"563":-0.25517814965883906,"564":-0.09325476031150565,"565":0.031314351713163,"566":-0.10021198497412857,"567":-0.05363653542546839,"568":0.3552250691051078,"569":0.1880203379119462,"570":-0.17838151004927824,"571":-0.07093362618153631,"572":-0.107317395802595,"573":0.28649704301937257,"574":0.2838547475088399,"575":0.3269847305851474}},"2":{"bias":-0.008278095215805697,"weights":{"0":0.19100387376315117,"1":0.16671167708703946,"2":0.10551380231161385,"3":0.43899881082667236,"4":0.29114877066340106,"5":0.027354206010980053,"6":-0.22166553316759272,"7":-0.2518188672233532,"8":-0.0026086479035267954,"9":0.09255124986594523,"10":-0.015418350788124953,"11":-0.1267296148572033,"12":0.12430998452267744,"13":-0.17085297092300858,"14":0.0585502546422027,"15":-0.28186172480578,"16":0.05913923785048733,"17":-0.005009578881661182,"18":-0.274389765090641,"19":0.02448419364445213,"20":0.1707163329401611,"21":0.47804386449013636,"22":0.10964231691452793,"23":0.19262920235582986,"24":-0.20365068033542316,"25":-0.23873097807370042,"26":-0.22570064627165612,"27":-0.25603028252752164,"28":-0.12420447570222666,"29":0.043320385159885656,"30":0.08079956276647728,"31":0.14500838050989154,"32":0.1066372726417155,"33":0.07221268246028571,"34":-0.15159493105902525,"35":0.042849391129890106,"36":-0.02184357610894104,"37":0.2456005873177493,"38":0.22511975182589497,"39":-0.10746301764410349,"40":0.057499148296371004,"41":-0.05555208126817181,"42":-0.31197756302008217,"43":0.1442200483196611,"44":-0.08223761480316745,"45":-0.13872392942133077,"46":0.011746089454459516,"47":-0.04285219564307075,"48":-0.061608328429680816,"49":-0.14352982686286614,"50":0.17136262769219907,"51":-0.30141944761900685,"52":-0.04211186853637562,"53":0.09042259209961599,"54":0.26836004459211754,"55":0.02019914849948477,"56":0.29558051835382776,"57":0.2658016855920838,"58":0.004199999084562273,"59":0.11998351651058176,"60":0.07330947611691993,"61":-0.04303373400486069,"62":0.026860935395044607,"63":-0.03293729891973521,"64":0.0838864868989959,"65":0.10300608598699929,"66":0.2840314295965455,"67":0.010622783960820453,"68":0.005109069006785269,"69":0.11089296870432015,"70":-0.16431238062732956,"71":-0.26788717868923995,"72":-0.1899501812215547,"73":0.02676989455604356,"74":-0.27396921650584705,"75":0.04965450160059773,"76":-0.11768196661281327,"77":-0.010675330335015413,"78":0.2622898688268992,"79":0.04745745508135231,"80":0.1329721725229688,"81":-0.23424604490051668,"82":0.05488281835775567,"83":0.0013180121306077197,"84":0.299462084151171,"85":0.10836670829956348,"86":-0.005536259204041823,"87":0.10665572857280282,"88":0.002395928089186392,"89":0.16795711105593947,"90":0.018854603041328473,"91":-0.14522370598888232,"92":-0.17473061436110401,"93":0.0887398093755699,"94":0.19407591095472565,"95":0.03304972904506589,"96":0.03484153828434851,"97":-0.10810784047346471,"98":-0.2136212464300788,"99":-0.10514224339937518,"100":-0.12368399391161822,"101":0.002405893623874147,"102":0.0015535121149123387,"103":0.04781480250858411,"104":-0.1094550752536471,"105":-0.19477254613351647,"106":-0.2282242960861668,"107":0.23768317052549157,"108":0.1915850194942368,"109":0.06408935938207097,"110":-0.29841396841024176,"111":-0.27733970745089104,"112":-0.20427862368896563,"113":0.21855014312110474,"114":0.08195355776967013,"115":-0.10126673937499173,"116":-0.23891005741001406,"117":-0.0728495009491713,"118":0.20016357702807483,"119":-0.029846039387062123,"120":-0.018391680685917674,"121":-0.04881245739177091,"122":0.022760738512511723,"123":-0.14959767010748734,"124":-0.03010862496936569,"125":-0.19005379710397377,"126":-0.06754534852493667,"127":0.11856702924184613,"128":-0.18911657005178867,"129":0.0437165066241122,"130":0.01786175337478227,"131":0.14346960927705246,"132":0.05685173355616269,"133":0.22224192114144858,"134":0.20025141502510707,"135":-0.07238157249568464,"136":0.38971277937157106,"137":0.1806234600399784,"138":0.05884063472318931,"139":-0.09315475554605658,"140":0.01746735303073746,"141":0.025548490181883394,"142":-0.14982232281397154,"143":0.09982896356357644,"144":0.11469347945931574,"145":0.07139691913107017,"146":-0.23402904128623286,"147":-0.21253932846937465,"148":-0.06449366806740067,"149":-0.07268160827742065,"150":-0.0972708679375379,"151":-0.10065143896997238,"152":-0.37799491528038953,"153":0.008215843836089795,"154":-0.16129232713806926,"155":0.27071150941578626,"156":0.09533404002911879,"157":0.2857207846305022,"158":0.053490881246083276,"159":0.3124681087206792,"160":0.11391979778681827,"161":-0.22370529667078887,"162":-0.0711741570419562,"163":0.21592674401185566,"164":-0.05831048001542188,"165":0.03439004194333706,"166":0.09509926149578471,"167":-0.032388751670355154,"168":-0.042204533024009616,"169":0.13846746304884672,"170":-0.07265208668746548,"171":-0.09460971625934024,"172":-0.05319324648361741,"173":-0.2357737583829585,"174":-0.09677970387329193,"175":-0.12241130817372917,"176":-0.2530821811445563,"177":-0.1654974654618123,"178":-0.06777407381107876,"179":-0.21509286570477568,"180":-0.1434954628955973,"181":0.35990456032935253,"182":-0.10945576104280906,"183":0.10427898993636896,"184":0.19385217829523826,"185":-0.09125277614336907,"186":-0.09673210997686264,"187":0.17484946185274525,"188":0.1611096462963374,"189":0.10898183157140928,"190":0.015412767377854273,"191":-0.09867427281947465,"192":0.08765625934860291,"193":-0.11331194717805888,"194":0.03088763705752364,"195":0.18830662404646048,"196":-0.13019869822449656,"197":0.033203713160553774,"198":-0.11514030191720784,"199":-0.04739474044279335,"200":0.1466637708635779,"201":-0.21019387742868828,"202":-0.07895436510074745,"203":0.1674627619457821,"204":-0.25697249256520616,"205":0.12642954201822523,"206":0.42068963037581353,"207":0.2324340717436232,"208":-0.002522839654502369,"209":0.14325311442729755,"210":-0.036922327519941005,"211":0.08161134935816013,"212":-0.11704748153206891,"213":0.01829822387647732,"214":0.050552523871018926,"215":0.07887960681659305,"216":-0.08778628094801146,"217":-0.1208389932875275,"218":0.10089142125654349,"219":0.03951446719278715,"220":-0.20055963429264043,"221":-0.07267535487534481,"222":-0.12530277334341766,"223":0.09769804048501109,"224":-0.12120972690710223,"225":0.1315873566154304,"226":0.15393444379488913,"227":0.05709584408353754,"228":-0.009264156720641377,"229":-0.2626043864017884,"230":0.570822678044367,"231":0.14868255816530504,"232":0.06823197002093301,"233":-0.1604654841627878,"234":-0.20982453308953203,"235":0.08207416279880386,"236":0.020312990757228925,"237":0.1406491896073131,"238":0.09894187039559324,"239":0.009177968103660245,"240":0.2043824051510367,"241":-0.07836530506540498,"242":0.12049454952868835,"243":-0.1142676760970401,"244":-0.07242256796952802,"245":0.08623176306300105,"246":-0.054938191966536536,"247":-0.10103220544781788,"248":0.06812307486719808,"249":0.09002788834296423,"250":0.02402594506029425,"251":-0.027875811412302262,"252":0.07142362343003764,"253":0.03838543573032245,"254":0.1880509092858228,"255":0.09086249879041104,"256":0.10775886432984491,"257":-0.018045599905226573,"258":0.2425723225938486,"259":-0.053922249673905735,"260":0.18909244489086616,"261":-0.1859187313250439,"262":-0.11835442119195681,"263":-0.22443416226881055,"264":0.02990734941364644,"265":-0.22413709751244013,"266":0.04560199419716276,"267":0.014820923028428246,"268":-0.16229154911960894,"269":-0.12312894868038014,"270":0.054204583237373864,"271":-0.22738145841452118,"272":-0.11278171888671672,"273":0.26877323147980214,"274":-0.046957834790122534,"275":-0.09393302255416415,"276":-0.06845145525100758,"277":-0.316403920039669,"278":-0.17601211960663196,"279":-0.20450261583905552,"280":-0.21069209447013917,"281":0.08823975991813734,"282":-0.20498923923989498,"283":-0.39429028669866695,"284":0.06500900227641278,"285":-0.034558354301341535,"286":-0.06071128951960736,"287":0.08392336302821315,"288":0.19267672517925732,"289":-0.14886137174712982,"290":0.015576375498332946,"291":-0.16805525892386872,"292":0.026209426731569285,"293":-0.39309911701776157,"294":-0.06867141442817183,"295":0.0999834275721585,"296":0.06303731342266952,"297":-0.15832313037562853,"298":-0.10417126265754727,"299":-0.3101120748782579,"300":-0.1536469372854335,"301":-0.1976255834221584,"302":0.06257301161181743,"303":0.10055885283130613,"304":-0.30851668244566094,"305":0.126284018594057,"306":-0.011733645961993071,"307":-0.04502437764199358,"308":-0.08204298439731604,"309":-0.2071694395088172,"310":-0.15844115215675014,"311":-0.16737112834435608,"312":0.1470638356682535,"313":0.12921145843412482,"314":-0.13943762380250008,"315":0.13587975490759208,"316":0.1065785066527332,"317":0.09945058378118161,"318":0.08465372913732756,"319":0.1413158584277942,"320":-0.24632671747230522,"321":-0.22068884480238837,"322":-0.08542244616279551,"323":-0.23837272050991717,"324":-0.15787630316290094,"325":-0.1657965948812759,"326":0.18929943304116037,"327":0.28184767443599246,"328":-0.11342495025847524,"329":-0.03738121430498741,"330":0.07665123214907556,"331":-0.032334461921392894,"332":0.0018897447492912574,"333":0.1414874804770617,"334":0.006158358318747388,"335":-0.08968854217673317,"336":0.03293371318313924,"337":0.13977649411797657,"338":-0.04168245183762685,"339":-0.1748909263356838,"340":0.10345371747096642,"341":-0.18573947704326552,"342":0.04883532736861871,"343":0.11145984605061955,"344":-0.2553347156057706,"345":-0.18519953924043636,"346":-0.02902875201319647,"347":-0.07731658176330186,"348":0.07167861162162951,"349":-0.23693518090393692,"350":0.23357454837576683,"351":-0.07564757764929543,"352":-0.024654727765467815,"353":0.2295032031885037,"354":-0.1707355309440401,"355":0.03005627011954201,"356":0.15434417030424297,"357":-0.053867547593951313,"358":0.22182753076601766,"359":0.20210196526468086,"360":0.0010706531395910162,"361":-0.2209623645005924,"362":0.1546876859826558,"363":-0.24959252966966394,"364":-0.0058294226281351965,"365":0.014009678350479933,"366":0.1128996677323571,"367":0.13528415944621117,"368":0.03684980911356156,"369":0.2305336962659271,"370":-0.13189517161933825,"371":0.26745904263308024,"372":0.08669558500555909,"373":-0.008683102111791012,"374":-0.20798016919603138,"375":0.027282434979455445,"376":-0.056274788017899195,"377":-0.08006744531576207,"378":-0.11955662184668964,"379":-0.013899488461176782,"380":-0.034689586207972765,"381":0.18646419959907734,"382":0.16416914546376332,"383":0.040330448558201976,"384":-0.029068216730804956,"385":0.11377940126277108,"386":-0.12166553387036715,"387":-0.07639024648383312,"388":-0.15349465170637805,"389":0.0879327571148923,"390":0.04496381192610724,"391":0.0497538661968616,"392":0.02839644829912039,"393":-0.02853241515308043,"394":-0.12079698617346456,"395":-0.06177290823462524,"396":-0.040502654913006114,"397":-0.025729371545872563,"398":-0.08533806588863646,"399":0.14821401212354735,"400":0.16433374058108863,"401":-0.060440429751684434,"402":-0.3311273499539135,"403":0.01576896806473038,"404":0.041533333264642924,"405":0.027603830787747752,"406":0.36229291007092856,"407":0.10976724018983412,"408":-0.006429490720152214,"409":0.14022631823557904,"410":-0.008712202657211406,"411":0.15512786748022345,"412":-0.02439093172989537,"413":-0.14615443050079366,"414":0.1166391188223633,"415":-0.14004312410988096,"416":-0.18854734626614508,"417":0.016735422769243863,"418":-0.1411207994628997,"419":-0.16410843709717884,"420":0.03718920720530191,"421":0.09502083357306018,"422":-0.2310237695959499,"423":-0.008721737232400727,"424":-0.05561206731314342,"425":-0.04890473449411948,"426":0.045638306739198914,"427":-0.23772426081929754,"428":0.042133431444728524,"429":0.3484483629392366,"430":0.12166998528655884,"431":0.367817868329684,"432":-0.17342731271652956,"433":0.021041419014050156,"434":-0.04514974005301381,"435":-0.018996814924968453,"436":-0.0406003970045797,"437":0.09675596858697494,"438":0.17403331588276583,"439":-0.018234739105883743,"440":-0.18812314801142407,"441":0.1604997224036461,"442":0.14374837167790339,"443":0.03071016012284725,"444":-0.027230546826741916,"445":0.026119268340327448,"446":-0.10312435585977736,"447":0.05754482149848606,"448":0.06453311868194894,"449":-0.046884404797275285,"450":0.11909366895032604,"451":-0.1405034107725445,"452":0.18920128027363203,"453":0.28172406816999374,"454":0.28862753152932447,"455":0.30173386717998385,"456":-0.1394591554782616,"457":0.15487242933472056,"458":0.060590552147683704,"459":-0.01721906506736569,"460":0.05591834908689001,"461":0.1594210666333623,"462":-0.19813573558987702,"463":-0.04045256860800667,"464":-0.023281389692972856,"465":0.13854229302988802,"466":-0.06928170696766398,"467":0.08948646332518641,"468":0.17182132890061685,"469":0.019033498596413075,"470":0.1518369670353825,"471":-0.06168389428713816,"472":0.19209636421610282,"473":0.03300552376795074,"474":0.19750827426345266,"475":-0.017822777331591825,"476":0.058580935340688464,"477":0.0916238731683688,"478":0.37546764418868184,"479":0.2699180326160916,"480":0.11324406878602741,"481":-0.10062817862281676,"482":0.20920410487479593,"483":-0.006200055272141547,"484":-0.002880544354085534,"485":-0.003451315882399931,"486":-0.12559670990682256,"487":-0.09104419256340936,"488":0.28321088710158143,"489":0.025058243645075546,"490":0.11409614059459802,"491":-0.028855677502992574,"492":0.26829789947934723,"493":0.05777250159511518,"494":0.16054520312380294,"495":0.05774992089981907,"496":-0.203991192208896,"497":0.12747466534337107,"498":0.17380306479777333,"499":-0.011379593267010959,"500":0.0961698251133727,"501":0.15868030055620544,"502":-0.13604766218135037,"503":0.2579689904509872,"504":0.05106204475724134,"505":-0.005259889451059741,"506":-0.05445109352527679,"507":-0.06873388326418141,"508":0.05815777777404587,"509":0.08640756015521787,"510":-0.06902938292962083,"511":0.18220776620915982,"512":0.17182770012099294,"513":0.1426707562929555,"514":-0.006097007445722208,"515":0.12108863765063345,"516":-0.031857620424476624,"517":-0.015765675862535817,"518":0.16338706710183598,"519":-0.13451588500334383,"520":0.06831157969879914,"521":-0.11940039777628327,"522":0.08739416519317486,"523":0.29814297403087525,"524":0.08627895263551935,"525":0.17006649957575082,"526":-0.14224896550818536,"527":-0.13075157076701308,"528":-0.2423194218724653,"529":-0.07240783563384916,"530":0.020157973009663682,"531":0.04766623020091708,"532":-0.16614409154763757,"533":0.013384725002627967,"534":0.10180458590762714,"535":0.20044217349863025,"536":0.3261264951680601,"537":0.2328347375819914,"538":0.016271070088024704,"539":0.3688204081915576,"540":0.1421873469796952,"541":0.32450599405582253,"542":0.2120661944459061,"543":-0.1353713310349489,"544":-0.1149749458762999,"545":-0.01474465807199766,"546":0.31386543745766854,"547":0.4016041141999042,"548":0.05393106368823083,"549":0.025869353072552944,"550":-0.21422716425089994,"551":-0.3411929516340713,"552":-0.24896549007661048,"553":-0.42689847430224714,"554":-0.15252256913920376,"555":-0.13837303431264955,"556":-0.046747912180437154,"557":-0.1821229374235194,"558":0.06611925138614672,"559":0.012208151016733367,"560":0.06571701281613801,"561":-0.10184866989815888,"562":-0.06885558508509779,"563":0.3155352333411343,"564":0.15539505007087404,"565":0.36712960639757675,"566":0.09575437099918381,"567":0.10116920556502541,"568":-0.18604257699468588,"569":-0.21662324510452097,"570":-0.07735751005629005,"571":0.023853963557335395,"572":-0.05622247153868343,"573":-0.19187393343172218,"574":-0.2929835736693269,"575":-0.6842308680141522}},"3":{"bias":0.03275521292707751,"weights":{"0":-0.18772739445564635,"1":-0.16132078712750209,"2":-0.05902177085738006,"3":-0.06566161914117351,"4":0.1433785990061822,"5":-0.03568119159914852,"6":-0.16636880624233877,"7":-0.09853996892247029,"8":0.2116264828639579,"9":-0.14032654732926136,"10":-0.05737300514256583,"11":-0.10258796977437534,"12":-0.21273794528452492,"13":-0.24152404781526673,"14":-0.23343666357867957,"15":-0.12359475954877698,"16":0.10198230796893773,"17":0.31265093617523665,"18":-0.07995143444301046,"19":0.21045500793561092,"20":-0.10763046239683512,"21":0.2698321131577141,"22":0.02842040746393285,"23":0.21135290548888114,"24":-0.05844997672057109,"25":-0.016312770422707935,"26":0.09289758135380065,"27":0.07055232137560237,"28":0.011871306027921648,"29":-0.045549319903985905,"30":-0.19368481306552848,"31":0.0023500947103082606,"32":0.04059788304082044,"33":0.013349220618461348,"34":-0.07874180439085937,"35":-0.2701170121671713,"36":-0.3968231948938588,"37":-0.07644518228661239,"38":-0.11857773250585536,"39":0.04381487577717674,"40":0.29435217423931265,"41":0.10007149923704016,"42":0.08321746085352222,"43":0.022749008772420934,"44":0.09267850626603318,"45":-0.01566496343479407,"46":0.15621339986526375,"47":0.07629094385202588,"48":-0.22347706373672788,"49":0.13838910214134498,"50":0.13319580699118802,"51":-0.13006488250715775,"52":-0.12424770593823672,"53":-0.13873424304205847,"54":0.1478261925354886,"55":-0.13917937766485086,"56":0.25236129463618073,"57":0.03424693047130382,"58":-0.016260069517198026,"59":-0.034700368526951325,"60":0.06761623831139649,"61":-0.044013342863853715,"62":-0.05290968529099344,"63":-0.09748292348921477,"64":0.12703397758686294,"65":0.04374411486783542,"66":-0.06395062241757177,"67":0.20181893679657228,"68":0.07460502529856063,"69":0.1684312029501309,"70":0.23717731827868319,"71":-0.016394503335062233,"72":0.05105076446654331,"73":-0.10828211362862757,"74":-0.13057683903228937,"75":-0.10497896540004527,"76":-0.027841433704338097,"77":0.11088684194517755,"78":-0.12114458169841284,"79":-0.04698182239659649,"80":-0.07523101208507263,"81":0.07481225501854773,"82":-0.05487130970535441,"83":0.058800133304092575,"84":-0.002766978001833814,"85":-0.1432665538166096,"86":0.0001349315839756105,"87":-0.10600843092897697,"88":-0.05026369441459194,"89":0.009675725249967874,"90":0.0012748403351483673,"91":-0.2651213865274932,"92":-0.014975879161471946,"93":0.020832708626069337,"94":-0.012967591281217168,"95":0.07775573532977884,"96":0.16117114231881075,"97":0.20852623410612564,"98":-0.08248932757574766,"99":-0.2209147610895576,"100":0.010709522363965397,"101":0.07904185130951186,"102":0.00882687785588727,"103":0.13210309038763038,"104":-0.16205816579280358,"105":-0.20911949451103204,"106":-0.25265104987857046,"107":0.0661071763730247,"108":0.17368514278291355,"109":-0.20287514567385923,"110":-0.10211186747476529,"111":-0.07347116084481017,"112":0.03850064434955794,"113":-0.2018165717363012,"114":-0.29893177388546904,"115":0.05930764580660975,"116":-0.1838773301076183,"117":0.11599799949951288,"118":0.23508317822375527,"119":-0.1165136007834962,"120":-0.09167359973412864,"121":0.06746154382102673,"122":0.0676348270396852,"123":-0.13282239858240188,"124":0.048843880485996555,"125":-0.13232746581575647,"126":0.07375035983677997,"127":0.14570645101346671,"128":-0.2062406249568037,"129":-0.09786834897312696,"130":-0.013544073369000936,"131":-0.11841970744535164,"132":0.3210096505397749,"133":0.015997413461412497,"134":-0.2555367013257747,"135":-0.15678599976161695,"136":-0.1033093798190104,"137":0.027351852968865012,"138":-0.04774364514336822,"139":-0.14169465245947202,"140":-0.16735382210600228,"141":-0.13195884125861132,"142":-0.010116710950661459,"143":-0.24923637498942083,"144":0.07143808438624075,"145":-0.0487920070257149,"146":-0.0024589309233542154,"147":0.10610601519880936,"148":0.046529430081955814,"149":-0.07559615279043093,"150":-0.01653174920157895,"151":0.18520463122898795,"152":-0.15672201351590825,"153":-0.09288936259932144,"154":0.15540214321410056,"155":0.18041907091923545,"156":0.29800728236217633,"157":0.16651527126613577,"158":0.013233618231775627,"159":0.202124533940676,"160":-0.015324081171635322,"161":-0.014636163224593478,"162":0.11790665843514674,"163":0.044801809706902354,"164":0.13381073463697493,"165":0.15362465616733967,"166":-0.19837050222840508,"167":-0.15649708831732576,"168":-0.16352714785738517,"169":-0.07006432381244364,"170":-0.11759232225200913,"171":-0.19427329551691871,"172":-0.02313722528393519,"173":-0.020972910863611322,"174":-0.0404155792302666,"175":0.05449687719228581,"176":-0.13535381686211434,"177":0.017535497337970316,"178":-0.12401564247245998,"179":-0.11776214747314265,"180":0.11013473622560685,"181":0.23959363990623525,"182":0.2366486381481328,"183":-0.136523421795656,"184":-0.05478959520189135,"185":0.15103805021467226,"186":0.19324510862811045,"187":0.03543214625061877,"188":-0.01972766129332029,"189":-0.023032464801563627,"190":-0.26148736637250797,"191":-0.35521377577147256,"192":0.07467706247669753,"193":-0.12786638549737062,"194":-0.2956080996008173,"195":0.08559432501151366,"196":-0.1514979442804083,"197":0.05123819411620717,"198":0.1613900805752602,"199":0.3349361589238885,"200":-0.20351725201395152,"201":0.2864769081390201,"202":-0.13494132873450487,"203":-0.23537472699134254,"204":-0.16319210669557896,"205":0.11910720971423208,"206":0.1706959135299915,"207":-0.008246021757144253,"208":0.05108732332712544,"209":-0.14413674002113114,"210":0.06029649277397018,"211":-0.07842949198591691,"212":-0.06678991698212196,"213":-0.032461684559840706,"214":-0.216830856862055,"215":0.0200661955248085,"216":-0.1311593656214454,"217":0.07783526875396106,"218":0.062274295077111845,"219":0.02015394426982721,"220":-0.14783189004444178,"221":0.07626574293241498,"222":0.24617105492745625,"223":0.19339889112159792,"224":0.190083609253767,"225":0.25987391133510995,"226":-0.1527511311841718,"227":0.0136526185391975,"228":-0.07216526900707537,"229":-0.08504335246275481,"230":0.17771927517226935,"231":0.06360470479872102,"232":0.15998160883133844,"233":0.16620557036753858,"234":0.0923969766749276,"235":-0.03543467529187952,"236":-0.05132296837815342,"237":-0.06755931322037909,"238":-0.15652316582461284,"239":-0.2265536895462657,"240":-0.004020589536138244,"241":0.1671101714461851,"242":0.02691138588213349,"243":-0.050573829564081345,"244":0.16671956486393502,"245":0.15446484594340912,"246":0.17160982332554478,"247":0.21432376336526707,"248":0.36495774438221,"249":-0.03417757584423404,"250":-0.08711091737209829,"251":0.1326344940061091,"252":-0.027347273672617124,"253":0.12948231896888307,"254":0.1273487453283837,"255":0.15107856694353825,"256":0.20460829198225294,"257":-0.1449621929710395,"258":0.05652001755449096,"259":0.05556643307050004,"260":-0.06002651556067826,"261":-0.12485194404569802,"262":-0.00887364741794294,"263":-0.12132379591676547,"264":0.2234238045467702,"265":0.11246285111106372,"266":-0.04058327207037994,"267":0.11124251451949063,"268":-0.03230899391077707,"269":0.08321746309821215,"270":-0.23496014202447468,"271":-0.10995255798617445,"272":0.0376636558729779,"273":-0.03592029401587606,"274":-0.14535434042907974,"275":0.054887481510311635,"276":0.05110501194438208,"277":-0.05585212599875529,"278":0.14145994527039052,"279":0.31279067015921874,"280":0.23314546126657212,"281":0.11973316753203186,"282":0.16343480534597438,"283":-0.04522402063630967,"284":0.2389485711705923,"285":-0.16175301100101264,"286":-0.26609524287780945,"287":-0.14551691771037475,"288":0.09641197437499903,"289":0.19989178039689817,"290":0.09462907686720816,"291":0.13683951053553647,"292":0.059155198860101295,"293":-0.014214868862720484,"294":0.09674655052379902,"295":-0.0432439276686763,"296":0.2247015828778423,"297":0.061719780503780276,"298":-0.04921182177473831,"299":-0.21850995809711649,"300":-0.10010682168998881,"301":-0.013284118085174466,"302":-0.028468887023415646,"303":0.2704468626531758,"304":0.2669516412676888,"305":0.2121094980439004,"306":0.17709925989360756,"307":0.05127623019798369,"308":0.24886810203128487,"309":0.027699369938186436,"310":-0.2664822271739038,"311":-0.08238517073123129,"312":0.019399761521824325,"313":0.03248156570645307,"314":-0.09889763863905242,"315":0.17517814275268176,"316":0.01497070547045172,"317":0.06962546067073844,"318":-0.2518362712875612,"319":-0.036884788076417756,"320":0.07852494218719097,"321":-0.11896245403227507,"322":-0.2606844217320417,"323":-0.04177743346306619,"324":0.06560902513822267,"325":-0.025091922740845086,"326":-0.20109759169231795,"327":0.24505777860286132,"328":0.17119918901476608,"329":0.20117661059901862,"330":0.005928976825146597,"331":0.2187886082226153,"332":0.13589694413153086,"333":0.1388533622605844,"334":-0.13217417774686888,"335":-0.1379423357414346,"336":0.12189607445190039,"337":0.049252596709109836,"338":0.21928785968436962,"339":-0.03153710464242967,"340":-0.06246856965386272,"341":0.0409939878546628,"342":-0.15709479719987499,"343":-0.1594369975651599,"344":0.10545037741335125,"345":0.16071117489926262,"346":0.04758606492064299,"347":0.09887542657533942,"348":0.16383130375735167,"349":-0.2434818014034345,"350":-0.19453192262914643,"351":-0.08801727454145197,"352":0.17724629800985764,"353":0.1182618659954092,"354":-0.18621134633903857,"355":0.01802029405755454,"356":0.06627411139431433,"357":-0.14249996753276012,"358":-0.0018774345438787171,"359":-0.08170097787998064,"360":0.1797590347868325,"361":-0.06599995629629889,"362":0.15786003638685736,"363":0.2687231766847419,"364":-0.06974601828849376,"365":-0.04845945514906161,"366":0.14576256598958312,"367":0.15939030897111217,"368":0.09783682774886544,"369":-0.08315264526796051,"370":-0.20886173419591353,"371":-0.14266894411409886,"372":0.09036888979752278,"373":0.06761065574634997,"374":-0.24973195017111716,"375":-0.125098028566821,"376":-0.250253355384957,"377":-0.06865393881640282,"378":-0.25838918339856437,"379":-0.31300499061816545,"380":-0.08769968928099542,"381":-0.1621120467268523,"382":-0.04697951715302584,"383":-0.010588602010423897,"384":-0.11276346665972652,"385":0.15512603486299356,"386":0.15723081960437643,"387":-0.014473471228045195,"388":0.12429802491010787,"389":0.06740311956941461,"390":0.08288803524326607,"391":0.14956617478258052,"392":0.01293706046658646,"393":0.12110830391767739,"394":0.13550504402922692,"395":-0.046326730349760085,"396":0.20371010084222324,"397":0.06135077033712307,"398":-0.14137023823086786,"399":-0.03962521834018936,"400":-0.2328064361848791,"401":-0.3674337079246219,"402":-0.01739003161086842,"403":-0.44690715002760373,"404":-0.2051422707322249,"405":-0.12439034920561458,"406":0.10407708661640003,"407":-0.21645424160232332,"408":0.1559021297259134,"409":-0.08154033759463165,"410":0.25468662605933906,"411":0.0926193553399099,"412":0.12019735796229686,"413":0.22608147301852435,"414":-0.08155561942500454,"415":0.21862930515281728,"416":0.15677041285067603,"417":0.24918085125576953,"418":0.10172103597649523,"419":0.18743385658105308,"420":0.06126952711862512,"421":0.3187657613805985,"422":-0.05719768513737375,"423":0.03818203609457399,"424":-0.16996044828789555,"425":0.005209741283914812,"426":-0.2797526121070598,"427":-0.29241094880669977,"428":-0.20368329910865848,"429":0.03612204510250932,"430":-0.12929472876451487,"431":0.19777838031068024,"432":0.03957621547339174,"433":0.21722889963501746,"434":0.10785793836372996,"435":0.12987601548264446,"436":-0.07705768760808106,"437":0.20810712981213958,"438":-0.09899544233868059,"439":0.24114271154234737,"440":-0.03734565316949863,"441":0.32189990348219966,"442":0.44864558419152617,"443":0.18995396072254628,"444":0.17260657338430474,"445":0.3226705962723376,"446":-0.088859423453641,"447":-0.02865521483730648,"448":-0.2393964463321863,"449":-0.23467225368557879,"450":-0.14951658361082185,"451":0.017899025727687323,"452":0.06204662463469727,"453":0.1824897824710032,"454":0.028782177149593097,"455":0.07797426587663155,"456":0.04453750205275839,"457":-0.026401051001566665,"458":-0.078059668761957,"459":0.06901110443350837,"460":0.1897239052843832,"461":0.06593492814768563,"462":-0.25384107882207285,"463":-0.15968017146091773,"464":-0.2052000036043788,"465":-0.09372231553134655,"466":-0.15092928096198158,"467":0.20243397120464932,"468":0.22718415843533163,"469":-0.0493921984983004,"470":-0.1255005130725605,"471":-0.1174676166367068,"472":-0.33097463973864144,"473":-0.1882375334323852,"474":-0.020045675810404995,"475":0.1237340942643475,"476":0.025463943685140777,"477":-0.004854751725078833,"478":-0.0057231818720594,"479":0.30877647570610806,"480":0.21799898774884888,"481":-0.006090463968788702,"482":-0.10930735581538308,"483":0.008320935208334785,"484":0.1048320647807947,"485":0.23208282872239447,"486":-0.21827827058663804,"487":0.04158539271746103,"488":-0.05383547449357799,"489":-0.060985614591203635,"490":0.08589190477625894,"491":0.038010849664304576,"492":-0.1680916866981832,"493":0.19777841440280455,"494":-0.1880947053872904,"495":-0.3684670873312133,"496":-0.19080100377112444,"497":-0.1075775689094314,"498":-0.041063415430587544,"499":0.010124487684965985,"500":-0.1119932460810059,"501":-0.3010476680106565,"502":0.1999950930622096,"503":0.1242493372952532,"504":-0.03001327977784603,"505":0.1619685108961113,"506":-0.18467183085950684,"507":0.18427230154989982,"508":0.14375653022656965,"509":0.15482403948608112,"510":-0.014987026060820094,"511":-0.18518635819175905,"512":-0.024218968575430672,"513":-0.08983791716456367,"514":-0.020828395651562116,"515":0.13758106768815315,"516":-0.02509470843770673,"517":0.1344964720747868,"518":0.18193020350153566,"519":0.012472499165954228,"520":-0.06315132781094399,"521":-0.2960059132297502,"522":-0.279879091043438,"523":0.2937644678405141,"524":-0.01001484533324077,"525":-0.10747987058651624,"526":0.09296376916001113,"527":0.19088671599571197,"528":-0.0470456964307894,"529":0.10376188377799427,"530":0.0032939513447138124,"531":-0.2508863153054501,"532":0.10724716950810328,"533":-0.14146044074255232,"534":-0.18296816239929406,"535":0.06906723390269676,"536":-0.017757875524999907,"537":-0.04846987433232207,"538":-0.09918333534120037,"539":0.1937714491565541,"540":0.000581345006984862,"541":0.19924654247375628,"542":0.13329093498935,"543":-0.1623114837324661,"544":0.02759598014608437,"545":0.09667840618097658,"546":0.05362519506833972,"547":-0.15523456946881273,"548":0.20242968004760523,"549":-0.18100697593137557,"550":-0.18026916091186296,"551":-0.14137655135352906,"552":-0.25588138560659957,"553":-0.05258399137697677,"554":-0.07943072331921301,"555":-0.035804131689609234,"556":0.1568571061586432,"557":-0.17550745667274514,"558":-0.05708472461026422,"559":0.08331564696533639,"560":0.16611903037306905,"561":-0.18607260530266967,"562":0.3310511748779931,"563":0.4159733278349564,"564":0.18411254927522783,"565":0.3500376166069288,"566":0.03147454194244268,"567":-0.1459250573110054,"568":0.14485554533520772,"569":0.21322198960006322,"570":0.13773669602210953,"571":0.1091855186310739,"572":-0.14394284448923542,"573":-0.05531313903828854,"574":-0.015960096743574376,"575":0.14673434757447784}},"4":{"bias":-0.028694641102551086,"weights":{"0":-0.2838919784195889,"1":-0.2542740801528608,"2":-0.23894170803893183,"3":-0.016110496715456474,"4":-0.0687084152528224,"5":-0.029767366890040392,"6":-0.0846583781735719,"7":0.03747671463827916,"8":-0.132943946183773,"9":-0.1788548553118674,"10":-0.030483205827443762,"11":0.08114242436904774,"12":-0.02823372928515078,"13":0.06305440388114059,"14":0.049081850598484765,"15":0.14586079610604624,"16":0.11374837827413134,"17":0.1358423634438952,"18":0.19266324092723305,"19":-0.08557280955392502,"20":-0.038239910376805304,"21":-0.6328549844420289,"22":-0.4421860243508288,"23":-0.0665770326974551,"24":0.11384389666168448,"25":0.362651194996886,"26":0.05090213583272657,"27":-0.1513333450679708,"28":-0.0014595373770899314,"29":0.06453920616113135,"30":-0.11795095919371938,"31":0.06015979396130617,"32":0.15029743387769096,"33":0.021766709818894468,"34":-0.03208352676718431,"35":-0.08530500068547309,"36":-0.12095390681295679,"37":-0.1594766075817525,"38":-0.20466299561509,"39":0.11518635747535379,"40":-0.10922113221724675,"41":-0.12504446003582304,"42":0.09725251396719913,"43":0.021473270580149223,"44":-0.2548129137188199,"45":0.011894518848832842,"46":-0.224815603032461,"47":0.05461870997274749,"48":0.032524635063086275,"49":-0.10494050251829214,"50":-0.3374534010337599,"51":-0.05189595548280554,"52":-0.18099075050098695,"53":0.006565433591336322,"54":0.2113843609210406,"55":-0.13310875469576267,"56":0.082273840112672,"57":-0.03466562743218843,"58":0.14387481385418605,"59":-0.10461485479682604,"60":-0.09274245311312213,"61":-0.20344579463444373,"62":0.0321356663225584,"63":-0.10413281802656399,"64":0.029610337054785944,"65":-0.06095635728752265,"66":0.056731550270542226,"67":0.17081648896477225,"68":-0.09103042503618156,"69":-0.26887527623169677,"70":-0.054273153838144114,"71":-0.04939339959598025,"72":-0.16961715671921046,"73":0.11005666682531166,"74":0.18379312582883683,"75":-0.13477280764774371,"76":-0.08684359938582904,"77":0.16723751776411486,"78":0.09697406110938786,"79":0.055946489150329654,"80":0.05144797730498888,"81":-0.0670637165088266,"82":0.15984652108326344,"83":-0.1514880611649902,"84":0.09633757928839445,"85":-0.12761197539771,"86":0.2589347255761048,"87":0.02652699325961,"88":0.10666613129881322,"89":0.0718729241672608,"90":0.11703274420333676,"91":0.22210001545974367,"92":0.11854578059151707,"93":-0.18098584290057101,"94":-0.11403804123319702,"95":-0.16880267554212924,"96":-0.10740008673864287,"97":-0.06955071293217938,"98":0.04385363324250049,"99":0.24723306034973228,"100":0.21213463035783742,"101":0.1695283129804479,"102":0.028138864963389593,"103":0.29738637129605333,"104":0.0777276066354672,"105":0.16092080773238987,"106":0.14738061624075469,"107":0.14613117464548234,"108":-0.27261062315751833,"109":0.05838690650847141,"110":-0.14832950328136718,"111":0.03573653052057032,"112":0.15054265733397332,"113":0.1421205365048016,"114":0.2863133718336145,"115":0.003538128209501111,"116":0.01644209310905012,"117":-0.11059347182149391,"118":-0.09323432393521221,"119":-0.31675364893812613,"120":-0.1410016675196239,"121":0.005119686345517518,"122":0.07605254651350969,"123":-0.2090321650527037,"124":0.16071226978328348,"125":0.22508544799796346,"126":0.09795735567182215,"127":0.33334921285321306,"128":0.056262099678338444,"129":-0.016068438362819983,"130":0.009353503262987544,"131":-0.2245017223687147,"132":-0.024158597296616482,"133":-0.07223627687967665,"134":0.08162994790526247,"135":-0.0172738192013819,"136":-0.19038372482198415,"137":0.1760754997622661,"138":0.25855982752020734,"139":0.24048301015361737,"140":-0.1637242401046706,"141":-0.05826987552629143,"142":-0.0006314742027539652,"143":-0.18001348435007705,"144":-0.11358521615566486,"145":0.05679222806522128,"146":0.29412157517305115,"147":0.12843880105926972,"148":-0.11163127491248488,"149":0.11387286442221617,"150":0.21062225601087714,"151":0.37216657890663607,"152":0.2891025652556111,"153":-0.11940729926606017,"154":-0.23389109448726683,"155":-0.07832411425429965,"156":-0.0019195138749553578,"157":-0.2873914844832127,"158":-0.12370719384226875,"159":-0.17290798938082097,"160":-0.14225390842484995,"161":-0.040861346868010746,"162":0.26960226761972406,"163":0.016748959004695033,"164":-0.09367897375928792,"165":-0.07462671276451836,"166":-0.05149357714677654,"167":-0.03554546429907767,"168":0.03765694597643123,"169":-0.05653048573954331,"170":0.08507531437429568,"171":0.05000364272922995,"172":0.1327261317486687,"173":0.09790495387286335,"174":0.19625998975839892,"175":0.060641076553653576,"176":0.16323563729216814,"177":0.015735138130275557,"178":0.14230465554568147,"179":-0.05691829521537247,"180":-0.20220061590387262,"181":-0.15566809382106744,"182":0.049251757268563366,"183":-0.1634172034366957,"184":0.12300656078145841,"185":-0.0008001758680965996,"186":-0.15415584512793626,"187":0.08645238306815707,"188":-0.24136382714286378,"189":0.10611711269412674,"190":0.043962567762184476,"191":-0.09773832368044535,"192":-0.19514122167870682,"193":0.11632191163402555,"194":-0.11237936775866382,"195":-0.03205740094781934,"196":-0.04944433165417685,"197":-0.20873241152233252,"198":-0.07789379392078327,"199":0.2476192541985977,"200":-0.08853124665322759,"201":-0.1692270766033239,"202":-0.18657127716383667,"203":-0.19556383108568612,"204":0.14523674677610052,"205":-0.034551208214251096,"206":0.12399276779586625,"207":-0.03846430517930331,"208":0.17528089983421066,"209":-0.0044988242846796785,"210":-0.12216127385459699,"211":0.11675819323659481,"212":-0.08475055668481489,"213":-0.05427624009608627,"214":0.13147304821495204,"215":0.09530648488813892,"216":-0.18367780650167687,"217":0.18261129674879514,"218":0.0773493749612677,"219":0.11773152975650476,"220":-0.06334120131961227,"221":-0.12179177426572112,"222":-0.10932014188115687,"223":0.27130465167093676,"224":0.18667923071761905,"225":0.09865593391049078,"226":-0.18723421307985702,"227":-0.11801110386803056,"228":-0.05330653975136027,"229":-0.07481593587894872,"230":0.054136027675810654,"231":0.24446844049080138,"232":0.18234803159130603,"233":-0.1606103498908359,"234":-0.24384945709163505,"235":0.09426275113844731,"236":0.11631486994652458,"237":-0.01633195766482791,"238":-0.021882496829582005,"239":0.1592156324103644,"240":-0.11837999012673284,"241":0.26325981972346874,"242":0.010285743808043323,"243":-0.01743823275464785,"244":0.07974601974243309,"245":-0.09962762866866973,"246":0.18350471048683895,"247":-0.17000496946622637,"248":0.11104943061258751,"249":-0.2859657725554783,"250":-0.2237768517984025,"251":0.0859423979379717,"252":-0.06551010121993263,"253":0.024981411893651165,"254":0.06788281601857445,"255":0.1742914814298302,"256":0.06761104162305055,"257":-0.1239220892243409,"258":-0.055568095959355024,"259":-0.12866094709226947,"260":-0.21793028617127017,"261":0.0711108407365516,"262":-0.08549158403365471,"263":0.25102360385156175,"264":-0.002615873405041891,"265":-0.0037506886643451764,"266":-0.11249747272999554,"267":-0.09528928049587565,"268":0.04257579772085292,"269":0.07596063410071427,"270":-0.21852959025155483,"271":-0.03685304875109922,"272":-0.16187196991920602,"273":-0.09172543511973463,"274":0.24111429339992224,"275":0.06303906572917126,"276":-0.10295945311361943,"277":0.14302410463541462,"278":-0.011837524788624057,"279":-0.2076119803716307,"280":-0.26436722156809794,"281":0.1016658320794693,"282":-0.14779130719315212,"283":0.16083921252661937,"284":-0.29797528580651866,"285":0.03474342184945196,"286":0.2097034163167075,"287":0.23493884218857106,"288":-0.06939668364051166,"289":-0.03917036740637171,"290":0.07929224895237387,"291":0.23512387082277056,"292":-0.09727282616666415,"293":0.03716858809017346,"294":-0.03208348990020305,"295":-0.17987338948301562,"296":-0.1330439249759559,"297":-0.1276583114405213,"298":0.007379006527009253,"299":-0.09482761856387883,"300":0.04757101874744323,"301":0.10037604186609467,"302":-0.17121729955219459,"303":-0.1668943251625451,"304":-0.07151807243108428,"305":0.08769766319739009,"306":0.15797300114953272,"307":-0.04890100591445585,"308":0.22961878059141766,"309":0.10995412064000813,"310":-0.013209886527069559,"311":0.11514372715345995,"312":0.25440163562941154,"313":-0.03473195597597794,"314":0.08608524145686174,"315":0.002966282666692539,"316":0.17932487425350507,"317":-0.13889141764541088,"318":0.043338471980144205,"319":-0.1112421088151343,"320":0.0452215972665872,"321":0.0598527795518096,"322":0.16558154263188454,"323":0.03443788023156033,"324":-0.05773330232861616,"325":-0.028517797536646367,"326":0.14652608770110204,"327":-0.1605923909358974,"328":-0.015740268805905757,"329":-0.11017368035166468,"330":-0.03219666271002769,"331":-0.04783925286843672,"332":-0.042031975982383285,"333":0.12789166507955374,"334":0.012957130519708064,"335":0.10055329238219991,"336":0.16949461468937704,"337":0.0875913563225444,"338":0.06056162555247251,"339":0.20782631268199733,"340":-0.08182046788701774,"341":0.04793710511631564,"342":-0.049373498715235976,"343":-0.07037687822775332,"344":0.1514595796597567,"345":0.19362218082366867,"346":0.1819078876136964,"347":-0.09179171341946016,"348":0.09466238025361616,"349":-0.17874527118184266,"350":-0.04334829632471148,"351":0.06198718299594427,"352":0.04728481180279752,"353":-0.15584597765168856,"354":-0.3295953035177663,"355":0.0550919567138287,"356":0.15157378629118984,"357":0.1696680361784645,"358":0.19741799614994035,"359":0.40386379594557864,"360":0.030466016698512007,"361":0.27034980650718365,"362":0.15216294842189057,"363":-0.1317279296417588,"364":0.18010143120234684,"365":0.1494467373203179,"366":0.21886259004930042,"367":0.10113983583679241,"368":-0.05302262938496662,"369":0.48515343022420226,"370":0.2241770068223591,"371":0.061098201468529796,"372":-0.05328857301023467,"373":-0.003586645813749549,"374":0.10059778304656157,"375":-0.14120674785573714,"376":0.061264905950993466,"377":-0.10245817927108304,"378":-0.1432249863952165,"379":-0.16690072689463342,"380":0.14360840443583395,"381":-0.21628570543314457,"382":0.22823515757210275,"383":0.11315445041370632,"384":0.046718300340365886,"385":-0.03702004738088487,"386":0.05720778532725694,"387":-0.11332296414681155,"388":-0.018636583551212067,"389":0.15614160189683576,"390":0.21588924238120027,"391":0.21517072581764232,"392":0.16906972741750131,"393":0.2677264552919666,"394":0.3710656844285263,"395":-0.07724587246864395,"396":0.10237006814856814,"397":0.16873870207308944,"398":0.018387876286952886,"399":-0.07369506640900074,"400":-0.03415690568166408,"401":-0.2193993309041586,"402":-0.16751106186307554,"403":-0.0804431172415612,"404":-0.24415867047280812,"405":-0.15938335538557868,"406":-0.11152622512041839,"407":-0.0020663114671638106,"408":-0.09130805945119766,"409":0.06133018258840088,"410":-0.058374718995638154,"411":-0.17701453118281216,"412":-0.17234061337382744,"413":0.24944318218994485,"414":-0.12222015044832363,"415":0.12053987640713172,"416":0.009387726297400248,"417":0.2052702878804371,"418":0.14420498034450602,"419":-0.1179586682180455,"420":-0.04476367281138957,"421":-0.09129039815240163,"422":0.11838982005662728,"423":-0.3146324826376676,"424":-0.3894185104875868,"425":-0.19601702954916497,"426":-0.22591868913722707,"427":0.10824306314011804,"428":-0.23364365797635206,"429":-0.3160894160580658,"430":-0.11074057204475089,"431":-0.07040968241654733,"432":0.3393348436104782,"433":0.144965568420498,"434":-0.048503251115810005,"435":0.10616479509124711,"436":-0.09293407465564608,"437":-0.05347268024559114,"438":0.014322415849053164,"439":0.21241231713187986,"440":0.11393999234257175,"441":0.11987184510062183,"442":-0.1137145680171073,"443":-0.1552339342718115,"444":0.036810501426459405,"445":-0.21416732332947033,"446":-0.26078391404191414,"447":-0.2965776206285744,"448":-0.5180603552595264,"449":-0.3363947967856846,"450":-0.051006596705324175,"451":-0.22484206327420292,"452":-0.0595254835873197,"453":-0.11501938267849574,"454":0.047391779856630144,"455":0.08058654447385544,"456":0.08342014715756459,"457":-0.07273900756152384,"458":-0.16852993923814416,"459":0.08684385356901209,"460":-0.13160858570733133,"461":0.06241365476042579,"462":-0.1376770559061945,"463":-0.05097877190347,"464":-0.1204568734650798,"465":0.12567131919745853,"466":-0.07604679573033821,"467":-0.0865097364757916,"468":-0.2788925623493829,"469":-0.18829170186868402,"470":-0.28962318405636217,"471":-0.008689387468449767,"472":-0.1925867653594841,"473":-0.3831216836435606,"474":-0.2636827510301301,"475":-0.00994906988754807,"476":-0.33501685868110204,"477":-0.11643291297029185,"478":0.090007425523704,"479":0.155204100301621,"480":-0.03909612670972778,"481":0.009007423812936056,"482":0.0046597218987441975,"483":0.04389861086949391,"484":0.07756679957954384,"485":0.03416654903242153,"486":-0.07621502145081381,"487":0.05535409906856438,"488":0.06804498880855975,"489":0.04422855865369732,"490":-0.10949401674757493,"491":-0.0830131281554657,"492":-0.31220323393696997,"493":-0.22546048400605032,"494":-0.08636577067481195,"495":0.016721161038018188,"496":-0.02110232827977865,"497":-0.2400208355513594,"498":-0.16389878510579634,"499":-0.21334733470038125,"500":-0.14756788667640905,"501":-0.18012869241843607,"502":0.13693776849036549,"503":0.13373277955278132,"504":-0.01142536211411559,"505":0.009362514288004864,"506":0.08262946526651709,"507":0.1829980314228941,"508":0.19981718886469202,"509":0.1590390034122157,"510":-0.19712652457971974,"511":-0.17238242171554638,"512":0.2026931609097526,"513":-0.1357576157701239,"514":-0.06574143503338625,"515":0.1775816729517413,"516":0.11736942655081727,"517":-0.054321167224447894,"518":-0.05324238392772699,"519":-0.03595624214989313,"520":-0.15571363820511797,"521":-0.5570904305791529,"522":-0.2585192863558364,"523":-0.02618570232442071,"524":-0.2283842576492598,"525":-0.09780822865232393,"526":0.12478000429888488,"527":0.020190459334919815,"528":-0.12298170282453044,"529":0.10321864995800395,"530":0.061974894237660075,"531":0.35425666008957973,"532":0.058642612681822893,"533":-0.012866262526418697,"534":0.11319894636446642,"535":0.04198991969060068,"536":-0.062316751714702585,"537":0.10617541265629518,"538":0.16728551860256746,"539":-0.07591590693332978,"540":0.1075708568407684,"541":-0.038744371133415625,"542":-0.10893795425903798,"543":-0.13042223085549,"544":0.05167743886972166,"545":-0.18767128875147276,"546":-0.32446824801887103,"547":-0.20838972623509094,"548":-0.25837991817798595,"549":-0.08224028859029178,"550":-0.025660791071521992,"551":-0.04765155936785316,"552":-0.22990778080681984,"553":0.40725928310655535,"554":0.08475302693354579,"555":0.015740362002201247,"556":0.2149423316782297,"557":0.3080230081596074,"558":0.07313224204411174,"559":0.05912387950034911,"560":-0.10872024423738552,"561":0.0729032330689479,"562":-0.1421451403933291,"563":-0.07674471184127342,"564":0.17186395470379187,"565":0.25775101691346247,"566":0.13755676380983525,"567":-0.2071229638081867,"568":-0.14686263148509712,"569":-0.1092969625307191,"570":0.07676406955774508,"571":-0.00320941565247549,"572":-0.06568201914638624,"573":-0.308050196793213,"574":-0.260861498775203,"575":-0.22717376951200435}},"5":{"bias":-0.11071597062362412,"weights":{"0":0.21938218730635425,"1":-0.20434688396125805,"2":-0.058094958403486385,"3":-0.10044460342582898,"4":-0.03402603088168436,"5":-0.1316744656903154,"6":-0.2450561434521139,"7":-0.21277871598495046,"8":0.14223082742726148,"9":0.10328751797338362,"10":0.05300613336024251,"11":0.048831584622310235,"12":-0.22919113613557582,"13":-0.44723573322136295,"14":0.24505613993960754,"15":0.0837573494809332,"16":0.13464140698431779,"17":0.28305860548670886,"18":0.12241697003758098,"19":0.030734217712350798,"20":-0.12913500378087187,"21":-0.2202310377396793,"22":-0.16982035026467907,"23":0.18913168788030266,"24":-0.020173605628983318,"25":-0.06656647001774252,"26":0.018969380857466626,"27":0.04608783622313355,"28":0.08965765495569654,"29":0.09138743234400423,"30":0.0993380882226753,"31":-0.14553797478618904,"32":0.15946735741906926,"33":0.17595337366732847,"34":0.2930612066789716,"35":0.16453662973511082,"36":0.19090645409978124,"37":-0.261598928568609,"38":0.04722819971608066,"39":0.5663203188936402,"40":0.2569724661733926,"41":0.08243396961910379,"42":-0.12074536161414101,"43":0.06814186622170351,"44":0.024577604262138224,"45":0.2293914879479762,"46":-0.07231784814776109,"47":0.07948151120698561,"48":-0.2567562336741548,"49":-0.10216321721098821,"50":-0.42084564532553803,"51":0.1354751909449352,"52":-0.13123482401768413,"53":0.2347405322770276,"54":0.17740645282968828,"55":0.0417166775991804,"56":-0.12787061165285943,"57":-0.07128364209975416,"58":-0.027420743492683974,"59":0.2978469950094308,"60":0.20876359371044204,"61":0.16565678015865273,"62":0.5322983822013809,"63":0.15589298210412317,"64":0.34973155784331006,"65":0.32101181343772783,"66":-0.15350390933445818,"67":-0.08829371316214082,"68":-0.2355843744377913,"69":0.2723993467982571,"70":0.04033176031930865,"71":0.07828021313102235,"72":0.19446251665095818,"73":-0.012435707501491622,"74":0.25743963602748404,"75":-0.023595775015768653,"76":0.3419804674060362,"77":0.1051069686860098,"78":0.24866373434806466,"79":0.16267966264028685,"80":0.31368137356011255,"81":0.05159240173134526,"82":0.3201016920588556,"83":-0.07755945512298139,"84":-0.10367375753155479,"85":0.06664885796873884,"86":0.21350036332646136,"87":0.35170507798098205,"88":0.117719088060684,"89":-0.40835908357045486,"90":0.11100451674743016,"91":0.21420735013856124,"92":0.07358663398856745,"93":-0.36409082086350786,"94":-0.09099073138947678,"95":-0.059031441695218886,"96":0.14344829461630962,"97":0.11467086378732008,"98":0.06087638308002032,"99":0.09844260435269774,"100":-0.07996594846166355,"101":0.3759193752203321,"102":0.3177495566012214,"103":0.2993132037383902,"104":0.48630694711919065,"105":-0.07327895917762661,"106":-0.08159774482987632,"107":0.2716782068943663,"108":-0.007690096155508986,"109":-0.04910232309775658,"110":0.0015426659292294964,"111":0.1559811353461179,"112":0.3223172719530992,"113":-0.2633541407361314,"114":-0.226738200952895,"115":-0.12976252416575332,"116":0.04459126164239255,"117":-0.3022964009072509,"118":-0.08318199170519662,"119":0.07222150336179003,"120":0.059790447558008046,"121":0.28254805606536554,"122":0.015661248249679394,"123":-0.1514765079497803,"124":0.029362178212716323,"125":-0.023974425079974,"126":0.47925223291637964,"127":0.05140109716934167,"128":0.2684710933345342,"129":-0.024113948688182944,"130":-0.23000195598376236,"131":-0.045961183965915725,"132":0.1550118098626673,"133":-0.04272253243310334,"134":0.0392323482159063,"135":0.16239073178447794,"136":-0.039913675349505635,"137":0.008898548065677856,"138":-0.13510948069858567,"139":-0.02222575026908256,"140":-0.09896329545217442,"141":-0.10049060640830232,"142":0.029631012855621378,"143":0.07048133882930097,"144":-0.14313309801461596,"145":0.14024118071831027,"146":0.16791947241388505,"147":0.008123480568567047,"148":-0.19235934746017797,"149":0.12085423059353673,"150":0.002699139940473373,"151":-0.025160238764478614,"152":0.002263621937600758,"153":0.15114278023192854,"154":-0.09558325138601,"155":0.03820932855248905,"156":0.1401035301993146,"157":0.2249950845510451,"158":0.14613597756124083,"159":0.07697430328622046,"160":0.2556133105342726,"161":-0.2901231072186508,"162":-0.3882819047444218,"163":-0.07809483556959065,"164":-0.25042870895157915,"165":-0.1436764516929679,"166":-0.20694187612284293,"167":-0.03961201260035158,"168":0.0958172406677402,"169":-0.006744184305641336,"170":-0.057605457266619,"171":0.07163048268844065,"172":0.07869907408121686,"173":0.18913533274822975,"174":0.18508516020678326,"175":0.20983356276284673,"176":0.06084682710521822,"177":0.02382044349179967,"178":0.395964183700406,"179":0.2938482817265084,"180":0.40683602586808937,"181":-0.07350594477465305,"182":0.08578482564837703,"183":0.15611575352351664,"184":0.15618929890272987,"185":-0.14699810728766013,"186":-0.3183379149941587,"187":-0.22531244137291068,"188":-0.32027633226323005,"189":-0.04816807828921247,"190":0.019630346009552664,"191":0.016324552074674457,"192":-0.1583813843621205,"193":0.2688347020274914,"194":0.07603234459905062,"195":-0.06192462012157849,"196":0.14065223577998354,"197":-0.04159068655130451,"198":0.1662917623840332,"199":0.08789196454732967,"200":0.22959819419624336,"201":-0.05502194991265214,"202":0.01973495759398962,"203":0.26015162166884576,"204":-0.03340598197165547,"205":-0.0030214403364131493,"206":-0.194482744238645,"207":-0.24171237873405738,"208":-0.07774854587168402,"209":-0.060955041859314704,"210":0.02732750426404626,"211":-0.23011851185118798,"212":-0.09684098839051876,"213":-0.0720649888650622,"214":-0.06367446648432452,"215":-0.015614722834091476,"216":0.0658095997108631,"217":0.023135581810163848,"218":0.13825206415716335,"219":-0.2434068228761975,"220":0.041743147734435576,"221":0.018544380476919694,"222":0.11538696658887891,"223":-0.002360878695549689,"224":0.20655510041409544,"225":0.13324349540347807,"226":0.10286246244646398,"227":0.24053781422267426,"228":0.20430074262522854,"229":0.14894509858380559,"230":-0.08799402573429538,"231":-0.22826483068087716,"232":0.023411666197595948,"233":-0.034622328967452654,"234":-0.302383693542973,"235":-0.25272144120466916,"236":0.1144512600351444,"237":-0.20722521020559115,"238":-0.19221400519769155,"239":-0.1201862903069928,"240":-0.10324760127769202,"241":0.13770802129369983,"242":0.05720068233642554,"243":-0.09350199260446525,"244":-0.1118374930424043,"245":-0.016214135640509095,"246":-0.11244384605701663,"247":0.07540992471348397,"248":0.1686391283119323,"249":0.066530211701387,"250":0.01679427905494917,"251":-0.06400156744039352,"252":-0.008337027908463565,"253":-0.23162233575893176,"254":-0.07577320651187806,"255":-0.05660232251050783,"256":-0.024547024848292357,"257":-0.3449780589704651,"258":-0.10072735717327021,"259":-0.12583087122217496,"260":-0.2524949226782019,"261":-0.14169850216920898,"262":0.10046132010906231,"263":0.022612480333289765,"264":0.08499806697236885,"265":0.3070241054324378,"266":0.0946674151449722,"267":0.28470916285104075,"268":-0.052752828546442164,"269":-0.05861740556054144,"270":-0.13153248066968098,"271":0.037635827373601605,"272":-0.20553907165849794,"273":-0.34019162454578245,"274":0.15165784651810676,"275":-0.24420033168616243,"276":0.10725668781597894,"277":0.13421540949549565,"278":-0.1992155695022805,"279":-0.03922277746798656,"280":-0.2202040384361917,"281":-0.2712870581391682,"282":0.10666968330891828,"283":-0.1498219769300123,"284":-0.17461572728620825,"285":-0.06422667986459389,"286":-0.013265186327494995,"287":0.03587089850418301,"288":0.073839961289388,"289":0.25621755887690145,"290":0.2742396667624291,"291":0.30963863876415315,"292":-0.2999607888985077,"293":0.2638000133343418,"294":-0.11870526158132719,"295":0.0441960963399931,"296":-0.2344060585937446,"297":-0.09534424918577931,"298":-0.29820484890843524,"299":0.0734924597599302,"300":-0.16110508674450522,"301":-0.1671043506474758,"302":-0.43215057741081486,"303":-0.3289157359651856,"304":-0.19975492692617958,"305":-0.2660968977693695,"306":-0.19385157138267534,"307":-0.1378715133008931,"308":0.12180505699295589,"309":0.09582273400636473,"310":0.3210089791679344,"311":0.1614853661359891,"312":-0.12362636885105852,"313":0.14755967760739172,"314":0.2500510708798914,"315":0.3420981418713956,"316":-0.17508718508044396,"317":-0.11684622986946355,"318":0.09622651477409438,"319":0.06313563576524556,"320":-0.0743527070806099,"321":-0.06698134544131083,"322":-0.11027343052499666,"323":-0.15066689758018756,"324":0.02424286837313274,"325":-0.03459972309132085,"326":-0.1298570985395291,"327":-0.23377597707101008,"328":-0.22811113217905216,"329":-0.2991826237905376,"330":0.030783471766397626,"331":-0.03156084082204667,"332":-0.008861310705416122,"333":0.13559413943614454,"334":0.325352843453936,"335":0.15175122478203976,"336":-0.08735483392213785,"337":-0.09237825880875027,"338":0.2614087890502574,"339":0.0581870435858122,"340":0.09096390700150628,"341":0.2054469458671042,"342":0.16400901196081139,"343":0.05109147550190637,"344":0.22311428860244437,"345":-0.07366793529638033,"346":0.13032355109026533,"347":0.29565578449854457,"348":0.12118294890847277,"349":0.12965352833845867,"350":-0.008722953158552227,"351":0.09338885005499414,"352":-0.16105379372986636,"353":-0.17930851996288963,"354":-0.08843280746153542,"355":0.20666845748077387,"356":0.16086397359529878,"357":0.2525328226100576,"358":-0.014886028623340614,"359":0.02828677627221992,"360":0.1043861439285202,"361":0.1079559317272556,"362":-0.0071782853623935826,"363":0.012248440446754777,"364":0.0012907637252644322,"365":-0.08063278873704667,"366":-0.05171346402024311,"367":0.18558479697310407,"368":-0.008126171445532713,"369":0.06213528982302159,"370":-0.013283464702350638,"371":0.30076632466647973,"372":-0.11286111851191784,"373":0.274896545056036,"374":0.17855673886424198,"375":0.1620128523767557,"376":0.03621125326642641,"377":0.09820916300216181,"378":0.09021062644440729,"379":-0.1177748281098409,"380":-0.23262710300287504,"381":0.16808590221522912,"382":0.11166726152455489,"383":0.17447642951501213,"384":0.010007378171633495,"385":0.16706281755602195,"386":0.004333388095155539,"387":0.1256868389675565,"388":0.06890114011261549,"389":0.02442846923590208,"390":0.24812542216499006,"391":0.18718731546719455,"392":-0.07924355458761112,"393":-0.09451622546193278,"394":-0.20288494340714924,"395":-0.032325082029609216,"396":-0.3121339500434114,"397":0.07958053496770608,"398":0.19022489209427654,"399":0.11192419980325105,"400":-0.20324468953489422,"401":0.18272946487632685,"402":0.03556472245293414,"403":-0.27692053312463444,"404":-0.18940624172423662,"405":0.15465073950066616,"406":-0.02401225198631266,"407":0.017922287086182306,"408":-0.12410429055814409,"409":0.057982193817794334,"410":-0.05692949946318138,"411":0.048373652577718314,"412":-0.08402377651646176,"413":-0.2133461532871446,"414":-0.18337453889337704,"415":0.19853029843388256,"416":-0.08754048753099808,"417":0.13240256867125236,"418":-0.39953678295116496,"419":-0.21731488876762214,"420":-0.09631012381041067,"421":0.14938783729075497,"422":-0.00039042194103662786,"423":-0.014242608974695021,"424":-0.048402161393521034,"425":0.005655131914037155,"426":0.0942045379157574,"427":0.24762795373583912,"428":-0.08288977687462787,"429":0.22080686887021397,"430":-0.11137574562564181,"431":0.09763760794293008,"432":-0.19656867233012257,"433":-0.14522158522688397,"434":0.028183975067389677,"435":-0.0861884603775444,"436":0.06380936680868646,"437":-0.1001830120255023,"438":0.022617417566463353,"439":-0.0789724457942274,"440":0.1518220210368216,"441":-0.20172526536264238,"442":-0.3036191661625315,"443":-0.2041338931316417,"444":-0.07233854824789869,"445":-0.1464259319657102,"446":0.1902829066182315,"447":0.008147797245973396,"448":0.4594031228521573,"449":0.1513042550118549,"450":0.25622030885004643,"451":0.2868099436074011,"452":0.08834846217512227,"453":0.304203401368621,"454":0.09709500832397712,"455":0.14469913097559417,"456":0.0702665408823231,"457":0.07261079892395247,"458":-0.07374208449863094,"459":-0.21042589838367182,"460":-0.35985689864782094,"461":0.23740836732798254,"462":0.4562346038707375,"463":0.08206210458039737,"464":0.010176865745400884,"465":-0.034553435727180594,"466":-0.1072487410427443,"467":0.12436942023824989,"468":-0.0976669133609815,"469":-0.1316352406846124,"470":0.08377792135554864,"471":0.01683046491561109,"472":0.08642822318016805,"473":0.22493552747663106,"474":-0.09309208949203185,"475":-0.17908801699269536,"476":-0.07022989045945754,"477":0.0030020130002918247,"478":0.12476629744762768,"479":-0.1749610260877053,"480":-0.12562327518670882,"481":0.04516479784634013,"482":0.059707014794787586,"483":0.0854641533660846,"484":-0.09625321043739545,"485":0.08192849022209131,"486":0.10449101354274012,"487":0.03987112963780977,"488":-0.028426174105044742,"489":-0.1314900564536797,"490":0.07694579551950881,"491":0.1264789214871928,"492":-0.04600484215643796,"493":-0.12693034811923193,"494":-0.14168408623295545,"495":0.14537789777617688,"496":-0.094920066164665,"497":0.2145603125528716,"498":-0.12201985451269588,"499":-0.07886091456778589,"500":-0.05857763553774493,"501":-0.031133562480231785,"502":-0.012625290746932997,"503":-0.06568105740666057,"504":-0.005220631316112562,"505":-0.1694839626999606,"506":0.017128239741162916,"507":-0.29005923549855805,"508":-0.09423958819330439,"509":0.02600548073475912,"510":-0.02806925906127038,"511":-0.2934830966325056,"512":0.056142008383995225,"513":-0.04119387204846851,"514":-0.046859556604718806,"515":-0.110363478204054,"516":-0.26153065773051115,"517":-0.13221792095649706,"518":-0.03303951973955921,"519":0.20768985022525108,"520":0.009166660718290193,"521":0.050410301935409046,"522":-0.07200852813071378,"523":-0.10234321215934786,"524":0.0769746853999131,"525":-0.12667347122249156,"526":0.1629623387441936,"527":-0.023557810254939825,"528":0.0237893409831314,"529":0.0401223972386956,"530":0.13733470423314853,"531":-0.37459637738443363,"532":-0.2703035497975618,"533":0.13088641393735753,"534":-0.32427823200393824,"535":-0.06969415788688153,"536":-0.1550037343891648,"537":0.06939829371471298,"538":-0.20297398634487868,"539":0.035470458351329955,"540":-0.07436107380931482,"541":0.007445853943160884,"542":-0.1106062632411467,"543":0.0505013868129699,"544":0.003988368110642664,"545":-0.09527663007362312,"546":-0.3113344485745925,"547":-0.25884690066057775,"548":-0.2823986110942426,"549":-0.15974199220349952,"550":-0.09031891105137714,"551":0.03384590259396282,"552":-0.15785766351654254,"553":0.11381912775606805,"554":-0.11146939090902484,"555":0.005887019717138746,"556":0.06588190353019677,"557":-0.05784479425163394,"558":-0.03925793597626316,"559":-0.1884845601163649,"560":-0.13410948984275117,"561":-0.05579568002276639,"562":-0.18760134185409766,"563":-0.17433873512852974,"564":-0.06366217823605157,"565":-0.1746123530584166,"566":-0.3138592023601735,"567":-0.06430130440460324,"568":-0.27687552124785236,"569":-0.3569819421301415,"570":-0.4294438630023775,"571":-0.634733571711764,"572":-0.22195340051726,"573":-0.2701072082480078,"574":-0.3580482853946579,"575":-0.12095094683243342}},"6":{"bias":0.3536460855706385,"weights":{"0":-0.14053746618868015,"1":-0.13647982229560604,"2":0.10874678039399502,"3":-0.1655802952027062,"4":0.05919813549766779,"5":-0.12873165768795833,"6":-0.18859296342171003,"7":-0.008858392034512632,"8":-0.07576296486693501,"9":-0.1305542696542517,"10":-0.06662319298695392,"11":-0.18704718883083274,"12":0.11573867047233008,"13":0.05248928060685481,"14":0.09769926108402484,"15":0.03754922716605115,"16":-0.05126744041203821,"17":0.05048263193565645,"18":0.005835501805463009,"19":-0.12020167215352107,"20":-0.13939154280839583,"21":-0.21303587248306133,"22":-0.04722685064031254,"23":-0.014216289416257565,"24":-0.41085535733785755,"25":-0.06692587690304903,"26":-0.004209850097296089,"27":-0.24785646751557142,"28":-0.17616897276187776,"29":-0.15059023873504393,"30":-0.13118590712296238,"31":0.11783129627243849,"32":-0.01927921699950883,"33":-0.1495735322905012,"34":0.07575220728171966,"35":0.2376926992709351,"36":0.1071059043890611,"37":0.2513674236524307,"38":0.3387738975901683,"39":0.041305696716551384,"40":0.1789093910130526,"41":-0.01827423200545915,"42":0.10473215521173346,"43":-0.053203360236206754,"44":-0.15747729316946624,"45":-0.042169863052913564,"46":-0.23670548948758965,"47":-0.04115918251363606,"48":0.06298424791970811,"49":-0.07751366246784928,"50":-0.22966898036064254,"51":-0.05402129821971209,"52":0.14102192736731506,"53":-0.13468559796736515,"54":0.08318716498447364,"55":-0.016927356469585216,"56":-0.021687316324450926,"57":0.03735691543872293,"58":-0.12037960965179685,"59":-0.07865105992815333,"60":-0.000706304628687747,"61":-0.19939479314067476,"62":-0.14202895421413464,"63":-0.1472568007844194,"64":0.003327264904336568,"65":-0.06983721907547447,"66":-0.12549297382181035,"67":-0.2018476953722996,"68":-0.22640630305927376,"69":-0.19260213593298237,"70":-0.16267638613718854,"71":-0.2846880765531933,"72":-0.04665620329964251,"73":-0.24624899292978739,"74":-0.1609293037087525,"75":-0.08657180052422801,"76":-0.2087398620250093,"77":-0.09502763296088894,"78":-0.19328827041670635,"79":-0.3319981535947028,"80":0.08279563458549313,"81":-0.03872437241544588,"82":-0.363474922325672,"83":-0.04565545945780387,"84":-0.11564571331290338,"85":-0.08691163087692524,"86":-0.045337398452097825,"87":0.03051515759126298,"88":0.035753762013394405,"89":-0.13183513642642863,"90":-0.2589821958310269,"91":-0.08001334903804756,"92":-0.30350153735526203,"93":-0.29301997627018245,"94":-0.10773291534147111,"95":0.1439119403292116,"96":-0.10914851769376534,"97":0.04989404534429163,"98":0.1467507775261486,"99":-0.15670156324772078,"100":-0.34521758484930104,"101":-0.1650402817033152,"102":-0.2427756082057458,"103":-0.19793950080183487,"104":-0.2951786794199148,"105":-0.23262178524202579,"106":-0.3487704093384537,"107":-0.2714835685184493,"108":-0.24172134788103025,"109":-0.18229184098934711,"110":-0.18723294174126517,"111":0.048095734973755806,"112":-0.33316197048002555,"113":-0.10557168254083225,"114":-0.17124211789784535,"115":0.10160620283969354,"116":0.051280380719037816,"117":0.14855868665008565,"118":0.12989567767055651,"119":-0.13581076434259928,"120":-0.17416705118504494,"121":-0.012060864655941653,"122":-0.14153658699102786,"123":-0.008294164923299607,"124":-0.19660511097051903,"125":-0.24441756894426794,"126":-0.29689395385604156,"127":-0.009595149494478749,"128":-0.025177382552022454,"129":-0.2598905745683971,"130":-0.03425345852427255,"131":0.17856587806544405,"132":-0.03743421508144156,"133":-0.024905769963094234,"134":-0.0565032457312253,"135":0.12108233351969032,"136":0.1750606149521233,"137":0.1414804945152474,"138":0.12418380251203934,"139":0.07278624754210462,"140":-0.1342697711527909,"141":0.025323718343354947,"142":-0.06023036131109285,"143":-0.06739066447146583,"144":0.01243975700985229,"145":-0.24928657286397501,"146":-0.27202813346844035,"147":-0.10728660331204376,"148":-0.2316709191674396,"149":0.19450191408291742,"150":0.025796557914231234,"151":-0.1210055737292326,