function anonymous(input
/**/) {
  var net = {"layers":[{"0":{},"1":{},"2":{},"3":{},"4":{},"5":{},"6":{},"7":{},"8":{},"9":{},"10":{},"11":{},"12":{},"13":{},"14":{},"15":{},"16":{},"17":{},"18":{},"19":{},"20":{},"21":{},"22":{},"23":{},"24":{},"25":{},"26":{},"27":{},"28":{},"29":{},"30":{},"31":{},"32":{},"33":{},"34":{},"35":{},"36":{},"37":{},"38":{},"39":{},"40":{},"41":{},"42":{},"43":{},"44":{},"45":{},"46":{},"47":{},"48":{},"49":{},"50":{},"51":{},"52":{},"53":{},"54":{},"55":{},"56":{},"57":{},"58":{},"59":{},"60":{},"61":{},"62":{},"63":{},"64":{},"65":{},"66":{},"67":{},"68":{},"69":{},"70":{},"71":{},"72":{},"73":{},"74":{},"75":{},"76":{},"77":{},"78":{},"79":{},"80":{},"81":{},"82":{},"83":{},"84":{},"85":{},"86":{},"87":{},"88":{},"89":{},"90":{},"91":{},"92":{},"93":{},"94":{},"95":{},"96":{},"97":{},"98":{},"99":{},"100":{},"101":{},"102":{},"103":{},"104":{},"105":{},"106":{},"107":{},"108":{},"109":{},"110":{},"111":{},"112":{},"113":{},"114":{},"115":{},"116":{},"117":{},"118":{},"119":{},"120":{},"121":{},"122":{},"123":{},"124":{},"125":{},"126":{},"127":{},"128":{},"129":{},"130":{},"131":{},"132":{},"133":{},"134":{},"135":{},"136":{},"137":{},"138":{},"139":{},"140":{},"141":{},"142":{},"143":{},"144":{},"145":{},"146":{},"147":{},"148":{},"149":{},"150":{},"151":{},"152":{},"153":{},"154":{},"155":{},"156":{},"157":{},"158":{},"159":{},"160":{},"161":{},"162":{},"163":{},"164":{},"165":{},"166":{},"167":{},"168":{},"169":{},"170":{},"171":{},"172":{},"173":{},"174":{},"175":{},"176":{},"177":{},"178":{},"179":{},"180":{},"181":{},"182":{},"183":{},"184":{},"185":{},"186":{},"187":{},"188":{},"189":{},"190":{},"191":{},"192":{},"193":{},"194":{},"195":{},"196":{},"197":{},"198":{},"199":{},"200":{},"201":{},"202":{},"203":{},"204":{},"205":{},"206":{},"207":{},"208":{},"209":{},"210":{},"211":{},"212":{},"213":{},"214":{},"215":{},"216":{},"217":{},"218":{},"219":{},"220":{},"221":{},"222":{},"223":{},"224":{},"225":{},"226":{},"227":{},"228":{},"229":{},"230":{},"231":{},"232":{},"233":{},"234":{},"235":{},"236":{},"237":{},"238":{},"239":{},"240":{},"241":{},"242":{},"243":{},"244":{},"245":{},"246":{},"247":{},"248":{},"249":{},"250":{},"251":{},"252":{},"253":{},"254":{},"255":{}},{"0":{"bias":-0.06048122327364554,"weights":{"0":-0.18159291541503644,"1":0.06826780519807625,"2":0.08733348062656383,"3":-0.28807921629757266,"4":-0.10000008241603574,"5":0.05846602286087741,"6":-0.019204110720964923,"7":0.2704449143107259,"8":-0.11727883681000668,"9":-0.04496269618471952,"10":-0.0675406482002521,"11":-0.2566550547202899,"12":0.21392573330718323,"13":-0.09200944596670867,"14":-0.12500002996056164,"15":-0.12706839925954697,"16":-0.02002575457368157,"17":0.1500354684903084,"18":-0.14928497235295818,"19":-0.013234111843984549,"20":-0.2112776843327243,"21":-0.022704072139005924,"22":-0.0001815870819737771,"23":-0.14705675908530744,"24":-0.28000632780870865,"25":0.05356055323934148,"26":0.12946630925292069,"27":0.021319075996310156,"28":-0.17778288902101916,"29":0.15250866339321367,"30":-0.021992413867749687,"31":0.033531377713731894,"32":0.23270285903088583,"33":0.12338282314786392,"34":-0.08784605088953226,"35":0.029772364599841155,"36":0.16451987336326954,"37":0.1628579217558311,"38":0.2259663087714806,"39":0.22914691145169244,"40":0.07136748756184381,"41":0.03877833140237259,"42":-0.19470201393677575,"43":-0.1275241829607196,"44":0.15129412794121824,"45":-0.049598261119064777,"46":-0.12389350079089718,"47":-0.01574620726640139,"48":-0.026265419034578845,"49":0.15633156911930932,"50":-0.10300941778581382,"51":-0.032022448278853,"52":-0.11073262697375279,"53":0.039943989070248286,"54":0.33622501505356955,"55":0.028948476745550747,"56":-0.12165751854620466,"57":0.010058454404935482,"58":0.28909281493027,"59":0.039794665611445366,"60":0.18995935684419293,"61":0.08061954885379204,"62":0.044473753501689084,"63":0.14039075818700786,"64":-0.16362625340529177,"65":0.09617669552915636,"66":-0.09130285560286891,"67":0.20615819866993737,"68":-0.014295920146234948,"69":-0.119633861869494,"70":-0.042002858673168914,"71":-0.003993366698283131,"72":-0.15138072285925924,"73":-0.08258971949215621,"74":0.10710848369885569,"75":0.14914061896446035,"76":0.08804795277079203,"77":0.10210873249616233,"78":0.06280533585076772,"79":0.1298187068586546,"80":0.1379427071057661,"81":-0.14956860049442805,"82":-0.04663439020544665,"83":-0.0477164967094868,"84":-0.23280574742182367,"85":-0.026002955406567167,"86":-0.3250813914533164,"87":-0.1623588259597028,"88":0.03782987324958844,"89":-0.26456987676692406,"90":-0.16812675717963474,"91":-0.12431859915230715,"92":-0.07703571037905435,"93":0.01507780905475071,"94":0.13098319001040382,"95":0.07846941464771556,"96":0.16910066795201337,"97":0.08046180974153497,"98":0.11117694898931786,"99":-0.023679643421768422,"100":0.1004283626982815,"101":-0.1739503955470739,"102":-0.295714238063897,"103":-0.3349780663196513,"104":-0.13151159428373352,"105":-0.03823130244007147,"106":-0.16977666413093487,"107":-0.12253594510177689,"108":-0.1095971209286585,"109":0.19512262726329166,"110":-0.13306349566269976,"111":-0.3038118342769064,"112":-0.004530989808841801,"113":0.12441563213762652,"114":-0.27741810770873276,"115":0.0827509949197215,"116":-0.024394077042283902,"117":0.09472890401649775,"118":-0.022530309544059744,"119":-0.24652068055763288,"120":0.06044287363257497,"121":0.17027274328383205,"122":-0.31508644480308956,"123":-0.3738916641018986,"124":-0.13885280984238133,"125":-0.1398242476377155,"126":-0.12633095129055846,"127":-0.06794071271450025,"128":0.1289908173674556,"129":0.17252041131683507,"130":0.02089651134807412,"131":0.1653144321815372,"132":0.2553184392731696,"133":-0.04632223319370091,"134":-0.021005602220500123,"135":0.09571188619599609,"136":0.34080571059783843,"137":0.45795155850644276,"138":-0.07487149836290816,"139":0.024871072488310955,"140":0.2702289072563106,"141":0.28351506510986274,"142":-0.178480623709987,"143":0.05029986208530914,"144":0.18489481893219034,"145":0.048840470377234706,"146":0.23602548144228486,"147":-0.12731247036130464,"148":-0.05111988419808414,"149":-0.11201163135602962,"150":-0.44379262956728943,"151":0.007541451029481554,"152":0.011215411136871176,"153":-0.08215040854649082,"154":-0.15048582311606776,"155":-0.08735453223350985,"156":0.0026510071614190434,"157":0.3319724822540769,"158":0.11322050921088461,"159":-0.025257134330755104,"160":0.13404848198009647,"161":0.02318085150129349,"162":0.11939883029649923,"163":0.1080430279813373,"164":-0.03926241746375972,"165":-0.3648687738673826,"166":-0.1873208923468816,"167":-0.02856948994385139,"168":-0.3224908351394525,"169":-0.03749182574748048,"170":0.0272852278044856,"171":0.11707730178221046,"172":0.057143432561782434,"173":-0.044035163614358414,"174":-0.07899797241335392,"175":-0.04766598585660402,"176":0.09264606144700964,"177":-0.09292694483464635,"178":0.11227658668024498,"179":0.20533881653120806,"180":-0.11770441938569992,"181":-0.04710644592882975,"182":-0.1332501819221099,"183":0.13062463048561218,"184":0.12258656892390923,"185":-0.10232067149282152,"186":-0.10494013958976628,"187":0.0638190325700337,"188":-0.12817236448805153,"189":0.07156262571277791,"190":-0.15645634506088027,"191":0.09341333413305224,"192":-0.0053648348628309965,"193":0.09361008332541879,"194":-0.08691036276176646,"195":0.04140763820055683,"196":-0.0820989392876234,"197":0.08776712802937876,"198":0.005983670705306115,"199":-0.07026536354159743,"200":0.2258610402745467,"201":-0.01966338137559466,"202":0.148146704288633,"203":0.07397182950942556,"204":0.20961937454457685,"205":-0.057558766211950496,"206":0.080454300308315,"207":0.3401693488452186,"208":0.06949792006711919,"209":-0.06496662363494747,"210":-0.1859747400322919,"211":-0.11484534523595906,"212":0.1493148364074798,"213":0.2596875752941332,"214":-0.004117145279040232,"215":-0.16759107788973815,"216":-0.08212524317939433,"217":-0.12777381225074025,"218":0.09178993833555094,"219":0.10513906150265878,"220":-0.052434932341610896,"221":0.15944484762879485,"222":0.19798074067230068,"223":0.149362724368333,"224":0.014842305394433004,"225":0.043113582397112035,"226":0.0537726439647252,"227":-0.25366359747791584,"228":0.10764434435092139,"229":0.13194589032050474,"230":-0.11026929676344761,"231":0.004238551579000127,"232":0.07470594699524835,"233":-0.047460192566557015,"234":-0.18077712746611074,"235":0.0912685995358578,"236":-0.2061249171781361,"237":0.17382594028197879,"238":-0.22346692446348715,"239":0.4124408835920407,"240":-0.1198086371631777,"241":-0.10114043269768308,"242":-0.2627425941408323,"243":0.11621730148409973,"244":-0.17015554432781765,"245":0.19995579069024005,"246":-0.10117587631761617,"247":-0.18090564962460107,"248":-0.2461271857732002,"249":-0.16664472167904493,"250":-0.027540543842353264,"251":0.19967617561433385,"252":-0.04692294718409031,"253":0.11978669759555081,"254":0.009628514261101844,"255":-0.2522281600644423}},"1":{"bias":-0.12099825673933996,"weights":{"0":0.18122497000779467,"1":0.25778279118068687,"2":0.10066896684627638,"3":0.06330237365605322,"4":0.09698631941192996,"5":0.13003774866466017,"6":0.16355872074381655,"7":0.16370580129744458,"8":0.02176295098954787,"9":0.2860710726400829,"10":-0.0676606843487177,"11":0.07357548747069646,"12":0.025212336000998543,"13":0.23848975689046742,"14":0.20178917945704863,"15":0.05488213651764054,"16":0.20005227653265664,"17":-0.09381078526203288,"18":-0.10209276972412593,"19":0.04035811573893495,"20":-0.06333465034235877,"21":0.13743744401353752,"22":0.0874313629461567,"23":0.19984449913320498,"24":0.34037669619024846,"25":0.017385408218542002,"26":-0.04245235028634829,"27":-0.030682868095609966,"28":-0.26633549341272916,"29":0.15564166645553865,"30":-0.060739543855629616,"31":0.22613788965624693,"32":-0.01708701144837781,"33":-0.21782673493268967,"34":-0.14156725062951342,"35":-0.1791119722050698,"36":-0.032386155425194206,"37":0.1117143146462024,"38":-0.11365762999348156,"39":0.2838439191176012,"40":-0.03672341864521352,"41":0.03757102990339607,"42":0.06866324523168202,"43":-0.14915395873192056,"44":-0.2210165626486835,"45":-0.01766175480623971,"46":0.039614459766505704,"47":0.009736163501723683,"48":0.07121152397072017,"49":-0.13670900725048607,"50":-0.23311058745540816,"51":0.16280426054195232,"52":0.24713631966855418,"53":0.12263825670900856,"54":-0.37814087988374284,"55":0.008194427186866504,"56":-0.03193264871038475,"57":-0.004201221122925185,"58":-0.2175067471815542,"59":-0.09872089535924086,"60":0.002853745120579214,"61":-0.2841735292351391,"62":-0.16876431135078215,"63":0.20222879866427068,"64":0.023127770343227095,"65":-0.11934082253960923,"66":0.060514694006102085,"67":0.13214143093644762,"68":0.2270374138428878,"69":-0.048020561575875045,"70":-0.26900357274972675,"71":-0.1306915729033924,"72":0.2743860792573145,"73":0.1987921437400427,"74":-0.18305104513469772,"75":-0.21334565611644504,"76":0.09651023879547967,"77":0.17675640625115077,"78":-0.3836339308468793,"79":-0.1378038205681699,"80":0.23458230621142212,"81":-0.026363575676240304,"82":-0.06286803658837782,"83":-0.041709491885353334,"84":-0.05641442622768893,"85":-0.10655672124029524,"86":0.13535379182543225,"87":0.30029832932975303,"88":0.2991395520997357,"89":0.1803474784536194,"90":0.009307785546145215,"91":0.018645805539628853,"92":-0.05847082913400009,"93":0.08467089691722891,"94":-0.12693328127997236,"95":-0.10797159823315111,"96":-0.008257364455791269,"97":0.053450595261583925,"98":-0.1316734577767244,"99":-0.18633476431929785,"100":-0.09344021741677898,"101":0.09606289990864121,"102":0.28283388285514766,"103":0.23253983180824944,"104":0.17444093494562657,"105":-0.1237113741058953,"106":0.23565789930719905,"107":0.1586870551880303,"108":0.10534578927944711,"109":0.011703742491583851,"110":0.060898102915511385,"111":0.0950729071633176,"112":-0.2601971504748997,"113":-0.12170973904009198,"114":0.30890667109135866,"115":0.05373013218713546,"116":-0.06126151826300801,"117":0.1987832439469586,"118":0.14983590348966447,"119":-0.255354684290357,"120":-0.1426712844496604,"121":-0.18372303171305263,"122":0.03166547350520392,"123":0.19635860611180708,"124":-0.03048205917823475,"125":0.12612532380474198,"126":0.0958541262050847,"127":-0.02909161087401826,"128":-0.21040672684861905,"129":-0.1181335392900918,"130":0.23633616299372398,"131":0.02563661398996752,"132":-0.35112714185533395,"133":0.1574448188154274,"134":-0.020118216329586977,"135":-0.004242807977779991,"136":-0.27353989067939144,"137":-0.3900503965132162,"138":0.29330963996591736,"139":0.1990800319643155,"140":-0.32327629168370703,"141":-0.24109487746644448,"142":0.2901475873485694,"143":-0.19849450698510104,"144":-0.20092679557013152,"145":-0.08660735422830061,"146":0.07158218856907778,"147":-0.24103750814574448,"148":-0.003645985710803286,"149":-0.08599363432020808,"150":0.06878966723503571,"151":0.12470148277139133,"152":0.10456164931518867,"153":0.04144606241646558,"154":0.15982876584220573,"155":-0.0545819932631735,"156":-0.06673271132837752,"157":-0.11730247778381321,"158":-0.14540204909032084,"159":0.003776365556584679,"160":-0.04881326200101595,"161":-0.12686656038231992,"162":-0.08978693987758343,"163":-0.033439595803634876,"164":-0.0013108537081852167,"165":-0.06426984744809923,"166":0.0870416990711016,"167":0.268109191928281,"168":0.21433906271558553,"169":-0.04872168007803826,"170":0.22533069016870727,"171":0.10130205252931196,"172":0.12844067632176995,"173":-0.021757791983997382,"174":0.12003023231426259,"175":0.1665090986006212,"176":0.20186044382189297,"177":-0.14170179045286085,"178":-0.07783954184071157,"179":0.01314001443798485,"180":0.005079209055338864,"181":0.23282853316934787,"182":0.047724135485784476,"183":-0.0949420769803368,"184":0.2189521542084899,"185":0.2985362087039565,"186":-0.03618162855417625,"187":-0.16813138062450825,"188":0.1979724666512406,"189":-0.09607475895555337,"190":0.1439770616561201,"191":-0.003651912141903047,"192":0.021355172056447096,"193":0.07022886199272221,"194":-0.018585137368387364,"195":0.11339744625817329,"196":0.28695814805598474,"197":0.32506543712177405,"198":0.037527364937057994,"199":-0.09356961988002968,"200":-0.06275159604609437,"201":-0.19820260337120874,"202":0.1813002644655414,"203":-0.005877580544654824,"204":-0.021361976721579287,"205":0.0718489637337694,"206":-0.09941471087418711,"207":-0.35409733012495537,"208":-0.13658740491121527,"209":-0.04008890292009132,"210":0.2603906642846705,"211":-0.11434978420913681,"212":0.3200961728823834,"213":0.025244766363208125,"214":0.03309883927086448,"215":0.07631761709154376,"216":-0.10198317333580674,"217":0.022159660765811977,"218":-0.07370694668023914,"219":0.07197370192698235,"220":0.08892446768273767,"221":-0.22897311060838083,"222":-0.16159812633220708,"223":-0.10188919769137374,"224":-0.028614725159185707,"225":0.3465044027271425,"226":-0.16651171592622002,"227":-0.10873315853502168,"228":-0.027521639434830228,"229":-0.21191468981902042,"230":-0.10136009112006249,"231":0.13754199646400547,"232":-0.015600617268141862,"233":-0.06584475399583083,"234":-0.028565577767418318,"235":-0.06600556021335628,"236":0.020190589916102248,"237":0.12375965069545429,"238":0.1668868901339629,"239":-0.20503638055368106,"240":0.06833542482242819,"241":0.1561811376363383,"242":0.29594934641285514,"243":0.141060289514236,"244":-0.3286567408423285,"245":-0.21480914519868408,"246":0.0370304488328468,"247":-0.10436202980855629,"248":-0.05854077690993881,"249":-0.05780344756564251,"250":-0.08452765400109649,"251":0.07958308316703606,"252":-0.11251684603327802,"253":-0.24131856451276426,"254":0.17454842544106494,"255":0.16545173302556804}},"2":{"bias":0.23418067412970256,"weights":{"0":-0.027584369547032153,"1":-0.025800764562839546,"2":0.08748656314248598,"3":0.20674459998853761,"4":0.30158873300766337,"5":0.09617036822324382,"6":-0.06654971078976861,"7":-0.15669593302338994,"8":-0.07513407696076296,"9":0.17365680107955525,"10":0.02647965367570429,"11":-0.2792037376996782,"12":-0.00586763522420985,"13":0.20865012050746992,"14":-0.2863301930271861,"15":-0.1079732605704146,"16":0.10746089175550112,"17":0.06250901415249598,"18":-0.15765165275370244,"19":0.17843056163874432,"20":-0.22941444444592926,"21":0.034355973317195164,"22":-0.11277539908395741,"23":-0.15615260319189914,"24":-0.11612965835822829,"25":0.05706949393944849,"26":0.21207299528685244,"27":-0.007726547104612318,"28":-0.09011584442091802,"29":-0.2444936257176971,"30":-0.06792210198612884,"31":-0.040254715835622755,"32":0.2760444616704471,"33":-0.02069191096081399,"34":0.1498230894162455,"35":0.045909992183284,"36":0.18555023093731382,"37":0.09616200265712194,"38":0.1854566665504385,"39":-0.10869294689428946,"40":0.40012379870759984,"41":0.39714048818192943,"42":-0.10333204365423895,"43":0.090269771498732,"44":0.03226280862408753,"45":0.2150749585824769,"46":-0.052672006445789774,"47":0.029148556751127902,"48":-0.07835373615213777,"49":-0.09127696640845068,"50":0.010580289528030222,"51":0.1371556977019377,"52":0.00008940480380862245,"53":-0.14132573890097355,"54":-0.0015628442152332354,"55":0.08962812970106611,"56":0.0976368686663963,"57":-0.005778638121664137,"58":0.036450522534614095,"59":0.03185028183952399,"60":0.12513680763336238,"61":0.022488652596856378,"62":-0.11925428753406571,"63":-0.13034889292406196,"64":-0.039897699695505634,"65":0.23690730704714957,"66":0.33023387932540177,"67":-0.06190480927173591,"68":-0.18232733564088685,"69":-0.1568487282233956,"70":-0.1365580358233262,"71":-0.21893113763111882,"72":-0.34202366065383677,"73":-0.10654354940823495,"74":-0.0479033583216549,"75":-0.05052311688012677,"76":0.035373964213579,"77":0.1535652970390919,"78":0.099068041903611,"79":-0.0682374836930733,"80":-0.020124978575428325,"81":0.22315174269597282,"82":0.11858243250297358,"83":0.15931265363201613,"84":-0.09814342502732337,"85":-0.07696910686914911,"86":-0.2786594291722824,"87":-0.11718744051575758,"88":-0.29354921367831355,"89":-0.3506264359105801,"90":-0.04373491794417666,"91":-0.05821793115807276,"92":-0.25473773235836233,"93":0.11678583091637361,"94":-0.036393317468077314,"95":0.054753603877094895,"96":0.1349950917987179,"97":0.18161838976753147,"98":0.0069805722706264475,"99":-0.14743126893134864,"100":0.0999635993190354,"101":0.015002432796248867,"102":-0.11728628208537902,"103":0.0626743631793041,"104":-0.07055925634712121,"105":-0.11280289140182209,"106":-0.24940550633111636,"107":-0.29944917484771255,"108":-0.25096580869109686,"109":0.30080190569467136,"110":0.2139355856690614,"111":-0.046279756861970056,"112":-0.07336572932636252,"113":-0.17836450521992656,"114":0.01973127644723886,"115":0.12408545974920304,"116":0.037176896926062644,"117":-0.1332920669599672,"118":-0.11532432224417923,"119":0.04506808568560736,"120":0.2247983445929206,"121":0.2827637712758645,"122":-0.4141701096898176,"123":-0.00799456702764203,"124":-0.07612944829196319,"125":0.38012421838475163,"126":0.128289188143917,"127":0.03332047112723424,"128":0.11388193020252906,"129":-0.02876680548392024,"130":-0.05020254949684019,"131":0.039416318257523224,"132":0.1212758252169262,"133":0.07071826206527114,"134":-0.08368084471380571,"135":0.2312044783717983,"136":0.28627861032438534,"137":0.11473012764649626,"138":-0.3063318166807451,"139":-0.3279778670506545,"140":-0.24810023774980897,"141":0.2219919186569055,"142":0.14583324744753431,"143":-0.11484712500678994,"144":0.06449037435668395,"145":-0.08200793049220126,"146":0.180725675405588,"147":0.15212959137959065,"148":0.16160499293338826,"149":-0.31653602434114253,"150":-0.29274185551593795,"151":-0.007535120331084475,"152":-0.03349615543723418,"153":0.029462155851357717,"154":-0.313043109804299,"155":-0.39158402139818815,"156":-0.3529491905336994,"157":-0.10374424042216954,"158":0.214553703896685,"159":0.030039263479641164,"160":0.021561292583217102,"161":0.16024273692707278,"162":0.056653944695032106,"163":-0.1438522183090576,"164":0.06925181861158157,"165":-0.02140548696953528,"166":-0.1970926977155837,"167":-0.060504458621592594,"168":0.06432824834145243,"169":-0.08035289327869556,"170":0.015586874606254887,"171":0.07010210806422963,"172":-0.13590561328165546,"173":-0.01690417088124869,"174":-0.08816637561703569,"175":0.030911518013885066,"176":-0.013169562037222063,"177":0.19356964093671497,"178":-0.14227652628529444,"179":-0.30277714623273977,"180":0.07750117531872557,"181":-0.05417398799529631,"182":0.033108272688582595,"183":-0.3077134460690022,"184":-0.17611065424128822,"185":-0.11627328441771695,"186":-0.15862223897160824,"187":-0.1418509381062262,"188":-0.08790216111115483,"189":-0.027627995080565435,"190":0.15432338716762817,"191":-0.03690043321492019,"192":-0.14386142621537118,"193":0.05488196874585375,"194":-0.07068642802606746,"195":0.04720229780301032,"196":-0.16038737035534764,"197":0.175941157071073,"198":-0.14241351656902868,"199":-0.1789042981332781,"200":-0.021798350706438534,"201":-0.03330308192516317,"202":-0.12964181799076677,"203":-0.057259804540348215,"204":0.08548034706267561,"205":-0.10003509465764841,"206":0.06355451907596263,"207":-0.05213558204830156,"208":0.12456040797446345,"209":-0.38349553660386687,"210":-0.051240228045713675,"211":0.18350506206286804,"212":0.25649859391315083,"213":-0.025283638688878694,"214":0.010563290686534053,"215":0.13086800478275223,"216":0.0016490932166820832,"217":0.0790763590711974,"218":-0.05095836503252236,"219":0.10181576750426215,"220":0.0356182415681601,"221":-0.10268264686730216,"222":0.24876226077829558,"223":-0.19853585068127272,"224":0.21105218370201534,"225":-0.10016085285694987,"226":-0.1266929532464737,"227":0.11660795468879588,"228":0.40008549028545226,"229":0.10494897458419805,"230":0.20349145912119573,"231":0.09038499085919843,"232":0.26193602355194817,"233":0.0572846863419995,"234":-0.053713160295239266,"235":-0.05583545829186316,"236":-0.0357856617141496,"237":0.18380787466062581,"238":0.25941911282584823,"239":-0.03827083598475073,"240":0.07054887600048827,"241":0.08804259317498156,"242":-0.2265161942651789,"243":-0.043159263486645755,"244":-0.090167494615493,"245":-0.06807528982675122,"246":0.14845829962015178,"247":-0.07909040849543011,"248":0.05969719673275065,"249":0.11929025028141123,"250":0.16737075862843329,"251":0.11725624377623733,"252":0.07613721144029592,"253":-0.22083828803013658,"254":0.01395929795517496,"255":-0.055330613545376404}},"3":{"bias":0.04267744603368147,"weights":{"0":0.005126416714528655,"1":0.29814317708280424,"2":-0.12532974072704853,"3":-0.14636586676687793,"4":-0.05266996896324948,"5":-0.04213498627770571,"6":-0.16543693566971565,"7":0.22141106571697758,"8":-0.31637536731682403,"9":0.0029633184772939903,"10":-0.03854833421730123,"11":0.034182506575852825,"12":-0.1003528801321015,"13":0.34506887018155286,"14":0.09499715724675299,"15":0.31239745795238205,"16":0.07918556745311145,"17":0.29009331194028964,"18":0.009054800737421133,"19":-0.0034006492979321364,"20":-0.00726046802067366,"21":0.01746761253941245,"22":-0.01013806800592055,"23":-0.014164837089151287,"24":-0.23368166030512955,"25":-0.14771241202675953,"26":0.015288001384499995,"27":-0.06333642039051866,"28":-0.017906365966215865,"29":0.2835204846226544,"30":0.032490225657898296,"31":0.25426420724727833,"32":-0.08316075932184935,"33":0.11609914127945406,"34":-0.3183804942281405,"35":-0.386623601759399,"36":-0.3432457026887418,"37":0.08822516616218237,"38":-0.14911394016129695,"39":-0.0815243257208946,"40":0.08652126436087271,"41":0.08286286615511865,"42":0.03392457075908051,"43":0.023534638667063488,"44":0.1540753347195937,"45":-0.11353326351319952,"46":0.04791350368274149,"47":0.09893264580559802,"48":-0.11274648782059506,"49":0.04611689388754846,"50":0.08543649293993241,"51":-0.23871860886875884,"52":0.041281775349818535,"53":0.006145538057897194,"54":0.16019461665549203,"55":0.013218341232953772,"56":0.09074693848027934,"57":-0.09812045919732974,"58":0.1985151472961019,"59":0.10951963975070313,"60":0.1961021901768462,"61":-0.1319375866745717,"62":-0.17978411263442828,"63":-0.12301014509552886,"64":-0.26576665669495614,"65":-0.07038813700820369,"66":-0.1897651393254328,"67":-0.04999233369208964,"68":0.09631290317913922,"69":0.06137113167922889,"70":-0.14148458610266415,"71":0.08993575932195681,"72":0.07374948043387733,"73":-0.0463831458102358,"74":0.23630922396862977,"75":0.21515222554169275,"76":0.07801702413190653,"77":-0.05078677713798319,"78":-0.09435414622489231,"79":-0.2868894344726959,"80":-0.0035284653991534847,"81":0.050347210945188785,"82":0.08655275273587296,"83":-0.01072691155824126,"84":0.06827828387329286,"85":0.2535676561647197,"86":0.1647104838707017,"87":0.16564484072651245,"88":0.30631944572430936,"89":-0.029127285308226097,"90":-0.048658896591314116,"91":-0.00034128417437012497,"92":0.1680776637669832,"93":0.14374563392361617,"94":-0.17759372286894978,"95":-0.028922937594121085,"96":-0.04780387737975036,"97":-0.016959500370707065,"98":-0.01602661611390228,"99":-0.024543957127660818,"100":0.27337106127493316,"101":0.2330790483729919,"102":0.21901293773365385,"103":0.1931461130962529,"104":0.17943492510047218,"105":-0.09289866797446569,"106":0.2340618037092167,"107":0.295567275069292,"108":0.12869944203159459,"109":-0.022113687239787152,"110":-0.04550959133315257,"111":-0.1342410393563623,"112":-0.04983558030687516,"113":-0.2229821620842037,"114":-0.20008277468064692,"115":-0.08945172462157606,"116":-0.0421196225722923,"117":0.1825123023202689,"118":0.0457769338026986,"119":-0.13475778287542173,"120":-0.1541917333105748,"121":-0.2177938988942443,"122":0.04778900659719873,"123":0.0739083225375619,"124":0.023257407961144998,"125":-0.048561537821607194,"126":0.05515907905030225,"127":-0.022351244666764664,"128":-0.23309784405360923,"129":-0.2737481968703751,"130":0.10770836542387478,"131":-0.06089084236950314,"132":0.17335668545187993,"133":0.23023675470017363,"134":-0.09949182260310462,"135":-0.2275043147495347,"136":-0.49525605316826926,"137":-0.27978137925506313,"138":-0.21523886680461993,"139":0.18102800898902724,"140":-0.07048379623995686,"141":0.04225778882559885,"142":-0.18290557363488708,"143":-0.18336845022271944,"144":-0.20834511406267908,"145":0.10098674790692176,"146":-0.10047759313685896,"147":-0.19902306533251582,"148":-0.07803745518864001,"149":0.19105186772803348,"150":0.13051748838151642,"151":0.030548279561774982,"152":0.016220814549498214,"153":-0.23835638406658768,"154":-0.12225436064664551,"155":0.30334901945092635,"156":0.19370665875550752,"157":-0.029784655370789285,"158":0.29952968514059813,"159":-0.15163317160885686,"160":0.229145208695194,"161":-0.14456431148693297,"162":-0.060000607313678345,"163":-0.0669085523404183,"164":0.04468254399232394,"165":-0.008510492362291436,"166":0.04957044931759431,"167":0.07129180987853731,"168":-0.30400714010502605,"169":-0.035328904920286015,"170":0.3528101125630068,"171":0.35795654950318917,"172":0.1256796834600838,"173":-0.011191820131803316,"174":0.07145793178503379,"175":0.1635191626368541,"176":-0.11576207740276896,"177":-0.3036954765967827,"178":0.1733582323790311,"179":0.20808295223856588,"180":-0.13696046495437125,"181":0.1905242277268267,"182":0.2011657249091417,"183":-0.008634911294084533,"184":-0.046010543152804666,"185":-0.010650180438066615,"186":0.21613351294384534,"187":-0.025296539795825426,"188":0.33663486086393785,"189":0.010147295971865781,"190":-0.029501451405208604,"191":-0.012940989602910175,"192":0.10472840246599395,"193":-0.15919519490530354,"194":0.05652870485033112,"195":0.08567414626513759,"196":0.09347871200571545,"197":0.20364052948408579,"198":0.32618084667217934,"199":0.1599568973717921,"200":-0.0956844300615427,"201":-0.20921140912925348,"202":0.11090200197621063,"203":0.05065573349094003,"204":0.005919939096794522,"205":-0.044436605746211846,"206":0.0021778742688319864,"207":0.06269467531469837,"208":-0.11384720013154842,"209":-0.05166144208243169,"210":0.029421200786741358,"211":-0.2646745368361714,"212":-0.03588273129874902,"213":-0.09467885909091603,"214":-0.04336757904775176,"215":-0.1949419579012318,"216":0.05757209589551365,"217":0.007525293902516277,"218":-0.2240193648778769,"219":0.19368231492310176,"220":-0.13440137644652753,"221":-0.020444478086182744,"222":0.18657087073169798,"223":-0.2198839982014197,"224":0.07863255245709622,"225":0.12343615721702388,"226":-0.09128148473895216,"227":-0.22529474703540564,"228":-0.11544870371185795,"229":-0.21120639255287105,"230":0.0583295293429291,"231":-0.09742937278561775,"232":-0.19728561290875002,"233":0.0012133289505129998,"234":-0.1254826335314536,"235":0.045468667651064915,"236":-0.13007131743874162,"237":-0.38118485965555376,"238":-0.19300735327023447,"239":0.1312530638442411,"240":0.13912560131833915,"241":0.13136178650040617,"242":0.32645014036294107,"243":0.09420308256117066,"244":-0.1201636903640585,"245":0.034790671790924085,"246":0.017920818054332682,"247":-0.07893117543477217,"248":0.01430884720322411,"249":-0.10505938980179767,"250":-0.22259467987354403,"251":-0.10253077042329944,"252":0.09905151156885539,"253":0.07983001668540207,"254":0.1645172702151642,"255":0.16535402884229786}},"4":{"bias":-0.10892046377597196,"weights":{"0":0.0956154690440586,"1":0.05798455175406506,"2":0.135547155641478,"3":-0.0648526750301049,"4":0.12431050173992972,"5":0.11855680518527363,"6":-0.07653896064432063,"7":0.0786491024727796,"8":0.17069695128210774,"9":0.12462729216110062,"10":0.04390402691898929,"11":0.12171303924156641,"12":-0.2012735457056575,"13":0.2515140214073865,"14":0.23918345534247673,"15":0.0352295127425766,"16":-0.14363170083503818,"17":0.12496484430778669,"18":-0.18954335752225773,"19":0.04647036871117267,"20":-0.11420719981594328,"21":0.012985188510510495,"22":0.06507603464841843,"23":-0.036981037021422,"24":0.14467786810029773,"25":0.16585184753891685,"26":0.04581809403980959,"27":-0.26188179640083825,"28":-0.03502281458358499,"29":-0.03384070920278383,"30":0.11656308693861377,"31":-0.03680739664526136,"32":-0.09531589230940186,"33":-0.25099308081370286,"34":-0.039347979230929316,"35":-0.14862825865476742,"36":0.14465696202507902,"37":0.07869068996701174,"38":0.2676268812137458,"39":-0.09544472544349211,"40":0.19394924103944422,"41":0.032348337189583756,"42":-0.07196083474470942,"43":0.019462021030365345,"44":0.10726479331260866,"45":-0.14119482090235672,"46":0.14314381212376465,"47":0.2713089337587602,"48":0.02040462569235927,"49":-0.19987995106290457,"50":-0.1114764424849921,"51":-0.08474454606464195,"52":0.3924115658419456,"53":-0.038202858021131415,"54":0.01039827253035711,"55":0.019895251178491495,"56":0.07618321911756455,"57":0.0016331620987764688,"58":0.1405814017937903,"59":0.21119277393305086,"60":0.15143129375609532,"61":0.228482662530625,"62":0.3117985099500271,"63":-0.09949536705961909,"64":-0.026092878562989894,"65":-0.164499439955005,"66":0.1478479774638454,"67":0.28083927080228416,"68":0.3712857895851289,"69":-0.20926880211639637,"70":-0.12806998896207428,"71":-0.2876568688664264,"72":-0.17795988212039485,"73":-0.1916947657475691,"74":-0.15688241578683107,"75":0.2201644653708659,"76":0.22883833079908594,"77":0.08589399611062155,"78":0.11298596769264085,"79":-0.12051871222048069,"80":-0.01761675890563689,"81":-0.12184216363797984,"82":-0.1472380368881206,"83":0.17562328443887756,"84":-0.1240383769606348,"85":-0.21636975368067476,"86":0.09133769020942899,"87":-0.07814035707275556,"88":-0.12059323974079882,"89":-0.09711377935810868,"90":-0.0049660031207440026,"91":0.08215729280573734,"92":-0.011918580120442468,"93":0.130414679499058,"94":0.078909420961597,"95":-0.1833763373706132,"96":-0.29606258738407937,"97":0.16746979268365175,"98":0.043501916822076006,"99":-0.170189073462506,"100":-0.06704787934884235,"101":0.06591366589223417,"102":-0.18103253926753174,"103":-0.1921557033094028,"104":0.06929148343681936,"105":-0.02188517716285565,"106":-0.20562082161215609,"107":-0.16911275382311838,"108":-0.2501648580402041,"109":0.009840958439191541,"110":0.026024627561646425,"111":0.198596320327709,"112":0.013328215182310034,"113":0.041670168308415495,"114":0.17097268400093343,"115":0.02161079206492096,"116":-0.12339190289700044,"117":-0.16344996951339472,"118":-0.12962255463142822,"119":-0.21141771878349983,"120":0.07841712300880047,"121":-0.045236579630928274,"122":0.06308885373743553,"123":-0.11939200140913633,"124":-0.09318901177632274,"125":-0.08533250010282172,"126":0.1527007923802052,"127":0.01080180825043956,"128":0.07041028194144375,"129":0.09636495110946883,"130":-0.024332468441319765,"131":-0.009307548383871477,"132":0.07742468730359606,"133":-0.18633745261248588,"134":0.08607584633268926,"135":-0.08584192257769362,"136":0.2781526752056054,"137":0.1353595189255765,"138":0.140005587852605,"139":-0.007200747561286803,"140":-0.13704384769487762,"141":-0.1817976911838895,"142":-0.0007053499728710744,"143":-0.0263417921592813,"144":-0.10622729678971969,"145":0.16127123697420392,"146":-0.07487241730585623,"147":-0.06748859644934814,"148":-0.06333083519913398,"149":-0.04626611706993956,"150":0.12657103923376803,"151":-0.16177600796248318,"152":0.18438904297822567,"153":-0.07468033836343206,"154":-0.011164814004207284,"155":-0.4061731352250048,"156":-0.3180261624659397,"157":-0.1583737371527682,"158":0.2500155467612147,"159":-0.3435517820238174,"160":0.029887767902387292,"161":0.10690207266264881,"162":-0.07051302282480905,"163":-0.00725338141369942,"164":-0.00774952109973515,"165":-0.02169689566258042,"166":0.03662958551296098,"167":-0.25276301296754866,"168":-0.1186489268782048,"169":-0.1025579778100061,"170":0.18753660426914334,"171":-0.2633489827651489,"172":0.04947450738222472,"173":-0.05379122213148273,"174":0.1070323356815954,"175":0.08958170596185838,"176":0.006639817403241424,"177":-0.18126615333395427,"178":0.2510623080441062,"179":0.18678777949116682,"180":0.18894679496614197,"181":-0.11552316212706631,"182":-0.187283632722957,"183":-0.07168202994071059,"184":-0.07726805964540737,"185":-0.20394924609705142,"186":-0.23315052498629205,"187":-0.09200806967271503,"188":0.23864105469003818,"189":0.3331226880302714,"190":0.003058173212553688,"191":-0.033299972398819676,"192":0.1624270359964751,"193":-0.009235414454880488,"194":0.2636545323238658,"195":0.16286885681291477,"196":0.24886118806968371,"197":0.3580457287625293,"198":-0.16847454654638444,"199":-0.25883590560103303,"200":0.09859123134815569,"201":-0.001442657527698804,"202":-0.07999901122045666,"203":0.005977826806021342,"204":0.3457772109316705,"205":0.24143817890203065,"206":0.14289349383094638,"207":0.05654853409595962,"208":-0.13913065731892763,"209":-0.17572328821618366,"210":0.1867148593200913,"211":-0.0014608234441266309,"212":0.30120904437615087,"213":0.04526728470995343,"214":-0.050028180505925564,"215":-0.06858113890613225,"216":-0.2791270879035784,"217":0.007620870355862456,"218":-0.1177101814032854,"219":-0.042563882737219255,"220":0.3123155573887388,"221":-0.009440814420755684,"222":-0.03884253070756074,"223":-0.06172082525322793,"224":0.21923651464720684,"225":0.12760274185490433,"226":-0.17644648955052836,"227":-0.30463400544364944,"228":0.2551763888345418,"229":0.12682997222230233,"230":0.06797643008535977,"231":-0.13091898676181873,"232":0.1791274865725172,"233":0.17242105132128138,"234":0.2643859461957877,"235":0.2833970345558855,"236":-0.1415861392693971,"237":0.23852070479333645,"238":0.08153398433558079,"239":-0.04637506761253932,"240":0.16085823248535452,"241":-0.033934715334172624,"242":-0.3426777787445536,"243":-0.11638522853747214,"244":-0.3557067358757331,"245":-0.006363074000955069,"246":-0.005512736306824344,"247":-0.15924898447031605,"248":-0.12795531355788184,"249":0.08134154919754355,"250":0.18834625794962825,"251":0.2331822749270605,"252":-0.12404311627256144,"253":0.06909665785509067,"254":0.2126870982103737,"255":-0.05874863640888226}},"5":{"bias":0.276397769488096,"weights":{"0":-0.057196549966566396,"1":0.22249262840945316,"2":0.09604757023432521,"3":-0.17471457981236244,"4":-0.0433872018753102,"5":-0.09121031921138095,"6":-0.12364649732967027,"7":-0.16127397096007806,"8":0.03578534820596174,"9":-0.1576464381889721,"10":0.17230738621288338,"11":0.05416490444498485,"12":-0.10375357032672142,"13":0.0023966163363090673,"14":-0.10610519279099073,"15":0.08313765060701624,"16":-0.023766115286005085,"17":0.06909856904676705,"18":0.13787686770499052,"19":-0.19829252551118098,"20":-0.24094809818044813,"21":-0.11611811804550068,"22":-0.1128453885619321,"23":0.08559999971978412,"24":0.1477649203150109,"25":-0.09529441296680523,"26":-0.11558073378689103,"27":0.032207525827461586,"28":0.11085599173793577,"29":-0.04589416252603553,"30":0.04564136982522352,"31":0.25328553338221155,"32":0.13816735922261256,"33":0.06344190283189367,"34":-0.01184715357363872,"35":-0.1781823758795369,"36":0.09615897478542541,"37":-0.11800515774065586,"38":0.03253798294633784,"39":-0.04641996500114956,"40":-0.060690740697958614,"41":-0.09228745838523278,"42":-0.10805280975616405,"43":-0.08628023099059125,"44":-0.05571455403982279,"45":0.019659523561634636,"46":-0.07162035412990471,"47":0.0969354609295749,"48":0.03708344539328392,"49":0.1995545914679873,"50":-0.10997588000831242,"51":0.15462326235358892,"52":0.24429731651127495,"53":0.11700682553259198,"54":-0.11531677287020771,"55":0.1356197721802626,"56":-0.24382576415084903,"57":0.19016626164298803,"58":-0.06624766222771472,"59":-0.17403382830278705,"60":0.13846654255381707,"61":-0.2041817547756335,"62":-0.02941462054487248,"63":0.1881088688969041,"64":0.0439730199852155,"65":0.1579371260686193,"66":0.16460021198781086,"67":-0.17293559797350722,"68":-0.005206370245056884,"69":0.004276197347621788,"70":-0.19626175091283604,"71":0.15285794296612554,"72":-0.15493903068970402,"73":-0.09238106720477059,"74":-0.12524706036236252,"75":-0.09134700139447838,"76":-0.03275456902562539,"77":-0.15664587139764108,"78":0.008096477512378951,"79":-0.09992052973348173,"80":-0.05680853166331075,"81":0.003879770382612852,"82":-0.11822450393088742,"83":-0.1799059932614342,"84":-0.11121586782110154,"85":-0.08976016106820356,"86":-0.044577615903897944,"87":-0.0848153886079635,"88":-0.09441473792960356,"89":-0.09706818921711455,"90":-0.1780393575052542,"91":-0.11515580161079962,"92":0.04870705521314536,"93":-0.2558671478271454,"94":-0.11329829671479626,"95":0.1196032781701108,"96":-0.25651311817590416,"97":-0.11766184777796479,"98":-0.09760023074228069,"99":0.013508968581459028,"100":-0.10123426184735705,"101":-0.08962005299549705,"102":0.09238773794807031,"103":-0.1414058432480771,"104":-0.16980874611670524,"105":-0.013436481697819788,"106":-0.00023354447822203196,"107":-0.17514180359749895,"108":-0.25928830004051107,"109":0.0028565613093894573,"110":0.02575981548863745,"111":-0.03502491983822959,"112":0.1448603801958433,"113":0.058575975441238624,"114":-0.0009983186609657827,"115":-0.12414132705428417,"116":0.049950522920576626,"117":-0.10567948213016846,"118":0.18704133761828595,"119":0.10109497142269956,"120":-0.13674506288288826,"121":-0.12402682362547049,"122":-0.18896041955373744,"123":-0.16354939023091694,"124":-0.04003588059538231,"125":-0.10085411338786157,"126":-0.11565069593336717,"127":0.11094784882553779,"128":0.05888625931363231,"129":0.12742319272935754,"130":-0.05538640249800434,"131":-0.12991379544917714,"132":-0.10791099769199437,"133":-0.17225634884044025,"134":-0.09290725108440569,"135":0.2323658457117571,"136":-0.14565081316019718,"137":-0.019556154626997033,"138":-0.0009471481266060441,"139":-0.020622523162880598,"140":-0.05191746362463042,"141":-0.0805078651590775,"142":0.15210783627276284,"143":0.020710735940580875,"144":-0.17564857412258095,"145":-0.14737709501592064,"146":0.002916700185165083,"147":0.02185503096417526,"148":0.03294346623136387,"149":0.2030009146898598,"150":0.1892240580062472,"151":-0.023082198190630294,"152":-0.02380725197622288,"153":-0.11210346912268708,"154":0.03273479430022119,"155":0.0572323039170518,"156":-0.07895871139308962,"157":-0.1222785351490866,"158":0.03763111774935608,"159":-0.05873311995192206,"160":0.030431342968866546,"161":-0.04128881361488703,"162":-0.16177963488127667,"163":0.023187898801226448,"164":0.21363373701956856,"165":0.04224241904453065,"166":0.15838432355404677,"167":0.09541321601130082,"168":0.03075340080754362,"169":-0.004725731550530023,"170":0.025767088011804638,"171":0.18914050803628127,"172":-0.046136264262822926,"173":-0.11375031342719864,"174":0.19066869316463375,"175":0.12763002002801316,"176":-0.04986179685880998,"177":0.054311604449961186,"178":-0.0915405484190045,"179":0.1479869201854369,"180":0.14061819160068856,"181":0.1097173648760714,"182":0.06802376015495852,"183":-0.10666118679841823,"184":-0.04691164896022965,"185":-0.15746483688561644,"186":0.0993003749670168,"187":-0.020448916384955395,"188":0.021313844860523182,"189":-0.013526706416966688,"190":-0.005067704762047197,"191":-0.07317591268093837,"192":0.16029288263522862,"193":-0.0893271907076609,"194":0.15210856370761647,"195":-0.11527042492493275,"196":-0.10377109233043329,"197":0.026509933254173175,"198":-0.08703694660463554,"199":-0.10828077249198145,"200":-0.15789072054997363,"201":0.05390554329354642,"202":-0.1303051356103638,"203":0.22023103753046552,"204":-0.05996440575430389,"205":-0.07528084254012272,"206":-0.07986315425019587,"207":-0.06154629297278764,"208":0.112825770504946,"209":0.10543342678859241,"210":-0.05969186757095227,"211":-0.008789905197652907,"212":0.1610078403676893,"213":0.2160432788932251,"214":0.020768247079998973,"215":0.2796833513003006,"216":-0.05104421229987512,"217":0.08441048494147498,"218":0.18385297577340623,"219":0.18844188058652844,"220":-0.057927440222060936,"221":-0.05053255251369911,"222":0.09659199864930663,"223":-0.022317741151524836,"224":0.2511708970011324,"225":0.15454026531947906,"226":-0.12958599973267348,"227":-0.08141607071844485,"228":-0.18250577830156683,"229":0.04798678260991064,"230":-0.1497441466451206,"231":0.0839336983370268,"232":0.030541798953284877,"233":-0.020763187862008828,"234":0.19852905417511021,"235":0.12411426258911226,"236":0.05615895832674255,"237":-0.019759777442256134,"238":0.11967276192898348,"239":-0.011236428244178984,"240":0.06082064129822344,"241":0.12160583437861694,"242":-0.013549225824122905,"243":0.17857535666417665,"244":0.02385255174376258,"245":-0.26217228207513493,"246":-0.1893682059368445,"247":-0.18505495738219854,"248":0.10895670612909493,"249":0.08603435636092399,"250":0.2669545613036628,"251":0.005810859378584311,"252":0.019977934499319415,"253":0.15086144995327108,"254":-0.16103627790623037,"255":-0.1806961911640764}},"6":{"bias":-0.055283523504301435,"weights":{"0":0.13578549325956502,"1":-0.027241952956908337,"2":-0.07948392603865059,"3":-0.14733687022734804,"4":0.26321537555466784,"5":0.28521028518361524,"6":0.14689831198404588,"7":0.0994839420190542,"8":0.18071214166492747,"9":0.21732222033266616,"10":0.07910540073367352,"11":0.007084264922852345,"12":0.2171147671850327,"13":0.043357920358344626,"14":0.0856363196945403,"15":-0.0016525787866181409,"16":0.05502129664720115,"17":-0.1903893546920833,"18":0.02299372079575233,"19":0.16548078432151436,"20":0.15130670528494958,"21":0.3110800537517606,"22":0.1296458860409921,"23":0.05005312012203634,"24":0.1011880860781612,"25":-0.038834755721865906,"26":0.27016580763089115,"27":-0.17839435556238598,"28":-0.11523929547444033,"29":0.08364138895965015,"30":0.04300755672739812,"31":-0.11368293681882517,"32":0.2150623488328247,"33":-0.08952684611212545,"34":-0.3245486502205498,"35":0.08700055095842205,"36":-0.18273973126595003,"37":0.018528306203784588,"38":0.2217216488808473,"39":0.0401283698721744,"40":0.05242387096732734,"41":0.29622985410084796,"42":-0.04573853206935033,"43":0.06658835536492666,"44":0.15242720444066699,"45":-0.050225324456155816,"46":-0.05090293592729443,"47":0.046151482686104084,"48":0.03762140110765057,"49":-0.22880681425684107,"50":0.06626069391176238,"51":0.22508073413350072,"52":0.08054790761657303,"53":0.03897327214973343,"54":-0.10315034468423287,"55":-0.24166416137474647,"56":-0.3318462253560097,"57":-0.24981840524202228,"58":-0.06708006093723179,"59":0.04726171632541244,"60":0.1417168528885982,"61":0.05725730314289415,"62":0.12520692157745547,"63":0.12142706288750868,"64":-0.31822318601502225,"65":0.127462148799815,"66":-0.16502906149600277,"67":0.10990954249841796,"68":0.18840099045301634,"69":-0.0867684850379556,"70":-0.2578591027037233,"71":0.03902344641362054,"72":-0.33666364285284156,"73":0.112109035067329,"74":0.27747984070078396,"75":0.11647049268477593,"76":0.11475055348403768,"77":0.06016517915272506,"78":-0.20106329446568388,"79":-0.02868826732957888,"80":-0.011059582707803725,"81":-0.06552713794116824,"82":0.04822718228600209,"83":0.14844839607868415,"84":0.021385770431389662,"85":0.035880245870564736,"86":0.07784217525676076,"87":0.18907648584256762,"88":-0.09609984051341997,"89":-0.2786074071269845,"90":0.06698293796075155,"91":-0.003986386035181248,"92":-0.16353483102303076,"93":-0.08103740284603451,"94":0.03556265686111435,"95":0.20693569920110125,"96":0.0041589375509482295,"97":0.2006799317731543,"98":-0.09430327649803234,"99":0.06794464537010696,"100":0.0943450294302996,"101":0.06379272635238858,"102":0.10933216618790251,"103":-0.09361061664764908,"104":0.05008047313999876,"105":0.21950615168608284,"106":0.06786358397671684,"107":-0.11304462548919487,"108":-0.216382783763308,"109":-0.03399708249436669,"110":0.011866068267940422,"111":0.2397509261586094,"112":-0.24472628710166178,"113":0.059756832268119786,"114":-0.13289643662609485,"115":0.005683476910295762,"116":-0.05838271242710624,"117":0.09609784968619273,"118":-0.13082954399855184,"119":0.026387415709218973,"120":-0.1890064558825264,"121":-0.1841218581346544,"122":-0.1385167567299064,"123":0.10709961015692106,"124":-0.23890634600822802,"125":-0.20989583778372128,"126":0.01902685779748785,"127":0.05901646547613913,"128":-0.13878209604208605,"129":-0.10184376388149557,"130":0.30889495406972767,"131":-0.2856720280723691,"132":-0.14321004741122456,"133":-0.04897899787636908,"134":-0.05883354446942359,"135":-0.36862598380074685,"136":-0.417285528260504,"137":-0.2000642347562162,"138":0.02905324920195198,"139":0.12110211251967462,"140":0.032465277862908856,"141":0.013516770083247615,"142":0.2881456976996556,"143":0.13598936609054968,"144":-0.2906475924925129,"145":0.36749165713686377,"146":0.4040113492666559,"147":-0.3226484807570398,"148":0.012226414910937634,"149":0.24722121337529376,"150":0.07893914659743904,"151":0.07281610819053323,"152":0.039689965943960875,"153":-0.013275071651921778,"154":0.1116980431137438,"155":-0.013437772348129052,"156":-0.1920797358055531,"157":-0.3100193663401655,"158":0.26987747755082525,"159":0.30243937022927253,"160":-0.12875490180301863,"161":0.33773017065048166,"162":0.14549572266031147,"163":-0.342428859593748,"164":-0.11399947027797083,"165":-0.07072257455165809,"166":-0.28028605351002306,"167":-0.12172297484238301,"168":-0.19705724205985847,"169":0.02015112994192221,"170":0.2461194779101615,"171":0.049356181324855974,"172":0.38868613642147104,"173":-0.23242489155007975,"174":0.08745037415059231,"175":0.1601447875056693,"176":-0.14251728721882664,"177":-0.041047780041932824,"178":-0.04740609549981908,"179":0.056024021239901876,"180":0.13137391061897646,"181":0.016628125416665963,"182":-0.04542735386015608,"183":0.031256325383834174,"184":0.08039458320140985,"185":0.02339090380338975,"186":-0.3370310648524128,"187":-0.23869092105426834,"188":0.08553642739173105,"189":-0.026611884377102206,"190":0.08571753403312092,"191":0.11520275049086627,"192":0.0732240181466281,"193":0.027709284267943283,"194":-0.11427881752881655,"195":-0.10155604119574907,"196":-0.06188194128211628,"197":0.3263584699157675,"198":-0.1894641501343374,"199":-0.19736724402196,"200":0.07131450301306809,"201":-0.15579862950299878,"202":-0.3597569188220628,"203":-0.3064021520088648,"204":0.24014185718795356,"205":-0.050038682300942224,"206":0.1933863267077625,"207":-0.15356574844521076,"208":0.1624214829771475,"209":-0.14360229086477622,"210":0.06702019640923308,"211":0.049268786903334735,"212":-0.03717368348628767,"213":-0.12982822042582776,"214":0.031940383687723235,"215":-0.0883462553216008,"216":-0.3727118283044592,"217":-0.0016646188501151472,"218":-0.05752833030004077,"219":-0.0316052348043705,"220":0.05044383182936316,"221":-0.14648745949183806,"222":0.14003306838094248,"223":0.06757701651096985,"224":-0.1356734887340814,"225":-0.009004258941659118,"226":-0.07109895278932632,"227":0.14371928694735367,"228":0.14831658611820328,"229":-0.0007222311484945848,"230":-0.1333244456472559,"231":0.08046404654671023,"232":-0.20156682611370266,"233":0.1658178497705896,"234":0.1983004899186718,"235":-0.1110761396801372,"236":-0.049599212090238466,"237":-0.18769594154518693,"238":0.10191847894067818,"239":-0.13294850464840827,"240":-0.04085917614647819,"241":0.08180101647204291,"242":-0.15904661090519245,"243":-0.08709706881447023,"244":-0.007156267369120012,"245":0.05403180122077629,"246":0.2918610835469997,"247":0.03868160757761845,"248":0.1218415836084265,"249":0.07150214809672838,"250":0.3593395904216151,"251":0.25384382514229126,"252":-0.10539389569719623,"253":0.0057069739491697824,"254":-0.11646067630608736,"255":0.06962710072263403}},"7":{"bias":-0.046391553264462905,"weights":{"0":-0.00020054891181320412,"1":0.07132078672174418,"2":-0.033773880758572995,"3":-0.11355456889169843,"4":0.07236817141999922,"5":0.19670966415407268,"6":0.02615674380327551,"7":0.18604209332522353,"8":-0.298584255219074,"9":-0.2063317231166679,"10":-0.1631520964710744,"11":0.119326160071113,"12":-0.0343444227764026,"13":0.05749901413710773,"14":-0.08533101270423654,"15":-0.14743745239999836,"16":-0.18822550023946336,"17":-0.059745762247740586,"18":0.12168125372789888,"19":-0.0408114554648109,"20":0.036710622587648234,"21":-0.08568278344824787,"22":-0.21380908388850006,"23":-0.08782713359214545,"24":-0.11267152297642555,"25":-0.39126799926443495,"26":-0.015715904046215125,"27":-0.2572511036965871,"28":-0.06954288274524145,"29":0.007550131869941346,"30":-0.0943661371869362,"31":0.10043370999140923,"32":-0.09137413693267675,"33":0.26248379810701544,"34":0.06213886194761346,"35":-0.0862022528435962,"36":-0.2235507348884384,"37":-0.06199100338211624,"38":-0.04337778068424796,"39":-0.16588302759337842,"40":-0.1635448106052074,"41":0.07806548808680473,"42":-0.054698755687284696,"43":-0.2379946212049687,"44":-0.26964232045575903,"45":-0.26971146325500744,"46":-0.16604980230861108,"47":-0.0669003048017744,"48":-0.06332239567805371,"49":0.20832806470189466,"50":-0.08615382316831857,"51":-0.0014744426419825267,"52":0.03693523122182097,"53":0.14456770203422098,"54":-0.05997176899477481,"55":-0.022854366632863714,"56":-0.056269467498129395,"57":0.041631057900933646,"58":0.06306395150642109,"59":-0.07622748262529637,"60":-0.258670861134573,"61":-0.23798803958310605,"62":-0.04838745799875729,"63":-0.0680756414880657,"64":-0.021652841036782687,"65":-0.03617289163948672,"66":-0.07022278053806735,"67":0.10843271713207506,"68":0.20477870234792037,"69":0.06966215729264649,"70":0.12140061051640197,"71":0.2014217609827052,"72":0.1650302538347422,"73":-0.17903299295266767,"74":-0.2132015200697224,"75":-0.12633766505141422,"76":0.04132891674111556,"77":-0.10875973595255099,"78":0.06552013424109598,"79":-0.09477059806250242,"80":-0.014864097718290337,"81":-0.07713239665624426,"82":-0.0008901735665662381,"83":0.09497463252264228,"84":0.09354089524896873,"85":0.23595169308721575,"86":-0.0033249707439010046,"87":0.18182555337327683,"88":0.0050569603581996836,"89":0.007439042038883972,"90":0.012879622380446728,"91":-0.22948492490838476,"92":-0.27954111599199893,"93":-0.198588005833486,"94":-0.11278856885717371,"95":0.08483921812614341,"96":-0.0797472501891041,"97":-0.02898163881733446,"98":-0.01283577016060285,"99":0.29306123857186245,"100":0.09460966484023789,"101":-0.10346897499784409,"102":0.19030148355696952,"103":0.3717596217272873,"104":0.30040205785282204,"105":-0.18057212592190958,"106":-0.193715782602949,"107":-0.15293352854985112,"108":-0.30220431905376904,"109":-0.3568426978371068,"110":-0.2598179836590886,"111":-0.23538442602605794,"112":-0.11338060430245987,"113":-0.04149619910334599,"114":-0.14458231885806422,"115":-0.03452618073837539,"116":0.2509855803050382,"117":-0.07014246595734477,"118":0.3451621346918801,"119":0.175037233990121,"120":0.195659908298158,"121":0.2437863660468718,"122":-0.022201061946288878,"123":0.04669528208327464,"124":-0.23649362691262252,"125":-0.07148057271444519,"126":0.0870316927231153,"127":-0.03502006568193463,"128":0.1784231209812953,"129":0.031758096281571,"130":0.021290093772481138,"131":0.12232653869072616,"132":0.2915959086965265,"133":0.09407844482769834,"134":0.3206847052126567,"135":0.007544805472417545,"136":-0.12161771073991301,"137":0.2828199027797303,"138":0.2795571297117438,"139":0.1296774174951363,"140":-0.1338595255996956,"141":-0.16907170019648105,"142":-0.2357648790782906,"143":-0.11499134342445877,"144":-0.31038380708458124,"145":0.29250375335668277,"146":0.0313503388337567,"147":-0.03709328716111,"148":0.1788429248275655,"149":0.08456644403898379,"150":0.21994048582304418,"151":0.29181313056892083,"152":-0.08604511987395512,"153":0.13986087085551116,"154":0.08351370868296319,"155":-0.023057628369628276,"156":-0.15757956490488667,"157":0.08238148043547469,"158":-0.14107781256553167,"159":0.021161426619369282,"160":0.0308973809023307,"161":-0.2247008244141648,"162":0.1711267262004453,"163":0.05295146184365494,"164":0.09628686128675347,"165":-0.09637184755933074,"166":0.20820637111791657,"167":0.13681414196634048,"168":-0.17187498305148194,"169":0.11191675904270182,"170":-0.0397530924520718,"171":0.10504706892350615,"172":0.14715787805513625,"173":0.11150781749187544,"174":0.028406684689646838,"175":0.1666320675971854,"176":0.22742938974273041,"177":0.0013963606002181102,"178":0.22739376783954035,"179":0.13891444037491754,"180":-0.062111162786134363,"181":-0.1502047867842897,"182":-0.13677578605967033,"183":-0.25312318068916184,"184":-0.2566801640379701,"185":-0.2319131734825275,"186":-0.18449119867938116,"187":-0.13366180743310904,"188":0.018299878993174513,"189":-0.11962955096142744,"190":0.16533603098507824,"191":0.04488875621727118,"192":0.15906369461026434,"193":-0.18665688382260476,"194":-0.06777962064140948,"195":-0.14273612226755936,"196":-0.044599293523723015,"197":0.22864246823360057,"198":0.05859391259529004,"199":-0.17031612661057893,"200":-0.0011492967854434594,"201":0.08868392780800406,"202":0.044687067666311635,"203":-0.006479919485790169,"204":0.1333675526409929,"205":-0.07735256206747483,"206":-0.05693977235282225,"207":0.11265700474742774,"208":-0.17143607378284542,"209":0.002576076768587407,"210":0.19159060134315403,"211":-0.06513528805417267,"212":0.0353911927808867,"213":-0.22379533979610342,"214":0.07248220875655598,"215":-0.0756318253572972,"216":0.08689752051908559,"217":-0.20719535363826921,"218":0.09905396912037855,"219":-0.07379916704826449,"220":0.015633623561832937,"221":-0.15299190358087733,"222":0.10582311004877186,"223":-0.1873212641004506,"224":0.12043615191216796,"225":-0.0231367340568559,"226":0.06063700404941996,"227":-0.0785592699659351,"228":-0.26642490789751644,"229":-0.0570311394301158,"230":-0.29755978168600117,"231":-0.12936604159049903,"232":0.11655188587107891,"233":-0.19184882833634834,"234":0.05386813850904941,"235":0.10316992378017183,"236":-0.02377215332580942,"237":0.1695340963067003,"238":-0.16679934867898336,"239":-0.023986759921251162,"240":0.037629085233830344,"241":-0.035970771610372446,"242":0.03991818600746406,"243":0.22095820076854947,"244":-0.17201545902469598,"245":-0.16313572041869479,"246":-0.11650801829250848,"247":-0.18043072108332261,"248":0.02082632558696911,"249":0.12409891647253891,"250":-0.027071318955613412,"251":0.09519943434406203,"252":0.18864378409236796,"253":0.1661471994464596,"254":0.12783748082606353,"255":-0.04803622579493094}},"8":{"bias":0.21430417513325473,"weights":{"0":0.03210658547953924,"1":0.34033912637168595,"2":-0.06716383911345726,"3":0.011018995831886041,"4":0.10107204877331794,"5":0.14070756134199924,"6":0.004819602289351601,"7":0.19004419529188493,"8":-0.22610959389233865,"9":0.08780881277898263,"10":0.0031003472052347526,"11":0.15363078331744884,"12":0.052645916207322986,"13":0.10767998490213275,"14":0.1339348347295142,"15":0.10501012551905788,"16":0.2588550103490311,"17":0.29741440675568565,"18":-0.0719559314418583,"19":0.07094928426620839,"20":-0.18496134498637382,"21":-0.01739399695476519,"22":-0.2095036378680719,"23":-0.010139598564418028,"24":-0.03771246606628072,"25":-0.03198523184911809,"26":0.10737559797329237,"27":0.028680143018471514,"28":0.08999889606058199,"29":-0.026363558581805956,"30":0.1431945956484046,"31":0.3361068554565953,"32":0.07940757762538325,"33":0.0751320461841098,"34":0.18324934724687605,"35":-0.19337034780605897,"36":0.14695949702135944,"37":-0.1501646768868445,"38":-0.011099225096007692,"39":0.01715106952691119,"40":0.06777857503643797,"41":0.041832202376945016,"42":0.09974871798880737,"43":-0.03878657370381372,"44":-0.05843440351326927,"45":-0.041254657719917855,"46":0.14226818485953063,"47":0.040967591663276876,"48":0.11818497073195083,"49":0.11572886464113694,"50":0.06881187181932015,"51":-0.18908883974812812,"52":0.045910128788508565,"53":0.01769151353979773,"54":0.026671857318181492,"55":-0.1798616163772756,"56":0.0934867639801418,"57":-0.08177196199205447,"58":0.1590760469877997,"59":0.11749232641689449,"60":0.17424895147209646,"61":-0.028572403097730112,"62":-0.11589787570303133,"63":0.18026374591528374,"64":-0.06743864775635429,"65":-0.06849318313135087,"66":0.0348340540735217,"67":0.07012547673105998,"68":0.06846287940610264,"69":0.21843957047766224,"70":-0.10339305148647777,"71":-0.09360574311368385,"72":0.032352140760742464,"73":-0.1531780793654411,"74":0.07909523702637171,"75":-0.07426253964482671,"76":0.23214025066821853,"77":0.027589572253816932,"78":-0.22431935594026897,"79":-0.1258193208432038,"80":-0.06107139602910422,"81":-0.057748808365745,"82":-0.1933181043758314,"83":-0.2288554182551924,"84":-0.06988892616609263,"85":0.12496877867292994,"86":0.010134992620176914,"87":0.2645634708882082,"88":0.03766522710730127,"89":0.014354186091055949,"90":0.13113150087871167,"91":0.10351725870421534,"92":-0.11586336350412622,"93":-0.06279216016580029,"94":-0.20743828047466853,"95":-0.21615558923769368,"96":-0.23314791550792635,"97":0.16353951865563607,"98":-0.10904917676456657,"99":0.08450079692768264,"100":0.018546109320996696,"101":0.327334892454022,"102":0.04677591972583941,"103":-0.0908431210181166,"104":0.09250735251521207,"105":0.04632123611820574,"106":-0.005010853480556033,"107":0.2993395383465726,"108":0.1900781915245672,"109":0.02179385945386981,"110":-0.09464376768497755,"111":-0.23799674793921405,"112":-0.22286615597600723,"113":0.08660149651810255,"114":-0.17224133193869948,"115":-0.06521353889010689,"116":-0.13830345777428604,"117":0.10492051638084121,"118":-0.07228242448271574,"119":-0.13072398669769772,"120":-0.1812530226201313,"121":-0.33663374568723176,"122":-0.05982519826507896,"123":0.22612010715807526,"124":-0.1554741553589719,"125":0.0235049329673566,"126":-0.1239269212429992,"127":-0.13374769484034518,"128":-0.1361610374169828,"129":-0.04674444221507588,"130":-0.15557172962805527,"131":0.2135265700974393,"132":0.18302420234614322,"133":0.29940164087781707,"134":0.03230672539260489,"135":-0.18421182333659258,"136":-0.31590399921822515,"137":-0.28090196955145447,"138":0.07203820015300386,"139":0.15290500239643648,"140":0.08546879820020822,"141":-0.25709743425766735,"142":-0.08331452074140623,"143":-0.1538625717165022,"144":0.13873610719494137,"145":-0.03740071592243506,"146":0.2925472510654079,"147":0.09202743541080094,"148":-0.0780489459276157,"149":0.0012131187054057187,"150":-0.010376326431950135,"151":-0.2980567471322517,"152":0.06760445899668167,"153":-0.17281045104545203,"154":0.06159683180848461,"155":0.17244009613369463,"156":0.09063428189419494,"157":-0.14185796243616136,"158":-0.01764100563183805,"159":-0.009018683435638422,"160":-0.01796365461772394,"161":0.10402554705139154,"162":-0.23836541872828088,"163":-0.05939245100274073,"164":0.0793762389038577,"165":-0.0671185015200547,"166":0.21734057593071868,"167":-0.31782699060211683,"168":-0.24657855910640875,"169":-0.12325831251795467,"170":0.05404062954563739,"171":0.3461716950155293,"172":-0.0881012593530104,"173":-0.20733221941026045,"174":0.1214529079395483,"175":0.2005484116030014,"176":0.0866119167236292,"177":-0.14028603854010865,"178":0.09520209074422638,"179":-0.19090872925725702,"180":-0.09542845279514996,"181":0.12409936810974222,"182":0.0029065953438376984,"183":0.09515459633605947,"184":-0.005476919236689311,"185":-0.017145810770313095,"186":0.07075101175305967,"187":0.2909483888506468,"188":0.15854046247256845,"189":-0.07686119404496117,"190":0.09775568857851283,"191":-0.04043152931003473,"192":0.1577490412543845,"193":0.09030291112437651,"194":0.07610055030181267,"195":-0.27029408283461787,"196":-0.06107276871849255,"197":0.19337886479771357,"198":0.07825716618646703,"199":-0.2793087522046168,"200":-0.1760357096714941,"201":-0.018800260208214972,"202":-0.16765847565813863,"203":-0.32515981834854396,"204":0.17550086433008688,"205":0.04484960864715032,"206":-0.1364826025797968,"207":0.02574924640660484,"208":0.03417018989419871,"209":-0.08829252364981374,"210":-0.1974902659269233,"211":-0.018684670589689124,"212":-0.023277504555607762,"213":0.25202529626935377,"214":-0.04994502508170969,"215":-0.263184683789705,"216":-0.21269730928392294,"217":0.0039410794340273714,"218":-0.2708586082819765,"219":-0.15750578285503605,"220":0.010201299932233619,"221":-0.20405434967394975,"222":-0.22776213609165327,"223":-0.02185612851075889,"224":0.02608680118474025,"225":0.2740984182220136,"226":-0.052557592979093556,"227":-0.07451601029325891,"228":0.10491308453659601,"229":0.06196460835572248,"230":0.17518185572366618,"231":-0.10273895419428407,"232":-0.16946291199900634,"233":0.19960252890667624,"234":0.048030861743756675,"235":-0.19049713636516022,"236":-0.4061713865222469,"237":-0.10580171896999528,"238":-0.06631077576146958,"239":0.22023221821329003,"240":0.3433369489382161,"241":0.38406718940200607,"242":-0.07912087250068016,"243":-0.004759810454852454,"244":-0.13918659327867794,"245":0.15681089698193892,"246":0.08074237979900929,"247":-0.043016523762046864,"248":-0.058416981475738955,"249":-0.3407001834291412,"250":-0.07246554481840133,"251":-0.08893981328232896,"252":-0.03737292084822645,"253":0.07885867049069865,"254":0.01719603558814548,"255":-0.02041188360406528}},"9":{"bias":0.06327241474083299,"weights":{"0":-0.16457223983519623,"1":0.07587756382633767,"2":0.29541613236966746,"3":-0.039592922791331996,"4":-0.0005900248054390445,"5":0.09402748208284765,"6":-0.018807595914899947,"7":-0.23769509033648673,"8":-0.046798025383657654,"9":-0.20255383855594286,"10":0.07056551743465078,"11":0.005273690044506862,"12":-0.0698984630123735,"13":0.17039353548663863,"14":0.1598630421032228,"15":-0.144003009124702,"16":-0.1256636464664153,"17":0.21579808424706362,"18":0.15247017690077308,"19":-0.11397620353056205,"20":-0.04579002674752439,"21":-0.1066782276928425,"22":-0.12181267371251543,"23":0.13745160477815146,"24":-0.18816760929414675,"25":-0.08053248434694306,"26":-0.3074112455897998,"27":0.052733534731111815,"28":-0.016016434424944142,"29":-0.16425317666784445,"30":0.011404044171500061,"31":0.044886357062367134,"32":-0.17656525279020271,"33":0.22749418096434798,"34":0.08869559453786426,"35":0.09847607019336753,"36":0.30666244165827466,"37":0.2030928815540724,"38":0.16261556334348876,"39":-0.023983383494242838,"40":-0.26905546408744946,"41":-0.0014531643828995424,"42":-0.010195501692652613,"43":-0.16065102548160437,"44":-0.36259297056709505,"45":0.03351666526415961,"46":0.17399800885558497,"47":0.1253792807328561,"48":0.12692975625344383,"49":-0.044669683585849246,"50":-0.0017044711970077115,"51":0.052771742090339274,"52":-0.07220447775309227,"53":-0.01777269281887943,"54":0.2418921241368874,"55":-0.11467562084951947,"56":-0.09011100112716836,"57":-0.050232163514604015,"58":-0.2321230089422008,"59":-0.16280938309681628,"60":-0.031665847512198114,"61":-0.2667195374102235,"62":-0.0965648109814106,"63":0.051127833179430086,"64":-0.1174136706793734,"65":-0.007026193863093338,"66":0.12318725689621501,"67":0.11648132883534906,"68":-0.040875157136174206,"69":0.04842319257615174,"70":0.1934777660207262,"71":-0.12797324454964717,"72":0.2692835755446288,"73":-0.17046875542785322,"74":-0.008624052443574467,"75":-0.155371845122058,"76":-0.0200677655711044,"77":-0.23908482740735765,"78":-0.22154870816158648,"79":-0.00862898489410479,"80":-0.03829063181287296,"81":-0.06965051539954711,"82":-0.09463672035288986,"83":0.06593279712704692,"84":0.09554108554132008,"85":-0.06093860836599988,"86":0.1672602724505574,"87":0.1799303825564897,"88":0.000023289006426497508,"89":0.1550245522032279,"90":-0.04849950973835355,"91":-0.08211139115254662,"92":0.0168256988354794,"93":-0.2177140560319603,"94":-0.13929616974409315,"95":-0.1218969288059667,"96":-0.123419161066278,"97":0.15198959065232284,"98":0.06517128563109603,"99":-0.2385303257514579,"100":0.07419918166994048,"101":-0.15502414764477032,"102":-0.023223155700731156,"103":0.0584569478638638,"104":0.21009580960631485,"105":0.19240375175617852,"106":-0.08549864561793508,"107":-0.23551455626001863,"108":-0.16442418349625243,"109":-0.08939037048338729,"110":-0.17897940008640653,"111":-0.2228502981362674,"112":0.16897525402962582,"113":0.12049754781734438,"114":0.07964873459080404,"115":-0.0063383932156782785,"116":-0.11184504612726363,"117":-0.07446346657146646,"118":0.08910046299877628,"119":0.2189958331893515,"120":0.03566357870474968,"121":0.19172258378924703,"122":0.10172563357152474,"123":-0.27128222391276663,"124":-0.07256008397085632,"125":-0.3342599642111553,"126":-0.21913324826689254,"127":0.08973960099389107,"128":-0.04087857625496072,"129":0.21735577031389106,"130":0.07379560762193907,"131":-0.04195797145239196,"132":0.046820404992147784,"133":0.057705113502965664,"134":0.18446923232847404,"135":0.18149959927476653,"136":0.03447173027521711,"137":0.012387476494640715,"138":0.039021361468735236,"139":0.10003825817810857,"140":0.12213219579318613,"141":-0.2052913535079184,"142":-0.15625001268754193,"143":-0.28371819764755385,"144":-0.09779709630779929,"145":-0.09058535878106679,"146":-0.08764957451402466,"147":-0.29224596272142844,"148":-0.23183240909990943,"149":-0.10491208662635376,"150":-0.08171663631070816,"151":-0.13483460622333665,"152":0.15875923683283688,"153":-0.23783488832062646,"154":0.2046012471880926,"155":-0.022811252224942766,"156":0.04737550909437098,"157":-0.1465682657371827,"158":-0.24991275004814292,"159":0.154605142443811,"160":-0.1423175655476198,"161":-0.061553143354953294,"162":-0.13211431937089366,"163":-0.09889254529200563,"164":-0.1627014877584064,"165":-0.09969635679228997,"166":-0.06057310703518141,"167":0.021077787369323246,"168":0.08626847249077765,"169":-0.10091152466106681,"170":-0.04867817254431126,"171":0.3092532019372137,"172":0.09043134953539494,"173":0.1014961157864607,"174":-0.06256328492655662,"175":-0.13236835387922447,"176":0.21153052035986597,"177":-0.19111672877314875,"178":-0.05419891233244711,"179":0.06334035944083521,"180":-0.14938186289673394,"181":-0.15441026072333397,"182":0.18137497975259867,"183":0.07706652858901078,"184":0.1395637729572049,"185":0.20182198530117926,"186":0.2226434746407556,"187":-0.006905625142368082,"188":0.1494389528573616,"189":0.13259233667786155,"190":-0.15463936520048893,"191":-0.2773424457470592,"192":0.17346884044558836,"193":0.19698523730833298,"194":0.10255295947695352,"195":-0.29043216686788886,"196":0.020898793446548537,"197":-0.24693367099721716,"198":-0.22355349622107057,"199":0.05485105551995852,"200":0.24831592240694644,"201":0.23326433806932773,"202":0.13698075660570005,"203":0.18427710998994004,"204":-0.06564134248214379,"205":-0.00926699967681808,"206":0.2181715208615019,"207":-0.10712047207510703,"208":-0.07819216388179089,"209":0.05846733674930145,"210":-0.042976669538646435,"211":-0.03460202298038476,"212":-0.015126812244833828,"213":-0.01184892743709153,"214":-0.19225710131272988,"215":-0.14137335831240933,"216":0.16837944510059194,"217":-0.0645477818833894,"218":0.13591740884629827,"219":-0.09415544302155836,"220":-0.06569049011030152,"221":0.24930702660380297,"222":0.0017053927256086424,"223":0.10324262528895857,"224":0.08426140331815186,"225":-0.08276810434923487,"226":0.29298230167194816,"227":-0.10682924804388869,"228":-0.3536949433806689,"229":-0.28357310273332864,"230":-0.11612947425619645,"231":-0.00762533788298475,"232":0.059762698284772826,"233":0.03160220917780279,"234":0.01697126091369092,"235":0.012525618534582752,"236":0.05339751349300988,"237":-0.185623917666438,"238":-0.08441927466518646,"239":0.18364390403681569,"240":-0.04451654100213336,"241":0.13663518378970774,"242":0.38033347650500005,"243":0.03992642869315964,"244":-0.12617694936282084,"245":-0.24793986353077496,"246":-0.03801842876061076,"247":-0.007947430391898212,"248":-0.2582116671336715,"249":-0.19718148098099256,"250":-0.11372071273149575,"251":-0.07752459345458623,"252":0.06955842209424061,"253":0.12345028162587102,"254":-0.044822863879316534,"255":0.2579327649747041}},"10":{"bias":-0.060809871631710206,"weights":{"0":-0.25242583419769105,"1":-0.20980954029705084,"2":-0.21960825654368074,"3":0.09926216173259005,"4":-0.23203357428160126,"5":0.01544396044002422,"6":0.12050318504195125,"7":0.12750140858179485,"8":-0.035053404317760425,"9":0.1621260399928485,"10":0.035218767269226785,"11":-0.014186940477711213,"12":0.024948087188727902,"13":0.019883850119629978,"14":-0.10630003664276912,"15":-0.1507775883928112,"16":-0.05638430831727955,"17":-0.13184118069334083,"18":0.048896734116492695,"19":-0.24182419212275463,"20":-0.26926416860870206,"21":-0.054104716598202825,"22":0.0012308240987227773,"23":0.010580724920896447,"24":-0.12294914492004808,"25":0.14458468371265845,"26":-0.017982033995777098,"27":0.01323703066173123,"28":-0.08681017915967817,"29":-0.10130598551318742,"30":0.07667262164034128,"31":-0.12592108346061287,"32":-0.07626324350880667,"33":0.12193026735649563,"34":-0.3506862724149384,"35":-0.14438237301862136,"36":-0.1833259589530956,"37":-0.2269233225282978,"38":-0.22553496332289666,"39":-0.08682268901965239,"40":0.05055035097195788,"41":-0.011384089718030128,"42":0.182716089508301,"43":0.08648668006141629,"44":0.11573448416959943,"45":-0.13328029444562897,"46":0.031150847815254488,"47":0.04414130444979957,"48":0.19258979976185386,"49":0.12428778989932092,"50":0.08476917892391227,"51":0.05204340720634792,"52":-0.1605141972652125,"53":0.00425668600568907,"54":-0.26384585991115295,"55":0.07354805345574929,"56":0.08136553315399993,"57":-0.03171353804667352,"58":-0.14143453897996444,"59":-0.0703563916325419,"60":-0.12463712975559545,"61":-0.0593037838325379,"62":0.0496412090131518,"63":-0.18879302649589122,"64":0.09132895409425071,"65":-0.18714044630098245,"66":-0.1291269728628018,"67":0.24617264367938424,"68":-0.2157253634222305,"69":0.029238543347983335,"70":0.0899160614488324,"71":0.07977988667735912,"72":0.3189129543604545,"73":0.28681859773357654,"74":-0.2453369998229897,"75":-0.21955593122736042,"76":0.06678097949473082,"77":-0.10400764089806805,"78":0.17419806443264857,"79":0.22981404777511164,"80":-0.16126663458690824,"81":0.021167403666804856,"82":0.028012979018407543,"83":-0.15552210468880687,"84":0.15288784811768688,"85":-0.046158544638874206,"86":-0.1575095454887105,"87":0.05756589965357471,"88":0.4650347776573801,"89":0.48121882929205373,"90":-0.13593466468824827,"91":-0.23661878459796445,"92":-0.10480587795536177,"93":0.1136809423441584,"94":0.2416689791313828,"95":0.13993966603779084,"96":-0.16772257612444777,"97":0.11279117506407055,"98":-0.220121226388797,"99":-0.18657385065395776,"100":-0.2602534140708239,"101":0.0192260950822267,"102":0.32108413245749634,"103":-0.03479474736193657,"104":0.26309954584843165,"105":0.21833327094481506,"106":0.21954459986600333,"107":0.06111952849915887,"108":0.052798492765023415,"109":-0.3231106141468657,"110":0.1972165446980554,"111":0.19403529414325804,"112":-0.12726353187901052,"113":-0.012587038850780127,"114":-0.10059686861363358,"115":-0.06068323489045066,"116":0.27648093756843733,"117":0.2922510545077804,"118":0.185416795354567,"119":0.28030027996212614,"120":0.44790004840152625,"121":0.1898049380732296,"122":-0.09744750639763503,"123":-0.07251742828498449,"124":-0.34428918230226696,"125":-0.09037744337343295,"126":0.09960839852038723,"127":0.12433825285026723,"128":-0.053386870785842394,"129":-0.0482448792497507,"130":-0.1299486818395871,"131":0.05992942743660218,"132":-0.025219914409041883,"133":0.16732859389412827,"134":0.2531120336770804,"135":0.3012096252837383,"136":0.3658873386570364,"137":0.44265578411234174,"138":0.025063888489004236,"139":0.14159893420348757,"140":-0.1369500448821553,"141":0.023802481659109493,"142":0.023219871885200315,"143":-0.11385750387370876,"144":-0.1838082260584062,"145":-0.07420859813466282,"146":-0.1169479918949202,"147":0.1712195247531608,"148":-0.025808295340860887,"149":0.24192457479607957,"150":0.05075747142825019,"151":0.389580918379309,"152":0.218966601152423,"153":0.13646542621377555,"154":0.04830831474266707,"155":-0.05231175889130304,"156":-0.11758904480183201,"157":-0.2738760280998956,"158":0.04751321509583418,"159":0.1858638993483241,"160":-0.0826256825528534,"161":0.0948305461183633,"162":0.21842360190455054,"163":-0.047394395118045725,"164":-0.04329261419636521,"165":0.0355726288363158,"166":0.13906469358818702,"167":-0.1991927925304793,"168":0.08566986064112356,"169":-0.21063732521119483,"170":0.11725400102246661,"171":-0.05027660177642907,"172":-0.07864532246781039,"173":-0.21731012536888858,"174":-0.3745163641951094,"175":-0.2694469622799294,"176":-0.1397571518604468,"177":0.1418324991855518,"178":0.09966789012534069,"179":0.17715004279200836,"180":-0.05157063259365231,"181":0.24602071708130394,"182":-0.009479603993813878,"183":0.13210812517622658,"184":0.10420799777679562,"185":0.1540001844500876,"186":0.2974706189766477,"187":0.13830112580024598,"188":-0.08166249560827323,"189":-0.2105270991283683,"190":0.0176810337382254,"191":-0.2540494210674167,"192":-0.03278935214155961,"193":0.199811202827864,"194":-0.009625076198644177,"195":0.35274006331866475,"196":-0.00917934258432095,"197":0.14261018156041538,"198":-0.19796991853984847,"199":0.1609240208111732,"200":-0.12348344433714781,"201":-0.04653655926838894,"202":-0.05083120146430677,"203":-0.016531236062869846,"204":-0.18459057034275123,"205":-0.14380240399464786,"206":-0.22702777980440889,"207":0.13656253680845645,"208":-0.0010856317012065066,"209":-0.03749508285807912,"210":-0.20719787084429478,"211":0.14169900911962677,"212":-0.15059812763779504,"213":0.03975779486502231,"214":-0.10987916025579572,"215":-0.3667440622117649,"216":0.02191593099483911,"217":-0.08627447050071088,"218":0.1745789438888217,"219":0.09482274925501542,"220":0.028594488623740623,"221":0.02850952806324467,"222":-0.2619705791827672,"223":0.097803866450121,"224":-0.1620469926757146,"225":-0.10368515744306651,"226":-0.03945813481826078,"227":-0.17098660792103382,"228":-0.23013357606323018,"229":-0.39559412533168575,"230":-0.007644420658198025,"231":0.14589624747258068,"232":0.1259155264290086,"233":0.21971747801166808,"234":-0.022340620694514948,"235":-0.09804175564310033,"236":0.15196521266447494,"237":0.28107188480056833,"238":0.05918016003711821,"239":-0.06716151066668076,"240":0.11595766447851528,"241":-0.10420045772084757,"242":-0.07325115090070466,"243":-0.07154066016439667,"244":0.03921015777512253,"245":0.017903584857258407,"246":0.18977659371384978,"247":-0.038811082370176574,"248":-0.000027938864210227183,"249":-0.05999976371297835,"250":0.2207005807037671,"251":0.09602420957213828,"252":0.39860542542950794,"253":0.35616737766817874,"254":-0.0017643004751740426,"255":0.2362934738569572}},"11":{"bias":-0.44959832363183777,"weights":{"0":-0.0035672853633353457,"1":-0.20835719289138582,"2":-0.17713401083689806,"3":-0.033246740415144284,"4":-0.05294628372181982,"5":-0.04735641475238182,"6":0.11180734674503875,"7":0.14608805722156024,"8":-0.056568523028163634,"9":0.19501486566870846,"10":0.10371193745254076,"11":0.03399570065308591,"12":-0.16791257933580858,"13":-0.13689348034604024,"14":-0.14800291412640604,"15":-0.07921529585657958,"16":0.05295914944927347,"17":0.05350264121049331,"18":-0.2545318600584412,"19":0.15893337608324953,"20":0.13236864845084592,"21":0.15658523489706563,"22":0.0025981329118805433,"23":0.021472947211697808,"24":-0.1580479232627018,"25":0.0013297390978181224,"26":0.08299502543405005,"27":-0.08718194796549646,"28":-0.05312066923981938,"29":-0.028510739761364843,"30":-0.356484919685538,"31":-0.3094662370832246,"32":0.056669663183431244,"33":-0.0525475561764449,"34":0.04290919927693344,"35":-0.15041666685189745,"36":-0.27762932682505087,"37":0.08746405817908093,"38":-0.010442398030592874,"39":-0.03911451300485282,"40":-0.16077362663049075,"41":0.02207472181547844,"42":-0.06800808393375667,"43":-0.14962648877993723,"44":-0.10089843562130126,"45":0.09027947531781927,"46":-0.010265522896523728,"47":-0.4227663696378235,"48":-0.0614428318415553,"49":-0.012011890875938949,"50":0.060353624202469175,"51":-0.12543230647615466,"52":-0.3478242321833148,"53":0.00777542661429125,"54":-0.11286358876079623,"55":-0.121078797893554,"56":0.13556336356003135,"57":-0.1558081747053917,"58":-0.06533787662866641,"59":-0.11750920170499535,"60":-0.10426027377352369,"61":-0.0704170483716818,"62":-0.10213520819210893,"63":-0.14663699663022492,"64":0.1597687226213459,"65":0.012188700413960358,"66":-0.06856630387143227,"67":-0.16197672492466259,"68":-0.17312796810195236,"69":0.13567496941290907,"70":-0.0017385681475307242,"71":0.016188270373641393,"72":0.21928662892074557,"73":0.13274130126279582,"74":-0.13549143950300244,"75":-0.24412520235722707,"76":-0.17896021807365248,"77":-0.19681638411242708,"78":-0.08425356538224761,"79":0.09118840406547826,"80":-0.1924984822787417,"81":0.20751997636054093,"82":-0.19987403994503672,"83":-0.12793020075441708,"84":-0.09350969260540919,"85":0.37027050417777896,"86":0.12523916926107048,"87":0.2536068627999127,"88":0.31637127940340326,"89":0.3403546121491993,"90":0.23373365578315836,"91":-0.3001605932162896,"92":0.010732724340361566,"93":0.2617337164114583,"94":-0.040534952284582815,"95":-0.15069369813883648,"96":-0.001051583579882354,"97":0.07049085216441262,"98":0.038561894947179126,"99":0.05953680859511088,"100":0.11811485284399947,"101":0.2561990830995136,"102":-0.11900142155185048,"103":-0.12619880624741805,"104":-0.17879357203884402,"105":-0.20431368119357,"106":0.11120287338036364,"107":0.25741868874745927,"108":0.21714133326777818,"109":-0.097429700584072,"110":0.15876783808779138,"111":-0.13856060811598822,"112":-0.07742558883005397,"113":0.14673986808249415,"114":0.014194724592616201,"115":0.021216784507697956,"116":0.1972344153692359,"117":0.3515279651822543,"118":-0.12494575572204161,"119":-0.2056347849164968,"120":0.3781473843307991,"121":0.0906127035599874,"122":0.058448060392545284,"123":0.06003318054404977,"124":0.052743362981742786,"125":0.0375860697822129,"126":-0.06805298390172808,"127":-0.24405431594884702,"128":0.02821942559937236,"129":-0.07026037767977629,"130":-0.05588972079198075,"131":-0.16550748022892442,"132":0.30321950640160417,"133":0.34835119363829403,"134":-0.07759724686506927,"135":0.24275714400269338,"136":0.4616881914666683,"137":0.3849953081101165,"138":-0.1855116866536781,"139":0.30272622162302437,"140":0.26268395776657394,"141":-0.3756071222296398,"142":0.1324368134235055,"143":0.07384064262011003,"144":0.025668350163814035,"145":0.012444907801801306,"146":0.18771821520154602,"147":-0.016185345946606696,"148":-0.023947498096713517,"149":0.13284651785103832,"150":-0.19507433211866165,"151":0.5421413246300207,"152":0.0034813896997175444,"153":0.003407464032710602,"154":0.061887470768062045,"155":0.3782417950585199,"156":0.004125082748225473,"157":-0.12186290986458646,"158":0.14641214032738606,"159":0.1451572605247504,"160":-0.12159317413459128,"161":0.02861995497201873,"162":-0.011347318051325592,"163":0.0821093424274106,"164":0.1347819015194229,"165":-0.046568173340786584,"166":0.12063740689952515,"167":0.034908366703354045,"168":-0.31180041433911176,"169":-0.30489801959813606,"170":-0.19567405331398185,"171":0.1042561970430709,"172":0.3071122104433626,"173":-0.1802386380696003,"174":-0.0711199575945456,"175":-0.16037851778108478,"176":-0.16672106264839323,"177":0.12625359440052086,"178":-0.05850821600974761,"179":0.31096107987145827,"180":-0.11847204727564846,"181":0.2712329099205416,"182":-0.05512114798357597,"183":0.2269958493464601,"184":0.25048141196474405,"185":0.13061946842009597,"186":0.45962896794216973,"187":-0.0035748021355612026,"188":-0.1867646692541538,"189":-0.08017393410613526,"190":-0.004532237522577996,"191":-0.01408540710524889,"192":-0.03582647424595741,"193":-0.09516443178209118,"194":0.03984061064019106,"195":-0.06596284901436587,"196":-0.18715291343768595,"197":0.04449131366032154,"198":0.08890001354573157,"199":0.05609518943382354,"200":-0.004259056083329845,"201":0.05849799892332375,"202":0.024108678882976357,"203":-0.1954759359096466,"204":0.07770377072741433,"205":-0.12019737692449833,"206":-0.2830032719782746,"207":0.29908634201403556,"208":0.12248399069677252,"209":-0.0891187629493162,"210":-0.22194191107717617,"211":-0.4502814925556584,"212":0.02018714440593303,"213":0.014338740258170864,"214":0.03188301492056554,"215":-0.3596759626734039,"216":-0.0507440810798965,"217":0.029132816865127757,"218":-0.08504927329990211,"219":0.013621931675150883,"220":-0.09695863842984785,"221":-0.3009339741433693,"222":-0.04351147187202022,"223":0.14290832118963503,"224":0.09831473799191968,"225":-0.13983545716737963,"226":0.1618274032286967,"227":-0.13628895067641167,"228":-0.1228465351263563,"229":-0.16680347103369314,"230":0.21710866071356166,"231":0.06447471498684354,"232":-0.15187056255790593,"233":-0.22932033254004772,"234":-0.04922797372434144,"235":-0.042500445653243527,"236":0.09313780880589352,"237":-0.12510595653862588,"238":0.07952998513540366,"239":0.10883731301390277,"240":-0.08521685522174063,"241":-0.21948368236566007,"242":-0.3132222969993312,"243":0.003745678282700906,"244":0.13909382100064874,"245":0.15845561387923496,"246":0.24308926061551628,"247":0.02419537343466379,"248":-0.05515627199133266,"249":-0.03256557460347768,"250":0.041246975948805616,"251":-0.178663719237904,"252":0.21662785781405433,"253":0.05422910935248704,"254":0.19292487943951564,"255":0.04589854611551969}},"12":{"bias":0.05616306638576788,"weights":{"0":0.1239784430781828,"1":-0.03751394896810107,"2":-0.10690394712210699,"3":0.1637319217294802,"4":0.28217379097070316,"5":0.14387592738771485,"6":0.10322163804950399,"7":-0.033255290647569054,"8":0.11453820446243002,"9":0.1952544224418285,"10":-0.100593994779318,"11":0.0757364528474222,"12":0.029447475955848474,"13":0.09590488172033305,"14":-0.30197234264842376,"15":0.13266287515019418,"16":0.0911026593118396,"17":-0.06549882373886377,"18":0.08250942987819336,"19":0.21801378104839447,"20":0.19658763845915883,"21":0.26584679222623975,"22":0.18016184618997444,"23":0.2790321820296955,"24":0.10038619053894385,"25":0.19237303979607207,"26":0.007686216127921916,"27":0.12052223215924407,"28":-0.16748907167859506,"29":-0.00980144753318072,"30":-0.21224641799010147,"31":-0.34895878463691093,"32":0.12460976551151327,"33":-0.1238335818324405,"34":-0.10221820489040098,"35":0.05675780441595894,"36":-0.22498647004737052,"37":-0.004620723225801089,"38":-0.027898395992183987,"39":-0.030313623577026622,"40":0.05386289387118481,"41":0.060078460664379794,"42":-0.05580646377724047,"43":-0.11539998592832112,"44":0.13423742455379176,"45":-0.11839384134110671,"46":0.14652639296631462,"47":-0.16493674518891338,"48":0.25586499243805155,"49":-0.01716056170393857,"50":-0.07269265332211977,"51":-0.2616585728445907,"52":-0.3022167509787818,"53":-0.2339992539073061,"54":-0.12806074818919652,"55":0.06083838892904149,"56":0.13439829269882336,"57":0.0900051004303111,"58":-0.029116175078318512,"59":-0.20136658099736982,"60":-0.015502753964402045,"61":0.1855539273004095,"62":0.17001051675485726,"63":-0.25493177571949605,"64":0.02062737360685003,"65":0.19747141780946775,"66":0.08613605153125302,"67":0.04311656844078824,"68":-0.03659023937953053,"69":-0.3024613941718571,"70":-0.08046626681750275,"71":0.021368563954182164,"72":-0.0044856211573393095,"73":0.02150002084008552,"74":0.24364597133753021,"75":0.07832460296804511,"76":-0.02576410946676893,"77":-0.00769138888907595,"78":0.17659225019850025,"79":0.14219983345445145,"80":-0.07646690187093519,"81":-0.12037701472336468,"82":-0.14252380543512125,"83":0.08393929002782263,"84":-0.0807154447957793,"85":0.11116527909176231,"86":-0.06597889015961518,"87":0.1580482137618596,"88":-0.17846305950884767,"89":-0.12603801073767235,"90":-0.12801209582663362,"91":-0.33746805728751955,"92":-0.24048761523417156,"93":0.07431910642564302,"94":-0.024870202125682053,"95":0.3983253310024547,"96":0.15927146094125255,"97":0.10655027936736035,"98":-0.1215830478622223,"99":0.0961514356382137,"100":-0.08257308593771236,"101":-0.23250512260124626,"102":0.05077419502340658,"103":0.06922313610509073,"104":-0.16512779896837,"105":0.042042654868941313,"106":-0.07613827931489328,"107":-0.17256585551735548,"108":-0.05521593238017007,"109":0.04499862361609176,"110":-0.037071768565254064,"111":0.01485159439532181,"112":-0.17272895993279525,"113":-0.1677176069822171,"114":-0.1943683757004468,"115":-0.21764542811595627,"116":-0.058243293953421336,"117":-0.20425636524887325,"118":-0.13813691345992274,"119":0.14598390314836762,"120":-0.0872807946215866,"121":0.2560292401702253,"122":-0.02038571810963953,"123":-0.16494070272240935,"124":0.007810193360142228,"125":0.08167253026500236,"126":0.129860328872132,"127":0.02519752678427704,"128":0.27109112567827093,"129":-0.2384319924393338,"130":-0.03324667485627842,"131":-0.15749837921275942,"132":-0.19647448931595793,"133":-0.21818899684787893,"134":0.03257380638198587,"135":0.03929454236505745,"136":0.15885962099686263,"137":0.1367039572825086,"138":-0.019124138423860553,"139":-0.16772691785098098,"140":-0.009299419529771662,"141":0.043838920180328256,"142":-0.1375876246141038,"143":-0.02298446420209716,"144":0.0634968155226889,"145":-0.13564002837417619,"146":0.04060499870492468,"147":0.10599916811492481,"148":0.1302808337378344,"149":-0.12675059978248754,"150":-0.2450561246206157,"151":0.31778397726633273,"152":0.30913434576396015,"153":0.1590447660340856,"154":-0.0515129744651967,"155":-0.03928928737718557,"156":-0.19765667030561504,"157":0.00651137705983311,"158":0.09641189937157829,"159":-0.12049772659993195,"160":-0.15279309491668622,"161":0.06550885960122159,"162":-0.05533243313193234,"163":0.07558400620286611,"164":0.03867489765286494,"165":0.007502854516899807,"166":-0.03503393942551327,"167":0.12083322238969173,"168":0.08254487407378198,"169":0.021565588665006644,"170":0.04056752881143186,"171":-0.21363775129526424,"172":-0.20089837497483742,"173":-0.00970712133361887,"174":-0.02237088689140577,"175":-0.2022030541404866,"176":-0.14866967283978894,"177":0.3085717115045554,"178":-0.11051546911300712,"179":0.085886135160112,"180":0.03525159039989161,"181":0.08134464339031212,"182":0.10030878523150442,"183":-0.09206160793033871,"184":-0.13090911332131494,"185":-0.12934689246164302,"186":-0.030718532887459543,"187":-0.03331100431032346,"188":-0.37611045356433653,"189":-0.0068037510208068955,"190":0.039542897927456376,"191":0.06882355219923632,"192":-0.0726443302541111,"193":0.0660444706468843,"194":-0.07642479020182738,"195":0.016711043875270754,"196":0.050480279509344916,"197":0.19985943627004565,"198":0.24425238115245373,"199":0.009269480311137729,"200":0.23703584703345001,"201":0.18330380737914936,"202":-0.2159025599345924,"203":-0.038907605864989495,"204":-0.20853133724062986,"205":-0.15835507690587192,"206":0.10559596622057592,"207":0.1054044531138498,"208":-0.14553539234273777,"209":-0.10386489956773567,"210":-0.08545002427634278,"211":-0.10398756230777759,"212":0.14925446853442162,"213":0.050280359830685614,"214":-0.04942491562947339,"215":0.0064073561496597875,"216":0.23390187516254224,"217":-0.16535077759641476,"218":-0.13167157231959783,"219":-0.01981095748612147,"220":-0.1362748905883786,"221":-0.06892743690302455,"222":-0.10865637300635266,"223":0.12767178848286234,"224":-0.10299494641717359,"225":-0.10914257547033156,"226":0.12013234596229626,"227":0.12370409043344179,"228":-0.08084514406396279,"229":0.008376745243572917,"230":0.0063491907028856084,"231":0.2550988937537777,"232":0.12690573440596375,"233":0.18950976524388766,"234":0.017212106516393353,"235":0.18329916996543985,"236":-0.04694889600621755,"237":0.029856310665553748,"238":0.19067679381927471,"239":-0.007990075210230237,"240":-0.12715660290877323,"241":-0.16008006072900904,"242":-0.05976747836580051,"243":0.032827866035958116,"244":0.13418062669207823,"245":0.3030526101493533,"246":-0.045718572887139645,"247":0.211416371066746,"248":0.2660039622181423,"249":0.32272208340804215,"250":0.3252181699034947,"251":0.2641494107835659,"252":-0.08117896020197501,"253":-0.09667408750267285,"254":0.13604741742779217,"255":-0.01192130874957287}},"13":{"bias":-0.04186535523503242,"weights":{"0":0.20087854774368,"1":0.05138554055055537,"2":-0.3882319672370277,"3":-0.084483851521159,"4":0.055208876544232684,"5":0.2185389122217146,"6":0.28739347356895306,"7":0.2128947706632243,"8":0.10057633337029935,"9":-0.3020972816705165,"10":-0.08420882926519817,"11":0.20937246039265617,"12":0.1168254149572556,"13":0.14815365960155405,"14":-0.04269791191586243,"15":-0.08921051599895691,"16":-0.07835601300661071,"17":-0.14575917791978418,"18":-0.09500256531361283,"19":-0.20060797257202861,"20":-0.1145900193389915,"21":0.3422595817507903,"22":-0.07784925630652437,"23":0.38637130009063475,"24":-0.13253569305907922,"25":-0.07514921789551128,"26":-0.06753691354784601,"27":-0.12026928082542249,"28":-0.3473625072726802,"29":-0.1986394885494318,"30":0.16792253877041266,"31":0.08103580955336631,"32":0.24895923933829306,"33":0.23701726792129368,"34":0.16228390143661262,"35":-0.06891986689560536,"36":0.013675241844757364,"37":-0.010841772239698606,"38":-0.14298029990139818,"39":0.044503488008458145,"40":-0.13924008462684775,"41":-0.1983586135450814,"42":0.06797568225013302,"43":0.0602397581093304,"44":-0.17551938382770987,"45":0.14151685933172028,"46":0.2540934843190249,"47":-0.1630842246326405,"48":0.19438662321628777,"49":-0.10586425349085508,"50":-0.007338983732299515,"51":-0.2001279797334506,"52":0.23865865546806722,"53":-0.006217642635160488,"54":-0.11454658661904213,"55":0.01987934584893052,"56":0.06004225762236269,"57":0.19266988392354464,"58":0.09060918848228933,"59":0.14242493762420394,"60":0.05370150787169402,"61":-0.026214331826655914,"62":0.12688536243534357,"63":-0.1436311754856888,"64":0.32242140314109363,"65":-0.09371395123946309,"66":-0.05490831643790847,"67":0.02191361330431281,"68":0.01099575379957492,"69":-0.13725662038181502,"70":-0.2903417575435715,"71":-0.011340277094152574,"72":0.07099911104744558,"73":0.09891939309342902,"74":0.08752187460628309,"75":-0.04721149750426265,"76":0.2476139469239813,"77":0.239181529838187,"78":0.1451978687312928,"79":0.040921650755501845,"80":-0.0414569095845779,"81":0.10672408826843671,"82":-0.23588854357661246,"83":0.1728269527806503,"84":0.10442323494134036,"85":-0.11295862663157842,"86":-0.24076919692897164,"87":0.09853650798506777,"88":-0.005585186195814827,"89":0.08177430898340858,"90":-0.22847991077653734,"91":0.062388909793898044,"92":0.32031103464507316,"93":0.12575271980602457,"94":0.1613171331964468,"95":-0.16348138625830655,"96":-0.13487591631122645,"97":0.1293331376858014,"98":0.05036323048417442,"99":0.22876315540339373,"100":0.10672260638278024,"101":0.08729494222586537,"102":-0.12032484609826442,"103":-0.3217811388567428,"104":0.13041039154742406,"105":0.24762902097487738,"106":0.23297137433579843,"107":-0.42506555378512123,"108":0.15955852007376212,"109":-0.18645774329596013,"110":-0.2634689207260936,"111":0.06344141644569737,"112":0.19973412575124178,"113":0.26426748987254794,"114":0.03971945991158895,"115":0.2288113490276161,"116":0.23652806657093525,"117":-0.030666397721712493,"118":0.22182631797412608,"119":-0.42762258384608676,"120":-0.1579970060743691,"121":-0.39677693768850175,"122":0.05816257311247424,"123":0.14382286553790644,"124":-0.21545457670007523,"125":0.03577896353336434,"126":0.09839816052494746,"127":0.16413039509916472,"128":0.242201456835659,"129":0.07854116328356815,"130":-0.04338695165134064,"131":0.16440551753127777,"132":0.08263869538163818,"133":-0.3457559027032698,"134":-0.20681796064482813,"135":-0.2002964637893048,"136":-0.4106966783035376,"137":-0.25999460202608027,"138":-0.05176371472686723,"139":-0.2823965028363228,"140":0.12113291764272462,"141":-0.01271987203615352,"142":0.16718314848401417,"143":-0.08507234991881263,"144":0.283269811048837,"145":0.11752751046533005,"146":-0.054701435607595265,"147":0.06975649823292578,"148":-0.07969157957632655,"149":0.20810131529929568,"150":-0.16247035780202723,"151":-0.39069617658392025,"152":-0.21604451608866448,"153":-0.14414523390177492,"154":-0.2663244177159184,"155":-0.09859729971898934,"156":0.23577723323063787,"157":-0.025200628793069103,"158":-0.1387435206245892,"159":-0.02138877733485856,"160":0.01745634175515476,"161":-0.05652742739857691,"162":-0.07736996631614966,"163":0.29708531840607644,"164":-0.3116537911296203,"165":-0.08531489050275713,"166":0.1658585742398728,"167":-0.2991925816491857,"168":0.2326720801582351,"169":-0.11289234516903256,"170":-0.11998315919233399,"171":-0.11330193274912545,"172":-0.012690808013400712,"173":0.10525188348884278,"174":-0.042016855403727967,"175":0.06627822065196234,"176":0.16995883737961,"177":0.07425792554479875,"178":-0.09450743076497525,"179":0.24187529309835676,"180":0.06454528987210993,"181":0.061501552669733596,"182":0.04231113977854584,"183":-0.10238450359888127,"184":0.1909550262814133,"185":0.20743400859921396,"186":-0.055947811475826864,"187":0.1846169602868566,"188":0.06425370854237002,"189":-0.08204359048251948,"190":-0.1379151420456572,"191":-0.177463901073163,"192":-0.07120197656938157,"193":-0.007809937468953939,"194":0.2718740989024402,"195":-0.026670304439894408,"196":-0.019002206691579156,"197":-0.274415661458269,"198":-0.057249007246771164,"199":0.1427984735048742,"200":0.271715332353593,"201":0.13895707811228994,"202":0.04834172368840212,"203":-0.14887363926985894,"204":-0.1795344019799227,"205":-0.011066485341290358,"206":0.04263638183665037,"207":-0.12934576433937411,"208":0.12125592270430124,"209":0.09356008140997504,"210":0.21288741842021183,"211":-0.004449156765571898,"212":-0.00746585110331862,"213":-0.0432102318325332,"214":0.015247781234810834,"215":0.19884865045951716,"216":0.005612283145775836,"217":0.20245771016588734,"218":0.18598802720963262,"219":-0.07464164539332464,"220":-0.04450385535770908,"221":0.06321228440976472,"222":-0.15420272013947578,"223":-0.006301789666744569,"224":-0.10212427642164591,"225":-0.07807620405033534,"226":0.1433554776068548,"227":0.04728789274535537,"228":-0.1866391794647319,"229":-0.3641976140508442,"230":-0.10484920922786183,"231":0.08218207606679136,"232":0.36381778531428816,"233":0.14782694063895588,"234":0.35398208383948504,"235":-0.18319154550203565,"236":-0.012541365060301278,"237":0.02304888164768913,"238":-0.003965694100536261,"239":0.26264371705445216,"240":0.03154489723491794,"241":-0.042299308337907356,"242":-0.02952951206302974,"243":0.17710659585261088,"244":0.021652000916582863,"245":-0.11558826519322345,"246":0.04920624974618768,"247":0.3501601991442244,"248":0.23247824504197062,"249":0.1858567655887691,"250":0.025788066390391835,"251":-0.08659824384634773,"252":-0.032472117368575026,"253":-0.16985597980431485,"254":-0.08922400623692349,"255":-0.10003941065249661}},"14":{"bias":0.28029669530138396,"weights":{"0":-0.10945338408850191,"1":0.2316341059577381,"2":-0.1461123345507565,"3":0.1041028721043349,"4":-0.09070399070317411,"5":-0.2888961817092887,"6":-0.029624966554192233,"7":-0.048313804572856466,"8":-0.07379750064712788,"9":-0.19362539431649214,"10":-0.04146569757687661,"11":-0.05725809053100925,"12":0.14153030627593,"13":0.14405390041730198,"14":0.010861938252226852,"15":-0.21079689757099426,"16":-0.19798497621960032,"17":0.01146542082595498,"18":-0.0029563697357277243,"19":-0.30115715628168344,"20":-0.152924874748889,"21":-0.14995533903171543,"22":-0.32717566750838106,"23":-0.1599555140324037,"24":-0.08847228422454757,"25":-0.31357669373391783,"26":-0.22023856634263964,"27":-0.07961315016360751,"28":0.10159704751192336,"29":-0.06594372345493463,"30":0.16416554745139453,"31":0.29549069362709407,"32":0.04115069522482215,"33":0.27939352091956965,"34":0.22339104314166577,"35":-0.19481757392887467,"36":0.12095499238621096,"37":-0.2302323939944914,"38":0.17989175810214805,"39":0.10525415863695202,"40":0.21785830938514916,"41":0.03134093471046822,"42":-0.22967153511603883,"43":0.23466439459869684,"44":-0.16917697147992164,"45":-0.08861417502654755,"46":0.06657178028959004,"47":-0.13956822207339278,"48":0.1725712982152431,"49":0.0671488422393137,"50":0.10037059274391315,"51":0.15993763842181358,"52":-0.3386685446198802,"53":-0.22124314882776405,"54":0.3240284756789095,"55":0.13269248186926494,"56":0.3275452254441537,"57":0.3463425046192063,"58":0.02646737359529489,"59":0.1906981318257988,"60":0.13828021355464834,"61":-0.1312279758024841,"62":-0.08795600270456969,"63":0.018674332361357675,"64":0.23135350731100263,"65":-0.05742040182597404,"66":-0.17904584057748493,"67":-0.23072802434302905,"68":-0.16341066686535127,"69":0.2535425580527796,"70":0.19891382988502418,"71":0.040903867429253636,"72":-0.0022146168436250582,"73":0.2436352239892135,"74":0.0032695409843710305,"75":0.2440793675322028,"76":0.00035520912519122435,"77":-0.12778453832499856,"78":-0.05836679375282987,"79":0.17722509394368097,"80":-0.13833148602715456,"81":-0.3083722231383094,"82":-0.268331928376576,"83":0.1621690579818242,"84":-0.04783669224637123,"85":-0.02656637086084256,"86":-0.021930833867872923,"87":-0.35597887540671946,"88":-0.0364724936919629,"89":0.18436655635406873,"90":-0.04556406419080569,"91":0.1472392405738448,"92":0.14738215700567414,"93":-0.3000019517902307,"94":-0.11178925552967697,"95":-0.048231824133238385,"96":0.1406327128887901,"97":-0.28424574689032106,"98":-0.09820056059236876,"99":-0.11564328309126143,"100":0.27523703250431225,"101":0.13177898573121513,"102":0.011959626011324269,"103":-0.16942734147919933,"104":-0.0902484838017857,"105":-0.12974311389697019,"106":-0.16596241305378437,"107":0.0984672924581669,"108":-0.011285037355822869,"109":-0.00554357530313854,"110":0.12835267520911128,"111":-0.2010798227035512,"112":-0.17902683879913958,"113":-0.08166326063240907,"114":-0.11113836555139087,"115":0.16304559944704594,"116":0.027068468559837636,"117":0.09860442340727249,"118":-0.005108847522290271,"119":-0.23483349437895323,"120":-0.010896762880315762,"121":-0.14953445687246927,"122":-0.2283148847648028,"123":0.01897521856418103,"124":-0.03272908534645125,"125":0.2254484117374172,"126":0.12920622592128483,"127":-0.20208356413611714,"128":0.08370613610077368,"129":-0.039374426118056284,"130":-0.38167442758197134,"131":0.10835002024522654,"132":0.20948608822191322,"133":-0.06640632300893327,"134":-0.11738431232608042,"135":-0.16012173309227024,"136":-0.015006479645744112,"137":-0.15354735711744308,"138":-0.3659462620596138,"139":-0.24620462158513834,"140":0.051952671077850565,"141":0.13189484764408027,"142":0.1299764801043209,"143":-0.030235139087560554,"144":0.1995589539608504,"145":-0.24129195187430935,"146":-0.26696202156631704,