function anonymous(input
/**/) {
  var net = {"layers":[{"0":{},"1":{},"2":{},"3":{},"4":{},"5":{},"6":{},"7":{},"8":{},"9":{},"10":{},"11":{},"12":{},"13":{},"14":{},"15":{},"16":{},"17":{},"18":{},"19":{},"20":{},"21":{},"22":{},"23":{},"24":{},"25":{},"26":{},"27":{},"28":{},"29":{},"30":{},"31":{},"32":{},"33":{},"34":{},"35":{},"36":{},"37":{},"38":{},"39":{},"40":{},"41":{},"42":{},"43":{},"44":{},"45":{},"46":{},"47":{},"48":{},"49":{},"50":{},"51":{},"52":{},"53":{},"54":{},"55":{},"56":{},"57":{},"58":{},"59":{},"60":{},"61":{},"62":{},"63":{},"64":{},"65":{},"66":{},"67":{},"68":{},"69":{},"70":{},"71":{},"72":{},"73":{},"74":{},"75":{},"76":{},"77":{},"78":{},"79":{},"80":{},"81":{},"82":{},"83":{},"84":{},"85":{},"86":{},"87":{},"88":{},"89":{},"90":{},"91":{},"92":{},"93":{},"94":{},"95":{},"96":{},"97":{},"98":{},"99":{},"100":{},"101":{},"102":{},"103":{},"104":{},"105":{},"106":{},"107":{},"108":{},"109":{},"110":{},"111":{},"112":{},"113":{},"114":{},"115":{},"116":{},"117":{},"118":{},"119":{},"120":{},"121":{},"122":{},"123":{},"124":{},"125":{},"126":{},"127":{},"128":{},"129":{},"130":{},"131":{},"132":{},"133":{},"134":{},"135":{},"136":{},"137":{},"138":{},"139":{},"140":{},"141":{},"142":{},"143":{},"144":{},"145":{},"146":{},"147":{},"148":{},"149":{},"150":{},"151":{},"152":{},"153":{},"154":{},"155":{},"156":{},"157":{},"158":{},"159":{},"160":{},"161":{},"162":{},"163":{},"164":{},"165":{},"166":{},"167":{},"168":{},"169":{},"170":{},"171":{},"172":{},"173":{},"174":{},"175":{},"176":{},"177":{},"178":{},"179":{},"180":{},"181":{},"182":{},"183":{},"184":{},"185":{},"186":{},"187":{},"188":{},"189":{},"190":{},"191":{},"192":{},"193":{},"194":{},"195":{},"196":{},"197":{},"198":{},"199":{},"200":{},"201":{},"202":{},"203":{},"204":{},"205":{},"206":{},"207":{},"208":{},"209":{},"210":{},"211":{},"212":{},"213":{},"214":{},"215":{},"216":{},"217":{},"218":{},"219":{},"220":{},"221":{},"222":{},"223":{},"224":{},"225":{},"226":{},"227":{},"228":{},"229":{},"230":{},"231":{},"232":{},"233":{},"234":{},"235":{},"236":{},"237":{},"238":{},"239":{},"240":{},"241":{},"242":{},"243":{},"244":{},"245":{},"246":{},"247":{},"248":{},"249":{},"250":{},"251":{},"252":{},"253":{},"254":{},"255":{},"256":{},"257":{},"258":{},"259":{},"260":{},"261":{},"262":{},"263":{},"264":{},"265":{},"266":{},"267":{},"268":{},"269":{},"270":{},"271":{},"272":{},"273":{},"274":{},"275":{},"276":{},"277":{},"278":{},"279":{},"280":{},"281":{},"282":{},"283":{},"284":{},"285":{},"286":{},"287":{},"288":{},"289":{},"290":{},"291":{},"292":{},"293":{},"294":{},"295":{},"296":{},"297":{},"298":{},"299":{},"300":{},"301":{},"302":{},"303":{},"304":{},"305":{},"306":{},"307":{},"308":{},"309":{},"310":{},"311":{},"312":{},"313":{},"314":{},"315":{},"316":{},"317":{},"318":{},"319":{},"320":{},"321":{},"322":{},"323":{},"324":{},"325":{},"326":{},"327":{},"328":{},"329":{},"330":{},"331":{},"332":{},"333":{},"334":{},"335":{},"336":{},"337":{},"338":{},"339":{},"340":{},"341":{},"342":{},"343":{},"344":{},"345":{},"346":{},"347":{},"348":{},"349":{},"350":{},"351":{},"352":{},"353":{},"354":{},"355":{},"356":{},"357":{},"358":{},"359":{},"360":{},"361":{},"362":{},"363":{},"364":{},"365":{},"366":{},"367":{},"368":{},"369":{},"370":{},"371":{},"372":{},"373":{},"374":{},"375":{},"376":{},"377":{},"378":{},"379":{},"380":{},"381":{},"382":{},"383":{},"384":{},"385":{},"386":{},"387":{},"388":{},"389":{},"390":{},"391":{},"392":{},"393":{},"394":{},"395":{},"396":{},"397":{},"398":{},"399":{},"400":{},"401":{},"402":{},"403":{},"404":{},"405":{},"406":{},"407":{},"408":{},"409":{},"410":{},"411":{},"412":{},"413":{},"414":{},"415":{},"416":{},"417":{},"418":{},"419":{},"420":{},"421":{},"422":{},"423":{},"424":{},"425":{},"426":{},"427":{},"428":{},"429":{},"430":{},"431":{},"432":{},"433":{},"434":{},"435":{},"436":{},"437":{},"438":{},"439":{},"440":{},"441":{},"442":{},"443":{},"444":{},"445":{},"446":{},"447":{},"448":{},"449":{},"450":{},"451":{},"452":{},"453":{},"454":{},"455":{},"456":{},"457":{},"458":{},"459":{},"460":{},"461":{},"462":{},"463":{},"464":{},"465":{},"466":{},"467":{},"468":{},"469":{},"470":{},"471":{},"472":{},"473":{},"474":{},"475":{},"476":{},"477":{},"478":{},"479":{},"480":{},"481":{},"482":{},"483":{},"484":{},"485":{},"486":{},"487":{},"488":{},"489":{},"490":{},"491":{},"492":{},"493":{},"494":{},"495":{},"496":{},"497":{},"498":{},"499":{},"500":{},"501":{},"502":{},"503":{},"504":{},"505":{},"506":{},"507":{},"508":{},"509":{},"510":{},"511":{},"512":{},"513":{},"514":{},"515":{},"516":{},"517":{},"518":{},"519":{},"520":{},"521":{},"522":{},"523":{},"524":{},"525":{},"526":{},"527":{},"528":{},"529":{},"530":{},"531":{},"532":{},"533":{},"534":{},"535":{},"536":{},"537":{},"538":{},"539":{},"540":{},"541":{},"542":{},"543":{},"544":{},"545":{},"546":{},"547":{},"548":{},"549":{},"550":{},"551":{},"552":{},"553":{},"554":{},"555":{},"556":{},"557":{},"558":{},"559":{},"560":{},"561":{},"562":{},"563":{},"564":{},"565":{},"566":{},"567":{},"568":{},"569":{},"570":{},"571":{},"572":{},"573":{},"574":{},"575":{}},{"0":{"bias":-0.11948889862971233,"weights":{"0":-0.237878734999463,"1":0.011299427917848798,"2":-0.03993848308804414,"3":0.07510090819980664,"4":0.010528481946229861,"5":0.05019664385719971,"6":0.2588383201353844,"7":-0.030203075350509,"8":-0.0890403722348532,"9":0.12703814629675228,"10":-0.10226298664844378,"11":0.04681438519316197,"12":0.20995196169533142,"13":-0.0139535731530126,"14":-0.027168791150944123,"15":-0.17332572209402167,"16":-0.15170599144760472,"17":0.0647026932511232,"18":-0.17602346793394452,"19":0.07328707809258574,"20":0.04145496938987163,"21":-0.15056338654558898,"22":0.02503466364603542,"23":0.12401606167908767,"24":-0.20349167373431923,"25":-0.04807675660104962,"26":-0.031112078982909023,"27":-0.226236102479786,"28":0.0950400705463157,"29":-0.14299225273300067,"30":-0.16039268551424257,"31":-0.11314276347802217,"32":-0.03923136065695725,"33":0.09758373555385247,"34":-0.0133948140434263,"35":0.02969469285861961,"36":0.2736993723019631,"37":0.029037992278558498,"38":0.1880873576364542,"39":0.18742737911517537,"40":0.039426871151684924,"41":0.24162992235001884,"42":-0.02341455479183959,"43":-0.24973933609493457,"44":-0.18209953571440374,"45":-0.29131660055784364,"46":-0.11682224070652905,"47":-0.12441352638901745,"48":-0.051847712115577836,"49":0.0935515891106392,"50":0.010659041662417086,"51":-0.039095331031307766,"52":-0.2136559980462892,"53":-0.18933293093698705,"54":0.03393207662557705,"55":-0.09627225929537436,"56":0.10228102067836652,"57":0.28785361780803526,"58":0.07285829453756401,"59":-0.09412607789375083,"60":0.19130929811227648,"61":-0.02969090741365675,"62":0.1552998936694592,"63":-0.00020264994997379774,"64":-0.04240514126854593,"65":-0.12177138558194195,"66":0.20024015065494458,"67":-0.125091557128553,"68":-0.27284667801126994,"69":-0.27108576081444546,"70":-0.12853889305861588,"71":0.10228109162885865,"72":0.1193341417577386,"73":0.19224228897752063,"74":-0.24892910149449846,"75":-0.03880490749196499,"76":0.03889552162348744,"77":-0.11460629802114305,"78":0.30224661458310187,"79":-0.0416050909645998,"80":-0.04362997842392512,"81":0.09532865192594799,"82":0.03236153672468967,"83":0.202907134806399,"84":0.29753697518853517,"85":0.25417983538137723,"86":0.1422122671993012,"87":0.08009334676072392,"88":0.055403127099611385,"89":0.22058924305941768,"90":0.0671160095851327,"91":-0.0146302417431285,"92":-0.19067728918934287,"93":-0.1894112428128716,"94":0.029927214579920768,"95":-0.09590037823819493,"96":-0.12126387976954252,"97":-0.12414475987513468,"98":0.03284381400629413,"99":-0.032910758592564024,"100":-0.14212703194308232,"101":-0.18368251044654013,"102":0.025956538251678065,"103":0.15138278221812204,"104":0.1335087209510676,"105":-0.012712311153276715,"106":0.001970714044629851,"107":0.3034341762274068,"108":0.06292258155741769,"109":0.1443830690688371,"110":0.04636693136115207,"111":-0.0451157010874342,"112":0.12010702825322458,"113":0.05619847490727494,"114":-0.012809331229254222,"115":-0.0862803776697406,"116":-0.1877897093098626,"117":-0.11624426123480493,"118":-0.07577797837480733,"119":0.0332403384871384,"120":-0.17864791396297494,"121":-0.10856577898983408,"122":0.2440135648825079,"123":-0.0068180650661314795,"124":0.057682890638075184,"125":0.01823775562315875,"126":-0.028777613676117166,"127":-0.050169554808441486,"128":0.15042541172066282,"129":-0.021969546264960303,"130":-0.15895960784638563,"131":0.1528203019819716,"132":0.0014863324790339578,"133":0.1564690225696184,"134":0.1731783460411562,"135":-0.06144859718520133,"136":0.16403996268861656,"137":-0.20344652636731783,"138":-0.1097975856489289,"139":0.07271064149182012,"140":-0.14472250025233638,"141":0.08508906525877076,"142":-0.06105377628399475,"143":-0.08835542277942347,"144":0.13225400682546876,"145":-0.15677716461243407,"146":-0.13856448380193617,"147":-0.07851942217795806,"148":-0.004044920277144534,"149":-0.037686929266371925,"150":0.029696813173848726,"151":-0.08244686866725726,"152":0.19246908729596482,"153":0.03669738419236621,"154":0.09343139732333972,"155":0.11020968079011234,"156":0.043898397752455055,"157":0.1746885550712948,"158":0.028175103858033186,"159":-0.15849920881808124,"160":-0.14803577320489233,"161":-0.09801468714724765,"162":0.013399697489272762,"163":-0.09042129531971774,"164":-0.27761934865456045,"165":0.026469009498250692,"166":-0.08705804822738232,"167":0.03288963490228328,"168":0.06778704905936121,"169":0.19789156912182085,"170":0.20826838657907162,"171":-0.05825621024084295,"172":-0.10127346832621287,"173":0.054098776612224266,"174":-0.20114888676944057,"175":-0.2944277779887891,"176":-0.12645374587554606,"177":0.20645142793145066,"178":-0.08060210350038487,"179":0.003974598562931829,"180":-0.2478007579759903,"181":0.06306097842865478,"182":0.06549793302056595,"183":0.010116130794521758,"184":-0.05317574362924237,"185":0.042908147131253425,"186":0.0715516120380973,"187":-0.16782407452177617,"188":0.05750997519149486,"189":-0.14852939258549563,"190":-0.18901945547365595,"191":-0.04338681004911673,"192":-0.1512429000482278,"193":0.012813044537350025,"194":-0.10365073879419914,"195":-0.09776641892993485,"196":-0.21110588060097218,"197":0.13907274541446824,"198":-0.006740982679524472,"199":0.03801299069127075,"200":0.05361659653434547,"201":0.11487390078444983,"202":-0.09429996207851239,"203":0.03500955500956952,"204":-0.23675410963156976,"205":-0.06135887737867834,"206":0.27500157952833226,"207":0.09339073118519373,"208":-0.020084913592048503,"209":-0.04856660802902439,"210":-0.08566004508412146,"211":-0.16340817253401188,"212":0.08468388770495106,"213":-0.019812078310007617,"214":-0.21534690625947847,"215":0.0619611708058615,"216":-0.18699526825959617,"217":-0.0028555446200864715,"218":-0.053343411554152224,"219":-0.05470358891980345,"220":-0.09336975776227652,"221":0.06806696718341415,"222":0.04879700111940872,"223":0.04669295489711561,"224":0.04755332449475694,"225":-0.06768859637007163,"226":0.054275173855523856,"227":-0.15297132797747404,"228":-0.0023114643201803883,"229":0.06228115111840665,"230":0.19006211233823836,"231":-0.14235934270405756,"232":0.08584618779931137,"233":-0.0955114726787708,"234":-0.23222963982753522,"235":0.13127126588825516,"236":-0.11449758807452337,"237":-0.0033897104041241883,"238":-0.24899175152587025,"239":-0.2553664093446854,"240":0.18001108322482304,"241":-0.05411024015622944,"242":-0.03917487904719787,"243":0.04064356867143384,"244":0.1825910845592663,"245":-0.08536772037306586,"246":0.004930096642630297,"247":-0.06724508479878918,"248":-0.24930547188627958,"249":-0.23183668040781355,"250":-0.011740574627828265,"251":0.054917050064149556,"252":0.2099582609075745,"253":0.004290624367028435,"254":0.011288176773359903,"255":0.20126686089132972,"256":0.10136375909141364,"257":-0.19564580257439826,"258":0.17170823901350588,"259":0.15222998239595845,"260":-0.04216488364181281,"261":-0.20641407408034876,"262":-0.01638015878074632,"263":0.02500096160559727,"264":0.13981152315078865,"265":0.21747730335863813,"266":0.25542965131650913,"267":-0.04751031505744925,"268":0.017424629266875793,"269":0.01766421169808117,"270":-0.11786652641216533,"271":0.08465629449711737,"272":0.167326613256019,"273":0.19293193187598714,"274":0.14951948333036763,"275":0.1307105386385241,"276":0.24625158796523994,"277":0.12410011018627547,"278":0.22538081732779774,"279":0.22074233699207618,"280":-0.0773815967306503,"281":0.1350229092648579,"282":0.048209139648493514,"283":0.08871080249747794,"284":0.05853807752314269,"285":-0.2379342142222617,"286":0.018148003558739703,"287":0.03525397240820028,"288":0.0395614747271106,"289":-0.09801337966617407,"290":0.08874685404566396,"291":-0.0887196224675785,"292":-0.18953982509595627,"293":0.05901489648224603,"294":-0.24122838517364883,"295":0.1531563098194689,"296":0.20929748077408067,"297":0.17056425484671617,"298":0.15758484045738372,"299":0.3094490359026191,"300":0.16842867513198131,"301":0.25773173665576155,"302":0.4059394713951767,"303":0.12289497623350784,"304":0.35256742382820133,"305":0.34883371359786586,"306":-0.03294896250294567,"307":-0.12802058367877975,"308":0.16686700256126324,"309":-0.14177670491746414,"310":-0.18960529081986263,"311":-0.018571911408647203,"312":-0.014911298033433808,"313":0.112379280329794,"314":-0.050090861413429465,"315":-0.0003799237769707949,"316":0.12055708527432,"317":-0.11951367279991428,"318":0.07447825708307258,"319":-0.028818254269991916,"320":0.2070774267989023,"321":0.07622069263078095,"322":-0.030567090246195392,"323":-0.07696797352535487,"324":0.26496256997983425,"325":-0.05802488470219721,"326":-0.000481973747127446,"327":0.11332994149406805,"328":0.39567718423313486,"329":0.25272815623451883,"330":-0.08582496024535792,"331":0.07719960600592185,"332":0.10384310292232243,"333":0.1016139965969844,"334":-0.1793964173357764,"335":-0.00977060446758384,"336":-0.14933282361793115,"337":0.053887835612634605,"338":-0.013797919819621677,"339":-0.026346435398900768,"340":0.07473166268645307,"341":-0.029359216070550326,"342":-0.019679868473600773,"343":0.014345435498019076,"344":0.1643460451885088,"345":-0.04970522447937557,"346":-0.29124917451039983,"347":0.12542531262385215,"348":0.13569740757961246,"349":-0.1407876438808736,"350":-0.2693035366709648,"351":-0.16627565271638384,"352":-0.028922016461439767,"353":-0.1393628194602327,"354":0.028128964399339446,"355":-0.04475051949011451,"356":-0.08013952957264418,"357":-0.15844195917127596,"358":-0.1422865172403081,"359":0.20039571931270614,"360":0.025702268110065728,"361":0.10367273905511933,"362":0.17713908302060957,"363":0.11885930992550992,"364":0.04089100239481234,"365":0.07749633798102337,"366":0.02667758043740042,"367":-0.034134486081601474,"368":-0.07637405095260281,"369":0.1999952706364224,"370":0.008931137240060902,"371":0.05635782341214403,"372":0.044340021594622615,"373":-0.17906427070331346,"374":-0.14384612272138148,"375":-0.11251777481767229,"376":-0.005721389326264479,"377":-0.11689551200024524,"378":0.01706969073192117,"379":-0.02538403898579551,"380":0.028221183189415574,"381":0.03772413734168163,"382":-0.13564897442121274,"383":-0.06912690214952345,"384":-0.10928946972673488,"385":0.05920067251287998,"386":0.03374132995343378,"387":-0.10583823569847263,"388":0.10002726565521843,"389":-0.10452211393148512,"390":0.013688299098058371,"391":0.0898146133722179,"392":0.026658014998913123,"393":0.04181816250951094,"394":0.1743651137192376,"395":0.05984803810566345,"396":-0.02074330534932054,"397":-0.05122981458022487,"398":-0.16618788433994866,"399":-0.29799306341558834,"400":-0.18798805302059124,"401":-0.003339951822483915,"402":-0.06466322105500287,"403":-0.17320063301892188,"404":-0.24283265959692094,"405":0.1401943434590605,"406":-0.06839252052012923,"407":-0.00540872487144324,"408":-0.12830499551414515,"409":0.1574326353141503,"410":-0.03550287823008892,"411":-0.04149546885562246,"412":0.055965582311788706,"413":0.044845984079849036,"414":0.014956347971103021,"415":0.026090396691403724,"416":-0.020257987601214316,"417":0.00466919670951015,"418":0.14825169009976438,"419":0.20019669661271497,"420":-0.06581762053767677,"421":0.12819649554501858,"422":-0.020155992866126796,"423":-0.2734210241692356,"424":-0.4085691681266687,"425":-0.09879849848002206,"426":0.003286639735489817,"427":-0.20742133251224792,"428":-0.015026654363295837,"429":-0.20774444378572152,"430":-0.06418769853662057,"431":-0.11356367025524594,"432":-0.1440479489241896,"433":-0.06531316535149462,"434":-0.026766740566556507,"435":0.18740102832536001,"436":0.17026230855451413,"437":0.15373576746877565,"438":-0.05200265836576782,"439":0.0025221440980453353,"440":-0.08889498950831075,"441":0.06325801622701847,"442":0.031551431655497925,"443":0.006400274032822453,"444":0.14464680767838403,"445":-0.004194153511554234,"446":-0.23093804465893267,"447":-0.2530890407559157,"448":-0.3290267846169723,"449":-0.20246887358846563,"450":-0.09909979347809454,"451":-0.09835007963268413,"452":0.10116746576931263,"453":-0.09116442239348185,"454":0.07707642796694528,"455":-0.07154075040190176,"456":-0.1304016055805961,"457":-0.1707310535453933,"458":0.0711556753044354,"459":0.22319457208119137,"460":0.11387849532785942,"461":0.2532726366334911,"462":0.14394409010751008,"463":0.10539755962977655,"464":-0.19186478865549667,"465":0.18870852981176667,"466":0.11217824949017784,"467":-0.1252639919035647,"468":0.08403572634243356,"469":-0.16052318887455708,"470":0.006316797751647324,"471":-0.29678203595089336,"472":-0.15309282638857238,"473":-0.12003148240361208,"474":-0.1777595958778004,"475":-0.05234244371747708,"476":-0.0757944327970935,"477":0.09947924912189608,"478":0.15809114627615803,"479":-0.08949944814267174,"480":0.029884104273814494,"481":-0.11030769616641337,"482":0.1542925939277356,"483":0.1131822700618912,"484":0.3287476066908841,"485":0.24431553630302127,"486":0.16640582183235586,"487":-0.12214757163036562,"488":-0.020887331181612127,"489":-0.015701997980682572,"490":0.04672935829357866,"491":-0.003095051297685261,"492":-0.17613610731591184,"493":-0.02674345527579411,"494":0.11907255502061427,"495":-0.1310875990445663,"496":-0.225550622459724,"497":0.15376917206208757,"498":-0.11932847759378779,"499":0.05167952136260363,"500":-0.14781564818395215,"501":-0.19588858854582208,"502":-0.16207183141034487,"503":0.15620882640309666,"504":0.12266206199945764,"505":0.03576568666364535,"506":0.04499588736866836,"507":0.18784477298765273,"508":0.12664759761213146,"509":0.1561408522554275,"510":0.19899536199208578,"511":-0.053276174256091886,"512":-0.12940945620132782,"513":0.0020777041111059032,"514":0.16951679183561177,"515":0.14124205771126788,"516":-0.13350830816158352,"517":0.1062901732908282,"518":-0.13598178078372228,"519":-0.11144225253510309,"520":-0.08686123549631275,"521":-0.008058064216579196,"522":0.018070854466224064,"523":0.011304029750282421,"524":0.014528807652147669,"525":0.09653125454754871,"526":-0.23079998919754097,"527":0.1622011500609607,"528":-0.00725645622758428,"529":-0.058716593639270995,"530":-0.24753998686581788,"531":-0.10426113805629218,"532":0.1327725903633495,"533":0.0664744322680629,"534":0.27476925779966316,"535":0.018342132154616272,"536":-0.11844645591152633,"537":-0.03207752589813007,"538":0.10878977527166017,"539":0.0952091921207203,"540":-0.1939973540248455,"541":-0.0019277456741847473,"542":0.11765096345239441,"543":-0.1603599428984623,"544":-0.08208430136837086,"545":-0.05159998782474954,"546":0.23330192355658125,"547":0.005452806051426834,"548":0.1555331004805364,"549":0.26897303363699376,"550":0.05896145823723415,"551":-0.1780958826160213,"552":-0.2043255722680118,"553":-0.28852672521130335,"554":0.029710756324036754,"555":-0.10012360114692052,"556":0.10618663727903728,"557":-0.09087435393598987,"558":-0.013852414946679636,"559":0.04043338968198541,"560":-0.01245344624493307,"561":0.21388124616262374,"562":-0.03087159938658745,"563":-0.04546044613055795,"564":0.16926539725254436,"565":-0.14516170849807108,"566":0.036392027888294404,"567":0.10904311190292686,"568":-0.09555030185849547,"569":0.16929734478661485,"570":-0.026303573060265897,"571":0.10592002442713513,"572":0.10451629347770086,"573":0.288449638946956,"574":0.22136815729616688,"575":-0.06523419247559333}},"1":{"bias":0.2436307429721358,"weights":{"0":-0.13549382320933506,"1":0.1217481444943725,"2":0.046970120775899744,"3":-0.20190125697005956,"4":-0.03315162695218535,"5":-0.1293395774120641,"6":-0.02976918294410358,"7":-0.29369471924305074,"8":-0.07712260756833597,"9":0.09207696694650216,"10":0.06696471567107824,"11":-0.034473321638194464,"12":-0.02256972907549801,"13":-0.20323483000256468,"14":0.01544935556106822,"15":-0.10223910530866444,"16":-0.03762421314673252,"17":0.19402640424648843,"18":0.15434023149541584,"19":-0.053201381589858585,"20":-0.12200866749141041,"21":-0.15937534768129322,"22":0.2148354077962089,"23":0.1553626190264924,"24":0.013824044432046064,"25":0.29803366258172415,"26":0.09624343890321964,"27":-0.06971859263367824,"28":0.041468388669163456,"29":-0.06935261212375346,"30":-0.23741407506947929,"31":-0.147619403097687,"32":0.06766584612889674,"33":-0.2211877277995958,"34":0.11041612458752026,"35":-0.01212544607469426,"36":-0.12419024203292073,"37":-0.2771524660265595,"38":-0.11032744166663792,"39":-0.10938641634954759,"40":0.0687615789156603,"41":-0.22360350612441843,"42":-0.11962221658096196,"43":0.14535631699335916,"44":-0.1139443778706038,"45":0.16772541202106023,"46":0.10500455512011535,"47":0.35978841888690555,"48":0.04315732347154456,"49":0.13541112806290434,"50":0.2065466096827068,"51":0.19433588721150213,"52":0.026205932839561876,"53":-0.06619955022983125,"54":0.13745226436688726,"55":-0.10395720748239148,"56":-0.2043310026442243,"57":0.25152583599860573,"58":-0.05339421790092708,"59":-0.08403145279529226,"60":-0.26616624986227416,"61":-0.12718420481035542,"62":0.11211571355405171,"63":-0.2525379632571138,"64":-0.03728986231851511,"65":0.07893683719191416,"66":-0.03591763085260007,"67":-0.02364046273131464,"68":0.1800918437427388,"69":0.02861605096033415,"70":0.26292914207114076,"71":0.09793271444882864,"72":0.07343607242843612,"73":-0.09587038280292819,"74":0.012128658371526945,"75":0.15207863071489827,"76":0.21362169933455935,"77":0.07989419752533052,"78":-0.1773293544528244,"79":0.03611345697231831,"80":-0.15518835917308282,"81":0.08825207714233174,"82":-0.1623260423272748,"83":-0.2143173617629798,"84":-0.18735788866046416,"85":-0.13433958153143155,"86":0.014600176908136642,"87":-0.09575662702741464,"88":0.05453871460116459,"89":-0.22225083349870906,"90":0.13292206334244522,"91":-0.1743460645768909,"92":-0.12068895339245773,"93":0.0955089229167827,"94":-0.21921515390165472,"95":-0.044792032879887214,"96":0.06227079344328448,"97":-0.030965017987970453,"98":0.1462980566604308,"99":0.12867109951771247,"100":0.20361540355150196,"101":0.20965002752330952,"102":0.17141649479521773,"103":0.05180929827523528,"104":0.025005593776231815,"105":-0.10513146089403265,"106":0.09884625640349133,"107":-0.06143730890184691,"108":-0.0771807965855987,"109":0.1420013551220653,"110":0.25605504980236193,"111":-0.27419113083683144,"112":0.1363641663829881,"113":-0.06539879815339587,"114":-0.14238328199306396,"115":0.13183267263742854,"116":-0.02919366004726587,"117":-0.07539978305808566,"118":-0.04527760010165776,"119":-0.18286359920572484,"120":-0.05475816477174653,"121":0.07439630933493742,"122":-0.03428367892690099,"123":0.13955019277901248,"124":-0.05964350126677644,"125":0.034784260589660346,"126":-0.08881871431345542,"127":0.026469354576718625,"128":0.17522203847533477,"129":0.057310251940881476,"130":0.14862620894640585,"131":-0.2208275783395314,"132":-0.1713492369171893,"133":-0.11430350136016504,"134":0.007791114885365416,"135":-0.055290751334789244,"136":0.11348378212526261,"137":-0.21785143189336315,"138":-0.2869426014323834,"139":0.06424746803299074,"140":0.033720386920979645,"141":-0.21064706849154924,"142":0.08291242377861895,"143":0.030434260164753885,"144":0.11708093539961403,"145":0.15598702231200778,"146":0.008928155711209213,"147":-0.039837798622302543,"148":-0.04824075161763852,"149":0.2403521204821033,"150":0.08970486029841619,"151":-0.059104963242660666,"152":0.20992500441872186,"153":0.010456821697895214,"154":0.2096406670563084,"155":0.18223450127814103,"156":0.08127367892076261,"157":0.019802721209941778,"158":0.04724480187916351,"159":0.07356313463469732,"160":0.014516171746203845,"161":0.20962671766364765,"162":0.09259637019772252,"163":-0.0638854094244663,"164":0.06033011010670422,"165":-0.08304805116412957,"166":-0.11872517525876318,"167":-0.0001130462030645164,"168":0.17922957519708063,"169":-0.21709167604039475,"170":0.16445963476946163,"171":0.13188210521427793,"172":-0.06334049452750386,"173":0.35252553743878845,"174":-0.03306152562228004,"175":0.2155279196437905,"176":0.027717605247867778,"177":0.10819186621192946,"178":0.045722557365962625,"179":0.26759635906371826,"180":0.23347016216992109,"181":-0.18283839426248327,"182":0.1878423431332115,"183":-0.14853977330726975,"184":0.14663407567353004,"185":-0.15188733301384902,"186":-0.20431310002527858,"187":-0.14448827967066177,"188":0.05477316465952978,"189":-0.20132675411295314,"190":0.018979421506722112,"191":-0.2857018488910868,"192":-0.17106018342429644,"193":0.17746183881236824,"194":-0.18360768464901875,"195":0.031313247644238124,"196":0.09845524120332846,"197":0.2012024905461197,"198":0.25109645867356534,"199":0.21210692592298255,"200":-0.055641172448016606,"201":0.30098413983372446,"202":-0.108618157818787,"203":0.06455597101911345,"204":0.18797997969119468,"205":-0.17771859062807083,"206":-0.2128966441342128,"207":-0.10898876196571766,"208":0.058314241631751286,"209":-0.09442890475088588,"210":-0.08558662265919358,"211":-0.14588592506973674,"212":0.12404891137674393,"213":-0.01508037792812523,"214":-0.09371641604457001,"215":0.02497807422853098,"216":0.11962707175208043,"217":0.12125420709002077,"218":0.1354993359267369,"219":-0.24137641423776374,"220":0.1589337770660844,"221":0.025333023696968788,"222":0.15217042023137647,"223":0.03623192614403519,"224":0.1274074584012539,"225":0.20319866541359902,"226":0.12496440709533164,"227":0.14214113659112565,"228":0.11359625303647955,"229":0.1932421106232185,"230":-0.1611060062520277,"231":-0.009334318560305283,"232":0.06375359529776975,"233":0.11741356319365061,"234":-0.12545398861706336,"235":-0.1325507887814932,"236":-0.06316839543225995,"237":0.09072964994253678,"238":-0.062288718970616684,"239":-0.10223029825358354,"240":0.013727044827847154,"241":0.14211848756523845,"242":-0.113760217372539,"243":-0.08661978427181906,"244":0.2165756345588336,"245":0.07419786197070508,"246":-0.04724394118869293,"247":0.15954122282827618,"248":0.11398296702566467,"249":0.11145816214538488,"250":0.24420434312026054,"251":-0.0735591522362343,"252":-0.05812444748626243,"253":-0.0910911460909582,"254":0.0625684340141706,"255":0.02837386467616271,"256":-0.16619183265573959,"257":-0.09175227030143933,"258":0.004215317231709144,"259":0.028846848314650383,"260":0.17513930324376334,"261":-0.010756092494826171,"262":-0.061096983553302446,"263":0.037595776355664856,"264":-0.0809721361159067,"265":0.022637801287374887,"266":0.22228330304506586,"267":-0.18383901945530637,"268":0.013887786492834455,"269":0.15739361982588396,"270":-0.15061410534422073,"271":0.029761877155384683,"272":0.07617200557758977,"273":0.08607877250604681,"274":-0.04740934933930406,"275":0.019488973379675433,"276":0.10623630900022378,"277":0.002915092259132266,"278":0.17810331828665102,"279":0.08811780204067299,"280":-0.26518922687793234,"281":-0.11991120502118112,"282":0.1331681502570955,"283":0.20754124991809125,"284":-0.06307349148031098,"285":0.23192706466847648,"286":0.18316918616448627,"287":0.06931844853510713,"288":0.03689493938690786,"289":0.20919660485558889,"290":0.0008594214261481685,"291":-0.07317226855938383,"292":-0.03885407091584903,"293":0.12621192131709527,"294":0.10864358201246652,"295":0.050300835017859535,"296":0.10422187226315377,"297":-0.2031288486436744,"298":-0.22562032042640562,"299":0.19067712960022234,"300":0.043255181483776786,"301":-0.04213756224917311,"302":0.08660780189605542,"303":-0.1058803475708056,"304":-0.14735072552622958,"305":0.1299069414504239,"306":-0.06909061420518293,"307":-0.07086499432645882,"308":-0.05331388508803258,"309":0.2172854659428433,"310":-0.13375405033349086,"311":-0.17130968807677474,"312":0.007054264792767639,"313":0.1859681423350857,"314":0.07752378023353658,"315":0.1974646857264762,"316":-0.2524956328917343,"317":0.12666370281614517,"318":-0.17615680147836063,"319":-0.09331560283825617,"320":-0.05174731352426184,"321":-0.20617549292868362,"322":-0.12000983810844269,"323":0.14919527562999743,"324":0.14815593298249835,"325":0.03761162777127914,"326":-0.06705079416451573,"327":-0.1299081133242295,"328":-0.12926670010182004,"329":-0.08092728980695456,"330":0.16153547884181074,"331":-0.08691234998482665,"332":-0.044323256583985504,"333":-0.0138789468267773,"334":-0.202469074998734,"335":0.16442492962410032,"336":-0.018037804759067647,"337":-0.09220917188012406,"338":-0.07150583233889034,"339":0.05327958946341447,"340":-0.04884500701348233,"341":-0.12372693701922756,"342":0.06414340796913214,"343":-0.051242700549015176,"344":0.17051131877706255,"345":-0.21643273595674223,"346":-0.08046620977291724,"347":-0.09195440323535171,"348":0.08215703249272516,"349":0.1647560710712617,"350":0.21767385287636157,"351":-0.02010558632868181,"352":-0.08832615269580181,"353":-0.11392915446439175,"354":-0.11943952783609392,"355":0.043644590967654454,"356":-0.08895269764557602,"357":-0.0701406037194799,"358":-0.1884453374279228,"359":-0.17176339955981165,"360":0.055199197315413735,"361":-0.07144712062519093,"362":-0.16418859445434034,"363":-0.06626229675026206,"364":-0.006649579295853067,"365":-0.053649056515630025,"366":0.2180407617314523,"367":-0.1369935924527929,"368":-0.0989215018474399,"369":-0.04739198579560124,"370":-0.07491709967776007,"371":-0.1762921155049534,"372":-0.004233924158611806,"373":-0.09227136158134736,"374":-0.22093391924961575,"375":-0.17898756305827374,"376":-0.12469869590630113,"377":-0.05371509538074222,"378":0.016825361992033015,"379":-0.023414014471514512,"380":-0.2116852365939533,"381":-0.0353748789441501,"382":-0.26170763163940414,"383":-0.07713406609609098,"384":-0.0503182175274337,"385":0.17745499607386475,"386":-0.0704509317221956,"387":0.1927423777180871,"388":0.2577231610351431,"389":-0.1688639391113116,"390":0.1296080727098427,"391":-0.12301353955710116,"392":0.06639771288993494,"393":-0.2412805957196683,"394":-0.3150652165268168,"395":-0.10821156394636332,"396":-0.40050581033823734,"397":-0.20698012342473682,"398":-0.17483839573520654,"399":-0.35283521586171873,"400":-0.2867956661083185,"401":-0.05809317686962042,"402":-0.048013834189193215,"403":-0.27517265609520736,"404":0.02869791886230266,"405":0.011637003727807299,"406":0.016777366976144157,"407":-0.19574878293972192,"408":0.09010303993376956,"409":-0.12723532412333813,"410":-0.09729306354916532,"411":0.0796897994305892,"412":0.07769536230361145,"413":-0.023545396084327347,"414":-0.14385517519795377,"415":0.10330460562992116,"416":0.04621258543065089,"417":0.04857499758150039,"418":-0.022319296536698695,"419":0.09433989389423748,"420":-0.013834324619961196,"421":0.03919811679275164,"422":0.08749418054949916,"423":0.14574383038068967,"424":0.061223528313395725,"425":-0.05559042453728664,"426":0.08356104814112641,"427":-0.1481514571776203,"428":-0.2033169270348663,"429":-0.10217676043945347,"430":0.07500844024196349,"431":-0.14722523581782412,"432":-0.13686857291525417,"433":-0.2265976915560681,"434":0.1849846430846581,"435":-0.0015929919063066686,"436":0.031827797380299505,"437":0.08466143659483909,"438":-0.19240356015270976,"439":-0.020612769178356045,"440":-0.07525164021504879,"441":0.07855802060923389,"442":0.09591186441144765,"443":0.022387865197051587,"444":0.25529251924772334,"445":0.044894694938275685,"446":0.2782236423295936,"447":0.09286324972661225,"448":0.24043693988389755,"449":-0.10492842846137355,"450":0.0574619309932444,"451":0.05942992894334224,"452":0.13703462349405524,"453":0.021362505153782442,"454":-0.16104320680944423,"455":-0.046356522854819934,"456":0.024940117869415183,"457":-0.15849918958028456,"458":-0.11493343125165026,"459":-0.13863821354950615,"460":-0.006233224276305878,"461":-0.03770577690048458,"462":0.0027956808012630703,"463":0.1360897830369187,"464":-0.18452067803464348,"465":-0.002597739249870953,"466":0.033140890058597786,"467":-0.1062728235822928,"468":0.01965258429681248,"469":-0.07706045392020827,"470":0.10611319068259581,"471":0.12239872742199288,"472":-0.18634879633010087,"473":-0.1558258784397362,"474":-0.03428376552104826,"475":-0.06439636182946354,"476":0.10784937537079192,"477":0.06935908745838718,"478":0.14572870457095272,"479":-0.025647445126865915,"480":0.07558578254740629,"481":0.09217265728070104,"482":0.1637696837902508,"483":0.10742540373403434,"484":0.11776767720055832,"485":0.1534477235641361,"486":-0.042264594736573985,"487":0.051538254378997325,"488":-0.07200454089078623,"489":0.05996631871372821,"490":0.19203659869762077,"491":0.022544379975113892,"492":0.20819590904390517,"493":-0.03576052427996481,"494":-0.17839185091356638,"495":0.07580972355433054,"496":-0.10939829470471828,"497":-0.1711885600605286,"498":-0.160653694759951,"499":-0.03944349403030607,"500":0.07222253786563512,"501":0.16530451967945028,"502":0.17384303641351692,"503":0.01241124735636956,"504":-0.15037449287257784,"505":-0.11730798624919697,"506":0.18236103911523668,"507":-0.030476091875531665,"508":-0.09531778271777393,"509":-0.00038690347443546836,"510":0.23546941016212344,"511":-0.05306963460853107,"512":0.015019272790477529,"513":-0.09725937258883718,"514":-0.07873761022365992,"515":0.2469470444035396,"516":0.010737746843831093,"517":0.10719082564519607,"518":0.06335073479396072,"519":-0.09296066147225394,"520":0.1859662816002982,"521":0.09852393131367403,"522":0.1459131398591658,"523":0.22741790956662164,"524":-0.04058509325068071,"525":-0.13989654536436755,"526":0.17499865116694713,"527":-0.10706560168799752,"528":0.006940958072255064,"529":-0.12275897330772108,"530":-0.052106323218855326,"531":-0.08416673133440994,"532":0.03911009485248115,"533":-0.05670414263366253,"534":-0.20901506651216284,"535":-0.14305791322800393,"536":-0.031162357227604087,"537":-0.14006248787897074,"538":-0.07686714597855596,"539":0.17822646142219142,"540":-0.034009036284325875,"541":0.05024377999219886,"542":0.0036631485000219624,"543":-0.1898410156402642,"544":0.15807581255258232,"545":0.03807116606659121,"546":-0.1959761587011181,"547":-0.29450000779718755,"548":0.10476326152139635,"549":-0.16137844308231938,"550":-0.18743274373079688,"551":-0.22664404373823777,"552":0.10881172458498971,"553":0.12738674456576501,"554":-0.15007002877650577,"555":-0.14184636854385846,"556":0.18560535247171167,"557":-0.036895342220517054,"558":0.02825612393847449,"559":0.1456158927160174,"560":0.1575845440646294,"561":-0.2608097150590886,"562":-0.012516897724611986,"563":0.0048845792174778266,"564":-0.03239981373488795,"565":-0.056325448668822775,"566":-0.09187912214332536,"567":0.14955542286268275,"568":0.14073220839496786,"569":-0.0913812788313721,"570":0.034658692876079394,"571":-0.2934908413958702,"572":-0.26547107429185707,"573":0.06335797785044672,"574":-0.14720725438968302,"575":0.06273825770604148}},"2":{"bias":-0.20346262331155462,"weights":{"0":0.011318642244340323,"1":0.10803684050764378,"2":-0.01978359288115827,"3":0.05936327373754888,"4":0.004471448199201047,"5":0.061738405209397954,"6":-0.014005178398242467,"7":-0.040256551971426364,"8":0.17883719835746262,"9":0.2333793408168123,"10":-0.04573939692543632,"11":-0.08912355466300707,"12":-0.15348235919970685,"13":0.07903414397871958,"14":0.16188579668446706,"15":0.0985465749812175,"16":-0.007233612667786481,"17":0.08946241007161052,"18":0.05864233024168054,"19":-0.0011741979188717912,"20":-0.05063302681071365,"21":-0.09871187070027493,"22":0.01648935957163216,"23":-0.30975094727054986,"24":-0.05434637545520452,"25":-0.12989419786158182,"26":-0.1753007845524187,"27":-0.1597792434591529,"28":-0.18072150983846355,"29":-0.26379027664919086,"30":0.14178127879680863,"31":0.05354378123459574,"32":0.0738990895008895,"33":0.16322686400352934,"34":-0.2094993991667953,"35":-0.24917072780989089,"36":0.08612019569751535,"37":-0.03197725061371528,"38":0.16753294850341646,"39":0.13151577365749548,"40":-0.022727730045190922,"41":0.12677415042316245,"42":0.11525637359504395,"43":-0.11362820366878296,"44":-0.1816101944438527,"45":0.09520773159438803,"46":-0.10360809376404759,"47":-0.08220690720260233,"48":0.0020323306333813445,"49":-0.09409081226748292,"50":-0.05870529007913193,"51":-0.09793822462948419,"52":0.07664065487286012,"53":0.03212584594992254,"54":0.08631200654633889,"55":0.0869184884699914,"56":0.010827926083328951,"57":0.16855988208267167,"58":0.09235131349470237,"59":0.046788397941878626,"60":-0.03681226903315604,"61":-0.12993862044999419,"62":0.16277732189990707,"63":0.19441184197074632,"64":-0.03639948026773902,"65":0.028348938493820326,"66":0.18934696157854564,"67":-0.0264892559552977,"68":-0.17771826146256012,"69":-0.1949543488823067,"70":-0.20296214686498365,"71":-0.3519148409921197,"72":0.07928340437013495,"73":-0.15250193058858738,"74":-0.16056521506515117,"75":0.08466165428546768,"76":-0.2065515153606604,"77":0.14760508839805192,"78":0.0604043903071951,"79":-0.20220542871761993,"80":-0.22148527211983515,"81":-0.09650405853542514,"82":-0.02615011472410088,"83":0.08406462024036385,"84":-0.2823814086047473,"85":-0.16151636638233371,"86":0.012812138703876578,"87":-0.08167070150627508,"88":-0.07513660179937123,"89":-0.13260341721705224,"90":-0.04972408325191222,"91":-0.08267238206842807,"92":0.15458766908433552,"93":-0.02931789565732527,"94":-0.08317058306513635,"95":-0.2206814487438753,"96":0.1032710188925288,"97":0.1539634156646348,"98":-0.0022059379168655373,"99":-0.12075785993126853,"100":-0.0666905679666132,"101":-0.009353044288364445,"102":-0.10010166808935426,"103":-0.022810056410170955,"104":0.0427936840486012,"105":-0.2749981907095875,"106":-0.2010365787868813,"107":-0.3093734496238417,"108":-0.2942811490418621,"109":-0.0933361477648671,"110":-0.05093385807502322,"111":-0.20223452299347439,"112":-0.11744640422941996,"113":-0.15535084274811473,"114":-0.2032795956633932,"115":0.008966663858241908,"116":0.02438571648781449,"117":-0.075728233580408,"118":0.01000359940443759,"119":0.01925688693125153,"120":-0.15494823964514057,"121":-0.06613813744009583,"122":-0.17096619677642289,"123":-0.035148152583931475,"124":-0.13398281683272956,"125":0.030349526494471264,"126":0.17158825648401618,"127":-0.11507844844905736,"128":-0.02824501190500027,"129":-0.25496107627880055,"130":-0.06851532065663886,"131":-0.03714764114471021,"132":-0.10654161272442197,"133":0.08272779507922343,"134":-0.1254174288067337,"135":-0.14364029432841055,"136":0.08481019413309526,"137":-0.1189952237248398,"138":-0.21380456517145283,"139":0.15389333199323785,"140":0.24330906777023958,"141":-0.05289422671066348,"142":0.2556628836894818,"143":-0.20748348016518522,"144":0.08587590509236656,"145":0.1738856706961326,"146":-0.01330291541937163,"147":-0.01039336638330092,"148":0.15722944968085126,"149":-0.08971582652161132,"150":-0.05390207141157039,"151":-0.16035897929854312,"152":-0.23210253291567648,"153":-0.08889869513477336,"154":0.050999455278159585,"155":-0.2666323380108442,"156":0.01852621922095121,"157":0.11422150429257899,"158":-0.06628648220261833,"159":-0.00627879748004046,"160":0.06983669118474953,"161":0.05226445464211944,"162":-0.02195853143841032,"163":-0.04359082455191005,"164":0.17812102965896648,"165":-0.10342137993500637,"166":0.15535388797264027,"167":0.19367023216487045,"168":0.037783578694942754,"169":0.1059198725120014,"170":-0.038306383701987086,"171":-0.2163254329885447,"172":-0.07970392071196294,"173":-0.03785357099168151,"174":0.2551730806467049,"175":-0.1145462038397711,"176":-0.16335918914201783,"177":0.0745903681767825,"178":-0.20237549923267617,"179":-0.09845122450630456,"180":-0.07799436324742406,"181":-0.12538842240916628,"182":-0.11998876923823791,"183":0.09228321510517157,"184":0.22053287165655536,"185":0.03667115122308272,"186":0.06872189572671926,"187":-0.027025059195378013,"188":-0.051333148033746556,"189":0.1736391892663564,"190":0.014085751179355755,"191":-0.03345569751833914,"192":0.14103415260480562,"193":0.07124200909267242,"194":0.04952230213501849,"195":0.0918711768990124,"196":-0.07107396110875829,"197":0.05427024362501793,"198":0.06598300115513454,"199":-0.19573229593500535,"200":0.052458236837495544,"201":-0.15235622360136447,"202":0.004711198509149788,"203":-0.12583184886036716,"204":-0.058438379063095215,"205":-0.13717045551982832,"206":0.13947456821253487,"207":0.16977379512288548,"208":-0.22227368298644254,"209":-0.11924889694436194,"210":-0.0939070079298957,"211":-0.16975904570912528,"212":0.13556144154633987,"213":0.24255997764177414,"214":-0.10248217494354822,"215":0.13221939327962806,"216":-0.06811373617848861,"217":0.14608838088432047,"218":0.0284283810200167,"219":-0.19218986127059864,"220":-0.13773857826049574,"221":0.1687137419774477,"222":0.13567210224658618,"223":-0.13080803354582446,"224":-0.13607737152642918,"225":0.04215505567653525,"226":-0.0987485822022826,"227":-0.011716396059597027,"228":-0.289514370359734,"229":0.09582438761780822,"230":0.07607389287122854,"231":0.09224539993057344,"232":0.06967883600348602,"233":0.0315928463671257,"234":0.09856836325436272,"235":-0.1781392836102278,"236":0.13009219055041696,"237":0.11059159437581872,"238":0.1734386761321892,"239":0.13183716223540384,"240":-0.05016591742512288,"241":0.1503138252603158,"242":-0.13871274087297925,"243":-0.07709615326595222,"244":-0.12075071275323744,"245":0.029644550322277217,"246":-0.04067907073247845,"247":0.1313394690139894,"248":-0.17448380954052042,"249":0.17672230137872078,"250":0.09513665960955688,"251":-0.15170558970636158,"252":-0.14514917452866039,"253":0.016703760894884023,"254":0.12616572501613793,"255":-0.0018963034833144742,"256":-0.08825261651245206,"257":0.18663505334668767,"258":0.13303903278000506,"259":0.10872022411298797,"260":-0.0760324906005844,"261":0.22054367412686343,"262":0.08561738191598377,"263":-0.060782331381762096,"264":0.008060062916601255,"265":0.13703625963434476,"266":-0.12468840002759765,"267":-0.20225339774651446,"268":-0.1435580449673274,"269":0.11587086925364266,"270":0.13776668915131488,"271":-0.051640484187630294,"272":0.19259245090266683,"273":0.1826562042801339,"274":0.04698023663640197,"275":-0.15046363861457882,"276":-0.32336954619333724,"277":-0.156848269943907,"278":0.09058664004052965,"279":0.06362947135934337,"280":-0.11316221193564388,"281":0.06871506284738427,"282":0.27992814861193666,"283":-0.1783440308848596,"284":-0.15345426669830806,"285":-0.17884964427362196,"286":0.23803969569314848,"287":0.11048826789350108,"288":0.08250536117740176,"289":0.09841743377323564,"290":0.021307645359756273,"291":-0.20225146762025945,"292":0.02029307966836231,"293":0.04439851955042594,"294":0.21451385290752445,"295":0.10777437978682372,"296":0.24012114684031627,"297":-0.0950910115671521,"298":-0.18572917331226277,"299":-0.2830237815697517,"300":-0.12086187702480937,"301":-0.13280725661139153,"302":-0.08447749290638963,"303":-0.14382447130157552,"304":-0.03334464916482456,"305":0.25501540096659014,"306":-0.050820575989973145,"307":0.3017299748970748,"308":0.15068099204798752,"309":0.014402983328491048,"310":0.1379773369703102,"311":-0.10680668913719689,"312":-0.19528706271165244,"313":-0.13140240259784328,"314":-0.16580592194122604,"315":-0.10515480089532556,"316":-0.03763675066658017,"317":-0.16206380145582477,"318":-0.018220083597553352,"319":-0.09114625574112144,"320":0.043985737255751785,"321":0.017770252147245764,"322":0.1425447146138211,"323":-0.2866529977885875,"324":-0.16615150077511548,"325":0.07857034629731599,"326":0.052212480991745004,"327":0.09816881783554304,"328":0.18031059104616975,"329":0.029633858817471378,"330":0.26322899353553386,"331":-0.06400162207553166,"332":0.08606608744701467,"333":-0.008985783100912368,"334":-0.07977407290214149,"335":0.07092286758142434,"336":0.17586578390453866,"337":-0.007080996352467212,"338":-0.1981508634835173,"339":-0.03300244185112505,"340":-0.07851264543525059,"341":-0.24051537373193888,"342":0.11615111289058394,"343":0.14215083551233942,"344":-0.12235437540643898,"345":0.15154587658127053,"346":-0.12426005960625618,"347":-0.2955623324873744,"348":0.05872294645446213,"349":-0.15374369846607489,"350":0.08583067130407251,"351":-0.11993758789044161,"352":0.17563925483850543,"353":0.17448239811737867,"354":0.05215339199426645,"355":0.060454040879421155,"356":-0.010553596071389337,"357":-0.19518094659316115,"358":0.1597882269126139,"359":-0.04741518177467531,"360":0.05202054644137448,"361":-0.09671444395311875,"362":-0.14701797016326654,"363":-0.023769901842017736,"364":0.04278920570646356,"365":0.1901143709155673,"366":-0.12346671535927843,"367":-0.07202511279861751,"368":-0.1545090558059092,"369":0.25235708476414853,"370":-0.048200917892594466,"371":-0.06302452314341594,"372":-0.26594419664228364,"373":-0.10904854955076555,"374":-0.07045826331192537,"375":-0.18669242061435,"376":-0.03619995333780954,"377":0.023793837461207574,"378":-0.16458240274708813,"379":-0.04862244681867207,"380":-0.20642186151006622,"381":0.10839426337094966,"382":-0.13658344648074897,"383":0.23286746438377412,"384":0.13701178861721797,"385":0.061914316666927295,"386":0.16823005889949377,"387":0.12554347038597236,"388":0.25049240860292604,"389":0.15252433581213373,"390":-0.02041986320269272,"391":-0.06972087539929511,"392":-0.10259135171840789,"393":-0.1139362418010986,"394":-0.07328046101059194,"395":-0.08056927953470566,"396":-0.3168778174862093,"397":0.06396691976982674,"398":-0.24174134759815996,"399":0.003795661546727032,"400":-0.20023549195157744,"401":0.057479955469526146,"402":-0.1162483373733213,"403":-0.10149021705405667,"404":0.1762972511912777,"405":-0.06675903076725563,"406":-0.027195442723655677,"407":0.16478787670206183,"408":-0.1458402132948727,"409":-0.023654098337967416,"410":0.0988886349574269,"411":0.09566950830389792,"412":0.040322758364617454,"413":-0.20842605052133514,"414":0.0275891321331215,"415":0.025214501788372805,"416":-0.1559824973187268,"417":0.12946743308266254,"418":0.09940911472435256,"419":-0.14601454367417502,"420":-0.04834629567518937,"421":-0.16172781820148943,"422":-0.2245275008754702,"423":0.057145237212890145,"424":-0.07844384367082749,"425":-0.23704210438396522,"426":-0.045076217945360514,"427":0.05959104209783127,"428":-0.014146470587426567,"429":0.22084977755281074,"430":0.12615246350483944,"431":0.05641964527126404,"432":0.1470049142850794,"433":-0.19686878421523119,"434":-0.10749365890311988,"435":0.009085257998798392,"436":0.05597131566917883,"437":0.12207874299688076,"438":-0.03522261001234474,"439":0.021732942562247237,"440":-0.11061084781861039,"441":0.0036734530535308943,"442":0.018973639860594773,"443":-0.09047262502352438,"444":-0.247472947105946,"445":-0.14048327956889142,"446":-0.17544089420973838,"447":-0.13594348984315338,"448":-0.014823321837373286,"449":-0.07150292199505703,"450":0.15523676845789947,"451":0.030589300097072957,"452":0.006594359209020215,"453":0.05773424929722645,"454":-0.16948082143387402,"455":0.06611196189351451,"456":0.08879925547623578,"457":-0.12977427926051197,"458":0.1725414374110986,"459":0.14979551560606014,"460":-0.07383366620895628,"461":0.2556068005109796,"462":0.15259674697592496,"463":-0.3054098943624499,"464":-0.07849934990204709,"465":-0.009962527419252,"466":-0.09824148177494062,"467":0.1334400501059996,"468":-0.14585336314719954,"469":-0.12844264929818064,"470":0.1749591661175357,"471":-0.14212691103094102,"472":-0.06460632504907969,"473":-0.15573632335285068,"474":0.16360827794955468,"475":-0.09980418145117831,"476":-0.11721510293849265,"477":-0.14813179371891888,"478":0.16932183838941645,"479":0.2963441837838692,"480":-0.12875385086710867,"481":0.06489542013591218,"482":0.07042479150354934,"483":-0.15373526206722674,"484":0.06559878849782753,"485":-0.10876199204517421,"486":-0.024813003666538363,"487":-0.2593171679173294,"488":-0.21378535145188543,"489":-0.13460120953749818,"490":0.10330585158917764,"491":-0.13227032743863634,"492":-0.061652736938792536,"493":0.22028000081169546,"494":-0.10180313141398731,"495":0.04504025893714872,"496":0.0738339987796169,"497":-0.04584377458111208,"498":-0.10194338699230249,"499":-0.05252544540625208,"500":-0.12738805091293365,"501":0.06168106995992791,"502":0.10983117159311283,"503":0.19042315740384702,"504":-0.17356429500807904,"505":0.08760664227883792,"506":0.13752241650514518,"507":0.17665970267155523,"508":0.14151713742028293,"509":0.08407442750114774,"510":-0.12183590556211177,"511":-0.10007225720398838,"512":0.24757389354784715,"513":0.15955090312361303,"514":-0.009599587235962046,"515":0.1363741341580984,"516":0.25033076384518826,"517":0.21381542903325532,"518":0.14151150972542373,"519":0.17086273288210155,"520":0.13761476101768919,"521":-0.09611140514123345,"522":0.19903610452893578,"523":-0.10370132405743157,"524":-0.017425342866298155,"525":0.06112197355668585,"526":-0.08221599723704169,"527":0.1274629415963196,"528":-0.014517498150874723,"529":-0.08153757759560921,"530":-0.07708234661463222,"531":-0.028256184236033738,"532":0.12422898418696332,"533":0.0859205534496488,"534":0.051140218300694096,"535":0.04189982625939371,"536":-0.04785251473099042,"537":0.06281180951980167,"538":0.014409960032449279,"539":0.019199802762799263,"540":0.16170306032701268,"541":0.26940987415022016,"542":0.19542642968071006,"543":0.15365793753789975,"544":0.15943407143076904,"545":0.08313236269025126,"546":0.14403094560922516,"547":0.21024543030753223,"548":-0.052165917444777166,"549":-0.07676859294703565,"550":-0.16364129061031485,"551":-0.08909603846669686,"552":0.11580645473042364,"553":0.007959136259312558,"554":-0.22919408907584377,"555":0.15004445839179323,"556":0.06710882644064947,"557":0.008690062535383727,"558":0.05138684361451466,"559":0.22548372522132115,"560":0.2728169646591852,"561":0.2703249489985175,"562":0.201155780535183,"563":0.252084766290401,"564":0.19453724729676075,"565":0.28927725620186806,"566":0.35618029657222555,"567":0.35432210677751347,"568":0.13664175176985932,"569":0.26456971796571827,"570":0.11925059160998572,"571":0.1973953480809161,"572":0.08558061296761432,"573":-0.1395761512902832,"574":0.0484875103212014,"575":0.13610185083401719}},"3":{"bias":0.1335028696270998,"weights":{"0":-0.1109406800682548,"1":0.09972076242513192,"2":0.009550162838573828,"3":-0.07070100076935894,"4":0.1762046680101746,"5":0.1823254812072127,"6":-0.08656331369950492,"7":0.18910299275541365,"8":-0.14384023773949428,"9":-0.13683557005238797,"10":-0.06758035127267008,"11":0.09288903722506334,"12":-0.13230826752526686,"13":0.18542642189434416,"14":0.17825599336417094,"15":0.16805517867768563,"16":-0.06372018906742251,"17":0.07946956398274552,"18":-0.2390391503125274,"19":0.0386323103760749,"20":0.07446071186886623,"21":0.024926179003583734,"22":0.047626008838605204,"23":0.17229548179846763,"24":-0.08321133087749276,"25":0.03651736694779097,"26":-0.1541859117501766,"27":0.019887576469667125,"28":-0.2420327380224951,"29":-0.1413602472520441,"30":-0.03965053107756995,"31":0.032075584758736904,"32":-0.18930591755021,"33":-0.1978147309405003,"34":-0.18310929252475255,"35":0.1821627454164248,"36":-0.01296040730708924,"37":0.06460256661159888,"38":0.027190087002363823,"39":0.27407814277800174,"40":-0.10619241017978208,"41":-0.016747291182655874,"42":-0.08903667169611199,"43":0.08687795046517523,"44":-0.11249013777587914,"45":-0.13405074654102508,"46":-0.24614556024774853,"47":-0.20036125444686773,"48":0.1247694073399709,"49":-0.14577123567975506,"50":-0.06730665926795446,"51":-0.16283154069922495,"52":-0.24485315179336495,"53":-0.12725716727810318,"54":-0.10427791797963068,"55":-0.096950663519764,"56":0.07518813890780614,"57":0.13525401985416283,"58":0.037947530823488104,"59":-0.1734751819460693,"60":-0.11652091835820501,"61":-0.061899271462528,"62":-0.20102044881157338,"63":0.20690448071968492,"64":0.15529178513722455,"65":0.02007486464739143,"66":-0.07777779106294037,"67":-0.22660313195247178,"68":-0.05016691773857692,"69":-0.02599511436525363,"70":-0.17596406790405456,"71":0.06366966863025024,"72":0.12513519138051907,"73":0.05137906307639521,"74":-0.0848649789458526,"75":0.014409545768111782,"76":0.0780729989905601,"77":-0.008511760849078344,"78":-0.08254888014038211,"79":-0.021340678827753614,"80":-0.06889718554505744,"81":0.32741315397528287,"82":-0.00529428174895703,"83":0.03379449822136906,"84":0.08467848131960781,"85":0.06358553944946448,"86":0.06345075252879723,"87":0.04064382039777118,"88":0.3055667497773616,"89":0.03887102920957552,"90":0.03917211508255361,"91":0.20109300123265753,"92":0.00957380555602126,"93":0.08620638414996618,"94":0.16329524256525224,"95":0.2257826373948498,"96":-0.06682142265386702,"97":-0.12739726707526694,"98":-0.13496422632051203,"99":0.044384009644343254,"100":0.06778030917872545,"101":0.22809848789791035,"102":-0.1258829300500272,"103":-0.14841750814552368,"104":0.3367211045214486,"105":0.32981947763655367,"106":0.3289585732183737,"107":0.1846833840400489,"108":0.26150936930106206,"109":0.04124048972644387,"110":0.04685558126221606,"111":0.054397017660937436,"112":0.15326987715372625,"113":0.13853677988326785,"114":0.10281640898915666,"115":-0.06340136056282968,"116":-0.1883951060582893,"117":-0.12089697550988115,"118":-0.16225001268215747,"119":-0.09446349738096366,"120":-0.09172721626865953,"121":0.07510203987011309,"122":0.08405871587071771,"123":-0.018967847750454715,"124":-0.021657756415993143,"125":0.14991099517164208,"126":0.024464091795091236,"127":-0.09020145179314354,"128":0.20671948133637613,"129":0.11900996925303524,"130":0.048547614398385425,"131":0.12146533361328889,"132":0.27986551079677446,"133":0.26438545593167245,"134":-0.035402547829104784,"135":-0.018832450100090922,"136":-0.07026672062248776,"137":0.25955989294989623,"138":-0.03246181559203317,"139":0.12413911638678277,"140":0.08655404050828366,"141":0.08983252994226905,"142":0.031437125224920266,"143":0.14968257739758117,"144":-0.17373117026227783,"145":0.2863338555265279,"146":0.015641050138269517,"147":0.14731961441190752,"148":0.16577799964387332,"149":-0.15345398105064426,"150":-0.12296605019074913,"151":-0.08918091065845903,"152":-0.07373290937998521,"153":-0.08061617901666682,"154":0.092399334511571,"155":-0.08727565699848963,"156":0.09538333846007171,"157":0.2801911477932766,"158":0.2970202315964612,"159":-0.026563083557245053,"160":0.22820445673390388,"161":-0.05698790367030593,"162":-0.15204001825508498,"163":0.034740193303578075,"164":0.1676294612207787,"165":-0.14308939160864667,"166":0.0552410553084639,"167":-0.17994936254546376,"168":0.03487392191229161,"169":0.061637500954169075,"170":-0.10150073387579336,"171":-0.07134253237787894,"172":0.11044824336956595,"173":-0.1520859205762484,"174":-0.0641660923024902,"175":-0.23562808901871493,"176":-0.18882072663941135,"177":-0.14333676761376987,"178":-0.1748724568769016,"179":-0.09244336144238147,"180":-0.07849273602431786,"181":0.2239887763955156,"182":-0.0021570616390664864,"183":0.12782622804572305,"184":-0.06667871788386562,"185":-0.08416413707510968,"186":-0.1499811631851841,"187":-0.0717580963769227,"188":-0.08568900293502073,"189":-0.09310297817489009,"190":-0.15949618104079313,"191":-0.1559970583395686,"192":-0.11465468330795249,"193":0.036535225230318706,"194":0.16551029796614505,"195":-0.08478718716796513,"196":-0.023818789933497262,"197":0.03864149865322025,"198":-0.013280323180909862,"199":0.02718866058047409,"200":-0.22149970784746909,"201":-0.1914336655333265,"202":-0.17700360482111785,"203":-0.02996088089617804,"204":-0.039951803561964504,"205":-0.05473082112466806,"206":-0.15325670235610842,"207":-0.052041267014285485,"208":-0.1897281601987249,"209":-0.13086279448947255,"210":0.24003222669275973,"211":-0.06157726393098413,"212":0.07469215374143663,"213":0.046782570220296096,"214":0.13510672480584596,"215":0.014979259657082447,"216":-0.011398254945177193,"217":0.050858335528623816,"218":-0.10092101892484702,"219":0.20225660860074615,"220":0.04869713407159631,"221":0.17778589164007366,"222":0.25211739612025885,"223":0.04213325534716377,"224":-0.19927962399228438,"225":0.20999530047178286,"226":-0.0941443179897273,"227":-0.1657754417914218,"228":-0.09587815837513808,"229":-0.021330698647799365,"230":-0.07492980266738135,"231":-0.2037224676056917,"232":0.049278724971884846,"233":0.11215007061597801,"234":0.20124822765130781,"235":0.040470763514031276,"236":-0.029510792549918365,"237":0.04511210299424762,"238":0.09811386373866018,"239":0.02644362697949959,"240":0.2059897636392793,"241":-0.05128718703578338,"242":0.10546583764468871,"243":-0.051312150180601125,"244":-0.11147592015418516,"245":0.053748781787201154,"246":-0.15103812471007538,"247":-0.03983443577756494,"248":0.06456166838981005,"249":-0.08348676716815374,"250":0.19195367051571996,"251":-0.24616423678633123,"252":-0.2994050916524192,"253":0.0858840163343719,"254":0.14945057079083912,"255":-0.10632452984660923,"256":0.06989793299118596,"257":0.034495250498738285,"258":0.12633060966815968,"259":0.04931209504549136,"260":0.01947639007600838,"261":0.15461164796914362,"262":-0.06068286934106024,"263":-0.07969181915161723,"264":-0.09581526164796432,"265":-0.03182468846140585,"266":-0.0021190062203987605,"267":-0.11680874258756115,"268":0.03449631003871557,"269":0.31335765893127243,"270":-0.010256433669467139,"271":-0.07664396212387194,"272":0.18154243829235442,"273":-0.029923352677009067,"274":-0.02199375270025499,"275":0.05637928194763395,"276":-0.3141781339650337,"277":-0.163784314254674,"278":0.24595438561729108,"279":0.1881416761568805,"280":-0.07001602060611356,"281":-0.13275262286575754,"282":0.20893122160368602,"283":0.2725318189255326,"284":0.09465125323801735,"285":0.09815386167927455,"286":-0.03120896624611057,"287":0.040632215712245685,"288":-0.07685410282026119,"289":-0.12060935898348352,"290":0.16357159483163886,"291":0.15640327918969832,"292":-0.15106249265344068,"293":0.23534093734495484,"294":0.04451178312052725,"295":0.024466479197550312,"296":0.07609601174459281,"297":0.15608430277165253,"298":-0.3090526779556062,"299":0.11037678793524724,"300":0.02275220626831639,"301":-0.1189662307704782,"302":0.07781367101613432,"303":0.2630290829997694,"304":-0.14755354966612363,"305":-0.008048925243539439,"306":-0.08645567973279882,"307":-0.14738232143418675,"308":0.15433840172920968,"309":0.0385325637526732,"310":0.001368056243962258,"311":-0.1346753546101093,"312":0.1857350288243184,"313":0.005696332036185344,"314":0.028136521585239428,"315":0.035702040313509466,"316":0.05247918190382024,"317":0.10923320154281578,"318":-0.0849567771162322,"319":0.06507509987849958,"320":-0.08810416907011381,"321":-0.11955892146626215,"322":0.05502266848517271,"323":-0.17735739541849424,"324":-0.14940061363621226,"325":0.08664737559941099,"326":-0.09552173677470586,"327":0.08105340057254488,"328":0.07254260269497098,"329":-0.013227131944631229,"330":-0.2031502513061581,"331":-0.2596130147657578,"332":0.10464676455439635,"333":0.029966881030743405,"334":-0.04009755497457759,"335":0.19619187312899297,"336":0.20551846171516205,"337":-0.05614398207739387,"338":-0.12508583083060584,"339":-0.05284639152336032,"340":0.13585628646114015,"341":0.26522771047052285,"342":-0.08953983463178743,"343":-0.05514272863359403,"344":0.13165471812844004,"345":-0.04083020043925974,"346":0.0019991946524646055,"347":0.13130137195758457,"348":0.12222518870702517,"349":0.16291759872911046,"350":-0.05921001007834106,"351":0.1510909749775164,"352":0.17940995942038737,"353":0.18515734562690153,"354":-0.014230635536922423,"355":-0.21042399273247242,"356":0.2592418531091361,"357":-0.07783657070909804,"358":-0.044680314918011034,"359":-0.051170028752560576,"360":0.07527890661891883,"361":-0.08026446455881206,"362":0.07268706905142014,"363":0.2397464211941245,"364":-0.022799431747016714,"365":0.21216171381002283,"366":0.21495139589025192,"367":0.12163837094793084,"368":0.13635456416367236,"369":0.21364468011242038,"370":-0.1861147166898148,"371":0.12798815470015498,"372":-0.03728781869033611,"373":0.023302574979201497,"374":-0.23695291024519377,"375":-0.06610273306194904,"376":0.2765985049061986,"377":-0.16926095413029404,"378":-0.09053389379823688,"379":-0.09502769813248922,"380":-0.16053401534277992,"381":0.15110046960180495,"382":0.2582714811620452,"383":-0.09767199936902647,"384":-0.05436414368756736,"385":-0.005168889407103311,"386":-0.003162673622656792,"387":0.16635944410018375,"388":0.1282128635128997,"389":0.017059638641929754,"390":0.10345337107210906,"391":0.13749321109871385,"392":0.0016730366119305944,"393":0.000043169352205305874,"394":0.14446896889880464,"395":0.128802505527403,"396":-0.10428132180892698,"397":0.067727490703202,"398":-0.17958601648904413,"399":-0.08921295933134372,"400":-0.11458729505328047,"401":-0.23703893643403381,"402":-0.13358048374227038,"403":-0.11761527653432469,"404":0.032423588529936945,"405":0.3060932094542986,"406":0.09981931406247135,"407":0.06803409692549285,"408":0.11852183436646808,"409":-0.044282088712434456,"410":0.016977271168905673,"411":-0.17745782626903625,"412":0.1563660566596896,"413":0.01616705029248548,"414":-0.09384446790281065,"415":0.1209765576627515,"416":-0.14434027391004742,"417":0.14631524853198652,"418":0.025007919152538034,"419":0.10914486077611142,"420":-0.07364805828542838,"421":-0.24183427951281428,"422":0.08135548457984079,"423":-0.08262111110207541,"424":-0.17388134245654485,"425":-0.2492155473184715,"426":0.08689959496912987,"427":-0.18266881836841586,"428":-0.11636690409898708,"429":0.018399961185245974,"430":0.14685373277871464,"431":-0.11937728048275018,"432":0.13309141930749907,"433":0.07717889062312486,"434":0.07173471456037428,"435":0.048345800432747096,"436":-0.1295856632943073,"437":-0.2797006763901321,"438":0.041787915756906095,"439":-0.008385596240415053,"440":-0.19209460963279895,"441":-0.09460120022912034,"442":0.10521970318926131,"443":0.009318603486365444,"444":-0.21438518654656213,"445":-0.06244393891716192,"446":0.08070806024831517,"447":-0.20173359635746302,"448":-0.10796387578241572,"449":0.1404295314295633,"450":-0.15723274741305995,"451":0.21203206737048477,"452":-0.1532674741599261,"453":0.1531722546939094,"454":0.04360313032830405,"455":0.11965685549085377,"456":-0.17213057053034944,"457":-0.010689647799412283,"458":-0.16389715411971056,"459":0.06907313814421265,"460":-0.15946611693574972,"461":0.06764656134093089,"462":0.09456961753976156,"463":0.08789508728173695,"464":0.0069007543349068855,"465":0.13381844296067621,"466":0.07336021990161455,"467":-0.1454813155546285,"468":-0.20603439392822112,"469":0.050894668561993754,"470":-0.11569799068786871,"471":0.03742677986807817,"472":-0.12427558595549086,"473":0.26815917980746384,"474":0.08868994502211366,"475":0.028113084970232696,"476":0.054281489880470386,"477":0.10009406814778316,"478":0.08273155139752982,"479":-0.11985258206218571,"480":0.04531763437613673,"481":-0.16450568622332795,"482":0.13598123844183627,"483":0.08801517028957012,"484":-0.19277275305279726,"485":-0.17755185656837302,"486":0.2659158106935257,"487":-0.09764153690768664,"488":0.023000541602432097,"489":-0.11242106117978391,"490":-0.1362120181379465,"491":-0.2345149537187386,"492":0.039757633057292525,"493":-0.008173937679981232,"494":-0.15825742886043903,"495":-0.038739147405780966,"496":-0.11927873715040313,"497":0.15475861011057554,"498":-0.15127119719090248,"499":0.25381297616711823,"500":0.12861330987795538,"501":-0.12628173850721833,"502":0.14463847098711902,"503":0.15869312264270122,"504":0.05597547860515261,"505":0.07023791914308397,"506":0.03176797987045393,"507":-0.0011269536542393409,"508":0.149756118350056,"509":0.020851332883215976,"510":0.16830359275783266,"511":0.2620763754266196,"512":-0.0002304125206991643,"513":-0.1789778597219838,"514":-0.1790015841300976,"515":0.03278436790366643,"516":-0.11457876878313353,"517":-0.27532823752533536,"518":0.12005361857160014,"519":-0.007322189454827924,"520":-0.04474498362747867,"521":-0.13068043270095211,"522":0.053841128084303844,"523":0.07926952410304648,"524":0.2298967742704474,"525":-0.08283640692926936,"526":-0.06578810970115397,"527":0.09127402292718202,"528":0.1496406857356084,"529":0.00030764826430998643,"530":-0.25439551958070045,"531":-0.20112922650906825,"532":0.019944962141838374,"533":0.003338721276282442,"534":0.2061939452760122,"535":-0.14126747956008837,"536":0.004019152965641279,"537":0.16834148657414078,"538":-0.04234533029422931,"539":0.16530874476268712,"540":0.07568431921719175,"541":-0.1321387859492669,"542":0.15126832341283483,"543":-0.051337359869790565,"544":-0.09478885632530244,"545":-0.15161640693342057,"546":0.1968052802196547,"547":-0.03091737575529844,"548":0.04881273963543616,"549":0.013143734864349334,"550":-0.01570301405417158,"551":0.00999562465097286,"552":0.16202238224846313,"553":-0.04575043126335066,"554":0.11528766055000211,"555":-0.018692528464611696,"556":0.13268491186649936,"557":0.2585522271487892,"558":-0.09964640269697485,"559":0.1400007957585653,"560":0.040773284168352984,"561":0.1158878456073222,"562":0.14288202574861927,"563":0.049943974310555035,"564":-0.10197042513468049,"565":0.14216598328961508,"566":0.11941870827164393,"567":-0.029257625684014202,"568":-0.002376978112729924,"569":0.1849817150742124,"570":0.10341126888166753,"571":0.16757661608879942,"572":0.06850849828187626,"573":0.14086811401736785,"574":-0.014916006764143149,"575":0.14353770615462405}},"4":{"bias":0.09814707246040487,"weights":{"0":-0.12112886457374207,"1":-0.23633459657885456,"2":-0.11444244939302939,"3":0.004805747620831092,"4":-0.08624676388261228,"5":-0.015945114834306988,"6":0.11762741741728096,"7":0.07122191270941348,"8":-0.13295750136269416,"9":0.25868077552807184,"10":0.011930436350299832,"11":0.008454893626323113,"12":0.13760553279448384,"13":-0.040869640042515074,"14":0.17485512546502874,"15":0.02757851441002124,"16":-0.1516276347019793,"17":0.02115589462185102,"18":-0.0015298008582848082,"19":0.1429419461870764,"20":-0.16236704040467495,"21":-0.285805474895635,"22":-0.02011461095185714,"23":-0.03303286828641119,"24":-0.08318173079671867,"25":0.04862251079538178,"26":0.059951271475151745,"27":-0.07423663543216284,"28":-0.01877985829479874,"29":-0.13175850897245955,"30":0.040076456438605204,"31":0.16559027166688167,"32":0.05363704215406088,"33":0.20963401060993905,"34":0.044622635774963997,"35":-0.0293219433260956,"36":-0.06427330982760263,"37":-0.1001775291819015,"38":-0.18614747326986822,"39":0.10090258127809487,"40":0.12094580123275638,"41":0.13340444182560127,"42":0.050406842519802736,"43":0.03128180238379758,"44":-0.11722411818525048,"45":0.30349872581451953,"46":0.030390915857088616,"47":0.2616392965270246,"48":-0.00437055817444896,"49":-0.010003627867225955,"50":-0.09672703954048463,"51":-0.04457351460182124,"52":0.08610348951008082,"53":0.10124477212409487,"54":0.1230007679317578,"55":0.01607955281739954,"56":0.07655124472179332,"57":0.21699884930539262,"58":0.07038648223052128,"59":-0.14790772948499148,"60":-0.06631952318428831,"61":0.18122518250872657,"62":-0.07667823715973619,"63":-0.13005977062241633,"64":0.09049369794917274,"65":0.22879253460480717,"66":0.06279839775840856,"67":-0.13969325307612493,"68":-0.12883115757827787,"69":0.17572570840990417,"70":0.0611780130460856,"71":0.31076424873850483,"72":0.16195699557695878,"73":-0.05270085354943486,"74":0.06861829995081452,"75":-0.06635461354387805,"76":-0.05399391838181228,"77":0.03738076630351192,"78":0.05912278767696605,"79":0.12493990809177727,"80":0.02393271251154229,"81":0.0609662636227087,"82":0.08315052405613702,"83":-0.18309923999794764,"84":-0.10535003146927233,"85":-0.18079878899854124,"86":-0.17790324752990738,"87":-0.013453814156187432,"88":-0.18235196142679966,"89":-0.0279997711693419,"90":-0.16369435868971044,"91":-0.04526614259809469,"92":0.030123731792535836,"93":0.11633673220411753,"94":0.14719591804029214,"95":-0.05158726325414848,"96":0.031771443424074786,"97":0.08101574367463801,"98":-0.05035943784201476,"99":0.1330058876857286,"100":0.2178268501454537,"101":0.03690765422340776,"102":0.2106058551467062,"103":-0.14199040726672338,"104":0.1568420656938992,"105":-0.1460952972615348,"106":-0.10311253004043079,"107":-0.09010855315115647,"108":-0.07659254429530321,"109":-0.08365837531660547,"110":0.10910138544659573,"111":0.020104480580008747,"112":0.017736749570325644,"113":0.007979187114572071,"114":-0.276112048253798,"115":-0.23940390840009773,"116":-0.14094780189282907,"117":-0.14050192985012025,"118":0.07646041392885414,"119":-0.12558562491697317,"120":0.018324327729357732,"121":-0.029889982438124064,"122":0.09415874938404224,"123":0.03788001516394025,"124":0.16333209265332158,"125":0.2680919121384743,"126":-0.02679665446127099,"127":0.20394736520523288,"128":0.09574525673952475,"129":0.009250690053051203,"130":0.13467117734047968,"131":-0.28345670127885636,"132":0.05524267019942391,"133":0.10601714212580629,"134":0.09310968161865471,"135":0.1594517942788278,"136":0.06464771171887078,"137":-0.14996291999710742,"138":-0.31037436824520626,"139":-0.06675009973253691,"140":-0.04292838240020956,"141":0.0037952377281230904,"142":0.05466375412955844,"143":0.06484199524066613,"144":-0.07596874720049289,"145":-0.08116926077222994,"146":0.25444857872434323,"147":-0.1573091559835894,"148":-0.17917360068454524,"149":0.14498113347300007,"150":0.12084281185855837,"151":-0.10020223078139866,"152":0.17082308000147362,"153":-0.0038882704983560987,"154":-0.02333040186450213,"155":-0.048803691132764004,"156":-0.08342171660744307,"157":-0.0138027463800658,"158":-0.21384402144925796,"159":-0.12840579516631728,"160":-0.1542389916396264,"161":0.1895732141591219,"162":0.13061630067230087,"163":0.07885210618358017,"164":-0.08995655016945132,"165":-0.07497524451986502,"166":-0.1687748396981353,"167":-0.05730407235655975,"168":-0.10213036634303664,"169":0.1531822230214788,"170":0.07243281152079117,"171":0.04336385332862847,"172":0.007577164108106519,"173":0.21421528714340257,"174":0.08340247010866343,"175":0.09329991578645203,"176":0.03199548312325833,"177":0.09972583440759925,"178":-0.15004582378968398,"179":-0.0546285774446738,"180":0.04986141497272003,"181":-0.22813345442825897,"182":0.0697216494260758,"183":-0.08706237961835862,"184":-0.1438055627783707,"185":-0.12086922794289369,"186":-0.14940980562863596,"187":-0.3081912645205132,"188":-0.2023755639520333,"189":-0.2810945905446285,"190":-0.08815410022391322,"191":-0.08607488713206428,"192":-0.07722742880832723,"193":0.18293128790730692,"194":0.24252789257130591,"195":0.09486366348287584,"196":-0.017975542080091986,"197":-0.057472115312141255,"198":0.07092936317794521,"199":-0.17631573438604128,"200":-0.1630768389542808,"201":-0.10304645448811386,"202":0.11017328178124018,"203":-0.09129624046063632,"204":0.17989487710960292,"205":0.2117938538662611,"206":-0.17343162999616435,"207":0.0032049530969756644,"208":0.1886032252680773,"209":-0.18755784749232685,"210":-0.10121010770512463,"211":-0.20277850658575097,"212":-0.14711832793457738,"213":-0.023133373846942272,"214":-0.19446614184397337,"215":-0.1918236875672996,"216":0.013449290128952511,"217":0.006088917587245964,"218":0.09608135711793957,"219":0.16274503394063533,"220":0.18373008398567373,"221":0.17815301984038046,"222":0.04246215143318223,"223":0.20025782781603355,"224":-0.14421888121205184,"225":-0.20544011947447371,"226":-0.14846707741259846,"227":0.03778779090527204,"228":-0.04405944509125694,"229":0.17701509827274592,"230":-0.28231970750683094,"231":0.14819634891510094,"232":-0.16816084724784072,"233":-0.20614354627982168,"234":-0.13815518501210966,"235":-0.293973536698846,"236":0.01120895117942656,"237":-0.28374118548234695,"238":-0.2802296577123551,"239":-0.2522083164989971,"240":-0.036133097261868106,"241":0.1341797607659986,"242":0.0044641399687473556,"243":0.001063870912981405,"244":0.14377809580187936,"245":-0.13872792424469851,"246":-0.1595986692326185,"247":-0.0062213994718478645,"248":0.15358773958893884,"249":-0.026348185881159114,"250":0.09025571646121322,"251":0.3450818770456497,"252":0.19505343651413576,"253":0.20092764339875738,"254":-0.0799849918132825,"255":0.04162919236736387,"256":0.1596545296892988,"257":0.026727033773201937,"258":-0.2487428410409879,"259":-0.32877358556506936,"260":-0.059571740283291576,"261":-0.06880959102098512,"262":-0.2815909476810805,"263":-0.2085428350737821,"264":0.1927926180050292,"265":0.02920471810065542,"266":0.05928654582717738,"267":-0.08921258810848617,"268":-0.11517612209985836,"269":0.14332070592787613,"270":0.05682839150693602,"271":0.1981272441705065,"272":-0.1270612045861096,"273":0.12020769094358423,"274":0.22843540634601484,"275":0.11416790732402651,"276":-0.016619517838171206,"277":0.19632646049049113,"278":0.23156773607086228,"279":0.019969866461194512,"280":0.1802514912180561,"281":0.10314478614939805,"282":-0.2096658983268618,"283":0.19803380979271268,"284":-0.054298837374454866,"285":0.11180731955651736,"286":0.10464764217500577,"287":-0.13855769644074142,"288":-0.12535186303856707,"289":-0.1054564423346172,"290":-0.08085064940981809,"291":0.01849353365945609,"292":-0.020528203015185317,"293":-0.1797295896121796,"294":-0.04172283874050705,"295":-0.10459682401534832,"296":0.18917222042977033,"297":0.17241460143623355,"298":-0.12235521593024792,"299":0.07013166255566569,"300":-0.07060087952995267,"301":0.24820768313671196,"302":-0.056581206313266026,"303":-0.10283179951466831,"304":0.2865132167971129,"305":0.24795329085788037,"306":-0.14124000703661502,"307":0.12319460004703561,"308":0.0688211193148273,"309":0.16499437780790432,"310":0.1918792329523477,"311":-0.17045987216209652,"312":-0.13933699849063538,"313":-0.09882336149131306,"314":0.024937239264171525,"315":-0.2532892663923807,"316":-0.02063234128428988,"317":-0.056048619367947805,"318":-0.16170400374886784,"319":-0.09424972434216262,"320":0.08305708355002935,"321":0.15892294958142286,"322":-0.1102303368599443,"323":0.13153262477283645,"324":-0.0338463475431745,"325":0.19591892189719232,"326":0.027985225170587064,"327":0.015829990061411826,"328":0.0525138712449615,"329":-0.043573485187141686,"330":0.23522992809226123,"331":-0.06463973055215563,"332":0.09497583519291994,"333":0.03307430784514978,"334":0.03361537262797716,"335":-0.06944848454866923,"336":-0.11354292754916268,"337":0.1516795139830392,"338":-0.02688373047145721,"339":-0.21198715420357284,"340":-0.21887813932105457,"341":-0.19440213633492714,"342":-0.0366810082147597,"343":-0.08862197054168482,"344":0.1118119798698848,"345":-0.23209221990052586,"346":0.11207227037220738,"347":-0.24433545643178275,"348":0.021173237371465457,"349":-0.050761882660468424,"350":0.11233295183310273,"351":0.08160687177811184,"352":-0.03480228710619576,"353":0.26540345653792036,"354":0.0845256632152475,"355":0.22313109986234766,"356":-0.03702042005891289,"357":-0.13646470966970867,"358":-0.17152290644800147,"359":-0.14503543347531836,"360":0.01103749184748563,"361":-0.04115108959961538,"362":-0.08959946447838098,"363":0.04478070240248307,"364":0.13044795061605965,"365":-0.10073567459920701,"366":0.11301226425266644,"367":-0.17244390900086243,"368":-0.03256876391956102,"369":0.06060547750967259,"370":0.16417310209645686,"371":0.004110145117565446,"372":0.1375100658059806,"373":0.05498001721761432,"374":0.09797067144603076,"375":-0.11379132193109366,"376":0.1992021881186614,"377":0.1224937098259021,"378":0.3091079812283197,"379":0.013404346454335681,"380":0.18957876356125528,"381":-0.049365154522555243,"382":-0.010373519535363954,"383":-0.18874387025182363,"384":0.12414464622425973,"385":-0.06834412563108082,"386":-0.03325421977386479,"387":-0.20670252829090469,"388":-0.1324341320176821,"389":0.05125756403789645,"390":0.016053033131363928,"391":0.06944171565051152,"392":0.09065186464496987,"393":-0.1648602252423353,"394":-0.009778432852418901,"395":-0.10598765683956879,"396":-0.022308350900926296,"397":-0.05150367733508167,"398":0.03916152068200659,"399":-0.13393564094682006,"400":-0.1311518675356405,"401":-0.16498203282645407,"402":0.21443435295853458,"403":0.1402733233816775,"404":-0.10933684309321587,"405":-0.026698407342986716,"406":-0.13103663028995127,"407":-0.2053871309806592,"408":0.12576775707348878,"409":0.06387849193016049,"410":-0.11363951788336811,"411":0.0709831456841668,"412":-0.03257865362362774,"413":-0.2777844227312246,"414":-0.032668921764966545,"415":-0.049063671162881746,"416":-0.12326602892725817,"417":-0.20725753692539653,"418":-0.1676859814448758,"419":-0.17327454313168925,"420":-0.08497033627415032,"421":-0.11632669805483063,"422":0.018541596331354913,"423":-0.10859747944557369,"424":-0.16682221891369972,"425":-0.12670039825073612,"426":-0.14407859138226697,"427":0.04924540196781732,"428":0.048657756971223785,"429":0.24973120523594344,"430":0.0651640488763627,"431":-0.14961113418246272,"432":-0.06050793307665302,"433":-0.07357291378243634,"434":0.1088503930824533,"435":0.1315222186077333,"436":-0.21480585578017625,"437":-0.15333757668657508,"438":-0.0857651317632833,"439":-0.026901682760799975,"440":-0.273882692996755,"441":-0.18465981775697388,"442":-0.2015268339001207,"443":-0.17005991023205835,"444":-0.08972814534063225,"445":-0.27757214986174467,"446":-0.10317557490991458,"447":0.10227510616751995,"448":-0.09844939811895645,"449":0.0428457719662033,"450":0.07227006066352619,"451":0.09500524288809734,"452":0.05636937197221887,"453":0.12001169566231706,"454":-0.07136416586216632,"455":0.15866766409425967,"456":-0.14574454445038165,"457":0.030724573931602366,"458":0.10734863857330296,"459":-0.15778117906342864,"460":-0.06954510313827611,"461":0.06927545482619013,"462":0.0054737895979226426,"463":0.11882618280368304,"464":-0.03277759888955401,"465":0.05395853013874766,"466":-0.12890797445356497,"467":0.1424030686284575,"468":-0.0828627384920139,"469":0.11598345642199323,"470":-0.06320159950294743,"471":-0.0037303552336594276,"472":0.1366480949927651,"473":0.13043235271001652,"474":-0.23357914553576753,"475":-0.09568023642712685,"476":0.056871634211804106,"477":0.21604954648948937,"478":-0.05046340822235927,"479":0.09890179159943466,"480":-0.15739858270142162,"481":0.1113783622516097,"482":-0.16250799364885302,"483":0.17324846525752818,"484":-0.15264130272784926,"485":-0.1191743055132784,"486":0.06173238288112373,"487":-0.18930716685847973,"488":-0.10469224241552481,"489":0.10383825115626452,"490":-0.12404246188018125,"491":-0.0719739089075028,"492":0.020573912963806014,"493":-0.03900663029011315,"494":-0.007197104272741933,"495":0.1791387185117845,"496":0.11011659323024031,"497":0.03566617293116626,"498":-0.01237953311937206,"499":-0.19970486687441402,"500":-0.00389330976172593,"501":0.14849420383977566,"502":0.085708060495073,"503":-0.20649124152711487,"504":-0.062406190847106115,"505":0.1453394345088686,"506":0.1147351333576619,"507":-0.10014884339940963,"508":0.09576439012449686,"509":-0.024182355119779057,"510":0.22689339776787867,"511":-0.08727254798152935,"512":-0.0845252859013532,"513":0.05224700374930557,"514":-0.12222194202227196,"515":0.0466355076116328,"516":-0.15395085409665923,"517":-0.12551602439046958,"518":0.07893361309631597,"519":0.03600192064849151,"520":-0.07717453579535591,"521":0.16290558159074794,"522":-0.0019034919801841396,"523":-0.09885355224998324,"524":0.18583925639169474,"525":0.15864270828320462,"526":-0.004663113773021135,"527":-0.07586850006151899,"528":-0.18175743033278935,"529":-0.06633539060616245,"530":-0.30638702281114943,"531":-0.08408356122543247,"532":-0.014548282782618039,"533":-0.05789191452225339,"534":0.09690801813488602,"535":-0.06356002187559028,"536":-0.20639120212660544,"537":-0.06998950201115897,"538":-0.07304673291865448,"539":0.025438188811957932,"540":-0.19259952594571855,"541":0.010064241378011174,"542":-0.013987468387874416,"543":0.10743295655664242,"544":0.018966664497316037,"545":-0.005443360611043805,"546":-0.18632813682321536,"547":0.11146138175616527,"548":-0.1828617430098548,"549":0.046715953005426115,"550":-0.0697694091451152,"551":0.0008735815462939043,"552":0.14616785288125386,"553":0.11212851536683024,"554":-0.0764736534114008,"555":-0.02155207286798634,"556":-0.1525695169742688,"557":-0.24332003391955023,"558":0.011212337807343412,"559":0.05431938473362595,"560":0.03290526858023785,"561":-0.17718219216672743,"562":-0.005738989257427959,"563":0.1346264763906838,"564":0.12933526071126736,"565":0.1018154801783194,"566":-0.04378473787763626,"567":-0.12093047309576242,"568":-0.13931031510828432,"569":-0.19999792939592687,"570":-0.2007516780174263,"571":0.12598594632342125,"572":0.146298318438377,"573":0.00523924998584781,"574":-0.09860628104475036,"575":0.013643222052152904}},"5":{"bias":0.06638269918381595,"weights":{"0":0.17445673125674088,"1":0.1941349545834505,"2":0.024943783270931514,"3":-0.07462720663961123,"4":0.2140253812584512,"5":-0.15217119963688916,"6":-0.0629361029985376,"7":-0.22615412014469807,"8":-0.1327703346370897,"9":-0.2514927435051737,"10":-0.19829669627049964,"11":-0.07463910526792279,"12":-0.08289225446847967,"13":-0.08584039483298854,"14":-0.059434739790151986,"15":0.002702945839343081,"16":-0.24391127828293271,"17":0.07602020934211613,"18":-0.009310421412984502,"19":-0.0971891759307672,"20":0.031577171426260195,"21":-0.06863147613756472,"22":0.22705984640828794,"23":-0.10220874337175738,"24":0.2755941764315112,"25":0.027464084006132743,"26":0.10311052132860142,"27":-0.042850236505327,"28":-0.017115631630100162,"29":-0.1671438924508473,"30":-0.13762291158770615,"31":0.11989196944956633,"32":-0.3149192012864585,"33":-0.20304130275669782,"34":-0.007051415359344737,"35":-0.019786863112406843,"36":-0.13436635062357263,"37":-0.2062385014944591,"38":-0.269496328395711,"39":-0.1101448687639106,"40":-0.005643063421800724,"41":-0.23001108285222666,"42":-0.09516218841874899,"43":-0.18130356778318374,"44":-0.0686011480708318,"45":0.13430201637480527,"46":0.10340709526798623,"47":0.08085128587462077,"48":-0.1038976764933138,"49":0.1512700718839398,"50":0.08463304091906523,"51":0.1562872139268586,"52":0.12234993542460033,"53":-0.12117647647284237,"54":-0.1942711946024016,"55":-0.2376560857905582,"56":-0.2825476551293449,"57":0.053275137677708126,"58":-0.28722126435392675,"59":-0.17212456011987193,"60":-0.2792865118092645,"61":-0.047201388834355935,"62":-0.2676820500670156,"63":0.0912069130952092,"64":-0.05822540419159334,"65":0.105897198446824,"66":-0.004395473787600256,"67":-0.23323638253611964,"68":0.23939798272616938,"69":0.18300276193174403,"70":0.22944809953113554,"71":0.22486091859451637,"72":-0.037381500535078376,"73":0.10454151191437323,"74":-0.04824858422518734,"75":-0.035610611713701355,"76":-0.04166272655282993,"77":0.06709178770266562,"78":-0.22777546323537154,"79":0.05306230946632306,"80":-0.05918632291294099,"81":0.0021117978534125796,"82":-0.051562687655153254,"83":-0.12711790157796302,"84":0.11574120805628323,"85":-0.06191091703137727,"86":-0.12768880878065908,"87":-0.22930095903129336,"88":-0.0020433048967289174,"89":-0.07367237083374445,"90":0.21759700593541673,"91":0.18223827327820694,"92":-0.062118793025999625,"93":-0.1450888695467951,"94":-0.032204172064748404,"95":-0.06475085280670424,"96":-0.03651218445218288,"97":0.19988034762311319,"98":0.04604735685220066,"99":0.11704852865297954,"100":0.05404254582958872,"101":0.023141196992964897,"102":0.034224147734035766,"103":0.16758911146381292,"104":-0.12777020517414514,"105":-0.08137783667334471,"106":0.10417448103527124,"107":-0.273858866114194,"108":-0.13223399717830464,"109":0.14755831681266218,"110":-0.11331527440252645,"111":0.20098870998618584,"112":0.12978053840810105,"113":0.1188931368422911,"114":0.1320711410859255,"115":-0.13099826986998148,"116":0.11460871955595353,"117":0.017867376751472624,"118":-0.2052819521183051,"119":0.12631967710610087,"120":-0.029126079763670654,"121":-0.08029290636475023,"122":0.015186794854811232,"123":0.18053374515333862,"124":0.21899990832772775,"125":0.12986210093790784,"126":0.04423913967405726,"127":0.01619015552963425,"128":-0.03566100010197182,"129":0.00998518201563115,"130":0.09091692919956752,"131":-0.19876967037933463,"132":-0.06633209822260847,"133":0.06335069675370322,"134":0.0778304101175941,"135":0.0821660857390161,"136":-0.04651192170076898,"137":-0.0010154904944445866,"138":0.07457840397507932,"139":0.1966182244626745,"140":-0.175976870389372,"141":-0.02980551171883905,"142":-0.07003856919583878,"143":-0.05979491506238135,"144":0.19800584979730326,"145":-0.052873695721535385,"146":-0.05699971335906977,"147":0.021230233561276946,"148":0.07069996303480257,"149":0.04837278202149096,"150":-0.08940860833564689,"151":0.04303536508513242,"152":0.10488217339092937,"153":0.07894767251384732,"154":-0.01803647062644414,"155":-0.14701278858150946,"156":-0.053006378181002546,"157":-0.016098736493784568,"158":-0.03583675202195187,"159":-0.16505989349724678,"160":0.1545423542850125,"161":0.24059574405940126,"162":0.006384873839698561,"163":0.17513196661357308,"164":-0.14939818226449367,"165":0.07551951772810676,"166":-0.13916377067702274,"167":-0.13746598832644036,"168":0.14792490241033163,"169":-0.0013049925288571363,"170":-0.005579494537335829,"171":-0.07578698546032327,"172":-0.025158419929175144,"173":0.1522188415635756,"174":0.16617121732333504,"175":-0.15944544204201277,"176":-0.10814156613974714,"177":-0.217586349468657,"178":-0.04748108051476741,"179":0.0124690322135429,"180":0.10520308749722719,"181":-0.19508183464959675,"182":0.07802769508058428,"183":-0.03185048543099223,"184":-0.11645034681591873,"185":0.11004912912057521,"186":0.25156971372337217,"187":0.101127109013301,"188":-0.2525001911575337,"189":-0.1528875905797192,"190":-0.07524799815032146,"191":0.038796101595130104,"192":-0.17785746283165785,"193":-0.0837157865752373,"194":-0.056112940056753394,"195":-0.06894208468238998,"196":-0.23456145164728825,"197":0.17093502037156402,"198":-0.0787555014094538,"199":0.07836637312172903,"200":0.10110808644333574,"201":0.0576323243829262,"202":-0.199813859389532,"203":0.07331990891689197,"204":-0.12328020397711195,"205":-0.06626255046929794,"206":0.06287748069851244,"207":-0.1695851371488058,"208":0.21130944289249767,"209":0.17156333907156185,"210":0.3629717128467002,"211":0.17873180261001906,"212":-0.011639344610713271,"213":0.02981263367674898,"214":-0.038605701881290276,"215":0.09060408858341323,"216":0.10484263249209587,"217":-0.13531076276680756,"218":-0.1992973212357035,"219":-0.03228375408897417,"220":-0.16420617369262416,"221":-0.24502235735836225,"222":0.17019836671964791,"223":0.03347148069416613,"224":-0.06062632305107858,"225":0.03749744077389051,"226":-0.057402233597059954,"227":0.016637245554116917,"228":0.09474375977554626,"229":0.1649058573786196,"230":0.10069254345107094,"231":-0.049025364739029055,"232":0.10742962529695795,"233":-0.11450456177770323,"234":0.2314524878425155,"235":-0.042842275889563644,"236":0.003213161772419968,"237":-0.06193448326889405,"238":0.04138181427751386,"239":-0.07143505470824142,"240":-0.10865813041144386,"241":-0.06177902930721505,"242":-0.11658920442549453,"243":0.10538526193892718,"244":0.0028402983601392797,"245":-0.08159558398912255,"246":0.07133920164647498,"247":-0.05873282322759884,"248":0.24368703527058197,"249":0.19272679510487434,"250":0.009288945388102878,"251":-0.014684206406768274,"252":-0.1446064254995588,"253":0.2032088950396758,"254":0.04243135124966096,"255":0.0066432689905908835,"256":-0.039260820688350476,"257":0.05728674048528078,"258":0.0419645741028929,"259":0.12493091306469495,"260":-0.08025457126259243,"261":-0.11815280416443541,"262":-0.14664677041798865,"263":0.08801771346290078,"264":0.007556819294851254,"265":0.06597269231237816,"266":-0.13913522253817767,"267":-0.0938523760385447,"268":0.1116787189791893,"269":0.008418873188771396,"270":0.19777170910908065,"271":0.1356397358599623,"272":0.2650789962060201,"273":0.28477131388957555,"274":0.007531986549960959,"275":0.03962236518052256,"276":0.18463950516450545,"277":0.16718066774326745,"278":0.21442815110735045,"279":0.21065306608187898,"280":-0.06304234396316104,"281":-0.10544235487304368,"282":-0.1113098874022098,"283":0.13204476137022486,"284":0.12931195138151333,"285":0.19192067222582984,"286":-0.06301708079631119,"287":0.076865326382932,"288":-0.09946284432882782,"289":0.0051643953112638875,"290":0.07313330497709934,"291":-0.03289818817865734,"292":-0.16013479457500335,"293":0.1368072318943589,"294":-0.13310431286857233,"295":0.08224121843429932,"296":0.19043021048756045,"297":0.20804606304090587,"298":0.11557030930737006,"299":-0.11697349216459754,"300":0.2574708747356904,"301":0.06771044135219219,"302":0.1931766654526315,"303":0.2305481326021563,"304":0.05713237532304015,"305":-0.10215261876274344,"306":0.11949296460524478,"307":0.11493916133448212,"308":0.16207118129414935,"309":0.007223603520514675,"310":-0.05606467399063465,"311":0.2101029868589424,"312":0.1417382462164583,"313":0.13241750621800286,"314":-0.17136704911850567,"315":-0.17283593907175598,"316":0.026014139490325206,"317":0.01856588635167292,"318":0.09396145178668147,"319":-0.03217091437684602,"320":-0.04530322958158286,"321":0.030263980402700816,"322":-0.04380207296998229,"323":-0.01117897135525793,"324":-0.024710020552141367,"325":-0.27918156326333105,"326":0.04219995863046571,"327":-0.085561643661477,"328":-0.205027900810563,"329":0.08068792748742568,"330":-0.1201990129911853,"331":0.1765867034674613,"332":0.14480536606876687,"333":-0.09410199031245942,"334":0.1032678595171231,"335":-0.04933570588369784,"336":0.025802079256373633,"337":0.09547995952064812,"338":-0.00508364083581075,"339":-0.07644498557715161,"340":-0.19228462083535988,"341":0.0014817259374552694,"342":-0.01487008587404834,"343":-0.20273754095951296,"344":-0.057268164706600136,"345":-0.01758575564817062,"346":0.06419945195893069,"347":-0.004385435216807233,"348":-0.21114232635915767,"349":-0.03886654647218557,"350":-0.018128181929839126,"351":-0.21123365764649882,"352":0.03716071737810811,"353":-0.06726912536081411,"354":0.030812630436624463,"355":-0.24494996427454577,"356":-0.045505586441073366,"357":0.023679549203088297,"358":-0.0376338200150914,"359":-0.13958211891833996,"360":0.13719803495785513,"361":0.19559165111332605,"362":0.009169584024447322,"363":0.2446383241967483,"364":0.10586581280005822,"365":0.05128508816777779,"366":0.08616288082585406,"367":-0.18805007844345178,"368":0.17955563450142456,"369":0.20372696460010728,"370":0.27101808914964554,"371":0.2834360363626531,"372":-0.14600298390919647,"373":0.04559836779197812,"374":-0.12426767146041545,"375":-0.16125989945754857,"376":-0.07978940879335925,"377":-0.16251948211215528,"378":-0.15824398422603025,"379":0.012982329908994596,"380":0.05128411068399392,"381":0.009925078729462335,"382":-0.17467365999020731,"383":-0.19161416733211883,"384":-0.0066605519198739875,"385":-0.0865955895969579,"386":0.05076605582546422,"387":0.0312821960962994,"388":-0.22271864583200565,"389":-0.062121674186301115,"390":-0.07901049296443967,"391":-0.09268380365989477,"392":-0.03635787325585423,"393":0.07700352345165504,"394":0.049368356568966154,"395":0.06719060416437202,"396":0.364099022131258,"397":-0.06673246710064576,"398":0.25500724616585824,"399":-0.03299480718036583,"400":0.16200087784111183,"401":-0.2604615111529142,"402":0.0006977930741043518,"403":-0.107753665129864,"404":0.0728306452842323,"405":-0.26598847003293213,"406":-0.2586743627095599,"407":0.03632166717116075,"408":-0.16315594282749582,"409":0.12060169225592227,"410":-0.08484711648206414,"411":-0.08609954222705053,"412":0.04013353413173774,"413":-0.039072465236777966,"414":0.08593950316483219,"415":-0.09655246364565337,"416":0.04090452625758656,"417":0.1291043020254379,"418":0.1671456662157967,"419":0.15274067298131558,"420":0.20618581667632327,"421":0.24637800517496442,"422":0.010168367349892179,"423":0.039077848613650844,"424":-0.1884382283869457,"425":-0.22116951153267606,"426":0.14894529689178665,"427":0.004797522860854444,"428":-0.17293298223303175,"429":-0.22728519697565513,"430":-0.14381620922588162,"431":-0.2462031536984872,"432":-0.10764595046746743,"433":-0.10971559539388319,"434":-0.13222486414353965,"435":0.01051533619134544,"436":-0.04208576593865052,"437":0.06232861262918507,"438":0.19290036563755836,"439":0.007459921190399535,"440":-0.08861672649501431,"441":0.004882894280451814,"442":0.299255580629456,"443":-0.05837349811654751,"444":-0.07161807029726967,"445":0.009036329337525385,"446":0.10918660366192419,"447":0.0034631515739641625,"448":0.06373183407225357,"449":0.08874870240722275,"450":-0.05485096465856046,"451":0.11784388818235221,"452":0.12700675625217325,"453":0.061182017582122925,"454":-0.12249818820711339,"455":-0.06987835035042685,"456":-0.1106993627896369,"457":0.1562260642471599,"458":-0.1384510201814883,"459":0.1528231298316046,"460":0.24634279353302083,"461":0.06719051241451991,"462":0.10228558502075193,"463":-0.09972742082111004,"464":-0.06888513817859762,"465":-0.21939976384702176,"466":0.00441905465977511,"467":0.05965081072485886,"468":-0.045553272779751776,"469":0.15590733248123256,"470":-0.014799928214392449,"471":-0.15612624773005127,"472":0.0606125853402275,"473":0.03861127785201538,"474":0.06414709976108232,"475":-0.025674120064644385,"476":-0.2098206843645763,"477":0.0023722488355743094,"478":0.08971470168165968,"479":-0.09282818716959065,"480":-0.07787385391470736,"481":-0.019165871500146724,"482":-0.12897588773766422,"483":0.15012709967984136,"484":-0.055029326871877254,"485":0.055613710115710265,"486":-0.17732301946433213,"487":-0.08169250450711468,"488":-0.032336629608398726,"489":-0.18991336669183576,"490":-0.1541639432018702,"491":0.010482137737941202,"492":-0.2391179749134868,"493":-0.11161874382358984,"494":0.07661121406564521,"495":-0.2354386708854869,"496":-0.07514485083863146,"497":-0.08748913960016057,"498":-0.06315845229477839,"499":-0.05330227924017493,"500":-0.083531215591003,"501":0.05940156203363965,"502":-0.16908428393188907,"503":-0.16502986017964316,"504":0.12061723978841096,"505":-0.041439880383944645,"506":0.036272710365621456,"507":0.24975077218266986,"508":0.09286913486952907,"509":-0.015053900785662587,"510":0.160970107608305,"511":-0.21035544533624445,"512":-0.12490887775366276,"513":-0.10097051495571566,"514":-0.03832351550905503,"515":-0.2743126986006017,"516":-0.04933966517090355,"517":-0.14031981984118486,"518":0.0951962451712785,"519":-0.10584770151985853,"520":-0.08872694625012632,"521":-0.15187839081881335,"522":0.02418511835232646,"523":-0.04287205711746229,"524":-0.035381716292346495,"525":-0.0019663848624758996,"526":-0.1321416583418702,"527":-0.12546290289946513,"528":0.18940574092234885,"529":0.21645469057821787,"530":-0.06311095081085843,"531":0.23507821857146716,"532":-0.1030636195563337,"533":-0.08347582993808349,"534":0.03351598693829849,"535":-0.03310504223173556,"536":-0.09550331761410252,"537":-0.18540366533277228,"538":-0.09035853578148063,"539":-0.1346436438403909,"540":-0.18282701375083918,"541":0.02576095830218629,"542":-0.01945376135239129,"543":-0.22650774940391244,"544":-0.09050632828114319,"545":0.07548082312376056,"546":-0.05974348764031658,"547":-0.23264058826336909,"548":0.03282714936116927,"549":0.26876557877086354,"550":0.06666973148509624,"551":-0.012183121484341924,"552":0.17676107340169042,"553":-0.03032543443204606,"554":-0.042717872688791354,"555":0.10997417829438191,"556":0.09683330527639346,"557":0.022860903283086764,"558":-0.1822587058319132,"559":-0.17399985762061446,"560":-0.14492600653910084,"561":-0.08931641532383182,"562":0.06295308343210998,"563":-0.21241959413093492,"564":-0.22870690661429732,"565":-0.2921813970540928,"566":-0.035282412250488886,"567":-0.24022396449286995,"568":0.09380101110337612,"569":-0.04164144374107946,"570":0.0709970005247026,"571":0.12039298788154118,"572":0.021333765969397366,"573":0.025221554550466527,"574":0.34387751278897416,"575":0.007547610117165578}},"6":{"bias":-0.03884962321169197,"weights":{"0":0.23017100725982095,"1":-0.006800368578209857,"2":0.13131528169980816,"3":-0.037146179707745655,"4":-0.059960640936044425,"5":0.06410651095094762,"6":-0.006998428206564799,"7":-0.21472775447118406,"8":0.0631903066825852,"9":-0.23475147635118976,"10":-0.0211408204373081,"11":0.12653523414448753,"12":0.043811088138556234,"13":-0.024142272342116015,"14":0.07890574792406643,"15":-0.09926645226522098,"16":0.10210595581236562,"17":0.0750688317178162,"18":-0.1372333085298785,"19":-0.3261075088401817,"20":-0.12953996984475571,"21":-0.0195744588443552,"22":-0.20463057171669374,"23":-0.18371061504354444,"24":0.06992072614569857,"25":0.15332271770102773,"26":0.01833453993219862,"27":0.0797790544253127,"28":-0.16986196439222684,"29":-0.014324896202151036,"30":-0.049367055219979306,"31":0.08983967452216077,"32":0.09093472203396563,"33":-0.09805490690847272,"34":-0.08829939306797771,"35":-0.015298935703679187,"36":-0.24471029583305634,"37":-0.17713157614393724,"38":-0.25347456321753337,"39":0.0703839046139366,"40":0.07207150188662284,"41":-0.22978622549933006,"42":-0.01217964213546864,"43":0.05011095740172501,"44":-0.16881395497020196,"45":-0.16605058112740834,"46":-0.027487059231082907,"47":-0.0058139810275436386,"48":-0.17439146183232745,"49":-0.05403017649649181,"50":0.15646516926874798,"51":0.16051243344466426,"52":-0.1427797626080679,"53":-0.01022977879878148,"54":-0.13004689187261811,"55":0.1083075194078366,"56":-0.3097218626306227,"57":-0.09294433845153123,"58":-0.08239121670292103,"59":0.029493124564836392,"60":-0.15123557733336332,"61":-0.2746067665614843,"62":-0.251997682749679,"63":0.04944004506303191,"64":-0.08539942668799781,"65":0.18257636822517956,"66":-0.2741961104049186,"67":0.13635282616062916,"68":-0.20349952608347247,"69":-0.3032167433616865,"70":-0.21563360748778293,"71":-0.16740671875575858,"72":-0.0994491974111929,"73":0.16707333863676205,"74":0.21373374025913017,"75":-0.17621652840681226,"76":0.08128525660851477,"77":-0.1611924549868314,"78":0.012847629718892861,"79":0.13561821500925494,"80":-0.19640415609197223,"81":0.09752907299024459,"82":-0.13125029309477074,"83":0.09172551731279402,"84":-0.03407345954481758,"85":-0.08735956675983221,"86":-0.13681900584226925,"87":0.17738116939213905,"88":-0.15280302442620633,"89":-0.18312900219715048,"90":-0.07897746698154878,"91":0.09889129342052612,"92":0.1427849931883699,"93":-0.09037203697304007,"94":0.10712253496291758,"95":0.14407246797850368,"96":0.22472154237733977,"97":0.09810861488751216,"98":-0.09553110627865774,"99":-0.018090913156041003,"100":-0.17737005155821037,"101":-0.12524025936910768,"102":0.25711870709951856,"103":0.08590429736159351,"104":0.16109065090038407,"105":0.12457697907674442,"106":0.1949855623935311,"107":-0.11270231515066566,"108":0.15824484819750048,"109":-0.04408059931483101,"110":0.13749601125251903,"111":0.2676214675650726,"112":0.27317720303516335,"113":0.17567221412782688,"114":0.17292791594312729,"115":0.18551082429910104,"116":-0.11918928398021285,"117":0.16977429387247966,"118":0.054169236776631484,"119":0.1952042381224288,"120":-0.11642715196776968,"121":-0.1663635771656207,"122":0.07331628361908736,"123":-0.061647369241059145,"124":0.10035914906332846,"125":0.05059846832425377,"126":0.029204573858607526,"127":0.2134859884632827,"128":0.04852860946967658,"129":0.1044002163882947,"130":-0.041127257167732245,"131":-0.14624582641751557,"132":0.11453447416589488,"133":-0.0689345703539976,"134":-0.10374140761457212,"135":-0.0754974929101291,"136":0.07471913943370337,"137":-0.05792669008779712,"138":0.060023013237813366,"139":-0.09829711043596766,"140":0.14366185081684246,