function anonymous(input
/**/) {
  var net = {"layers":[{"0":{},"1":{},"2":{},"3":{},"4":{},"5":{},"6":{},"7":{},"8":{},"9":{},"10":{},"11":{},"12":{},"13":{},"14":{},"15":{},"16":{},"17":{},"18":{},"19":{},"20":{},"21":{},"22":{},"23":{},"24":{},"25":{},"26":{},"27":{},"28":{},"29":{},"30":{},"31":{},"32":{},"33":{},"34":{},"35":{},"36":{},"37":{},"38":{},"39":{},"40":{},"41":{},"42":{},"43":{},"44":{},"45":{},"46":{},"47":{},"48":{},"49":{},"50":{},"51":{},"52":{},"53":{},"54":{},"55":{},"56":{},"57":{},"58":{},"59":{},"60":{},"61":{},"62":{},"63":{},"64":{},"65":{},"66":{},"67":{},"68":{},"69":{},"70":{},"71":{},"72":{},"73":{},"74":{},"75":{},"76":{},"77":{},"78":{},"79":{},"80":{},"81":{},"82":{},"83":{},"84":{},"85":{},"86":{},"87":{},"88":{},"89":{},"90":{},"91":{},"92":{},"93":{},"94":{},"95":{},"96":{},"97":{},"98":{},"99":{},"100":{},"101":{},"102":{},"103":{},"104":{},"105":{},"106":{},"107":{},"108":{},"109":{},"110":{},"111":{},"112":{},"113":{},"114":{},"115":{},"116":{},"117":{},"118":{},"119":{},"120":{},"121":{},"122":{},"123":{},"124":{},"125":{},"126":{},"127":{},"128":{},"129":{},"130":{},"131":{},"132":{},"133":{},"134":{},"135":{},"136":{},"137":{},"138":{},"139":{},"140":{},"141":{},"142":{},"143":{},"144":{},"145":{},"146":{},"147":{},"148":{},"149":{},"150":{},"151":{},"152":{},"153":{},"154":{},"155":{},"156":{},"157":{},"158":{},"159":{},"160":{},"161":{},"162":{},"163":{},"164":{},"165":{},"166":{},"167":{},"168":{},"169":{},"170":{},"171":{},"172":{},"173":{},"174":{},"175":{},"176":{},"177":{},"178":{},"179":{},"180":{},"181":{},"182":{},"183":{},"184":{},"185":{},"186":{},"187":{},"188":{},"189":{},"190":{},"191":{},"192":{},"193":{},"194":{},"195":{},"196":{},"197":{},"198":{},"199":{},"200":{},"201":{},"202":{},"203":{},"204":{},"205":{},"206":{},"207":{},"208":{},"209":{},"210":{},"211":{},"212":{},"213":{},"214":{},"215":{},"216":{},"217":{},"218":{},"219":{},"220":{},"221":{},"222":{},"223":{},"224":{},"225":{},"226":{},"227":{},"228":{},"229":{},"230":{},"231":{},"232":{},"233":{},"234":{},"235":{},"236":{},"237":{},"238":{},"239":{},"240":{},"241":{},"242":{},"243":{},"244":{},"245":{},"246":{},"247":{},"248":{},"249":{},"250":{},"251":{},"252":{},"253":{},"254":{},"255":{},"256":{},"257":{},"258":{},"259":{},"260":{},"261":{},"262":{},"263":{},"264":{},"265":{},"266":{},"267":{},"268":{},"269":{},"270":{},"271":{},"272":{},"273":{},"274":{},"275":{},"276":{},"277":{},"278":{},"279":{},"280":{},"281":{},"282":{},"283":{},"284":{},"285":{},"286":{},"287":{},"288":{},"289":{},"290":{},"291":{},"292":{},"293":{},"294":{},"295":{},"296":{},"297":{},"298":{},"299":{},"300":{},"301":{},"302":{},"303":{},"304":{},"305":{},"306":{},"307":{},"308":{},"309":{},"310":{},"311":{},"312":{},"313":{},"314":{},"315":{},"316":{},"317":{},"318":{},"319":{},"320":{},"321":{},"322":{},"323":{},"324":{},"325":{},"326":{},"327":{},"328":{},"329":{},"330":{},"331":{},"332":{},"333":{},"334":{},"335":{},"336":{},"337":{},"338":{},"339":{},"340":{},"341":{},"342":{},"343":{},"344":{},"345":{},"346":{},"347":{},"348":{},"349":{},"350":{},"351":{},"352":{},"353":{},"354":{},"355":{},"356":{},"357":{},"358":{},"359":{},"360":{},"361":{},"362":{},"363":{},"364":{},"365":{},"366":{},"367":{},"368":{},"369":{},"370":{},"371":{},"372":{},"373":{},"374":{},"375":{},"376":{},"377":{},"378":{},"379":{},"380":{},"381":{},"382":{},"383":{},"384":{},"385":{},"386":{},"387":{},"388":{},"389":{},"390":{},"391":{},"392":{},"393":{},"394":{},"395":{},"396":{},"397":{},"398":{},"399":{},"400":{},"401":{},"402":{},"403":{},"404":{},"405":{},"406":{},"407":{},"408":{},"409":{},"410":{},"411":{},"412":{},"413":{},"414":{},"415":{},"416":{},"417":{},"418":{},"419":{},"420":{},"421":{},"422":{},"423":{},"424":{},"425":{},"426":{},"427":{},"428":{},"429":{},"430":{},"431":{},"432":{},"433":{},"434":{},"435":{},"436":{},"437":{},"438":{},"439":{},"440":{},"441":{},"442":{},"443":{},"444":{},"445":{},"446":{},"447":{},"448":{},"449":{},"450":{},"451":{},"452":{},"453":{},"454":{},"455":{},"456":{},"457":{},"458":{},"459":{},"460":{},"461":{},"462":{},"463":{},"464":{},"465":{},"466":{},"467":{},"468":{},"469":{},"470":{},"471":{},"472":{},"473":{},"474":{},"475":{},"476":{},"477":{},"478":{},"479":{},"480":{},"481":{},"482":{},"483":{},"484":{},"485":{},"486":{},"487":{},"488":{},"489":{},"490":{},"491":{},"492":{},"493":{},"494":{},"495":{},"496":{},"497":{},"498":{},"499":{},"500":{},"501":{},"502":{},"503":{},"504":{},"505":{},"506":{},"507":{},"508":{},"509":{},"510":{},"511":{},"512":{},"513":{},"514":{},"515":{},"516":{},"517":{},"518":{},"519":{},"520":{},"521":{},"522":{},"523":{},"524":{},"525":{},"526":{},"527":{},"528":{},"529":{},"530":{},"531":{},"532":{},"533":{},"534":{},"535":{},"536":{},"537":{},"538":{},"539":{},"540":{},"541":{},"542":{},"543":{},"544":{},"545":{},"546":{},"547":{},"548":{},"549":{},"550":{},"551":{},"552":{},"553":{},"554":{},"555":{},"556":{},"557":{},"558":{},"559":{},"560":{},"561":{},"562":{},"563":{},"564":{},"565":{},"566":{},"567":{},"568":{},"569":{},"570":{},"571":{},"572":{},"573":{},"574":{},"575":{}},{"0":{"bias":-0.17590111246035264,"weights":{"0":-0.050064853770790216,"1":-0.004164684936219033,"2":-0.004876314273526143,"3":-0.09800281370444806,"4":0.048284317705245494,"5":-0.009170937081144198,"6":0.059952571987927236,"7":0.14854597300522482,"8":-0.15761797114825155,"9":-0.14850622076574635,"10":0.0748350052823328,"11":-0.0915304586561326,"12":-0.04043721729575269,"13":0.15230106460321913,"14":-0.11793836379236165,"15":-0.19804261877825496,"16":0.09807159628877046,"17":-0.10159010349225124,"18":0.08438045472381453,"19":-0.2510485911380262,"20":-0.2138022564142316,"21":-0.16941147437389942,"22":0.07532411954679448,"23":-0.0699700494893362,"24":0.005009322743222813,"25":0.023593397264094186,"26":-0.164575834144459,"27":-0.24372012720405592,"28":-0.10851709969458971,"29":-0.004958037582648009,"30":0.3008909314761464,"31":0.1148493676038812,"32":0.08106647761243437,"33":-0.05853701618757669,"34":0.22767956432333997,"35":0.08972050912028606,"36":0.0994015296029404,"37":-0.26078919046762444,"38":-0.27275949000936534,"39":-0.09542080139445554,"40":-0.16060146618399349,"41":0.17190541167941528,"42":-0.1505306410073166,"43":0.16141373094888004,"44":0.1989429152088713,"45":0.1191298334215843,"46":0.2420793701394885,"47":-0.07548893488676293,"48":0.04162091818959449,"49":0.056527484819128414,"50":-0.2200597208768372,"51":-0.13504113878342838,"52":-0.23495691233615365,"53":-0.21430393516037533,"54":0.0718839907152199,"55":0.021904190962711814,"56":0.1838615697265069,"57":0.21200176196488116,"58":0.04185047267006993,"59":0.14528701576119785,"60":0.06630932276863863,"61":-0.04438397418359837,"62":-0.0375666464109881,"63":0.14856097682145256,"64":0.0766875510863678,"65":0.04126779794176185,"66":0.21056550524002407,"67":-0.017955024532676025,"68":0.13226934180164565,"69":0.050195816349843575,"70":-0.0740086821075914,"71":-0.02693681212015599,"72":0.14323806303934042,"73":0.07217925524029084,"74":-0.138772970506289,"75":-0.11530310069727792,"76":0.10880711877973868,"77":-0.12368300298915343,"78":0.14734988119458337,"79":-0.05418613023854676,"80":-0.06228394067958986,"81":0.06482762679624499,"82":-0.0398075474112016,"83":0.03469228421304902,"84":-0.02967851710737445,"85":-0.10181939888703628,"86":-0.12562430677445363,"87":-0.03387477639667698,"88":-0.17095815570288161,"89":0.09563190030047057,"90":-0.13209314169039232,"91":-0.19545120777435016,"92":-0.11638264450444903,"93":0.0510365294851371,"94":0.03980962886861428,"95":-0.01938391869403445,"96":0.15110784972109537,"97":0.04846441218371292,"98":-0.0950304096464649,"99":0.018986871778908683,"100":0.16260547753059704,"101":-0.11508214530744833,"102":-0.2225538960954974,"103":0.07399633053742946,"104":0.1624316125565131,"105":0.11345829549145281,"106":-0.08712800970491118,"107":-0.12672892054043483,"108":0.022618120566974396,"109":0.11142663702849573,"110":-0.09456189130529212,"111":0.25338627921171636,"112":0.14564105004218444,"113":-0.03926597354067889,"114":-0.023029899031800524,"115":-0.12592826429213153,"116":0.10207587447940052,"117":-0.015844914089632484,"118":-0.18646733826007875,"119":0.0549434523354066,"120":-0.12908471619165324,"121":0.040088681844399426,"122":-0.23522443929770953,"123":-0.09912911500326203,"124":-0.02402829558298456,"125":-0.04104029727983169,"126":0.18437801145190832,"127":0.1459932655512785,"128":0.1041010195942188,"129":0.3218552569200357,"130":0.23405094541778715,"131":0.15095173464151432,"132":-0.05942906736868486,"133":0.1640045150338702,"134":-0.09898323663365836,"135":0.19110131861034854,"136":0.10676385933835461,"137":0.1412514936030421,"138":0.044839408167679236,"139":0.026305656138619384,"140":0.10885755894408629,"141":-0.19389783553935167,"142":-0.2831524901396192,"143":0.024241565723459483,"144":0.11793094879320508,"145":-0.009850715316927312,"146":0.22324589030485284,"147":0.09659988772032305,"148":0.03673419092323371,"149":-0.22457408186367336,"150":0.068853146471729,"151":0.19181228154942395,"152":-0.06857128899105719,"153":-0.014101503418158166,"154":-0.13039197636554953,"155":-0.03455071985712939,"156":-0.1274201026316956,"157":-0.2603207011647117,"158":-0.11279668552943632,"159":0.12965279698936727,"160":0.08191858089972079,"161":-0.10528237114909375,"162":0.06900475945695093,"163":-0.10663307742519211,"164":-0.08523790185709257,"165":-0.19720617407024704,"166":-0.036690679255828154,"167":-0.10367999680319792,"168":-0.021247020395467525,"169":0.039945253064002165,"170":0.1055093547203873,"171":0.07026770761985236,"172":0.031909484928954034,"173":-0.13965371867180515,"174":-0.12385281615267679,"175":0.10727499731850679,"176":0.07821323105794899,"177":0.06406270382618862,"178":0.09631212205464604,"179":0.06956523483914243,"180":-0.2254339124050253,"181":-0.1831578339604933,"182":0.12897612290029112,"183":0.02196447512088229,"184":-0.02539576977317921,"185":-0.0028580672349497916,"186":0.010473593263960548,"187":-0.014333936150765662,"188":-0.25447007896889196,"189":0.1533006278213905,"190":-0.04588792099600169,"191":-0.1571167307893694,"192":-0.11283582327640904,"193":-0.14261671897976083,"194":0.09973736375121305,"195":-0.2180348910345088,"196":-0.2147559256450202,"197":0.05107754815514913,"198":0.01599974901951021,"199":-0.2342778732095128,"200":-0.2687582192328919,"201":-0.14097568837168584,"202":-0.016535536013041273,"203":0.09146657577515897,"204":-0.0921434172554132,"205":-0.12105173334170156,"206":-0.08597295543101015,"207":-0.03906958607050613,"208":-0.010235829116124013,"209":-0.17287218697582699,"210":-0.011758219275823545,"211":-0.121147566385317,"212":-0.3161504481732563,"213":-0.1712318200330849,"214":0.014002347105037385,"215":-0.016468226870884953,"216":-0.02073622434621509,"217":-0.10513707838171149,"218":-0.05255439638458318,"219":-0.10051973367887936,"220":0.09913458580501595,"221":-0.11896327126367326,"222":-0.042444202347812966,"223":-0.22287456311632536,"224":-0.1229122534488699,"225":0.05650417055253198,"226":-0.07354706895101595,"227":0.17093136888762445,"228":-0.05065636857801318,"229":0.17446104934548332,"230":0.010187085158728008,"231":0.12243759145724892,"232":0.21636040444233767,"233":-0.0340244333430807,"234":0.007385316345274492,"235":0.02943620631454127,"236":-0.12569285899054633,"237":-0.05535746005726781,"238":0.1372202963845286,"239":0.1177440751721186,"240":-0.16925220293299909,"241":-0.09529825475779405,"242":0.035597712144554816,"243":-0.19220028580696327,"244":-0.054251796969594826,"245":-0.20420665673272106,"246":0.06112822149268477,"247":0.042655245984761364,"248":-0.04773923140514178,"249":-0.049628670102895164,"250":-0.10027070911374104,"251":-0.018110564589205385,"252":0.12593281010698534,"253":0.017969991829684905,"254":0.002377316344564045,"255":0.08464565694343837,"256":-0.12099529744085101,"257":-0.1346379227964573,"258":-0.07197018742501234,"259":0.11715365288317575,"260":0.030167821434018468,"261":-0.11280212327006349,"262":0.019535137991862947,"263":0.1527996394864973,"264":-0.14680576649654334,"265":0.11270657770483127,"266":-0.16645208725290572,"267":-0.05964564224734864,"268":0.04265430867956213,"269":-0.036859678006015494,"270":-0.2944012335095758,"271":-0.07425182202552258,"272":-0.17345271988529545,"273":-0.17075358573751936,"274":-0.11104051789474174,"275":-0.2280797473772833,"276":0.0008929204051973096,"277":-0.1375736862898965,"278":0.010739297460730454,"279":-0.15791512851718387,"280":-0.01270002969650182,"281":-0.01914723440351209,"282":-0.11909411464789121,"283":0.16949835485214215,"284":0.2217991179486913,"285":-0.13908613736715342,"286":-0.1269484668133331,"287":0.07675003895192181,"288":0.0625423095125571,"289":0.0896258209831917,"290":-0.08348693590389246,"291":-0.005671780439110308,"292":-0.08838616750668163,"293":-0.0806404620290144,"294":-0.298657516863849,"295":-0.18131699529974993,"296":-0.5157234455843891,"297":-0.08833697414856154,"298":-0.21660954163660304,"299":-0.3630533321130128,"300":-0.15154769496733586,"301":-0.10816326020525607,"302":-0.36822158908534725,"303":0.11401010600566427,"304":0.0257717768526069,"305":-0.1165361835007372,"306":-0.13747631148320286,"307":0.1753620356842241,"308":0.03413794205591813,"309":-0.021225681192603,"310":0.04461859499459057,"311":-0.02640359817327696,"312":0.024287575269880346,"313":-0.008585231579958053,"314":-0.20935315424396328,"315":-0.35985534771050154,"316":0.06894515183482117,"317":-0.35987709319815125,"318":-0.16254354584278508,"319":-0.10754108273487799,"320":-0.34202016851131006,"321":-0.14662761068638358,"322":-0.22326349114805275,"323":-0.21759291916776907,"324":-0.2233631908462441,"325":-0.07341158419150033,"326":-0.15844658219650193,"327":0.27317940420523895,"328":-0.12183407600170121,"329":-0.19084402936550782,"330":0.19273385677632615,"331":0.14978429796852488,"332":0.13797823049792945,"333":0.201677757075904,"334":0.13877527242353596,"335":0.16224216192260654,"336":0.06457339724841989,"337":-0.06050104408025288,"338":-0.06857805685169756,"339":-0.21276314314141062,"340":-0.24991276335060433,"341":-0.015306619196082888,"342":0.018530075812635605,"343":0.05318344095538025,"344":-0.1415860049133459,"345":-0.2605606722806488,"346":0.12222804974605145,"347":0.16995949418098863,"348":-0.09822771431022823,"349":0.08866056046323666,"350":0.038670134971473834,"351":0.3448747968802234,"352":0.2123109492520744,"353":0.12991861966048435,"354":-0.07758594893508458,"355":0.1882472413829928,"356":0.20195326636009078,"357":0.1280023226554142,"358":-0.022802172301787053,"359":0.2607730713713627,"360":-0.08039801413657159,"361":-0.31170677752109094,"362":-0.2636914546360703,"363":-0.07531102781628417,"364":-0.04897323177072197,"365":-0.24070350555680825,"366":-0.19920320328299873,"367":-0.08948405154005211,"368":0.03090641322492318,"369":-0.17868202788474943,"370":-0.1521300178817443,"371":0.10900863355175554,"372":0.021308028053389005,"373":0.2422561099706341,"374":-0.04768724390947824,"375":0.19143540652432467,"376":-0.04200062074136908,"377":0.14816306947614039,"378":-0.15231121208795126,"379":-0.1839743814919746,"380":-0.10785457944108762,"381":-0.17308299355073445,"382":0.16289837828987688,"383":-0.009080996516383898,"384":-0.14009029698591602,"385":-0.0785876838796901,"386":-0.18829615032015637,"387":-0.12250319252413523,"388":0.013309168615954235,"389":-0.145886049494178,"390":0.038831177179848866,"391":-0.09929313573189945,"392":0.09146931120203963,"393":-0.06172483494289228,"394":0.30055490103333427,"395":0.18420104887817973,"396":0.33718476624348553,"397":0.07111477351188727,"398":0.13423282747126722,"399":0.04821422826649352,"400":0.06558244135441145,"401":0.0690671970108257,"402":0.191271882542377,"403":0.05882355701259334,"404":0.07341247571522916,"405":0.05792335006731022,"406":0.04221068856460954,"407":0.09303915790893906,"408":-0.03669075085951033,"409":-0.037958664257035216,"410":-0.0746630681090729,"411":-0.0021258941649452004,"412":-0.19498095875771493,"413":-0.1453163661335758,"414":0.014113712722259293,"415":-0.03212088926341644,"416":-0.009976622642705076,"417":0.20027816486296407,"418":0.12664572383404082,"419":0.030589584205092567,"420":0.11678749459767564,"421":0.09913109719669606,"422":0.055086002858187745,"423":0.03651586978083697,"424":-0.015376098721577235,"425":0.09867192668605293,"426":0.04725639248480864,"427":0.1903670734605516,"428":-0.2628452829165352,"429":-0.07278374845175455,"430":0.03690870504407452,"431":-0.16435050803799042,"432":0.2803997885506572,"433":-0.02285708623731615,"434":-0.14220668915615442,"435":-0.07729672943071589,"436":0.226571222435837,"437":-0.0429366427160501,"438":0.14744356257444816,"439":-0.09869896680334055,"440":0.03422728225442144,"441":-0.09659480260761075,"442":-0.058099118640187665,"443":-0.11010828735266255,"444":-0.13717676001641382,"445":-0.1856669021439536,"446":0.12241325870968098,"447":-0.12813746802754614,"448":-0.12536452419826433,"449":0.08291961155747592,"450":-0.04369849811784334,"451":-0.016181121037374215,"452":0.10033420965340328,"453":0.019819603744798953,"454":-0.17412017503539762,"455":0.07567266824366348,"456":0.14510842094919116,"457":0.19292959896036638,"458":0.06008962734950248,"459":0.07572422492027525,"460":0.20824925426042742,"461":-0.03695103399046412,"462":0.2358749880705249,"463":-0.08820860987603635,"464":0.016621013203268958,"465":-0.054077059555225855,"466":-0.11051355424163364,"467":0.11594262759117495,"468":-0.16608733090059857,"469":0.1602563424351967,"470":-0.06322725786164174,"471":0.24925998081774228,"472":0.20452826078851014,"473":-0.009058048883420352,"474":-0.05913384332418758,"475":-0.015049548582178322,"476":0.048399274640402556,"477":0.08779350081714371,"478":0.057817052963795836,"479":-0.09998335426141035,"480":0.0898430845708931,"481":0.0022559528317861086,"482":-0.06416933302857464,"483":0.1260182261082426,"484":-0.06499815266151415,"485":-0.013387590256625441,"486":0.11170075471448904,"487":0.08220279706595124,"488":-0.16797658279852054,"489":0.12858352287226674,"490":-0.013101340793987674,"491":-0.012357638553015814,"492":-0.19768768676542894,"493":0.07762475153357058,"494":0.20692787591342887,"495":-0.07191986096915885,"496":-0.2709719145810914,"497":-0.15427769321278165,"498":0.0006660072063507918,"499":0.019866602971118596,"500":-0.18962389958938347,"501":0.19831724191542047,"502":0.2516206996993978,"503":0.29369738793409855,"504":0.04094350203368028,"505":0.1204966171248671,"506":0.13293731073066734,"507":0.033690740304439346,"508":0.01226294673587846,"509":-0.008658549421127973,"510":0.2779437588377287,"511":-0.07227734507961764,"512":-0.03497493523541897,"513":0.19024558303826586,"514":0.07390933294353023,"515":-0.016331804985321968,"516":0.029336509692595342,"517":-0.03416298031055318,"518":0.19937853478693884,"519":0.07210849915637098,"520":-0.26031423108330454,"521":-0.06512600831064931,"522":-0.19363892965268586,"523":-0.19147527733607272,"524":0.1688259216369944,"525":0.07833527295548513,"526":0.06399887995368683,"527":0.0448330431779874,"528":0.2161538683022729,"529":0.02553231322305121,"530":0.07763188251234929,"531":0.18793600893129686,"532":0.24162164424984223,"533":0.09945802153777138,"534":0.20193774461713443,"535":0.22569337962702518,"536":0.18175737282519935,"537":0.20321786371981704,"538":0.05717623012350779,"539":0.21972052557765911,"540":-0.1146047333457505,"541":0.018746384938549028,"542":0.18515445568314284,"543":0.10693135891675558,"544":0.13971809599934462,"545":0.05098320711615481,"546":0.07514014199390025,"547":-0.017598238229945787,"548":0.27123235544724084,"549":0.18525244242567648,"550":0.1062603979442545,"551":0.2967021016528493,"552":0.3154773392183684,"553":0.15837526815021422,"554":-0.12150822218471952,"555":-0.03101047996169183,"556":-0.16675788175036374,"557":0.25592481202307465,"558":0.045116154867745596,"559":-0.0233244839197113,"560":-0.037249164658762275,"561":0.17512851660568465,"562":-0.22928492767558414,"563":-0.17492459167948463,"564":-0.12667847134339255,"565":-0.22231422544903973,"566":0.04898900702933989,"567":0.19477804084242847,"568":-0.27561796112907544,"569":-0.05367660808981421,"570":0.14128471245965976,"571":0.13343920974781265,"572":0.06336745963964056,"573":0.09657193018439014,"574":0.209793598156093,"575":0.22309987579291388}},"1":{"bias":-0.12582083965981306,"weights":{"0":0.11271368338477389,"1":-0.09450660013640244,"2":0.0016790616126507467,"3":-0.16109592344233623,"4":-0.09992340106535051,"5":-0.004064476119505534,"6":0.03586137827710752,"7":0.1626081715567079,"8":-0.205308390310113,"9":0.06145893467407503,"10":0.10924306722527753,"11":-0.03888853001230988,"12":0.1592574461457755,"13":0.09392196117765067,"14":0.05865334239127309,"15":-0.08165657177053037,"16":0.19167428479210327,"17":0.10752481601306589,"18":0.025332843431364896,"19":0.07307263967366387,"20":0.00121645498709496,"21":0.12539161820484926,"22":-0.04109703937420025,"23":-0.17175612581973393,"24":-0.0752921346064057,"25":0.2972895281573357,"26":0.20460340422878473,"27":0.2392360276310208,"28":-0.05644194774063897,"29":-0.035702408233838606,"30":-0.11611302766247852,"31":-0.10652958784577853,"32":0.22015506545562252,"33":-0.04226281326537782,"34":-0.1846213132697068,"35":-0.27999942092769436,"36":-0.08107600063838682,"37":-0.19507359558263712,"38":-0.03676558911435737,"39":-0.15426516951997649,"40":-0.17908228468915352,"41":0.029561805895849374,"42":0.022542143485406965,"43":-0.15233046332373024,"44":-0.1464101082666047,"45":-0.11957563639949025,"46":0.16631528915822782,"47":0.02205785257932506,"48":0.2931676470426788,"49":-0.11586004250191545,"50":-0.11934375023177092,"51":-0.07260607941640096,"52":0.1348758808454864,"53":0.02686175508383258,"54":-0.061931818603807844,"55":0.03650782944688085,"56":-0.0021639032788593306,"57":-0.1815907898482399,"58":-0.17472111361867634,"59":-0.22676096788569866,"60":0.04394344295236656,"61":-0.08576002643757921,"62":0.06121109170906452,"63":0.1111028095321497,"64":-0.10863924304219201,"65":-0.16184688227081742,"66":-0.19990941056499753,"67":-0.002326064856857962,"68":0.23464707135740218,"69":-0.022221705856565882,"70":0.11514807917073784,"71":-0.05786345228220165,"72":-0.1758589746883874,"73":0.06566440895781463,"74":-0.06791816892264466,"75":0.02205548463362316,"76":0.14379637964471334,"77":0.04670745494842818,"78":-0.09848961936757922,"79":-0.04094881415301994,"80":-0.03474221690681664,"81":0.20389436346626771,"82":-0.23492644825573086,"83":-0.28690729023262135,"84":-0.2761599582591571,"85":-0.13011440597732835,"86":0.011977157422656858,"87":0.14154934184936088,"88":-0.09708306477226329,"89":-0.09148276132277426,"90":0.06768957657833839,"91":-0.2066491888292283,"92":0.16822824476019954,"93":0.02361272077141219,"94":0.015917368768220128,"95":-0.07526050076636985,"96":0.18292912732449823,"97":-0.05939691365537283,"98":0.16399139858380152,"99":-0.040028005513019,"100":-0.053270658666585216,"101":-0.13704909415516797,"102":-0.060367445749013385,"103":-0.21682462850034423,"104":-0.09652494426018596,"105":0.025762455823469838,"106":0.005136861255167956,"107":-0.08073115146172556,"108":0.10029694290050507,"109":0.015175159647933627,"110":0.052463974152244616,"111":-0.06973861894526708,"112":-0.2731246046350562,"113":-0.08761576673939542,"114":-0.15234613199920294,"115":-0.2589298450216762,"116":-0.07631124707143055,"117":0.06477573018455024,"118":-0.13796728042637713,"119":0.07891566274795511,"120":-0.022079209560340166,"121":0.06819933698386675,"122":0.11763742872985751,"123":0.10191320558703057,"124":-0.08628581368346958,"125":-0.000679088612827448,"126":-0.1294770386449948,"127":0.13936052020630435,"128":-0.00044681344813820667,"129":0.2142477689614973,"130":0.2516413580315157,"131":0.17555999312487966,"132":0.0019796229307106786,"133":0.05588315967053407,"134":0.20766963794265955,"135":0.05753343940221439,"136":-0.0785306256434456,"137":-0.07648187428169027,"138":0.06171474534531858,"139":-0.03537087862364876,"140":0.3029775586750573,"141":0.10138936644337897,"142":-0.16905022129915387,"143":-0.1730547122989306,"144":0.05362159878036669,"145":0.09275229303182303,"146":0.03730421845361114,"147":0.23701320240054843,"148":0.1304003204461837,"149":0.14259647591714616,"150":0.13149435615671456,"151":0.016633861725115395,"152":0.052345656080136256,"153":-0.00880277283038729,"154":-0.10165783506270322,"155":0.08137321598775146,"156":-0.04651845924527096,"157":-0.06502598801091958,"158":-0.10809083073730184,"159":-0.03033333909036187,"160":0.08737063266992778,"161":0.1398866906042785,"162":-0.07110028109876404,"163":-0.2029242053503824,"164":0.02329528216750253,"165":0.33984723294286384,"166":0.20074461291604614,"167":0.2692288904746646,"168":-0.18422420927097713,"169":-0.07251972068336347,"170":0.23905044946386203,"171":-0.08992772870608318,"172":0.20501162592342168,"173":0.1329365959628821,"174":0.1816541919795393,"175":0.05118035139305053,"176":0.009949414199087445,"177":-0.08173919701765948,"178":-0.08246059774960374,"179":0.1079433177535032,"180":-0.029806577225774955,"181":0.06253217540609324,"182":-0.08967256737248887,"183":0.16611611419381186,"184":0.26851665470693564,"185":0.1500862303431991,"186":-0.040631338742011296,"187":-0.035732467803268705,"188":0.04541966469801666,"189":0.09816714464351471,"190":0.1645449058101063,"191":-0.08616384359278113,"192":0.10591383687030176,"193":-0.17434579555089688,"194":-0.03056117940484762,"195":-0.15719826619581395,"196":-0.02629279807672003,"197":-0.21109703436346924,"198":0.06376837478036036,"199":0.0017536202800334624,"200":-0.23526595185866456,"201":0.008241776684840503,"202":-0.28393314269367176,"203":-0.12167775880078634,"204":-0.2526907440747566,"205":-0.27214638120229995,"206":-0.009609483223019674,"207":0.01772265953232855,"208":-0.10855469126676127,"209":-0.04344407172090414,"210":0.11581300389737177,"211":0.13076187051735047,"212":-0.10645443075363832,"213":-0.08375989733975592,"214":-0.011416553879720374,"215":-0.11341444615669842,"216":0.05074848313326267,"217":0.12970033914165524,"218":-0.14158723209263893,"219":-0.2800559872796064,"220":0.050169540010956575,"221":0.09478666284550577,"222":-0.11020472707322902,"223":-0.11978579512217304,"224":0.01861799779477814,"225":0.0036792043672934554,"226":-0.18187946703242833,"227":-0.08124231184753646,"228":-0.20800058224318027,"229":-0.1959657361862452,"230":-0.025076270402639267,"231":-0.1638853254261608,"232":-0.06932002345987315,"233":0.0059881165486267976,"234":-0.004883891999939964,"235":-0.21536176787607708,"236":-0.004562681165792017,"237":0.08058393233060807,"238":-0.15480586786747336,"239":0.016210671367966913,"240":-0.07891801109098771,"241":0.11813216853836066,"242":-0.05431826728783395,"243":0.035901997648728395,"244":-0.2121603959773615,"245":0.020033932784287823,"246":-0.17696386794130672,"247":-0.16898882660997042,"248":-0.0771750783713535,"249":-0.12564844433110778,"250":-0.07648688268260646,"251":-0.07773041112734323,"252":0.055161258361452976,"253":-0.03267907368200458,"254":-0.07510777381947352,"255":0.2192364007200026,"256":0.25661126951319835,"257":-0.06460831240798669,"258":0.20794842727842683,"259":-0.17097823543889415,"260":0.0026033566061813267,"261":0.05210283282686378,"262":-0.08491509889377216,"263":-0.062202624825146005,"264":-0.12260120495551184,"265":-0.259368715656061,"266":-0.26235420009604565,"267":-0.204538725151647,"268":0.07586532893091605,"269":-0.09174883629931622,"270":-0.08931779872132331,"271":-0.15792759410720117,"272":-0.12915897014287575,"273":0.019930651232715983,"274":0.17845103532216353,"275":-0.09271122862698962,"276":-0.0456980389039781,"277":-0.04570396556342741,"278":0.056764788186710505,"279":-0.05266919043774854,"280":0.29237691550474226,"281":0.09739911169519944,"282":-0.019011242330171287,"283":0.1414722748081598,"284":-0.10495686677366302,"285":0.06548890009543398,"286":0.18541367177108203,"287":0.08376487834793658,"288":0.1704411480105285,"289":-0.18289920924873398,"290":-0.18308961341851107,"291":0.08293966528696205,"292":0.16573276729152014,"293":-0.11586174025285471,"294":-0.005753826660299175,"295":0.15668448142364458,"296":-0.01584693203154176,"297":-0.0644920843212,"298":0.013228255242872636,"299":0.12555619000663074,"300":-0.11167720151022022,"301":0.014170186884716924,"302":-0.19061466357683934,"303":0.008951975769457514,"304":0.12413423995076805,"305":0.24564438066358607,"306":0.09742915310590336,"307":0.10348168182175657,"308":-0.03464476241429943,"309":0.17122697509018484,"310":0.02843220494215122,"311":0.033924205562432266,"312":-0.03971558866767903,"313":0.028168461476673186,"314":-0.08400891004356228,"315":-0.14948833310676368,"316":0.005228944599626351,"317":0.02251899471313529,"318":0.15051083226212855,"319":-0.06146833544322638,"320":-0.06790564679393613,"321":0.17716506282387104,"322":-0.03116260465934662,"323":0.18187942328999535,"324":0.08768640763690415,"325":-0.03480936506945966,"326":0.08717826744805482,"327":0.13536777580916928,"328":0.09271049344999963,"329":-0.052301874050155565,"330":0.19388334886040628,"331":0.08995487345573776,"332":-0.021187200932536863,"333":0.1618559821785092,"334":-0.09179913337524909,"335":-0.15436665008863276,"336":-0.16891261613859174,"337":0.027096115356315974,"338":0.046004707626614384,"339":-0.09537933859985304,"340":-0.16951029882814142,"341":-0.049690648167297506,"342":0.15807069790350511,"343":0.017245376037295007,"344":0.0008461298132566272,"345":0.085511731269058,"346":-0.22045316030027337,"347":-0.014092052009538164,"348":0.23798845026997012,"349":0.20827457927890736,"350":-0.04007365637098093,"351":0.3328133566464587,"352":0.11144786012360755,"353":0.06185747956675776,"354":-0.12769097271001256,"355":-0.04005367463708211,"356":-0.21132899083727477,"357":0.02618916942023815,"358":0.021458192260666996,"359":0.05158756511771769,"360":-0.2149502482404605,"361":-0.0928020443742011,"362":-0.09843362548039761,"363":0.14556494511964818,"364":0.19580735911033323,"365":0.08828081243696795,"366":0.06386134558752227,"367":-0.05247431291143384,"368":0.017282871109379257,"369":0.002427229940641586,"370":-0.11454577127003612,"371":0.1305256460876412,"372":0.3060590275665775,"373":0.20089178330965443,"374":0.17670165309589125,"375":0.11663387697681259,"376":0.2632391507148476,"377":0.13674651658502107,"378":0.14955956492583083,"379":-0.34725956416416026,"380":-0.009011103113034423,"381":0.019759495535727457,"382":-0.2614756069526165,"383":-0.251108477537754,"384":-0.15607882941723691,"385":0.0029594233631802603,"386":-0.025544463231207282,"387":-0.015079811575448712,"388":0.20596748066927612,"389":0.0896859761090138,"390":-0.06461437548073207,"391":-0.0931286378152848,"392":-0.10716667572395568,"393":0.12554931877875966,"394":0.24856196263779007,"395":0.319424932939527,"396":0.3246777685279337,"397":0.30148219156158584,"398":0.04194540976512153,"399":0.31187372152418447,"400":0.38770892004246976,"401":-0.12005014472611263,"402":0.2466539982915213,"403":-0.0956333198979424,"404":-0.0453739320693281,"405":-0.03944473960990564,"406":0.05761462087688758,"407":0.04200251369868636,"408":-0.09024208415751957,"409":-0.22308592225089327,"410":-0.08308401217941147,"411":-0.012200491763831407,"412":0.031207788688945557,"413":-0.024535727610818847,"414":-0.039833590443774464,"415":0.030157665133309895,"416":0.024778763915613983,"417":-0.19923015499528643,"418":0.053206041291129866,"419":0.03609924428590051,"420":0.20789077804573036,"421":0.20632783266210733,"422":0.14604555693733362,"423":0.16755469103674153,"424":0.06773290636837154,"425":-0.03364793508897331,"426":0.1420002711367409,"427":-0.18741283889783497,"428":0.09274967125087141,"429":-0.15271181149471585,"430":0.06884817542671558,"431":-0.29515140367768145,"432":-0.10694212611155611,"433":0.012316546417187466,"434":0.09833210127335303,"435":0.15459871700105443,"436":0.2854997261859279,"437":0.038892326687120934,"438":0.02359508014355811,"439":-0.15556097933315635,"440":-0.10928573777828324,"441":-0.25778359726775646,"442":-0.21722848059294012,"443":0.12171600839577854,"444":-0.036702437578448446,"445":0.01217928580815624,"446":-0.016601578174262305,"447":-0.11082141978793374,"448":-0.10277956094969411,"449":-0.2604516453351221,"450":-0.04364250184769769,"451":-0.10006494157160599,"452":-0.24462233509677617,"453":0.01488961091451521,"454":0.0148414587032375,"455":-0.18814262573311075,"456":0.07037622742480838,"457":-0.004089498823505213,"458":-0.1156928465872869,"459":-0.021130937298012974,"460":-0.0611720366492507,"461":0.03597008285098482,"462":-0.1697402104365976,"463":0.0767817899486178,"464":0.10679793922255638,"465":0.05711685593276559,"466":-0.07763748771528547,"467":0.2162054733904544,"468":-0.07619383460959818,"469":0.2998037538626737,"470":0.21935280833699214,"471":0.09466262252178931,"472":-0.08232045986077706,"473":-0.21381227250239435,"474":0.03521455702108295,"475":0.05246396711535705,"476":-0.12309537855720304,"477":0.08214949135926411,"478":-0.07950601668526092,"479":-0.1370558223114146,"480":0.02526547195814955,"481":-0.09053873092770504,"482":-0.041491090003862544,"483":0.02281299823739383,"484":-0.11467572934236656,"485":-0.2480113544197586,"486":0.10895960961264203,"487":-0.06983024504233025,"488":-0.10136472583971418,"489":-0.05355858737687616,"490":-0.12423228072045893,"491":-0.06589043403710554,"492":0.10495690058166043,"493":0.08696621296271208,"494":-0.14257334378164566,"495":0.03602176158124393,"496":-0.16112103516158663,"497":-0.21225314551989802,"498":-0.19252488528043527,"499":-0.08513491953589229,"500":-0.11988856046887929,"501":0.078731824300014,"502":-0.24142563142270604,"503":0.06173208438060502,"504":-0.03249519366779389,"505":0.09261649638832918,"506":0.2247182261406737,"507":0.0423478740704774,"508":-0.19098582219895383,"509":0.02173172182653187,"510":0.1416834488832802,"511":-0.018231330301295992,"512":-0.3052163742051941,"513":0.05452407910292529,"514":-0.19238153775618255,"515":-0.2019082145474025,"516":-0.058987683522740995,"517":-0.16841778527868206,"518":0.07868126507994816,"519":0.00745938755676436,"520":0.027255719316949506,"521":0.16670514570958841,"522":0.17324776431132635,"523":-0.18847245715116434,"524":0.013622972239451869,"525":0.11387990012274993,"526":0.10343883641403648,"527":-0.016039227314318522,"528":0.09911049407224286,"529":0.025553194343265122,"530":0.1300239120335394,"531":0.04628024392532261,"532":0.11604733765791111,"533":-0.21828210287634495,"534":-0.07772237894683727,"535":0.06475784638051506,"536":-0.09034501230035147,"537":-0.11289601540610977,"538":-0.13065172762552252,"539":-0.11648293749665145,"540":-0.10205931790905953,"541":0.029476282646948446,"542":-0.06188885991410198,"543":0.025826469131325396,"544":-0.19787006552437877,"545":0.07019703857007831,"546":0.05825692150622329,"547":0.11777223941878157,"548":0.08696164023655605,"549":0.03664396877180437,"550":-0.08847138711814606,"551":0.2649149666662496,"552":0.1751031025263203,"553":0.11781904988658386,"554":-0.12364235820483445,"555":-0.13001400788561035,"556":-0.27298798819410147,"557":0.1011024394840256,"558":-0.13408101796420735,"559":-0.028896392415132727,"560":0.14031883125559091,"561":0.16294551263081505,"562":-0.14272430086255808,"563":-0.03737856177433192,"564":0.006802592170577058,"565":-0.1419470341447721,"566":0.016745286323306633,"567":-0.019788414485530637,"568":-0.10507174643165586,"569":-0.05236396496858385,"570":0.05048623031300049,"571":-0.0264221971500672,"572":0.10327232793055025,"573":0.31851863096058936,"574":0.19925013613093295,"575":0.24381703255750153}},"2":{"bias":0.09868263610575544,"weights":{"0":-0.18615944383012697,"1":-0.055660070978172355,"2":-0.11105122188048264,"3":-0.2335554772052956,"4":-0.09939619013844782,"5":-0.008709181984515686,"6":0.09037301687036217,"7":0.2564529339295707,"8":0.019397913431179647,"9":0.128359519007728,"10":-0.05674412804849826,"11":0.20991840708037499,"12":-0.10409257431456743,"13":0.11251549838770222,"14":0.16401241013337295,"15":-0.02899645683310672,"16":0.21740683951675024,"17":-0.07161900741345306,"18":0.19587116546846456,"19":0.07183443003581119,"20":-0.10114847092634693,"21":-0.23129112336187266,"22":-0.07979240281447082,"23":0.05646976835893089,"24":0.1129697310851014,"25":0.1703681049658885,"26":0.01388570630817561,"27":0.15118516099239426,"28":0.33242099224269994,"29":0.09662154167619033,"30":0.1103485603782181,"31":0.1361116673850874,"32":0.09948769854341792,"33":0.36607601936483986,"34":0.02257255436563672,"35":0.11893589860583233,"36":0.21617303818013964,"37":0.05248500210250406,"38":-0.05119423360783392,"39":0.05820506789744769,"40":-0.018701881134181256,"41":0.11752600469441363,"42":0.16388509045747862,"43":-0.05880391514035583,"44":-0.06984414320518835,"45":0.2393445616470421,"46":0.08248949613908384,"47":0.06549830501934585,"48":0.049284365646610886,"49":0.09693694204817796,"50":0.017994974343017396,"51":0.3200416853840644,"52":0.09358690513617908,"53":0.013425787063187443,"54":0.1792601888942862,"55":0.01517845475480252,"56":-0.1775181727356901,"57":0.2301826033836268,"58":-0.05757197148230253,"59":0.25103130694179365,"60":-0.1131789925874444,"61":-0.10518977120109589,"62":-0.14086424519053453,"63":-0.06013584668585662,"64":0.0913902226767585,"65":0.02536503619289938,"66":0.1736962649424386,"67":-0.12916837322983066,"68":0.17177751336071662,"69":0.20917310857623983,"70":0.12262630431157918,"71":-0.15569269520166254,"72":-0.09250823861250254,"73":0.2090813167733094,"74":0.3360558449891642,"75":-0.037513177132288585,"76":0.12148307316120924,"77":-0.08939557452289307,"78":0.06628964814087017,"79":0.10634162100223726,"80":0.11900589678438389,"81":-0.18476218072773493,"82":-0.1576550981674625,"83":-0.06673909455806964,"84":0.1460032600397728,"85":0.0315549097263758,"86":0.25022744856282486,"87":-0.15620955001043177,"88":-0.051060947029814834,"89":-0.03102885582770951,"90":-0.023918342081448666,"91":0.056133384788793816,"92":0.23049237880579423,"93":-0.04123697029786979,"94":0.15930345922939995,"95":0.01184842308930537,"96":-0.04282377392458627,"97":-0.03536503880937218,"98":0.061050930363295605,"99":0.1269049756003886,"100":-0.0017551491957871145,"101":0.08973190958899023,"102":0.06885301111489799,"103":-0.13410704116835623,"104":-0.06464977751818742,"105":-0.13209398668539293,"106":-0.22086920918462724,"107":-0.10057881814967881,"108":-0.13950790320353823,"109":0.10199898250731598,"110":0.06864086719468866,"111":-0.15807041660130894,"112":-0.17368498529098728,"113":0.03858473005224423,"114":-0.17496199632198975,"115":0.16824537694816716,"116":-0.04913239518004388,"117":-0.03564831758853811,"118":0.09427898714568878,"119":-0.10149175482636896,"120":0.0654020066442197,"121":0.13279315085703433,"122":-0.026690315149425495,"123":-0.1438852875822193,"124":-0.03050635672597587,"125":0.21431876470650987,"126":0.036467397354930015,"127":0.0030224701381366117,"128":-0.007686093091459769,"129":0.05794954413677297,"130":-0.15979858509614772,"131":-0.25790799332260733,"132":-0.13720336839756164,"133":0.06212409200141496,"134":0.039135728981699175,"135":-0.11309999582607008,"136":-0.1146586083299807,"137":0.26345545860923103,"138":-0.02542489170650193,"139":-0.04756975707950925,"140":0.2805663179731384,"141":0.19399799858232006,"142":0.09244095810945349,"143":0.19690924845078558,"144":-0.2247879399388746,"145":0.031483129261990456,"146":0.0644724721380693,"147":0.06828094064033297,"148":0.12444192575817416,"149":0.05030621813877036,"150":-0.05725083422259273,"151":0.10959805111827839,"152":0.047565462675338434,"153":-0.08301050010683983,"154":-0.09609856371385514,"155":-0.10353772567339467,"156":-0.24239713687294587,"157":-0.2094813274840525,"158":-0.0862041292418323,"159":0.02323323700557193,"160":-0.1878968751683868,"161":0.20668167915050722,"162":-0.07369382830294863,"163":-0.0686834912757368,"164":0.1618420098384871,"165":0.0795144113920435,"166":0.0001950874283835732,"167":-0.04229489427835303,"168":-0.17353367232147393,"169":-0.15772469863403416,"170":-0.07960875286122623,"171":0.045464859019381125,"172":-0.013265211790294128,"173":0.009843483951626276,"174":0.11499726954003747,"175":0.25607742642589243,"176":0.08116470417790587,"177":0.027981324393861733,"178":0.1517561679135352,"179":0.1441227618326163,"180":-0.012755367192284,"181":-0.08092438903011946,"182":-0.07084395575918413,"183":-0.003160599914350356,"184":0.13683222327983274,"185":-0.09910775976257552,"186":-0.02954278668059986,"187":0.05894386224587976,"188":0.006202586505695558,"189":-0.036760814555454574,"190":0.22702926376751825,"191":-0.014231319373364795,"192":0.0042153238201230285,"193":0.08307038883482791,"194":-0.2973783436515303,"195":-0.16439850280785892,"196":-0.18721677537824624,"197":-0.003403703637079173,"198":-0.003002703348599606,"199":0.04096475865338277,"200":-0.08017956144868277,"201":-0.25065494735576593,"202":0.10626186193640666,"203":-0.05971029220263856,"204":0.21336608494956152,"205":0.0994617228644058,"206":-0.09178901629737465,"207":0.16885725261175746,"208":0.07601459095285842,"209":-0.05580588100918497,"210":0.09201341959750592,"211":-0.3495721596507482,"212":0.0951246973498042,"213":0.13583552649318428,"214":0.15267713511164355,"215":0.11753202006848357,"216":0.17450623443735286,"217":-0.015017446571001482,"218":0.030718146823135156,"219":0.006154074439409021,"220":-0.17234790064903413,"221":-0.0870398389808473,"222":0.11393794681304181,"223":-0.13270820905444097,"224":-0.28193872670643894,"225":0.12569776114736528,"226":0.03184651423840024,"227":0.05641619674028087,"228":-0.011815821295475168,"229":-0.08246200306191362,"230":-0.023772191358581163,"231":-0.11603233883270071,"232":0.08136589162656617,"233":0.05500340098956789,"234":-0.08343139985649443,"235":-0.005730220948205525,"236":0.010918134609472727,"237":-0.18774955762505588,"238":-0.22640665889679787,"239":0.024140184260461637,"240":0.05363101362585097,"241":-0.18599062768239075,"242":0.027579614945859417,"243":-0.012846570542355122,"244":-0.18019809149910893,"245":-0.06170188170915122,"246":-0.11423562303960731,"247":-0.015179874974145573,"248":-0.2794441181259175,"249":0.03369988030601546,"250":-0.08909628895407451,"251":0.2390328223520393,"252":0.050084130144766814,"253":-0.10822782293718591,"254":0.20588304360751553,"255":0.15978494438940188,"256":0.13788043823599097,"257":0.18990960401008844,"258":-0.07944620544119879,"259":-0.3545160018921515,"260":-0.08754617558729094,"261":-0.060146560016431296,"262":0.2383308393738943,"263":-0.041361031214578924,"264":-0.2224459789105881,"265":-0.025540940352764354,"266":-0.08783249006908952,"267":-0.14956884338387186,"268":-0.06944422616458558,"269":-0.1278558509779065,"270":-0.3027078833881191,"271":-0.2527897077284293,"272":-0.23077429621173895,"273":-0.04501623481216572,"274":0.13833855974964124,"275":-0.0008687521871801473,"276":0.1468737505309955,"277":-0.10495520233342369,"278":-0.14568407932962038,"279":0.08878248406653808,"280":-0.17847185990443093,"281":0.09944152585419647,"282":0.03649482242052919,"283":-0.2030980986261218,"284":-0.17381705064635147,"285":-0.095708341261044,"286":0.20824249011568424,"287":0.1494917275613263,"288":0.0038627426929642565,"289":-0.11400367742358508,"290":-0.05933310340543867,"291":-0.044745301349659435,"292":-0.11064422640947767,"293":-0.06071715871955946,"294":-0.03591585511133228,"295":-0.295947021250391,"296":-0.19173506359854914,"297":-0.16405847188957526,"298":0.016061119011903484,"299":0.12529843650402814,"300":0.15024758085713621,"301":-0.031043228626850716,"302":0.16432927142945092,"303":0.10289733818803036,"304":-0.12667443062809108,"305":0.02919757024454032,"306":-0.0955657984637251,"307":0.04301884902253574,"308":0.12999648455453322,"309":0.22752905704702486,"310":0.15787396819506952,"311":-0.1363836099085679,"312":0.04823598790643518,"313":0.04024992298667215,"314":0.04432421733530855,"315":-0.20633923322891087,"316":-0.2713403032795297,"317":-0.3515966940809595,"318":-0.004314939174391806,"319":-0.19679083879851836,"320":0.023672807963591485,"321":0.1371047355169544,"322":0.20913777334365174,"323":0.30593553371818044,"324":-0.15897277389301773,"325":-0.09651798751843185,"326":-0.03244123643085428,"327":0.1615464851988734,"328":-0.13363630403322083,"329":-0.026535445841024942,"330":-0.0012509282287071445,"331":-0.1746099591227146,"332":-0.19601138517988997,"333":0.01892205623719054,"334":-0.12362553340358495,"335":-0.0913857354365973,"336":-0.035021715414507035,"337":-0.2528363811368122,"338":-0.025391998563142004,"339":-0.10191814279720537,"340":-0.0663884400430553,"341":-0.2993491493779807,"342":0.04959795632953131,"343":-0.2620801332441128,"344":-0.03454889077347134,"345":0.16311786796297034,"346":0.03896773430037062,"347":0.026444915577055417,"348":-0.12451269241907367,"349":0.09134977300774519,"350":-0.08885530113849131,"351":-0.050153357728728365,"352":-0.05148894641927956,"353":-0.2395473666225869,"354":0.10658922976124516,"355":-0.22174452168395983,"356":0.02677366633277288,"357":-0.3348040634442028,"358":-0.01589033979143097,"359":-0.08174400651635111,"360":0.15816475884221914,"361":0.1304239496862182,"362":0.006727997749575626,"363":0.008040151485171463,"364":-0.2559323045350415,"365":-0.17255535374759096,"366":-0.019754555074926513,"367":0.13135736393948713,"368":-0.15312453154102648,"369":-0.16301361535315242,"370":-0.07561453436443219,"371":-0.021488454277546736,"372":-0.16023822325767947,"373":0.1160207220383041,"374":-0.22594119858472228,"375":-0.1589203014788449,"376":-0.11757551234241263,"377":-0.10595613648715346,"378":0.14956969230362913,"379":-0.302221930497271,"380":-0.018407208740252663,"381":-0.03737894738395502,"382":0.03005605091653916,"383":-0.10793623556188357,"384":0.09176969600484192,"385":-0.1585298494187583,"386":-0.005217399115448494,"387":-0.12588073447704456,"388":-0.05062362983230824,"389":-0.048764438117440724,"390":-0.08511532338582038,"391":0.024683310872248208,"392":-0.2314341028779951,"393":0.05912334854999447,"394":0.1621556902864276,"395":-0.3545131358035288,"396":0.03326445236530435,"397":-0.09851319899266296,"398":-0.11008651407542075,"399":-0.29033835538281394,"400":-0.07930302492890189,"401":-0.17664553497382432,"402":-0.040632318788266786,"403":-0.05018605088543732,"404":-0.027954514750710816,"405":-0.21146861891515642,"406":-0.20488174673920104,"407":0.10713091212632293,"408":0.020992702291361534,"409":-0.13008704753842312,"410":-0.14205803838341932,"411":-0.09632937266482597,"412":-0.02433480932852085,"413":0.014089772472496941,"414":-0.07039195516253227,"415":0.042860763036915016,"416":-0.15959659323384648,"417":0.02800288855648845,"418":-0.20206846879048346,"419":-0.15554763449752645,"420":-0.24323506899346392,"421":-0.08984228909442307,"422":0.05811122251466996,"423":-0.22445239583312956,"424":-0.27421314086135373,"425":-0.14146677884469763,"426":-0.2940302474351044,"427":-0.12937572788768786,"428":-0.25074343554334194,"429":-0.19212891132637652,"430":-0.13982601725722704,"431":-0.1393433938809467,"432":0.14580746539137654,"433":0.024443341918974685,"434":-0.12680882526868123,"435":0.15909731933291596,"436":0.3047876669035305,"437":-0.188906268371856,"438":0.0516776034814801,"439":0.09389781106623914,"440":-0.2083087326186904,"441":-0.12310976180972039,"442":-0.23600739807997562,"443":-0.09842644356590363,"444":0.15379501905006202,"445":0.07559185195552219,"446":-0.22343441564865912,"447":-0.2819832343153154,"448":0.09242695592782414,"449":-0.2326231981760854,"450":-0.09071854760433513,"451":-0.2846016745432299,"452":-0.17061240381063347,"453":-0.25171892321561756,"454":-0.24379831565246707,"455":-0.21080486739938512,"456":-0.04694215176425955,"457":0.02041348577365028,"458":-0.18112118987045453,"459":-0.004789263192351277,"460":0.06524456784383206,"461":-0.025285924946826157,"462":0.006185446430006844,"463":0.0016854608845815477,"464":-0.20671177371411043,"465":-0.23558928838976959,"466":0.10842243755711192,"467":-0.21420021458227925,"468":-0.05881542182258054,"469":0.09926167900333233,"470":0.11455595673759698,"471":-0.020842676663673856,"472":0.012411182244415534,"473":-0.06303669547368185,"474":-0.13799641956047498,"475":-0.1650367204145728,"476":-0.037972903489548494,"477":0.1971859731806127,"478":-0.03918588258852927,"479":-0.17461390803912344,"480":0.0299892323425598,"481":-0.013249088442077785,"482":0.07886139152526332,"483":0.1635934750270495,"484":0.21557444239235957,"485":-0.0528630438071695,"486":0.13047840499778413,"487":0.1898967293293152,"488":-0.3251011823002981,"489":-0.04802460856770889,"490":-0.3303664395095361,"491":0.09032635974334076,"492":-0.24543709882010978,"493":-0.11011065286845655,"494":0.25985196769308033,"495":-0.025079403821239115,"496":0.10647757493966542,"497":0.06917655328619121,"498":-0.16112384058062723,"499":0.10159681969878807,"500":0.10782123851679998,"501":0.05810677555719892,"502":0.16614560466360356,"503":0.29997240136578146,"504":-0.07901748744237172,"505":0.09967349909042714,"506":0.3934149601715695,"507":0.17870608997880197,"508":0.22016575183416778,"509":0.023430255491099478,"510":0.368473677071478,"511":-0.0477052322958447,"512":-0.07296012573028585,"513":0.0874564611275918,"514":0.1430097906172474,"515":-0.14887579017798294,"516":0.1348631848936221,"517":-0.036140203942843833,"518":-0.020586172250037473,"519":0.12638306397992186,"520":-0.12184729810088883,"521":-0.015393404397950184,"522":-0.07911094829610049,"523":-0.11226521895385687,"524":-0.24978915016613162,"525":-0.2061053096077375,"526":-0.04281854024019504,"527":-0.1506058343415325,"528":-0.018088156493939415,"529":-0.00929406448019145,"530":-0.06685860491675687,"531":0.2121462443676688,"532":0.033380001759139556,"533":0.06573168523549534,"534":0.20437641453867575,"535":0.2292115185467006,"536":0.0737567330435086,"537":0.05782139586366552,"538":0.05236151637868136,"539":0.14317543576597758,"540":0.03184622253794241,"541":-0.03549919730328848,"542":0.02122484425619661,"543":0.017431615426848908,"544":0.22590354924868158,"545":-0.16514517628230227,"546":0.03468074066025473,"547":0.03310016372627806,"548":0.01939016575509813,"549":-0.10919652992906764,"550":-0.03304233110232464,"551":0.11458080813456004,"552":0.13025730815526929,"553":0.21259287402054192,"554":-0.1655738684291962,"555":-0.023755326521321236,"556":-0.13876184146492274,"557":-0.16555004458996336,"558":-0.047324313201525046,"559":0.1994331783995223,"560":-0.0945829108199637,"561":0.1846348610327691,"562":0.29541528786493293,"563":0.14666168126140003,"564":0.17374958986494599,"565":0.027680644433881435,"566":-0.006297203095230497,"567":0.25232027888335096,"568":0.23801474457322142,"569":0.10071967987766259,"570":-0.16790958573474793,"571":-0.2950964639996386,"572":-0.22431860449737043,"573":-0.0006380768839319858,"574":-0.08576409942931289,"575":0.17307122731997243}},"3":{"bias":-0.18692564827862265,"weights":{"0":0.3167426592663417,"1":-0.20322312356156016,"2":0.09595536530961513,"3":0.1054228519597584,"4":-0.03444008348237481,"5":-0.1474378163774677,"6":-0.023244107698555706,"7":-0.2338794332528661,"8":0.09288336103040892,"9":0.19045877644175246,"10":-0.08671981301113144,"11":0.13003952842720118,"12":0.07873613859874828,"13":-0.16822349850694784,"14":0.2689276147440354,"15":0.12257969419153711,"16":-0.017585765014075983,"17":0.2258087073176311,"18":-0.059511579808089674,"19":0.07421767365491304,"20":0.09333209117865088,"21":0.14426875447831608,"22":-0.09554896005618177,"23":-0.1629591057639376,"24":0.09334010603037171,"25":0.18340540694264093,"26":0.17123367199604927,"27":-0.2389834031658031,"28":-0.09459000548331624,"29":0.03771629411080119,"30":-0.029528648064151727,"31":-0.11320981314473624,"32":-0.17210774365472611,"33":-0.08104008067234578,"34":0.09308874393949687,"35":-0.16247882026427157,"36":0.006689232470432287,"37":-0.07288648780258372,"38":0.02295320282611243,"39":-0.05542723565221066,"40":0.03701338329336299,"41":0.08582584393430782,"42":0.33630543060326423,"43":0.12225358552913645,"44":-0.07463120638987497,"45":0.03628104881389733,"46":-0.1519350039249677,"47":0.0014190370826016147,"48":0.2509818576937668,"49":0.12117104007209745,"50":-0.17070037298949278,"51":-0.08298537654532083,"52":-0.045116010966815064,"53":0.14099696796987607,"54":0.15696299062712865,"55":0.21126793729151822,"56":0.09488825954023554,"57":-0.18135838917827807,"58":0.06281358156789112,"59":0.14507909555989892,"60":-0.053816518529385966,"61":-0.15895053337012408,"62":0.11866609598842325,"63":0.03375341947950303,"64":0.003011296265571501,"65":0.050732433753434135,"66":-0.17969308895859773,"67":0.07067155662458606,"68":0.12092167914275648,"69":0.22970770668832244,"70":0.10480827022808997,"71":0.10180857247473489,"72":0.26254275305856967,"73":-0.15928500184947433,"74":0.13114623819223595,"75":-0.04034249322627283,"76":-0.10382994377085426,"77":0.24509126879534496,"78":0.04357571216394858,"79":0.025805357776501683,"80":0.025630977051513095,"81":0.03714505728809519,"82":0.21969660915193165,"83":-0.18704233353923094,"84":0.09984441292208772,"85":0.2207636271945328,"86":0.021254215819450636,"87":0.14452663348852396,"88":-0.128802125300719,"89":-0.009595321491890635,"90":0.10281044682521369,"91":0.03994152089999497,"92":0.3316825820316268,"93":0.09109092967837659,"94":-0.06682966626471543,"95":-0.11686392597903107,"96":-0.04883716243433104,"97":-0.0043327547694286045,"98":-0.028186057374748146,"99":0.11140233603057019,"100":-0.04825176899391817,"101":-0.038453513603709064,"102":0.04708884172063521,"103":0.1464773836570972,"104":0.23882316349726454,"105":-0.05200931789065261,"106":0.05008768097237758,"107":0.23933656433113315,"108":-0.04874668837390568,"109":0.12756025204892957,"110":-0.14507000272267978,"111":-0.2049213961742948,"112":-0.09872062533614284,"113":0.12654013911456385,"114":-0.053706208996094684,"115":-0.08876334344357763,"116":-0.11208299674039111,"117":0.005843030812661998,"118":-0.05537167119107349,"119":-0.06463585973106153,"120":0.1867095254433476,"121":0.05820979506291435,"122":0.07312845328514092,"123":-0.09677304499347048,"124":0.22099308591687689,"125":0.17823549445862685,"126":0.1829106172089626,"127":0.1647894961048188,"128":0.16227091929035106,"129":-0.12079230588266726,"130":-0.20580678160334323,"131":0.06938153410196991,"132":-0.22026132017922964,"133":-0.2909127532100406,"134":-0.18817974170149307,"135":-0.31497450183241926,"136":-0.02967483476560578,"137":-0.24607936409916678,"138":0.012354909809723202,"139":0.21695794389557482,"140":-0.12550031364549194,"141":0.051897133713759896,"142":-0.023910264408300994,"143":0.027703261275645884,"144":-0.005613000553277967,"145":-0.11173885524458516,"146":-0.06625602538149813,"147":0.33430649125735823,"148":-0.10146170946149102,"149":0.05080366571229658,"150":0.161606046626514,"151":0.0644037680813814,"152":0.13568415616970528,"153":0.03028670782890934,"154":-0.22056515336158247,"155":-0.0498243576227392,"156":0.1489560559047643,"157":-0.13671267077303112,"158":-0.03896446759317652,"159":-0.027846321780621276,"160":-0.036312179046765654,"161":-0.03554583121579031,"162":-0.03970021952728085,"163":0.04969109596324449,"164":0.19111109075413166,"165":0.03256716793737428,"166":-0.022026389586056544,"167":-0.044566726005074074,"168":0.15038380173346141,"169":0.06148706036126606,"170":-0.18287960060415814,"171":-0.019995251133151568,"172":0.16371001820603096,"173":0.053524726233351944,"174":-0.12854719099752082,"175":-0.08709063127638715,"176":0.06814421383937458,"177":0.061235875713164814,"178":-0.09821789667318996,"179":0.10465170259852191,"180":-0.032307254257397944,"181":-0.09728152480712363,"182":0.1563508491024541,"183":-0.14274399418286246,"184":-0.16471630766109654,"185":-0.27084426554295155,"186":-0.10799882879712551,"187":-0.16514765080581434,"188":-0.011160771967348762,"189":0.004026100590932836,"190":-0.14496454352165883,"191":-0.1146434299129571,"192":0.12582510952294046,"193":0.00523322509380484,"194":-0.03044377166702609,"195":0.003974700494057904,"196":0.03955554339469231,"197":-0.20141325475019028,"198":-0.1705328513760953,"199":-0.12674816429895971,"200":-0.026616554709240358,"201":0.05667660757134918,"202":0.07471718264068344,"203":0.23033992547938356,"204":0.28342855918936055,"205":-0.01329537270702181,"206":-0.1879591445471981,"207":-0.2844718942053172,"208":-0.02175592110579304,"209":0.035421998257026105,"210":-0.041689366757216816,"211":-0.37529880270966204,"212":-0.15482851475925255,"213":-0.010268063384623424,"214":-0.1462311964989323,"215":0.1543450612396386,"216":0.11511066560570403,"217":0.29157800085754604,"218":0.19862724895640727,"219":-0.11987122161209283,"220":-0.14177285337182483,"221":-0.2062137406421955,"222":-0.12897145064040197,"223":0.13128410573116817,"224":-0.0007394987810308832,"225":0.18085065793769514,"226":0.0635592722290212,"227":0.35085586512620714,"228":0.07968963485405878,"229":0.18162841395322396,"230":-0.15882846066231185,"231":-0.12086507094447224,"232":0.018383240037426744,"233":-0.12036487317568205,"234":0.0016851308629169338,"235":-0.18320256078458333,"236":-0.1455844495646355,"237":-0.1572029542089657,"238":0.17737339199201435,"239":-0.004935439696998534,"240":0.1597623912860936,"241":0.32597554115116795,"242":0.12091765677989583,"243":0.0014835199844347748,"244":0.1355621955095268,"245":0.11144673318750249,"246":0.02039794063321473,"247":0.16319250797969503,"248":0.12923638714068933,"249":0.4043022043187866,"250":0.2957362156875462,"251":0.18264788215428213,"252":0.03507135916869944,"253":-0.044392947126477046,"254":-0.07656141259959451,"255":-0.07931499616799541,"256":0.1762492821616743,"257":-0.059469213549557316,"258":0.004682678720969115,"259":0.11685328028743844,"260":0.12018668479675253,"261":0.02843282518528432,"262":0.014450409272975131,"263":0.19865463846383438,"264":0.02938670608185875,"265":0.1340932528032263,"266":-0.11652413286230406,"267":0.09479910154489082,"268":-0.09551351484475909,"269":0.1043761325954956,"270":0.024781509053741813,"271":0.260892809299191,"272":0.19716830682904146,"273":0.025973032417472196,"274":-0.018548880571501475,"275":-0.21570534481352444,"276":-0.012014852924649086,"277":-0.3062077811692302,"278":-0.2325189592857964,"279":0.024758380518936963,"280":0.1858570160686707,"281":-0.14163829610749937,"282":-0.17618958963827472,"283":-0.05211283781360808,"284":-0.1611073693094639,"285":-0.003201387419107599,"286":0.03331856266487542,"287":0.1494152001423626,"288":-0.028379043245088855,"289":0.07413563839182345,"290":0.32092788256444443,"291":-0.021386861577356368,"292":-0.17148626163692265,"293":0.12883903724528786,"294":-0.17654800467023005,"295":-0.003823967090926576,"296":0.2232393089634781,"297":-0.08595410315886881,"298":-0.20953403783629038,"299":-0.010482127592443552,"300":-0.06108240182015556,"301":-0.04920297581327441,"302":-0.08093217032439404,"303":0.052171063370465766,"304":-0.011776842945999462,"305":0.10824825269082725,"306":0.019160583324406767,"307":0.09805837870936805,"308":0.14634832380424717,"309":-0.02306691655365564,"310":0.0018519690643998882,"311":0.07776746990257843,"312":0.07767590644323444,"313":0.16288682107453797,"314":-0.003395262640200761,"315":-0.1180214380678391,"316":-0.06709527660525898,"317":-0.0898418323522697,"318":-0.050067761936380704,"319":-0.10805932896916984,"320":0.04553716755603629,"321":-0.11558470964371012,"322":0.2253967611530795,"323":0.12404355539190545,"324":0.13039779748925034,"325":0.1709503636839761,"326":0.2659288609443041,"327":0.09954758530395146,"328":0.10979649502016482,"329":0.17360614155710494,"330":-0.13074867272841406,"331":0.059080944644265575,"332":0.013629929784052744,"333":0.0014609335855863346,"334":-0.029740128105050875,"335":0.26220581358417233,"336":0.10615695243001787,"337":0.13615618311350142,"338":0.13566784262086481,"339":0.008937597152467813,"340":-0.15055750088668807,"341":-0.04487902904269651,"342":-0.37714497335715313,"343":-0.2783880884164463,"344":0.059858963698783456,"345":0.07798298313993526,"346":0.21140710029315182,"347":0.04697295037389902,"348":0.028239847219025765,"349":0.15409171066883812,"350":0.3018931148679255,"351":0.05441494984387668,"352":0.36864105195343,"353":0.11437930525097528,"354":-0.1351314062854087,"355":0.10356684304143815,"356":0.15821114504080414,"357":-0.05500800263436502,"358":0.10059280790915479,"359":0.11479291157582297,"360":-0.10193204623142002,"361":-0.05402457540314796,"362":-0.08271650825419449,"363":-0.021024359857577505,"364":0.008168750941144633,"365":0.20870965775970382,"366":0.16130360848485506,"367":-0.20787127162067334,"368":0.021934593040421904,"369":-0.11002588862961833,"370":0.2699493340495187,"371":-0.04921809157350155,"372":0.0082004079820439,"373":0.12610449675268146,"374":0.1199794189452427,"375":0.006752725474891401,"376":-0.08638191542565667,"377":-0.07377382418827447,"378":-0.09367717787574122,"379":0.018383988248239762,"380":0.02482166710163973,"381":-0.020402113677527298,"382":-0.09262610805183161,"383":0.15884334822896304,"384":-0.02727099945421143,"385":-0.006727598118914899,"386":-0.16994861926494134,"387":-0.04131241711869253,"388":-0.03638763942890599,"389":-0.016349683388300125,"390":-0.11668454598975343,"391":0.1446333559432352,"392":-0.10792079487362534,"393":-0.11597973904741818,"394":0.08516786591647031,"395":0.03171810150408838,"396":0.06040103180855232,"397":0.29099357372177764,"398":0.22043794084771576,"399":-0.12815396944798887,"400":-0.22552322047667303,"401":0.009040273347710901,"402":-0.21184121353124855,"403":-0.24181174855386306,"404":-0.08066661672630304,"405":-0.17271159683968537,"406":0.006695192391859341,"407":0.0672071260551475,"408":0.024577752542326272,"409":0.04946696031454769,"410":-0.03168871464116582,"411":-0.12737204685676218,"412":0.19025734838588665,"413":-0.2795356087072344,"414":-0.143626673001631,"415":0.11641195313568481,"416":0.04409682975324061,"417":-0.024598930600036966,"418":0.15941734168799598,"419":-0.0637158326121823,"420":0.18462766295776928,"421":0.14220223789087644,"422":-0.06825618321554709,"423":-0.19638309375533974,"424":0.0061930617872394955,"425":-0.2231734462967219,"426":-0.0382398512976163,"427":-0.10746855609395548,"428":-0.06141550658196978,"429":-0.059512707412054715,"430":-0.05695875681720973,"431":-0.07024842879605353,"432":-0.14715514623020076,"433":-0.08707315054751243,"434":0.2110924326588602,"435":0.11487314057449477,"436":0.18620404052182113,"437":-0.12108858178509811,"438":-0.20432185564771424,"439":0.06441764678181573,"440":-0.17617131974357705,"441":-0.12086091679414412,"442":-0.10565886673493842,"443":-0.0769211981629399,"444":-0.1474125141157005,"445":-0.09561504228681823,"446":-0.09497597136980379,"447":-0.18555334700579224,"448":-0.01726182030476581,"449":-0.06288126672021917,"450":0.08776477952312652,"451":0.11217908774419327,"452":-0.07587220376293898,"453":-0.17721590335902604,"454":-0.02962468675347934,"455":-0.21537991323059963,"456":-0.016717331297882665,"457":-0.2966676559048255,"458":0.06930852662000331,"459":0.07168976139834342,"460":-0.22402011313913192,"461":-0.083601218158667,"462":-0.21848274758624633,"463":-0.24171568352887385,"464":-0.1582501360844145,"465":-0.015138343862607177,"466":-0.05734004429184258,"467":-0.2553163074816985,"468":0.03936075379233819,"469":-0.05291515760845426,"470":-0.09992232121930232,"471":-0.012775498526236662,"472":-0.1624830968114906,"473":-0.048100090359080735,"474":-0.2583628976716179,"475":-0.20888416732428722,"476":-0.26614600572022923,"477":-0.23525319438835574,"478":-0.036929275166344304,"479":0.08777136896995369,"480":0.04405466935626304,"481":-0.13407873238025367,"482":0.0005343217140532926,"483":0.13326861256895056,"484":0.22051366392896316,"485":-0.17436331844924785,"486":0.15447530017309163,"487":-0.09323796620684363,"488":0.1407509126196223,"489":-0.15369368380618603,"490":0.06775899276608387,"491":-0.19372651264722762,"492":-0.26353744166663484,"493":-0.12508747664559808,"494":-0.20699068446010155,"495":-0.24957187017944316,"496":-0.15964800424326436,"497":0.07352412291446955,"498":-0.0962596718606987,"499":0.02268727276331669,"500":-0.28093681964318373,"501":-0.09325072822468634,"502":-0.09595305636874212,"503":0.017953883915047847,"504":-0.10000113863332927,"505":0.15929024703288344,"506":-0.1935096121685251,"507":-0.10872528249509505,"508":-0.2148249745805606,"509":0.1855965177382448,"510":0.1533987026288107,"511":0.2102076134289098,"512":-0.006231080907579669,"513":0.20769955278214333,"514":-0.2515251538941891,"515":0.01929782330865499,"516":-0.25973261932941644,"517":-0.07949859343682979,"518":-0.1009809362736406,"519":-0.29222391617834703,"520":-0.06063684694584388,"521":0.047298549152823374,"522":-0.18214019049563554,"523":-0.016412207525228695,"524":-0.10875901079583768,"525":-0.18385789178002737,"526":0.1823262998975063,"527":0.09053663025027281,"528":0.17751548249833676,"529":0.07572245792781951,"530":0.07219819848402724,"531":-0.1243988241786655,"532":-0.24039442882822798,"533":0.1271532308380443,"534":-0.2723432449971579,"535":-0.2788646717767571,"536":0.07319669947259204,"537":-0.19777550717720552,"538":0.14435135827641804,"539":0.04897475425008493,"540":0.02780711831476756,"541":0.11070106758895389,"542":-0.19898049858297895,"543":-0.028351988710737068,"544":0.018883994067462922,"545":-0.18613394528893054,"546":-0.04134055463112671,"547":-0.04992590074159215,"548":0.0966392887126043,"549":-0.1513226831617943,"550":-0.05513777943588972,"551":0.3513695644159706,"552":-0.06337147695662244,"553":0.22233749749197906,"554":-0.020072819055426915,"555":-0.04873004045048154,"556":-0.3096339259906458,"557":-0.1321162189958733,"558":-0.010343912849028962,"559":0.2072659236105182,"560":0.06595952536944578,"561":0.09778282361434877,"562":-0.10697494549733932,"563":0.07777471628836051,"564":-0.09467576664549618,"565":0.18995191632789402,"566":0.17048471264484202,"567":0.07330018469065608,"568":0.02216736179728014,"569":-0.10177649172288164,"570":0.04877093072185382,"571":0.13396483696846576,"572":0.173623267110544,"573":0.08589683261181212,"574":0.1616313815731064,"575":0.46217432215269827}},"4":{"bias":0.2218982792109711,"weights":{"0":-0.41272946736784,"1":-0.18265928718001953,"2":-0.10239856332227663,"3":-0.3030340928461298,"4":-0.40005027112412667,"5":-0.2933906821397297,"6":-0.17416013274620445,"7":-0.14814268646357473,"8":-0.17518789068451096,"9":0.00560678224604011,"10":-0.10051363667521532,"11":0.17823910810734453,"12":-0.13627434379280795,"13":-0.005386784491030914,"14":-0.04213439893661151,"15":-0.1196101172283832,"16":-0.0749933620886142,"17":-0.0059572420123477745,"18":-0.2040615876217881,"19":-0.00847645351233577,"20":-0.10727321355999143,"21":-0.5470948453439641,"22":-0.26749652861682355,"23":-0.0013236280267427886,"24":0.024556617913666756,"25":-0.05796036819903607,"26":0.12511435881899927,"27":-0.154786720357628,"28":-0.15300674735067243,"29":-0.056105610182763374,"30":0.06072180065598651,"31":0.06919538699543262,"32":0.09642076139909234,"33":-0.2267619045607654,"34":-0.0683450811259102,"35":-0.16359654634070817,"36":0.09541192306860503,"37":0.16044401354389795,"38":-0.04201148292034013,"39":0.10259264167261414,"40":-0.15163438241305544,"41":-0.027678964891505505,"42":-0.1181931420675036,"43":-0.01542583079420254,"44":-0.24186914019097114,"45":0.05283412139336685,"46":-0.09889564123422447,"47":0.11438482952375112,"48":0.009412221433020245,"49":-0.019439093309826,"50":-0.04762146665042398,"51":-0.04334650683584772,"52":-0.005807488642912738,"53":-0.07972818910056395,"54":0.11606634866535132,"55":0.033601576744823385,"56":-0.16259624983038518,"57":-0.15052348979023344,"58":-0.0034866524122431435,"59":-0.0960277855286867,"60":-0.05845881631877058,"61":0.06162247791633447,"62":-0.06873220279904659,"63":-0.018486832618691957,"64":-0.2843003828440941,"65":0.005319520278612026,"66":-0.06411804764026637,"67":-0.04216061615411957,"68":-0.13732818502669963,"69":-0.21166786896461678,"70":-0.16844491659560007,"71":0.09311081076454125,"72":-0.15050727666576535,"73":-0.0806412789736225,"74":0.07602086484932001,"75":0.1807303969868403,"76":-0.03006918692641779,"77":0.23001617864048715,"78":0.14574489537009602,"79":-0.08652305339409401,"80":0.2724676198334212,"81":-0.019273629864474038,"82":-0.2652927618463556,"83":0.0430265976867211,"84":-0.09898690951705713,"85":-0.014070728995317654,"86":0.15642847000024984,"87":0.23621154359920116,"88":0.08470847152052886,"89":-0.13691181674470446,"90":0.010807623792123378,"91":-0.025850312135599508,"92":0.012777991708023415,"93":0.02281742365691596,"94":0.15270022629669097,"95":0.04630843240099404,"96":0.04838425255931124,"97":0.12397023463212287,"98":-0.08583354759229565,"99":-0.043267320681176676,"100":0.07100531076963285,"101":0.06092733347027611,"102":-0.12770280467041278,"103":0.08072050667690096,"104":-0.15982450094273595,"105":0.032242349569090493,"106":0.09127921120026093,"107":0.010462982862666979,"108":0.013545291656680168,"109":-0.11316398543575769,"110":-0.19279702778318403,"111":0.09268673420186803,"112":0.1109432087843093,"113":-0.10609071147765943,"114":0.05024036049062472,"115":-0.1897884151344081,"116":0.2871951977157067,"117":0.167012669051065,"118":0.1797464711776666,"119":0.0640676276059414,"120":-0.004798721108220611,"121":0.015118812019411069,"122":0.019482931132134812,"123":-0.05964369123606323,"124":-0.06985726915759193,"125":-0.04967980127215652,"126":0.019202185022558438,"127":0.0992188366229758,"128":0.02682359535619554,"129":0.06326165469742417,"130":0.13219633820797907,"131":0.2587372177093054,"132":-0.09306764953490777,"133":-0.18786675914847603,"134":-0.034634439470648495,"135":-0.1680059636616011,"136":0.09819765327617701,"137":0.0016057470967283036,"138":0.05731817308818076,"139":-0.04194036301436316,"140":0.13372827478248758,"141":0.31481042759133315,"142":0.1642824358627115,"143":0.09530841598678602,"144":-0.06124615534003406,"145":0.09008466634746107,"146":-0.07984920608931044,"147":-0.0013938408194009379,"148":-0.060662583007212084,"149":0.1317499167503044,"150":-0.08833667936044302,"151":0.035677431289120765,"152":0.12521917739563862,"153":-0.15338010237282265,"154":0.22548678826047142,"155":0.2596466811749615,"156":-0.07291298605449709,"157":-0.08177267283258823,"158":0.0804600192184627,"159":-0.17917233557373993,"160":-0.12682212779416197,"161":0.04384949926364293,"162":0.050239340808819366,"163":0.03499930116146575,"164":0.23665430111078511,"165":0.2548215030375058,"166":-0.09473921466497286,"167":0.08624165962068492,"168":0.16498921747624684,"169":-0.10377733770732174,"170":-0.0540754113530611,"171":-0.2744533603368888,"172":-0.13157471686988845,"173":-0.21193096271404527,"174":0.10517105045069165,"175":0.03664058061464402,"176":-0.19529531151149535,"177":0.05266904273600633,"178":-0.02744876060549827,"179":-0.0582072729677019,"180":0.02068740575098151,"181":0.14947263126085422,"182":0.1681381540197337,"183":0.1254206302462103,"184":-0.014770792113872023,"185":0.21530872006152002,"186":0.09144346184270492,"187":0.2766902296349831,"188":0.06360422185849829,"189":0.10238541266048555,"190":0.13985444411192646,"191":0.12849221359922988,"192":0.20883283271916817,"193":-0.05709592888971047,"194":-0.16836340415324388,"195":-0.19193876644713637,"196":0.02309952533462468,"197":-0.014818962240149093,"198":-0.22432194704673547,"199":0.08122918592706796,"200":0.05767397268729815,"201":0.08689566909525176,"202":-0.24932662769040764,"203":0.12479989854425769,"204":0.10292268610729405,"205":0.12032346268841922,"206":-0.14012300844142517,"207":0.19370808148015603,"208":-0.03914863068695359,"209":0.18045276253385428,"210":-0.04659685550347199,"211":0.1894659101274918,"212":0.24198594281998068,"213":0.2676899660588766,"214":0.291821511257827,"215":-0.11027766707027298,"216":0.23346507256479024,"217":0.10579319966386991,"218":-0.16880327803166628,"219":-0.15809469038090743,"220":0.007044519407141755,"221":-0.19896822656902727,"222":-0.29208611723924466,"223":-0.09396541027609687,"224":-0.343255509737303,"225":-0.07314097156628506,"226":-0.2847536043443923,"227":-0.14919611822359624,"228":-0.16571201832748159,"229":-0.0578743767194622,"230":-0.03339258843392853,"231":-0.11858054955925909,"232":0.16578049469091796,"233":-0.14782572943830635,"234":-0.06148706553975099,"235":-0.05148154006072271,"236":0.04590741809392131,"237":0.23072570104710663,"238":0.06817980464909533,"239":-0.02444895078430528,"240":0.18890477927884042,"241":-0.16168906719602905,"242":-0.18393372160946544,"243":-0.19478079218629485,"244":-0.09976670091294206,"245":0.02957838442192659,"246":-0.2687991593530335,"247":-0.10950253010546232,"248":-0.0826412478543834,"249":-0.2332704815976823,"250":-0.21260142622065734,"251":0.16448581066048437,"252":0.087815217871429,"253":-0.13391654954266236,"254":0.10663880247557715,"255":0.19445297574722037,"256":0.08369284666780373,"257":-0.03278672384920289,"258":-0.18878865113151802,"259":-0.16860491500089247,"260":0.013369996297299005,"261":0.2577107735793399,"262":0.05581797421565062,"263":-0.07145006354374328,"264":0.1574871124978842,"265":0.14927458454116926,"266":-0.1689321795045471,"267":0.14927428364370252,"268":-0.15321595270912292,"269":-0.13527507328514202,"270":0.029735237328394105,"271":-0.15183531345672627,"272":-0.19310394964931146,"273":-0.007397130050708456,"274":-0.014034039493283152,"275":-0.04886356681122476,"276":0.22169047841618253,"277":-0.1445844755230025,"278":-0.18544669329109822,"279":0.02499791988598821,"280":0.1862804954583125,"281":0.025971018702325332,"282":-0.11016136945331716,"283":0.12327338804064632,"284":-0.11785970143095102,"285":0.07877043457585423,"286":0.2280233587234839,"287":0.12513960850646988,"288":0.10149910543480364,"289":-0.12526742353950215,"290":-0.09357369255983308,"291":-0.04660775646828098,"292":0.019515529848466225,"293":0.09353703892771309,"294":-0.2386417295023854,"295":-0.18770292445081113,"296":-0.23551498962818201,"297":0.04315103515680274,"298":-0.10446110000776898,"299":-0.1747351459779645,"300":-0.24687361505942096,"301":0.00011389923610567254,"302":0.12928954015921293,"303":0.16954832959587515,"304":0.07019101561837822,"305":-0.1853547283909896,"306":-0.31073581729225275,"307":-0.19015974360970667,"308":-0.1615561699890064,"309":-0.08783077080421424,"310":0.2611484888067618,"311":0.202240502536921,"312":0.05705924094569884,"313":-0.024090196600225308,"314":0.056042687666156304,"315":-0.020936867928052088,"316":0.12414617367951901,"317":0.01330139613719438,"318":0.06767296686352763,"319":-0.23061693235708122,"320":-0.27442995248165286,"321":-0.23819568534856012,"322":0.07587126623473461,"323":-0.16744681021541458,"324":-0.019530482388961542,"325":-0.1716073435461436,"326":-0.05589534571829112,"327":-0.16518398896854725,"328":0.21863935347514268,"329":0.08566699981052797,"330":-0.2024105149266408,"331":0.09932817981438917,"332":-0.03454105162026136,"333":-0.06500216361544539,"334":-0.04685719455732141,"335":0.29685362014329614,"336":0.13665531910972095,"337":-0.13878320483870007,"338":-0.03558302252406505,"339":0.12155268063128881,"340":-0.02689497247573655,"341":0.09530687413589764,"342":-0.17111300883033853,"343":-0.1594203884573755,"344":-0.07552816756378566,"345":-0.0625957051611144,"346":0.00016348891081610135,"347":0.0196190508082125,"348":0.0280468274161058,"349":-0.05181595653094086,"350":0.17023752970363284,"351":0.35527132661117056,"352":0.09541838278902956,"353":0.06202859020055463,"354":0.12415828555211036,"355":0.07245604487792331,"356":-0.1297717221042846,"357":0.1349474818759192,"358":0.22817472185842572,"359":0.229338107372752,"360":-0.18784109059870294,"361":-0.14738666943272458,"362":-0.03336400274206694,"363":-0.04930446310542282,"364":0.12457974625377055,"365":-0.0045548997234189535,"366":0.029569636142694544,"367":-0.17350664549103942,"368":-0.30110318889587334,"369":-0.20262389705089004,"370":-0.0804296356730266,"371":0.1990236941063299,"372":0.12251701304901928,"373":0.3847534496098108,"374":0.21011088091374994,"375":0.07438022071975971,"376":0.06394483534738324,"377":-0.13688349729208465,"378":0.149146241419913,"379":-0.11542041553117156,"380":0.13459761032698922,"381":0.2641560530525877,"382":0.17264397180097804,"383":0.20758933221688833,"384":0.07285111735917495,"385":-0.03961133626306734,"386":-0.08877358162243823,"387":-0.07830271671535959,"388":-0.08040060162665211,"389":0.11466431304496379,"390":0.06276444603298455,"391":0.03025560044334519,"392":0.029230164947598027,"393":-0.24915032468639686,"394":0.33370906552426144,"395":-0.010431424092481463,"396":0.16679451789332955,"397":0.050908324023821484,"398":0.3213390669481519,"399":0.12124957132813044,"400":0.130921403019084,"401":0.15585296089333345,"402":-0.00305188535123273,"403":0.0066796494135496496,"404":0.10530196109077836,"405":0.20379520522805852,"406":-0.021232523380811087,"407":-0.0286178491450311,"408":-0.19342784521080375,"409":0.038980115338368704,"410":0.11525754715244986,"411":0.03959746782539032,"412":-0.029077196397739542,"413":-0.1309513615956309,"414":-0.09774162524603537,"415":-0.14407541027139573,"416":0.022293875705531378,"417":-0.13335767549708838,"418":0.16780742611352534,"419":0.16139004144616262,"420":0.2576781648312364,"421":0.363587672405132,"422":-0.03733449171674534,"423":0.11481070699830978,"424":0.15210008448876897,"425":-0.06970817076787968,"426":0.14121209026111523,"427":-0.11010222378673042,"428":-0.0460762779337408,"429":0.2543557134018518,"430":0.1767514333307301,"431":0.03253466251261046,"432":-0.12366716036384207,"433":-0.11294502841609887,"434":-0.1035113542089755,"435":0.2558742955233673,"436":0.016137529591004507,"437":0.19600753354393735,"438":0.10377121020902798,"439":0.012911129175923183,"440":-0.3154547055885043,"441":-0.07506811215432559,"442":-0.011403915851492322,"443":0.03908233691625361,"444":-0.1361066444172142,"445":0.08410315363834342,"446":-0.009322838028227035,"447":0.0869855996576108,"448":-0.11750295214704717,"449":0.022482131550760724,"450":-0.2104466768326924,"451":0.14817018800494294,"452":-0.1838189556004135,"453":-0.08547185745393904,"454":-0.009778977276766913,"455":0.06239878309767379,"456":-0.1830154461634788,"457":-0.0720865380380203,"458":-0.035283627189304494,"459":-0.2559491986078774,"460":-0.006745079570402641,"461":-0.18214235522218564,"462":-0.15822334262129964,"463":-0.3784963813113543,"464":-0.12079353394321415,"465":0.12385064860476898,"466":0.04728405580398959,"467":0.27284949392113605,"468":-0.05581990572660741,"469":0.11916820655202726,"470":-0.006865634042056651,"471":-0.17348267624107014,"472":0.09765433038981172,"473":-0.08898824859111236,"474":-0.1644832332432346,"475":-0.10413269417185694,"476":-0.1718938707913452,"477":0.0727920395949716,"478":0.028603643296700166,"479":-0.11621446069073528,"480":-0.006343749996578405,"481":0.01690370264196926,"482":0.014653306210442314,"483":-0.12802521752779894,"484":-0.18552166440141,"485":-0.005607461872667842,"486":-0.3037685415086759,"487":-0.12310291126265274,"488":-0.17699163903982051,"489":-0.1649974945098607,"490":0.03953017868366918,"491":0.15357933937089807,"492":-0.12416707971089215,"493":0.14129767429503454,"494":0.0272411381406082,"495":0.12109941888973608,"496":-0.15064670171787778,"497":-0.27343203191219545,"498":0.02021389196720385,"499":-0.21732930192815267,"500":0.16505295323407795,"501":0.260946387475678,"502":-0.14715226235446538,"503":0.006781900942591261,"504":-0.18647647235096343,"505":0.10057870740590631,"506":0.257148453290012,"507":-0.016760175225414405,"508":-0.008729779974051206,"509":-0.0524510414879307,"510":0.06668477265561756,"511":0.1492019290499027,"512":0.06401553878734158,"513":-0.005054306722868706,"514":-0.046890049937666746,"515":-0.029600953990926944,"516":-0.011803565823493485,"517":0.03324584842859236,"518":-0.22833969902357315,"519":0.0756786736573327,"520":0.047305803503966654,"521":0.19905430599166457,"522":0.0037012200467031716,"523":0.15566695401144237,"524":-0.026363655403394408,"525":-0.05591951414485258,"526":0.06075574234931765,"527":0.07744331632411104,"528":0.08047402851057203,"529":0.001578120888091194,"530":-0.0581988024869057,"531":0.1987324603887774,"532":-0.03048403161281986,"533":-0.04622058164105133,"534":-0.11355226202816106,"535":0.07108141659754964,"536":-0.15535313707117065,"537":-0.037665013642293674,"538":0.07996183048368873,"539":-0.20622271364152084,"540":-0.16914050951487575,"541":0.08890533094402454,"542":-0.16267531772930868,"543":-0.17219656697749888,"544":0.05097034933670274,"545":-0.15073251888202455,"546":-0.035254759432143436,"547":-0.2872240233343312,"548":-0.22039506979728124,"549":0.17804199673736645,"550":0.10046306466120543,"551":0.22147756511679628,"552":0.1346824718156223,"553":-0.07442794452297134,"554":0.061243346741044015,"555":0.02529992118567578,"556":-0.230011632293525,"557":0.16720407015706237,"558":0.11389125543665855,"559":-0.1968673975474791,"560":-0.06081145815770617,"561":0.08848319627636436,"562":0.14990812844504403,"563":0.1781287024893653,"564":0.03131103281970789,"565":-0.14514991167546068,"566":0.1267351508611862,"567":0.17095498404222056,"568":0.03663077535880919,"569":0.016620556261679027,"570":0.001668815276085165,"571":0.06833801927323725,"572":0.22033274365568914,"573":0.1400451316329008,"574":-0.013283147575240397,"575":-0.00802965603971352}},"5":{"bias":0.16325577885287526,"weights":{"0":0.051685163314211524,"1":0.019753246527861767,"2":0.10435706928060841,"3":-0.06439503634771111,"4":0.03302365002160194,"5":-0.12410742434668574,"6":0.10906208663215812,"7":0.14779104025640757,"8":0.11569477168446347,"9":0.04705685092192682,"10":0.03783315303853237,"11":0.10874195282290929,"12":0.15430418620377961,"13":0.07947932165943794,"14":0.06946327749806422,"15":0.07007742155881048,"16":0.22209784702167312,"17":-0.07066216266879378,"18":-0.01717068934962212,"19":0.005868284895743541,"20":0.09133662598395433,"21":-0.030850628585612428,"22":-0.1374758690425082,"23":0.08012841007214007,"24":-0.15480849242194025,"25":0.011127840003655999,"26":0.15445452777123803,"27":0.20926872292502513,"28":0.07765279638390388,"29":-0.22688980158689567,"30":0.003624468620904728,"31":0.11439785968569985,"32":0.10616940774465512,"33":0.0007325929012865607,"34":-0.20541242223946596,"35":0.08392203962258586,"36":-0.03912935208261167,"37":0.05011615201131589,"38":0.17594709251324395,"39":0.1292650142805989,"40":0.1535575573436552,"41":0.10641575064799022,"42":-0.06525617941789805,"43":0.06557694731051926,"44":-0.13851595881696813,"45":0.2526606192964785,"46":0.11625349548645136,"47":0.14685485096973097,"48":-0.0687847740832176,"49":0.1994592386638459,"50":0.1637387351683207,"51":0.08235870937806024,"52":-0.20063512184615762,"53":0.07520243729322573,"54":-0.10500772210965903,"55":-0.2986128696939799,"56":0.15918937724159324,"57":-0.2043722604649613,"58":-0.07326396768026092,"59":0.013340466454252945,"60":0.1580561099365808,"61":-0.06563219438783881,"62":-0.14490375568786812,"63":0.007862286924915349,"64":0.18648189599657183,"65":-0.1510024563041739,"66":-0.13312155632509565,"67":-0.30791409296524436,"68":-0.14888839004732113,"69":0.08064141911528593,"70":-0.08081339633171745,"71":0.26465120847962015,"72":-0.00215435916122087,"73":-0.15511474345820445,"74":0.0027399162581390308,"75":0.1529417886860525,"76":-0.017024079073606566,"77":-0.14483251163761204,"78":0.005909393382973734,"79":-0.19236423952382703,"80":0.062378858824303954,"81":0.040355980847007436,"82":-0.06159987485072097,"83":-0.03417187030057586,"84":-0.20979084805255152,"85":-0.21003760300024943,"86":-0.23910862219497436,"87":0.03252117627889438,"88":-0.2212803191101529,"89":-0.17026090146513623,"90":-0.006591253223290982,"91":-0.1706793187814655,"92":0.07322009671161375,"93":-0.09643583157965714,"94":-0.057975467879782104,"95":0.016157143997267972,"96":0.11924622391220223,"97":0.006429104004065622,"98":0.15662883451604878,"99":0.05202104067252087,"100":-0.0715903976888271,"101":0.10518783291853472,"102":0.02026434596334833,"103":-0.22908161376429526,"104":-0.0662486298044517,"105":-0.1588738082522884,"106":0.042087128637668746,"107":0.1289747177635097,"108":-0.023429731689842335,"109":0.018115203236552795,"110":0.07088063620109866,"111":0.02640945137284457,"112":0.12721995675606199,"113":0.020630328933803677,"114":-0.06640831137353244,"115":0.15286023953863062,"116":0.08171187077888026,"117":0.06250736115762043,"118":0.1533289409664964,"119":-0.18099587631268702,"120":-0.14215160667187712,"121":0.077665820260153,"122":0.007925809092722743,"123":-0.394859228105059,"124":0.17337452455547095,"125":-0.07464747448354772,"126":-0.2313059333861675,"127":0.14153733181320127,"128":0.07705090157807522,"129":-0.25173091708198225,"130":-0.14645061251603195,"131":-0.14595104575110926,"132":-0.13713230513176,"133":0.03777395707445912,"134":-0.08483554184863577,"135":-0.07412477108252094,"136":-0.14041202330356012,"137":0.14029242516633506,"138":0.015526304983223457,"139":-0.04939028667387007,"140":-0.0852459542176063,"141":-0.13871406649049514,"142":0.14832267484306008,"143":0.13262726549265286,"144":-0.16442152148612524,"145":0.15179890005067334,"146":0.03166252721532099,"147":-0.15589536477402752,"148":-0.24278553525983956,"149":0.21033317952595243,"150":0.02856124811319349,"151":-0.2390079923460577,"152":0.017456746720425968,"153":-0.10567486543831309,"154":0.0004823586949982008,"155":0.322210699755835,"156":0.1700308283703863,"157":0.1611011731087602,"158":0.1613080194738129,"159":-0.04449688974546835,"160":-0.29284829819603586,"161":0.0792806259908197,"162":0.12316049705429948,"163":0.06732609024568398,"164":-0.2145253811017657,"165":-0.1454733021966201,"166":-0.24573256551228115,"167":0.08793634352576736,"168":0.12492963452764054,"169":-0.036465825023438786,"170":-0.1785242357933771,"171":-0.15765627025019327,"172":-0.11696587289048924,"173":0.23732140684523026,"174":-0.16135134050566527,"175":-0.05825809804697201,"176":-0.08748477803620847,"177":-0.0753658890093468,"178":-0.1171600185658127,"179":0.028373029517692074,"180":-0.047478040089653846,"181":-0.11736228370744287,"182":0.0954780682990519,"183":0.06960345142823614,"184":-0.005634415372602137,"185":0.18623861454818433,"186":0.1497158405445452,"187":0.10091386258335427,"188":0.07964447156762683,"189":-0.20073151307500103,"190":-0.2204518042947,"191":0.15620737070706503,"192":0.05015734213691313,"193":-0.1609536907131899,"194":-0.21103773680612187,"195":0.10893417599257554,"196":-0.02150067662016887,"197":-0.03157167632822477,"198":-0.023070240802727016,"199":0.09487955269966751,"200":-0.03540318736841847,"201":-0.000009645602631680733,"202":-0.20936821007183107,"203":0.04795405911983011,"204":-0.0001391417280724482,"205":0.20121800803207288,"206":0.3038272058168596,"207":0.18254304567734272,"208":0.04155391211812035,"209":-0.061459163819772074,"210":-0.023532381067633296,"211":0.1471864967760943,"212":0.1323152691883818,"213":0.18306726168402784,"214":0.04734424105647951,"215":-0.12709631661207257,"216":0.029451657198162656,"217":-0.01311631384205437,"218":-0.1445694891977605,"219":0.1024703902931926,"220":0.0003639950362999091,"221":0.05982331227103173,"222":-0.02466282960487271,"223":0.0027609828267029872,"224":-0.1847287285952652,"225":0.027108949326247456,"226":-0.2114905444180218,"227":-0.2514196811018586,"228":0.049920290033336326,"229":-0.062476924188427645,"230":0.058456938648815904,"231":-0.03006301759593232,"232":-0.25703175627887814,"233":-0.1085604250665756,"234":0.013847090419342489,"235":-0.06850652528094935,"236":-0.037360603897481526,"237":-0.12437209427109884,"238":-0.031949625317541995,"239":0.06625028689139525,"240":0.07667107508601355,"241":-0.1403360853279493,"242":-0.1386974409115171,"243":0.016137009150276726,"244":0.14156037126649154,"245":-0.07596436141431322,"246":-0.09401988189799132,"247":0.05615292457506786,"248":-0.220517819925082,"249":-0.1362737906587614,"250":0.12555896969928107,"251":0.24736531427164124,"252":-0.10347558077881058,"253":-0.024356787766389814,"254":0.009220099139613247,"255":0.3115646955049168,"256":-0.0682642984079401,"257":-0.0009258204015085352,"258":-0.22058788913115565,"259":0.08432375822193332,"260":-0.14226040298603868,"261":0.0015365047567979446,"262":-0.006761420157126046,"263":0.07865643194457082,"264":-0.19578063495027645,"265":0.059107282727945284,"266":0.16777656020375964,"267":0.04559482911419327,"268":0.19182261511818371,"269":-0.014106742446954527,"270":0.23293799636167326,"271":-0.21320849529562613,"272":-0.2160114615219304,"273":0.16921491250786788,"274":0.02257238824481984,"275":0.3262110091760433,"276":0.20135134162672322,"277":0.2275778418493689,"278":-0.027949556594993888,"279":0.11743729246141688,"280":-0.05875493663247611,"281":-0.06502740420496195,"282":-0.13061081290668697,"283":-0.2096501281300372,"284":0.11876769171516713,"285":-0.10878504363620908,"286":0.2830320764021247,"287":0.3630124876121085,"288":-0.005358642678121203,"289":-0.24870474749118382,"290":-0.04316189904336101,"291":-0.04283170116406293,"292":0.12681440695622148,"293":0.05587187502377318,"294":-0.09432329187585921,"295":0.1833619916146165,"296":0.28002982052063097,"297":-0.08429493359874739,"298":0.13273719372119297,"299":0.26144560723979077,"300":0.2822144002557268,"301":-0.002434416744780426,"302":0.2947331852479066,"303":0.12840932986482412,"304":0.10294131351081699,"305":0.022542788402970897,"306":-0.10444239820576677,"307":-0.03097099066981478,"308":0.002981895222230594,"309":0.13971327327852334,"310":0.09241666804443863,"311":-0.0012569781457358413,"312":0.02056771336452622,"313":-0.1322776381963615,"314":-0.13556280825757078,"315":0.13474444912918804,"316":0.1588217158994262,"317":0.14649148054088684,"318":0.20364392113273028,"319":0.08147758698134376,"320":-0.033153398916270976,"321":-0.1411074548398558,"322":-0.15462821146070202,"323":0.23422171416255727,"324":0.12966669449316687,"325":0.09311665788026136,"326":-0.07211306018506163,"327":-0.4259106425852735,"328":-0.0680016374007154,"329":-0.19862497463554787,"330":-0.13299341650503763,"331":-0.22460402466251472,"332":-0.09148260059203575,"333":0.004006004583481784,"334":0.12540288519825324,"335":0.16634215721764878,"336":-0.15444038251271888,"337":-0.2568520895754446,"338":-0.14107067215223945,"339":-0.07206169261295747,"340":-0.07961380403433503,"341":-0.06953762752632082,"342":0.07602818780885687,"343":-0.07340173361052929,"344":0.23614886302802648,"345":-0.16105579720084437,"346":0.016802634425375537,"347":-0.25522529512710906,"348":-0.18030230880620088,"349":-0.11240568228399933,"350":-0.3311899018131069,"351":-0.2531093438272601,"352":-0.15269668736110753,"353":0.10850038512216767,"354":0.025292115898817812,"355":-0.16206972873212433,"356":0.06036577907206879,"357":0.1621281376091765,"358":0.15941145479731128,"359":-0.06920375718556604,"360":-0.09731959280098824,"361":0.025919148944413405,"362":-0.1269980551952577,"363":0.08195097479053284,"364":-0.2603567524610183,"365":-0.06467723488850487,"366":-0.03646935074542399,"367":-0.11236190203154921,"368":-0.12386587239514502,"369":0.023280022705446768,"370":-0.07316601909119881,"371":-0.17071830182082326,"372":0.08179109399975647,"373":0.05922219102843188,"374":-0.09929508970825356,"375":-0.1882740610104435,"376":-0.16572998710445788,"377":0.09808033469308514,"378":0.029384682731614042,"379":0.11291732891289255,"380":0.17815670253618612,"381":0.11453059490721033,"382":0.05481466077473095,"383":-0.13860748126449152,"384":0.05330366866515139,"385":-0.18648757351005038,"386":0.1158807761741408,"387":0.10139827075923534,"388":-0.04944850357779555,"389":-0.019782728183654112,"390":0.16451089216137432,"391":-0.21003074433504793,"392":-0.19108501656100516,"393":-0.12002711218992512,"394":-0.06660712953263208,"395":-0.18185872409862108,"396":-0.1044141211010371,"397":-0.32227516567749953,"398":0.050451773168258045,"399":0.01591917911275966,"400":-0.014234201482375695,"401":0.1691211670479319,"402":-0.15076584591326,"403":-0.03378132722173298,"404":-0.19163037554538906,"405":0.02684192097668764,"406":-0.015993836800527874,"407":0.15005676364601395,"408":0.10188354475644955,"409":-0.048748024173593994,"410":-0.15224171846921927,"411":-0.15969622913572676,"412":-0.07538733062595106,"413":0.03126129113443116,"414":0.03641628401270165,"415":-0.01945309094128703,"416":0.022047850342531986,"417":-0.2213754122653323,"418":-0.15541362986441373,"419":-0.18410332747500144,"420":-0.25205814717196595,"421":-0.24805824352291547,"422":0.001494348577172267,"423":0.06509977480972057,"424":-0.12973851366905934,"425":-0.10204454076965178,"426":-0.13149898683883984,"427":0.18627562643782294,"428":0.044335113855164886,"429":-0.018634631226834158,"430":-0.20641497359685534,"431":0.011127166517343304,"432":0.08791593197090213,"433":-0.09067036704758287,"434":0.17340988349483633,"435":0.02697604885493877,"436":0.11806284725605949,"437":0.1346963332468503,"438":0.06061866614584314,"439":0.03477943167858051,"440":-0.21697826042334195,"441":-0.11755041318047682,"442":-0.2988271245700671,"443":-0.351651918982078,"444":-0.005164424852264133,"445":-0.1450300054251248,"446":0.08848042259622209,"447":0.008251582971886174,"448":-0.009318316254602811,"449":-0.1063697668169425,"450":-0.025871778306101822,"451":0.051248989858025396,"452":-0.18533624752364378,"453":0.08502768515689917,"454":-0.1769683191025215,"455":-0.05135331220608998,"456":0.22370326285806233,"457":-0.11513294922684848,"458":0.06449908525413021,"459":0.10198550550263223,"460":0.13108749471853834,"461":-0.03731183849722391,"462":-0.11472205688809378,"463":-0.008145742563358474,"464":0.12415995513055961,"465":-0.266407168950476,"466":-0.28923534962348557,"467":-0.29368876102853597,"468":0.12235735873108972,"469":0.03234174763878659,"470":0.021819052133614802,"471":-0.2481622609103102,"472":-0.13570446860454669,"473":-0.0715563920114229,"474":0.06628829378859313,"475":0.12290381264111894,"476":-0.06520310959574625,"477":-0.008061074408693131,"478":-0.040797754595492716,"479":0.1940877072021365,"480":-0.03916634444706466,"481":0.1576774769876869,"482":0.1539464884938476,"483":-0.092251817457668,"484":0.16645574850314926,"485":-0.096657627517894,"486":-0.20616976754834576,"487":-0.1475980717345073,"488":-0.2497343684942404,"489":-0.2568121817841705,"490":0.051578684085121444,"491":0.08830483915048813,"492":-0.11120854760220143,"493":0.05806722649564491,"494":0.013499954870925063,"495":0.09503530786030259,"496":0.04306132854972893,"497":-0.07334137656124064,"498":-0.09608894090240734,"499":0.18725857394532383,"500":0.07522067310248481,"501":-0.11992325302035979,"502":-0.12723198650274825,"503":-0.13113225284915583,"504":0.13896588226348025,"505":-0.0249085641404068,"506":0.15271121375500618,"507":0.1154292018592137,"508":0.167361818463142,"509":-0.1388396778217859,"510":-0.04115652496740763,"511":0.1954677267686845,"512":0.16069123103489222,"513":-0.02094550534319629,"514":0.1277821012310595,"515":0.17392456205061918,"516":-0.07870586959865183,"517":-0.017144927969367382,"518":0.10299482292515331,"519":-0.1575707474759545,"520":0.11158539951825855,"521":0.08453365884992155,"522":0.07955891522640161,"523":-0.10409329159221621,"524":0.0690344188575201,"525":0.16873686075260072,"526":-0.25263728509027894,"527":0.030884066350347784,"528":0.2080556581381566,"529":-0.13915951825602885,"530":-0.16371699500458237,"531":0.04491059148938187,"532":0.14308925724795407,"533":0.030820014240558965,"534":0.07556484914430861,"535":0.14506032024098073,"536":0.13809728123192677,"537":0.07661973240211184,"538":0.08363079205245508,"539":0.12112925894256281,"540":0.09722757508326749,"541":0.24285290213872,"542":-0.06443075948352212,"543":0.04455224903862785,"544":-0.1636578044193944,"545":-0.014697302538791217,"546":-0.09977849290382591,"547":-0.014500353248923136,"548":0.08195742301941934,"549":-0.0035628459932271427,"550":-0.09918405940542514,"551":-0.20141101383846433,"552":-0.06488683914686912,"553":-0.05909599092786394,"554":-0.14611026893801793,"555":0.16816229156225515,"556":-0.03126785460449559,"557":0.044613810013214523,"558":0.16982496760794122,"559":0.21212442460257874,"560":0.021734503015369954,"561":-0.038962564998878145,"562":0.2872008233194284,"563":-0.02312608176148335,"564":0.1733816807232312,"565":0.18207277022904136,"566":0.07805269356645127,"567":0.1559104421117762,"568":0.28278641762730283,"569":0.038501512606694085,"570":-0.05961639610650131,"571":-0.1295760719806263,"572":0.1434378724194386,"573":0.11106927720733067,"574":-0.18019447943985936,"575":-0.06740153622422398}},"6":{"bias":0.12672589521208363,"weights":{"0":0.015973291481151796,"1":-0.06633611701664936,"2":-0.07303240993487727,"3":-0.05978909620672532,"4":-0.07639203260740492,"5":-0.07696266052358053,"6":-0.08444518246168115,"7":-0.2075594583425591,"8":0.1444501689395527,"9":0.07183205802989485,"10":-0.22198340875999134,"11":0.02734985657113266,"12":-0.044075348627036506,"13":-0.051063297727423865,"14":0.07977349711042282,"15":0.05411401878881357,"16":-0.00613479944963282,"17":0.15954193115488147,"18":-0.06897846848184708,"19":0.07583693731757382,"20":-0.026922161956061192,"21":-0.016573131643514184,"22":0.043605257432594025,"23":-0.12697431625089226,"24":0.03900608263833602,"25":-0.0978627221238044,"26":-0.21285578746601944,"27":-0.23579507481751297,"28":-0.15303836789308647,"29":-0.2216143853691839,"30":-0.20697743923954934,"31":-0.1662492449718791,"32":0.0388712872142401,"33":-0.12257464457608552,"34":0.144520197779864,"35":-0.03583998106696528,"36":-0.045266744000842456,"37":-0.19898547960142096,"38":0.11360139287483326,"39":-0.10193530421016045,"40":0.17663781064699977,"41":0.03185502928006196,"42":0.15862372184474144,"43":0.07902335558918758,"44":0.25572095118265725,"45":-0.10970415078297274,"46":0.12130713068158062,"47":-0.18887652283950668,"48":-0.1307039416498897,"49":-0.12666506314363443,"50":-0.15534484628269404,"51":-0.28404917800960866,"52":-0.17494940928687736,"53":-0.04057323436546239,"54":0.07534943862486837,"55":-0.004368308872573884,"56":0.11265664241960038,"57":0.10435474432430247,"58":0.05437455567117038,"59":0.043972596664344304,"60":-0.11462932887509007,"61":0.07474401726024078,"62":-0.1039234735570259,"63":0.10107574261045159,"64":0.0744938719475962,"65":-0.06860114917646157,"66":0.021122352181837598,"67":0.12848581565696887,"68":0.04445752302768116,"69":0.15015286713940124,"70":-0.09819120393553722,"71":-0.05423354035288404,"72":-0.03019582119819535,"73":0.011580933764890855,"74":-0.05813906105896876,"75":-0.18190485838027032,"76":-0.1336743325174677,"77":0.15017740212318212,"78":-0.07026672952156954,"79":0.06802732607915027,"80":0.19492496622614,"81":0.02594505542187684,"82":-0.15470345970849755,"83":-0.1263372045360949,"84":0.06517481761489116,"85":-0.08309368240436711,"86":0.0014983755046818073,"87":0.05309846275360422,"88":0.28046440169995585,"89":0.027858990334967953,"90":-0.03573833436390942,"91":-0.08742693799498796,"92":0.17690967859983273,"93":0.0020444857917295595,"94":-0.14338357242261876,"95":-0.1225232331797428,"96":0.15308004250491378,"97":0.251401198503461,"98":-0.06195661759258984,"99":0.18882252264208174,"100":0.15638806034825717,"101":0.03378006240066808,"102":-0.07477105770484362,"103":-0.11739328757086329,"104":-0.24207582712232445,"105":0.06984439361919806,"106":-0.12305679296994869,"107":0.20319275871882572,"108":0.14147456675479506,"109":-0.1375924795282735,"110":0.010854548852965964,"111":0.2141335118038012,"112":-0.027847524407782646,"113":-0.15953108605850846,"114":0.06584626889846211,"115":-0.02240673326037253,"116":0.1143166286063505,"117":0.1322009449586867,"118":0.06867746322829203,"119":-0.046477544527721196,"120":0.03130455039729649,"121":0.04423395816474308,"122":0.15675833263579628,"123":0.13945212194303097,"124":0.07740906894740021,"125":-0.025660151642437193,"126":0.2232334466570298,"127":0.16567985932415605,"128":0.10304622368403386,"129":-0.07050597165413776,"130":0.05688297644160052,"131":0.04050993325909017,"132":-0.0003000308701326005,"133":0.002646031212664963,"134":0.07618617581215176,"135":-0.18614949398416444,"136":-0.017575462939297428,"137":-0.09088413551128004,"138":0.3039671237783859,"139":0.13873165347920477,"140":-0.03597552348533633,"141":0.13810509179750616,