function anonymous(input
/**/) {
  var net = {"layers":[{"0":{},"1":{},"2":{},"3":{},"4":{},"5":{},"6":{},"7":{},"8":{},"9":{},"10":{},"11":{},"12":{},"13":{},"14":{},"15":{},"16":{},"17":{},"18":{},"19":{},"20":{},"21":{},"22":{},"23":{},"24":{},"25":{},"26":{},"27":{},"28":{},"29":{},"30":{},"31":{},"32":{},"33":{},"34":{},"35":{},"36":{},"37":{},"38":{},"39":{},"40":{},"41":{},"42":{},"43":{},"44":{},"45":{},"46":{},"47":{},"48":{},"49":{},"50":{},"51":{},"52":{},"53":{},"54":{},"55":{},"56":{},"57":{},"58":{},"59":{},"60":{},"61":{},"62":{},"63":{},"64":{},"65":{},"66":{},"67":{},"68":{},"69":{},"70":{},"71":{},"72":{},"73":{},"74":{},"75":{},"76":{},"77":{},"78":{},"79":{},"80":{},"81":{},"82":{},"83":{},"84":{},"85":{},"86":{},"87":{},"88":{},"89":{},"90":{},"91":{},"92":{},"93":{},"94":{},"95":{},"96":{},"97":{},"98":{},"99":{},"100":{},"101":{},"102":{},"103":{},"104":{},"105":{},"106":{},"107":{},"108":{},"109":{},"110":{},"111":{},"112":{},"113":{},"114":{},"115":{},"116":{},"117":{},"118":{},"119":{},"120":{},"121":{},"122":{},"123":{},"124":{},"125":{},"126":{},"127":{},"128":{},"129":{},"130":{},"131":{},"132":{},"133":{},"134":{},"135":{},"136":{},"137":{},"138":{},"139":{},"140":{},"141":{},"142":{},"143":{},"144":{},"145":{},"146":{},"147":{},"148":{},"149":{},"150":{},"151":{},"152":{},"153":{},"154":{},"155":{},"156":{},"157":{},"158":{},"159":{},"160":{},"161":{},"162":{},"163":{},"164":{},"165":{},"166":{},"167":{},"168":{},"169":{},"170":{},"171":{},"172":{},"173":{},"174":{},"175":{},"176":{},"177":{},"178":{},"179":{},"180":{},"181":{},"182":{},"183":{},"184":{},"185":{},"186":{},"187":{},"188":{},"189":{},"190":{},"191":{},"192":{},"193":{},"194":{},"195":{},"196":{},"197":{},"198":{},"199":{},"200":{},"201":{},"202":{},"203":{},"204":{},"205":{},"206":{},"207":{},"208":{},"209":{},"210":{},"211":{},"212":{},"213":{},"214":{},"215":{},"216":{},"217":{},"218":{},"219":{},"220":{},"221":{},"222":{},"223":{},"224":{},"225":{},"226":{},"227":{},"228":{},"229":{},"230":{},"231":{},"232":{},"233":{},"234":{},"235":{},"236":{},"237":{},"238":{},"239":{},"240":{},"241":{},"242":{},"243":{},"244":{},"245":{},"246":{},"247":{},"248":{},"249":{},"250":{},"251":{},"252":{},"253":{},"254":{},"255":{},"256":{},"257":{},"258":{},"259":{},"260":{},"261":{},"262":{},"263":{},"264":{},"265":{},"266":{},"267":{},"268":{},"269":{},"270":{},"271":{},"272":{},"273":{},"274":{},"275":{},"276":{},"277":{},"278":{},"279":{},"280":{},"281":{},"282":{},"283":{},"284":{},"285":{},"286":{},"287":{},"288":{},"289":{},"290":{},"291":{},"292":{},"293":{},"294":{},"295":{},"296":{},"297":{},"298":{},"299":{},"300":{},"301":{},"302":{},"303":{},"304":{},"305":{},"306":{},"307":{},"308":{},"309":{},"310":{},"311":{},"312":{},"313":{},"314":{},"315":{},"316":{},"317":{},"318":{},"319":{},"320":{},"321":{},"322":{},"323":{},"324":{},"325":{},"326":{},"327":{},"328":{},"329":{},"330":{},"331":{},"332":{},"333":{},"334":{},"335":{},"336":{},"337":{},"338":{},"339":{},"340":{},"341":{},"342":{},"343":{},"344":{},"345":{},"346":{},"347":{},"348":{},"349":{},"350":{},"351":{},"352":{},"353":{},"354":{},"355":{},"356":{},"357":{},"358":{},"359":{},"360":{},"361":{},"362":{},"363":{},"364":{},"365":{},"366":{},"367":{},"368":{},"369":{},"370":{},"371":{},"372":{},"373":{},"374":{},"375":{},"376":{},"377":{},"378":{},"379":{},"380":{},"381":{},"382":{},"383":{},"384":{},"385":{},"386":{},"387":{},"388":{},"389":{},"390":{},"391":{},"392":{},"393":{},"394":{},"395":{},"396":{},"397":{},"398":{},"399":{},"400":{},"401":{},"402":{},"403":{},"404":{},"405":{},"406":{},"407":{},"408":{},"409":{},"410":{},"411":{},"412":{},"413":{},"414":{},"415":{},"416":{},"417":{},"418":{},"419":{},"420":{},"421":{},"422":{},"423":{},"424":{},"425":{},"426":{},"427":{},"428":{},"429":{},"430":{},"431":{},"432":{},"433":{},"434":{},"435":{},"436":{},"437":{},"438":{},"439":{},"440":{},"441":{},"442":{},"443":{},"444":{},"445":{},"446":{},"447":{},"448":{},"449":{},"450":{},"451":{},"452":{},"453":{},"454":{},"455":{},"456":{},"457":{},"458":{},"459":{},"460":{},"461":{},"462":{},"463":{},"464":{},"465":{},"466":{},"467":{},"468":{},"469":{},"470":{},"471":{},"472":{},"473":{},"474":{},"475":{},"476":{},"477":{},"478":{},"479":{},"480":{},"481":{},"482":{},"483":{},"484":{},"485":{},"486":{},"487":{},"488":{},"489":{},"490":{},"491":{},"492":{},"493":{},"494":{},"495":{},"496":{},"497":{},"498":{},"499":{},"500":{},"501":{},"502":{},"503":{},"504":{},"505":{},"506":{},"507":{},"508":{},"509":{},"510":{},"511":{},"512":{},"513":{},"514":{},"515":{},"516":{},"517":{},"518":{},"519":{},"520":{},"521":{},"522":{},"523":{},"524":{},"525":{},"526":{},"527":{},"528":{},"529":{},"530":{},"531":{},"532":{},"533":{},"534":{},"535":{},"536":{},"537":{},"538":{},"539":{},"540":{},"541":{},"542":{},"543":{},"544":{},"545":{},"546":{},"547":{},"548":{},"549":{},"550":{},"551":{},"552":{},"553":{},"554":{},"555":{},"556":{},"557":{},"558":{},"559":{},"560":{},"561":{},"562":{},"563":{},"564":{},"565":{},"566":{},"567":{},"568":{},"569":{},"570":{},"571":{},"572":{},"573":{},"574":{},"575":{}},{"0":{"bias":0.23057389313272236,"weights":{"0":-0.009693237119735009,"1":0.18583527621003038,"2":-0.246700951711533,"3":-0.015738972513034452,"4":-0.15987142838848403,"5":0.005528873885897387,"6":-0.0828159146004041,"7":-0.2366843448339524,"8":0.026938638811505336,"9":-0.12836072102303953,"10":-0.2011091161035627,"11":-0.07135593536475703,"12":-0.12214346701996116,"13":-0.1401318232482919,"14":-0.20523138893282833,"15":0.08411801022835246,"16":0.06960399623808479,"17":-0.14655683376462492,"18":-0.17665483651154998,"19":0.011464088919653642,"20":-0.09894692338873468,"21":0.18302780889353676,"22":0.10561894035891657,"23":0.2514736816328563,"24":0.20961177158344746,"25":-0.020109115327079104,"26":0.13502328334222827,"27":0.06150633272868351,"28":0.03656365331728546,"29":-0.21486034865910453,"30":0.10332203649247133,"31":0.16134238378002677,"32":-0.15074978000069963,"33":-0.18269398232665696,"34":0.05272098244296126,"35":-0.05252469704778759,"36":-0.11068908202777761,"37":0.0792038374140517,"38":0.05264336102328822,"39":-0.14780011415040958,"40":0.1567789598218574,"41":0.06023320945830107,"42":-0.0383473932675644,"43":0.3144585539242365,"44":0.11551380988840086,"45":0.3085903405899903,"46":0.029339307815896814,"47":0.05888936086342701,"48":-0.02663709474750448,"49":0.09395853859975475,"50":-0.02507326313145692,"51":0.06983107386841436,"52":-0.040530628744467445,"53":0.13639607581842625,"54":-0.2272489184885803,"55":0.07764898000811116,"56":0.09742683964940381,"57":0.04561119873450452,"58":-0.16117700159530615,"59":0.1861969731231379,"60":-0.11999169757200838,"61":0.13037249135915763,"62":0.0501260921018883,"63":0.26161451166130306,"64":0.11899434647831468,"65":-0.04625396992249074,"66":0.0037138722818246205,"67":0.2157813049991313,"68":0.23934180826048798,"69":0.21659233345302328,"70":0.043984861911829015,"71":0.0941929614018441,"72":-0.05086096698838142,"73":0.08299019567823507,"74":-0.12126218212180676,"75":0.07971832478290551,"76":-0.017640083122041034,"77":0.13889777217244795,"78":0.014032588628656,"79":0.08308363041487912,"80":-0.15234450718686418,"81":-0.052670678045446444,"82":0.03867000366237262,"83":0.1981589931193871,"84":-0.08634555949216417,"85":0.15971074270527671,"86":0.009863361053231576,"87":-0.046353536356089485,"88":-0.1619161535752857,"89":0.22290879936203428,"90":0.13591982034783362,"91":0.19815399562739858,"92":0.25158000350525506,"93":-0.02268251320305572,"94":0.3047827312403205,"95":0.1514654164268474,"96":0.08096256162905309,"97":0.05888887456841363,"98":0.11755715921745447,"99":0.07915770559879198,"100":-0.14157704736818805,"101":0.030322251507115892,"102":0.1671814663245786,"103":0.015921570803378454,"104":0.005255172886005096,"105":0.15510952967123143,"106":-0.09741789645045182,"107":0.038075732942214655,"108":-0.008819735590926471,"109":0.03725098997432001,"110":-0.22737964916806375,"111":-0.11282896764707956,"112":-0.06208324784270285,"113":0.015260252622566141,"114":0.014465396815488567,"115":-0.018249711172049963,"116":-0.010263153121860116,"117":0.19846254487222498,"118":0.24034316344497558,"119":-0.10407725417114903,"120":0.08348080729111151,"121":-0.15112171677668293,"122":-0.20472530240823664,"123":0.09731580991869383,"124":-0.19058571737553043,"125":-0.17078314525045693,"126":0.06913982501000582,"127":0.14711540561709174,"128":0.09007718118749426,"129":-0.04973787838827111,"130":0.057325478635355094,"131":0.03819846227910969,"132":-0.0027495116886999045,"133":-0.1240198761313414,"134":-0.08860109631751262,"135":-0.055601935109357285,"136":-0.08333575196455185,"137":0.16165779461067445,"138":0.12222109356834696,"139":0.1829776558732155,"140":-0.13321312685592251,"141":0.12647673342037336,"142":0.14343508910986455,"143":-0.02071815064695282,"144":0.18340363502876206,"145":0.05593852956880465,"146":0.20660841533567742,"147":0.0380918352935621,"148":-0.18995578006779323,"149":-0.11136189737241532,"150":0.2594473026931299,"151":-0.2141972228439277,"152":-0.09212296680335218,"153":-0.12644063129303526,"154":-0.17496364733921824,"155":-0.11988127366019237,"156":-0.14032825346674843,"157":0.10178277063663715,"158":-0.1148424807865416,"159":-0.21358404411499762,"160":-0.009642534630160824,"161":0.002363884805614177,"162":-0.13151156417625814,"163":0.034087155925199904,"164":0.14319676701685377,"165":-0.2570337141704191,"166":0.05470810666096349,"167":0.02079774336175917,"168":-0.1319023729981935,"169":-0.16443227796425977,"170":0.1426302067679316,"171":-0.06818562986963898,"172":-0.12206633511236295,"173":0.2025940600393472,"174":-0.007884482567157711,"175":0.15474040066499964,"176":-0.1735711621795803,"177":-0.11720180571102912,"178":0.0753049445668714,"179":-0.19331168999596818,"180":-0.09657321688223812,"181":-0.031924347514188,"182":-0.1422401250967274,"183":0.021625087689116147,"184":-0.15264989730326115,"185":0.12224801046106697,"186":0.08352845988456718,"187":-0.06052369779887035,"188":-0.04139422621962804,"189":0.015065405973824495,"190":0.07811159440188115,"191":0.00701011740220932,"192":-0.18029625768770152,"193":-0.15010678404357636,"194":-0.040579458348516236,"195":0.11182442987830007,"196":0.08568276805739873,"197":-0.004144413011178367,"198":0.1790364911552476,"199":0.1411062457593952,"200":0.09651880802248299,"201":-0.17448182121094577,"202":-0.007935805981184457,"203":-0.1019092879132472,"204":-0.17071220545482038,"205":0.13188603858811165,"206":-0.1702639148284889,"207":-0.14250234988557087,"208":-0.05555615663589767,"209":0.019110906790551697,"210":0.017903159782380017,"211":-0.026530177906720444,"212":0.03704074372043956,"213":-0.17477548628153322,"214":-0.08151710868485858,"215":-0.27762250376941666,"216":-0.0601532147102627,"217":-0.1999180167705767,"218":-0.017137335841127106,"219":0.21676189960781514,"220":0.10972686243785176,"221":0.15067129685923328,"222":-0.037111317077401014,"223":0.10659370300947053,"224":0.05077158424172723,"225":-0.05040081904163257,"226":-0.10919134053497503,"227":-0.029710297025469647,"228":-0.02578669396651265,"229":-0.017182578815906187,"230":0.08545740690109854,"231":0.018194358906086082,"232":0.19425752022383075,"233":0.11645718945598729,"234":-0.17652290234151335,"235":0.06170317100363634,"236":0.17788365388772295,"237":-0.032843824487932965,"238":0.024909391521075453,"239":-0.307431285115739,"240":0.15579974559245266,"241":-0.1994811295095826,"242":-0.17958693287798655,"243":0.1515605619936689,"244":-0.06188661462205054,"245":-0.11746698037962394,"246":0.023947450715522952,"247":-0.10162690943392229,"248":0.26502272560941387,"249":0.1526289742578137,"250":-0.011241630116902015,"251":-0.04762087095859888,"252":0.1944388059900786,"253":0.06192715065613721,"254":-0.09058606605772246,"255":-0.06870307189129875,"256":-0.08912470382262155,"257":0.001804866335647464,"258":-0.1291090000929278,"259":-0.2878160197351617,"260":-0.15791279252927856,"261":-0.025786206311526328,"262":-0.221280586385403,"263":-0.09141844275029493,"264":-0.160647465136464,"265":-0.1895864280137228,"266":-0.3309640369240179,"267":-0.03678317527103899,"268":-0.11795630155977337,"269":-0.1024837807587248,"270":-0.06262431758626907,"271":-0.10723541794564553,"272":0.13548879117210472,"273":0.15611924066664784,"274":0.15552155066755236,"275":0.00238811635651557,"276":-0.06993397072692942,"277":0.15230194974522293,"278":-0.13323906044269923,"279":-0.004467158774492606,"280":-0.10671786499182001,"281":-0.11849800507911663,"282":-0.17723386914227307,"283":-0.2542682511762727,"284":0.005257237311355562,"285":-0.17350566511314958,"286":-0.2842113128675212,"287":-0.2892357307648795,"288":-0.07338991245069869,"289":-0.06907386781991104,"290":-0.31433207901456295,"291":-0.2489649086959948,"292":-0.16073793478802162,"293":-0.11153628526939169,"294":-0.04469961894367673,"295":-0.19283834687920182,"296":0.052372260343445914,"297":0.019193067201990658,"298":0.27420963038878243,"299":0.21455091747144595,"300":0.013031316423616598,"301":0.24408069662606624,"302":0.14432851911377814,"303":-0.096257402732537,"304":-0.09644517086918827,"305":0.046967839500335645,"306":0.028034178202519223,"307":-0.054442791142966455,"308":-0.15622799681533733,"309":-0.3094048112571745,"310":0.024337899901640085,"311":-0.23717206012537206,"312":-0.20032140308635282,"313":-0.08427761074409967,"314":-0.12655180661296156,"315":-0.08096812395145347,"316":0.1794134196482166,"317":0.03108633485692962,"318":-0.2869514150275993,"319":-0.12157630693954705,"320":-0.13882629569352647,"321":0.10740371528409846,"322":-0.038656839907963966,"323":-0.05541754338848336,"324":0.004653075068855369,"325":0.21071887961616748,"326":-0.04932830767328507,"327":0.12542319211761999,"328":-0.10737485355654827,"329":-0.027513590112511473,"330":-0.1898730122675105,"331":-0.11093900165784848,"332":-0.16363835981382419,"333":0.009502008077097975,"334":-0.16844321412164126,"335":-0.24214224612234628,"336":-0.059213710183796835,"337":0.19268215707225125,"338":0.2149465412484927,"339":0.31315219773297215,"340":0.112796486894099,"341":-0.0912471203126844,"342":0.01530524343566248,"343":0.06917208534590422,"344":0.11787168261784764,"345":0.0023004806690839056,"346":-0.02078689898539984,"347":0.11039695543822495,"348":0.06178557184342771,"349":0.06537413204615344,"350":0.0775916860519927,"351":0.23043804759141975,"352":0.08446071246429311,"353":-0.024862687648418084,"354":0.14811406921134612,"355":-0.044782516604827016,"356":-0.16320227735137624,"357":-0.1393922831134639,"358":-0.07823726727323248,"359":-0.23310762820179418,"360":-0.1275577021687556,"361":0.3539181601403333,"362":0.23535201083235863,"363":0.21033918523922016,"364":0.050395335607907286,"365":-0.016340449740240594,"366":-0.09290940711241553,"367":0.16698489669166042,"368":-0.20539204934199318,"369":-0.002100289545554723,"370":-0.215963019068459,"371":-0.047137529986533526,"372":-0.1443806083292399,"373":-0.044811037720865234,"374":0.06039020088248894,"375":-0.12391496391136106,"376":0.08528839647619231,"377":0.05836565601229656,"378":-0.1933174693663462,"379":0.12681914264788727,"380":-0.20675967550956398,"381":-0.011027990790746673,"382":-0.030365816750558907,"383":0.0070540787018144166,"384":0.1711627585714837,"385":0.23848387864799148,"386":0.1575301790203042,"387":0.0863232381629557,"388":0.08326637601338052,"389":0.17245979243764153,"390":-0.21916790881652862,"391":0.10958175281514593,"392":0.05255465559463137,"393":0.07583854971685344,"394":0.10993890138062232,"395":0.1333987426316738,"396":-0.05623879259828398,"397":-0.08942555298789634,"398":-0.1227524691588492,"399":0.05009971322877318,"400":0.14817750441339725,"401":0.061319758428012065,"402":-0.019761124483154827,"403":-0.0013795861749637316,"404":-0.11858557749025424,"405":0.18472730218687985,"406":-0.15410466388592423,"407":-0.04986749350291348,"408":0.11880920863742601,"409":0.11367261933942067,"410":0.17498541427521058,"411":0.194535267360477,"412":-0.05134581038552514,"413":0.11509001005150644,"414":0.1693310317060853,"415":0.17360145978978395,"416":-0.17589149482779437,"417":0.14089335209527393,"418":-0.10022889532997348,"419":-0.17965905062595217,"420":0.2460122825220401,"421":-0.018053740072771832,"422":0.12578992246737694,"423":0.14252948389404302,"424":0.15408346050423455,"425":0.13465377193012693,"426":0.11299623933060782,"427":0.2045267903810974,"428":0.16595985590049447,"429":0.0766256909165192,"430":-0.1282097325724856,"431":0.10561083724372174,"432":-0.05722455487683927,"433":0.2614946481858051,"434":0.07974636505626949,"435":0.18516488167310013,"436":-0.11836403942737508,"437":-0.043972714069444994,"438":-0.022792708281355524,"439":0.01814967475764455,"440":-0.08815455913884096,"441":-0.15566022151564327,"442":0.07871875379034478,"443":0.15614404549461297,"444":-0.0667990144423144,"445":0.12130492212494862,"446":0.08675128789660581,"447":0.15273721502879262,"448":0.20417415770384803,"449":0.11855204084469781,"450":0.06426410172085112,"451":0.12796828958478446,"452":0.08191752411782857,"453":0.019886491223446413,"454":0.04630865569179753,"455":-0.12306085190476446,"456":-0.009461110752596036,"457":0.1105179410279146,"458":-0.09995041825129415,"459":-0.18056609155518497,"460":0.04017784071855088,"461":-0.11407143299962492,"462":-0.13385084907964648,"463":0.054936283483326694,"464":-0.08963676766846926,"465":-0.18706813213589873,"466":0.0900958850202277,"467":0.04053557734081955,"468":0.16386445931286658,"469":-0.12102972339753754,"470":0.12243985198874334,"471":0.11666616489443363,"472":-0.084463405761353,"473":0.06508291359567622,"474":-0.1298824544458302,"475":0.1882200323296188,"476":0.020291505434355463,"477":0.15883390341071613,"478":0.12397744286006393,"479":-0.0007004835357931356,"480":-0.13640407861984913,"481":0.021125950938342433,"482":-0.026758016479604522,"483":0.1697421070725802,"484":0.015982433473816914,"485":0.14647812671507765,"486":-0.05106538656491327,"487":-0.04451953432220649,"488":-0.04369070497445278,"489":-0.17146478023903775,"490":-0.14931933717668822,"491":-0.16876287456285974,"492":-0.17438809551081,"493":-0.2299831707782308,"494":-0.0864543527019339,"495":0.04795707508361027,"496":-0.022825545442709084,"497":-0.0006083457861432727,"498":-0.09329265705255818,"499":-0.09183584518425854,"500":0.06562038392013003,"501":0.10143762588677495,"502":-0.18198838056213595,"503":0.10733821935996063,"504":0.20080466733688712,"505":-0.1175608095495247,"506":0.12809127859717429,"507":-0.1261474911201171,"508":-0.2672737094989641,"509":-0.05603803506208288,"510":-0.09992832586221105,"511":-0.23119362819964914,"512":-0.14749516790999087,"513":-0.1381105766309112,"514":-0.018283938563130906,"515":-0.04643246503777979,"516":-0.13070756923642593,"517":-0.010131062768267144,"518":-0.18501645887593118,"519":-0.20491165752967044,"520":-0.006127116319654116,"521":-0.1279143981957796,"522":0.04156697303925868,"523":0.21374650102211318,"524":-0.0131308577504851,"525":0.2543801076187206,"526":0.054677722253784984,"527":-0.12051959051130644,"528":-0.3256641330674452,"529":0.06834099528875533,"530":0.15062882161129393,"531":-0.03779658081335944,"532":-0.27943867976738274,"533":-0.03516087686004971,"534":-0.18812124946970352,"535":0.05456048922515254,"536":0.1317099783040952,"537":-0.19406044536605746,"538":0.13901389215864732,"539":0.08687245068021456,"540":0.06004005854864727,"541":0.07168003355884976,"542":-0.024027363294079392,"543":-0.09671000842059746,"544":-0.033288127913786804,"545":-0.19972985122705067,"546":-0.14004981086459428,"547":0.039069171347315815,"548":0.10799454457987942,"549":0.12141209203890117,"550":0.03601679312677274,"551":0.18259210195585016,"552":-0.3373062342933377,"553":-0.21746207145855706,"554":-0.007768670135958299,"555":-0.21515698235665276,"556":-0.06445664350203556,"557":-0.4214721265360653,"558":-0.23700832790605653,"559":-0.2523662124875612,"560":-0.25062389379177835,"561":-0.11509518285589049,"562":0.04189547217468421,"563":-0.10550699426220826,"564":-0.09219848503225157,"565":-0.1090645125019521,"566":0.06491504321371297,"567":-0.16648976189036108,"568":-0.2499631055812264,"569":-0.10534873197233327,"570":-0.1290130342471239,"571":-0.07478475891104179,"572":0.1543638690038824,"573":-0.0886548817347583,"574":-0.2423105668015496,"575":-0.03929823308621877}},"1":{"bias":-0.13785982635049046,"weights":{"0":-0.036831676844842405,"1":0.10471038640290459,"2":-0.2228355956229373,"3":-0.10570498276966886,"4":-0.15411747346871146,"5":-0.0466372268879296,"6":0.15855325894301708,"7":0.22388940379362068,"8":-0.07003776191585484,"9":0.1213137066604011,"10":-0.1795737249957844,"11":-0.1546104179569839,"12":-0.1427208119243339,"13":-0.10829328451867085,"14":-0.14544704946545742,"15":-0.331016669788236,"16":0.027441752980085693,"17":-0.16720551442743817,"18":-0.03512483158019192,"19":-0.28400852455447695,"20":-0.045820037141598345,"21":-0.34317205139097995,"22":-0.20130527220661043,"23":-0.31894848672718873,"24":-0.0345773827788365,"25":-0.07936801571799156,"26":-0.10495538483595439,"27":0.22750325137187377,"28":0.2642818296149437,"29":0.16354077459766073,"30":0.07724536164647336,"31":0.23322660336228995,"32":0.24334378287934536,"33":0.14970209968060388,"34":-0.045115492513120414,"35":-0.07381323226181043,"36":-0.1654194789837478,"37":-0.23216343102518722,"38":-0.022778201086611563,"39":0.0935677037051347,"40":0.2267549333093663,"41":0.2887809983560246,"42":-0.04956451254794502,"43":-0.16417186654877577,"44":0.23325683777832368,"45":0.2194336081365337,"46":-0.18511361505351542,"47":-0.01216366564667156,"48":0.016239728604436617,"49":0.2892562867667676,"50":-0.015551508517752307,"51":0.3066506812533785,"52":-0.10138762358674623,"53":0.1706944150068474,"54":-0.018187476702352347,"55":0.04670078144370381,"56":-0.023685715236964788,"57":0.14060972400604319,"58":0.08516389376104222,"59":-0.18499147176193467,"60":-0.12013681297856348,"61":-0.20299261957291884,"62":-0.2276673266053431,"63":0.05824857841709719,"64":0.05617744885563428,"65":0.3484391297727209,"66":0.11266637345759802,"67":0.18166255948308566,"68":-0.004898700984485288,"69":-0.18954909960202063,"70":0.13104617199248642,"71":0.04253321223051878,"72":0.12990840138664345,"73":0.006353899811854536,"74":0.026252026734871453,"75":0.08805482091525897,"76":-0.029131401328433504,"77":0.05698999340612212,"78":0.025366876087444,"79":-0.10757980292493709,"80":-0.18481838508488907,"81":-0.10288910058655344,"82":0.0823592985713311,"83":0.06305214352735664,"84":0.03481778982576965,"85":0.048465769275144746,"86":-0.12633515151199148,"87":0.03711597880091435,"88":-0.031325856641255506,"89":0.201264923441535,"90":0.14122137057629316,"91":0.19228001172186782,"92":0.13398541043843118,"93":0.13413120790251115,"94":0.04941135722972288,"95":-0.10109198228234333,"96":-0.12345449177860061,"97":0.2405046515410701,"98":-0.05272229198994483,"99":0.039245229176736125,"100":0.1440296519993826,"101":-0.19417279812233873,"102":-0.041164113994847436,"103":-0.2088936709250173,"104":-0.1214444254230818,"105":0.006422563775279359,"106":0.008772622168269753,"107":0.09956761704876528,"108":-0.004533619797129305,"109":-0.12045666393973856,"110":0.027061637594798016,"111":0.2304576332694522,"112":-0.0018036957979064084,"113":0.20516436974627228,"114":0.17348959762110386,"115":0.15839978967160825,"116":0.13578263478747116,"117":-0.12273242803424544,"118":0.03751519018912068,"119":-0.1855551019914298,"120":-0.25293614234244133,"121":-0.1707088317317108,"122":0.04154614355616635,"123":-0.15438122871393703,"124":0.16676935352042044,"125":0.18724896850669812,"126":-0.0008505179500862227,"127":0.13238141004747425,"128":-0.2512463750280089,"129":-0.18372813691894443,"130":-0.19972282834941654,"131":0.1267819396068153,"132":0.06252311631324979,"133":-0.14306995560874802,"134":0.05120759907727664,"135":0.18954180611870555,"136":0.10103846305486004,"137":0.21047500296846974,"138":-0.08421563433764089,"139":-0.0008255033405975736,"140":-0.08578140215937921,"141":-0.058604479102062026,"142":0.018916146561765834,"143":-0.20632458938981274,"144":-0.16535562835937806,"145":0.15654289917111272,"146":-0.19246756087039965,"147":-0.02077468690371014,"148":0.18383594194010808,"149":-0.04920425734471128,"150":-0.0007718920369312134,"151":0.007158971814181836,"152":0.10864229336957966,"153":0.0468337875598706,"154":-0.03768841266046181,"155":-0.10684349815265719,"156":0.028318174170189937,"157":0.1308414955915386,"158":0.03934153110119808,"159":-0.22924584348298785,"160":0.1722883166708535,"161":0.027385577039453882,"162":0.08437240863472176,"163":-0.14730547105960917,"164":-0.001289690713827875,"165":0.13959589438424713,"166":-0.13875998534429487,"167":-0.24453301693683993,"168":-0.09494812830710253,"169":0.11235217015159801,"170":-0.2907592907897959,"171":0.022476065045778305,"172":0.036917127428665805,"173":0.0342321032217037,"174":0.1764291347490151,"175":0.03128411854052184,"176":-0.12427124863239725,"177":-0.07624504110584916,"178":-0.10014695924134676,"179":-0.14120431626333327,"180":0.17763001598233835,"181":-0.009335427631900959,"182":0.28439961375433276,"183":0.1599606457264238,"184":0.22915404677210313,"185":-0.07983632088352709,"186":0.025699870965229254,"187":-0.12444477217141489,"188":0.2081386179008661,"189":0.012892277914302173,"190":0.012488405024460011,"191":-0.1981256396117189,"192":0.19521465418093045,"193":-0.16184183941162286,"194":-0.021274545620989124,"195":-0.16148968568337327,"196":-0.07483849391603462,"197":0.02766573207191917,"198":-0.12178191158408616,"199":-0.045320038039174504,"200":0.010469455587732395,"201":-0.176508166254808,"202":-0.13812899608630502,"203":-0.1317366999561833,"204":0.24608373728125676,"205":-0.04169378658385097,"206":0.04526688031676911,"207":-0.05120537061163043,"208":0.1372781756540518,"209":-0.07713299532115529,"210":0.009242252494513773,"211":-0.16490297550956262,"212":0.14512417782446485,"213":0.24724376789448724,"214":0.223541369007338,"215":-0.03485970231910682,"216":0.123246996032885,"217":-0.1488741069161402,"218":-0.19656856033212602,"219":0.12419131794611446,"220":0.03994446751167701,"221":0.09901734762945852,"222":0.06560606652142723,"223":-0.2250967880558435,"224":-0.0357432162385746,"225":-0.054464957574329655,"226":-0.12401695376134483,"227":-0.016611865474293552,"228":0.12488239775550893,"229":-0.12678977595143057,"230":0.05901485262835879,"231":0.04003308068106059,"232":-0.1487900492715427,"233":0.2559947736342919,"234":-0.21631106363904884,"235":-0.12923057175756716,"236":-0.02804175872208944,"237":-0.07782483954851434,"238":0.12234344428344562,"239":0.15905872067640414,"240":0.21853453028581257,"241":-0.12075585313337697,"242":0.1374095534251826,"243":0.11147322065443634,"244":-0.01792645519630718,"245":0.16430905033213475,"246":-0.08789766536023598,"247":-0.0998823250953431,"248":-0.0010691594045385317,"249":-0.18794350511930333,"250":-0.11696977111338945,"251":-0.02719018616502506,"252":0.16048129867922403,"253":0.1123611548074869,"254":-0.1671505684044065,"255":-0.05101439828937744,"256":0.2271139210909124,"257":-0.011903065414518247,"258":-0.14685395267929946,"259":-0.1144594072410829,"260":-0.145173755960458,"261":0.06254084516660881,"262":0.10913212145600737,"263":0.20941404659242374,"264":-0.1330060278316747,"265":-0.08794195603151178,"266":-0.021455909033369466,"267":0.060968950634611135,"268":0.06357389589342756,"269":-0.05681926685024459,"270":0.16753582860759605,"271":-0.04426190684977778,"272":-0.21608667805041049,"273":-0.2640814880898577,"274":0.10638197562248224,"275":0.08168894346973282,"276":-0.025996609311868563,"277":-0.14166143634956888,"278":-0.006553457798218608,"279":0.15419523655043957,"280":0.11230665364820074,"281":0.10401760998984903,"282":0.06994052999988297,"283":-0.02055654579325577,"284":-0.05006160212269511,"285":-0.1163270392068537,"286":0.18937177878208566,"287":0.15475404383525215,"288":0.24849918467260687,"289":0.17437107006340677,"290":0.14343462636811954,"291":-0.0753754713523722,"292":-0.022856784965010854,"293":0.21982752358631966,"294":0.009799486214602094,"295":-0.09786182068565107,"296":0.05899488625952982,"297":0.1463291356566119,"298":0.07549549311145058,"299":0.3215286241834334,"300":0.23255611623926506,"301":0.14498753329912795,"302":-0.11150076279682533,"303":-0.06425032709203018,"304":-0.11830444819218783,"305":0.00908343274473108,"306":-0.032677157527081065,"307":-0.12438377226966922,"308":-0.06719578869816774,"309":0.025669803237548073,"310":-0.0016267698685374582,"311":0.11843234059361568,"312":-0.00832339545755553,"313":-0.14726824805139838,"314":0.07453713759542253,"315":-0.22195335701465035,"316":-0.1134002578633625,"317":-0.09944031896332158,"318":0.08996935118680711,"319":-0.061554209674539964,"320":-0.2544209952370385,"321":0.04288784877094027,"322":0.24896876052189648,"323":0.186214947374724,"324":-0.06273747386724442,"325":-0.13496867613085065,"326":0.14049714906671681,"327":-0.03711632004888639,"328":-0.2440797342445479,"329":-0.007535974704620757,"330":0.09530594979779977,"331":0.1575212721855775,"332":-0.0370342496903456,"333":-0.1471209600994493,"334":0.15390652532663776,"335":0.0015641998146999063,"336":-0.12119413616175005,"337":-0.21574577325386607,"338":-0.2208445443136752,"339":-0.22908800944214308,"340":0.09804284351753127,"341":-0.17109638833408336,"342":-0.06816142678184889,"343":0.044126524690562496,"344":0.03348401521476586,"345":-0.14204125279453717,"346":-0.03154716312672955,"347":-0.1325428928957837,"348":0.0016090932795598844,"349":-0.010484633958532559,"350":-0.10353648259835675,"351":-0.38415850610096497,"352":-0.2925215914676895,"353":-0.1276929387761212,"354":0.14443878158636636,"355":-0.1872019451609981,"356":0.13712023093864162,"357":0.022952442395140292,"358":0.130219542983246,"359":0.15248139703428829,"360":0.003212661910392428,"361":-0.33496042835105316,"362":-0.23363300871841958,"363":0.06612599817658427,"364":-0.16364612015767585,"365":-0.256791117587718,"366":-0.0343831448850816,"367":0.008277525668490123,"368":-0.16779003327728464,"369":-0.03359927741161517,"370":-0.2646951012089899,"371":-0.021932712287973964,"372":0.1054796405385281,"373":-0.1808562324671719,"374":0.07697157416213876,"375":-0.23259572153224323,"376":-0.12974708469766755,"377":-0.10222147315969657,"378":-0.0918115484917236,"379":-0.05443992656751358,"380":0.17201265394886195,"381":0.04202886902923137,"382":0.32687548889967494,"383":0.17350678442775586,"384":0.15634758195983633,"385":-0.11366145957532353,"386":-0.05169128430897404,"387":-0.06845839944722033,"388":-0.0739335135710259,"389":-0.18288392950661156,"390":0.042329864252660464,"391":0.04238427377452651,"392":-0.13772997334130369,"393":-0.23744112027339329,"394":-0.22417518125317243,"395":-0.35012526705102204,"396":-0.24759121197760622,"397":0.06545310672575054,"398":-0.10680212539560945,"399":-0.03703556011651912,"400":-0.1789146526539656,"401":0.1805768412707113,"402":-0.10090774417776707,"403":-0.14329855316463783,"404":0.1099759632246529,"405":0.07751063462717125,"406":0.23557597184126208,"407":-0.008016979803479329,"408":-0.014499271422824256,"409":-0.28449588927047065,"410":0.005709282616300606,"411":0.0970905495835295,"412":0.0597819383320172,"413":-0.1654553922924211,"414":-0.06904840301447378,"415":0.09522839455529519,"416":0.018191427714304324,"417":-0.19504333175421143,"418":-0.06730274052416449,"419":-0.03987899873539807,"420":-0.03311575230766374,"421":-0.006753779627263455,"422":0.11166817041845571,"423":0.05387448565636696,"424":0.053714064922956814,"425":0.1586408367314855,"426":-0.025928153695725306,"427":-0.16556140295346483,"428":0.020868025888457615,"429":0.14144984577230532,"430":-0.13681791540197072,"431":0.0895589509190805,"432":0.16949313185110887,"433":-0.11687986800409071,"434":-0.1240043589229681,"435":0.14947568694846514,"436":0.027492913622530462,"437":-0.12915324945808998,"438":0.1263169827432079,"439":0.12075263608516933,"440":-0.1446415607991816,"441":-0.29146589530803585,"442":-0.042902600508154955,"443":-0.042181102211791305,"444":0.0232794851029473,"445":0.15813718570379465,"446":-0.0777618990240976,"447":-0.16158648993962998,"448":0.21892354165847944,"449":0.014740811191032786,"450":0.011415434648618484,"451":-0.013228686599730984,"452":0.04272022526714412,"453":-0.11481463982831211,"454":0.01707758755983385,"455":-0.1962114908934221,"456":-0.09203215844394193,"457":0.05102563419182869,"458":0.08470397508834736,"459":0.09900838827802706,"460":0.011078844755031028,"461":-0.08630592850792013,"462":-0.06394804668392773,"463":-0.12913347824368696,"464":-0.10672415170904523,"465":-0.3118639817949767,"466":-0.11772324199714934,"467":0.07348361755308748,"468":-0.11576085047912657,"469":-0.0900116894511319,"470":0.19021672413904575,"471":0.147556057170098,"472":0.08333744504219791,"473":0.08800486226568548,"474":0.1076984177094122,"475":0.18114378324669148,"476":0.1533797541130743,"477":0.24801578174461766,"478":0.03079078113572868,"479":-0.03493967994453989,"480":-0.18873733863314707,"481":-0.11465205932199414,"482":0.01032982214734865,"483":0.07955298444124473,"484":0.1341994798475512,"485":-0.18778964322024813,"486":-0.08242578717836958,"487":-0.1100624030278494,"488":-0.06562047498127735,"489":-0.11952915881227687,"490":0.08308090189295714,"491":0.07440141365028675,"492":0.0053136456045281616,"493":0.16000108679114655,"494":-0.08271909528758359,"495":-0.05348374653655501,"496":0.17800708911155486,"497":0.06917073278040071,"498":-0.03708218289332544,"499":-0.001166333629794713,"500":0.10807443493460876,"501":-0.06085466665596767,"502":0.13203621684893638,"503":-0.1432764056663933,"504":0.12760635700714174,"505":0.11190649036102386,"506":0.04436579267858404,"507":-0.022640648157055188,"508":0.05127067459518293,"509":0.06688046609458462,"510":-0.11930636175220373,"511":-0.10041203516218532,"512":-0.1855258554669235,"513":0.007868759492520775,"514":0.023836855204285745,"515":-0.24001217532313873,"516":0.10271699515726515,"517":-0.06684856910789004,"518":0.049362283430785386,"519":0.0594427900961807,"520":0.1118134154871592,"521":-0.017852462109127876,"522":-0.1057454840467751,"523":-0.06948389737447186,"524":0.15813991742763367,"525":-0.008958913890329614,"526":0.19064860227322303,"527":-0.07316889240473824,"528":0.06914092798758642,"529":0.02524439465575211,"530":-0.1624931174886378,"531":0.1974675123744682,"532":0.17921076836592525,"533":-0.05804648753742204,"534":-0.2963231942776384,"535":-0.2727152902836232,"536":0.05552882560442347,"537":-0.12495806543923306,"538":0.08172122972988566,"539":-0.21312792322244792,"540":-0.30353190612841574,"541":-0.000004071433510682392,"542":0.08262650883550836,"543":-0.21009729752353495,"544":0.08427710828912759,"545":0.13736315658191897,"546":-0.16858571503281974,"547":-0.08593434697902234,"548":-0.052898067976260336,"549":-0.12216039154052191,"550":0.11569787916749284,"551":-0.14865741125195514,"552":-0.06525997784248523,"553":0.23903629393616785,"554":0.19066983263575293,"555":0.05035636568870238,"556":0.08987927011039148,"557":0.026137563953681,"558":0.015441236177476768,"559":-0.20737223707987448,"560":-0.03831832838452461,"561":-0.0662721123276533,"562":-0.091155795161769,"563":-0.06091226576635692,"564":0.04818544418873181,"565":0.03062449203454668,"566":0.1588423996599159,"567":-0.04705805237978507,"568":-0.14615158426594205,"569":-0.13176372869922293,"570":-0.2691376396528674,"571":-0.22582481097050247,"572":0.09567003483588359,"573":0.11614043337010041,"574":-0.27152589726204296,"575":-0.2749485048837129}},"2":{"bias":-0.08624677933353918,"weights":{"0":-0.13505620031236085,"1":0.06575527177750963,"2":0.1669885017902652,"3":-0.09287959182333631,"4":-0.0504195041917809,"5":-0.1942831927700893,"6":-0.03003511964057258,"7":-0.015322222151359158,"8":0.2995585683443537,"9":-0.0021132733073722034,"10":-0.022272429340618457,"11":-0.21980188270214934,"12":0.053840231592399014,"13":0.18887781449303348,"14":0.19143275782447902,"15":0.11399839245365578,"16":0.10405226607539458,"17":-0.2680883604197286,"18":-0.12785805783743528,"19":0.14634058516193435,"20":-0.14607991645477303,"21":0.05044947303892763,"22":-0.241371452243056,"23":-0.054859936821505015,"24":-0.018556790458506923,"25":0.0987954552817743,"26":0.035702322637055695,"27":-0.2422230057629966,"28":-0.02601496317074239,"29":-0.12770248259056272,"30":-0.08122034715120693,"31":0.007953951341547796,"32":-0.007434459397519897,"33":-0.04106386481083566,"34":0.14953828285208623,"35":0.16904759394831242,"36":-0.1526615941095099,"37":-0.11837090556020742,"38":0.06180320839349051,"39":-0.008091654219916316,"40":0.15846634802848483,"41":-0.11803715350368563,"42":-0.2174795379824164,"43":0.13215670499031018,"44":-0.2627934170040857,"45":-0.20632003264793694,"46":-0.21721190052919717,"47":-0.13988450952298342,"48":-0.09671801236070464,"49":-0.15097374260374063,"50":-0.18533302964893553,"51":0.14262543221717086,"52":0.13397390702085077,"53":-0.20363101652148757,"54":0.21895796944699472,"55":0.18747350150454953,"56":0.07706184191390075,"57":0.16324532526803306,"58":0.04833023960376864,"59":0.050926678882104344,"60":0.18175987038382385,"61":0.09463339912564994,"62":-0.006828490899446484,"63":-0.25170236249138805,"64":-0.1461111005317455,"65":0.07308107285723629,"66":-0.13203532552311148,"67":0.09620129762762672,"68":0.10158371324036848,"69":-0.13054520046062643,"70":0.00491580961837274,"71":0.14283496916656027,"72":0.1583624329951294,"73":-0.006916400857682018,"74":0.058749410393400696,"75":0.12846760131448634,"76":0.15172772698407172,"77":0.15447292494748543,"78":0.2516257582337703,"79":0.08259790695408667,"80":-0.13924061420256637,"81":-0.09444863250376191,"82":0.06829324696504498,"83":0.1020277127892389,"84":0.18129174477371385,"85":-0.14261696800940765,"86":0.01382270223476416,"87":0.1362374924757616,"88":-0.20981157766068492,"89":0.08383461185844976,"90":-0.1611211015970868,"91":-0.162069647560854,"92":-0.03477675763680764,"93":0.06786530878624959,"94":0.18358333260597243,"95":0.2720754383830205,"96":-0.12457480080927148,"97":0.1806842454210508,"98":-0.0962820817441552,"99":0.26597821119204557,"100":0.12501472699294514,"101":0.2831997714362231,"102":0.12614798676945352,"103":0.020711254780230875,"104":0.1118151682752455,"105":-0.10710113225513325,"106":0.09434838271600536,"107":0.010649799222277821,"108":0.05294479176966266,"109":-0.09426297509578464,"110":0.10129437341491696,"111":0.19758489445230598,"112":-0.0003819087724374594,"113":0.0337812463925832,"114":0.15257576117399463,"115":0.2067152006409309,"116":0.03328325538169478,"117":0.05363937491824527,"118":0.235606044079278,"119":0.21033566225996936,"120":-0.10951468821453793,"121":0.15621140173162967,"122":0.1604484051218901,"123":0.11979943071931,"124":0.06737909906729604,"125":0.15949820368991952,"126":0.02537683072843773,"127":0.09111435516566847,"128":0.29776018586970715,"129":0.09701358360724066,"130":-0.08938784524819342,"131":0.06906541643099268,"132":0.09236841264644652,"133":0.19786687390639426,"134":-0.08887912354158205,"135":-0.29911678875125547,"136":-0.08545830816963033,"137":-0.21084637833368935,"138":-0.18835516122462712,"139":0.13040687959946098,"140":0.16179979652569718,"141":0.0876807935008852,"142":-0.1989562887296858,"143":0.21470957063182552,"144":0.1777057893510972,"145":0.1998867999076224,"146":-0.053781617490452585,"147":0.14136627508250948,"148":-0.07687835934687191,"149":-0.14988138460046285,"150":0.2623263998891214,"151":-0.0556254449416657,"152":-0.0360187059977341,"153":-0.14159639610515717,"154":-0.20645007522660275,"155":-0.2304264792444667,"156":-0.15807672409395146,"157":-0.11052863377608993,"158":-0.1832832721852862,"159":-0.04099389205220975,"160":-0.059769248275657,"161":-0.1370621780077482,"162":0.18784431782292915,"163":0.06107835751162838,"164":0.10042882547137788,"165":-0.06279875171372522,"166":-0.0014470098757971496,"167":-0.13213103498607592,"168":0.00990565672230174,"169":-0.21497228442301075,"170":-0.03767316111756698,"171":0.21610054372332263,"172":0.08891738341203445,"173":0.18394123879080515,"174":0.14329112659879945,"175":0.13872274476164276,"176":-0.14969304051104504,"177":0.010472456289422833,"178":-0.2858649182746501,"179":-0.10115761970708838,"180":0.055753140696758755,"181":-0.10029550407009034,"182":-0.13598124442859336,"183":-0.1292311222770177,"184":0.08571200987271493,"185":0.10328872492093898,"186":-0.08153360241779582,"187":-0.12058557735101437,"188":0.21886762239711113,"189":0.10076470407305885,"190":-0.033469296938096374,"191":0.1192065477686887,"192":-0.004251683123694766,"193":0.09908690329862746,"194":0.04947940997301612,"195":-0.079051157491089,"196":-0.08076267689795974,"197":-0.06424731361265627,"198":-0.006827486147639455,"199":-0.24824095262195855,"200":-0.11784561902185564,"201":0.09570105670857972,"202":0.15712866569397566,"203":-0.1589400178444158,"204":0.09998652632061085,"205":-0.12944003105739643,"206":0.018097820463191056,"207":-0.195464035399063,"208":-0.2675785959652279,"209":0.00046262027960090413,"210":0.050010040230636654,"211":0.19633518184264592,"212":0.014950211186481464,"213":-0.12639430088955086,"214":0.20347831955194073,"215":0.042498913184626314,"216":0.00824123652643224,"217":-0.08508667892283434,"218":-0.12893058747445457,"219":0.15977562184931882,"220":0.24619665283751763,"221":0.22242161811002295,"222":0.15525750475722905,"223":-0.06277395159898987,"224":0.11898879952831824,"225":-0.13566708276344316,"226":-0.021305872835481528,"227":0.07341401010153767,"228":0.11194418230637661,"229":-0.16138608153198347,"230":-0.18244086645177449,"231":-0.2466962003308105,"232":-0.2097291851992756,"233":0.23130471731099905,"234":0.14727174908893517,"235":0.026119964883226324,"236":0.2001843809086229,"237":0.029532136161994495,"238":0.26273995301219294,"239":0.21572062344554918,"240":-0.0939347592350698,"241":-0.05360946345673272,"242":0.011794093874471735,"243":-0.0839777056050423,"244":-0.0016399711431998479,"245":-0.033892884743159005,"246":-0.13175220891478948,"247":0.07792547184314272,"248":-0.06906885976827483,"249":-0.13152299895506112,"250":-0.09192825751279592,"251":-0.05334363202527322,"252":0.10927866193908181,"253":-0.12131215891470318,"254":-0.06344371644852097,"255":-0.10818930923761796,"256":0.15478515538486248,"257":0.1153659561610931,"258":-0.12844056490018912,"259":-0.085780730072341,"260":-0.12460710785005022,"261":-0.010849569427591108,"262":0.17479847128817042,"263":0.05869216870521269,"264":0.11617635995183824,"265":-0.07106786133712364,"266":0.125003665577073,"267":-0.0877558119377266,"268":-0.028096276469244282,"269":-0.10773258781742757,"270":-0.005972564658750651,"271":0.21020963236002782,"272":0.14408191718066263,"273":0.03612533754889601,"274":-0.12295153558507692,"275":0.011756351996972387,"276":-0.01520319126196954,"277":-0.009231540031870539,"278":-0.09542841818643309,"279":-0.05881475382344749,"280":0.06705655765070426,"281":0.16731985334782548,"282":0.20469891186307196,"283":0.25063520895997005,"284":0.1769530251578162,"285":0.12174221316333234,"286":-0.11470484928686622,"287":0.24848998474499145,"288":-0.21522076683983807,"289":-0.011356077906914957,"290":-0.11741671175297698,"291":-0.1257693189703108,"292":0.14713320448026693,"293":0.19376462588377086,"294":-0.16305910335689475,"295":0.1618892714098559,"296":0.020983804503104858,"297":-0.19799838411104967,"298":-0.09105180759778037,"299":-0.1599751351915822,"300":-0.03717613482054484,"301":0.053998463656308386,"302":0.06021807412593084,"303":-0.08607456980496937,"304":-0.02566317658161587,"305":0.2393749603002863,"306":0.2838030621662885,"307":0.08456488436817186,"308":-0.044040407611865624,"309":0.2515920948865565,"310":0.1029234317440138,"311":0.2850796915515644,"312":0.18424544471660526,"313":-0.09511034722958142,"314":-0.18798372022105772,"315":0.10080825725292594,"316":-0.006873515273983341,"317":-0.16559850435959061,"318":0.14582336165037485,"319":-0.10416217505705444,"320":0.04894132536453717,"321":-0.14509439211167172,"322":-0.17236202541634207,"323":-0.003878564346634583,"324":-0.23887153777750506,"325":0.1428666547154676,"326":0.16271362745949963,"327":0.1842742495311361,"328":0.10311742212535319,"329":0.20966815495243915,"330":0.168964668143321,"331":0.18333113714335011,"332":-0.12959219452373577,"333":0.306341931747919,"334":0.1439705302013603,"335":0.3082743709798183,"336":-0.20684301757682413,"337":-0.10875398798543671,"338":-0.2634290898551911,"339":0.10319775213051474,"340":-0.14639115623138502,"341":0.04807186832011685,"342":-0.20093707603430946,"343":0.08924869605250765,"344":0.2179886941837336,"345":0.12157882189455119,"346":-0.012336508822344015,"347":0.08894442645442954,"348":-0.01614137436002522,"349":-0.1013476651552448,"350":-0.08147660753228438,"351":-0.020555455634457872,"352":0.2409142321923439,"353":0.021100976164195772,"354":-0.05191128084097431,"355":-0.04899913609410047,"356":0.10916916710873668,"357":0.029079951733554404,"358":0.1827074456444727,"359":0.1882168852649061,"360":-0.15806691982692583,"361":-0.08368329664798933,"362":-0.26585735355909795,"363":0.007097809524557253,"364":0.08555295859397341,"365":0.025467042782867995,"366":0.0017607732732675407,"367":-0.049880502168647756,"368":0.19898913584513395,"369":0.21902456563592496,"370":-0.04126717429369786,"371":0.14097293902643618,"372":-0.03175633463325399,"373":-0.1395121324795382,"374":0.12901138936653198,"375":0.1879125398458651,"376":0.2116766985957688,"377":0.13638469490331837,"378":0.2637460608066508,"379":0.018505580975754533,"380":0.053707545408646924,"381":0.3326347258749659,"382":0.08416532419834036,"383":0.3649073606342223,"384":0.09119456704261131,"385":-0.2637651127533269,"386":-0.0404058947847203,"387":0.15757163868084476,"388":-0.06023822628053715,"389":0.07551467305725768,"390":-0.11164340723512181,"391":0.19333683945041136,"392":0.1329663873200338,"393":0.01459545563126736,"394":0.09079166721338587,"395":-0.09297713355749544,"396":0.1512848598762859,"397":-0.09385287614124513,"398":-0.03835883705159145,"399":-0.1357876341490768,"400":-0.054568936675945,"401":0.01298840871970449,"402":0.018396635610666807,"403":-0.061513371889888854,"404":-0.17804093793080655,"405":0.24212883097897542,"406":-0.07387216122168244,"407":-0.06564150699268632,"408":-0.11093744069524707,"409":0.132879066720653,"410":-0.16193947433506892,"411":-0.1857748794154842,"412":-0.17556078755324028,"413":-0.062066126115800646,"414":-0.041027066197957505,"415":-0.046153213595654614,"416":0.1542597499734086,"417":0.31362184549857497,"418":0.13129664737713864,"419":-0.17173736699348208,"420":-0.09235988625860281,"421":-0.0029683900420645402,"422":0.15433291261309964,"423":-0.027766745918198117,"424":-0.032887289900842116,"425":-0.06117859117520759,"426":-0.003906166911079494,"427":0.033479541463651334,"428":-0.06404158841429397,"429":0.07409545568287232,"430":0.24475961725454262,"431":-0.1088486204001381,"432":-0.12914017183408882,"433":-0.10184166707097558,"434":-0.0024291782925984643,"435":0.02037976389969866,"436":-0.12658678393402523,"437":0.11226207888072903,"438":0.09751563929771465,"439":0.07609170456948516,"440":0.1131678533267907,"441":-0.10525560345793315,"442":0.016264049778297887,"443":0.1300329126841295,"444":0.05298177161248332,"445":-0.010998445156536526,"446":-0.18350446589092098,"447":0.09312200271568305,"448":-0.03336610214915635,"449":0.1811633533493207,"450":0.06611508791228313,"451":-0.14692120414031473,"452":-0.02075400332330108,"453":-0.07095101281528007,"454":-0.06174469312001912,"455":-0.08971701134263471,"456":-0.08623498461721067,"457":0.07063681643965376,"458":0.17723539453947304,"459":-0.1429212608940927,"460":-0.1633231395834925,"461":-0.025469806654549263,"462":-0.16297001063750932,"463":-0.0482937051934152,"464":-0.1845102241257377,"465":-0.041631887253588434,"466":-0.17243783468210555,"467":-0.0655294411525847,"468":-0.06405025959685481,"469":-0.1919745658884656,"470":-0.14542015986386755,"471":-0.013194209157236066,"472":0.17921176987264564,"473":-0.017884573329655404,"474":-0.06510689122069982,"475":-0.1953572429151607,"476":0.0832399562058174,"477":0.10810573421230044,"478":-0.21749460297137413,"479":-0.01248709530835218,"480":0.06574517989314559,"481":-0.048428506309691574,"482":-0.06274343200914338,"483":-0.07080639098658192,"484":-0.14216550342299447,"485":0.13012416141423763,"486":0.15776065553669205,"487":0.01773369654884159,"488":-0.033092804294552504,"489":0.22591772500644472,"490":0.16548289700792504,"491":-0.1354722859529619,"492":-0.015079875269219549,"493":-0.1144051037951781,"494":-0.208716225555208,"495":-0.03994558226283393,"496":-0.08502842198069901,"497":-0.021900575408199636,"498":-0.057676235860947715,"499":0.19253393919689224,"500":0.14174991066405185,"501":0.030485240798753782,"502":0.21693578743008957,"503":0.07345581656807698,"504":0.021685274282607792,"505":0.10852430203878241,"506":-0.206225437193535,"507":-0.3300859580302212,"508":-0.1590802249538926,"509":0.13988314195455384,"510":0.00016099612048684723,"511":0.10063511192468787,"512":0.06592306310591536,"513":-0.13925647087523862,"514":-0.178970145424664,"515":-0.19259930774426126,"516":-0.12725509036427665,"517":-0.042019606141212855,"518":-0.2114439839390379,"519":-0.029709880349160465,"520":-0.26166281832347477,"521":0.051345742997591606,"522":-0.1629948514888615,"523":-0.018633905473637535,"524":-0.02376171984981178,"525":0.039416659835967205,"526":0.13193124800645667,"527":0.08897507549530703,"528":-0.0761902266719915,"529":0.059825235350780735,"530":0.009433206664456418,"531":0.18583505915103157,"532":-0.23291182372027402,"533":-0.2594614853089151,"534":-0.16599282830607073,"535":-0.11068032743822148,"536":0.08855784012684347,"537":0.04499771170607356,"538":-0.1189807621358194,"539":0.05444147528458905,"540":0.08365599618346148,"541":-0.20565731674220908,"542":-0.17415594576503857,"543":-0.2709139661913695,"544":0.03926064467238515,"545":-0.2601724605274595,"546":-0.020183689124354556,"547":-0.2842203970677286,"548":0.08683602557971126,"549":0.17189342802922125,"550":-0.19720179286482736,"551":0.03395007914629498,"552":-0.1484001154966552,"553":-0.15050258550796602,"554":0.013619590465228872,"555":0.009161476904554405,"556":0.2922671359859879,"557":-0.11836106500987532,"558":-0.12706031007015478,"559":0.1071738550251094,"560":-0.17986523207883492,"561":0.019945797395845236,"562":-0.20029908996873536,"563":-0.20819481813837631,"564":-0.12562220535233729,"565":-0.22499444665567167,"566":-0.06694843622763975,"567":-0.30227282265748934,"568":-0.07129829868384852,"569":-0.03434027092243426,"570":-0.017938605365184004,"571":-0.0902240675790951,"572":0.150659323523371,"573":-0.13511370491188332,"574":-0.03433550771176113,"575":-0.07091966927007547}},"3":{"bias":-0.1632216255894802,"weights":{"0":0.3291980556421231,"1":0.01761781212386217,"2":-0.07124921367240294,"3":0.07141076474280872,"4":0.2674875495913992,"5":0.19018251693996838,"6":-0.08291311506763485,"7":-0.020558906419779623,"8":0.0713571320868841,"9":0.0016964388633122372,"10":0.3260317996412086,"11":-0.05345903589724694,"12":0.029731438630894513,"13":-0.23388422737856415,"14":-0.016375238726021316,"15":0.1324162764981024,"16":0.009636409745515821,"17":0.30722312684967956,"18":0.09881907334681532,"19":-0.19743754082496812,"20":0.09427549583200667,"21":0.2123279524151751,"22":0.1610936410593694,"23":0.2292605419617142,"24":-0.08891466851839507,"25":0.1407707742006724,"26":-0.14873912974808648,"27":0.2939571496755569,"28":-0.014196495490313685,"29":0.14341925434196118,"30":-0.177125288563544,"31":-0.2494507030269366,"32":-0.09554416549973901,"33":-0.09035341286588251,"34":-0.19093637572881775,"35":-0.1246216471051609,"36":0.010877562115968006,"37":-0.28834150188491076,"38":-0.1729783831681172,"39":-0.20197259777751703,"40":0.20813188858080492,"41":0.04168831575994087,"42":-0.04941515338944727,"43":0.10426529185584393,"44":0.2706998193847135,"45":0.2152643064422052,"46":0.2745345597141945,"47":-0.05181907775456377,"48":-0.06133087176753346,"49":-0.06800178061995654,"50":-0.07732403212195572,"51":0.0940287969846866,"52":0.014662045973700542,"53":0.015208280648966547,"54":-0.11752667647629558,"55":0.06798060472508856,"56":0.06899892009610067,"57":0.03402807903257166,"58":0.1546082230599419,"59":-0.01668043891962645,"60":-0.3588745620740322,"61":0.038291510449186175,"62":0.0925451004681058,"63":0.015877500942627992,"64":0.007664550541583658,"65":-0.10056606186856262,"66":-0.18956067664277187,"67":0.0609936477589593,"68":0.12653934963434127,"69":0.2883667118812716,"70":0.2132408087788913,"71":-0.22841010127661324,"72":-0.012445130973106806,"73":-0.22656287916917925,"74":0.1633420734047965,"75":0.14747641544329462,"76":0.12417703003415971,"77":0.05371980922980477,"78":-0.07808218840485386,"79":-0.22666760882446613,"80":-0.09606146319788703,"81":0.04978965272210175,"82":-0.08655794113834041,"83":-0.1947080858622952,"84":-0.0693763356343511,"85":-0.2003784495173704,"86":-0.025139435880272832,"87":0.05211234658866382,"88":0.04610868735943058,"89":-0.19759642949580414,"90":-0.004424694439516066,"91":-0.07193687461680642,"92":-0.1375466358957163,"93":0.1000252950059226,"94":0.16905148935598938,"95":0.015224712162934495,"96":0.12674270897465265,"97":-0.06111103078193571,"98":-0.0849482726248345,"99":-0.01734546353507703,"100":-0.09384603370737765,"101":-0.1950088919853865,"102":-0.1557793673672984,"103":-0.10832200405176837,"104":-0.12365701103747387,"105":-0.2840805889112957,"106":0.03180839155703079,"107":-0.14776590802206957,"108":0.04174504400521546,"109":-0.012335990089392936,"110":-0.1286415345780931,"111":0.12241695488054967,"112":-0.11538280598674384,"113":-0.1237092584974717,"114":0.06115037591930557,"115":-0.009818814350910173,"116":0.11071445500319446,"117":-0.027581088103854488,"118":-0.2207951059948042,"119":0.08311361880688514,"120":-0.21847648089786176,"121":-0.206137678463492,"122":-0.1720999869387203,"123":-0.10490267546106061,"124":-0.0040502122031210045,"125":-0.2306063445878742,"126":0.052511609661505684,"127":0.10812270894861598,"128":-0.046056558807531796,"129":0.011022955218482245,"130":-0.1305089602121793,"131":0.02569984914947232,"132":-0.3275124002221793,"133":-0.27299279792341613,"134":0.12644272801545733,"135":0.2088749733499311,"136":-0.07152251691590318,"137":-0.007192830849870088,"138":-0.04366479384080759,"139":-0.09528214584182085,"140":0.14199722035997844,"141":0.10200008249985511,"142":-0.01601405081783125,"143":0.09423183966921385,"144":-0.2644738620729579,"145":-0.1996715039374058,"146":0.0054797169709313994,"147":-0.2020733710640812,"148":-0.0524403819872633,"149":-0.26259077891189403,"150":0.07677500749417011,"151":-0.13562080503664964,"152":-0.12315974271935168,"153":0.137617786465198,"154":-0.07300101044438886,"155":-0.2524748938236982,"156":-0.18143511943218735,"157":-0.009277777084402252,"158":-0.05252936483414435,"159":-0.12367759470203371,"160":0.30830806821531576,"161":0.21632847349404677,"162":-0.020758912859798303,"163":-0.03618169873862357,"164":0.014652164537406021,"165":-0.1310808397879456,"166":0.12011804625168458,"167":-0.22784474645241223,"168":-0.26230557630628626,"169":0.01519177351719623,"170":-0.1865276173867223,"171":0.01024726281950794,"172":-0.007335469513950353,"173":0.01836332665871653,"174":0.060536276984227644,"175":-0.11495494561759595,"176":0.22659283536031966,"177":-0.04359269002973832,"178":-0.09690847363846955,"179":0.017406716159904956,"180":-0.04882001799920484,"181":-0.10954128936174018,"182":-0.11747540641981782,"183":0.0620760778190797,"184":0.2006822803273982,"185":-0.0830523149255888,"186":-0.12271653291145636,"187":0.05643870593276993,"188":-0.1653891538819916,"189":-0.07904832178161862,"190":-0.08881863051897755,"191":-0.09316192683666372,"192":-0.024261523105149615,"193":-0.05058022542688197,"194":-0.07922639287683103,"195":0.029676066915825236,"196":-0.10154759612196412,"197":0.0713238026703799,"198":-0.10398509541039852,"199":-0.18592365631672658,"200":0.10656853243902599,"201":0.07114240958206301,"202":0.14619090967254933,"203":-0.17364986388851902,"204":-0.21020133392380372,"205":-0.17591485685354638,"206":-0.13761773548196157,"207":0.13007871151559838,"208":0.08983598734142591,"209":-0.08061444950396411,"210":0.24061408085107583,"211":-0.13356015874855817,"212":0.21298859691033886,"213":0.16984870755549655,"214":0.065769606733279,"215":0.027492791980516722,"216":-0.21374700520226428,"217":-0.11467490991385101,"218":0.09519872836241909,"219":-0.07906024263624577,"220":0.11266183152159143,"221":-0.0925400919085981,"222":0.19694695313947555,"223":0.11190022203081951,"224":-0.1754691208224769,"225":-0.1773872169707131,"226":0.11068819119644283,"227":0.16938260139156122,"228":-0.1514573281470253,"229":-0.006425634675775487,"230":0.028123579001631902,"231":-0.05042567136068198,"232":0.16762160381143212,"233":-0.17186308330182914,"234":0.06936580461918267,"235":0.04311105179305421,"236":-0.18133814467457668,"237":-0.18804825906027334,"238":-0.09998681488010325,"239":0.23058506259430708,"240":0.06860683696174036,"241":-0.06262518902612123,"242":-0.09013449190100292,"243":0.011709027329056458,"244":0.027005423215843677,"245":0.15445600280509192,"246":0.13540229352933372,"247":0.2358389988546682,"248":0.1647768053300708,"249":0.23626985311633553,"250":0.046138002194546245,"251":-0.03424481808865524,"252":-0.10685660912215114,"253":0.056847762858559206,"254":0.0796522749441679,"255":-0.12127084856816112,"256":-0.03229928156407288,"257":-0.1413864337107123,"258":0.17860027644128468,"259":-0.023961748666738798,"260":0.20893129129647411,"261":0.06348785718824149,"262":0.15215534476317508,"263":0.06488071229955027,"264":-0.02796651634195137,"265":0.14042746829819375,"266":-0.04530672890721051,"267":-0.054776004755887786,"268":0.0049972713468553745,"269":0.11333387357281849,"270":0.05378683178097697,"271":0.13282720013614396,"272":0.05486971761107907,"273":0.10053724680525257,"274":0.07486014825053773,"275":0.17147447929766266,"276":-0.04350956257656386,"277":-0.22620106391821954,"278":-0.05677080430721899,"279":-0.18657029438414768,"280":-0.17068417097555025,"281":-0.010620892762875882,"282":0.2173196706145518,"283":0.028927156466718763,"284":0.30297347996287494,"285":-0.07818026873312282,"286":0.19222701939780126,"287":0.06493749167896969,"288":0.012139037528272108,"289":-0.09899768562587306,"290":-0.0653175500435032,"291":0.005382087972926886,"292":0.05732539210096787,"293":0.1419850049580377,"294":0.15271265118244046,"295":0.038819263672821146,"296":-0.07945702406008798,"297":0.11501744702945148,"298":0.10675126980964127,"299":0.1605736771464509,"300":-0.1694621798115178,"301":0.11747446429640077,"302":-0.10233877111388374,"303":-0.24259189147063706,"304":-0.06285345552282227,"305":0.2650316132476445,"306":-0.05148317772147055,"307":-0.17123042955407541,"308":-0.06510531826976156,"309":0.0001064544964810944,"310":0.05398629791391376,"311":-0.23035427137534115,"312":0.047181608507243705,"313":0.14600073676136713,"314":0.01833335544989718,"315":0.041028715967108866,"316":-0.18674580814565966,"317":-0.0852078892445975,"318":0.024376858942947614,"319":0.13552068581513094,"320":0.193508558946783,"321":-0.009026249611374566,"322":-0.12351921396581218,"323":-0.21391116709473978,"324":0.03171422430847191,"325":-0.05384017666458159,"326":-0.26391543725754596,"327":-0.09146203149798952,"328":-0.14828619631090656,"329":0.044296511982522345,"330":0.07557453825794888,"331":-0.14669331746130163,"332":0.0685653082651239,"333":-0.2264738748287117,"334":-0.26415493739974155,"335":-0.19119401389749904,"336":0.12161412137628887,"337":0.16047325243684574,"338":-0.19593898538808327,"339":0.1528523578154489,"340":0.11925719749003767,"341":0.12091974863648476,"342":0.08527858628610126,"343":0.1375956260919943,"344":0.010247998905381887,"345":-0.19583327948997187,"346":0.13380481822147924,"347":0.12144373712991308,"348":0.06169109732089511,"349":-0.02458088695432513,"350":-0.07373936667764895,"351":-0.14413520148388806,"352":-0.08602417950524739,"353":0.06338655593104013,"354":-0.11463720362603659,"355":-0.2144991170331481,"356":0.11890526695300016,"357":-0.06736878434973861,"358":-0.0023378165553776813,"359":-0.007575012751974151,"360":0.09230065719679902,"361":0.10221725356292008,"362":0.11240485533424907,"363":0.15110749975261073,"364":0.05480236595391285,"365":0.10100094857956761,"366":0.27408019275683676,"367":0.2419194016182898,"368":0.06922677057842969,"369":-0.026586103832896873,"370":0.02348666430793404,"371":-0.21093723350907273,"372":-0.13984454876534244,"373":0.00558078528500642,"374":-0.24816681481619549,"375":-0.04346898213955167,"376":-0.10479024362183074,"377":0.16552691094056396,"378":0.08955590696230772,"379":-0.11873194346794953,"380":0.04148295174298315,"381":-0.31250818263799346,"382":-0.3076264069086683,"383":-0.08089034747543913,"384":-0.11282411667557159,"385":0.14816763937755753,"386":0.16924793906180186,"387":0.11946867010838051,"388":0.02735452386867946,"389":0.19163782982983157,"390":0.19505449150090806,"391":0.1342712900735445,"392":0.17183309597379015,"393":0.07913359440235629,"394":-0.0005251902884507257,"395":-0.10100822519833305,"396":-0.038219371645496214,"397":0.02872649695303372,"398":-0.04055057858641711,"399":0.03260181909641534,"400":0.1204121398232215,"401":-0.17351615428166473,"402":0.11148428711830254,"403":-0.15588567479252266,"404":0.05187975796525538,"405":-0.05991775788073503,"406":-0.18750333714663478,"407":-0.02933787762623275,"408":-0.13442453702165907,"409":0.1874475983460803,"410":0.05566583288119906,"411":-0.03157347793597383,"412":0.10162426093238625,"413":0.1173346635746901,"414":0.13830228936521613,"415":-0.08753373347261145,"416":0.008993393897797455,"417":-0.22606090733826323,"418":-0.022717016606998795,"419":-0.06866973473540124,"420":-0.13743104961465916,"421":-0.19315352374520295,"422":-0.12369399010439472,"423":0.08706276378669726,"424":0.14677782992538316,"425":0.1430825256491485,"426":0.2685707732747652,"427":-0.06459766935547186,"428":0.12966138877356806,"429":-0.04421068083772209,"430":-0.2084519750263055,"431":0.0061315057738783605,"432":-0.0634578630378633,"433":0.09288366789276357,"434":0.01741474999426413,"435":-0.022900886159363615,"436":-0.14676099269023218,"437":-0.08442476864849296,"438":0.03315082891656615,"439":-0.12682898744244622,"440":-0.09677902100286023,"441":0.04570693635656854,"442":-0.32763211690373495,"443":-0.19050121879398832,"444":-0.04941420261163921,"445":-0.17167068973463825,"446":0.05272900788906778,"447":-0.04257294053144463,"448":0.09504064184083875,"449":-0.041141400517419456,"450":-0.03241665248754539,"451":0.0007826139288866405,"452":-0.04428893502111981,"453":-0.04731443750123441,"454":-0.023803551058946156,"455":0.0639732753701271,"456":-0.0100346124687342,"457":0.09993953173923498,"458":-0.0852258389143588,"459":0.10377417603631907,"460":-0.17056282323909308,"461":-0.004166225871770863,"462":0.06853358353223657,"463":0.0931367767169784,"464":-0.050241812277654986,"465":0.07752561182508654,"466":-0.16444284199083842,"467":-0.06203635191508323,"468":-0.26780205949013547,"469":-0.020980154120102786,"470":0.07209329525401754,"471":-0.06289554141162829,"472":-0.018073613359707967,"473":0.13798760538338223,"474":0.22429212360133857,"475":-0.15659116091561096,"476":-0.20906468844339543,"477":-0.14300824080955543,"478":-0.12258090138587494,"479":-0.17756650083940403,"480":-0.06690332556759157,"481":0.11183955641996453,"482":0.1556737878124168,"483":-0.04745744974882698,"484":0.021946288942575814,"485":0.16781842993192253,"486":-0.08928613560967727,"487":0.15577359477031705,"488":0.018187458514304495,"489":-0.1816215918285211,"490":-0.21963606223640045,"491":-0.13429155806959253,"492":-0.05559354196782079,"493":0.06580425394355362,"494":0.15430003132101192,"495":0.18405488404284798,"496":0.05956201507521562,"497":0.08774685144582514,"498":-0.17278189891462534,"499":-0.08716368830972081,"500":-0.06418542174356497,"501":0.0833915104538569,"502":0.13199615342548437,"503":0.07885264493283561,"504":0.03885316496676289,"505":0.1469774495332185,"506":0.0870397448232242,"507":0.1603652437042555,"508":0.09155114382699574,"509":-0.054101813391961774,"510":0.12347571309275485,"511":0.0244192254047202,"512":0.16352579670105918,"513":-0.09153975690975986,"514":-0.2202813638436614,"515":0.04082506857821478,"516":0.16688222685401485,"517":-0.09488754960703336,"518":0.1835774364863488,"519":0.046012104082428174,"520":-0.11095361905211748,"521":0.017979144699148433,"522":0.14697131836545163,"523":0.13740152848366996,"524":0.02055604590459165,"525":0.1727701868060706,"526":0.03881148047409273,"527":-0.17622360264286216,"528":-0.20647203866201413,"529":0.03945036525214374,"530":0.14807180113806054,"531":0.023395381837626367,"532":0.1756131229935378,"533":0.11168924087189284,"534":-0.17691564996567224,"535":-0.028845548545739595,"536":0.22554460939206034,"537":-0.16625284248922478,"538":-0.02705875437117878,"539":0.13760553937576434,"540":0.11579128652663107,"541":0.11823690290614658,"542":0.1869504595096483,"543":-0.1022505325285571,"544":0.060885958433772334,"545":0.2100550749119143,"546":0.07638974156527649,"547":0.15753927896539827,"548":0.22672061410930014,"549":0.13995262009235088,"550":-0.1177000201878994,"551":0.09742476115712681,"552":0.09813972778375965,"553":0.2455072235508521,"554":0.08762482665997756,"555":-0.033406217084378846,"556":-0.11663299662714771,"557":-0.10003645940841456,"558":-0.09477675526600235,"559":0.059149328818092595,"560":0.024972826597494124,"561":-0.026320188925292518,"562":0.07817141630277885,"563":0.09859493068559769,"564":0.18127666198201445,"565":0.10384066999702563,"566":0.05754869347319601,"567":0.02431880561659311,"568":0.1438033448437321,"569":-0.1773753412782641,"570":-0.14519826743320427,"571":-0.0033335730903033423,"572":0.03286334531713976,"573":0.0743971249152382,"574":0.07998223626679324,"575":0.09062328960896901}},"4":{"bias":-0.05489719065535417,"weights":{"0":-0.06613484345736911,"1":0.13025247993659853,"2":0.13490114204762366,"3":0.008736821254498149,"4":-0.010030450829901531,"5":0.07708125794395895,"6":-0.05269753315837317,"7":0.17479896554783936,"8":-0.14232241219596944,"9":-0.16144045236988022,"10":0.1232776470487884,"11":0.0941551632863868,"12":0.17872388419337326,"13":-0.16925672452482754,"14":0.1524842698082475,"15":0.15725759734922906,"16":-0.008692172090036355,"17":0.019102440399485304,"18":-0.15237706464407302,"19":-0.2454198941152787,"20":-0.2544249840789063,"21":-0.2617442258905975,"22":0.036085484161318154,"23":-0.1663283101010554,"24":-0.18364049021723935,"25":-0.04881462266863366,"26":0.08082165158626939,"27":-0.15488992411308466,"28":-0.1185642762914087,"29":0.06099020615772798,"30":-0.03406227443328711,"31":-0.18017292167156615,"32":-0.1778769554969191,"33":-0.31025941034046883,"34":-0.0077209951925472295,"35":-0.16149940658060938,"36":-0.28415939605736457,"37":-0.025372618520351973,"38":-0.19803860379500737,"39":-0.25832146839581105,"40":-0.3109553962040836,"41":-0.005035210866358183,"42":-0.09758532647883855,"43":-0.23229366154940648,"44":-0.20019498934411134,"45":-0.2601505210888313,"46":-0.24353207201974258,"47":-0.2892367508108065,"48":-0.018834334977317325,"49":-0.07388166201216498,"50":-0.2168877834439255,"51":0.050628849166853285,"52":-0.04322132779932402,"53":0.14185548627750755,"54":-0.1877724910538506,"55":-0.10942071448479003,"56":0.003747967597505079,"57":0.07968484153859291,"58":0.003935134180520581,"59":-0.3024981698502839,"60":-0.04818366874791523,"61":-0.26032986600974967,"62":-0.06171771718145881,"63":-0.30913579883764764,"64":-0.07569088203796473,"65":-0.10632863519827249,"66":-0.28331360918050097,"67":-0.11622806848497229,"68":-0.08967588851588315,"69":-0.1251316870778666,"70":-0.346152479401027,"71":-0.17387444992836462,"72":0.11461136641470289,"73":-0.2020219224602714,"74":-0.13202190876309441,"75":0.10024900240376924,"76":-0.10035128575323769,"77":-0.1463992871222677,"78":0.03176113138524797,"79":0.0840777744729224,"80":-0.04421645919118382,"81":0.07218713946983878,"82":-0.12112382759833852,"83":0.0920169891972839,"84":-0.1372584211288389,"85":-0.0973872309559465,"86":0.015587990672115727,"87":0.04511442984921119,"88":-0.1319142836742739,"89":-0.04387070243481782,"90":-0.2565053008679992,"91":0.10117993505872831,"92":-0.05069940284349264,"93":-0.047580694592236246,"94":0.02104252150976691,"95":0.019260454598194164,"96":0.0470610422451686,"97":0.05632060150983776,"98":-0.168474860620342,"99":0.054801966791303246,"100":0.06475153291895931,"101":0.23504442699321904,"102":-0.11739438539471751,"103":-0.12908359622297466,"104":-0.06980876406417783,"105":-0.18422924565927365,"106":-0.1887751849060533,"107":0.02002890351220067,"108":-0.04967922845009439,"109":0.009800684139900226,"110":-0.125816906722891,"111":0.07126925878056413,"112":-0.1531634330178157,"113":0.17325093107190248,"114":-0.12156443912332314,"115":0.06131394453830455,"116":-0.12754920192175492,"117":0.14330899629928884,"118":0.0002919094563913995,"119":-0.0657852248520102,"120":-0.024789976115744492,"121":0.05804355404082698,"122":-0.12563959848258752,"123":-0.14719315331869973,"124":0.14167939016695147,"125":-0.010744389275480638,"126":-0.02036030089254222,"127":-0.22308209952728886,"128":0.18352222272759397,"129":0.053189531843385554,"130":0.13633748167538662,"131":0.05158584495032139,"132":-0.11996534351128185,"133":0.10812696483424417,"134":0.13927491555736685,"135":-0.07396350938382297,"136":0.16478987913339077,"137":-0.2923272127313803,"138":-0.01080473898566279,"139":0.19326109559699065,"140":0.13223593352826943,"141":-0.013379331363526219,"142":0.08162661912210525,"143":-0.14299175563880687,"144":-0.06090495857275433,"145":-0.01476319251892839,"146":-0.13095396387186986,"147":0.1239252680201312,"148":0.24306609750519337,"149":-0.05662671995052987,"150":-0.10832519109941846,"151":-0.14643497631108016,"152":0.09363060359466495,"153":-0.06472428840665105,"154":-0.24747497920321695,"155":-0.23116631478151337,"156":-0.06881984246080272,"157":-0.034935410042503494,"158":-0.05065803262821969,"159":0.0032176583680504672,"160":-0.009759797149679226,"161":-0.11341587911357884,"162":-0.07315571288745229,"163":-0.005882659713448594,"164":0.15437685538469229,"165":-0.012760180833198841,"166":0.08013814627428903,"167":0.18742074110639143,"168":0.1379904185143159,"169":-0.05317322483404356,"170":0.13803723221944925,"171":-0.08249159933912546,"172":0.20563736453183692,"173":-0.2076123800016409,"174":0.0706182264521996,"175":0.0007304878763582713,"176":-0.23187333488918638,"177":-0.02680144583610874,"178":0.009293377425921658,"179":-0.048195049518820324,"180":0.05635543194972474,"181":-0.2079310906810961,"182":0.12098477623178419,"183":-0.09810329165376529,"184":0.044769279732466784,"185":-0.20903306234128577,"186":0.110352387346589,"187":0.0717954634132319,"188":0.057961365498831435,"189":0.22434345701450736,"190":-0.1392261999549753,"191":-0.15561426029537567,"192":0.0785790439606322,"193":0.19049590833454666,"194":0.14097248691544853,"195":0.016067281989983875,"196":-0.16986438947862167,"197":0.15900512572515094,"198":0.029670052106444585,"199":-0.0787037706945349,"200":-0.08744862301262699,"201":-0.16049181466612836,"202":0.12715937635653074,"203":0.08368260237636928,"204":0.005716829528531891,"205":0.00862543341766366,"206":0.01614646815949938,"207":-0.09785939283317692,"208":0.18248703254327037,"209":-0.20209780092684346,"210":0.1527348286764562,"211":-0.03217622346380429,"212":-0.05031569803243905,"213":0.22612452423938892,"214":-0.026718397205718728,"215":0.20028064988792038,"216":-0.024783746954732355,"217":-0.1679734990854799,"218":-0.012956858357610916,"219":-0.14528164058142454,"220":0.004179950499049617,"221":0.06820202088692078,"222":0.097133914965195,"223":0.13302628092107513,"224":-0.008546917102827777,"225":-0.09068272729761104,"226":-0.1913945155166765,"227":0.09164710187824594,"228":0.05153324133835623,"229":0.1781892765384252,"230":-0.2253373713214774,"231":-0.0458377103867685,"232":0.000009084691988505256,"233":0.03671448222978013,"234":-0.010588584938005303,"235":0.16170139948849577,"236":0.18940270680716428,"237":-0.03154221474121811,"238":0.1674903901233855,"239":0.049691071617111796,"240":0.19518685465314548,"241":-0.10615919282921964,"242":-0.003444621772618148,"243":0.16994439850151707,"244":-0.07896192765020223,"245":0.10553102688173337,"246":0.018708248476773177,"247":0.028012541629925922,"248":0.12313509203159624,"249":-0.058275178354098026,"250":-0.06070917893479455,"251":0.09525245353573439,"252":0.12253091144096645,"253":0.004699486408789795,"254":0.11008344195190281,"255":-0.14659417132868904,"256":0.05024177391164376,"257":0.22736784420328618,"258":0.0698874987709125,"259":-0.17545221871805336,"260":0.0551259970633425,"261":0.06203003754152875,"262":0.13581143834676976,"263":0.22085084460304236,"264":0.16795038124618136,"265":-0.06650593609485715,"266":-0.12766318714660338,"267":-0.09807430764160482,"268":0.08469459684849699,"269":0.08871489725725161,"270":-0.015129469018640995,"271":0.28113264885446443,"272":-0.12287939022917668,"273":-0.058440432708964034,"274":-0.1354716198707105,"275":0.22415431631284605,"276":0.18783245636670626,"277":0.0041732610759226095,"278":-0.06214108639437594,"279":0.02285781576384203,"280":0.0343987048993879,"281":0.12326052305940477,"282":0.06564958460151689,"283":0.08699785504865368,"284":0.1683478776315225,"285":0.1384505610327094,"286":-0.012522166906288589,"287":0.1428993163754491,"288":-0.011784119210782486,"289":-0.07548467856363678,"290":-0.0696047891070719,"291":-0.11526512494841085,"292":-0.07044027023768701,"293":0.2237460958993599,"294":0.15084397786392004,"295":0.23237550285938993,"296":0.2608507333085733,"297":-0.014182176495850523,"298":0.020981132573321754,"299":0.13531598872076087,"300":0.1383312984841994,"301":0.13691796894938366,"302":-0.003550332265973098,"303":0.0020025586687710552,"304":-0.1338948879245183,"305":0.09664964032180273,"306":-0.1411392612180319,"307":0.11594226406045051,"308":0.07636468908112068,"309":0.20649653326366912,"310":0.019371053216801014,"311":0.14654598530982588,"312":0.25417314922652423,"313":0.16889009711324465,"314":-0.13307993724151285,"315":0.09960795610180936,"316":-0.07236103846986484,"317":0.20619441689411208,"318":0.02930364593713882,"319":0.021952629004405585,"320":0.1233680916798145,"321":0.2285521593365486,"322":0.13033549726973148,"323":0.0963891931548134,"324":0.07780611691083253,"325":0.18954685296824478,"326":-0.10469233549311797,"327":-0.031311017127177224,"328":-0.016293047512974338,"329":-0.1459646268555869,"330":0.14274402859671143,"331":0.1633326142282096,"332":0.19638709391630216,"333":0.17364471430359807,"334":0.11645366734507082,"335":0.12163256915017104,"336":0.06199389571403046,"337":-0.12165040490765162,"338":-0.03711001862000272,"339":-0.10634409567823741,"340":-0.05559574283058221,"341":0.03459351241968208,"342":-0.06532225122448816,"343":0.054037741014853514,"344":0.1338496664308705,"345":-0.10816297967281614,"346":-0.06058391581846667,"347":-0.00286265496657768,"348":0.05183122903891407,"349":-0.06406329912528752,"350":0.19737207906214968,"351":-0.05461101013139852,"352":-0.10019224834406125,"353":-0.15634016662838354,"354":0.10064370283457762,"355":0.19118217170493307,"356":0.061303604885507186,"357":0.07573994135689481,"358":-0.009261960718569641,"359":0.03177960589098658,"360":0.03730267993241664,"361":-0.01115423132661691,"362":0.19173723743257753,"363":0.01047370576016725,"364":-0.08859425908748528,"365":0.30222313397077183,"366":0.07162591923452871,"367":-0.09225665866773462,"368":0.06814300899104629,"369":0.12342905121193842,"370":-0.06055668628886221,"371":-0.0788648364775856,"372":0.1618643590646574,"373":-0.1823521429050657,"374":-0.20017193278607137,"375":0.01805836385645304,"376":-0.1394655586536798,"377":-0.07793240748445246,"378":0.12291133118983592,"379":-0.2007178137912453,"380":0.06445035800102801,"381":-0.10610102346252234,"382":0.06782888806824286,"383":-0.10427519923210256,"384":0.14655489289367007,"385":-0.07737750315688306,"386":-0.042871880013162986,"387":-0.042933027223684854,"388":-0.14025953548335085,"389":0.09548215087921884,"390":-0.07380449351072824,"391":0.19170420813636474,"392":0.22071077979189904,"393":-0.07026776028722799,"394":0.07678309939709553,"395":0.010151107706047782,"396":-0.21631519952180464,"397":0.035684728798253934,"398":-0.18848495489762365,"399":-0.2454922182409958,"400":-0.0636573125986034,"401":-0.1623377708412263,"402":-0.138376254942098,"403":0.09402375669513034,"404":0.10279656281810634,"405":0.15123773279940356,"406":0.11940145673373305,"407":0.19862496888192882,"408":0.0617808496501762,"409":0.1181141577788122,"410":-0.06922030602628396,"411":0.03887707172391728,"412":0.045506595009378606,"413":-0.07241948582581101,"414":-0.09221859008109323,"415":0.10968089218796015,"416":-0.11319657338312533,"417":-0.022706282719806143,"418":-0.175139692042092,"419":-0.10344865712139739,"420":-0.1454291255750592,"421":0.03938726460557197,"422":-0.06540216472165712,"423":-0.21882993885533547,"424":0.018969765347474802,"425":0.04831082843999555,"426":0.04016672254961688,"427":0.08534959078167745,"428":-0.07513991343954247,"429":0.23932856687895757,"430":0.03127729692147833,"431":0.07851652190037035,"432":0.1966851400545166,"433":-0.08631032592160719,"434":0.049915153189230205,"435":-0.187656400017687,"436":0.08988656546326357,"437":0.10438965822667044,"438":0.07710649788850073,"439":-0.11171315393172832,"440":-0.06487247150771464,"441":-0.20055211696297692,"442":-0.11738966050645819,"443":-0.05884206354122844,"444":0.2078976728949517,"445":0.028585288228257576,"446":0.14224273005694837,"447":-0.07135656852531433,"448":-0.18145770148458115,"449":-0.1523636992788465,"450":-0.19303342202327592,"451":-0.12542922373177898,"452":0.035543784196339606,"453":0.0036359846288924603,"454":0.04851353410589093,"455":0.08571957451185629,"456":0.28182536380627843,"457":-0.07759489694301963,"458":-0.1089971272577251,"459":0.21619784054825975,"460":0.11883609335031599,"461":0.14365260920148423,"462":0.09249554255935381,"463":0.03397836987018837,"464":-0.08263388580831516,"465":0.00558302120700714,"466":0.059370938491128705,"467":-0.005331244289278744,"468":0.06021467087185886,"469":0.0970815295789397,"470":-0.13771382019247638,"471":0.11391897001038938,"472":-0.2145124233492531,"473":-0.04411355892176255,"474":0.12276798749451949,"475":-0.05584498859127507,"476":0.1998787365634988,"477":-0.06514063231907628,"478":0.0672996914228161,"479":0.1489032042457459,"480":0.07931717483871244,"481":-0.15079487980974748,"482":0.021799818584572247,"483":-0.008565066435279529,"484":0.2063504041647209,"485":0.076357967014653,"486":0.20706570284783207,"487":0.1385859697610953,"488":0.06487822355194475,"489":0.03982928294508437,"490":-0.09277916553516474,"491":-0.07112799990799054,"492":-0.09860906107621707,"493":-0.04507574417169825,"494":0.031758037343108794,"495":-0.18178596688487123,"496":-0.0595382080858231,"497":0.05582914965924158,"498":0.08667017017425359,"499":-0.12769498529220866,"500":-0.013830254277752021,"501":-0.05525588300045941,"502":0.010067190972616076,"503":0.11314507968149301,"504":0.14301241526522654,"505":0.09526770253775894,"506":-0.06661504029047602,"507":0.19086998387172038,"508":0.20555864301527058,"509":0.09121562149900131,"510":0.015249811818382095,"511":0.09438496381588675,"512":0.05806590398753854,"513":0.13654738753045034,"514":-0.16410842228503839,"515":-0.1582496460795853,"516":0.044483673688454135,"517":0.12648785304974877,"518":0.048452319407299854,"519":0.0038970338975677097,"520":-0.14465814633580565,"521":-0.15316660357084014,"522":0.010390591974944215,"523":0.06450691654459233,"524":-0.030090693770857872,"525":-0.10978336382823872,"526":-0.2282032606028698,"527":-0.32590519940329177,"528":0.08275407013571097,"529":0.031198269388221133,"530":0.005376135457395829,"531":0.2365600610236208,"532":-0.03600670622257088,"533":-0.11060548576881321,"534":-0.16116384189424626,"535":0.19328606775377,"536":0.1582812183212621,"537":-0.029898914834761686,"538":0.09098578006016049,"539":0.12800161507942265,"540":-0.10399555327344868,"541":0.06128702156589822,"542":0.025662811640535226,"543":-0.026279174905033464,"544":-0.10680264925026611,"545":0.0006070477003119315,"546":-0.04485052791515005,"547":-0.1833455397855653,"548":0.08260986284036112,"549":-0.062665259770043,"550":-0.3534416961847419,"551":-0.283029384088411,"552":-0.19191117403198812,"553":0.08069252553364553,"554":-0.23100775640561624,"555":-0.01454369886746552,"556":0.17761323197587733,"557":-0.09468663663932347,"558":0.038132223934672964,"559":0.13447484339290633,"560":-0.02276107965050242,"561":0.03630724470628323,"562":0.18743600898393983,"563":0.12022171756436054,"564":-0.07831065419842084,"565":-0.06141916037939883,"566":0.23448651099451365,"567":-0.066609429744516,"568":-0.15672126293061553,"569":0.10974635668870586,"570":-0.14409050374719637,"571":-0.09534186347083347,"572":-0.14353892492991951,"573":-0.363006135909804,"574":-0.3906252964875769,"575":-0.3133597025735546}},"5":{"bias":0.24518730008099296,"weights":{"0":-0.11556532716782784,"1":-0.08407799629432816,"2":0.037430433863510824,"3":-0.14384652645812554,"4":-0.22112534859399138,"5":-0.02100919631618026,"6":-0.010833190232144727,"7":-0.013769883036248336,"8":-0.06481728795525792,"9":0.015550349496369456,"10":-0.0045317539110835995,"11":0.12452275992101056,"12":0.1126309428784748,"13":-0.1278180908984876,"14":0.1761042003088676,"15":-0.15026662277839248,"16":0.2673423514495952,"17":-0.21282767118007642,"18":-0.0887122726679024,"19":0.1622065308722638,"20":-0.025142323850433017,"21":-0.10137000825546255,"22":-0.1137578119120059,"23":0.144297528323748,"24":0.06943818949796497,"25":0.09898439981279505,"26":-0.07581484679897413,"27":-0.31945633064807527,"28":-0.16689334081770163,"29":-0.022534785888747584,"30":-0.22782233313699832,"31":0.028705453363953626,"32":-0.23302521599305825,"33":-0.038643157343434445,"34":0.04600461744029844,"35":-0.1195244781061723,"36":-0.16243610328805455,"37":-0.07803033910157661,"38":-0.04715406450088089,"39":0.15272236765692912,"40":-0.11452542579287865,"41":0.0698669550858492,"42":-0.06890605950275337,"43":-0.10141561729684966,"44":0.11572282651696124,"45":-0.021047217134910427,"46":0.13195339260054148,"47":-0.11042319939164252,"48":0.04463095408198275,"49":0.09916087268835483,"50":-0.03480181494306775,"51":-0.16480122692237947,"52":-0.15908874465603162,"53":-0.05281631205053066,"54":0.1559972537936024,"55":-0.16504481675618174,"56":0.05351726717598982,"57":-0.11549056360706857,"58":-0.28840019655158355,"59":-0.12227554095879434,"60":0.0029352192603738785,"61":-0.21818663025913215,"62":-0.0694683411192349,"63":-0.020533112883839515,"64":-0.20417939621643064,"65":-0.02605672083896408,"66":-0.0783698965709814,"67":-0.10223562639512167,"68":0.05213694294056187,"69":0.08664214082486749,"70":0.012537037476149955,"71":0.13157981545005373,"72":0.062303801950198606,"73":-0.0540260455721245,"74":0.025436154742795886,"75":-0.028123775503370262,"76":0.051007221369002716,"77":0.01271267493138263,"78":-0.061959009251915644,"79":-0.003934395375255317,"80":0.04526320080534465,"81":-0.25856905121352286,"82":-0.022512126866333425,"83":-0.340648080835174,"84":-0.07567179133381001,"85":0.03373743919636994,"86":-0.14063105959416292,"87":0.09921106063853355,"88":0.2873119250629633,"89":-0.1704895124301197,"90":-0.007550855544679015,"91":0.10901537178995173,"92":0.11543627206143449,"93":0.3410220560089356,"94":0.29767738199715393,"95":-0.08130291319831918,"96":-0.21670837452730332,"97":-0.3022713504016236,"98":0.027629782021784406,"99":0.20710582974338462,"100":-0.21604866058947045,"101":0.31197380907854844,"102":0.28782130038411785,"103":0.046383194449300086,"104":-0.0844120035229506,"105":-0.14031129805547066,"106":-0.18491134158041245,"107":-0.015570335364361284,"108":-0.23788126439678456,"109":-0.13644876560913097,"110":-0.12790581171726348,"111":-0.1258519104533659,"112":-0.014817042469941507,"113":-0.14211383599277955,"114":0.19904568408918838,"115":-0.017262329156331413,"116":0.19107463152049192,"117":0.16633957811705263,"118":0.27062283549302396,"119":0.13586247090138628,"120":-0.05723904402361611,"121":0.11969372959636082,"122":-0.011711018365854017,"123":0.052767913470527006,"124":-0.07606308071571821,"125":0.09018197516356612,"126":0.1585565806605685,"127":-0.14164753605071517,"128":0.22787061707681516,"129":0.10853257084693906,"130":0.15645121069849083,"131":-0.1026011627634437,"132":0.004947425040809585,"133":0.05107564833949125,"134":-0.14196483551469058,"135":0.19402157151983665,"136":-0.028276199008252845,"137":0.06806569505610302,"138":-0.03180982457945314,"139":0.32362007812310994,"140":-0.1353625703639611,"141":0.16438477220130746,"142":0.07584108959135627,"143":0.26073888342949203,"144":0.1752313841467689,"145":0.13327952811243585,"146":0.059324575639305335,"147":0.2196651487980934,"148":0.21905953763277186,"149":0.004402155327365102,"150":0.24938086189270461,"151":0.005666863410021349,"152":0.06484248955533442,"153":-0.039680433627476676,"154":0.2500669213144028,"155":0.016866915437443758,"156":-0.034646661169726096,"157":-0.028733315630335144,"158":-0.06665846222802183,"159":-0.022107487785910616,"160":0.2392086999089522,"161":0.042241816733774126,"162":0.12218819086343674,"163":0.09256824556919402,"164":-0.11151789306175329,"165":0.2833503997720952,"166":0.12555131245518175,"167":0.0012250073417033715,"168":0.2052904399113721,"169":-0.09782927654549384,"170":-0.14690056601878484,"171":0.008448300379462904,"172":0.058179396000508886,"173":-0.056823739042246434,"174":-0.0789942489087095,"175":-0.22249827207839737,"176":-0.07810614925503857,"177":0.22587066446440485,"178":-0.04154955148837894,"179":-0.19255539099317281,"180":0.010314403643029628,"181":-0.05609869843417273,"182":0.22254694368510983,"183":0.06995787851609472,"184":0.10085956670449867,"185":0.227714738514023,"186":0.3086105768035899,"187":0.001967369644089617,"188":0.08763870803495442,"189":0.21566064608094632,"190":0.16601857302737255,"191":0.1583307367978808,"192":-0.0459945566658822,"193":-0.1689675153043488,"194":0.00288572753183217,"195":0.005450526953664147,"196":-0.14628284059849223,"197":0.17365413946809727,"198":0.004861839344928729,"199":0.07891641869206108,"200":-0.20761794849034335,"201":0.12288913565885042,"202":0.07512432882832631,"203":-0.2184409699440734,"204":-0.11913732808911302,"205":-0.20731614078445157,"206":0.17048864943626157,"207":0.26572966908634155,"208":0.13970315872873537,"209":-0.012484391276086785,"210":-0.05002804938748058,"211":0.08386939076795628,"212":0.27119830375040943,"213":0.16238656793318176,"214":0.23165865486999396,"215":0.15218658792740658,"216":0.13313569801223665,"217":-0.17857778181006131,"218":-0.007641135132888717,"219":0.10278871306143608,"220":0.024770139355622785,"221":-0.08753199620048359,"222":0.04658426603465667,"223":-0.16782985087678906,"224":0.06948596462006713,"225":0.059223145670768494,"226":-0.07848668208832658,"227":-0.1903995237665841,"228":-0.23388747229885265,"229":-0.0744032075430923,"230":0.17809251513289565,"231":0.020543684990699904,"232":0.14982375290658864,"233":-0.11572150377773902,"234":-0.00973722107004986,"235":-0.00878821688070398,"236":-0.07089940655650502,"237":0.1788082348151775,"238":0.1195977747561065,"239":-0.18063888102629966,"240":0.1358233913113976,"241":-0.029981719526423155,"242":-0.05319937929677806,"243":-0.05819265456455719,"244":-0.05992164237854303,"245":-0.029854607418524283,"246":0.06996255388492176,"247":-0.11951560893067911,"248":-0.18644272678771878,"249":0.13557355952167133,"250":0.10682103759636251,"251":-0.2977124500289582,"252":-0.08569600221225585,"253":0.11962023273887666,"254":-0.02197627703688604,"255":0.12395483825878778,"256":0.11804451510990005,"257":0.19248301254874278,"258":-0.06820182868226539,"259":0.1151901584937664,"260":0.0025056438128935148,"261":-0.06115930317756894,"262":0.22450653383902283,"263":0.0037865495283490196,"264":0.038608108839540564,"265":0.10117335530870776,"266":-0.3672126351295109,"267":0.08134880819116497,"268":-0.15912554052100641,"269":-0.0400809117723496,"270":-0.10486806393387017,"271":-0.03015540664245929,"272":-0.303380362342673,"273":-0.12324123438131053,"274":0.05292649180056552,"275":0.14698264776634634,"276":-0.013053221990609945,"277":0.005752456889430411,"278":0.2021475639824883,"279":0.021010804715660025,"280":0.25144182009334315,"281":-0.037748990705763555,"282":-0.08179749465595831,"283":-0.19986737603855823,"284":-0.0014615837235985914,"285":-0.04693304013699029,"286":0.19623701420218825,"287":-0.08247105123407768,"288":0.1072044613229386,"289":0.016543782558223284,"290":-0.10241365550372226,"291":-0.2957841979441786,"292":-0.04574551818538742,"293":-0.031177171492107116,"294":-0.22588033894689669,"295":-0.05563676957587069,"296":0.11558629491638726,"297":0.036032066911465856,"298":-0.08862695523902095,"299":-0.020278518388727025,"300":-0.09500420283289454,"301":-0.03505349786806675,"302":0.2940903985594675,"303":0.04984497654899138,"304":-0.13631795014783782,"305":-0.3408576916437423,"306":0.11888977201957737,"307":0.10672930483836887,"308":0.20400319677972295,"309":0.2183777321872075,"310":0.05338816535836441,"311":0.0829061684644243,"312":-0.23135851092502924,"313":-0.24222286076717253,"314":-0.3346485994906128,"315":0.01725349894037922,"316":0.09478091849441732,"317":-0.3067447596133995,"318":-0.1428799261995286,"319":-0.17854314852836672,"320":0.11430230488972364,"321":0.028470561686759085,"322":-0.022708288076846994,"323":-0.06309010530337453,"324":0.21426670601476056,"325":0.05271611184587888,"326":0.4312083217204055,"327":0.10391937146008365,"328":0.08720269190272725,"329":0.0839665038190298,"330":0.051126508277836845,"331":-0.17027385228783554,"332":0.07828131313295356,"333":0.21104852641642796,"334":-0.061561847843045435,"335":0.008181353296681494,"336":-0.055280133171379905,"337":-0.12861888037284486,"338":0.09743437865077206,"339":-0.06917674518999932,"340":0.04868101892612626,"341":-0.03989515546516055,"342":-0.15888585217711867,"343":-0.06663719956182791,"344":0.019116768586668234,"345":0.1469873462638112,"346":0.16941619659625717,"347":0.060742528471954244,"348":0.2531917041698154,"349":0.22685964834896769,"350":0.05482918602433971,"351":0.3486280919002488,"352":0.15746103194004185,"353":0.17478637429385538,"354":-0.02822933193868248,"355":-0.05973163116293889,"356":0.012927372699078225,"357":0.15081388923307915,"358":0.01784006944307275,"359":-0.17002760748984178,"360":0.03645693265537765,"361":-0.07039246993262979,"362":-0.009057434061338153,"363":0.13540471168929405,"364":-0.06252806531715029,"365":0.1170803506934296,"366":-0.06785082024052903,"367":-0.3503349687343756,"368":-0.033400148318106886,"369":0.020350177120491912,"370":0.18583700540207862,"371":0.15122683221318264,"372":-0.008633023148659689,"373":0.02445616124279947,"374":0.0791043480717355,"375":0.39418549991239277,"376":0.107522605157517,"377":0.16011476036663713,"378":0.2292264518316691,"379":-0.038395026235337394,"380":-0.11751733929832821,"381":0.19142159151367427,"382":0.11745913160795157,"383":0.20963299683218076,"384":0.13148855719840322,"385":-0.10506490021695657,"386":-0.012196540153599205,"387":-0.077857661145946,"388":-0.2489034834593445,"389":-0.08456800614781236,"390":-0.2549964757920247,"391":-0.2544210484490017,"392":-0.057020061267226904,"393":0.15707060301212322,"394":0.28267190649894425,"395":0.17033197339411202,"396":-0.04019233260437723,"397":0.1272183378188673,"398":0.14071798424154175,"399":0.18794191948427313,"400":-0.045995211536526914,"401":-0.18171885633460924,"402":-0.100352425394343,"403":0.10151397769437005,"404":-0.16099247025981933,"405":0.242524865946234,"406":-0.007275570069065368,"407":0.07082649239713758,"408":0.14249755414317403,"409":-0.08534514504911067,"410":-0.0899380912614359,"411":0.05828469085928462,"412":-0.06736686285462193,"413":-0.14422247936534455,"414":-0.12382760331158002,"415":-0.28024488210351584,"416":-0.03655954257874282,"417":0.13014444310571585,"418":-0.01115992045967317,"419":0.10631359567168766,"420":-0.08037671860138747,"421":0.1995715260961428,"422":0.00830697870836861,"423":0.24808501338246555,"424":0.010786555259636711,"425":-0.19224317514874623,"426":-0.15064413547759636,"427":0.10152932202563474,"428":-0.1819854308082742,"429":-0.11358875833377322,"430":-0.05692395039387426,"431":-0.05683932674527841,"432":0.01033473412866847,"433":0.07667241859150466,"434":0.11090615742708511,"435":-0.12084542182141929,"436":-0.05662005646708155,"437":-0.14282618017202225,"438":-0.18020548823568286,"439":-0.09415847292082913,"440":0.10872388178200364,"441":-0.11556406690291883,"442":0.08904655553516261,"443":-0.10248599486758422,"444":0.1841831885010384,"445":0.23862902849385537,"446":0.30952329103457094,"447":0.23557214135938698,"448":-0.08862514173888356,"449":0.009737503320801179,"450":0.10816861277240547,"451":0.11739098045099629,"452":0.10415582344689245,"453":0.049683264574141024,"454":0.14101187832741968,"455":-0.17003682489289354,"456":0.09954218458937855,"457":0.16358791409698195,"458":0.01610690544157292,"459":-0.1750977081123394,"460":0.10789736897520821,"461":0.24764816205212373,"462":-0.23899680130490103,"463":0.022939537361654248,"464":0.018010094501653227,"465":0.20712363957326482,"466":0.04456766142290381,"467":-0.023268163060188012,"468":0.2914142504751327,"469":0.08403461957895267,"470":-0.0021418834934962237,"471":0.12163415322309315,"472":0.1242797487894413,"473":-0.2505549196916172,"474":0.1120274751129576,"475":-0.0777972536779119,"476":-0.10041391327943112,"477":0.13583990946845406,"478":0.11495227405359455,"479":0.09749792633793482,"480":-0.1771742392092431,"481":-0.0991544927035696,"482":-0.03884317337433762,"483":-0.23565249731079446,"484":-0.1163178201134712,"485":-0.1688909696115653,"486":-0.07468342527234656,"487":-0.014744658572662482,"488":-0.047779698074791044,"489":-0.0318304907438595,"490":-0.12528136162273065,"491":0.10803596717050293,"492":0.18653268036215126,"493":-0.08370854661225444,"494":-0.017516928398307575,"495":-0.058345799168169794,"496":0.12063079722721332,"497":0.029827810604840414,"498":-0.1147194115518168,"499":0.18417622078214657,"500":0.044353384537543096,"501":-0.20239908426376624,"502":0.14337850701188604,"503":0.006127866763790811,"504":0.013108348928007694,"505":-0.29564859244148745,"506":-0.09391698046750573,"507":-0.25123085612580887,"508":-0.1737648001152732,"509":-0.20111877584716517,"510":0.1023158936177956,"511":0.029470884888734533,"512":0.12105484688304455,"513":-0.11651814654796792,"514":-0.1325998773434947,"515":0.026299169895109695,"516":-0.17077935719758094,"517":-0.0651630580023998,"518":-0.23409532667845948,"519":-0.17213389411574548,"520":0.07224746139191053,"521":-0.06713975246743442,"522":0.18133893739447732,"523":-0.15124210872078617,"524":-0.29381994898370056,"525":-0.20042666773873463,"526":0.05171302223706487,"527":-0.1612682470212693,"528":-0.0886246981188951,"529":-0.008531371972721288,"530":-0.11845392266184603,"531":-0.03191146219762342,"532":-0.22356523453833177,"533":-0.04231854035622781,"534":0.0853123081121041,"535":0.020699883991094677,"536":0.21250355572122157,"537":-0.015573681494611588,"538":0.051380568915845186,"539":-0.08557206184912261,"540":-0.16299649905064742,"541":0.17949931056696575,"542":0.20459932623849542,"543":0.22157582065352158,"544":-0.0684738534993436,"545":-0.07546857714104777,"546":-0.021728068667022798,"547":-0.0349996875780276,"548":0.07326005128742759,"549":-0.07911181176064294,"550":-0.22017689779158556,"551":0.11591116525548929,"552":0.06380497722506313,"553":-0.03532547098339471,"554":-0.1598212606039876,"555":-0.2805514639295718,"556":-0.10353151629679991,"557":-0.1478044235436861,"558":0.09175399415814393,"559":-0.0036345406413678515,"560":0.10844868747500504,"561":0.2085011661882238,"562":0.17646772200760097,"563":-0.043592589153503516,"564":-0.03620297645257523,"565":-0.12720396680127488,"566":-0.07602267837858179,"567":0.15457992612617927,"568":-0.019962605908210616,"569":0.04936113792202558,"570":0.20640399174713558,"571":-0.04937489373425183,"572":-0.1310964658630601,"573":-0.1560539111185176,"574":-0.23117632492062498,"575":0.06144057922661968}},"6":{"bias":-0.12351048681703523,"weights":{"0":-0.07311905513209041,"1":0.0012009975877575651,"2":0.0948302840883465,"3":0.3062066170148164,"4":0.1860651611450224,"5":-0.22472729619323076,"6":0.2540320519783235,"7":0.14111457734153932,"8":-0.1398572357358232,"9":0.012694713865607814,"10":0.133351730125312,"11":0.22267031847382487,"12":-0.14964139988595715,"13":0.2828968096048558,"14":0.11692145725358852,"15":0.07562012302316964,"16":-0.03295454302869523,"17":-0.021441716128977772,"18":0.09005569028765555,"19":-0.010989844550400443,"20":-0.1381184381454509,"21":-0.05044113707520279,"22":-0.21012384980270565,"23":-0.1609153967791381,"24":0.21458630133423132,"25":-0.3459442681478986,"26":-0.011297888620219826,"27":-0.20547653868869745,"28":0.03029268451257717,"29":0.13461971954146137,"30":0.27059699233140666,"31":-0.07491435586840228,"32":0.007283113019559488,"33":0.09560986929578282,"34":0.0061046888741509275,"35":0.14524662323668408,"36":0.16510146982855925,"37":0.16363525451532973,"38":-0.13868194502303166,"39":-0.13859618645476063,"40":0.1743907159459183,"41":0.004347844781844558,"42":-0.06397850115655926,"43":0.12241856173864275,"44":-0.12888906974097078,"45":-0.20275968228715907,"46":-0.2837820804976773,"47":-0.14986068966710347,"48":-0.19056891704834827,"49":-0.02927791925316935,"50":-0.14468399819444716,"51":-0.27130177691585616,"52":0.023228250059235456,"53":0.047641975066980806,"54":-0.12172699331788478,"55":-0.1719526986985574,"56":-0.11358057484161493,"57":0.0462846045091181,"58":-0.13577302828949894,"59":0.0848544917777972,"60":-0.19335832199734435,"61":0.13418317643076813,"62":0.10874754515660844,"63":-0.011061589933099834,"64":0.06146332194688141,"65":-0.03499581066746173,"66":-0.21004892121431268,"67":0.03542018230449754,"68":0.035398289344292205,"69":0.03461811087254254,"70":-0.23890482383328834,"71":-0.3949116244416249,"72":-0.04313337769361776,"73":-0.28967085462610964,"74":0.07963619810377891,"75":-0.2541211204771465,"76":0.010333417476018717,"77":-0.09149090292191422,"78":-0.024659630305577874,"79":0.2617349533025934,"80":0.16240724423750005,"81":0.19716415363329623,"82":0.13768361961959785,"83":-0.09634609495284781,"84":-0.07598251228366204,"85":0.13382871847833824,"86":0.011433363417087958,"87":0.05028897900341073,"88":-0.054936790501860976,"89":0.170004473447567,"90":-0.03362107919046308,"91":0.1483646263081813,"92":-0.1946079950041656,"93":-0.3165447172068323,"94":-0.21747081083073125,"95":-0.1900676839971914,"96":-0.05701974173721056,"97":-0.18581488142667496,"98":0.09475382571240425,"99":-0.06668770547427899,"100":-0.17939114166723857,"101":0.10937287001838528,"102":-0.04698135511981105,"103":0.193902626559123,"104":-0.012776305217280529,"105":-0.023720990994226795,"106":0.2567971872980466,"107":0.16743021449063875,"108":-0.11943549692009058,"109":0.029774637982682952,"110":-0.1340020975138681,"111":0.09641997887505036,"112":0.20636785191607113,"113":-0.0033862488395626257,"114":-0.12544638377359676,"115":0.06893678148470798,"116":-0.06968446491315433,"117":0.00792681658649157,"118":-0.10329977198682058,"119":-0.03660716864650914,"120":-0.14603261173539858,"121":-0.19728129327369578,"122":-0.11715969539560919,"123":0.1155364977033912,"124":-0.026641635466689417,"125":0.19066237711999143,"126":0.03689798826419228,"127":0.0891241623403057,"128":-0.12434701150366469,"129":0.030793614703659232,"130":0.2263349951907899,"131":-0.060620494280694597,"132":0.20710653537438037,"133":0.17798695866999875,"134":0.03804714085933749,"135":-0.10137655045033792,"136":0.18009737900357745,"137":-0.034436664175747395,"138":0.2816903412763455,"139":0.052961974796946656,"140":-0.036965642469620315,"141":0.12203956880998225,"142":0.00918591128997369,"143":0.003135951078231596,