{"layers":[{"0":{},"1":{},"2":{},"3":{},"4":{},"5":{},"6":{},"7":{},"8":{},"9":{},"10":{},"11":{},"12":{},"13":{},"14":{},"15":{},"16":{},"17":{},"18":{},"19":{},"20":{},"21":{},"22":{},"23":{},"24":{},"25":{},"26":{},"27":{},"28":{},"29":{},"30":{},"31":{},"32":{},"33":{},"34":{},"35":{},"36":{},"37":{},"38":{},"39":{},"40":{},"41":{},"42":{},"43":{},"44":{},"45":{},"46":{},"47":{},"48":{},"49":{},"50":{},"51":{},"52":{},"53":{},"54":{},"55":{},"56":{},"57":{},"58":{},"59":{},"60":{},"61":{},"62":{},"63":{},"64":{},"65":{},"66":{},"67":{},"68":{},"69":{},"70":{},"71":{},"72":{},"73":{},"74":{},"75":{},"76":{},"77":{},"78":{},"79":{},"80":{},"81":{},"82":{},"83":{},"84":{},"85":{},"86":{},"87":{},"88":{},"89":{},"90":{},"91":{},"92":{},"93":{},"94":{},"95":{},"96":{},"97":{},"98":{},"99":{},"100":{},"101":{},"102":{},"103":{},"104":{},"105":{},"106":{},"107":{},"108":{},"109":{},"110":{},"111":{},"112":{},"113":{},"114":{},"115":{},"116":{},"117":{},"118":{},"119":{},"120":{},"121":{},"122":{},"123":{},"124":{},"125":{},"126":{},"127":{},"128":{},"129":{},"130":{},"131":{},"132":{},"133":{},"134":{},"135":{},"136":{},"137":{},"138":{},"139":{},"140":{},"141":{},"142":{},"143":{},"144":{},"145":{},"146":{},"147":{},"148":{},"149":{},"150":{},"151":{},"152":{},"153":{},"154":{},"155":{},"156":{},"157":{},"158":{},"159":{},"160":{},"161":{},"162":{},"163":{},"164":{},"165":{},"166":{},"167":{},"168":{},"169":{},"170":{},"171":{},"172":{},"173":{},"174":{},"175":{},"176":{},"177":{},"178":{},"179":{},"180":{},"181":{},"182":{},"183":{},"184":{},"185":{},"186":{},"187":{},"188":{},"189":{},"190":{},"191":{},"192":{},"193":{},"194":{},"195":{},"196":{},"197":{},"198":{},"199":{},"200":{},"201":{},"202":{},"203":{},"204":{},"205":{},"206":{},"207":{},"208":{},"209":{},"210":{},"211":{},"212":{},"213":{},"214":{},"215":{},"216":{},"217":{},"218":{},"219":{},"220":{},"221":{},"222":{},"223":{},"224":{},"225":{},"226":{},"227":{},"228":{},"229":{},"230":{},"231":{},"232":{},"233":{},"234":{},"235":{},"236":{},"237":{},"238":{},"239":{},"240":{},"241":{},"242":{},"243":{},"244":{},"245":{},"246":{},"247":{},"248":{},"249":{},"250":{},"251":{},"252":{},"253":{},"254":{},"255":{}},{"0":{"bias":-0.23062621708927353,"weights":{"0":-0.23601600628243632,"1":0.08007596232622308,"2":0.22926300305136044,"3":0.026818379044506034,"4":0.06526259547122272,"5":-0.09947089878352697,"6":0.3764653571310139,"7":0.1909971428423133,"8":0.07521249554923524,"9":0.01241010786046272,"10":0.3790214585597717,"11":0.27473881203468414,"12":0.17891695936953567,"13":0.18976900401366215,"14":0.02261808456320312,"15":0.5480228305840117,"16":0.036306050137564376,"17":0.03162127624763277,"18":-0.11609282904945233,"19":-0.2122097682963545,"20":0.16124060594356213,"21":-0.12099003427868489,"22":0.081157031712989,"23":-0.004525693267532268,"24":-0.2565404804186891,"25":-0.18151482375441913,"26":-0.020426016332181295,"27":0.07506003688460082,"28":0.0558886253723711,"29":-0.20911806010619408,"30":0.03157614013379068,"31":-0.16393255502563783,"32":0.025963869100900903,"33":0.15523563187755596,"34":-0.08067775306491246,"35":-0.14086193945096057,"36":0.08620363504853726,"37":0.1801232307346635,"38":-0.035056449708917324,"39":-0.11738053386522251,"40":0.0337372197688041,"41":-0.01728338659865529,"42":0.1384130051263576,"43":0.11396023540804995,"44":-0.10605499180339222,"45":-0.20778208634740075,"46":0.13608981755167895,"47":0.19625636880229894,"48":0.14719105856696843,"49":0.12627039098064,"50":0.17739779665302327,"51":-0.01719127920951841,"52":-0.03709075431702326,"53":-0.15076453582236318,"54":0.13211574047851438,"55":-0.32443002786575226,"56":-0.19545896195868853,"57":-0.057568943457821174,"58":-0.16104915989103993,"59":-0.24997851815653285,"60":-0.14740492463701663,"61":0.005460192327546846,"62":0.09065462832946303,"63":0.16178755938563263,"64":0.12836636714547672,"65":0.06868927697016355,"66":0.21256425739591403,"67":-0.21459781290035057,"68":-0.16038268053554677,"69":-0.026812032105434862,"70":-0.4481545522596953,"71":-0.004092194666904711,"72":-0.08443036733078692,"73":0.06073479061521495,"74":-0.17145330906884598,"75":-0.06394875313057254,"76":-0.08022592718522029,"77":-0.12136883274019189,"78":-0.13138136036612783,"79":-0.04759553879409488,"80":0.2173319070372768,"81":0.06232642997293423,"82":0.22018190572078722,"83":0.03766824012174574,"84":-0.10952664593680543,"85":0.19576471092442213,"86":-0.04809058344443293,"87":0.03753615971178995,"88":-0.09002982498534137,"89":0.04532958316498008,"90":-0.1294471170155399,"91":0.00008365908378187813,"92":-0.23598317813925415,"93":-0.14195478560420943,"94":0.07956979466583182,"95":0.07498680029661196,"96":0.24206935808842042,"97":0.2126461373363284,"98":0.11443471704856698,"99":0.1046403518179129,"100":0.09442014442953803,"101":-0.14266529120389218,"102":-0.020118990316969995,"103":0.013131957586137848,"104":-0.2228489494788605,"105":0.251886121174244,"106":0.05173046231152782,"107":0.05748229479981959,"108":0.04941178800225106,"109":0.016663234964085196,"110":-0.10447553921329514,"111":0.2534023052909143,"112":0.17079210877217868,"113":0.02936972324847555,"114":0.06853601406327453,"115":0.02929294329284704,"116":0.19253929346592272,"117":-0.09822251498203825,"118":-0.09967646841399366,"119":0.09470406394646197,"120":0.38746083761062394,"121":0.2828172634848794,"122":0.46911442067820586,"123":0.09039884891734157,"124":0.18223353488206878,"125":-0.21048722125137653,"126":-0.02820091317128969,"127":-0.022814506352731856,"128":0.3200945881435643,"129":0.23492938114989298,"130":0.1917331796935441,"131":0.004835996341336576,"132":0.38475281771787856,"133":0.1496371447044721,"134":0.10929298761118737,"135":0.39057137972357864,"136":0.25331602002408643,"137":0.5066338190840519,"138":0.4289441359321267,"139":0.3340567374957833,"140":0.12358877486223362,"141":-0.06927690707830873,"142":0.1198450357692524,"143":0.07972836332445464,"144":0.13900700300902039,"145":0.00834076882911283,"146":-0.14487966062783553,"147":-0.10185843904623823,"148":0.1866903599554014,"149":0.0027606852524911392,"150":0.060276894388240757,"151":0.07591042909879833,"152":0.25785351106884086,"153":0.2033148273175156,"154":0.35692459422560013,"155":0.2675422081691803,"156":0.1809073439924487,"157":-0.1022971568337461,"158":0.115696476010357,"159":0.18319556795312802,"160":-0.09902539411393546,"161":-0.2408751229446906,"162":-0.37677425264245384,"163":0.0499400765712543,"164":0.04033686872630054,"165":-0.11034972866294997,"166":-0.17711937693145677,"167":-0.19063359280259295,"168":0.31653337097006123,"169":-0.18370053096837988,"170":0.01396391742372721,"171":-0.17825757588976862,"172":0.15126303661739085,"173":-0.19428021872779513,"174":0.21244279194168078,"175":-0.04408716326996505,"176":-0.2670481104560707,"177":-0.28146731512127376,"178":-0.24753814916211972,"179":0.023930453269792117,"180":-0.2168544362074328,"181":0.0782851904746688,"182":-0.053761975707958744,"183":-0.04943771671067025,"184":-0.15993740027253553,"185":-0.2527476931949634,"186":-0.14603969524071092,"187":-0.1845528162853939,"188":0.08745293146353741,"189":0.012915079093874772,"190":-0.036652491013155666,"191":0.15724536331994393,"192":-0.16751029141578422,"193":-0.13646129970056492,"194":-0.28029033158469446,"195":-0.048317366690279556,"196":0.13368439672553556,"197":-0.15674738398418953,"198":0.1706897729057899,"199":-0.30672003402982384,"200":-0.021457544514282098,"201":-0.18023961874549768,"202":-0.20726923323227844,"203":-0.12676577115580093,"204":-0.12322815491872813,"205":-0.16890906641252498,"206":0.19051114224928958,"207":0.11315839031665836,"208":0.183018769770167,"209":0.04257103873109496,"210":-0.2581132119433902,"211":0.0317391624585201,"212":0.04272241938377719,"213":0.2986083522253375,"214":0.08305941974317735,"215":-0.2897097440372555,"216":-0.10491650060148809,"217":-0.22833866910226053,"218":-0.007775956800525998,"219":-0.03751948993725139,"220":0.05257226772699371,"221":-0.19820668581091777,"222":-0.2966094495412839,"223":0.08462196751892602,"224":0.022450394150280564,"225":-0.3632245728880047,"226":-0.17087215962426183,"227":-0.23547960098470233,"228":0.23994667923932436,"229":-0.012676120890386859,"230":0.007591279186489604,"231":-0.028464796079460772,"232":-0.07603537029812008,"233":-0.1391148700156862,"234":0.03140613277428437,"235":-0.26957526953224065,"236":-0.15397477673619345,"237":-0.010037498689506034,"238":0.10037198541079846,"239":0.12585779085517554,"240":0.22343780288306375,"241":-0.24392995731424752,"242":-0.34190723367318204,"243":0.18786187415689856,"244":-0.36236637833262725,"245":0.15968957274092463,"246":0.002207655210362188,"247":-0.16310380976747094,"248":-0.03180158089558079,"249":-0.37716420727223604,"250":-0.07972473595131951,"251":-0.06979519981303287,"252":-0.07845758383693169,"253":-0.03617140758651648,"254":-0.361276654392077,"255":-0.3353985781674826}},"1":{"bias":0.1115071750186507,"weights":{"0":0.002968451100224779,"1":0.1093686065856375,"2":0.14657663700573,"3":-0.053094075223405174,"4":-0.04898363075288782,"5":0.1036532014850417,"6":-0.0011229060389195472,"7":-0.1593903812305395,"8":0.1548821519370588,"9":-0.07046268198137307,"10":-0.2331896215025541,"11":0.023938411636093816,"12":-0.055819296991765355,"13":-0.16386887201098296,"14":0.09879103178759752,"15":0.26611551960050617,"16":0.062417215995444246,"17":0.4139023435732862,"18":0.47165587097437434,"19":0.39225437087656556,"20":0.080179006077206,"21":-0.12844033273949956,"22":0.18290677450486137,"23":-0.025091070393994632,"24":0.35432768308461066,"25":0.08599254992227988,"26":0.02689692019251748,"27":0.07661565322543135,"28":-0.03769188030545444,"29":0.10256238743216625,"30":0.14500369378766226,"31":0.4710356373032208,"32":0.24293338374159829,"33":0.07597686475523528,"34":-0.09756368263780082,"35":0.08149050742840692,"36":-0.5017869814201693,"37":-0.18957492281820368,"38":0.11827476917514636,"39":0.007495510492254498,"40":-0.08842138791014739,"41":-0.07072492785156817,"42":0.08874769277853944,"43":0.16684520686228202,"44":-0.3388156751927824,"45":-0.001552035983867919,"46":0.1696853444096708,"47":0.377570874540707,"48":-0.12002294262116045,"49":-0.1972574799178072,"50":-0.07072528899497654,"51":-0.3435054106793973,"52":0.11855863485668724,"53":-0.027318954861948117,"54":0.01470741777752842,"55":-0.04399069290673976,"56":-0.23045873518007562,"57":-0.09191712915667,"58":0.001017150263654552,"59":-0.33941532041749367,"60":-0.03465454820662765,"61":-0.11383104435251885,"62":0.12450755677947722,"63":0.1384581783804999,"64":-0.17823253167718567,"65":-0.20922688131812223,"66":-0.34879953173476036,"67":-0.40928059596444893,"68":0.014580906182239669,"69":-0.26062279471388844,"70":-0.10134060766900727,"71":-0.2361951772805016,"72":0.047500478938668794,"73":-0.031137275961374927,"74":-0.17027935484746923,"75":-0.018878112154707354,"76":0.047852132779785554,"77":-0.13889601828183137,"78":0.19761642860210826,"79":0.0304518049784157,"80":0.051519614556073914,"81":0.031586739532290097,"82":-0.23869570687274,"83":-0.10220959752861908,"84":-0.005684016300505115,"85":0.028138682317093103,"86":-0.2482873832984636,"87":-0.09173155516712844,"88":0.16056322367607,"89":0.18942876763720065,"90":-0.057751531402750134,"91":-0.07650221189696009,"92":0.012741183334804696,"93":0.0021849722363914345,"94":0.06546799145731394,"95":-0.07082714523094541,"96":-0.03369012106445786,"97":-0.20408499176860093,"98":-0.35076638256889087,"99":-0.19263079537946642,"100":-0.4222713486895604,"101":-0.1132490197207188,"102":-0.03201316623507379,"103":-0.19688017360864918,"104":-0.14971476865676045,"105":0.10351570774679227,"106":0.20769127165635362,"107":-0.1001555178224094,"108":0.02297881952739205,"109":0.16077598096453163,"110":0.04752052375168498,"111":-0.12083319810417084,"112":-0.20415409471649193,"113":-0.035384694894667904,"114":0.08467764119623994,"115":0.25812633681509856,"116":-0.1446523013624417,"117":-0.2756077096031798,"118":-0.038038620706230084,"119":0.06834184954296728,"120":0.18179384717232888,"121":0.4329531526922514,"122":0.5916413894492458,"123":0.23230892166597006,"124":0.23630715534794064,"125":0.09573576778185237,"126":0.14885124791598112,"127":-0.04672672575209114,"128":0.11015711049909604,"129":-0.21223709741760027,"130":0.3172568621281938,"131":0.06676262923743581,"132":0.08027338028752362,"133":-0.020435367002438774,"134":0.3040385946837822,"135":0.15309108382718295,"136":0.0914219706862195,"137":0.23118155586085268,"138":0.5009203673217221,"139":0.30860838022321835,"140":0.013820452103475812,"141":0.0122278424066709,"142":0.19349533722793916,"143":-0.03621050575925406,"144":0.1389001135566422,"145":-0.11227902705364035,"146":0.2266522953502372,"147":0.056509427250549686,"148":0.022875264588475552,"149":0.02361314491901448,"150":-0.24635241503579897,"151":0.14172267065892644,"152":0.19555569371952644,"153":-0.08516185390567502,"154":-0.11299083280755037,"155":-0.018132396250634498,"156":0.2507507719358729,"157":0.17980213473455303,"158":0.16449512720988652,"159":-0.18453735868939067,"160":-0.09698234695113205,"161":-0.06548530951805545,"162":0.015031667076589574,"163":-0.03942005755284481,"164":0.2478597865870074,"165":0.1422106595912706,"166":-0.16555405364363565,"167":-0.1672986329393283,"168":0.0715727274984931,"169":-0.24808125498159375,"170":-0.25238197833112896,"171":-0.20187824749196612,"172":0.22746545455784378,"173":-0.09975277070262918,"174":0.22060742420320406,"175":-0.000537069937330566,"176":-0.35913142816437693,"177":-0.2096650541125993,"178":0.12581641135579474,"179":0.14739323279827354,"180":0.052605503232575526,"181":0.20780330087499857,"182":0.028813447237318816,"183":-0.09063460437729227,"184":0.10497648853054838,"185":-0.22931952978309264,"186":-0.22183129066020996,"187":0.04120913178043148,"188":-0.07335862164773782,"189":-0.0463901079754658,"190":-0.20186429318836555,"191":-0.2732450901103131,"192":-0.1257936807402321,"193":-0.1778039898142912,"194":-0.028401335883040127,"195":0.36281324929837333,"196":-0.11407011963216916,"197":-0.14743023581133544,"198":-0.10227977436037972,"199":-0.2971440890250871,"200":-0.09098132929926235,"201":-0.026006098685377718,"202":-0.12362875978003159,"203":-0.29291260004069386,"204":-0.3186554929032644,"205":0.03735402723228613,"206":-0.02325483593935156,"207":-0.04071977565875181,"208":-0.13802859918357802,"209":-0.1372239253048424,"210":0.045130597183910555,"211":0.07175591066300449,"212":0.16554695972195302,"213":0.1449848505156952,"214":-0.12554699669451336,"215":0.05109864713967754,"216":0.1067904769215561,"217":-0.33475550274335536,"218":-0.14353994069376536,"219":-0.0070783082536468225,"220":-0.1943467599866259,"221":-0.26614656966889344,"222":0.1568721246993538,"223":-0.17010673338389057,"224":-0.017956203039078605,"225":0.2310452962651177,"226":0.08904754969347356,"227":0.11597691211572081,"228":0.06627215641077545,"229":-0.19885912013115956,"230":-0.02255212893194041,"231":-0.11900479522644963,"232":-0.10105692133804561,"233":-0.1713499981449875,"234":-0.20644996416559486,"235":-0.05208856478205268,"236":-0.2804602265369805,"237":-0.12444044815207818,"238":-0.015307213623987459,"239":0.1567209365749614,"240":-0.0046585179097074145,"241":-0.09829970253768518,"242":0.10993212579402271,"243":0.028466884003018954,"244":-0.021715044929123323,"245":-0.020064690765359324,"246":-0.10024376393160556,"247":-0.1593430876298763,"248":-0.12004141630323652,"249":-0.3814075389300802,"250":-0.22913345476998545,"251":-0.20275430663767438,"252":-0.10284911891746534,"253":-0.46398702502284866,"254":-0.30195361075303645,"255":-0.3114583350006206}},"2":{"bias":-0.13294642462809408,"weights":{"0":0.12677182256977687,"1":-0.21768058441761035,"2":-0.13828081395110123,"3":-0.1930302532264818,"4":0.13579499814823695,"5":-0.0980078394337005,"6":-0.1957080622750222,"7":0.16005837227628258,"8":0.19242766281505547,"9":0.18580800973406936,"10":-0.11012539370752243,"11":0.028256120123718087,"12":0.1468358149272418,"13":0.012324912272334643,"14":0.19485819571590682,"15":-0.04251551354173052,"16":0.4987529831718981,"17":-0.016656806348798844,"18":-0.21144123871578172,"19":0.24120049635455235,"20":-0.02689772930020965,"21":0.2254321259119349,"22":0.5195465466241139,"23":0.20054567853989397,"24":0.47289006261420713,"25":0.2756019759082384,"26":0.3118035413402439,"27":0.2663684875842062,"28":0.41871245045779726,"29":0.352521886183718,"30":0.06556365660335978,"31":0.43436403419676517,"32":0.3377815485537642,"33":0.16490298395590675,"34":-0.3358122427353113,"35":-0.02992341483360273,"36":-0.16598492757897496,"37":0.055483888981393586,"38":0.0058061013057345,"39":0.12179749903394264,"40":0.15229890081442235,"41":0.1554090593568569,"42":0.28716904054673015,"43":0.17385827087982475,"44":-0.20393751626366827,"45":-0.23561294051901893,"46":-0.14020452909128533,"47":-0.019329668649466576,"48":0.31368954953601397,"49":-0.09519805065159617,"50":-0.23740014835483575,"51":0.0634584663668726,"52":-0.16804164935922208,"53":-0.2555726009044532,"54":-0.11658810223658983,"55":0.23327041149389194,"56":-0.05691689013482843,"57":0.17137533751663103,"58":-0.0388209659549108,"59":-0.20151386263011112,"60":0.0411791035008901,"61":-0.29123333098719134,"62":-0.031595441533687846,"63":-0.1713190139511827,"64":0.08001564192409949,"65":0.05305650320218089,"66":0.07447948216969477,"67":-0.09120645975223517,"68":-0.051433383754303404,"69":0.08897877704706225,"70":-0.04779602117391046,"71":0.43572284664110733,"72":0.24414546857791886,"73":0.252761462396175,"74":0.31844535204937696,"75":0.2679982137575371,"76":-0.07897612822981093,"77":-0.1481419128241569,"78":0.06352764618943,"79":-0.10419943834928212,"80":0.22066545764778261,"81":0.1148631235800804,"82":-0.18761834818106465,"83":-0.09297361384804355,"84":0.06722087766167634,"85":-0.035830102061320285,"86":-0.14581588627544784,"87":-0.010242691217635378,"88":0.22845588154625956,"89":0.41185601491300866,"90":0.027653355237004608,"91":-0.024654709510224224,"92":0.1329131556933386,"93":0.06068831701522898,"94":-0.06205313523569526,"95":-0.2934816354995325,"96":-0.13012431159802412,"97":-0.08869183956714659,"98":-0.0379110607724167,"99":-0.12105140863425203,"100":-0.1352954956929231,"101":-0.005168232084787438,"102":0.11346501265498159,"103":-0.22828163399407844,"104":-0.11360786436642667,"105":-0.08336582232297068,"106":0.21716786067992144,"107":-0.1402408937126258,"108":0.08454581380979642,"109":0.10643120587281318,"110":0.032218454723718266,"111":-0.25839262315689027,"112":-0.18244163414885436,"113":0.20056836011334533,"114":0.1296284292359854,"115":0.17071695947446158,"116":-0.17306912427755924,"117":0.08699198272761184,"118":0.09599027392450868,"119":0.023509571173060337,"120":-0.046989874532059946,"121":0.14168683961202239,"122":0.24051517362479521,"123":0.16757730588878095,"124":0.041016634292535596,"125":0.04595301367775193,"126":-0.11251379149342688,"127":0.008038656510284823,"128":-0.10783281379749912,"129":0.2841633075648274,"130":-0.014840202096705548,"131":-0.2688581471701647,"132":-0.11640246050100087,"133":-0.08617180284834794,"134":0.07534224646522082,"135":0.1501687856572009,"136":0.20405327105346263,"137":0.1505505132514608,"138":0.25609729421571126,"139":0.33082485575684206,"140":-0.04966592514622143,"141":-0.25513894889434807,"142":0.08607568979814671,"143":-0.21818909837403552,"144":0.05648618961326088,"145":0.2979647470854172,"146":-0.09520470757788284,"147":-0.35206212118596136,"148":-0.139904800979271,"149":-0.1819530189601543,"150":-0.06447331499935302,"151":0.009427677741447685,"152":0.015315815568372335,"153":-0.0856309858237299,"154":0.0040691728954744,"155":-0.07066684322075578,"156":0.1788698271951311,"157":-0.1576096264508753,"158":-0.16698526953852483,"159":0.11193875980246717,"160":0.18826528977195905,"161":-0.05879261391591843,"162":0.19552146592862463,"163":-0.047831852400638995,"164":-0.16936659740380458,"165":-0.03594178236456497,"166":-0.1744965950903389,"167":-0.1722188841985181,"168":0.16490323591159076,"169":-0.1799525043097266,"170":-0.19222456791625794,"171":0.003969529465337063,"172":0.05283037929018655,"173":-0.0587406038112271,"174":0.12111081363200853,"175":0.250213521141762,"176":0.004619381614254236,"177":-0.09801552823656594,"178":-0.1131235318255752,"179":0.047713784619890065,"180":0.069264906157277,"181":-0.09989730891715153,"182":-0.07854099334258755,"183":0.15122102582433603,"184":0.3063959339531341,"185":0.21459009696364187,"186":-0.09649756785482919,"187":0.19366449814920805,"188":0.20823520059780487,"189":0.07322055846670204,"190":-0.0943875767366412,"191":-0.09451816477877267,"192":0.14757354671717315,"193":-0.035383462645953476,"194":0.08977608834115741,"195":-0.012159227250715244,"196":-0.0964235596826083,"197":-0.4053320581359567,"198":-0.27685776821552327,"199":0.05545653095168481,"200":-0.0471381934638935,"201":-0.1332975317197172,"202":-0.2340549226273692,"203":0.012297026005930944,"204":-0.18906588982510625,"205":-0.09746523331979287,"206":0.03884985985304202,"207":0.2258477890799107,"208":-0.03751444089559681,"209":0.004091377276697337,"210":-0.12933641851798544,"211":-0.09148403482821384,"212":0.10097625064783859,"213":-0.24501965131362285,"214":0.060364477122305436,"215":0.205610408770096,"216":0.2244277647762498,"217":0.14730648221422996,"218":0.027417136933887202,"219":-0.060521160630995975,"220":-0.19159090486274888,"221":0.2504693309646862,"222":-0.1055953154583639,"223":-0.08395272033318336,"224":0.2728405547880316,"225":0.16485274025509766,"226":-0.2390921337038512,"227":-0.33213649272835016,"228":-0.3289441579139858,"229":-0.14860920609263245,"230":-0.09766837679515904,"231":0.10209707971797528,"232":0.008325942483442627,"233":0.07209191322168701,"234":0.08406398761401629,"235":0.1419556455293072,"236":-0.05750245926871176,"237":0.027276420446448894,"238":0.09339705308290043,"239":0.0552702172849238,"240":0.1401418475476512,"241":-0.10274570923988259,"242":-0.15679583651396428,"243":-0.26612310468881495,"244":0.0652815906978598,"245":-0.15784039069636083,"246":0.035059444854247335,"247":-0.2034424492283917,"248":-0.043949174578063355,"249":-0.27047959690926815,"250":0.04698799039679906,"251":0.12046128017269832,"252":-0.23878402089214076,"253":0.04221784783479962,"254":0.08199401907253365,"255":-0.11636794132110968}},"3":{"bias":0.2614402825523052,"weights":{"0":-0.3578625781330621,"1":-0.2222331870661524,"2":-0.33176408891008896,"3":-0.12093371563577485,"4":-0.2774021522689619,"5":-0.1395571926220631,"6":-0.03823976856626828,"7":0.37955562732517706,"8":0.004558812692247881,"9":0.1151793775870363,"10":0.09412759174638952,"11":-0.09955289231581103,"12":0.21843687991498462,"13":0.08392877196635376,"14":0.17308647479731282,"15":0.12585825755421765,"16":0.1600394707687447,"17":-0.260446458282521,"18":-0.4609265651874033,"19":-0.22404730009063964,"20":0.052395040216140894,"21":-0.048399659706516614,"22":-0.10717180256144965,"23":0.3028191402366988,"24":0.16362650665953357,"25":0.2815632776065585,"26":0.2071542637543128,"27":-0.22556076404736072,"28":0.008600642848073018,"29":-0.04176244664946902,"30":0.23639805795522373,"31":0.2938544735347868,"32":0.09632016265282656,"33":0.10611577098039592,"34":-0.17509978192520237,"35":-0.08362019797986296,"36":0.18319962928530542,"37":0.43751684054575074,"38":0.1626753542619715,"39":0.2914077340432855,"40":-0.15874534398057677,"41":0.016013276471579196,"42":-0.1800114433826245,"43":0.17438797245627477,"44":-0.033498262309073,"45":0.17829478260998077,"46":0.2003193967560875,"47":0.32593563368870054,"48":-0.11775062589941514,"49":-0.13941441679212488,"50":0.11553039741935452,"51":-0.19014841131611468,"52":-0.05272091399320587,"53":-0.07224523790948378,"54":0.20279522396556096,"55":0.036692416770113735,"56":0.13451363613136835,"57":0.2997333169498682,"58":0.02499206053023712,"59":-0.2329347275682066,"60":0.1921115273699978,"61":-0.2352556065342414,"62":-0.07756324367696656,"63":0.06811762620769311,"64":0.1545562885950333,"65":-0.012942308053913313,"66":0.11462990909700167,"67":-0.15887935915833226,"68":-0.014977598067868813,"69":-0.04732854381321926,"70":-0.12794104004908757,"71":0.18642255261442178,"72":-0.011400612962069342,"73":0.13647226171726792,"74":-0.11180906766611094,"75":-0.04667637513008783,"76":0.15224403553286664,"77":-0.007954811334004755,"78":0.1461325220188541,"79":-0.05505915543275878,"80":0.07830478451254087,"81":-0.1650863415858506,"82":-0.24311658039025513,"83":0.013788481528839854,"84":-0.13821620944440502,"85":-0.1149500625270359,"86":-0.061654943352664006,"87":0.050814544511553435,"88":-0.12556338511840603,"89":0.11072068064244785,"90":0.03506132582669884,"91":-0.0673421763049299,"92":-0.020025493303373894,"93":0.12401134676122695,"94":0.005006388316160398,"95":-0.2823382082228625,"96":-0.03427179561417492,"97":0.061272756136150804,"98":-0.15126048773683332,"99":-0.12568695971130264,"100":-0.13233527654854577,"101":-0.36188043469906217,"102":-0.08521285534359081,"103":-0.08515390235379489,"104":-0.14400631970595024,"105":0.06403772063740017,"106":0.1403677527471086,"107":-0.14218588995580664,"108":0.23774096532245562,"109":0.15825810562710585,"110":-0.05577284146506662,"111":-0.23099710616946675,"112":-0.06593658027794554,"113":0.028555070491850056,"114":-0.23473725951790758,"115":-0.40419836310675417,"116":-0.31149817072256614,"117":-0.16416571010572722,"118":0.013398168662103478,"119":0.025412459298483462,"120":-0.31360548285022466,"121":-0.030767788900864367,"122":-0.2360879567996729,"123":-0.11467338368373228,"124":-0.2178563946459242,"125":-0.08502301550588612,"126":-0.26547221448137226,"127":0.07553883032721598,"128":-0.050601524957031116,"129":0.17382815519813186,"130":0.014575975733721302,"131":-0.07185329274174945,"132":-0.015732821622468578,"133":-0.23287109691740893,"134":0.17771141197088863,"135":0.08920018000276599,"136":0.15509155067868796,"137":0.20351051851259938,"138":-0.11762453293003097,"139":0.1903618502170838,"140":-0.11111345837662413,"141":-0.1670839979128354,"142":-0.19837193411361795,"143":-0.10206416011644538,"144":0.13717439696447858,"145":0.18906200623632474,"146":-0.2686616072661967,"147":-0.37469669116094756,"148":0.06008509452069636,"149":-0.041035821051755995,"150":-0.30735084473587615,"151":-0.222349841979797,"152":0.00969070128921126,"153":0.0825670766666809,"154":0.19781109036019637,"155":-0.02414906364187857,"156":0.2963368430112011,"157":0.021561171549096973,"158":0.014665306672529865,"159":0.13782894049392863,"160":0.2955763456080558,"161":-0.09275950112423116,"162":-0.24104684779188443,"163":-0.09094296412911813,"164":-0.10319845280979177,"165":0.10081348454206675,"166":-0.11223685881100633,"167":0.040962661084814535,"168":0.3399118159027268,"169":0.13314523048811722,"170":-0.15288064473785606,"171":0.05789283863068173,"172":0.1082680045232734,"173":0.11332884459087765,"174":0.14539230558731767,"175":-0.12355296009289742,"176":0.07852112008962091,"177":0.10535974881156189,"178":-0.05461724878020231,"179":0.06907545101786076,"180":-0.21153568466928288,"181":-0.1437347886443621,"182":0.13665681772086938,"183":0.12574466253475758,"184":0.061693783593473356,"185":0.10082476809162215,"186":-0.0228904222933329,"187":0.176752731606215,"188":0.17090662907202872,"189":0.18103300246863807,"190":-0.00814279912505241,"191":0.04077279494973849,"192":-0.053177372964896365,"193":0.04518119789854059,"194":0.008484335971345373,"195":-0.045777880279181137,"196":-0.2961920657864898,"197":-0.29659659189282594,"198":0.166744033998762,"199":-0.2736230710452827,"200":-0.17564981684700373,"201":-0.2214574576480883,"202":-0.35601733447308015,"203":-0.3265625833370194,"204":-0.025209804411984095,"205":0.16718867098870996,"206":-0.10398537857580073,"207":-0.21016211000788412,"208":-0.07125302069122572,"209":-0.21774773946806458,"210":0.0791710380608179,"211":0.09423393578208908,"212":0.1502101945867073,"213":-0.13228294409126723,"214":-0.16077364391213217,"215":-0.21756486246480816,"216":0.021934172321055743,"217":0.07390243525815166,"218":-0.020380526573419194,"219":0.12684791360020092,"220":-0.04864336807519953,"221":0.061118862688557166,"222":0.024669532225548366,"223":-0.20230633783162585,"224":0.08376729029579563,"225":0.05924001283305314,"226":0.06412712818946478,"227":-0.1487261097192966,"228":0.1687751058011496,"229":0.4933495528453874,"230":-0.0930890093882456,"231":-0.07734715154297832,"232":-0.10306347522502113,"233":-0.25429186026823386,"234":-0.21715051190287185,"235":-0.2553157104443222,"236":-0.1352303655693455,"237":0.1720476961433439,"238":0.0849734974111381,"239":0.07677462921687404,"240":-0.3995541104657742,"241":-0.05364169809780542,"242":-0.3941128450603115,"243":-0.12886590085215172,"244":-0.04118635250965342,"245":0.2724372607969946,"246":-0.12150720208276086,"247":0.14741114280985912,"248":0.13946239818744577,"249":0.07925140937658623,"250":0.01741725630038388,"251":0.2599972671331041,"252":0.05634182518542175,"253":0.09596515933462475,"254":0.11201808572512167,"255":0.058018277945043405}},"4":{"bias":0.10280328061810597,"weights":{"0":0.11869779153043161,"1":-0.09775329902211306,"2":0.24519570481912287,"3":-0.13905715453920756,"4":0.295088181694218,"5":0.15397764259542007,"6":-0.06986450162797993,"7":-0.10676300424283032,"8":0.2093354801093087,"9":-0.037549435288785,"10":0.006511868008010794,"11":0.11761006742841454,"12":-0.21037154871820096,"13":0.08454810448538723,"14":0.09614837856888313,"15":-0.12117477747703198,"16":0.02821820202602989,"17":0.2008377436799437,"18":0.15389203615596034,"19":0.005922070541203442,"20":-0.09990362957554269,"21":-0.08085104572674746,"22":-0.14325672161772882,"23":-0.26605714992751034,"24":0.011905948975282347,"25":-0.0607593025881865,"26":-0.05394348564017954,"27":-0.16003226854799585,"28":0.07607122221487518,"29":-0.027418309253659158,"30":-0.3119151859860477,"31":-0.21850526780624674,"32":-0.09910763998918228,"33":0.2233028548173153,"34":0.22717448371082835,"35":-0.08936304463560134,"36":-0.11784161235689712,"37":-0.25355557986343896,"38":0.19798314179040064,"39":-0.1162447171174951,"40":0.07497234611907998,"41":0.13921567467292661,"42":0.03874123927572787,"43":-0.17630857365460206,"44":-0.14781498074303798,"45":0.13314792938769926,"46":0.01512562214255845,"47":0.2636834777549642,"48":0.01648962291796618,"49":0.3053136246277625,"50":0.1345348070975878,"51":-0.1931620762849027,"52":-0.2124944468222384,"53":0.13021703061534948,"54":0.008567009227997429,"55":-0.041442468765223124,"56":-0.04929447673594131,"57":-0.13554254045392228,"58":0.15651971828904704,"59":-0.14067035881900386,"60":0.23570108789267413,"61":0.12483886121809022,"62":0.1602135077656126,"63":0.34089896412282317,"64":-0.05210524939619592,"65":-0.2816299710316317,"66":-0.3015556517250245,"67":0.08874293865820342,"68":-0.17402178175341917,"69":-0.09558772073384952,"70":-0.08152863792895003,"71":0.1549755697443355,"72":-0.20254362407024437,"73":0.14162781757927834,"74":0.18218760899319825,"75":0.2539795190779664,"76":0.2051882432275766,"77":-0.020221541923546808,"78":0.20256944905414373,"79":0.22287770548695243,"80":0.13896236361688882,"81":-0.2461452229268968,"82":-0.04241894492503885,"83":-0.10865037547347756,"84":0.22077482708907148,"85":0.015265939910756584,"86":0.13494415461288697,"87":-0.07436256898843276,"88":-0.22016302661965517,"89":-0.06299300056465938,"90":0.07505723941708785,"91":-0.07912702094702792,"92":0.30586932690072277,"93":0.04553670083796315,"94":0.24433621935802366,"95":0.2831215221793089,"96":0.049666118249678544,"97":-0.3107633167152569,"98":-0.09226598930146028,"99":0.02221099683833326,"100":0.08812434138972401,"101":-0.020784991955522095,"102":-0.03263892060116695,"103":0.15870115196975423,"104":-0.06573573727591434,"105":-0.10415972960266875,"106":0.29093913007548566,"107":0.052044640724457907,"108":0.23415714595487735,"109":0.2741101148256707,"110":0.18991136242214804,"111":0.1844517158410555,"112":-0.19392781065994869,"113":-0.16355249791925774,"114":0.15930214565932055,"115":0.2651308040804753,"116":0.11008915232756891,"117":-0.12760928168673055,"118":-0.12118559756477662,"119":-0.12634920765711133,"120":0.02112628074707216,"121":-0.1878825296193955,"122":0.05587829343959006,"123":0.2015097760763348,"124":0.04236083859530297,"125":0.024749350317074172,"126":0.11011759576211302,"127":0.21418181009534942,"128":-0.13473158681878403,"129":-0.28748826626962715,"130":0.10643306200730751,"131":-0.008385210147635,"132":-0.1238028006250585,"133":-0.22835364839334266,"134":-0.04974300140271337,"135":-0.06880950143442038,"136":0.19870550825828362,"137":0.12085124334585033,"138":0.2780720515032864,"139":-0.019403344165294576,"140":-0.08911660316765783,"141":0.019617619635628525,"142":-0.029014945942552106,"143":-0.15515454134230666,"144":-0.27698316666962247,"145":-0.28449283994248814,"146":0.07235177424703296,"147":-0.03747200668273666,"148":0.1648719493389237,"149":-0.0365139527544628,"150":0.16185927348260556,"151":-0.0854154385862322,"152":-0.11712463712203615,"153":-0.011411694996251373,"154":0.022326408904762254,"155":-0.08127942421185347,"156":-0.13465392105846571,"157":-0.07726751403515296,"158":-0.11404569388466194,"159":-0.08969106761557667,"160":-0.19696094409031722,"161":-0.26119786327281136,"162":-0.2641595134379275,"163":0.011151716405288534,"164":-0.22112033516446783,"165":0.1595108772831776,"166":0.17206852224168898,"167":0.17353078834982102,"168":-0.1750266404769108,"169":-0.06476423076323132,"170":0.10478622662415771,"171":-0.046978200741699006,"172":0.04483165486531697,"173":-0.01442963713274705,"174":0.1067697567256234,"175":0.036542157662526595,"176":0.03866729232524607,"177":-0.19375156412778397,"178":0.05255244292605377,"179":-0.03981976372332797,"180":0.17569366119743618,"181":0.04080354066954962,"182":0.21291783788769061,"183":-0.032629541118056625,"184":-0.07500245643470356,"185":-0.09643151412287279,"186":0.29619850997656016,"187":0.16059162560450027,"188":0.16553714564144079,"189":0.13361444029492253,"190":-0.15923558026264611,"191":0.1728276814710118,"192":0.07665347074152169,"193":0.23629036866360503,"194":-0.17510166892963464,"195":-0.16668736069331522,"196":0.08978505108903817,"197":-0.26543831894495745,"198":-0.08119935887130825,"199":-0.2091036950353917,"200":-0.00927341039986807,"201":-0.08693528369761772,"202":-0.1731742328901087,"203":-0.00023473985251997964,"204":-0.22392873084262016,"205":-0.1864322281244168,"206":-0.005229740585022357,"207":0.32039178232995047,"208":0.00982691733402346,"209":-0.0612124648217065,"210":-0.04160658352828557,"211":-0.12206835762168873,"212":-0.16557495010963796,"213":-0.11612483345774251,"214":-0.07439252119167489,"215":0.0743825218400785,"216":-0.04212531693909681,"217":-0.287980432841079,"218":0.13922425497514912,"219":-0.1739417431094282,"220":0.08956519587599009,"221":-0.02412213467186292,"222":0.051308570042308044,"223":-0.017620342860310938,"224":0.12377938625587585,"225":0.26415761027463597,"226":0.17015360090846549,"227":-0.02384096388682935,"228":-0.13836642256370427,"229":-0.2818710564423825,"230":-0.08047920348674302,"231":0.06384768366664756,"232":-0.2444035469518544,"233":0.14120481163656884,"234":0.14405983491841912,"235":0.027049656385851446,"236":0.010061268028383348,"237":0.23061635648167156,"238":0.1216055260630247,"239":-0.07509127943526112,"240":0.34856280148119406,"241":0.16012313546882553,"242":0.25721409133074924,"243":0.27094895818480513,"244":0.20544455268500636,"245":0.22082164200954058,"246":0.07021635476757122,"247":0.13040578091066415,"248":0.12402603729290027,"249":-0.018167932053436836,"250":0.10050986296300797,"251":0.013759560841442168,"252":0.1913494612120397,"253":0.16825377011519624,"254":-0.11755173909020093,"255":0.11526154903599418}},"5":{"bias":0.02129989049401229,"weights":{"0":-0.1592690063806574,"1":-0.10105718773251979,"2":-0.07685418410582617,"3":-0.03546723513569266,"4":0.2987944645750322,"5":0.13591710326883055,"6":-0.07439867228143898,"7":0.09676215456421186,"8":0.22475756105717795,"9":0.34336977009704783,"10":-0.2244860823822325,"11":-0.11098031102603097,"12":0.13334281338452253,"13":-0.1573643573718578,"14":-0.1301957251965032,"15":0.014706140176602961,"16":0.027110011492134677,"17":-0.28541296576842184,"18":-0.3072493530929603,"19":0.06141906314079581,"20":0.14784036532654485,"21":0.3427979010992641,"22":0.41579475588430714,"23":0.664902457126765,"24":0.8059156809940605,"25":0.43611674294337743,"26":0.5911394864886073,"27":0.6490349476092979,"28":0.36714197740388205,"29":0.5492388201689344,"30":0.21574609317439905,"31":0.28796695660640903,"32":-0.08112044162574668,"33":-0.3730206890284326,"34":-0.30005950063604947,"35":-0.21428720659367093,"36":-0.37187345152380435,"37":-0.20025000009878008,"38":0.18493299370858082,"39":-0.3583037213005259,"40":-0.03543819534558183,"41":-0.018026367132953483,"42":0.12296346121253236,"43":0.1282020898578601,"44":0.07784032872517323,"45":0.24167770512776537,"46":0.03792406035220762,"47":-0.05246408575451373,"48":-0.16275947514746406,"49":-0.2652411713081264,"50":-0.24737146751643463,"51":0.08720435271314905,"52":-0.1940715282984168,"53":-0.04777926908348573,"54":-0.13958021180903374,"55":0.0796482889867945,"56":-0.47006792813767984,"57":-0.28980935278287845,"58":-0.3075069436226903,"59":-0.004544113364846087,"60":0.10572071348753678,"61":-0.025227212932787322,"62":0.1604423344807763,"63":-0.13989707895781558,"64":-0.029485530761247228,"65":-0.5596090680846025,"66":-0.15097797709417463,"67":-0.3066353384836411,"68":-0.31580726746699855,"69":-0.40816709871704504,"70":-0.03420028424475647,"71":0.09397763583733383,"72":0.22565326504711605,"73":-0.15468505823675158,"74":-0.08592600527630004,"75":-0.2661206083700795,"76":-0.3557788261902343,"77":0.297127553359486,"78":0.18125964521920943,"79":0.08158946786238479,"80":-0.08274877784450994,"81":-0.1412011031004503,"82":-0.11233231247438043,"83":-0.003994307011783668,"84":0.12372925677217386,"85":-0.1346863314349693,"86":-0.0668729963652397,"87":-0.17961333325929799,"88":0.4031926416933629,"89":0.03636153452453283,"90":0.00809857450954813,"91":-0.32829947503492085,"92":0.026244834496995283,"93":0.41412671839281995,"94":0.18302738094818324,"95":0.04886611347336927,"96":-0.21478254419960605,"97":-0.28143671635348305,"98":0.12882956092185865,"99":0.06294661025863184,"100":-0.17363570942424233,"101":-0.1359735914450507,"102":-0.08974591821188911,"103":-0.3660733770752772,"104":-0.05285266894767083,"105":-0.23646928945948315,"106":-0.43270949291069144,"107":-0.17054347607876355,"108":0.19242243822952057,"109":0.07074281221519087,"110":0.07715181491018801,"111":-0.1414862665441098,"112":-0.2484314281295735,"113":0.07146240839824688,"114":-0.0716606309660079,"115":-0.010783621204491212,"116":0.16373252135646532,"117":0.023200043052197288,"118":0.03757236929274562,"119":-0.19322943710040966,"120":-0.1793969460443568,"121":-0.24612545011356324,"122":-0.06898466252216917,"123":-0.2016053542881897,"124":-0.01657090723390427,"125":0.281211676417957,"126":0.12059431097132271,"127":0.052353270237317305,"128":-0.19158458466928477,"129":-0.10264373430190443,"130":-0.28703216498502476,"131":-0.1883131813891651,"132":-0.3020710115935321,"133":-0.07441852399533644,"134":0.2874985706893353,"135":0.22949229947412556,"136":-0.13988201121290883,"137":0.18315863329363244,"138":0.07768236980738714,"139":0.23253409185797733,"140":0.07037942598574715,"141":-0.25637035232134064,"142":-0.22924350988395284,"143":-0.08955898621153331,"144":-0.264771753626052,"145":-0.05443733526755119,"146":0.1404410080392346,"147":0.03345001993436735,"148":-0.1607751410317079,"149":0.07844552084863327,"150":0.0035349886767117697,"151":-0.024842242034763026,"152":-0.01925165314703763,"153":-0.07975782303821757,"154":-0.02307756477690599,"155":0.169998354567029,"156":0.25376775363038784,"157":-0.2871647801517637,"158":-0.20441848475438162,"159":0.04506554334760122,"160":-0.2538220393639987,"161":-0.12024137730387587,"162":0.32461651487992116,"163":-0.1591499068666843,"164":-0.09691606391753096,"165":-0.0300639767428357,"166":-0.21868035635642705,"167":-0.09467783775051052,"168":-0.2054092908401883,"169":-0.33671346219025833,"170":-0.21179106976456785,"171":0.2489775737685008,"172":-0.0936622891387483,"173":0.1478345583209344,"174":0.207835411998221,"175":0.04144376031600031,"176":-0.17220411657416898,"177":0.04303839575644761,"178":0.4495129407307142,"179":0.0923325840055886,"180":-0.1132217881095757,"181":0.16814086626770858,"182":0.23948193167604942,"183":-0.14964429700594756,"184":-0.040658021525422604,"185":-0.30944194934248614,"186":-0.06619549309087158,"187":-0.020563707584162292,"188":-0.04609157266126878,"189":-0.07933826105635317,"190":-0.23744256513773576,"191":0.09369066840533966,"192":0.06407450573669464,"193":0.07607540231295033,"194":0.5142954175682009,"195":0.28959752396891436,"196":-0.01902272051383559,"197":0.24604338635618467,"198":0.25250033868991806,"199":0.17072100066376067,"200":-0.11610914728188518,"201":-0.06981790964204211,"202":0.04583454125959229,"203":0.0007010584607740821,"204":0.0027188914672535117,"205":0.16082772759185968,"206":-0.011105907292340822,"207":0.08042142144168107,"208":-0.09541387654606853,"209":-0.20708501467743864,"210":0.23694135669215738,"211":-0.02869022837246135,"212":-0.07377280823936944,"213":-0.07985511120877889,"214":0.29351787946131974,"215":0.09694263679822328,"216":-0.06462147906383912,"217":0.12454611621050307,"218":-0.15557814661703903,"219":-0.047005372807027594,"220":0.17170556680507512,"221":-0.06640281466782964,"222":-0.020184837288183075,"223":-0.20514135086826468,"224":0.08645370758089396,"225":-0.13134351680143927,"226":-0.0471000807107592,"227":0.01708045609805793,"228":-0.38418463276411224,"229":-0.25094574493697336,"230":0.1304297394753998,"231":0.01137829639581165,"232":0.23103293703268118,"233":0.0802161682926721,"234":-0.005660826424423884,"235":0.03621411606604909,"236":0.05088136070748353,"237":-0.32978398596323427,"238":-0.18500266847732091,"239":-0.3660208664239102,"240":-0.1283972888094444,"241":-0.28257969996686416,"242":-0.051007816894467345,"243":0.005412257067066261,"244":0.16939084686611128,"245":0.012824053351318828,"246":0.14347231101407057,"247":-0.01318239834369116,"248":0.2334397605320187,"249":0.08990491310798027,"250":0.16119483068441864,"251":0.267362182521419,"252":-0.05000007003945193,"253":0.10402645585394062,"254":0.000473445656909265,"255":-0.22112776860388214}},"6":{"bias":0.14680834688120886,"weights":{"0":-0.6064395482689067,"1":-0.060504322327938856,"2":-0.31489675843952125,"3":-0.017484103379771698,"4":-0.3589582957675563,"5":-0.0022118803714145222,"6":-0.013013820869415008,"7":-0.03005179262152491,"8":-0.11340755233541841,"9":-0.12507000682029518,"10":-0.07160134569475128,"11":0.10346751069124004,"12":-0.046970261102061886,"13":-0.5303943708623728,"14":-0.3649373919020216,"15":-0.3383112123205614,"16":-0.19035553770258187,"17":-0.016774416148889013,"18":-0.28321945848764724,"19":-0.2814301275605024,"20":-0.2589769616253616,"21":-0.2773685331473378,"22":-0.6134146225707748,"23":-0.2766493459657169,"24":-0.07078787539638626,"25":-0.20871967388830848,"26":-0.47796292950998515,"27":-0.4073718417951218,"28":-0.1796838675945598,"29":-0.2664455237037365,"30":-0.3483825321888454,"31":-0.22576563032231908,"32":-0.48262111472076175,"33":0.21156353845300357,"34":0.016971604545256785,"35":-0.12416658571072557,"36":0.14692636636891,"37":0.2989418369620917,"38":-0.1357230592502659,"39":0.187043132110231,"40":0.24306681238353428,"41":0.17003738425986628,"42":-0.20170777941449267,"43":0.19197400965118805,"44":-0.35973559199915606,"45":-0.0240049634900427,"46":0.2604536944959655,"47":0.23555734622495242,"48":-0.33225825808696535,"49":-0.15166027651046157,"50":0.10202304189062905,"51":-0.13488680196682543,"52":0.1432938448683902,"53":-0.17982793152274376,"54":0.027228712057328294,"55":0.0441220451469814,"56":0.037977937756495474,"57":0.16039363724523606,"58":0.07096037620516382,"59":-0.1966164017107548,"60":-0.10522558726668017,"61":-0.03290640959199917,"62":0.17039325255325957,"63":-0.13415719483385266,"64":-0.3946010359224126,"65":0.09937655052469405,"66":-0.06984527291251162,"67":0.02706189268316571,"68":0.08191742530686381,"69":-0.17526753338759873,"70":0.0693892691025624,"71":0.21988275865813237,"72":-0.13122375404693934,"73":0.2696644792468369,"74":0.04786924862282263,"75":0.1389345961469528,"76":-0.08046196965006214,"77":-0.21360064726367384,"78":-0.11046459022255986,"79":-0.029166318547000285,"80":-0.23032553699538805,"81":0.044115781566969756,"82":-0.19936813749714477,"83":0.023728956326411716,"84":-0.378281464719466,"85":0.20970390749944914,"86":-0.11898647708818312,"87":0.23032848010753856,"88":0.09728395790871211,"89":0.056030239451925014,"90":0.006050391132739843,"91":0.20307194057662195,"92":-0.16910525480218946,"93":-0.17778703477201313,"94":0.11642995661512826,"95":0.03609569282825306,"96":-0.2629518790858716,"97":-0.004607632122683737,"98":0.0013766629532777424,"99":0.07340248969542063,"100":-0.08100349408195452,"101":-0.11572508766224698,"102":0.04119996344305579,"103":0.18008098740247538,"104":-0.18172329711332458,"105":-0.08960153052248182,"106":-0.09332267846746525,"107":-0.025409127653546876,"108":-0.05045789470699774,"109":-0.03607635435916693,"110":0.011613327725007056,"111":-0.26137277963360955,"112":0.11454028320878762,"113":-0.15348808234548392,"114":-0.2419672370808,"115":-0.23650304038389372,"116":0.0022901379108630415,"117":-0.20893975129683945,"118":0.1295071554344116,"119":0.19045865673769782,"120":0.1831637276499702,"121":0.13098611463265233,"122":0.2552312439804182,"123":0.11559349082016636,"124":0.13992459264615476,"125":0.12314215825780508,"126":-0.046850261635014406,"127":-0.27833485879157543,"128":0.3382722415586803,"129":-0.12890584270350963,"130":-0.3123574263041892,"131":-0.033865842512212065,"132":-0.031332531647436844,"133":0.16199460481876854,"134":0.24845109781060526,"135":0.3462347953069176,"136":0.3593886768207326,"137":0.10696769799645367,"138":0.388172618316793,"139":0.3877125454791427,"140":0.24440712564107633,"141":0.08373522892494838,"142":0.13269532756403288,"143":-0.10975678924816781,"144":0.36181158212263964,"145":-0.10876034703385136,"146":-0.15171422544695404,"147":0.0023303926249903205,"148":-0.24078285426528862,"149":-0.18695258092601902,"150":-0.2723053209016931,"151":-0.05918706940102539,"152":-0.17994085252592845,"153":0.1354491799141475,"154":0.3109084050243228,"155":0.25914260976212855,"156":0.1239767817854981,"157":0.33461076648158866,"158":0.4049643738247437,"159":0.16144881552825732,"160":0.2998316655891175,"161":0.32238174601465414,"162":-0.005261558123462852,"163":0.15116864971937163,"164":0.0688365388286995,"165":-0.10691508690290241,"166":-0.37441090541929667,"167":-0.29273961391067665,"168":0.10166316195417562,"169":-0.2143548994653004,"170":0.03766400914543308,"171":0.11879826690130033,"172":0.27674749675647065,"173":0.2954317185823914,"174":0.12510562996014699,"175":0.1177885716764365,"176":0.30786704304023293,"177":0.3103967951340181,"178":-0.02216873436231997,"179":-0.050239642464951315,"180":0.14280429352126475,"181":-0.0789151487254358,"182":-0.11631121454273048,"183":0.17029938718069454,"184":-0.05963026324404186,"185":-0.1497014481827273,"186":-0.15656957820232378,"187":-0.14431011962558388,"188":0.014860420959921058,"189":0.22107010001426092,"190":0.1972184598097869,"191":0.019957422561198663,"192":0.09522388253503593,"193":0.21829635758149235,"194":0.19649443613962425,"195":0.025817236938851486,"196":0.13980644054208471,"197":-0.3252392145975203,"198":-0.11002714644832888,"199":0.059598350461655354,"200":0.2022176194085917,"201":0.08130489483031664,"202":0.23541469157665137,"203":-0.09724775284844635,"204":-0.0691939845273292,"205":-0.0755923090554458,"206":0.08370846563075171,"207":0.14482374074157678,"208":-0.24658256784397287,"209":0.1020210845685432,"210":-0.170048140092787,"211":-0.054598044346954026,"212":-0.023200186317611306,"213":-0.0407989007864576,"214":-0.05596604703751515,"215":-0.004006694930477877,"216":0.18360287069990208,"217":0.07143220503077673,"218":-0.06505626789328836,"219":-0.1463660094022362,"220":-0.08471139905588436,"221":0.05786612978240349,"222":-0.1340524696373911,"223":0.33680558663984983,"224":-0.0445748149927653,"225":-0.0069534401175282805,"226":0.03054147197301737,"227":0.08232270666821455,"228":0.05920423639761858,"229":0.053349367403558265,"230":-0.26622121013773226,"231":-0.009139042125745187,"232":0.11702903435798805,"233":-0.06407364955917381,"234":-0.21450589092536473,"235":-0.15144649387675876,"236":-0.05438205635126551,"237":-0.06499168113931221,"238":0.29371696431233263,"239":0.5209716023035583,"240":-0.565366775403245,"241":-0.07560934740398483,"242":-0.24126050641030744,"243":-0.03845402751358612,"244":-0.09282491546709004,"245":0.08112173501170097,"246":-0.22183452556608316,"247":-0.1763054565456848,"248":-0.08241295271300825,"249":0.15433969926377022,"250":-0.18714029470225493,"251":0.0625212446889551,"252":-0.1381599036418641,"253":-0.06492175035800006,"254":0.31208457327921174,"255":0.21682653905522375}},"7":{"bias":-0.05950742400346492,"weights":{"0":0.0060719558881612,"1":0.11852219268559412,"2":-0.11781134314819931,"3":0.018195171370375008,"4":-0.13203228943845594,"5":-0.0341950167452287,"6":0.1197765169133163,"7":0.0037913809269042825,"8":0.07937914661837837,"9":-0.059503276412615345,"10":0.20764173473452738,"11":-0.21834537031848902,"12":-0.06021160215057413,"13":-0.13275776277024504,"14":-0.12010807670727972,"15":0.008930036600464807,"16":-0.18094431208116746,"17":-0.17553097876463447,"18":-0.22681372191527416,"19":0.05353749067552291,"20":-0.16933756743802145,"21":-0.30054150545786096,"22":-0.4010398522984925,"23":-0.29535937891772607,"24":-0.258345870949737,"25":-0.3064935093077229,"26":-0.0342556256856572,"27":-0.3485944390629944,"28":-0.25166279987679385,"29":-0.1346380843996602,"30":-0.06514929201783166,"31":-0.04930541405723604,"32":-0.24746915175745285,"33":-0.10307588942291475,"34":0.2014217182775898,"35":0.17698063752600257,"36":0.32329120133249334,"37":0.30016775914652377,"38":0.07420626961320051,"39":-0.08119186243089876,"40":0.04484741015325676,"41":-0.41425866268966105,"42":-0.36292481116588915,"43":0.07956405929569974,"44":-0.1654291641043096,"45":0.021575417089194734,"46":-0.14293907925900454,"47":0.09121589491469727,"48":-0.053036137408976454,"49":0.14507090425462418,"50":0.04743779438788958,"51":0.19955628864679165,"52":0.09715074229471152,"53":0.3654106738462498,"54":0.12895415785410877,"55":0.21433555132511944,"56":-0.06024904199582318,"57":-0.04226855870957997,"58":-0.22151425249555215,"59":-0.04669579982560167,"60":-0.2200307928971548,"61":0.0009370903631680703,"62":-0.017477561437965774,"63":-0.05090094339029287,"64":0.1300565821294672,"65":0.321262441609779,"66":0.4210626951196811,"67":0.4896452461430555,"68":0.0805868719650021,"69":0.051318510309955954,"70":0.04977364019101444,"71":-0.10902243743860095,"72":0.061201627415758464,"73":-0.038251056246019315,"74":-0.14772093415156234,"75":-0.3946796960396441,"76":-0.3133589595756803,"77":-0.08632819324441926,"78":-0.020339384527439133,"79":-0.22243244043541505,"80":0.23916351537291716,"81":0.07199813430827924,"82":0.04823241965971259,"83":0.14495402443452532,"84":-0.07964298523624459,"85":0.2877894003835639,"86":0.16108740612668374,"87":-0.0960171700541474,"88":0.05801878865219139,"89":-0.22517721025524565,"90":-0.027359167707575915,"91":-0.4405728564556735,"92":-0.39501914679549144,"93":-0.2551327310118751,"94":-0.2784151329695672,"95":-0.024566070923588097,"96":0.06838655107112422,"97":0.24566832807866285,"98":-0.03755041561146247,"99":-0.06424448120092685,"100":0.17563156116968104,"101":-0.09337163711197209,"102":-0.1637960031100922,"103":0.25115368852283876,"104":0.3135236240894454,"105":-0.010037757385750691,"106":-0.30020969594233143,"107":0.028416941890842786,"108":0.1037619359925474,"109":-0.047268215137002044,"110":0.02672239541473989,"111":-0.004143172649565398,"112":0.2715354111379095,"113":0.09988563232533812,"114":-0.23073713171720817,"115":-0.0018742253040314567,"116":-0.066377408062909,"117":0.08647651969197728,"118":0.031143472024285388,"119":0.4819159856330689,"120":0.3277693797795889,"121":0.19101537571027802,"122":-0.08006322450059096,"123":-0.25826860337578905,"124":0.27328667502265547,"125":-0.18790427957322192,"126":-0.12187110236757068,"127":-0.09987690175322059,"128":0.2375426029016287,"129":-0.19143349782374508,"130":-0.04108730567001796,"131":0.015099613785226767,"132":-0.038607098618403446,"133":0.013532148248381759,"134":0.22619548330245104,"135":0.3350611807605819,"136":0.036800533693217,"137":0.36078976261720563,"138":0.30496642290538334,"139":0.021529388317131765,"140":0.14934865459073032,"141":0.1694924614514811,"142":-0.177023975480685,"143":-0.20441518059546368,"144":-0.10379519813463688,"145":-0.016534666599226196,"146":-0.08723338078210834,"147":-0.053796247006163846,"148":-0.08729966295939355,"149":0.26393982129140203,"150":-0.025814719518102196,"151":0.30760587375020626,"152":0.10472985023174347,"153":0.05658971513028609,"154":0.5749175391648268,"155":0.11532050555701982,"156":0.12776724159129405,"157":0.29064257100959856,"158":0.1267961676402691,"159":0.10025744746307501,"160":-0.04192407539951748,"161":0.027057723332701372,"162":-0.07877854055203645,"163":-0.06936885574241256,"164":0.10074833029717095,"165":-0.09281690958307437,"166":-0.17528041376739603,"167":0.03199828589007808,"168":-0.03276718609951813,"169":-0.023350774381717596,"170":0.18174997592493067,"171":-0.04659638449374621,"172":-0.26097568919271846,"173":0.06798283076305152,"174":-0.19770266296409084,"175":-0.04238619398014148,"176":0.12631832551563302,"177":0.09349071218235264,"178":-0.3594156013882188,"179":-0.3313904669413728,"180":-0.011505605232491284,"181":-0.20376421451675236,"182":-0.19781159372622464,"183":0.10571609619822026,"184":-0.12786634035853114,"185":-0.16516248333388595,"186":0.007489381959313449,"187":-0.072725314542027,"188":-0.3629604718164884,"189":-0.03531658576724715,"190":0.1521214563407683,"191":0.1493218544735968,"192":0.07045312657493999,"193":0.05918772423572695,"194":-0.10034522467528431,"195":-0.4053341763950603,"196":0.35840039476856184,"197":0.3274252489684572,"198":0.2325164561753428,"199":-0.017357261428593385,"200":0.3214449046772127,"201":-0.0711914013898848,"202":0.48356869657712626,"203":0.3123705565443793,"204":0.1630764434781722,"205":0.03745237939932191,"206":-0.14867160367706062,"207":-0.25240285463420437,"208":-0.04439159090416995,"209":-0.09383619355715649,"210":-0.3180776448663547,"211":-0.3740028355839714,"212":0.11207049298577679,"213":0.16737073063079222,"214":0.2512472841528774,"215":-0.02069572494649141,"216":-0.055552956531427576,"217":0.07383813521074989,"218":0.3228560167152838,"219":0.05523514680652951,"220":0.3533464838511301,"221":0.027568835761123494,"222":-0.08848240964070461,"223":-0.2094191951868689,"224":-0.1057174118692643,"225":-0.13939929231892714,"226":-0.022294655835457453,"227":0.0357911252210129,"228":-0.04871607361683704,"229":0.03362773972642239,"230":0.12684359459243033,"231":0.14282139868090185,"232":0.23257264192089355,"233":0.1118648478462282,"234":-0.08694568776529411,"235":0.2262898259046403,"236":0.11188581584704582,"237":-0.10189689782314115,"238":-0.21605347175190917,"239":0.19933718264726097,"240":-0.16707739601695668,"241":0.04028846938601726,"242":0.14379394242293603,"243":0.0665585982380158,"244":-0.06683821184509937,"245":-0.052858573143400776,"246":0.006588339148815723,"247":0.09697338843872591,"248":0.028835022564355998,"249":0.2663212043193373,"250":0.13056930792102442,"251":0.10195001849416632,"252":0.2932353238057273,"253":0.389224745398369,"254":0.6998763837214509,"255":0.7571495771194634}},"8":{"bias":-0.16088912810484382,"weights":{"0":0.24769178955364174,"1":0.41773167124993593,"2":0.002058798620131485,"3":0.17512219431384188,"4":0.10126014376364634,"5":-0.08448032563316812,"6":0.008328753682923145,"7":0.2969064144219113,"8":0.010600538822476696,"9":0.11382710447064338,"10":0.42690402576515357,"11":-0.1896520126523097,"12":-0.04806643355383224,"13":-0.24077044082623766,"14":-0.1539549518331188,"15":-0.08359488505101542,"16":-0.07137709737073464,"17":-0.26485235844568067,"18":-0.37267227576617346,"19":-0.3630047560306594,"20":-0.017170786119850772,"21":0.07020979510466202,"22":-0.02606706676168607,"23":0.033426695174995406,"24":0.0936206927013737,"25":0.17809249104544245,"26":0.10466081219752615,"27":-0.1820421044120118,"28":-0.15127136557052231,"29":-0.3201685764391465,"30":-0.5538359899334737,"31":-0.48622636586299955,"32":-0.2521548677972941,"33":-0.226948398025656,"34":-0.23731207235542215,"35":-0.05260991222428687,"36":0.1384505935805653,"37":-0.026159980229461782,"38":-0.040110891201402356,"39":0.1782465675862766,"40":0.2910156745155201,"41":0.2021304242890229,"42":0.1072794668650658,"43":0.0034168495247551183,"44":-0.0053418778234488205,"45":0.13359259708735838,"46":-0.1864858742653593,"47":-0.14689309386736574,"48":-0.16915689409054288,"49":-0.04270368820757691,"50":-0.03454171687931562,"51":0.11373355053718127,"52":0.0706224806642564,"53":0.138855441958935,"54":0.21360201151186314,"55":0.14399257598968604,"56":0.3896497434800388,"57":0.20678983569020334,"58":-0.08798706610597183,"59":0.009236128251392384,"60":0.12809027368704154,"61":0.12973447612366482,"62":-0.006548918154946531,"63":-0.07320382369339778,"64":0.054330559457372196,"65":-0.09942828811731973,"66":-0.054428528938287514,"67":0.029038528295013022,"68":0.0398665552862162,"69":0.14363599989887038,"70":0.24078485979180136,"71":0.011917073344684483,"72":0.14964181052789052,"73":0.2626677108940524,"74":0.06665330371804305,"75":-0.24627152502656846,"76":-0.20227799646167488,"77":0.04697933628032789,"78":0.10070218979348503,"79":0.0857045743684552,"80":-0.1526136066205622,"81":0.13200709558779797,"82":0.17270417074201114,"83":0.07291158562196667,"84":-0.16504828111077366,"85":0.19574724627487497,"86":-0.04723737332426713,"87":0.14495805616444438,"88":0.09409960000685094,"89":0.12504476725419608,"90":0.023296370215506478,"91":-0.22046829324505193,"92":0.19220711122065112,"93":0.17919453608965366,"94":0.1488357208279436,"95":0.2295700152021346,"96":0.011212410084617598,"97":-0.06327527758702352,"98":0.00007969854690213063,"99":-0.13435148248141862,"100":-0.22183153413501852,"101":-0.04776004083396447,"102":-0.07928310961944844,"103":0.05269658771758646,"104":0.1791432468410905,"105":-0.13851427780716355,"106":-0.017002776684217465,"107":-0.2277615593503571,"108":0.20657059366098762,"109":0.277564874875136,"110":0.2153404261860984,"111":0.11489391674281786,"112":0.2548040157420511,"113":0.1697670015078844,"114":0.20229508758177525,"115":-0.19850617027717782,"116":-0.3399351767655997,"117":-0.21057449367461173,"118":-0.14462013167875643,"119":0.17909066772173848,"120":0.2597400131184359,"121":-0.16788755520453796,"122":-0.3238694493062233,"123":-0.04257379743997172,"124":0.27349717289268494,"125":-0.016908801502075427,"126":-0.11292990087595352,"127":-0.15031143549394393,"128":0.26946377794777715,"129":0.18779138996617006,"130":-0.14626489541523538,"131":0.121286410653471,"132":0.18559714736408456,"133":0.009667724025450191,"134":-0.33812567432463486,"135":-0.14837554270447184,"136":0.08698106196489705,"137":-0.24233514661235833,"138":0.13459225306472852,"139":-0.012641338178651486,"140":-0.1874132073063048,"141":-0.20397055863598842,"142":0.028424093741745763,"143":-0.15918277816616178,"144":0.0735736767174031,"145":-0.02891105230369499,"146":-0.0421921718173928,"147":0.3529404430457615,"148":0.04475896742868399,"149":-0.25808356399389437,"150":-0.10414672674113684,"151":0.17664056450664511,"152":0.0010985250547947258,"153":-0.03496246790970365,"154":0.2646725037878838,"155":-0.13221416164861693,"156":-0.11085302927879896,"157":0.000193302575478604,"158":-0.09507593532013747,"159":0.10309984323184712,"160":-0.10173500193062758,"161":0.2930085030592818,"162":0.23430392864525526,"163":0.004856336564374664,"164":0.09516861533323741,"165":-0.22517635624987423,"166":-0.2565303270550613,"167":0.049638297687666325,"168":0.25844481824689286,"169":0.027432233585404964,"170":0.02313312348814517,"171":-0.07618098828286883,"172":0.03726206339990607,"173":-0.03709395225484025,"174":-0.2087790814800698,"175":0.1147168331933585,"176":-0.0916366534014838,"177":0.08943663997671807,"178":0.047547665171445846,"179":0.11785807422637458,"180":0.07196168665200453,"181":0.16386940238661418,"182":-0.04103970961969498,"183":-0.12469927967062461,"184":0.05544753942798164,"185":0.05780894386529104,"186":0.2500705110350141,"187":0.11251580907253815,"188":-0.006712314104273675,"189":0.3227598565482436,"190":0.035817199777364694,"191":-0.10993376364183931,"192":-0.14948921177609542,"193":-0.18498576752931886,"194":-0.1397479083058698,"195":0.1305367763807843,"196":-0.168310330365551,"197":-0.0015519819439705916,"198":0.34395162268724877,"199":-0.20313231633128645,"200":0.1342890363239674,"201":-0.10510237773752625,"202":0.11455302053397382,"203":-0.13823625813065935,"204":0.1102023089312845,"205":0.26166435496556406,"206":-0.04245963987884021,"207":-0.11593335497095623,"208":-0.0929063995622491,"209":-0.15761118895356213,"210":0.03382395427126438,"211":0.08794094626229954,"212":-0.13993448215791107,"213":0.041636042344586656,"214":-0.016862509552819333,"215":-0.171785876763295,"216":0.010773268989189082,"217":-0.15773663522852455,"218":-0.11037845362564187,"219":-0.09286353408380837,"220":0.21066775876093982,"221":0.22965841015282543,"222":-0.012135589433606365,"223":0.2822339944207249,"224":0.1833013392690211,"225":-0.07242362798606929,"226":-0.21815334856720892,"227":0.014574485968264762,"228":-0.07168010651376457,"229":0.12618527857255304,"230":0.031078388469824237,"231":0.08222634492357461,"232":-0.1429950322073648,"233":0.06606967174025705,"234":0.1037681101910259,"235":0.13221918513285516,"236":-0.04639309427128737,"237":-0.019893620229835398,"238":-0.10767365212202261,"239":0.22931255952524876,"240":-0.15881259385446508,"241":-0.14350755647267566,"242":0.030468414354739164,"243":-0.04136333775508084,"244":-0.08369372021634644,"245":-0.030977096193431915,"246":0.04850799245420552,"247":-0.11170390336514008,"248":0.23241956960957846,"249":0.07239541485347752,"250":0.0730085149166403,"251":0.05257897578288473,"252":0.03956189465882929,"253":0.2846942050269393,"254":0.029355572642486342,"255":0.3515620288802963}},"9":{"bias":-0.2541224185900995,"weights":{"0":-0.1203156457155191,"1":0.26037582025861367,"2":0.3042982242093777,"3":0.20295246202072315,"4":0.08672144384181515,"5":0.019455868222894305,"6":-0.20502117278683954,"7":0.3581889701219807,"8":0.02985113427748228,"9":-0.05876016721773865,"10":-0.007157905181114832,"11":0.06785971075977751,"12":0.07803856509820033,"13":0.2553344393807329,"14":0.3203381723210085,"15":0.5667878200107779,"16":-0.008337775527946522,"17":0.3246424346068723,"18":0.39898343395560293,"19":-0.11570042465576075,"20":-0.019628669395754802,"21":0.0493265123492735,"22":0.031300204416755725,"23":0.06329091168924761,"24":0.046169546008337246,"25":0.0420254910024326,"26":-0.0774008014279917,"27":-0.2096598662257932,"28":-0.15010164691549446,"29":-0.1804349317030651,"30":0.12270904839328567,"31":0.34293832406125657,"32":0.009132650803306738,"33":0.03250333385315615,"34":-0.06578293584100758,"35":0.14474252297760612,"36":-0.18959007655725957,"37":0.21351841053687892,"38":0.06012552763568381,"39":0.2925213526308669,"40":-0.04191732034812303,"41":0.034389666645688134,"42":0.33399587713988144,"43":-0.05629203570994538,"44":-0.0227088043291743,"45":0.19424791554857962,"46":0.1005673266381054,"47":0.14285390235360923,"48":-0.08927553987502264,"49":0.17786891139766708,"50":0.012649447298770993,"51":-0.03422523239879444,"52":0.2097186986134595,"53":-0.0012287220813483662,"54":0.501739691289026,"55":0.13346090932027385,"56":-0.013221034534755925,"57":0.19143993679513316,"58":-0.07241060330620848,"59":-0.12962629976872003,"60":0.0007241907086189627,"61":0.25602673437731555,"62":0.030339950696890012,"63":0.09108557676036759,"64":-0.225783594263753,"65":-0.27731753169809636,"66":-0.14118698203194288,"67":-0.38518029811854626,"68":0.1320344308912893,"69":-0.13833112392606367,"70":-0.06406282985656818,"71":-0.006502657227083324,"72":-0.039258045535235604,"73":-0.07320306619318631,"74":-0.19185202067689666,"75":0.024581159611887927,"76":-0.07981826954107109,"77":0.28358609084339986,"78":0.23701038149585824,"79":0.15031956846008288,"80":-0.03725010169652752,"81":-0.07822711037473705,"82":0.10338919739235179,"83":-0.00478478496193675,"84":-0.22942129539470318,"85":0.20734240128371656,"86":0.23287478062666775,"87":-0.06961144418359648,"88":-0.2950820317169702,"89":0.02401341290965051,"90":0.3684115904177838,"91":0.04137801010800795,"92":0.22515095932930226,"93":0.25315160770613737,"94":-0.0961209813735078,"95":0.3194056066452262,"96":0.09476872040330418,"97":-0.07722385606324432,"98":-0.22811202000935293,"99":-0.26097272183287745,"100":-0.05859746237687932,"101":-0.13702530963284823,"102":0.07595013892677496,"103":0.19037973980673212,"104":-0.2320378477515017,"105":0.01774355001951448,"106":0.20345862325843841,"107":0.023621162555475552,"108":-0.13245692931781977,"109":-0.1551370241653661,"110":0.0873109782856199,"111":0.19157510479929254,"112":-0.05313857935130255,"113":-0.20783453634743643,"114":0.30878197627153897,"115":0.10529745435287051,"116":-0.040531707986636495,"117":-0.09007735195039906,"118":-0.19777012683465453,"119":-0.04248139447248572,"120":-0.16199253833590266,"121":0.17651370699330055,"122":0.10023910094717664,"123":0.23268874452021876,"124":0.06922827017979871,"125":0.14644835966697278,"126":0.08839359889393408,"127":0.37477566761377906,"128":-0.36879848260998516,"129":-0.11339520094383582,"130":-0.05563108638007695,"131":0.10629997909956117,"132":0.17671065906947594,"133":-0.26893495794481204,"134":-0.2942997675974764,"135":-0.1894497822355911,"136":0.1618399785955924,"137":0.01152040459289288,"138":0.17573609448566238,"139":-0.13154340355744265,"140":-0.2816210582724119,"141":0.08966972769515913,"142":0.24691170777753696,"143":0.022228554291488515,"144":-0.3178522245348802,"145":0.18470189528792724,"146":0.28688784083565194,"147":-0.020245973546255645,"148":0.010769508331156344,"149":-0.30100899719852897,"150":-0.46394684667835295,"151":-0.021152927412225683,"152":-0.06624369884756193,"153":0.18694018909943183,"154":-0.23847539437485704,"155":-0.2662906407820337,"156":-0.42291319205776945,"157":-0.13344896333370945,"158":0.08727706756553162,"159":0.19336730565448348,"160":-0.02796641286864415,"161":-0.029558341520001433,"162":0.30806110227848205,"163":-0.14113567327179294,"164":0.14676228785061754,"165":-0.050280399470733955,"166":-0.11845384322307122,"167":-0.022356561351173795,"168":0.15181683660990608,"169":-0.141776484275929,"170":-0.08185605905804673,"171":0.08390065699083492,"172":0.0590229170037925,"173":0.17038578247270356,"174":0.14231297016311262,"175":0.13592331072530894,"176":-0.35939275846174357,"177":-0.08227621053650241,"178":-0.03529072043530629,"179":0.3548245829184954,"180":0.045078492332286266,"181":-0.07688101144399688,"182":0.05585757446870133,"183":0.4890989764987117,"184":0.15662885371987553,"185":-0.08524674205371362,"186":-0.044899724525564455,"187":-0.077946700917989,"188":-0.05407376582032624,"189":0.20537091745603872,"190":-0.08366305280447778,"191":-0.10338106845668253,"192":0.026317192924830885,"193":0.0007423950439768731,"194":-0.06704703694466153,"195":0.2908812007559903,"196":-0.08292564067895708,"197":-0.04710919901828427,"198":0.3604943800547387,"199":0.1925630054123397,"200":-0.24390899157526247,"201":0.12938791628645524,"202":-0.07898533425611022,"203":-0.07871258534860621,"204":0.03995970208588958,"205":0.01914204983440195,"206":-0.014307286862057466,"207":0.241081241833735,"208":-0.019857427795325622,"209":0.05843367760220519,"210":0.025156110522219485,"211":0.008956275137819391,"212":-0.1442090258618895,"213":-0.12079614596044293,"214":0.06479680523337697,"215":0.12390132542249031,"216":-0.005854141515246885,"217":-0.13535034317921008,"218":0.05351914547603588,"219":-0.10184057142571647,"220":-0.0787435279042532,"221":0.04882321688971392,"222":0.12010520259388825,"223":0.08160808925688018,"224":0.04663259171141332,"225":-0.13308024633942614,"226":-0.1603997120184903,"227":-0.2750063880160984,"228":-0.1572212844645617,"229":-0.0997963633215144,"230":-0.058051808918085944,"231":0.13150105766239645,"232":0.13585867732309223,"233":0.05583710499266148,"234":0.1968788308372786,"235":0.12539760798432373,"236":0.04378691458564597,"237":-0.1242497180450408,"238":-0.0521514181812939,"239":-0.09035665724340182,"240":0.397972797179884,"241":-0.18434839573567394,"242":-0.1336644835751503,"243":-0.0008507303838629603,"244":-0.05015953762814468,"245":-0.36173559759051416,"246":-0.0730593924070801,"247":-0.2599252199447679,"248":0.015338893761418487,"249":-0.025417106347517895,"250":-0.017784883015342492,"251":0.04778719585008471,"252":0.005360790513859124,"253":-0.29936081342980614,"254":-0.6730271388804031,"255":-0.516694069683567}},"10":{"bias":-0.32040796128500015,"weights":{"0":0.09474447481832113,"1":-0.1766950380402172,"2":0.08349661114324128,"3":-0.09515633133576348,"4":0.06035260123849219,"5":0.154148336707645,"6":0.23397571868274428,"7":-0.06195841940650803,"8":-0.17715396765112804,"9":-0.09475620156352843,"10":0.0013455528311123865,"11":-0.1567812226339806,"12":-0.09269839474536662,"13":-0.07812810349496396,"14":-0.3852196208129857,"15":-0.5833253010860113,"16":0.14274051246172995,"17":0.13802338765606426,"18":0.14210723680940873,"19":0.298510974643688,"20":0.20768579197894724,"21":0.24620814682211875,"22":0.03958134982958673,"23":0.23838109737622945,"24":0.00195759449495935,"25":0.002400578976029021,"26":-0.03940173621060678,"27":-0.04449699829400304,"28":0.08073807527846613,"29":-0.06545632406858601,"30":0.027518393499177004,"31":-0.1555427439473066,"32":-0.10708114795227795,"33":0.30419092426358507,"34":0.12992009519644665,"35":0.06785744019807335,"36":-0.005627750755539962,"37":-0.16897679895956708,"38":0.16395890178638917,"39":0.06300704867714459,"40":-0.1039245633597388,"41":-0.08574210966942679,"42":-0.1391744081228277,"43":0.06384651887339164,"44":-0.11961308443972556,"45":-0.16215741958437033,"46":-0.31998409121336585,"47":-0.005627558721265763,"48":0.2404242493336221,"49":0.09626743725978541,"50":0.11714591984688344,"51":-0.01813291641630682,"52":-0.15025102521576372,"53":0.04137674911026977,"54":-0.3220544137265475,"55":0.254013228523687,"56":0.07099452614294358,"57":-0.12396352640982629,"58":0.1985323666463543,"59":0.14036573388561774,"60":0.028172160721611696,"61":-0.3269214813244663,"62":-0.047037690984122284,"63":-0.17867187575145904,"64":0.18489387996461495,"65":0.2635239652470884,"66":0.16106906296508527,"67":0.4584731967579302,"68":0.16561469717813238,"69":0.2731991797893473,"70":0.24817169206144565,"71":0.3799591228375513,"72":0.1677952001070053,"73":0.24706781359145347,"74":0.024830183871065867,"75":-0.14339763994123206,"76":0.26972954825415096,"77":-0.000660778678466754,"78":-0.07846017102924971,"79":-0.027159320153715596,"80":-0.005691959215189035,"81":-0.2833291456203317,"82":-0.027198274272839898,"83":0.25262569404230745,"84":0.10304846642522089,"85":0.20087445652084043,"86":0.19051002424572444,"87":0.1399451063844523,"88":-0.12914431291573328,"89":-0.04968394658809175,"90":-0.15255470012918676,"91":-0.043572509167198306,"92":0.08878587446528424,"93":0.02492347342856431,"94":0.12811362688959202,"95":-0.16660274321431603,"96":-0.04363628237133961,"97":0.08537570757478326,"98":-0.0529450351495133,"99":0.19372349356111437,"100":0.2045855751286222,"101":0.4394847986778518,"102":0.03503990821910072,"103":0.12156571459465496,"104":0.14052340341761824,"105":-0.05330713381974782,"106":0.005887281477530003,"107":-0.19424299067524353,"108":0.11408581678874954,"109":0.20040082504252252,"110":-0.28138789525629365,"111":-0.11047920813329873,"112":0.008528187905133097,"113":-0.175619998602954,"114":0.11089712337138131,"115":-0.06284793831480487,"116":0.22951208170214896,"117":0.4111235915049098,"118":0.36973590051823757,"119":0.05304258595775398,"120":0.22868188195800282,"121":0.027023882509819488,"122":0.2551143572421028,"123":0.01939893884424077,"124":0.4056951341303559,"125":-0.0592748380412379,"126":-0.2963384067217323,"127":-0.457917433445075,"128":0.06503794712334862,"129":-0.2968980376925307,"130":-0.22854246425508865,"131":-0.1098164642870723,"132":0.1587537507773961,"133":-0.034773290900361194,"134":0.2207907705365101,"135":0.21119346582289336,"136":0.3352718676043506,"137":0.025077083797588197,"138":0.04464709456919799,"139":0.12865914751724633,"140":0.1618584458552347,"141":-0.12207596019148026,"142":-0.12440533296645791,"143":-0.2927349743412844,"144":-0.039907218865710394,"145":0.015096824936877876,"146":-0.16421586077299846,"147":-0.1530584939422817,"148":0.10298160355386397,"149":0.14505636873076333,"150":0.14384314693070263,"151":0.07120019311346282,"152":-0.16789684758827453,"153":-0.5400783640405751,"154":-0.37317294529149403,"155":-0.14165209156027106,"156":-0.014207427300732767,"157":0.20232949358454527,"158":-0.1827050949759648,"159":-0.11438332765208221,"160":0.095228610901491,"161":0.006670178581158249,"162":-0.021222763092404753,"163":-0.02806967078184252,"164":0.1156922939903373,"165":0.2628227671216837,"166":-0.20306079601652652,"167":-0.17244305410651126,"168":-0.4866524457737468,"169":0.023822143906881324,"170":-0.06049593874819358,"171":0.02617673474370851,"172":-0.02821531001695314,"173":0.17716153512466024,"174":-0.1228501377347391,"175":0.27165356291545756,"176":0.09082782978185468,"177":-0.06355583337240957,"178":-0.1821695329040184,"179":-0.11454705456937882,"180":0.032368197421246483,"181":-0.2618365583119792,"182":-0.12249382656816558,"183":-0.23266986424981018,"184":-0.049598293360718027,"185":-0.13589623859769356,"186":0.0618263121709558,"187":0.0744569367762703,"188":0.12012104451694502,"189":-0.0004687631122146181,"190":0.21909502553636798,"191":0.013284121638271336,"192":0.054208151794544975,"193":-0.025504749987513158,"194":-0.13610056809803273,"195":-0.03713398383046091,"196":-0.19167003664129248,"197":-0.006828078542331628,"198":-0.1955282580856102,"199":0.1094160806317639,"200":0.190482621956849,"201":-0.10676565135252938,"202":-0.1655789900150642,"203":0.012579648955758908,"204":0.27376964327734604,"205":-0.208669739268877,"206":-0.12655207904457627,"207":-0.04369228596869048,"208":0.19707596723531196,"209":0.5315744658971601,"210":0.06092240081519002,"211":-0.19796178308016377,"212":-0.2189633316524512,"213":-0.37110195381241434,"214":-0.17698173975284442,"215":0.20402105143642218,"216":0.28375689633264517,"217":0.15788509787005076,"218":-0.05145983528884649,"219":-0.11084058081272416,"220":-0.13957271609858451,"221":0.2897323549976639,"222":0.09836155045684794,"223":0.32853753179044903,"224":0.1891686795647317,"225":0.03609346230800175,"226":0.174492821522531,"227":0.13931469406310132,"228":-0.21565675191248418,"229":-0.19798714849772384,"230":0.16384283238041125,"231":0.26010657230243883,"232":-0.01664765403892785,"233":-0.08118836788363318,"234":-0.19676427216820028,"235":0.10548130142050541,"236":-0.018906102283239388,"237":0.09751612201357258,"238":0.21643770993684924,"239":0.12772202384765807,"240":0.0699439028566885,"241":-0.09622837145192616,"242":-0.002891917386625278,"243":0.349270147003608,"244":0.08085192691979684,"245":-0.16403591694328248,"246":0.1445061511494494,"247":0.07375568281089229,"248":-0.026273120288359184,"249":0.18228157204642975,"250":0.10910009326075834,"251":-0.0904244667436085,"252":-0.23145272349995016,"253":0.3700510637154578,"254":0.24330172284861448,"255":-0.12864139044063105}},"11":{"bias":0.07150130593896245,"weights":{"0":-0.18499486084005867,"1":-0.3126848776749876,"2":-0.31323490482695693,"3":-0.33585353883483576,"4":-0.0022717771955349476,"5":0.06425119121565802,"6":0.01956730426438772,"7":-0.10619269756188142,"8":-0.09913214360098982,"9":0.06466610241690304,"10":-0.12311089265484786,"11":0.16409799381433773,"12":0.21291625031723918,"13":-0.01695873036867145,"14":-0.1563526998893546,"15":0.03874872530609271,"16":-0.039406432934178094,"17":-0.0003158755649856212,"18":-0.23840966686503806,"19":-0.04004196291584656,"20":0.06275762744228335,"21":0.1999236959257256,"22":0.40801246619133036,"23":0.13783930136913916,"24":0.27241589875688127,"25":0.057724221031226375,"26":0.47160699064846,"27":0.4427995825785518,"28":0.11681230155058898,"29":0.33282845122853105,"30":0.02415575082792886,"31":-0.029015656663043933,"32":0.18225092901651063,"33":-0.1118866669361511,"34":0.049429709430237,"35":0.14683234530368147,"36":-0.15465640028908245,"37":-0.08440332189886139,"38":0.07882596860633213,"39":0.12057374574968222,"40":-0.09204981428860678,"41":-0.09534990138482623,"42":0.0013818561190392382,"43":0.21578265055746834,"44":-0.0805940374765339,"45":0.1540803634662455,"46":0.2594704073232425,"47":0.03955543660564775,"48":0.028948952782505036,"49":-0.1470560261540923,"50":-0.03128494840159107,"51":-0.009952593634634648,"52":0.1372384836126592,"53":0.009278041726426671,"54":0.1311165227200257,"55":0.13229830750570504,"56":-0.2122598285819368,"57":0.06010003085247504,"58":-0.18463839868678233,"59":-0.2363943557763537,"60":0.09258982090906956,"61":0.19107040306094245,"62":0.1722094743656181,"63":-0.24326283984939948,"64":-0.19356805111408373,"65":0.15580106733773147,"66":-0.16113093457493127,"67":-0.04882219023121728,"68":0.035345303329914125,"69":-0.06572296775602901,"70":-0.09811455961599362,"71":-0.1479111298885288,"72":0.09064996015973546,"73":-0.019396009211153243,"74":-0.0002270597272710073,"75":-0.09929513584161818,"76":-0.08533498543770256,"77":-0.015214210465509649,"78":0.07611296459045358,"79":0.053653878714108046,"80":-0.1907065445885523,"81":-0.21186099821665055,"82":-0.20770244876847052,"83":-0.20057502785976009,"84":-0.27736685833004265,"85":0.1107637132547643,"86":-0.07621227742067968,"87":-0.08423268037599159,"88":0.1653836407544293,"89":0.005069876637837595,"90":-0.19432616720084706,"91":0.1176083927343772,"92":0.0537179137625022,"93":-0.03231116784648022,"94":0.11834939788779911,"95":-0.20713758752913466,"96":0.003374048072055368,"97":-0.1155222327723651,"98":0.04495924408766818,"99":-0.2948488613248412,"100":-0.17747592328530867,"101":-0.19804180413388625,"102":-0.04750412988415686,"103":-0.07025639654534718,"104":0.048873805888962896,"105":0.2333659526543487,"106":0.1524987366469341,"107":0.011023311469385386,"108":-0.09189323963347748,"109":-0.09413570966813307,"110":0.1720448039500285,"111":-0.10258285174345062,"112":0.25090213455870086,"113":0.0008366475376054051,"114":-0.0011466069282266317,"115":-0.32706786818487865,"116":0.11832226031492475,"117":-0.03191060755488736,"118":-0.01913985637642321,"119":0.03364503883886201,"120":-0.0665255509429732,"121":0.23324477767240087,"122":0.1422226553351127,"123":0.025403406950278783,"124":0.17645094754731758,"125":0.04811420218633561,"126":0.08313891611954385,"127":0.13777257455213532,"128":0.08472582810995838,"129":0.23466486778546866,"130":-0.11011649731304136,"131":-0.030962222434355192,"132":-0.09776356972690588,"133":0.09676514115650993,"134":-0.13669313131929287,"135":0.1686250776773228,"136":0.12016780563798858,"137":-0.1168002403318588,"138":-0.002832788682936286,"139":0.08688661016091677,"140":-0.1735630430115103,"141":-0.06784055481844423,"142":0.23829762433179683,"143":-0.1255625801365802,"144":0.36606242654716237,"145":0.3193643961119347,"146":0.06756099803127648,"147":-0.21468379035312601,"148":-0.1454067479786137,"149":0.04811744884309281,"150":0.016342125649800403,"151":-0.08384285593318543,"152":-0.00309549843103131,"153":0.13626533898640528,"154":-0.0014074235381437087,"155":-0.14508548231893056,"156":0.04754169659833872,"157":-0.20256267821664772,"158":-0.2548788974316051,"159":0.04479420462635782,"160":0.2247674080060027,"161":0.16171585522235238,"162":0.04939081295295664,"163":0.07366514249080837,"164":0.03992133711156076,"165":0.2666115187768294,"166":0.0383691094482006,"167":-0.23167697575158108,"168":0.13051305960054568,"169":-0.14379573542097487,"170":-0.305701111789411,"171":-0.09449596649326818,"172":0.15205880741412806,"173":0.02713043580354402,"174":-0.14326849144209058,"175":-0.1704989424978844,"176":0.07885259075130006,"177":0.07259279873004869,"178":0.19815972547736657,"179":0.24854052719277686,"180":0.2124942295043052,"181":-0.021769333214590375,"182":-0.0933652054436632,"183":0.003106058856035732,"184":0.16289617214531874,"185":0.05494462221898198,"186":-0.18071534279737497,"187":-0.0693578781149731,"188":0.03845785900927936,"189":-0.14803450260135273,"190":-0.3046913749952988,"191":-0.06427435646853999,"192":-0.05690791211692869,"193":-0.14958438365239138,"194":0.11685618951106841,"195":0.20473900884872617,"196":-0.0025209265205827433,"197":0.002637325740186906,"198":-0.08118563147623704,"199":-0.009704019967217961,"200":0.007864771890040043,"201":0.10290425030407543,"202":-0.2426727479963089,"203":-0.3109859920672658,"204":-0.18112230768815468,"205":-0.16820095498963553,"206":-0.2103564568990086,"207":-0.244421185776084,"208":0.12707804065752695,"209":0.14971663343599179,"210":-0.1459693374393678,"211":0.49837727026611595,"212":0.21591005287174106,"213":-0.08131753870324396,"214":-0.08957009590532294,"215":0.07895320387132085,"216":0.2523449309128246,"217":-0.057631660093384156,"218":-0.12455926467783256,"219":-0.321472821415534,"220":-0.22036388875506852,"221":-0.0817915900179053,"222":-0.27204343890596594,"223":-0.14356218471059115,"224":-0.07771404491170769,"225":-0.1775674005270056,"226":0.1881557155208555,"227":0.16509534614429588,"228":0.2357511198626413,"229":0.02535417731978896,"230":-0.08235943467823201,"231":-0.23054079501054148,"232":-0.1499549648971298,"233":-0.09223907313452377,"234":-0.16212544980043722,"235":-0.15031981595317062,"236":0.012972968371109783,"237":-0.3511334047968561,"238":-0.1367510201706296,"239":0.1265427203845402,"240":0.03778592899236561,"241":-0.2351197338371717,"242":-0.29442512608636834,"243":-0.038512191929118984,"244":-0.08911731912467795,"245":0.1942766049088772,"246":-0.15477649208241576,"247":-0.1643296589029317,"248":-0.03360859203944708,"249":-0.29154009152114657,"250":0.036472891713309454,"251":-0.316256194018972,"252":-0.3034102058772068,"253":-0.11561802721059829,"254":-0.2794654480030738,"255":-0.42260830668947064}},"12":{"bias":-0.14626426256006766,"weights":{"0":0.07548659259374142,"1":-0.23520795327672744,"2":0.14551441718968242,"3":-0.12457944461786896,"4":0.023689186125331923,"5":0.30270838780415327,"6":0.3039092531824842,"7":-0.16918035440939977,"8":-0.11663088952845263,"9":0.1085994069846023,"10":0.20164086112557403,"11":-0.046964958811718444,"12":0.20451856405418406,"13":-0.1703869418155501,"14":0.13206461108054693,"15":-0.015201987081024722,"16":0.12149721172375111,"17":-0.12718632005694985,"18":-0.2917881813268274,"19":-0.2371324616034891,"20":-0.14282012606803296,"21":0.0394357074161331,"22":0.010692099941288913,"23":-0.10153862159268842,"24":-0.07950500800329591,"25":-0.11703725946596369,"26":0.1837984244087305,"27":0.3285360505931359,"28":0.0889481426168767,"29":0.20351675222412935,"30":0.023636189469554644,"31":-0.12376470736044959,"32":0.007491106606729753,"33":-0.26648512425286075,"34":-0.14428490806312008,"35":-0.1378487533139551,"36":-0.04641508275434826,"37":-0.21016155979794246,"38":0.12067174478251667,"39":0.07864960776145206,"40":-0.03687213624420825,"41":0.0070463784516854285,"42":-0.018591566001305918,"43":-0.08465683030691483,"44":0.0005920477546541724,"45":-0.1562780726768211,"46":0.17355280238374773,"47":0.22086602476967268,"48":0.049136261078278405,"49":-0.23230817628561912,"50":-0.0859473613569415,"51":-0.10961399282405826,"52":-0.08526606640041896,"53":-0.07040103206074266,"54":0.11553364515926479,"55":-0.17834063522270185,"56":-0.053139656731337144,"57":-0.07975315996689585,"58":-0.09685710091154849,"59":-0.05060378104481213,"60":0.23624174033110057,"61":-0.04643126828441321,"62":-0.1591021987330312,"63":-0.0041864328597974645,"64":0.18112036653169045,"65":-0.047295060313665586,"66":0.024160690665007145,"67":-0.03713973997385767,"68":-0.164691112088919,"69":0.005160729514003547,"70":0.006735153053477225,"71":0.03146934192437576,"72":0.08585724395946903,"73":0.1164522098612792,"74":0.03180740640742743,"75":-0.06472753759530694,"76":0.25195713958832044,"77":0.13132179647483372,"78":0.08044156776740122,"79":-0.10328981756591567,"80":-0.059492574293969674,"81":-0.11924845804511428,"82":-0.1790306815153255,"83":-0.29745415642519496,"84":0.04182962647302503,"85":0.2644364687892245,"86":-0.02076634104167814,"87":0.011700141903442828,"88":0.04335579702132303,"89":-0.04282339470877708,"90":-0.06550611126893748,"91":0.04715277298524751,"92":-0.059284642244631786,"93":0.11792205621444371,"94":0.20494070633909708,"95":-0.08975332550760617,"96":-0.08223008069782398,"97":-0.11129701103831709,"98":-0.13693426817055931,"99":0.07090826274901456,"100":0.016764751960693543,"101":0.21898222870260353,"102":0.09430470040240305,"103":0.06704671120861651,"104":-0.18769689445783685,"105":0.012962792501803263,"106":0.18579173052703965,"107":0.18449216932342483,"108":0.2126019174739445,"109":0.27336745752870584,"110":-0.15510523089645742,"111":-0.14362514770556947,"112":0.051406952785057136,"113":-0.1656453108767331,"114":-0.03925182989206103,"115":-0.11785797569943637,"116":-0.19926540120834269,"117":-0.1877170369946867,"118":0.05417350215005927,"119":0.0817868148191017,"120":-0.053985629439808114,"121":0.055264537552500465,"122":0.2508953085255705,"123":0.006461829348273179,"124":0.10714967616603793,"125":0.08401563479713377,"126":-0.029861731436686887,"127":-0.21012820758509368,"128":0.10948035116368861,"129":-0.3971553949625422,"130":-0.2939972892288159,"131":-0.2081881249098795,"132":-0.20988684106162642,"133":0.09826529037321191,"134":0.05437774109528139,"135":0.091141324729659,"136":0.28666938610554266,"137":0.16157452859442153,"138":0.41469021964031766,"139":0.4340302340319694,"140":-0.08422678102064118,"141":-0.23296119659747178,"142":-0.12836522010416296,"143":-0.45741535523764726,"144":0.05798715868350377,"145":-0.2579920760545225,"146":-0.1970143815487928,"147":-0.001687324410464235,"148":-0.2271091242405471,"149":-0.2480372463455196,"150":-0.19053659460558592,"151":-0.13301231104835348,"152":0.056246297737217336,"153":-0.20307625131254442,"154":0.12377624693076837,"155":0.32044970508919746,"156":0.21006589478836948,"157":0.3267223136836518,"158":-0.04684684771248861,"159":-0.05042294916825226,"160":0.10402438195262327,"161":-0.13966900076678113,"162":0.07415146543257585,"163":-0.1891681944291272,"164":-0.05246018185649332,"165":-0.08531558273066761,"166":0.09437884444713576,"167":0.0759199559585909,"168":0.04814017245320539,"169":-0.06277201071464679,"170":0.1900772810381006,"171":0.07429988534067847,"172":0.22334101649841817,"173":0.08341623806052734,"174":0.16593063385572518,"175":0.027811821582947153,"176":0.3425780906712158,"177":-0.05897394036650693,"178":0.03221095410488314,"179":0.11767755473217198,"180":0.20399675767618522,"181":-0.07302393474277843,"182":0.04302626244169846,"183":0.12039818967134339,"184":-0.06712669965902704,"185":-0.12784455094189376,"186":-0.042466698330855646,"187":0.23918530138593255,"188":0.19302092317265138,"189":0.1888579649446474,"190":0.2003431933099957,"191":0.19197271302217558,"192":-0.0730077036653162,"193":0.23153964276751082,"194":0.2071824673864089,"195":0.2684496672526758,"196":0.03927544014095639,"197":0.18236505921882945,"198":0.1458860128454533,"199":-0.04246645304751932,"200":0.1751280595407886,"201":-0.03327784085424536,"202":-0.15817928055260544,"203":-0.009338473694635741,"204":0.06581726766266528,"205":-0.06873548531478382,"206":-0.05495800272462605,"207":-0.16842539079681224,"208":0.09265359254190413,"209":0.012805500972547987,"210":0.18240495719052321,"211":0.07958615945479885,"212":0.04001509689068907,"213":0.20310257167533408,"214":0.0011450527859371102,"215":0.04147117113346986,"216":-0.15735501712626987,"217":-0.03563345515105069,"218":0.005803341431209276,"219":0.000014106491031609475,"220":0.07963967481389612,"221":0.11714711065294332,"222":-0.21554176103795575,"223":0.27134114689816624,"224":0.16554486902666213,"225":-0.010709695040419945,"226":-0.07112562061020258,"227":0.15960268661076613,"228":-0.0721491221342962,"229":0.1389829761604836,"230":-0.2063603004808674,"231":0.02491303253062999,"232":-0.016299835131002447,"233":-0.019339509496204353,"234":-0.0019213370748749623,"235":-0.02945752981336024,"236":0.05194045744075413,"237":-0.09768920142937663,"238":0.012581172893060849,"239":0.3670315657243291,"240":-0.06962676074709034,"241":0.03627893115730047,"242":0.006076280530570961,"243":0.23709770928101453,"244":-0.04894324962842809,"245":-0.04634939787860684,"246":0.17557010500406395,"247":-0.20339330908957967,"248":-0.07020560926680748,"249":-0.02868812551242814,"250":-0.037879833413903295,"251":-0.19567205469751386,"252":0.07015356294605976,"253":0.37918414820360286,"254":0.19590139457490127,"255":0.4062621283430482}},"13":{"bias":-0.2740078452169476,"weights":{"0":0.4293433732030635,"1":0.11859513272171701,"2":0.16388599678162258,"3":-0.26875053738878124,"4":0.16405472754875258,"5":0.10195785727886596,"6":-0.08205027240788826,"7":0.06521835836529238,"8":0.05223581693951849,"9":-0.20574262319293343,"10":0.048803530638993835,"11":0.11725736498127566,"12":-0.0568439622907788,"13":0.35648716417642295,"14":-0.06435775250459652,"15":0.21186359692794038,"16":0.29332956211495775,"17":0.2050796954365565,"18":0.26553840819277635,"19":0.28159307123277777,"20":-0.11197989890697452,"21":0.3254608763464474,"22":0.28970167555249254,"23":0.11925434291862141,"24":-0.355514030183024,"25":-0.25149674047205933,"26":0.3320719412301411,"27":0.2040869513101048,"28":0.3040095368701138,"29":0.24046625892653528,"30":0.2414201454341716,"31":0.28357637042007067,"32":0.43493334791143234,"33":0.09952819908044107,"34":0.3137184221791461,"35":-0.015747502088842624,"36":-0.1177124262747199,"37":0.05410488700998729,"38":-0.1440962242199524,"39":-0.02735423363457505,"40":-0.3036862342574958,"41":-0.07669670477563015,"42":0.08437605859230721,"43":0.008833374643664583,"44":-0.1226758984744964,"45":0.055137268133576264,"46":0.11533116324013112,"47":-0.10842535477882174,"48":0.38443378834826286,"49":-0.09179072340363606,"50":-0.10947573713249953,"51":0.10713029164675558,"52":0.052013491778549595,"53":0.04680149101382072,"54":-0.13909535423508626,"55":-0.14200271217514288,"56":-0.38930773405400043,"57":-0.25344232078084433,"58":0.03192917209514111,"59":0.03305881010177283,"60":0.011254601126472592,"61":0.1382635919782318,"62":0.1902028154198313,"63":-0.0475201134392926,"64":0.10100551028501684,"65":-0.12719539915987588,"66":-0.1788776558444849,"67":-0.31792518465278624,"68":0.16153740182414353,"69":0.10563757721337896,"70":0.018572856484522355,"71":-0.1635543174173114,"72":-0.2428311229973597,"73":-0.2444867796126051,"74":-0.09591858365512552,"75":0.24454785708861992,"76":0.0020119367320857065,"77":-0.020098180102911613,"78":-0.056081001580664695,"79":0.05559074970173507,"80":-0.1258455386183676,"81":-0.038660016169798125,"82":-0.02260716361353484,"83":0.026525314345801656,"84":-0.021544297938397336,"85":0.028912013289500407,"86":-0.04381645779179138,"87":-0.10495446311674766,"88":-0.1470771289459429,"89":-0.32835379456290453,"90":0.11671473978831994,"91":0.1472387718004988,"92":0.1529962701009516,"93":-0.04037618624151906,"94":0.07813953701494188,"95":0.053851459929011566,"96":-0.248555562036359,"97":-0.17365260328964202,"98":-0.2453199799039659,"99":-0.10483726800528587,"100":0.24869306742654465,"101":0.1765732609521412,"102":0.22863377378337,"103":0.18436686572083097,"104":-0.12859677302851216,"105":-0.0055914949887030385,"106":0.1751877266820662,"107":0.043271411419692096,"108":0.12050167763815645,"109":-0.14630022448228816,"110":0.12193866250880392,"111":0.2758566469595281,"112":0.03741347695166124,"113":0.16215522965437412,"114":-0.0693864328484052,"115":0.0010847579027449077,"116":0.2653858048691259,"117":0.1878525560259836,"118":0.09339214115326612,"119":0.029747266624279678,"120":0.044702326043557,"121":0.04610070315212918,"122":0.35916633007091264,"123":0.12210484405724081,"124":-0.037346626608216554,"125":-0.009019456602945876,"126":0.030966936348694536,"127":0.08941311805655264,"128":0.0689525449154804,"129":-0.05045866944621792,"130":0.12366176665743017,"131":0.06725332580836965,"132":0.3228341447365706,"133":0.026311069924469684,"134":0.06463922472028752,"135":0.19682182572190401,"136":0.11597198084555244,"137":0.0373636808554048,"138":-0.4738906988686114,"139":-0.060570631531862144,"140":0.07309379839664819,"141":-0.302905955213382,"142":0.18835322601339233,"143":0.18557723687525504,"144":0.06593389335601217,"145":-0.06703000907800337,"146":0.2533675254572122,"147":0.11027838706816873,"148":-0.08038410952978527,"149":-0.22245242745190058,"150":0.06588182901599128,"151":-0.04946127889303146,"152":-0.16386145587424647,"153":-0.16768495448746512,"154":-0.45781873131052797,"155":-0.6017400589562953,"156":-0.5095686477176268,"157":-0.3080833248445479,"158":-0.204019520879742,"159":0.12877950126766252,"160":-0.06154010054143623,"161":0.21840987378773358,"162":0.2575669109357814,"163":0.04449246082494215,"164":0.2343545606037599,"165":0.1454015822098366,"166":-0.10430642958030543,"167":-0.4107054708357055,"168":-0.12650042883918,"169":-0.16009521157217027,"170":-0.33583762958117613,"171":-0.1742961663920925,"172":-0.05150169599771816,"173":-0.2789984096885273,"174":0.02292162412120923,"175":-0.007138404777237203,"176":0.281806771091419,"177":0.37570148493129263,"178":0.20408242995629192,"179":0.16012846203801973,"180":0.28380425492908534,"181":-0.15783132498209815,"182":-0.3203551538219376,"183":-0.060753740848702824,"184":0.15168494826393894,"185":-0.1321187474678444,"186":-0.186637381184792,"187":-0.033535646199312916,"188":0.022598914869191175,"189":-0.2668904617682766,"190":0.13048273285064743,"191":-0.15787358030749638,"192":0.3100231897624894,"193":-0.026134006681534126,"194":-0.10052286738835224,"195":0.2778247414216795,"196":-0.022141485105851167,"197":0.13407081545519262,"198":-0.44689798197554054,"199":0.007198212102104099,"200":-0.09586342794780052,"201":0.10847628586983746,"202":-0.26232007105865324,"203":0.13006206447164678,"204":0.21837097016149348,"205":-0.3772133665343921,"206":-0.05895077359619746,"207":0.20024721021797734,"208":0.3736146467157076,"209":0.06544724429682174,"210":0.09387627238245021,"211":0.16651463312814724,"212":0.05298784889558207,"213":-0.12858714454027703,"214":0.10316449734555563,"215":-0.11508298468051652,"216":0.09004724844145606,"217":0.05494815939592242,"218":-0.008707694373646177,"219":-0.017790352527749638,"220":0.17798971890410917,"221":-0.16932254042828387,"222":-0.2305980464013175,"223":-0.05150130766099333,"224":0.1536093553759892,"225":-0.04302601018599025,"226":-0.22901370116749042,"227":0.17725651774246343,"228":0.01673124191480242,"229":0.0003779908523779909,"230":-0.07283742257940294,"231":-0.19885960541606446,"232":0.09768497809372605,"233":0.0621419023006056,"234":0.19666941984497685,"235":0.12072788744924408,"236":0.05158950777914831,"237":0.08167833023343138,"238":-0.11539743509019698,"239":-0.43739370427716023,"240":0.39529360791140167,"241":0.021683013255629914,"242":-0.2661413351871767,"243":-0.05228231947020962,"244":-0.1788779335238497,"245":-0.1734849705447663,"246":0.011016064449417124,"247":0.16542110738274032,"248":-0.17656843201143949,"249":-0.15365222819006624,"250":0.06266832491308491,"251":-0.04505579204762079,"252":-0.013756171763443138,"253":0.03327458499819097,"254":-0.1585888793542676,"255":-0.3941381389638123}},"14":{"bias":-0.05015198230181571,"weights":{"0":-0.039949122782976555,"1":0.26151360529654655,"2":0.006937598476129608,"3":0.10822740256333511,"4":-0.053594870685313364,"5":-0.1247162736906001,"6":-0.277699387773281,"7":-0.12641462151775512,"8":-0.02312739530672637,"9":0.10360920478505868,"10":-0.3796701370624294,"11":-0.19340043021281544,"12":0.22924995167339327,"13":0.0242577481102851,"14":-0.013097427742083705,"15":0.17365892098933103,"16":-0.06328309762654948,"17":-0.07382634581892714,"18":0.29397850284009974,"19":-0.031143054031033846,"20":0.2280128557386295,"21":-0.16162811557382867,"22":0.2205822076780423,"23":-0.11781840558914926,"24":0.2965685774550105,"25":-0.19507868046271037,"26":-0.005387163481988487,"27":0.2799967071351041,"28":0.036704406275905786,"29":0.21359218681586833,"30":0.15674764386184056,"31":0.14537939645993986,"32":-0.146199446078946,"33":0.20748580234993025,"34":-0.2670470940673975,"35":-0.05957252055028337,"36":-0.2992423664300546,"37":-0.17602748146076694,"38":-0.07915404971555776,"39":-0.0907669490231401,"40":-0.18121833897429057,"41":-0.09547816250809205,"42":-0.05164707609966154,"43":0.11166498624546163,"44":-0.19817615670781621,"45":-0.05940929648430933,"46":-0.07634502714848403,"47":0.18309675192850677,"48":0.08053548043909604,"49":0.021495882474308774,"50":0.043329047078946886,"51":0.13801173502282058,"52":0.10275228998020725,"53":-0.05475432430668029,"54":0.028002793350507996,"55":0.2263370783643266,"56":-0.0382118276080408,"57":-0.05946813072412751,"58":0.17908937665378247,"59":-0.023125063309016963,"60":0.1754233765012746,"61":-0.293510340425053,"62":-0.3331128191760178,"63":-0.13416083012357705,"64":0.16570059699976364,"65":0.0667629507632743,"66":0.2091228443508749,"67":0.1744533392893695,"68":0.24998389260412948,"69":-0.14779091961585547,"70":0.10256160360584761,"71":0.18272851889719485,"72":0.5085534304391582,"73":0.251109061266478,"74":0.22742996219047912,"75":0.25988591944183187,"76":0.07543424436328153,"77":-0.10736126970969383,"78":0.11301220873126067,"79":-0.20948704892702175,"80":0.16779365552237255,"81":0.034833501905846234,"82":-0.19646667943445278,"83":0.21980515354416935,"84":0.21030757804701064,"85":-0.17170525192388125,"86":-0.0916732528584951,"87":0.15861082665038692,"88":0.2570423974061911,"89":0.06974679457859763,"90":-0.10491627297025947,"91":-0.13211048681780918,"92":0.32859532181427764,"93":0.23435232015955065,"94":-0.05808282445538048,"95":-0.3000612772077054,"96":0.1308612653486293,"97":-0.013179533086563064,"98":0.17083676483556767,"99":0.1808483010935954,"100":0.14012249386834605,"101":0.07881981689809607,"102":0.21745363314912525,"103":0.16778427389241896,"104":-0.16316827707016274,"105":-0.18644823735472785,"106":-0.16130103357686448,"107":-0.03444888829656275,"108":-0.06139071778921018,"109":-0.12680621685352964,"110":0.2029110911113136,"111":-0.10073677055313328,"112":0.03058356549205507,"113":0.06825328588747678,"114":-0.000617840717000555,"115":-0.22050922256146122,"116":0.021434075092968834,"117":-0.06396316171363749,"118":-0.1583853988704086,"119":0.06231899337919313,"120":-0.3768304725540738,"121":-0.004856484857120231,"122":0.19583792280162637,"123":0.1787841310366921,"124":-0.2846069100489907,"125":0.0538158383346062,"126":0.10727773578582558,"127":-0.0589833818347112,"128":-0.10334784507572392,"129":-0.01727345489574479,"130":0.19245302532415115,"131":-0.007377432078314918,"132":0.007088301895648255,"133":-0.10639557402931499,"134":0.2440844235339336,"135":0.11869398524496771,"136":0.25972489727706516,"137":0.1398905818417012,"138":0.10807005877745482,"139":0.15642822970962106,"140":-0.14394867107967724,"141":-0.10783465422717371,"142":-0.22038489322363852,"143":0.06692180489414983,"144":-0.16593834636431964,"145":0.24787943042918728,"146":0.02186969789668675,"147":-0.017194804404668702,"148":-0.2031291524594608,"149":-0.14240870844180428,"150":0.023826785447873332,"151":0.24527625910366843,"152":-0.12392117737447175,"153":0.04294904237075104,"154":0.11055630006946537,"155":0.1348967226348095,"156":0.014986099911494586,"157":-0.2671072040492478,"158":0.007864489919731411,