{"layers":[{"0":{},"1":{},"2":{},"3":{},"4":{},"5":{},"6":{},"7":{},"8":{},"9":{},"10":{},"11":{},"12":{},"13":{},"14":{},"15":{},"16":{},"17":{},"18":{},"19":{},"20":{},"21":{},"22":{},"23":{},"24":{},"25":{},"26":{},"27":{},"28":{},"29":{},"30":{},"31":{},"32":{},"33":{},"34":{},"35":{},"36":{},"37":{},"38":{},"39":{},"40":{},"41":{},"42":{},"43":{},"44":{},"45":{},"46":{},"47":{},"48":{},"49":{},"50":{},"51":{},"52":{},"53":{},"54":{},"55":{},"56":{},"57":{},"58":{},"59":{},"60":{},"61":{},"62":{},"63":{},"64":{},"65":{},"66":{},"67":{},"68":{},"69":{},"70":{},"71":{},"72":{},"73":{},"74":{},"75":{},"76":{},"77":{},"78":{},"79":{},"80":{},"81":{},"82":{},"83":{},"84":{},"85":{},"86":{},"87":{},"88":{},"89":{},"90":{},"91":{},"92":{},"93":{},"94":{},"95":{},"96":{},"97":{},"98":{},"99":{},"100":{},"101":{},"102":{},"103":{},"104":{},"105":{},"106":{},"107":{},"108":{},"109":{},"110":{},"111":{},"112":{},"113":{},"114":{},"115":{},"116":{},"117":{},"118":{},"119":{},"120":{},"121":{},"122":{},"123":{},"124":{},"125":{},"126":{},"127":{},"128":{},"129":{},"130":{},"131":{},"132":{},"133":{},"134":{},"135":{},"136":{},"137":{},"138":{},"139":{},"140":{},"141":{},"142":{},"143":{},"144":{},"145":{},"146":{},"147":{},"148":{},"149":{},"150":{},"151":{},"152":{},"153":{},"154":{},"155":{},"156":{},"157":{},"158":{},"159":{},"160":{},"161":{},"162":{},"163":{},"164":{},"165":{},"166":{},"167":{},"168":{},"169":{},"170":{},"171":{},"172":{},"173":{},"174":{},"175":{},"176":{},"177":{},"178":{},"179":{},"180":{},"181":{},"182":{},"183":{},"184":{},"185":{},"186":{},"187":{},"188":{},"189":{},"190":{},"191":{},"192":{},"193":{},"194":{},"195":{},"196":{},"197":{},"198":{},"199":{},"200":{},"201":{},"202":{},"203":{},"204":{},"205":{},"206":{},"207":{},"208":{},"209":{},"210":{},"211":{},"212":{},"213":{},"214":{},"215":{},"216":{},"217":{},"218":{},"219":{},"220":{},"221":{},"222":{},"223":{},"224":{},"225":{},"226":{},"227":{},"228":{},"229":{},"230":{},"231":{},"232":{},"233":{},"234":{},"235":{},"236":{},"237":{},"238":{},"239":{},"240":{},"241":{},"242":{},"243":{},"244":{},"245":{},"246":{},"247":{},"248":{},"249":{},"250":{},"251":{},"252":{},"253":{},"254":{},"255":{},"256":{},"257":{},"258":{},"259":{},"260":{},"261":{},"262":{},"263":{},"264":{},"265":{},"266":{},"267":{},"268":{},"269":{},"270":{},"271":{},"272":{},"273":{},"274":{},"275":{},"276":{},"277":{},"278":{},"279":{},"280":{},"281":{},"282":{},"283":{},"284":{},"285":{},"286":{},"287":{},"288":{},"289":{},"290":{},"291":{},"292":{},"293":{},"294":{},"295":{},"296":{},"297":{},"298":{},"299":{},"300":{},"301":{},"302":{},"303":{},"304":{},"305":{},"306":{},"307":{},"308":{},"309":{},"310":{},"311":{},"312":{},"313":{},"314":{},"315":{},"316":{},"317":{},"318":{},"319":{},"320":{},"321":{},"322":{},"323":{},"324":{},"325":{},"326":{},"327":{},"328":{},"329":{},"330":{},"331":{},"332":{},"333":{},"334":{},"335":{},"336":{},"337":{},"338":{},"339":{},"340":{},"341":{},"342":{},"343":{},"344":{},"345":{},"346":{},"347":{},"348":{},"349":{},"350":{},"351":{},"352":{},"353":{},"354":{},"355":{},"356":{},"357":{},"358":{},"359":{},"360":{},"361":{},"362":{},"363":{},"364":{},"365":{},"366":{},"367":{},"368":{},"369":{},"370":{},"371":{},"372":{},"373":{},"374":{},"375":{},"376":{},"377":{},"378":{},"379":{},"380":{},"381":{},"382":{},"383":{},"384":{},"385":{},"386":{},"387":{},"388":{},"389":{},"390":{},"391":{},"392":{},"393":{},"394":{},"395":{},"396":{},"397":{},"398":{},"399":{},"400":{},"401":{},"402":{},"403":{},"404":{},"405":{},"406":{},"407":{},"408":{},"409":{},"410":{},"411":{},"412":{},"413":{},"414":{},"415":{},"416":{},"417":{},"418":{},"419":{},"420":{},"421":{},"422":{},"423":{},"424":{},"425":{},"426":{},"427":{},"428":{},"429":{},"430":{},"431":{},"432":{},"433":{},"434":{},"435":{},"436":{},"437":{},"438":{},"439":{},"440":{},"441":{},"442":{},"443":{},"444":{},"445":{},"446":{},"447":{},"448":{},"449":{},"450":{},"451":{},"452":{},"453":{},"454":{},"455":{},"456":{},"457":{},"458":{},"459":{},"460":{},"461":{},"462":{},"463":{},"464":{},"465":{},"466":{},"467":{},"468":{},"469":{},"470":{},"471":{},"472":{},"473":{},"474":{},"475":{},"476":{},"477":{},"478":{},"479":{},"480":{},"481":{},"482":{},"483":{},"484":{},"485":{},"486":{},"487":{},"488":{},"489":{},"490":{},"491":{},"492":{},"493":{},"494":{},"495":{},"496":{},"497":{},"498":{},"499":{},"500":{},"501":{},"502":{},"503":{},"504":{},"505":{},"506":{},"507":{},"508":{},"509":{},"510":{},"511":{},"512":{},"513":{},"514":{},"515":{},"516":{},"517":{},"518":{},"519":{},"520":{},"521":{},"522":{},"523":{},"524":{},"525":{},"526":{},"527":{},"528":{},"529":{},"530":{},"531":{},"532":{},"533":{},"534":{},"535":{},"536":{},"537":{},"538":{},"539":{},"540":{},"541":{},"542":{},"543":{},"544":{},"545":{},"546":{},"547":{},"548":{},"549":{},"550":{},"551":{},"552":{},"553":{},"554":{},"555":{},"556":{},"557":{},"558":{},"559":{},"560":{},"561":{},"562":{},"563":{},"564":{},"565":{},"566":{},"567":{},"568":{},"569":{},"570":{},"571":{},"572":{},"573":{},"574":{},"575":{}},{"0":{"bias":-0.12779160893583963,"weights":{"0":-0.05486117623584454,"1":0.1387208488413037,"2":-0.0939196038571914,"3":-0.23307979720885905,"4":-0.2635489136330816,"5":0.09240217993432559,"6":-0.007997682956866018,"7":0.05243070303570294,"8":0.009266950323689216,"9":0.04889726983531873,"10":-0.12180029675016142,"11":-0.2002945987601883,"12":-0.20513412166883327,"13":0.06780798647552319,"14":0.0375691578349607,"15":-0.03644961536840012,"16":-0.11635323372497144,"17":-0.1700617321927905,"18":-0.06660769410438977,"19":0.21293521182432024,"20":0.08338374874335214,"21":0.1509154148570024,"22":-0.20329975292314315,"23":-0.10624467123142427,"24":0.0041530888488848245,"25":0.08360002404420674,"26":0.16054898402762105,"27":0.036225071707137214,"28":-0.0813255010717965,"29":0.22553158947854093,"30":0.07401946068682327,"31":0.19004719026561578,"32":-0.008461724408782735,"33":0.10566126555785937,"34":-0.22545260349569482,"35":0.13479503424851666,"36":0.07583757605471482,"37":-0.17447461329626776,"38":-0.12866585425375646,"39":0.15921635316492322,"40":0.1764820445625753,"41":0.038032948796269506,"42":-0.0208731240536126,"43":0.1870238521209895,"44":0.17334842906460401,"45":0.37912379123231676,"46":0.20667732759442628,"47":-0.0018588988191948598,"48":0.2774132618408953,"49":0.20336425970460326,"50":-0.2043012283590102,"51":0.12060120778210857,"52":-0.1602093882479638,"53":-0.04863925483428762,"54":-0.15260027028712725,"55":0.04907766734771024,"56":-0.1261443845340951,"57":0.14712040130455512,"58":0.0004270660159178944,"59":0.016194197622931464,"60":0.04733514229441124,"61":0.09112037439899703,"62":-0.27045873142111543,"63":-0.1313200780250381,"64":0.03718358458536305,"65":-0.06598670534835707,"66":0.17290098240912058,"67":-0.08961561462523189,"68":-0.04462521100390562,"69":0.028723718734798242,"70":0.20444087673074873,"71":0.18695847395377788,"72":0.12854919531021697,"73":-0.06775055984663447,"74":-0.08769313132374293,"75":-0.07506121580942995,"76":0.036131061357494894,"77":0.23362223190461578,"78":0.1783625736081546,"79":-0.16362062344112482,"80":0.04735919917569494,"81":0.1263895268505759,"82":0.12976170059415704,"83":0.15704656338638548,"84":0.17231876773194843,"85":0.09643121722170282,"86":-0.018640706319125358,"87":0.16211336057841388,"88":0.03447904338299628,"89":0.12429274165518536,"90":0.04623118119557182,"91":0.16409802365192452,"92":0.07928611203828667,"93":0.13161460960848298,"94":0.1329782795729893,"95":0.19371545468382426,"96":0.156856662218984,"97":-0.1265853538067213,"98":0.23657208657427367,"99":-0.14199747482294275,"100":-0.07544367666995642,"101":0.07818202337690314,"102":0.22093117905927012,"103":-0.09207817499205048,"104":-0.10895647925413474,"105":0.011701698334517693,"106":-0.006964045609471702,"107":-0.02177939505204918,"108":-0.11805822396629435,"109":0.1565980125213364,"110":0.14237223775658614,"111":-0.15797371285414114,"112":0.08281601670946948,"113":-0.09345053246024511,"114":0.13080734450518913,"115":-0.07945654124920651,"116":0.18614374571049283,"117":0.06520944042806573,"118":0.05522980698647367,"119":-0.07161630840376164,"120":0.20821912683516394,"121":-0.06027704522871459,"122":0.1113314813524268,"123":-0.056566075753151694,"124":0.03635376400605916,"125":-0.13301652660754215,"126":0.02617655707186337,"127":0.12093686624660832,"128":-0.0930711363181288,"129":-0.14972157830117835,"130":0.07439630624127477,"131":0.10381663145164405,"132":0.2317399662426658,"133":-0.11284705380308231,"134":0.10554812466470566,"135":-0.03247519006545038,"136":0.18096090352814337,"137":0.19869371500907113,"138":-0.05592390895438417,"139":-0.07417063310486784,"140":0.22977656549110215,"141":0.058566967630296375,"142":-0.013339024472812351,"143":-0.0949199630975852,"144":0.2332581089267007,"145":-0.038354029586783196,"146":0.15888238889565712,"147":0.19578239364912273,"148":0.16364546692513662,"149":0.14924884934111063,"150":-0.165801624978019,"151":-0.056141041736028,"152":0.04098004243676244,"153":0.18428610467478115,"154":0.18951275159376102,"155":-0.07017847435052682,"156":-0.10705243692597902,"157":0.1440053209834923,"158":0.12194431528075535,"159":0.20338971628872396,"160":-0.07697772993580428,"161":0.08262683491506931,"162":0.16761464748621532,"163":-0.005681092647842334,"164":0.13324195213965961,"165":0.25048631435675817,"166":0.24258982138768329,"167":0.013445588514593671,"168":0.24943404222922475,"169":-0.1518578547258121,"170":0.21886370457733836,"171":0.005918293551783868,"172":-0.06198329821324516,"173":-0.16842661147399268,"174":-0.036745484761999396,"175":0.14937562814156224,"176":0.10010221162990167,"177":-0.06567478275118739,"178":0.18079111123549196,"179":-0.07308846092810883,"180":0.05201008229411781,"181":0.1368446030827371,"182":0.03798541365492894,"183":0.1209967353745643,"184":-0.011730653217777798,"185":-0.0026520468244198283,"186":-0.00944746541826608,"187":-0.048649007137593465,"188":0.1481972311588957,"189":0.1911063109980616,"190":0.12315012435171081,"191":-0.19407310109513995,"192":0.23538727292959136,"193":0.060131953587334176,"194":0.010294266502126882,"195":0.16936599342909076,"196":0.06279129807021128,"197":0.15347879679243542,"198":0.07309542264128743,"199":-0.010270116958335051,"200":-0.24861217260007903,"201":0.01115900287590447,"202":0.20422386419975314,"203":0.07157906280755653,"204":0.05601232000822922,"205":0.13556797288346195,"206":0.1848774656593366,"207":-0.025964851528141455,"208":0.061955812184305056,"209":0.13835809653034958,"210":-0.04562489862362518,"211":-0.13251044681847315,"212":-0.13129282514810237,"213":0.02985661153149762,"214":-0.13588967807224336,"215":-0.1465548954437319,"216":0.02642784304545998,"217":0.08864372527716344,"218":0.12214800332632826,"219":0.03375089614467856,"220":0.10357937350310047,"221":0.049493186739823426,"222":0.15726746542198605,"223":0.12783361038967977,"224":0.020786624064983116,"225":-0.09172359832246639,"226":0.024322305481064895,"227":0.009396849005248937,"228":-0.12987551056690216,"229":-0.07317021325629691,"230":0.011605594315686266,"231":0.1042000489707214,"232":-0.1232338763507502,"233":0.053951757186284394,"234":-0.03455149236828386,"235":0.13891635520934423,"236":-0.18860967384318464,"237":0.14569637152205045,"238":0.013933897716102046,"239":-0.06531137742417166,"240":0.1410795175508682,"241":0.015245474191080445,"242":-0.13694608268520164,"243":-0.12355261255652995,"244":0.14652688441241069,"245":0.13061704892953258,"246":0.09171135076430519,"247":0.01051898299735127,"248":-0.2690201479238098,"249":-0.16723336854488802,"250":0.11070731180381213,"251":-0.22638925949487207,"252":-0.25852104775529283,"253":0.05346652068516061,"254":0.05455973671522435,"255":0.08934484145924557,"256":-0.23443895868925035,"257":-0.18503340430421059,"258":-0.34829237164935317,"259":-0.23917993761774042,"260":-0.1326148541495784,"261":-0.0603204019398734,"262":-0.018933920257658828,"263":-0.036894872452563045,"264":-0.20884551326581383,"265":-0.3299894940938336,"266":-0.03545177110505138,"267":-0.17078081695243608,"268":0.163172053727076,"269":-0.170016013439136,"270":-0.07671617451184183,"271":-0.29645543158307236,"272":-0.09385231838476012,"273":-0.18338165108353613,"274":0.0016429070810133875,"275":0.044554394497806994,"276":-0.06949076510868567,"277":0.057013329468223496,"278":-0.07561306474669119,"279":-0.15504779911593386,"280":-0.22546905778513407,"281":-0.007481188944054436,"282":-0.3235223885733457,"283":-0.26505216747192195,"284":-0.02407919923894217,"285":-0.03841809369896248,"286":-0.17120620126852756,"287":0.019409358633472436,"288":0.10376119492905922,"289":-0.3591414653094021,"290":-0.14660052099302154,"291":0.1136004440859154,"292":-0.010544273698728674,"293":-0.3895007525143083,"294":-0.26926336112980004,"295":-0.2453263912101681,"296":-0.03265528268650904,"297":-0.339917874722849,"298":0.009588344475725012,"299":-0.21149499791727394,"300":0.03347754732551725,"301":-0.1329204931863202,"302":-0.04122043167905876,"303":0.01275036920285279,"304":0.08137885747357627,"305":-0.28264603983310277,"306":-0.11864255550737657,"307":-0.16878390347502867,"308":0.019456978335478946,"309":0.05030566828066734,"310":-0.10687388043545525,"311":-0.03996480226483762,"312":-0.14972913977344526,"313":-0.17461553303488825,"314":0.06824088427712635,"315":0.022176242056135692,"316":-0.03852433531220195,"317":-0.17823705929479325,"318":-0.06028543886501078,"319":-0.15577341516890147,"320":-0.16705505137557952,"321":-0.02168001342055458,"322":-0.050941748200193704,"323":-0.017224606431698968,"324":0.15952426116455792,"325":-0.16121879491565133,"326":0.07505708939282303,"327":-0.08446246310630304,"328":-0.04528816300990334,"329":-0.20700608349958255,"330":-0.24674102750985955,"331":0.07539726708990473,"332":-0.0639443298104517,"333":0.003964035560029554,"334":0.25433946863172996,"335":0.11751358693053385,"336":0.06968408272323222,"337":-0.3340940430936035,"338":-0.28963572427457485,"339":-0.03219403354953885,"340":-0.1286103309496754,"341":-0.32667606360334644,"342":-0.23577621731622836,"343":-0.09291069048992875,"344":-0.3026357997796433,"345":-0.09255937252349998,"346":-0.05432026092247814,"347":0.1340076437772032,"348":-0.08191171582672278,"349":0.08813948352814122,"350":0.22502856624275494,"351":0.2592251360974186,"352":0.3514329603045625,"353":0.053826271126117355,"354":0.18607941734263206,"355":0.05173739711042259,"356":0.008579107975065746,"357":0.233087387686482,"358":0.3105187485545438,"359":0.14097748117281267,"360":-0.18210845683029417,"361":-0.29515525898171047,"362":0.023087217884703862,"363":-0.3779459512166716,"364":-0.1340987756290741,"365":-0.29206536255698373,"366":-0.1833864213418876,"367":0.07062281814065985,"368":-0.06351126946586727,"369":0.08103050279255876,"370":0.20042847890484958,"371":-0.0069043048555863405,"372":0.15632567064681369,"373":-0.10856336104029558,"374":-0.10475834297516244,"375":-0.02758814625140936,"376":0.16388756800764173,"377":0.021117498333501517,"378":0.24543433498490314,"379":-0.10633299394110106,"380":-0.12329632117123986,"381":0.14673638059502586,"382":0.10265466291389594,"383":0.12895194451417918,"384":0.262308323550697,"385":-0.13419747625283487,"386":-0.17890291851599194,"387":-0.00898708218555368,"388":-0.21210872361972666,"389":-0.27535101960284747,"390":-0.06488624206341465,"391":-0.04522839388150668,"392":-0.06991638887597804,"393":-0.01514744208218962,"394":-0.032136221615167784,"395":-0.2265175047681022,"396":-0.1790630102203248,"397":0.09792528394801023,"398":-0.12167814337217775,"399":-0.14389246515978332,"400":0.09627274963957623,"401":0.17488447984486133,"402":0.017199726202006816,"403":0.10877897927768315,"404":0.03577394940355801,"405":-0.02286784166232287,"406":0.22994431036844448,"407":-0.019064019288151247,"408":-0.0006324978955400667,"409":-0.16033808403215585,"410":0.006268094465332496,"411":-0.16103161528033474,"412":-0.1882129284867263,"413":-0.17724906903794765,"414":-0.110520670855006,"415":0.007547116299477025,"416":-0.046854962112396335,"417":-0.1701857828384865,"418":-0.20043722530534852,"419":-0.26169568021861084,"420":0.05166946816760132,"421":0.006828724108897747,"422":0.17116310720089106,"423":0.2215237579684642,"424":-0.10738360919224897,"425":0.13127052559735783,"426":-0.13048868449130904,"427":-0.09628115628114102,"428":0.17709560727944124,"429":-0.006378905147228359,"430":0.21053330583964514,"431":-0.11788048071918106,"432":0.01741395584463855,"433":0.0660826834231205,"434":0.06595923620003051,"435":-0.20246567055295336,"436":0.01844185188594391,"437":-0.09190494534533819,"438":-0.2045215471232815,"439":0.06868851044215979,"440":-0.05716561884268591,"441":0.08560239247093542,"442":-0.2355276407780314,"443":-0.26678682228742334,"444":-0.15243598381985096,"445":0.0758350745597472,"446":0.027019001540754543,"447":0.011903025665950352,"448":-0.11368932878502237,"449":-0.1332492271744263,"450":0.17841116734830476,"451":0.15941964480823448,"452":0.012285449168851804,"453":0.24601883754667464,"454":0.05825154004107028,"455":-0.05735952374957341,"456":0.23851994850679975,"457":-0.1425807016779564,"458":0.11975651924225181,"459":-0.0366684507049351,"460":-0.025943808993751014,"461":-0.10886641454981255,"462":0.004603520636877418,"463":0.06479874960903947,"464":0.018420208567478044,"465":0.13325200245664548,"466":0.13607969560241073,"467":0.22937018217063743,"468":0.020646969005881425,"469":0.27172618911843616,"470":0.044643702319435444,"471":0.27480568607608574,"472":0.22862063934943835,"473":0.03286784484885869,"474":0.16130096178657163,"475":0.10468066326911414,"476":0.2835476801549401,"477":-0.151404654629148,"478":0.13425087787383225,"479":-0.23068904979588156,"480":-0.07253869966924956,"481":-0.043505967997052315,"482":-0.09390393869618661,"483":-0.09010266926219723,"484":-0.046008392417295374,"485":0.11856932706115413,"486":-0.12413548766778608,"487":0.17904967436547753,"488":0.0010642714748968281,"489":0.16303771959398217,"490":-0.08617515136284826,"491":-0.048291264794238634,"492":-0.10502722994875792,"493":0.11675953627747634,"494":-0.010915135927290438,"495":0.23955978796917085,"496":0.22991661952428408,"497":0.08536996292992269,"498":-0.10185994295080912,"499":0.058529846822209325,"500":-0.05641553248606483,"501":0.06396936009442024,"502":0.13146709066437678,"503":0.22608643987782334,"504":0.2190425820973331,"505":0.11524412213219147,"506":-0.08798330633264001,"507":-0.03759997386401183,"508":0.002416580985711255,"509":-0.040143664086053896,"510":0.1274800277039968,"511":0.1596011583209572,"512":-0.012887984500045229,"513":0.07848648190497606,"514":0.27157055458451584,"515":0.15968434365872944,"516":0.27540438363216974,"517":0.04921685923947137,"518":0.12114456651421486,"519":0.007918732933057268,"520":0.18908579791196803,"521":0.17317498697490566,"522":-0.06326060504895639,"523":-0.11606673328773512,"524":-0.17355293377033482,"525":-0.22179590636176502,"526":0.01213470579272398,"527":0.0839138276901021,"528":-0.01067190225195296,"529":-0.25638924329973195,"530":-0.17258482662380167,"531":-0.07151554821518925,"532":-0.20115528309110578,"533":0.02964056582173094,"534":0.22525365897495084,"535":0.022338059608376624,"536":0.10250177645650006,"537":0.1983671197384506,"538":0.09668395656124842,"539":0.15657104591550308,"540":0.10883924697142137,"541":0.018507864718860605,"542":0.0015412460694349836,"543":0.13818701997845692,"544":0.10443245428677049,"545":0.042098229406871406,"546":-0.06389583994987479,"547":0.08118549061596356,"548":-0.0942363178090751,"549":-0.10793865479349797,"550":-0.06142129758335622,"551":-0.19382363474473327,"552":0.05167027988788469,"553":-0.3944610734584364,"554":-0.1641960363357142,"555":-0.16961011856311226,"556":0.06375215921551916,"557":-0.058651680030554015,"558":-0.14339193461254213,"559":0.027194078696167568,"560":-0.024794209405828136,"561":0.16377898831630652,"562":0.08051161539655378,"563":0.19606695975049518,"564":0.09078695935172369,"565":0.04256010208360986,"566":0.06222455652849452,"567":0.10803550370595788,"568":0.05059493171110955,"569":0.03421845833556885,"570":-0.09580183726184113,"571":0.10602440344323322,"572":0.015819929397887008,"573":0.013716028042630507,"574":-0.0792192382603953,"575":0.03341572521053354}},"1":{"bias":0.09040200011241416,"weights":{"0":0.2767954355092622,"1":-0.03519577913102032,"2":-0.11796677988438915,"3":0.14573790991724675,"4":0.007243452994688071,"5":-0.18177961801262812,"6":-0.09616355450692453,"7":0.13841753743868512,"8":-0.13060207435002513,"9":0.17124171983047823,"10":-0.13344712524365002,"11":0.04105284338675852,"12":0.21043267146154565,"13":0.14522793299016806,"14":0.13728557058794613,"15":-0.17193018708024607,"16":-0.1527398978601433,"17":-0.05973283671845057,"18":0.03649636366468136,"19":-0.039299177198942756,"20":-0.22450846177768163,"21":0.05404097834483014,"22":-0.19619129963119042,"23":-0.2341298281916812,"24":0.015216816217614145,"25":-0.08883519024675014,"26":-0.0981917987990438,"27":0.022101523205367943,"28":0.11960443177781567,"29":-0.10948451834756846,"30":-0.12318004192897773,"31":0.2141607935284909,"32":0.18654459483327052,"33":0.05004775553179382,"34":0.14729370520575988,"35":0.09374825043806721,"36":0.2632166418464143,"37":-0.07306453184871337,"38":0.026748939033852066,"39":0.13600112334728848,"40":0.00597283447477829,"41":-0.08194396228303451,"42":0.20859337926183266,"43":0.13089420875494315,"44":-0.22255884788267707,"45":-0.1827949711554379,"46":-0.17703343915053413,"47":0.087766634283572,"48":-0.06954372929487293,"49":0.10745991375767439,"50":-0.15559228047693344,"51":-0.014918532094663931,"52":0.11741701180515349,"53":0.0686023166350571,"54":-0.1301961560007481,"55":0.08550609322915442,"56":0.27549942647122244,"57":-0.03853584606256079,"58":0.023790898721652805,"59":-0.08371748942991149,"60":0.24363613395450773,"61":0.0754492610312248,"62":0.08895332437836241,"63":-0.16539584507443883,"64":-0.08896612784203559,"65":-0.14444972183825558,"66":0.0751615211539367,"67":-0.19375424977354969,"68":0.07012859071185153,"69":0.1159273328937897,"70":0.05730629432799233,"71":-0.11319261282261261,"72":-0.0010570797294708909,"73":0.24761272359738434,"74":-0.027570414088622007,"75":0.14299894834786003,"76":0.09509329673345983,"77":-0.12161593885450003,"78":-0.12722644974625297,"79":0.0003699368967007972,"80":-0.08506753138698957,"81":0.06316417097644972,"82":0.1291169595984931,"83":-0.014386921407516998,"84":-0.05984021503081649,"85":0.011285275796547905,"86":0.21024067953015801,"87":0.185027052097724,"88":-0.1548332135630149,"89":-0.09383665851296401,"90":-0.07657662072503206,"91":0.08523094858196474,"92":-0.052031788958481394,"93":-0.04340368539254804,"94":0.10584663509096824,"95":-0.026999021413479762,"96":0.19844350386726634,"97":-0.010897782343666366,"98":-0.15689506294983505,"99":-0.038062855458128264,"100":-0.16277115281109267,"101":-0.20444441107537012,"102":0.11821083570480258,"103":0.22632639613929958,"104":-0.18114260298806206,"105":-0.0622733403921154,"106":-0.017274794504905114,"107":-0.10468083802921857,"108":0.22763730524683198,"109":0.02950720810959529,"110":-0.015391996888607672,"111":-0.1001165289040716,"112":-0.09770531611983825,"113":0.010622557877479127,"114":0.014544360705043982,"115":-0.02989263519052937,"116":0.15795567453971132,"117":-0.10235062102723602,"118":0.047848410702127225,"119":-0.16884465500281565,"120":0.1409368198139223,"121":0.15320750383865023,"122":-0.09291822414001746,"123":-0.1677331738491802,"124":-0.26382622013822515,"125":-0.13795593775043202,"126":-0.01839712742597238,"127":-0.21877206186657616,"128":-0.05478782872043999,"129":0.183723772496794,"130":0.06803548563902741,"131":0.11745400464668822,"132":-0.0175455386789764,"133":-0.07347054897387655,"134":-0.1785915430237985,"135":0.08924949501990834,"136":0.1853729845639869,"137":0.2532107623116195,"138":0.08107593391426947,"139":0.141146024582803,"140":-0.06418196944498601,"141":0.14658281946616303,"142":0.09937148168225156,"143":0.050493270535688695,"144":0.16268251265213157,"145":-0.028491714465884742,"146":-0.3167790917234039,"147":-0.11129717180104666,"148":0.04724979275098318,"149":-0.1490819628202038,"150":-0.1736056747422086,"151":-0.23671461860798562,"152":-0.26923020077103516,"153":-0.22108860574176245,"154":-0.059599606803845136,"155":0.11896926521888508,"156":-0.23976735034686697,"157":0.029043610648599078,"158":-0.17783405297457114,"159":-0.16075748118717775,"160":-0.037972103346372896,"161":0.14396797257214403,"162":0.03499005810633038,"163":0.24088653098618268,"164":0.006774175385498463,"165":-0.17346736040089675,"166":0.016068790346159986,"167":-0.07348344384772527,"168":-0.13219806501166206,"169":0.034077773263187436,"170":-0.01088823330189281,"171":-0.12091981826168416,"172":0.013675319669858186,"173":-0.21845241427302217,"174":0.01659549116086191,"175":-0.019938505529085028,"176":-0.08711575515144335,"177":-0.06679978753902967,"178":0.0028685425302981426,"179":-0.11713020245927297,"180":-0.0854946664414652,"181":-0.14530904231921313,"182":-0.23384712804432567,"183":-0.13745906786734302,"184":0.14271215911513943,"185":-0.07282215934502934,"186":0.23303626012988204,"187":0.14917459568184377,"188":0.26472360306915854,"189":-0.06634056960832581,"190":0.17301172852339028,"191":0.20732283597953322,"192":-0.040429210449201516,"193":0.11268274007337004,"194":-0.10709682961229593,"195":-0.10124159079682842,"196":-0.07995674523969819,"197":0.09861009556541506,"198":-0.11359041241977899,"199":-0.2103691367481463,"200":0.019245982715895903,"201":-0.172159610324681,"202":-0.10501151680356884,"203":-0.26737326918843823,"204":-0.20755306064930054,"205":-0.11486782088720454,"206":-0.07906456893438044,"207":-0.007501841384162667,"208":-0.04582918986696255,"209":0.15120130357713638,"210":0.1579072549705794,"211":0.05899867303669926,"212":0.12356106322841573,"213":0.0975707225546265,"214":0.2165462431240302,"215":0.18797733842413383,"216":0.12223125723700319,"217":-0.08104200943840945,"218":-0.03262873934811112,"219":0.014809774779029804,"220":0.1525607577315449,"221":0.13760337218938742,"222":0.11668287236108364,"223":0.054033424847713805,"224":-0.23795207946407607,"225":-0.08682312047404958,"226":-0.2563074048394671,"227":-0.20311779213575135,"228":-0.2005396410980423,"229":-0.13713459906806538,"230":-0.026273998393368577,"231":0.04206910883188912,"232":0.08734615642447832,"233":0.2426190156884466,"234":0.04187943084204521,"235":0.043255739268438516,"236":0.28894969975022927,"237":0.34998644621330216,"238":0.11756567087113029,"239":0.3580234312527206,"240":0.24901515192583315,"241":0.026628075893376336,"242":-0.031633076211762506,"243":-0.16620579853535042,"244":-0.10168246600561275,"245":0.02086890320738274,"246":-0.18779333342253823,"247":-0.1255199586359517,"248":-0.225992045655722,"249":-0.1262421982078165,"250":-0.3450028825776247,"251":-0.2790886356983248,"252":-0.3145856925390794,"253":-0.1296765859798024,"254":-0.025785634143910576,"255":0.27691211523748227,"256":0.3365593347218256,"257":-0.07606718602228203,"258":0.21578065797870577,"259":0.1586507890550969,"260":0.15029753089675757,"261":0.22758025206780674,"262":-0.011876315841571863,"263":0.15954776545185204,"264":0.09943523749965312,"265":0.11904083401782514,"266":0.14542410904965114,"267":-0.04305225157562128,"268":0.17232995631636625,"269":0.08888652703034566,"270":-0.08812106351395715,"271":0.048720792864410147,"272":0.14356363896947388,"273":-0.16638431139295873,"274":0.023523073897145075,"275":-0.060502077867718045,"276":-0.2128111770454108,"277":0.1776443175505924,"278":0.05534755645761644,"279":0.04409878699506873,"280":0.2706108976269671,"281":0.24640398254054713,"282":-0.034504384619536504,"283":0.04112942084925645,"284":0.02930015831765055,"285":0.1363957183718929,"286":0.12872240988412592,"287":0.1715714303696492,"288":-0.12475652539747463,"289":0.058394861836703615,"290":-0.0412617412786726,"291":0.1403878191972412,"292":-0.0919378582160409,"293":0.0037093669757606836,"294":0.05358837148943802,"295":0.10635130871031635,"296":0.21222800189169075,"297":-0.12832252823389043,"298":-0.1691447011931645,"299":-0.07610095729963007,"300":0.21178947707140713,"301":-0.07623438841457224,"302":-0.016207982070604914,"303":0.2858192244261637,"304":0.002406800850846228,"305":0.12681545104784042,"306":0.1102442494733136,"307":-0.13486844712772394,"308":-0.17197962642247844,"309":-0.17204942024531292,"310":-0.06564705160539684,"311":0.09451116372445807,"312":-0.03406935344956839,"313":-0.0683365096479041,"314":-0.06502955329853968,"315":0.11186950357881872,"316":0.10338301089441915,"317":0.3236124937532458,"318":0.19309206637004792,"319":0.11416887698201209,"320":0.0912453296301583,"321":0.3190514594361024,"322":0.16129411581508674,"323":0.03413172912909247,"324":0.13695837928246288,"325":0.0185977496896003,"326":-0.08098326636046292,"327":0.07315825634113533,"328":-0.10293912635861366,"329":-0.19424091584393244,"330":-0.32167311845567625,"331":-0.32106032917623817,"332":-0.18522069353471207,"333":-0.15996368453779822,"334":-0.1229898940420437,"335":0.21002692392114589,"336":0.10871301293524352,"337":0.0962213577955068,"338":0.05651847483654769,"339":0.10726846545592864,"340":0.1490409624218217,"341":0.1509218776607128,"342":-0.1484946789695101,"343":-0.19691182466492405,"344":-0.0036331360339040856,"345":-0.03593927817328729,"346":-0.12350636322435134,"347":0.009699626938155346,"348":-0.10203160348108482,"349":0.018817159521400933,"350":0.20287857501505485,"351":-0.15300172603276474,"352":-0.0027545025793407015,"353":-0.12224636373278273,"354":-0.13293572655759783,"355":-0.26096858933436645,"356":-0.19966463996799447,"357":-0.1278298489952841,"358":-0.19662943749522527,"359":-0.11201458070954869,"360":0.0016248983829263567,"361":0.08330862757415769,"362":0.19309623486668867,"363":0.16094410132160736,"364":0.27370900393974973,"365":-0.15076091538450212,"366":-0.1625831406573386,"367":-0.002514651713341525,"368":-0.12209571952408693,"369":0.05278807766807351,"370":-0.1924260268201364,"371":0.07705801778217047,"372":-0.1957635906430129,"373":-0.2613296734766821,"374":0.21899355809196258,"375":0.10285583437506328,"376":0.015586772725966962,"377":0.14970050590017916,"378":-0.35211359389209307,"379":-0.15199392001817696,"380":-0.24327383422712345,"381":-0.12524344957937902,"382":-0.05864514206572515,"383":-0.18710779348576898,"384":-0.18776448608795046,"385":-0.0323780690685427,"386":-0.030775098650630727,"387":0.17567120519361562,"388":-0.08010920001609786,"389":0.04689019919671945,"390":-0.16201445329374847,"391":0.1968983772070026,"392":0.12184863735699074,"393":0.10191102305411272,"394":-0.12533458897548244,"395":0.1839930562555321,"396":-0.0713557072508324,"397":-0.14228539916453523,"398":-0.03723870745542273,"399":0.1534703091177806,"400":-0.16324648452903306,"401":0.025500227580117378,"402":0.06659986907078592,"403":0.11686993648085732,"404":0.10872993967453184,"405":0.0651440105628004,"406":0.16463253439856612,"407":0.005024506933761108,"408":0.016665911753768452,"409":0.07529682896042729,"410":0.04029976084326852,"411":-0.04359619922608505,"412":0.11273197466627846,"413":-0.05335824789709318,"414":0.018344794122499484,"415":0.05741518213730153,"416":0.0443716467975635,"417":0.12559623719384033,"418":0.17934304252994412,"419":0.23537798664659798,"420":-0.14490588064862034,"421":-0.1898875198502619,"422":0.14568084096918393,"423":0.12106632261810224,"424":0.0855334025288306,"425":-0.13217711298834953,"426":-0.005459622062111576,"427":-0.09400429630434887,"428":0.02688787037249258,"429":0.1342379668452016,"430":0.11416679258189759,"431":0.013513485768865461,"432":0.08870110467842719,"433":0.07353089374957529,"434":-0.17173809067042464,"435":-0.11612560885642104,"436":-0.1868190793749188,"437":0.12144963343203484,"438":-0.11769327417930046,"439":0.11401581445144977,"440":-0.03613635434872817,"441":-0.053799316437679774,"442":0.10288678132325066,"443":0.09447341380794645,"444":-0.12864226295228243,"445":-0.18577332068764624,"446":0.02399276670340964,"447":-0.26053185623660846,"448":-0.1527507571266008,"449":0.14764491653678502,"450":-0.036644167058345195,"451":-0.021287106944467147,"452":0.26568113017080613,"453":0.19102875175221723,"454":-0.031102447176000605,"455":0.17963567257239343,"456":0.029528869657647307,"457":0.14021199242516935,"458":-0.04638273008641029,"459":0.1409410748468551,"460":-0.03157973963040979,"461":0.11516137119334392,"462":-0.2358646742226307,"463":-0.00462370123820384,"464":0.15604956098407546,"465":0.14859809832639664,"466":0.08174402618184415,"467":0.18601388043797845,"468":0.16116023958282225,"469":-0.24291875999131632,"470":-0.14856013915930477,"471":0.015313065519071233,"472":-0.11143809049924422,"473":0.12907038464212492,"474":0.1830474860308519,"475":-0.04815906132293969,"476":0.07563867538887965,"477":0.09864906028255063,"478":-0.16037160533028327,"479":-0.09729870866346178,"480":-0.031418365696844586,"481":-0.21240533263121103,"482":0.06480519779277083,"483":0.01521679382534067,"484":0.18767855022030958,"485":0.11325855333216335,"486":-0.02589103646427177,"487":-0.15788159395874204,"488":-0.14214406518395709,"489":0.0298002893137194,"490":0.1610770498294423,"491":-0.08336209076233682,"492":-0.15645260096866262,"493":-0.16331686093999057,"494":0.19782230351837649,"495":0.003681724421421511,"496":0.046859734875484546,"497":0.02689778893639208,"498":0.057578882851050395,"499":-0.15419081509237167,"500":0.12447901806624526,"501":0.09494693060164149,"502":-0.2396469638996097,"503":-0.17417311454592824,"504":0.0326890645662168,"505":0.062053544084658165,"506":-0.15778939363431865,"507":0.11906990705105341,"508":0.14428686964476567,"509":-0.130669652036159,"510":-0.12193522463244208,"511":-0.05995709346480064,"512":-0.10570665031684146,"513":0.005852528776698942,"514":-0.038794888995917425,"515":-0.10560995443469454,"516":-0.14570885167818817,"517":0.10104519631525433,"518":-0.21174271698786112,"519":-0.04476653539526276,"520":0.22507969255437107,"521":0.05541250041186914,"522":-0.0344636673247312,"523":0.17589710664310754,"524":-0.07904207623132191,"525":-0.20694216318706535,"526":-0.011172147002366252,"527":0.03789160767639375,"528":-0.1407250322258493,"529":-0.21893382847352091,"530":0.02889279281161727,"531":0.06654246982481583,"532":-0.2087667189957965,"533":0.09207066959770784,"534":0.09380957921374625,"535":0.07150646227725327,"536":-0.15793363973801203,"537":0.06653143869127415,"538":-0.0868525608674149,"539":-0.1178828702478448,"540":-0.12250747062704107,"541":-0.1992142175700461,"542":-0.10807160159074462,"543":0.1524924549857574,"544":-0.14150960569906285,"545":0.15129793055128338,"546":-0.05904168616347564,"547":0.08593788751271547,"548":0.0040375730247814235,"549":0.019087379686258347,"550":-0.19315579910525735,"551":-0.15531440512045477,"552":-0.04154049325281348,"553":-0.018804383026589197,"554":-0.028097873690137172,"555":-0.07675915884896063,"556":-0.10592886737189273,"557":0.1112594052978546,"558":0.09346866969035443,"559":0.08441617571894384,"560":0.09672529772717645,"561":-0.16483326745967636,"562":0.08353809520018662,"563":-0.010576466247969098,"564":-0.004637122153348534,"565":0.12502724357410852,"566":0.18968344648006583,"567":0.2499929395449461,"568":0.056491751378543356,"569":-0.01058664700803616,"570":-0.11928517432845236,"571":-0.16278354622459937,"572":-0.044293945064560455,"573":0.08421836549649415,"574":0.07937363985202765,"575":-0.19146976388918696}},"2":{"bias":-0.08428605291491237,"weights":{"0":-0.21444914034839913,"1":0.17502140763949112,"2":0.3224332995823676,"3":-0.09220963605222104,"4":0.041829067289001404,"5":-0.1461029837930463,"6":-0.13591880949474136,"7":0.06502937672185566,"8":-0.027985939914559995,"9":-0.035811897157206896,"10":0.01630185291879379,"11":-0.12467873798606742,"12":0.01442056487573262,"13":0.1249133000075615,"14":-0.28294953979895315,"15":-0.3042655379687604,"16":-0.19819628878951592,"17":-0.21682693862928212,"18":0.16251556887849897,"19":0.1452155138995281,"20":0.2847032342867647,"21":0.15526668525520615,"22":0.11075482841785018,"23":0.13392102960615476,"24":0.0344919983977536,"25":0.11550120553073796,"26":0.026666651235345427,"27":0.08790142741984898,"28":0.17815546056635734,"29":-0.07219341588211059,"30":0.11466194473105329,"31":0.15986854716518034,"32":0.15482888730349467,"33":-0.25958652462679394,"34":-0.17818827790032113,"35":0.11558825833864045,"36":-0.050364244403190775,"37":0.03334979094268142,"38":-0.22038499884497914,"39":-0.12927737658098584,"40":-0.12240185060975318,"41":-0.19472109737475687,"42":0.017144476096730355,"43":0.11962235954965365,"44":-0.1018910723623112,"45":0.05589434684265105,"46":0.29609226157405194,"47":0.3954086126078724,"48":0.06500948196699868,"49":0.16851131438066086,"50":0.3736063415519645,"51":0.26891186374363296,"52":0.04462759150219194,"53":0.07135020328248992,"54":-0.08278228014863712,"55":0.16047437255543842,"56":0.12235774586956213,"57":0.1842684087836788,"58":0.13264902922556346,"59":0.1528467044984457,"60":-0.0731933719652967,"61":-0.014820945181342821,"62":-0.2631630963477492,"63":-0.12445666837850455,"64":-0.009553174854435539,"65":-0.15884224785313258,"66":0.12108029164497648,"67":0.1761122387406468,"68":-0.03853217672378096,"69":0.01237089336471785,"70":-0.0596014907239001,"71":0.3543125766948645,"72":-0.1311354841820595,"73":0.14303756840042026,"74":0.09733648176404289,"75":0.2906270537880863,"76":0.11455227319071493,"77":0.07610572768308435,"78":0.029814650466756243,"79":-0.06662417358031034,"80":0.1143468680275283,"81":0.141779649497978,"82":-0.14243142948970103,"83":0.06049794668860091,"84":-0.018599790231323163,"85":-0.17848057294717698,"86":-0.17754886464295355,"87":-0.017893539791249528,"88":-0.2054796618398375,"89":-0.041618904135932853,"90":0.029070013278444152,"91":0.051301126393492276,"92":0.13483219041896055,"93":-0.009900721563224487,"94":0.1177910038156016,"95":-0.060298618593988544,"96":-0.048868209350362464,"97":-0.004581374255198682,"98":0.288918332630357,"99":-0.13339124821493042,"100":0.12087054724285541,"101":0.07036189218756139,"102":0.07596852315736131,"103":-0.01527149419404292,"104":-0.207284789364568,"105":0.27727825635598885,"106":0.19940004576885711,"107":-0.01755031863491552,"108":0.22231803396286148,"109":0.07511625870108116,"110":0.11046310275114606,"111":-0.07630157344335423,"112":0.027164717587456,"113":-0.08881174539152689,"114":-0.19803489186981527,"115":0.0412142345427784,"116":0.06689184126972669,"117":-0.09096967977418584,"118":-0.007585115968344172,"119":-0.05636156988394822,"120":0.1182897138846797,"121":0.13143129988248434,"122":0.11521537120440477,"123":-0.16945057218076742,"124":0.07260087044840588,"125":-0.21070680978614942,"126":-0.1030356019250007,"127":0.0350991006540717,"128":-0.019802667233795295,"129":-0.152671501374484,"130":0.02181765215074177,"131":0.11838696594175241,"132":-0.0840507627632705,"133":0.07370373543804558,"134":0.3602682550727462,"135":0.015439889342679487,"136":0.28455984381776617,"137":-0.10289434375087868,"138":0.12365366562610157,"139":-0.17023596734159507,"140":0.03383061192180324,"141":-0.20948980602915784,"142":0.004723983119546053,"143":-0.1871574997486452,"144":0.1642172406909157,"145":-0.057712900887427386,"146":-0.0652964096329942,"147":-0.18573971336928138,"148":-0.12491375413767146,"149":0.10965598769501425,"150":0.0024837939361802316,"151":-0.19045332894120315,"152":-0.1325528409546666,"153":-0.2954613527295201,"154":-0.22148763747902414,"155":-0.007287155924778791,"156":0.007803699258296607,"157":0.23843193990457703,"158":0.08660832743381787,"159":0.15606843345480909,"160":0.09923147553696181,"161":-0.06693341441849897,"162":-0.06793461475964703,"163":0.09129993265148663,"164":0.07491340016682527,"165":-0.0797706124271154,"166":0.05534527783270953,"167":-0.05682866111034397,"168":0.05030821046737924,"169":0.006341818584604957,"170":0.001981296994390767,"171":-0.14109701580381506,"172":-0.22046838739671248,"173":0.014035488980851225,"174":0.09919197410218139,"175":-0.21315169504899473,"176":-0.02857201477792364,"177":-0.267381757909797,"178":-0.15618844651461863,"179":0.07722620643334915,"180":-0.12390608706839641,"181":0.24955957074758597,"182":-0.02047462954235339,"183":0.20483184868685597,"184":-0.10224335241570794,"185":-0.014406282747871242,"186":-0.06589600572409228,"187":-0.10316894302090615,"188":-0.1746149912575761,"189":-0.1551503787810482,"190":-0.05522507989304521,"191":-0.061139640009010766,"192":-0.10983278310271823,"193":-0.012505447966634229,"194":0.13593614212976182,"195":-0.14198609958971004,"196":-0.13008530054047,"197":0.060144912603414924,"198":-0.14900774744724185,"199":0.16222646261363724,"200":0.0290062012040194,"201":-0.2699113439342104,"202":-0.15140121082036095,"203":0.0878463121304941,"204":0.03053897619058032,"205":-0.057927415389506666,"206":0.03574737565394456,"207":0.09543590057193337,"208":-0.018506287181156926,"209":-0.09338644529351327,"210":0.15181233916958473,"211":-0.16569320403551938,"212":-0.07065901659387754,"213":-0.03401289917099044,"214":0.08599580814596892,"215":-0.191619828775425,"216":0.02746907403226216,"217":-0.16408963437349555,"218":0.06659838242957365,"219":-0.12363635628359543,"220":-0.20494124603157823,"221":0.15061957153166017,"222":-0.12312170332371708,"223":-0.07069784123606511,"224":-0.022318557118158958,"225":0.03746637131862617,"226":0.13155076197042034,"227":-0.07495157452073345,"228":0.009616128238533278,"229":-0.1288614023641352,"230":-0.15578849253460322,"231":-0.20285358423194183,"232":-0.03448825009536218,"233":-0.1460635272530859,"234":0.1971531957491556,"235":0.07250804622197919,"236":0.11906196643857805,"237":-0.1044506200599367,"238":-0.004681386174770305,"239":-0.08247315245691075,"240":-0.08772606412235688,"241":-0.22364903381939383,"242":-0.21645108808730684,"243":-0.23423234010569705,"244":0.07502564044499202,"245":0.06356313222439783,"246":0.20690983619912026,"247":-0.08548188674067762,"248":-0.18374494416297335,"249":0.05097193795144204,"250":0.1011535018290833,"251":0.2476600161637958,"252":0.011343522049913051,"253":0.08095598838151323,"254":0.1355018386871945,"255":-0.005467253765429956,"256":0.2811674120775627,"257":-0.11135215100451142,"258":-0.043775715611147514,"259":-0.1915476241359722,"260":0.043548103068825963,"261":0.1391867495783457,"262":-0.10092956751808398,"263":0.12391161939484484,"264":-0.02876062056787291,"265":-0.07095754399058066,"266":0.20324245667215798,"267":-0.12415083873482667,"268":0.09153478899551373,"269":-0.09893045562703871,"270":0.09786104398247786,"271":-0.08696731237811613,"272":-0.13519426500568485,"273":-0.09711333346019779,"274":0.012487591493734466,"275":0.2589809611110377,"276":0.2650930655407438,"277":0.02828198325215677,"278":0.1295028487823897,"279":-0.0624343577979813,"280":0.049486866323157915,"281":0.25626320018330834,"282":-0.005510658567719096,"283":0.07320481691123709,"284":0.1401946569731933,"285":-0.17272998753520727,"286":0.0020085278190471807,"287":-0.14509408871581797,"288":0.017628104010687234,"289":-0.04962631223978152,"290":0.029495415978045253,"291":0.015410721546299815,"292":0.02815103098502769,"293":-0.03428948939686226,"294":-0.12913854504558175,"295":0.09215590499931821,"296":0.03350700954594353,"297":-0.015572455049933726,"298":0.12423006035442172,"299":-0.1324218276899631,"300":0.13948277779245885,"301":-0.016623491895573127,"302":0.30548222212618564,"303":0.07024028341387605,"304":0.0003394299203265918,"305":0.28122825159436643,"306":-0.007578343354899556,"307":0.15198862722589293,"308":-0.16767009387797363,"309":-0.12098687190146794,"310":-0.004576072261204825,"311":-0.2022728355588016,"312":0.024140193754882817,"313":-0.027001505867582862,"314":-0.14559674559199917,"315":0.06208228601797763,"316":0.06578145310283968,"317":-0.10255373727417613,"318":-0.15681188168735788,"319":0.21162152809989776,"320":0.06866481519909905,"321":-0.1163708113776836,"322":0.19962619742500715,"323":-0.009650416241511587,"324":0.031075972197764853,"325":0.037114174114733514,"326":0.17586965437497667,"327":-0.16024122876362318,"328":0.05074384990462844,"329":-0.16873250997575673,"330":0.040134963202286114,"331":-0.0662895257875773,"332":0.2820708045874644,"333":-0.12410998080217388,"334":-0.01748569722496622,"335":0.05609283784339779,"336":-0.055465436263089994,"337":-0.14637522901846478,"338":-0.03534504360132992,"339":-0.08508132008660169,"340":-0.09670221583208347,"341":-0.24865164335668302,"342":0.09001618050028905,"343":-0.0756056820659461,"344":0.1133978383957415,"345":0.12170856943377126,"346":-0.00921518222838139,"347":0.02958694991981689,"348":-0.08510085082801894,"349":-0.13968438646047704,"350":-0.0829982837758049,"351":-0.20741151620144177,"352":-0.03337957546161592,"353":-0.1252540048900755,"354":0.09874228457818796,"355":0.15380372941742612,"356":0.1667054931672392,"357":-0.06364371509664847,"358":0.03990253926506106,"359":0.019986644401097247,"360":-0.0013227735380375526,"361":-0.1782732733720349,"362":-0.09534654043980184,"363":-0.24130682575673126,"364":-0.15995064780412224,"365":-0.04651235666402833,"366":0.08106692999927616,"367":0.18358900077902435,"368":0.2013267190508097,"369":0.11815358569391622,"370":-0.13859218135018567,"371":-0.266828023493565,"372":-0.11703415972659416,"373":-0.2773266911328599,"374":-0.1630059632492959,"375":0.11299813748962974,"376":0.10392911806946253,"377":0.18633807313872472,"378":-0.06007635072454162,"379":0.065348512292865,"380":0.08481167625182824,"381":0.038138052258382654,"382":-0.034221586705803615,"383":0.12741616293663816,"384":0.02111905090434911,"385":-0.20282491667024882,"386":0.08232725552540829,"387":-0.12170206996454297,"388":-0.2200454706238214,"389":-0.20967789349551874,"390":-0.0029523278656646405,"391":-0.13088148217402443,"392":0.17111542270526703,"393":0.07305010838976955,"394":-0.18177739565463097,"395":-0.23620731925741978,"396":-0.14088362474538024,"397":-0.0233970793486252,"398":-0.1722164240791621,"399":0.16519082644617736,"400":0.2313139992029744,"401":-0.0636633948442315,"402":0.09180193761523522,"403":0.15239519095500503,"404":0.020506819258291956,"405":-0.09807206703288143,"406":-0.03559803234514414,"407":-0.23111933011106908,"408":-0.022354574804840766,"409":-0.13889463563999052,"410":0.03745352709712626,"411":-0.003820862913995199,"412":-0.1537445745267331,"413":-0.03145460319199098,"414":-0.05598559266582057,"415":0.093305344806225,"416":0.13599962015690936,"417":0.12575992421682886,"418":0.005045691138386359,"419":-0.16926798824432995,"420":0.04448661546652855,"421":-0.09899781861920665,"422":-0.1197421787871757,"423":-0.05297743432350217,"424":0.03141221164145058,"425":0.02077637242819938,"426":0.011389391758275816,"427":-0.2546004622564444,"428":0.09192289124779429,"429":0.05727131571368891,"430":-0.22680383569337312,"431":-0.02140331981885467,"432":-0.11620983966483221,"433":0.19457425557687022,"434":-0.1519450799248494,"435":-0.06306130011021967,"436":0.09001386155704262,"437":-0.15530868652377922,"438":-0.10361475487808529,"439":-0.07128877591510785,"440":-0.12850733285780475,"441":0.08184057271142832,"442":-0.21507408560672828,"443":0.08858486994801955,"444":0.014814115720372122,"445":0.10169684961943563,"446":-0.22712324210890014,"447":-0.06143940291734775,"448":0.09050255614403536,"449":-0.04570543168858297,"450":0.10294945767949784,"451":0.010380222584755655,"452":0.050028856260952,"453":-0.0758031682638299,"454":-0.08772121740325464,"455":-0.19980152522156,"456":-0.11676785424783256,"457":-0.01281051250976517,"458":-0.09978173156739667,"459":-0.08431948496463765,"460":0.3191195502656632,"461":-0.05366088882535422,"462":0.34817244392521735,"463":-0.10931745162089775,"464":0.14722578028086586,"465":0.03934550964821785,"466":0.17063351925360487,"467":0.12706440915012515,"468":-0.08506537281913275,"469":-0.11842819415561735,"470":-0.043646392166111526,"471":0.07341666018760902,"472":0.030258785585910893,"473":0.11535397473747139,"474":-0.06041910426780248,"475":-0.14416884744663397,"476":0.10972711511546988,"477":-0.13282240697275186,"478":-0.1686961025312127,"479":-0.18164403248671904,"480":0.03299553956269824,"481":0.249637660382218,"482":0.3259400095666456,"483":0.020356246494176337,"484":0.14977909301323988,"485":0.06784335576616678,"486":-0.037029652758186635,"487":0.0946971165366944,"488":0.24752712583700034,"489":-0.060237463809524036,"490":-0.17283268277979982,"491":-0.05582490807638379,"492":-0.057027905843697595,"493":-0.04964323457474383,"494":-0.05808899098045731,"495":0.22699995895176553,"496":-0.19314979216778544,"497":0.03477345690446045,"498":-0.1720521769604698,"499":-0.15514428776580663,"500":0.18934582798596256,"501":-0.1064154044919898,"502":-0.2358551340997452,"503":0.10533266556054509,"504":-0.11657294723463929,"505":-0.048279339504392844,"506":0.23663220165927398,"507":0.05206885606743996,"508":0.024751693000037725,"509":0.09808303251145092,"510":-0.09727697643632531,"511":0.12787290014583047,"512":0.2931377161510481,"513":-0.13128582430786714,"514":-0.00649681472619402,"515":0.019675815379201683,"516":0.14011485399772752,"517":-0.09144406329348019,"518":0.045121525949949545,"519":-0.06417641943320389,"520":-0.08622377377256009,"521":0.2503084526483039,"522":0.16606667922978988,"523":0.1036590711931348,"524":0.08354103069317761,"525":-0.2308307660248423,"526":-0.34658105332716016,"527":-0.0914902936751275,"528":0.11831052031031267,"529":0.12811618546277626,"530":-0.012396163882240598,"531":-0.08123503712526627,"532":0.006671276905455796,"533":0.23976040599799647,"534":-0.14220334498616513,"535":0.000267480180472695,"536":0.14982767805311656,"537":0.07896787354038974,"538":-0.09448181474821425,"539":-0.26964249202708823,"540":0.09153331186281823,"541":-0.17450584125844035,"542":0.21167140736720205,"543":-0.01812217406788855,"544":0.07192879788778613,"545":-0.058535715867807786,"546":-0.2354961761943347,"547":-0.042262121231617475,"548":-0.3911104171591371,"549":-0.188513014503684,"550":-0.23755618270639087,"551":-0.4001102363993196,"552":-0.035673419565472334,"553":-0.22931860029134143,"554":-0.04099841976057397,"555":-0.07821545405554617,"556":-0.05561878981845269,"557":-0.17532329469215308,"558":-0.2971691925755215,"559":-0.15488524833712344,"560":0.015914794566253145,"561":-0.3183821902918759,"562":-0.2657983132901483,"563":-0.03822490001943474,"564":-0.15500351188867084,"565":0.14208425927479676,"566":-0.17349922034508541,"567":-0.24342950649272005,"568":-0.0061889096004589875,"569":-0.2629019011480401,"570":-0.0649382349061774,"571":-0.33450427198977933,"572":-0.2275398206291664,"573":-0.30613352990726983,"574":-0.39638020197384377,"575":-0.5308686851669736}},"3":{"bias":-0.009915323664351855,"weights":{"0":0.254726534209974,"1":0.16639046416891845,"2":0.09034871926907372,"3":0.22962354089038453,"4":-0.08011034434290841,"5":-0.09221141956627996,"6":0.2305747703500759,"7":0.21378447554519334,"8":-0.0027506670466781445,"9":-0.05707604378930843,"10":-0.00841223515231563,"11":-0.13289000285512995,"12":-0.003161700625460899,"13":0.04860599123224054,"14":0.02176113944942263,"15":-0.020624295010185898,"16":-0.1838247048060991,"17":0.11073581125238206,"18":0.22931330443142683,"19":0.06653176591315253,"20":0.03304563887889044,"21":-0.11381190787642666,"22":-0.21532274959755132,"23":-0.10472339142803684,"24":0.2388820960471606,"25":0.15209389408084945,"26":-0.205224136971336,"27":-0.03271088138269161,"28":0.23796521638554624,"29":-0.11524895336235752,"30":0.2656617837980757,"31":0.1550812077721367,"32":0.023109994466954487,"33":0.0513358325216524,"34":-0.15318533707440632,"35":0.13718572298970888,"36":-0.07935090466703972,"37":-0.15899867553688674,"38":-0.12078986628097826,"39":0.2567605465673864,"40":-0.060994529042636594,"41":-0.15403006958604368,"42":0.1591348692145472,"43":-0.09342922591316877,"44":-0.07462741883385156,"45":-0.09554237919256073,"46":0.0822846537349288,"47":-0.05360513575088075,"48":0.0642424629746096,"49":0.14049348032499734,"50":-0.004112524003556268,"51":0.10472732365694656,"52":0.15186091279331107,"53":-0.08552923615007982,"54":-0.08288467885124011,"55":0.06660190657086573,"56":0.15411012193341667,"57":0.18401896736265005,"58":0.041129939142143204,"59":-0.1669258585442268,"60":-0.05059137423621808,"61":-0.06168975129050038,"62":-0.046561203307962,"63":0.18953914904462035,"64":-0.002276717933411869,"65":0.023516767427529416,"66":0.23985003368310945,"67":-0.03740946296995245,"68":-0.20406065067400658,"69":-0.08901513304528581,"70":0.09890317518101945,"71":-0.14147024994219323,"72":0.12992716484126737,"73":0.2417803904811507,"74":0.14842976759744675,"75":0.18819818482333142,"76":-0.22136467513353164,"77":0.030994633358400664,"78":-0.16002121052738635,"79":-0.054557274802911754,"80":0.011623221839876997,"81":0.012297599768584473,"82":0.09220013351668471,"83":0.07791170239866096,"84":0.004486531374329473,"85":0.2421664859096977,"86":0.24616920999293593,"87":0.03863889117451679,"88":0.0005277130343992887,"89":0.21968866352511937,"90":0.20738680648929556,"91":0.21153945494031426,"92":-0.1709090822569052,"93":-0.20421229448253816,"94":0.14434470837457056,"95":0.17626554332410316,"96":0.16277793720789926,"97":0.14792417796093463,"98":0.06838050636123919,"99":0.013191278099485984,"100":-0.07887221584664282,"101":-0.20701257724205674,"102":0.12852346170712167,"103":-0.07236537625434297,"104":0.003997733712975384,"105":-0.006024679500271939,"106":0.049161091834283514,"107":-0.008900676075176087,"108":-0.01705863788609017,"109":0.05363925373893174,"110":0.1639640868525596,"111":0.13435593462993314,"112":-0.03441834378751698,"113":-0.15858717753395002,"114":-0.07613931745353034,"115":0.06502527718946323,"116":0.1367989197728723,"117":0.03643725567141343,"118":-0.13819114979251185,"119":0.089423620403782,"120":-0.16533552344941801,"121":0.02602150448158857,"122":-0.19704529484103905,"123":0.15511300401386793,"124":-0.1503443445268223,"125":-0.0975097884820988,"126":0.003895851208538988,"127":-0.08213266293403089,"128":-0.20198098198243422,"129":-0.11043291363648347,"130":0.24666650876869936,"131":0.11192644448950578,"132":0.14189742268924244,"133":0.033857674152558824,"134":-0.1026911301695915,"135":0.018147747422458012,"136":-0.022786867634456035,"137":0.15164445477688093,"138":0.12213672032012116,"139":-0.030614357609023212,"140":0.044584881457492356,"141":0.12902208429111137,"142":-0.03168495238572577,"143":-0.08145837979007368,"144":0.07798728964603657,"145":-0.15316717318682954,"146":-0.09242964623361828,"147":0.06751246049877366,"148":0.11877170749144386,"149":0.15529827412816385,"150":0.26318437982617815,"151":0.08706863633036774,"152":0.04652186102956021,"153":-0.14194917836453344,"154":0.06917266221018188,"155":0.06325139485343294,"156":-0.07190925062616466,"157":-0.1814576001110692,"158":-0.13243354955209022,"159":-0.1354050943113372,"160":-0.14376429088697554,"161":0.3246153394507963,"162":0.01752900277620191,"163":0.237653777924531,"164":0.02940155364185582,"165":-0.07403656833156873,"166":-0.0844407257375056,"167":0.08643474687551876,"168":-0.16506825012978962,"169":0.05715095570339276,"170":-0.08067133035789846,"171":-0.05412636318587479,"172":-0.03109166954783808,"173":-0.026673102947039597,"174":0.09447014276998546,"175":-0.07878770783961106,"176":-0.04307129025193556,"177":-0.1320054472183119,"178":-0.0896194341232645,"179":-0.12386289722972291,"180":-0.002570176211581264,"181":0.07166645371696073,"182":0.07635217050404661,"183":0.2278967335753091,"184":0.15969645047529177,"185":0.05915474441953443,"186":-0.025274617202647672,"187":0.16989010996153453,"188":0.1736399664218507,"189":-0.010170472904142233,"190":0.21211363914088777,"191":0.16968356366580362,"192":0.1582113372045427,"193":-0.09503294821069361,"194":-0.3568164214886812,"195":0.020725634474113956,"196":-0.1130693077667876,"197":-0.10885712547979741,"198":0.1245758060220383,"199":0.11751052484896984,"200":-0.13680640729003463,"201":-0.030911858517249608,"202":-0.1368045921414261,"203":-0.09471520667026453,"204":0.17474969011666291,"205":-0.13678045025489177,"206":-0.18875255656012324,"207":-0.02197802174983651,"208":0.08758590378243288,"209":0.24204580587198687,"210":0.012533699181713409,"211":0.1359917273348621,"212":0.024292057353536727,"213":-0.04897523617595905,"214":0.0942074501124949,"215":-0.0061143609873963835,"216":0.2772767070080621,"217":-0.052905238372384734,"218":-0.24362991309686582,"219":0.0795339944133873,"220":-0.0848996867956702,"221":0.06273741023164756,"222":0.08353144865781853,"223":-0.11895595190048015,"224":0.1132440905568782,"225":-0.0802233582305739,"226":-0.2110660409459959,"227":-0.20539333553035413,"228":-0.19207478533851768,"229":-0.09963274776672944,"230":0.14927967237087672,"231":0.199416247639355,"232":0.09464528728467053,"233":-0.03489606745037237,"234":0.05303034760853154,"235":-0.023200229622296873,"236":0.23148202884710992,"237":0.12145829198403878,"238":-0.1623542190432233,"239":-0.002527382079987382,"240":-0.09526662871574372,"241":-0.16036529935243182,"242":-0.012083846986981001,"243":-0.22617220707559801,"244":-0.2292450236536184,"245":0.17128028818170105,"246":0.05223730150685859,"247":-0.126693091316725,"248":0.02985614148621332,"249":-0.08954923632590366,"250":-0.16840663293290986,"251":-0.21415683600322885,"252":-0.04473544185029735,"253":-0.29148209234869765,"254":0.027983442627553784,"255":-0.004452058167643004,"256":0.35921845582651946,"257":0.1618203878500507,"258":0.002711023898313181,"259":0.17174163886602947,"260":0.11190143574972812,"261":-0.05073655069408437,"262":0.02780256684372064,"263":-0.11901486771335516,"264":0.13768090894517496,"265":-0.06388791314082468,"266":-0.12436968425134723,"267":-0.10219478447349248,"268":0.10586080089585687,"269":0.07095605475269401,"270":0.025077551922020262,"271":-0.16325547483396938,"272":0.06778482665441328,"273":-0.08216886986615494,"274":0.14373256176580204,"275":-0.18973555601400718,"276":-0.19429391694634524,"277":-0.1673602896026297,"278":0.06978891028957766,"279":-0.07917117708476543,"280":0.1454311183170686,"281":-0.1043820524371877,"282":0.21913050458001415,"283":-0.13448051622611173,"284":0.007070088880277142,"285":-0.25293645870213516,"286":0.027411926281608476,"287":-0.031126354691552695,"288":0.09789753025838965,"289":-0.050653836441237166,"290":-0.16288587166287208,"291":0.13246033610245378,"292":0.19302932755444155,"293":-0.03089963496678654,"294":0.07013135781686942,"295":0.11012263234074858,"296":-0.21851944510821067,"297":0.10436923834008195,"298":-0.26888426001482735,"299":-0.20086753467270013,"300":-0.150177844882733,"301":0.00792330779677526,"302":-0.23927293524552154,"303":0.13712532625197452,"304":-0.19741860881551093,"305":-0.002026942189660947,"306":-0.21840849653765818,"307":0.1366310035714144,"308":-0.051095713643560685,"309":0.13111571763137728,"310":-0.11440663915866875,"311":-0.007874955923032239,"312":0.01262914626654054,"313":-0.19530151996619685,"314":-0.2092152583908042,"315":0.01739401530357477,"316":0.14446783562193996,"317":-0.2454742047764655,"318":-0.2470665976617814,"319":0.07116525859218656,"320":-0.24358957439815784,"321":0.06362507670167286,"322":-0.1471690291733517,"323":-0.21898189382901354,"324":-0.20900361399908382,"325":-0.14154758791506025,"326":-0.12836852384952005,"327":0.165570664123354,"328":-0.0962168526540791,"329":0.0420317256120183,"330":-0.013194497840819353,"331":-0.19752643160908906,"332":0.14842711039687845,"333":-0.17880023569872405,"334":-0.051051325277699726,"335":-0.20439222733966356,"336":0.09939347287219852,"337":-0.02896664591652104,"338":-0.3439853576263692,"339":-0.2905711116928585,"340":0.09641776004276248,"341":-0.0434235146339239,"342":-0.09350293074523025,"343":-0.18318560261504307,"344":-0.2289599166415004,"345":-0.028678833943035584,"346":0.05415651969622775,"347":-0.07370783398054027,"348":0.04983432011992191,"349":0.023215416183926443,"350":0.16430354802769792,"351":-0.07300464003496597,"352":0.18452396057232473,"353":-0.13595587757449804,"354":0.08092786688014032,"355":-0.15727970255843518,"356":0.1588400276617008,"357":0.1325850532703557,"358":-0.1058093564464677,"359":0.09894210571112058,"360":-0.1995472577966321,"361":-0.18465213923836216,"362":-0.2643723028914072,"363":-0.09958685982246587,"364":-0.21763002931929007,"365":-0.10873287892010197,"366":-0.24902444445645983,"367":-0.045589271530496266,"368":-0.09724809620162313,"369":0.05109299987227279,"370":-0.003127753230366387,"371":-0.1150347909122875,"372":-0.1916188923369975,"373":0.003795474398722506,"374":0.0884861328191936,"375":-0.07915089677752742,"376":0.11878774150493468,"377":-0.04945619977915721,"378":-0.14193740524910672,"379":0.1024448272802398,"380":-0.11066711172970105,"381":0.11821095878023946,"382":0.019139929264329794,"383":0.07579207045749381,"384":-0.1381175169521589,"385":-0.3729450282703396,"386":0.04563011098746723,"387":-0.19142383409733527,"388":-0.25773577969686134,"389":0.029780289455489623,"390":-0.16879678134300216,"391":0.13835226560431635,"392":-0.08793844760561102,"393":0.08557349522573422,"394":-0.22280973086399578,"395":-0.1907291478167424,"396":-0.052275773156546794,"397":0.12625106680275225,"398":-0.011449564510858466,"399":0.1287210706025816,"400":-0.13244502371532238,"401":0.08150764628578416,"402":-0.10584086758672209,"403":0.07073925571593893,"404":0.14127872157384466,"405":0.03933437878228321,"406":0.214943250954534,"407":0.18726606188278153,"408":-0.1916453590670639,"409":-0.3571827322573419,"410":-0.15717581083749263,"411":-0.10346123319635055,"412":-0.024023219979890063,"413":0.16044979842179558,"414":-0.22446351298550504,"415":0.11522887298997003,"416":0.06098994523421131,"417":-0.02870007446805777,"418":0.09699761286899788,"419":-0.11172473521349695,"420":0.027161149167201287,"421":0.006223990201891491,"422":0.045406267796071986,"423":0.1192646667652661,"424":-0.04177907973785989,"425":-0.06346444189475718,"426":0.06469106524981101,"427":-0.013436685571000055,"428":-0.033793895887154785,"429":-0.08086279141689484,"430":-0.09088876612378564,"431":-0.02095795278834145,"432":0.2614003237811953,"433":-0.14092951875266485,"434":0.11354824045384512,"435":0.058618699370599714,"436":-0.10184099760868437,"437":-0.0967454163822554,"438":-0.11120888842164266,"439":-0.09830969895179428,"440":-0.18566102203209597,"441":0.10965311640665315,"442":0.061367576258204645,"443":0.1728223747539074,"444":0.001281832451337294,"445":0.005014053720083703,"446":-0.09735504911863808,"447":0.10490900020657755,"448":-0.0723614915917598,"449":0.11263045538480133,"450":-0.06957008920373357,"451":0.00016133903617059084,"452":0.18418466070841277,"453":-0.037171973199682476,"454":-0.04085879595674233,"455":0.03241586282573579,"456":0.13093976298988633,"457":-0.2656746726535829,"458":0.10019920362924878,"459":-0.04418763706678602,"460":0.007212895845367388,"461":-0.04157255902261719,"462":-0.11377335840654279,"463":-0.0775181849163191,"464":-0.029926564679525206,"465":0.010419655666084741,"466":-0.05857611830183121,"467":-0.15200653343522055,"468":0.13800765451167718,"469":0.018251380598744253,"470":-0.04283169384915045,"471":0.030863973875229985,"472":0.012413901938382056,"473":0.0609832365250193,"474":0.13149657709627677,"475":0.1971840440553283,"476":-0.01521210571412185,"477":0.06515276014031994,"478":0.12614079445731904,"479":-0.23103681763051678,"480":-0.016809540773235623,"481":-0.213764247963182,"482":-0.15651426711934666,"483":-0.08970440286779201,"484":-0.1211638705848036,"485":0.04857811871665256,"486":0.06073052310424518,"487":0.04717280510201962,"488":0.2525647640161255,"489":0.2214684471907702,"490":-0.020771758822045072,"491":0.017930605189576124,"492":0.07816166570514915,"493":0.24047148227726328,"494":0.12861637747518082,"495":0.0825603731190372,"496":0.18890331195366833,"497":0.19844527159711683,"498":0.18080202124019742,"499":-0.060202159583389925,"500":-0.12358209147681282,"501":0.22570995125255994,"502":0.1494238389057923,"503":0.07950074991188393,"504":-0.0001652279260557088,"505":0.11239167335114836,"506":0.06649937887346838,"507":0.09303364057269416,"508":-0.030684593512372852,"509":-0.15124045222386712,"510":0.11646098851094207,"511":0.1971344375078749,"512":0.09569097213618506,"513":-0.03873662520531075,"514":0.020337165175021685,"515":0.17607883936309143,"516":0.21075427849948977,"517":0.11631100334912957,"518":0.2254164926489081,"519":-0.1630730847781894,"520":0.049751481463920035,"521":0.13467512212216073,"522":0.17698282154051864,"523":-0.2123402737048878,"524":0.24043024872664165,"525":-0.014534736723783871,"526":-0.08311793057630532,"527":0.13033243409973064,"528":0.1727478668775796,"529":-0.002068497349264541,"530":-0.11445029116048025,"531":-0.04182079424562913,"532":-0.07854721851379676,"533":0.10072917956033768,"534":-0.0873123759261082,"535":-0.0018112883409390176,"536":0.25046445564191316,"537":-0.011548965656525358,"538":0.005615827053825749,"539":-0.05884580625662322,"540":-0.13757744989569873,"541":0.06658328669823368,"542":0.0997713885838314,"543":0.1934361050741812,"544":0.15140297339855258,"545":-0.01297215086007028,"546":0.01073130520773804,"547":-0.14712351674466045,"548":-0.11479951829890295,"549":0.07782900725513789,"550":0.03851294357852591,"551":-0.07091041769583972,"552":0.09980168316432574,"553":-0.15976962698852398,"554":0.03673367872829098,"555":0.031803259425994934,"556":-0.01967724215952835,"557":0.19255410442778684,"558":-0.000879340337792922,"559":0.12386434942260795,"560":-0.13678957279882495,"561":0.10980807404571276,"562":0.023147271148252435,"563":-0.1480855560262522,"564":-0.16491154122927798,"565":-0.07293288027359773,"566":0.1373407144019646,"567":-0.09292526670488357,"568":0.11382793611622874,"569":-0.027203636865416526,"570":-0.10751107913302162,"571":-0.012790974228960191,"572":0.031194641027363034,"573":0.036634691578742516,"574":-0.10418511304375648,"575":0.05630433899630899}},"4":{"bias":-0.06817573711982895,"weights":{"0":0.2514915270081797,"1":0.037368974885900914,"2":-0.08926945248573431,"3":-0.0926687966557882,"4":-0.07694048612194777,"5":-0.0851950901208568,"6":0.12393435686181248,"7":-0.09977342582442311,"8":0.2940000917158288,"9":0.15414208302023394,"10":0.2057347691771465,"11":-0.20926007840852426,"12":-0.19807976065997804,"13":-0.24925847199327855,"14":0.014472771482065378,"15":0.02609139364454559,"16":0.31984164695206974,"17":0.15840156345402082,"18":0.11685849999567159,"19":0.4181522467384215,"20":0.15938524606928914,"21":0.2866090559203932,"22":0.01872444492957994,"23":0.07410870595005264,"24":0.09728535936254891,"25":0.014213347498272338,"26":-0.18767050562115797,"27":-0.24177526833711238,"28":-0.269672118943009,"29":-0.13487877238135165,"30":0.030616471520487788,"31":-0.06054249562880348,"32":-0.13210647941496767,"33":0.0598078906681838,"34":0.12603169339154416,"35":0.15485529193340952,"36":-0.03611635960944237,"37":-0.24437981207673865,"38":0.07157672140941225,"39":0.28361483568502566,"40":0.2801665757331392,"41":0.29670510657795374,"42":0.12812397727202857,"43":0.15356278373468035,"44":0.09013547859267734,"45":-0.06895413227283362,"46":-0.32286495977582413,"47":-0.24494909001592385,"48":0.016615587254695106,"49":0.19382326271703923,"50":0.04940535449839261,"51":-0.2581185437292056,"52":0.04982614302845499,"53":-0.2413665482148988,"54":-0.09239867336808236,"55":-0.1592910302811863,"56":0.24683465451745054,"57":0.0444025089560951,"58":0.01813319075774588,"59":-0.11826372169371331,"60":0.21776950307243387,"61":0.10013676358365053,"62":0.03289845147270633,"63":0.023532804225078557,"64":-0.14403013782089097,"65":0.11254518307895918,"66":0.3007802153264167,"67":0.25765382625984423,"68":0.03885718274614259,"69":0.24321946433796018,"70":0.06539200930744833,"71":0.09048300541858327,"72":-0.050560262585105695,"73":-0.12232113632025733,"74":0.04443423374093235,"75":-0.07626585609648864,"76":-0.06671382752678105,"77":-0.1315697953312544,"78":-0.06281729288735002,"79":0.10935537905445393,"80":0.13990625973942006,"81":0.07971425716007505,"82":-0.024819586317252187,"83":0.16417439111339854,"84":0.06545950501860691,"85":0.24399713600265563,"86":-0.20245630362102968,"87":0.166411943808226,"88":0.2994007207500565,"89":0.18496055886181179,"90":0.11899192997744137,"91":0.05317266850356404,"92":-0.11387451465048395,"93":0.37168093717386635,"94":0.10559785770472782,"95":0.03437392878841948,"96":-0.27681171775042357,"97":-0.15907889806043723,"98":-0.016663858812476402,"99":-0.0911534228664161,"100":0.055341012932917155,"101":-0.028593454657563234,"102":-0.08385171091025165,"103":-0.1771439272868345,"104":0.1588188421009688,"105":0.13045360014675034,"106":-0.14231170650030278,"107":0.039115892420054074,"108":-0.009695952954274983,"109":0.17744802941354965,"110":-0.11130038161657296,"111":0.14790892303174813,"112":-0.12211604654660173,"113":0.20133434900457195,"114":-0.05456366629608909,"115":0.035454986337341184,"116":-0.07171751421820878,"117":0.2043906205921097,"118":-0.022335702690325525,"119":0.11622414042053067,"120":0.05297399206896537,"121":-0.13206273202903432,"122":-0.03496735410270333,"123":0.051492382405512814,"124":0.0425805394121138,"125":0.056390472385739215,"126":-0.25554760622548217,"127":-0.3008690689231467,"128":0.01189140325812089,"129":-0.25721450958242803,"130":-0.12573933077688396,"131":-0.1076939710897329,"132":-0.007790111255858707,"133":0.19895091363682377,"134":-0.039146817779100195,"135":0.03914612880185155,"136":0.02284657953831028,"137":-0.2057708986330982,"138":-0.17594403698628533,"139":0.03148224618153536,"140":0.0413834973430858,"141":-0.1978126017446542,"142":-0.12144631936291642,"143":-0.03566419650062905,"144":0.13449735808719301,"145":-0.03974076460048653,"146":0.09848664647247118,"147":-0.1540203645162952,"148":-0.10809018569420116,"149":0.0043064160701794625,"150":0.02635145077700114,"151":-0.07839588683199727,"152":-0.13515899917963545,"153":0.1518658932146562,"154":-0.0726499347836262,"155":0.09022214399381451,"156":0.2536400637631415,"157":0.2619028417633956,"158":0.051894761534076704,"159":0.28127816285374385,"160":0.1422267354758387,"161":-0.25522006320603535,"162":0.07865478141289539,"163":-0.11810281008171888,"164":-0.0001603763794883868,"165":0.11238071728728426,"166":-0.15897668113990157,"167":0.11340077126495164,"168":0.010466169497396703,"169":-0.0902484806241011,"170":0.1273000374070963,"171":0.0967090976849536,"172":-0.08200927087567517,"173":-0.09318802823926621,"174":0.12753047268690146,"175":0.12132693128156904,"176":0.17744999325517416,"177":-0.19895820833738775,"178":0.03496214454454707,"179":0.10413630846625978,"180":0.04576198193705623,"181":0.28937438346019806,"182":0.17499079934244366,"183":0.054260094313482825,"184":-0.07294610969397691,"185":-0.06873273616032537,"186":-0.04954323303686716,"187":-0.13542271971429642,"188":-0.18633681566894894,"189":-0.15928543731552805,"190":-0.21174742918114062,"191":-0.15638208541002688,"192":-0.008359682719187859,"193":0.02160832046842202,"194":0.11907899421634775,"195":0.21763436170998987,"196":-0.10825247206405954,"197":0.01074838411345632,"198":0.1407980494219985,"199":-0.012364516201813324,"200":0.07044237550384388,"201":-0.1264335520419514,"202":0.1698766399315451,"203":-0.108855357007131,"204":0.17548956123014056,"205":-0.07162419194519008,"206":0.05221688574577535,"207":-0.1952914127851972,"208":0.08514744826053777,"209":0.03275597512488705,"210":0.17982185972976963,"211":-0.19931658117931841,"212":0.03649594152963411,"213":0.1278617776094,"214":0.15348818548530963,"215":-0.23001106461385212,"216":0.0985118992709765,"217":-0.06398933659850796,"218":0.01784311334480162,"219":0.022063874426032203,"220":0.039828191449723924,"221":0.1773501211024079,"222":0.24971564172581073,"223":-0.07847758401392346,"224":-0.0517583254245283,"225":0.010911176382835631,"226":0.1534201243032077,"227":0.008004698382611674,"228":-0.05837624809058602,"229":-0.3092231624252573,"230":-0.33814354357249127,"231":-0.2697446378438906,"232":-0.22842151835947216,"233":-0.016335337649254805,"234":0.20913926599312732,"235":0.033960831596100166,"236":0.015528555484797243,"237":0.05341072591928703,"238":0.03447114540431716,"239":-0.10156356830860022,"240":-0.05785518215708742,"241":0.219972159404047,"242":-0.15443861755589577,"243":0.16155636299866152,"244":0.2385427517477833,"245":-0.053955091840291194,"246":0.18607226444733524,"247":0.09944378548980555,"248":-0.0852498493311804,"249":-0.08589499983063227,"250":0.07513631452766728,"251":-0.04083231168830523,"252":-0.04562122995406069,"253":-0.07918330744823553,"254":-0.02715096393833136,"255":-0.22408882545352363,"256":-0.09171176537492293,"257":0.09104572522412832,"258":-0.08656656270026593,"259":0.12899899732673828,"260":0.02629968734428643,"261":0.22583770072858206,"262":-0.004031153794616959,"263":0.04971936924437005,"264":-0.09384170884625984,"265":-0.019953280253900883,"266":-0.13256513048035154,"267":-0.12662651000687067,"268":0.013028837008047148,"269":0.10812759924008779,"270":0.0014367550525530787,"271":0.19447664512492327,"272":0.1296793925687701,"273":-0.1576791381681651,"274":-0.16048504957652276,"275":0.08585794091368865,"276":0.10036933923295284,"277":0.11224738188598994,"278":-0.03868920882966507,"279":-0.22475988744327988,"280":-0.10600944580584291,"281":-0.0568618592495636,"282":0.11667783369039961,"283":0.07347842102503838,"284":0.008777459521305972,"285":-0.07387828546192947,"286":-0.22657804690582978,"287":-0.03813263289189779,"288":-0.1552373200001688,"289":-0.12973743789673303,"290":0.1608364808271962,"291":0.15384587406588726,"292":-0.03754569453485174,"293":0.18423863518926029,"294":0.1603109008906298,"295":0.3072797381325016,"296":0.4157774385846041,"297":0.21218653884516828,"298":0.07279356159494894,"299":-0.08515516134974822,"300":0.3304671364208712,"301":0.13616999279760533,"302":0.025214889959135966,"303":0.13484396781008637,"304":0.15751977813961796,"305":-0.08680437078087642,"306":0.03670652311440421,"307":-0.1376372717951514,"308":-0.13991023147715392,"309":-0.19862350516364685,"310":-0.01680487981064551,"311":0.24956157378989371,"312":0.1494209667930126,"313":0.1433764945209905,"314":0.041520287932784124,"315":0.16359315276547798,"316":0.19022645184990594,"317":-0.06142151078186048,"318":-0.09196613967439621,"319":0.10221571679215175,"320":0.40310646271367484,"321":0.37932988428536585,"322":0.1611801468107009,"323":0.16903307034268733,"324":0.22465153985868758,"325":0.1353683808377947,"326":0.35484001516872743,"327":0.3117184522099703,"328":0.0010774689890127916,"329":0.25542309202985275,"330":-0.11008804585013193,"331":-0.07707928430770011,"332":0.06638118224157186,"333":0.16768010577756765,"334":-0.02357545710596219,"335":-0.10167343704604147,"336":-0.04187506768410469,"337":0.15773009362319315,"338":-0.10568918223591142,"339":-0.016592197920826748,"340":0.2951596491936993,"341":0.03696222168743189,"342":0.11423238702239628,"343":0.04044909628978739,"344":0.25282832441515873,"345":0.14928228167367563,"346":0.32588043918238757,"347":0.2996229059867401,"348":0.18530644926779574,"349":0.18393137281431177,"350":0.44094421235076414,"351":0.009905611314534588,"352":0.3140135535633869,"353":0.07712340358825372,"354":0.08085241004782395,"355":0.09082022427305793,"356":-0.10458065303218349,"357":-0.09517293234512464,"358":-0.031210834623263146,"359":-0.20756602795958815,"360":0.06739170369972473,"361":0.20626106556621487,"362":-0.017186450348267383,"363":0.12619587243279168,"364":0.226249816502133,"365":-0.13718244111725755,"366":-0.07433519193498839,"367":0.24084308749807265,"368":0.2723298269692692,"369":0.23373704077542073,"370":0.25562161767813457,"371":0.2313258952591188,"372":-0.05129583233853557,"373":-0.04579255774452417,"374":0.1614416862107249,"375":0.09857177161115471,"376":-0.12430100584079495,"377":0.17703276109685018,"378":-0.023502622354841025,"379":-0.07753188213986219,"380":0.08623550702338093,"381":-0.03281341186818091,"382":0.19447604344424982,"383":0.20148109426225866,"384":-0.02329663348309166,"385":0.23339000626872142,"386":0.27882632029824655,"387":0.24052243079690622,"388":0.27703126084689356,"389":-0.09844169462931375,"390":0.1222084921507061,"391":0.18631252393679115,"392":-0.027384552114666862,"393":0.03135698607583774,"394":0.21489015732932346,"395":0.16128712044357102,"396":-0.09049761181028065,"397":-0.07557553363079153,"398":0.1381180199734106,"399":0.09719970409719587,"400":-0.31654852366129427,"401":-0.036648852012992096,"402":-0.17610956522527235,"403":-0.16460762454042102,"404":-0.26165500771752703,"405":0.15816486460257156,"406":0.05114887543424497,"407":0.18080398558792832,"408":0.09053686676427027,"409":0.06181213053797803,"410":0.13779532016115714,"411":0.026035679734855335,"412":0.07888920932361992,"413":-0.020324670180361815,"414":-0.07214404155766306,"415":-0.15344250854670902,"416":0.06480223226393561,"417":0.0011023894199032355,"418":0.09206819414291884,"419":0.14504946899284368,"420":-0.05812693287482498,"421":-0.17879045255676088,"422":-0.18061956334415097,"423":-0.18176372151590636,"424":-0.14690079738197726,"425":0.15287710433717977,"426":-0.09271500383258356,"427":-0.23040599530199735,"428":-0.14718988875648228,"429":0.12186405563465637,"430":0.11427080395778443,"431":0.10756832498883157,"432":-0.13358402445345194,"433":0.08151801084553424,"434":0.05306486294655814,"435":0.08558850476388113,"436":0.08733387946716532,"437":-0.0873822392490318,"438":0.020933041408302995,"439":-0.2057242371378796,"440":0.022768281276309168,"441":0.13843759381625476,"442":-0.005996448477547137,"443":0.08929619908864371,"444":-0.15962341103078628,"445":-0.11553291357728944,"446":-0.015502593748228597,"447":-0.19011776209913148,"448":-0.1547404760409647,"449":0.14974236279430236,"450":-0.17129962018718217,"451":-0.1370420878814155,"452":-0.21456096104946087,"453":0.13575866306029394,"454":0.27711750230949617,"455":0.1828782193736545,"456":0.09024369463867335,"457":0.12447158822514805,"458":0.1828775411298431,"459":0.10018494730290663,"460":-0.1440170755160201,"461":-0.26762356095335066,"462":-0.09884588247353074,"463":-0.259131587859597,"464":0.10099365303742441,"465":-0.11272050421671935,"466":0.18019582096046155,"467":-0.14691161527905935,"468":-0.17056485319060538,"469":-0.07426297622142138,"470":-0.0519932467005568,"471":0.05463646166646944,"472":-0.2164060555768686,"473":-0.07423128447994505,"474":-0.30645485154688845,"475":-0.00585072083976738,"476":-0.1067551359856913,"477":0.11230165998824777,"478":0.007768843971302715,"479":-0.0680285805437945,"480":0.12528204573081297,"481":-0.17222490049217815,"482":-0.01863149198534752,"483":-0.12268796186749603,"484":0.01954835093659266,"485":-0.16206706269373858,"486":0.041338137930303144,"487":0.027928649423828802,"488":0.15202534823418076,"489":-0.029079939318874818,"490":0.1383526507092433,"491":-0.19142899328397278,"492":-0.15409185586546112,"493":-0.07060720694616111,"494":-0.08141295328600359,"495":0.09548509329690882,"496":-0.11950378670674994,"497":-0.16438115348357257,"498":-0.05577545137804302,"499":0.00798511069966055,"500":0.08047419566137308,"501":-0.007882835826062194,"502":0.20765191391333743,"503":-0.15757197803166595,"504":-0.0013058824441661136,"505":-0.0967819435190984,"506":-0.2101379132288581,"507":-0.060515336121722614,"508":-0.26689894110622503,"509":-0.17373523664170082,"510":-0.030787947735282407,"511":-0.15666909212134403,"512":-0.06110281410810465,"513":0.056229959240731237,"514":0.11083271216911696,"515":0.01654388994548967,"516":-0.2892282053214026,"517":-0.21150684867652597,"518":-0.09721179529846251,"519":-0.05168189227928894,"520":-0.21092988225596818,"521":-0.25260166275708257,"522":-0.17221539238756686,"523":-0.031110284127683973,"524":-0.06869263494491389,"525":0.04213549864116358,"526":0.051312971308553466,"527":-0.1339313293880961,"528":0.19974645510424116,"529":-0.2664971856191983,"530":-0.09451537078209088,"531":-0.1331535900763989,"532":-0.18700254051970586,"533":-0.059380444609442064,"534":-0.08012410661958287,"535":0.23276423063264143,"536":0.034526347719141905,"537":-0.18687176414885653,"538":-0.21767981608982548,"539":-0.0032736959270967454,"540":-0.22600167604476007,"541":-0.21680766667553067,"542":-0.14189651227557815,"543":-0.08670840322151525,"544":-0.042532428067929444,"545":-0.21211349840395088,"546":-0.051227139932468406,"547":-0.0488417655689503,"548":-0.14566928033210363,"549":-0.22449577251280517,"550":-0.08483450758113927,"551":-0.27127255443709786,"552":-0.12767780383916305,"553":-0.11982298592121751,"554":-0.03739199066523354,"555":-0.14138327468268033,"556":-0.09780822533035283,"557":-0.07358887262524867,"558":0.1699535223876937,"559":0.2012114886900392,"560":-0.021105437173263457,"561":-0.07362810713120871,"562":-0.08309557221733238,"563":-0.023643912410090992,"564":-0.023221571306262796,"565":-0.21717544330696725,"566":0.08346867630597578,"567":-0.04801546505633107,"568":0.14155075202536363,"569":-0.1449313698075757,"570":0.040019023798578086,"571":0.1550524449626701,"572":-0.10214273548422886,"573":-0.22540057741095662,"574":0.07153807099770627,"575":-0.14303999576223816}},"5":{"bias":-0.2036819519760194,"weights":{"0":0.25719254034652095,"1":0.265534000570203,"2":0.022523701678806466,"3":0.13163698520017644,"4":0.20867998441956914,"5":0.23565960072133538,"6":0.009043793284362424,"7":0.11856436940096901,"8":-0.2595197601378452,"9":-0.3299401622063779,"10":-0.2546752008660467,"11":-0.010213326748916127,"12":0.033396275404622956,"13":0.14164210923243395,"14":0.046118939822558894,"15":-0.17045970448908465,"16":-0.20098444093705445,"17":-0.11010243417475767,"18":-0.27410770009713453,"19":-0.12544288298515166,"20":0.2931515400740952,"21":0.3207884361453874,"22":0.22105514843088467,"23":0.20178117479189248,"24":-0.07694769825822927,"25":-0.1689905176718653,"26":0.12922807406492134,"27":-0.1453367029020703,"28":-0.19182913951431385,"29":-0.07918198552147172,"30":-0.13960865653421167,"31":0.05899283389732287,"32":0.13147937540580795,"33":-0.04958130858421122,"34":-0.04736738747361506,"35":-0.20902326674704638,"36":0.1370524047204106,"37":0.13856071543892096,"38":-0.09701892253909977,"39":-0.1303361975439372,"40":0.07199862836404064,"41":-0.08038840247047117,"42":-0.2310798701424592,"43":0.14497390899532234,"44":-0.0031631325249025658,"45":0.07683764534207506,"46":-0.013936394073498573,"47":0.1833605623013004,"48":0.09351857982746646,"49":-0.05885977434167373,"50":-0.1278703078773295,"51":-0.17835732544327976,"52":0.0656663565177681,"53":-0.11238568526244386,"54":0.004011134114659757,"55":0.05744184411036663,"56":-0.07713964018772021,"57":-0.3252652677937025,"58":-0.015247534469825089,"59":-0.07254222518904913,"60":0.18722042470259273,"61":0.027475150128414567,"62":0.06818158231274449,"63":0.1957501233719885,"64":-0.0003270809009613983,"65":-0.03859149227841119,"66":0.05160399999808648,"67":-0.1315381803989815,"68":-0.07994218312694822,"69":0.22086821257912193,"70":0.058002263934360476,"71":-0.07482003425754485,"72":-0.057058571285633554,"73":-0.001022063011118734,"74":-0.24518516324818992,"75":-0.17231780953120895,"76":0.11014044683712435,"77":-0.10599751031933854,"78":-0.2613012379558998,"79":0.027637038608231353,"80":0.16738947728571588,"81":-0.18948220475739902,"82":-0.3807440402339947,"83":0.08946792807851699,"84":-0.062315811514548625,"85":-0.039624870383469804,"86":0.06251896407619986,"87":-0.1952901557510009,"88":-0.021958277421815563,"89":-0.1320559047914614,"90":0.1181569976444178,"91":0.09054271999901847,"92":0.0265380437753211,"93":-0.18485945421560945,"94":-0.14012597658413278,"95":-0.0633850388234696,"96":-0.1695529525253882,"97":0.04509485772381703,"98":-0.20717405306890202,"99":-0.08460442328311364,"100":-0.21069331285945558,"101":-0.14448450246635366,"102":-0.2166288837747195,"103":0.007238253809842195,"104":-0.10258897122288535,"105":0.04624658171683855,"106":-0.15894808569660068,"107":-0.33439642439967804,"108":-0.13257170058260273,"109":-0.18639728582914422,"110":0.05031733541117463,"111":0.06929037626898456,"112":0.0781457112772339,"113":0.1529025098830226,"114":-0.10535882666917307,"115":0.0008047067101518762,"116":-0.14679933837737252,"117":-0.18962249993336022,"118":-0.11208168069678698,"119":0.07977232132275267,"120":-0.02813094565627141,"121":-0.05437143386675447,"122":-0.22505305972202583,"123":-0.11235825653014009,"124":-0.1316044381548696,"125":0.03405120462972518,"126":-0.1438807492364418,"127":0.05400476541413083,"128":-0.012860084560162705,"129":-0.12453587146927918,"130":-0.07293740280891298,"131":0.2758437332699229,"132":0.05124394214447261,"133":0.09035991345802988,"134":0.12963056394107642,"135":0.1955979655408089,"136":-0.04591644158100898,"137":0.15647034047597086,"138":0.20755749503466384,"139":-0.19664297137667594,"140":-0.10638581656381184,"141":0.04664933653325868,"142":-0.1898664103058273,"143":-0.22550244214628812,"144":-0.1180774135743591,"145":0.11265930837006145,"146":-0.08896925417099755,"147":-0.18720767177155756,"148":-0.17499604424805798,"149":-0.09541092884409724,"150":-0.21983292097745075,"151":-0.22129016293343737,"152":-0.17264251591170932,"153":0.11416726639235962,"154":0.02821542698274814,"155":0.11235765903610351,"156":-0.09714963530412639,"157":0.24226596692376823,"158":0.055817965541303964,"159":0.00046069945286520797,"160":0.13359694598397756,"161":0.11576903986929332,"162":0.07703672631874951,"163":0.012852216730941057,"164":0.17970006538266217,"165":-0.02319418037525556,"166":0.02713415647243155,"167":0.06518979214301443,"168":-0.06401030056545172,"169":0.012044927003919514,"170":-0.15842656872973482,"171":0.1394970560542454,"172":-0.04261135427119551,"173":-0.11025085328858765,"174":0.1319096420412428,"175":-0.08095544610641518,"176":0.011184264506527429,"177":0.08848002521188841,"178":0.04605430058776257,"179":-0.0027728331896631118,"180":0.014500178539450532,"181":-0.09467622075447255,"182":0.018427507775721608,"183":-0.15884445631975572,"184":-0.20590590884378687,"185":-0.1553520937135883,"186":0.0754320922148175,"187":-0.011904784790548786,"188":-0.09372084736932497,"189":-0.11558547750265506,"190":-0.10480512591713982,"191":-0.2040128877173702,"192":0.15681431758411654,"193":0.0885894959852285,"194":-0.19970017645862667,"195":-0.19947162925178136,"196":-0.10559080665180687,"197":0.026436206643828376,"198":0.03411958006005303,"199":0.04559591326778561,"200":0.06828397076405865,"201":-0.08059290610416012,"202":-0.08652390894615213,"203":0.21194933609983072,"204":0.1730447399841599,"205":0.021840384990701945,"206":-0.08365706755884832,"207":0.1239534440849173,"208":-0.21114971607625244,"209":-0.15974555943586333,"210":-0.09529113900247192,"211":-0.17363727244206228,"212":-0.0031872542581440552,"213":-0.14627644470593143,"214":0.01983886969555333,"215":-0.1883304583768062,"216":0.171131072221292,"217":-0.14043819661481904,"218":-0.18424475995649858,"219":-0.12342243727542324,"220":0.056486934534372944,"221":-0.08759401510766872,"222":0.16249769695129468,"223":-0.11054055655431205,"224":0.10436475789329352,"225":0.10229347176476943,"226":-0.003686625826848016,"227":0.282649727355392,"228":0.12047811477948794,"229":0.0008513848052083492,"230":0.16134045866542715,"231":-0.11814176182179603,"232":0.05554063723516579,"233":-0.16838312492955992,"234":0.1382311401502238,"235":0.04494945822968028,"236":-0.017900239680990502,"237":-0.129354709641037,"238":-0.16831326731006974,"239":-0.11654273774074925,"240":-0.1684727553985012,"241":-0.04697155726323514,"242":0.06488650811643229,"243":0.22058528996495202,"244":0.12537633644584362,"245":-0.1317889153107787,"246":0.22216449859195525,"247":0.10368874758190512,"248":0.14790216930335523,"249":0.07263167004285641,"250":0.2208768563333285,"251":-0.0015229058700375084,"252":0.24899974764702473,"253":-0.0145156712306501,"254":-0.20897342942336886,"255":0.13529750677742197,"256":0.07552565511037161,"257":-0.12341629243994835,"258":0.09071868161801629,"259":0.07882590273065156,"260":-0.059022738054161,"261":-0.1785135072612859,"262":0.1316813892243651,"263":-0.051391113434889876,"264":0.14088318613886605,"265":-0.021694280790948737,"266":-0.10152997341237009,"267":0.1524539059082612,"268":0.0934678661975369,"269":0.04519170613637254,"270":-0.10876101521243986,"271":0.010131159237088213,"272":-0.0247240117454229,"273":0.22453170494769373,"274":0.1877277107025027,"275":-0.002704759742700652,"276":0.13310268423186178,"277":-0.06330847211652062,"278":-0.21553390274428572,"279":-0.19378347977987517,"280":0.126550504231537,"281":-0.021691770315671512,"282":-0.09069661481731513,"283":-0.26359512851420835,"284":0.11415882983114502,"285":-0.15198864576692564,"286":-0.20415766166777316,"287":0.019679030475505458,"288":-0.03722164669582102,"289":0.10120872483159589,"290":-0.008561136090070183,"291":0.19014584104218413,"292":0.06204853533685337,"293":-0.11635002657852983,"294":0.1793957869995795,"295":0.07956561695151833,"296":-0.10933481501389347,"297":0.03694439249841101,"298":0.21158657318221943,"299":0.12955907118738424,"300":0.1379110220280979,"301":-0.24659811368624643,"302":0.14460804940251307,"303":-0.11791294250298388,"304":-0.12253748708022316,"305":0.10822171838722341,"306":-0.0037730596585609237,"307":0.10094440059041258,"308":-0.14948479066483208,"309":-0.033873748198239254,"310":-0.15502612933381024,"311":-0.11323181479475954,"312":0.12536575126589183,"313":0.13958231825226575,"314":-0.13591416106714704,"315":0.11527174300829546,"316":0.2056368248125028,"317":0.04049150402966901,"318":0.06359877875612051,"319":-0.0032388890594281686,"320":0.1681193360719914,"321":-0.09097754703031528,"322":0.19796061188863337,"323":-0.1965881677171107,"324":-0.19297409157336887,"325":-0.1297065502936234,"326":-0.11706012250551606,"327":0.1027415423137824,"328":-0.25064558436663054,"329":-0.1348693833304601,"330":-0.1706975969792385,"331":0.11498962165592727,"332":-0.0227995838784857,"333":0.01337585756513818,"334":0.06171971008922606,"335":-0.048937314048988004,"336":-0.04366647566282536,"337":0.1782335642424846,"338":0.24108390902059196,"339":0.18442010674935141,"340":0.1420241720865348,"341":-0.15057916181412603,"342":-0.06492162912016185,"343":-0.08484654990414973,"344":-0.15652425329249384,"345":-0.11693509131905012,"346":-0.11308668254446559,"347":-0.07453290830857805,"348":0.1268395075609975,"349":-0.06414007474669235,"350":-0.05366478466317257,"351":0.07401494736196508,"352":-0.025365465087081426,"353":-0.015314619792327651,"354":-0.1471980143789125,"355":-0.03821893616611124,"356":0.007179528312663649,"357":-0.10547665760551732,"358":0.06331955564307941,"359":-0.12660195515662795,"360":0.10872930392270036,"361":-0.09039745068408701,"362":0.16026083627868065,"363":0.09899063418857042,"364":-0.06997951944120008,"365":-0.13196367814570015,"366":0.0023938397618578173,"367":-0.03635604025322724,"368":-0.15154562841724387,"369":-0.01600051437719967,"370":-0.10797538751325483,"371":0.08903939870468096,"372":0.22598508662441094,"373":0.024870942054689354,"374":0.14228450685333155,"375":-0.20437206265590957,"376":-0.2163574585441875,"377":-0.07833050587017124,"378":0.11518275156840836,"379":-0.01656221650840584,"380":-0.18088767085716626,"381":-0.12884580993291053,"382":-0.14734828210422724,"383":0.18772269594403262,"384":0.09189502993551875,"385":0.009626940298531535,"386":0.2149985981695013,"387":0.16191878843750643,"388":0.019898029088046845,"389":-0.1416324333090917,"390":-0.10553818078655805,"391":0.10728483735876734,"392":0.18910699758138766,"393":0.21298718580344,"394":0.019484715463537253,"395":0.05932908103482268,"396":0.322827999047076,"397":0.10699106023637714,"398":-0.006350163880566397,"399":-0.05682491898700478,"400":0.054018827911922945,"401":0.1302391771339975,"402":-0.1786855206415556,"403":-0.11682226702479595,"404":-0.055372288491397206,"405":0.10026104809639717,"406":0.15385784209809086,"407":-0.06004430648257565,"408":-0.04460189629179659,"409":0.18900743882846163,"410":0.010563773162755833,"411":0.056819001686675856,"412":0.0792748989964208,"413":-0.036723179306382116,"414":0.16804373173392723,"415":-0.14254363404119516,"416":0.07362219059064716,"417":-0.16233548070769446,"418":0.26782223413719203,"419":0.02990998048127922,"420":0.019264985209503562,"421":0.3089341773744906,"422":0.04855061387730686,"423":0.14389892885480057,"424":-0.012679710850803091,"425":0.004930353273791157,"426":0.1300194577427984,"427":0.03361631452819929,"428":0.14113963901183152,"429":0.23421781382783738,"430":0.11877329929680545,"431":0.018061158458047788,"432":-0.17976301567411654,"433":0.17469716079155065,"434":-0.15519012433679655,"435":-0.03536564087620619,"436":-0.029336768580229183,"437":0.07501475962929399,"438":0.031347925209432304,"439":-0.033983512580110425,"440":-0.08348524358171507,"441":-0.10551049272723849,"442":-0.06007903439450234,"443":0.05491517045215424,"444":-0.04410258723149404,"445":0.06924451515960406,"446":-0.051812608110845995,"447":0.0312678709273363,"448":0.1450363243930735,"449":0.008891588507269486,"450":0.043094029591849166,"451":0.0016791886542997761,"452":0.09753733777602099,"453":-0.03299835225436456,"454":0.06371220849706935,"455":0.1986527550122807,"456":-0.0758966766749676,"457":0.06473786568921262,"458":0.09892793052313487,"459":0.0720998883707869,"460":0.07295066033529547,"461":-0.14376728607610814,"462":-0.12727925572735438,"463":-0.3195623221354191,"464":0.09291282822828371,"465":0.07268312023420608,"466":-0.026164615922864135,"467":0.15815796571123727,"468":0.11440647190683544,"469":0.14969586382955163,"470":0.013659343427002056,"471":-0.19585044223101244,"472":0.23494451679887518,"473":-0.13312135330007543,"474":0.1638298239021209,"475":-0.17591716552980577,"476":0.19327397685608072,"477":0.04470223672679091,"478":-0.021345108982078493,"479":-0.22689097492691235,"480":-0.08762798854860017,"481":-0.21301874988286768,"482":-0.042138571730812625,"483":-0.14644745503512518,"484":0.0975997882283923,"485":0.14682693303422906,"486":-0.12211720479418398,"487":0.08211619039278695,"488":-0.20012012655442696,"489":-0.177845540516769,"490":0.11677169078981045,"491":-0.032965664839520105,"492":0.12795536228041315,"493":0.10459594733619054,"494":-0.13609221371618654,"495":-0.11403645172550106,"496":0.08307859973134611,"497":-0.08693295335807502,"498":0.1747280070750797,"499":0.09122433745321211,"500":0.034540196592254775,"501":-0.12454451725870759,"502":-0.08334928961517335,"503":0.1034624267924946,"504":-0.07964163015144901,"505":-0.13308952796465764,"506":-0.04936478407920771,"507":0.09590901687984225,"508":-0.06572342980833676,"509":-0.23857718613382306,"510":0.08740474014719232,"511":0.007215932432279319,"512":-0.15031182271763024,"513":-0.008181095800346466,"514":-0.014066658651401569,"515":0.028562786413363916,"516":-0.016023063252373456,"517":0.008370032923497705,"518":0.048699352935487994,"519":-0.16590756235932172,"520":-0.16509218181306795,"521":0.1655021987221571,"522":0.14727838222631728,"523":0.016797577964525388,"524":0.12361121885559023,"525":-0.038606222933028636,"526":-0.26221300300416894,"527":0.01815523852440122,"528":0.07016550372137917,"529":-0.16171739403157825,"530":0.09702540765413911,"531":-0.04317030149292616,"532":0.07231504829459362,"533":0.025474806171260574,"534":-0.17323968907156628,"535":-0.16272725682052502,"536":-0.1476257768790126,"537":-0.14704145664660034,"538":0.015804218536677458,"539":0.15257386837241008,"540":-0.17710971019512553,"541":0.1285296246316138,"542":0.1807730040919568,"543":-0.012306986017524196,"544":0.07872793531589913,"545":0.0885297065783463,"546":-0.05041401151587534,"547":0.23462658744322454,"548":0.06070526504375639,"549":0.14772781901053217,"550":-0.16840645451130576,"551":-0.04950835645641219,"552":0.19351650089361624,"553":-0.17070516778077668,"554":0.0128520578215301,"555":0.061851164200703496,"556":0.005302865050525435,"557":-0.10941631318931977,"558":-0.0017515652088249626,"559":-0.21138211532311607,"560":-0.07447418314369848,"561":0.1626368583186105,"562":-0.14514405441600947,"563":-0.06141728525629631,"564":-0.1917052671534857,"565":0.12221885680311928,"566":-0.11628292952538216,"567":0.11582341430595686,"568":0.1699660057245119,"569":-0.01356910483560853,"570":-0.04509678566394508,"571":-0.1625573892215621,"572":-0.08741125879775247,"573":-0.07590767018969297,"574":-0.17545277263699718,"575":-0.14208988202025244}},"6":{"bias":-0.07039140325895449,"weights":{"0":-0.1192074653172659,"1":0.043024015334208014,"2":0.035737131814946296,"3":-0.2753538146217852,"4":0.08462546048340248,"5":-0.15204342141173594,"6":-0.1918550367536942,"7":-0.22829222777762959,"8":-0.06206470221245584,"9":-0.07701878769435351,"10":0.20602449629578648,"11":0.2846707818664267,"12":-0.07514528341306381,"13":0.15068961083113455,"14":0.010920585947026301,"15":0.19765653427282195,"16":0.08966475445940762,"17":0.1463649215600562,"18":-0.08384570771378579,"19":0.12722639927374105,"20":0.049180854732680516,"21":-0.10488504687738665,"22":-0.18988271521613445,"23":0.10668348724583669,"24":-0.07902777365389853,"25":0.06472978921527553,"26":-0.1362795836467993,"27":-0.272144242217628,"28":-0.28664911397169096,"29":0.08321679993835361,"30":-0.05663292059256769,"31":0.036237284045298794,"32":0.039188893725150484,"33":0.06888641789158606,"34":0.0643286401189581,"35":0.037392518726142236,"36":0.22551892229044201,"37":0.31140998485652105,"38":0.24522853757267327,"39":0.14264232265302682,"40":0.18445928592914076,"41":0.08317361291000326,"42":0.13440962001051054,"43":0.3431669145948186,"44":0.3034385218632641,"45":0.008591082633027252,"46":-0.20391186013507875,"47":0.1097330082084709,"48":-0.02992990685648354,"49":0.02387421041224444,"50":-0.09515108800333215,"51":0.007572206060695054,"52":-0.19403791267428647,"53":-0.16628623923547833,"54":0.18932655577921456,"55":-0.16152082976378507,"56":-0.00889335876464419,"57":0.03964114687535991,"58":-0.029779381709325498,"59":0.28468671744546675,"60":0.060978709086901596,"61":-0.10813564494247081,"62":-0.03873521721076343,"63":0.05973775706353373,"64":0.04200730437327719,"65":-0.09214183928066647,"66":0.15713830026526268,"67":0.35136342084467825,"68":0.296130038297778,"69":-0.004587730910885165,"70":0.044196485654670416,"71":0.11689530202181032,"72":-0.029888556806300533,"73":-0.2443125923844323,"74":-0.09406645028235526,"75":-0.3390705413118205,"76":-0.2719725352126632,"77":-0.1467159124289541,"78":0.10567892642798905,"79":0.05196754933092101,"80":0.046806246141967434,"81":0.033130795798036766,"82":-0.23294063359476325,"83":0.08621769269815338,"84":0.016480397065595658,"85":0.03386314787959232,"86":0.025784726412753953,"87":-0.009176085178289056,"88":0.16892497896705916,"89":0.04857452995607599,"90":0.33771039561740956,"91":-0.06088888772354647,"92":-0.06646636986307054,"93":0.18641362406381734,"94":-0.043131573297915844,"95":-0.028224563807852508,"96":-0.12089626381379182,"97":-0.27534760114943535,"98":0.11351298939309132,"99":0.0022585502990016986,"100":0.019947570818874095,"101":0.10583255851114014,"102":-0.06473826783322381,"103":0.12963213392293657,"104":0.08754861594029957,"105":0.02023986327902578,"106":-0.008448753370473343,"107":0.014200705636727253,"108":-0.09809133141528334,"109":0.11479188075591724,"110":0.0861835584626778,"111":0.031742821769701814,"112":0.005119696865807605,"113":0.2465604245868653,"114":0.05960544452094483,"115":0.0837531282388143,"116":-0.002273790789235224,"117":0.018229948644724377,"118":-0.03160892618610737,"119":0.022913015064383372,"120":0.12757789964821678,"121":-0.2321359098051428,"122":0.18052952729972194,"123":0.053925535889655485,"124":-0.10331271501016857,"125":-0.15562413497829342,"126":0.05951430059932298,"127":-0.0491933072102973,"128":0.01852155519226831,"129":0.16861904976487652,"130":-0.2600120234476113,"131":-0.11535920897604898,"132":-0.25810103147836827,"133":-0.20302723965249736,"134":-0.0941840081234161,"135":0.14369903017345256,"136":-0.13745226429729257,"137":-0.1683346828797749,"138":0.11805222451163748,"139":0.08252787030327352,"140":-0.056436434546856595,"141":-0.14731506930822935,"142":0.15160426510153197,"143":0.10814021786335429,"144":-0.10158008177413319,"145":0.047549863614884606,