{"layers":[{"0":{},"1":{},"2":{},"3":{},"4":{},"5":{},"6":{},"7":{},"8":{},"9":{},"10":{},"11":{},"12":{},"13":{},"14":{},"15":{},"16":{},"17":{},"18":{},"19":{},"20":{},"21":{},"22":{},"23":{},"24":{},"25":{},"26":{},"27":{},"28":{},"29":{},"30":{},"31":{},"32":{},"33":{},"34":{},"35":{},"36":{},"37":{},"38":{},"39":{},"40":{},"41":{},"42":{},"43":{},"44":{},"45":{},"46":{},"47":{},"48":{},"49":{},"50":{},"51":{},"52":{},"53":{},"54":{},"55":{},"56":{},"57":{},"58":{},"59":{},"60":{},"61":{},"62":{},"63":{},"64":{},"65":{},"66":{},"67":{},"68":{},"69":{},"70":{},"71":{},"72":{},"73":{},"74":{},"75":{},"76":{},"77":{},"78":{},"79":{},"80":{},"81":{},"82":{},"83":{},"84":{},"85":{},"86":{},"87":{},"88":{},"89":{},"90":{},"91":{},"92":{},"93":{},"94":{},"95":{},"96":{},"97":{},"98":{},"99":{},"100":{},"101":{},"102":{},"103":{},"104":{},"105":{},"106":{},"107":{},"108":{},"109":{},"110":{},"111":{},"112":{},"113":{},"114":{},"115":{},"116":{},"117":{},"118":{},"119":{},"120":{},"121":{},"122":{},"123":{},"124":{},"125":{},"126":{},"127":{},"128":{},"129":{},"130":{},"131":{},"132":{},"133":{},"134":{},"135":{},"136":{},"137":{},"138":{},"139":{},"140":{},"141":{},"142":{},"143":{},"144":{},"145":{},"146":{},"147":{},"148":{},"149":{},"150":{},"151":{},"152":{},"153":{},"154":{},"155":{},"156":{},"157":{},"158":{},"159":{},"160":{},"161":{},"162":{},"163":{},"164":{},"165":{},"166":{},"167":{},"168":{},"169":{},"170":{},"171":{},"172":{},"173":{},"174":{},"175":{},"176":{},"177":{},"178":{},"179":{},"180":{},"181":{},"182":{},"183":{},"184":{},"185":{},"186":{},"187":{},"188":{},"189":{},"190":{},"191":{},"192":{},"193":{},"194":{},"195":{},"196":{},"197":{},"198":{},"199":{},"200":{},"201":{},"202":{},"203":{},"204":{},"205":{},"206":{},"207":{},"208":{},"209":{},"210":{},"211":{},"212":{},"213":{},"214":{},"215":{},"216":{},"217":{},"218":{},"219":{},"220":{},"221":{},"222":{},"223":{},"224":{},"225":{},"226":{},"227":{},"228":{},"229":{},"230":{},"231":{},"232":{},"233":{},"234":{},"235":{},"236":{},"237":{},"238":{},"239":{},"240":{},"241":{},"242":{},"243":{},"244":{},"245":{},"246":{},"247":{},"248":{},"249":{},"250":{},"251":{},"252":{},"253":{},"254":{},"255":{}},{"0":{"bias":-0.44613351875758867,"weights":{"0":-0.15741863273481763,"1":-0.07978056827421015,"2":0.18168694370999333,"3":0.043477262956961756,"4":-0.2648932199756452,"5":0.13275335325302345,"6":0.29893768184683117,"7":0.26044639964711547,"8":0.23839221204250716,"9":0.17896320796827928,"10":0.04058219936099006,"11":-0.02280866016384272,"12":-0.04249130851016665,"13":-0.1755118617702925,"14":0.09310397508497653,"15":0.22065804294176722,"16":-0.1460395024689883,"17":-0.30242191664359636,"18":-0.15382317339153312,"19":-0.1296650907796593,"20":0.32235465865168494,"21":0.15828803238610584,"22":0.12820907582549734,"23":-0.32829932219653524,"24":-0.26200708225168157,"25":0.3144369086090354,"26":0.2618388800587897,"27":-0.06253626783324834,"28":0.27100081842967066,"29":0.04038063841005631,"30":-0.15499775483592865,"31":0.06178689851716569,"32":-0.11976973846324802,"33":-0.3105170152810395,"34":0.03852695876534291,"35":-0.028490065530816868,"36":0.05448333974198412,"37":-0.062117425199191785,"38":-0.04759987002630072,"39":-0.08647650831098765,"40":0.09795699855987747,"41":-0.29213656462923443,"42":-0.39461011848388905,"43":-0.07623429705726383,"44":-0.20809531881683216,"45":-0.13792119495632008,"46":0.17761742285988816,"47":-0.21917798657661364,"48":-0.20019577509376046,"49":-0.3306164521962635,"50":-0.03389592563221495,"51":0.1999444721842586,"52":0.4360474403424385,"53":-0.04133405313427424,"54":-0.46757634463637204,"55":-0.03583919996232189,"56":-0.06935468552453763,"57":0.20416389849843178,"58":0.20586713631008632,"59":0.15482622134704094,"60":0.18020820176072472,"61":0.35044319306906246,"62":-0.007924003178045865,"63":0.17088913707644213,"64":-0.3455511547896007,"65":0.03831775208985015,"66":0.06112383473924687,"67":0.039627947948256394,"68":-0.18356763214427893,"69":-0.113363095821056,"70":-0.10291092174064595,"71":-0.13474832910510137,"72":-0.46457172313842093,"73":-0.2572382146788017,"74":-0.05664334272353384,"75":0.326713006378626,"76":-0.036172535018231956,"77":0.35753110026664,"78":-0.0013485842207407374,"79":-0.050994472907267684,"80":-0.12217629029140237,"81":0.03167835971744701,"82":0.10029848855290353,"83":0.3530156398616102,"84":0.03049743856259106,"85":-0.26022002519009285,"86":-0.034785945398296624,"87":-0.144815227617197,"88":-0.39205902730500386,"89":-0.07822846508412379,"90":0.21805779689499732,"91":-0.038884875467787065,"92":0.17549736616410075,"93":-0.1191709689810831,"94":0.21678195598779,"95":0.004160569396494084,"96":0.21281115622582228,"97":0.115145039090091,"98":-0.09444219660444446,"99":-0.39817389962610167,"100":0.15249361419714771,"101":-0.07889611721764186,"102":-0.2669893915185754,"103":0.055753168281822536,"104":-0.018692162573993913,"105":-0.1617586023754242,"106":-0.2505686043599558,"107":-0.11842385485220427,"108":0.017592569998858932,"109":-0.02907100446529588,"110":-0.04537735002326703,"111":0.2156201310057221,"112":-0.016172891796649384,"113":0.01196709431914309,"114":-0.0723956567567393,"115":-0.2111492532587766,"116":-0.2018193172555966,"117":-0.09830134951157483,"118":0.279811160626055,"119":0.4978079660453611,"120":0.1800361663830022,"121":-0.4249715655570757,"122":-0.10814329852103717,"123":0.03743792884362723,"124":0.283647304436157,"125":-0.0015793162245733056,"126":-0.02219442715146018,"127":0.057029827781008624,"128":0.06621083097497864,"129":-0.006402780490992281,"130":0.033571355386863205,"131":-0.37096865592919415,"132":-0.05232084153100208,"133":0.4596443577459863,"134":0.1685613379489485,"135":0.24799628560256,"136":0.4044029852973881,"137":0.020208502026672147,"138":-0.2735965652684303,"139":-0.506125389054441,"140":-0.08606716990425703,"141":0.2503533809520543,"142":0.5333408822099318,"143":0.2237257043078266,"144":0.6829323320714821,"145":-0.35362489788977297,"146":-0.12842409654006504,"147":-0.34702068556643395,"148":0.20084648586504844,"149":0.2859616596902509,"150":0.0048293608935185365,"151":0.19524140969100512,"152":0.34800415670907453,"153":-0.3029857273637387,"154":-0.43387808158990143,"155":-0.4506421643417152,"156":-0.03336609755001281,"157":0.33801304773801805,"158":0.40611241913677804,"159":0.19112713567112027,"160":-0.1752328518094684,"161":0.17325432861505546,"162":-0.4453094861858575,"163":-0.2895388931547877,"164":0.11972958748451717,"165":-0.04396863789734983,"166":-0.22222596603224185,"167":0.1195760596522868,"168":0.0041325322110944114,"169":-0.1210891901855623,"170":0.02894520052118576,"171":-0.12169045401637317,"172":-0.1635562620756575,"173":-0.036507860630491905,"174":0.09575665321555964,"175":0.23328986315007635,"176":-0.12901877257330047,"177":-0.06043970949063367,"178":-0.4209492131603343,"179":-0.32469202006479264,"180":-0.29196545708581206,"181":-0.055304116492914994,"182":0.0035423906116293412,"183":0.3092805569817785,"184":0.30205889750415166,"185":0.1481292558939744,"186":0.3604345483730368,"187":-0.037099952067367,"188":-0.04523653598791253,"189":0.12906369234403134,"190":0.20411820814426831,"191":0.23794355553501145,"192":0.22048259165707307,"193":0.05345666502240824,"194":-0.24099493416698503,"195":-0.42969242144009767,"196":-0.17296911160506706,"197":-0.08426880373549471,"198":0.03357067026074285,"199":0.008461854006306757,"200":0.4100698855296464,"201":0.4077029563685193,"202":0.13800013333510447,"203":-0.16348544119992597,"204":-0.08178712359324014,"205":-0.13237337776809013,"206":0.13648288726887106,"207":0.49164055077708285,"208":0.15496215593777493,"209":0.0764158272916079,"210":-0.051937709984300216,"211":-0.20157061678989405,"212":-0.1444277489366045,"213":-0.4292345280611954,"214":0.04765400871004091,"215":0.17698692756704185,"216":0.49028731652623897,"217":0.12858668949146532,"218":-0.14806057148483598,"219":-0.24197264661244203,"220":-0.17709386244126654,"221":0.2686880782659926,"222":-0.15496038925009029,"223":0.12792103928519416,"224":0.004704710519062687,"225":-0.27753808436771343,"226":0.07006595414070488,"227":-0.2604163977680623,"228":0.07735668987676926,"229":-0.2042515732107771,"230":-0.2262274827769209,"231":0.22498730666814196,"232":0.12228279140781811,"233":-0.1340160756618667,"234":-0.2150916260844994,"235":-0.16757374330602998,"236":-0.24786037678278158,"237":-0.15421281555450375,"238":0.16997474907132126,"239":-0.1461682303764956,"240":0.2701656378670466,"241":0.20469581077229815,"242":0.12679248954565164,"243":-0.26332951251671005,"244":0.5160550489705665,"245":0.2311538203497676,"246":0.0704690872123621,"247":-0.031144573660528824,"248":-0.023392217448368748,"249":-0.3418724226233306,"250":-0.0556101313224137,"251":-0.26858380919838865,"252":-0.03785056519440137,"253":0.11768401461661591,"254":0.2657334476694911,"255":-0.12750759030761663}},"1":{"bias":0.19270038676865955,"weights":{"0":0.09957407226481851,"1":-0.21375394116045507,"2":-0.4015841474866056,"3":0.17707180225977348,"4":0.10313447661413123,"5":0.37212301115974944,"6":0.2988935343995934,"7":-0.4525745492011844,"8":0.15001380531391942,"9":-0.33017790931787255,"10":-0.41262443152408024,"11":-0.002151275937357865,"12":0.39457558030715634,"13":0.5251136583969903,"14":0.14812953610216978,"15":0.42305902727673195,"16":-0.23520458721600926,"17":0.005299510626241753,"18":0.26154836759517924,"19":0.061507993197915965,"20":-0.3417726555147496,"21":-0.022176330037588905,"22":0.0587005356871749,"23":0.09704339936816772,"24":-0.4931331801103924,"25":-0.32002907530194513,"26":-0.6234215347334147,"27":-0.4504925151453658,"28":-0.4701989866148746,"29":-0.22424452432254122,"30":0.409220019294729,"31":0.43583875510893716,"32":-0.016233948168896988,"33":0.08430734040179652,"34":0.3560298911061431,"35":0.14126557616341764,"36":0.11797318696008964,"37":-0.06228900047532907,"38":0.5077710936931502,"39":0.16228156375790675,"40":0.21074309017814594,"41":-0.7343561396242091,"42":-0.42158223586784965,"43":-0.12055411672122598,"44":0.015196861224130734,"45":-0.44315747445024173,"46":-0.43007553506527607,"47":0.5888551871716996,"48":0.3990841758323081,"49":0.23860253800750747,"50":0.011413758804537886,"51":0.01982412373036602,"52":0.149342707947386,"53":0.32884681674268845,"54":0.17657771165397476,"55":-0.31961119735925625,"56":-0.18941853557261262,"57":0.16360546663362685,"58":-0.05996707026636215,"59":-0.05994564611571466,"60":0.20011849091000436,"61":-0.4082975200905174,"62":0.08446504735262896,"63":0.42937572142785896,"64":0.26752887554265037,"65":-0.3551435185088644,"66":-0.15876347163191895,"67":0.013710739035435213,"68":-0.11329093124993965,"69":-0.05340916474636431,"70":-0.12460492289044355,"71":0.25966701709854223,"72":0.06174722528601478,"73":-0.3997862532010964,"74":-0.10111727440483888,"75":-0.40578051278405947,"76":-0.041270993564102056,"77":-0.09773524390730369,"78":0.2802655129655301,"79":0.1137559651928068,"80":-0.022480188944177106,"81":-0.2548006063004889,"82":-0.30331645373865723,"83":-0.375759473909792,"84":-0.14298475293254365,"85":-0.2689071910096259,"86":-0.05133287435650975,"87":0.14357042100285697,"88":0.04614522674640355,"89":-0.009794330118251907,"90":-0.19993324971702814,"91":-0.008078570408977524,"92":-0.05080851864683213,"93":-0.17992700273773846,"94":0.19007234433996784,"95":-0.06448302342055903,"96":-0.32568856096202453,"97":-0.23994663093623733,"98":-0.3264990400352022,"99":-0.056588695475167546,"100":-0.07294959046627938,"101":-0.34462597315507504,"102":-0.8197842237424672,"103":0.021476160793205946,"104":-0.3027329221874941,"105":0.6543820867392381,"106":-0.08121639352019669,"107":0.36018251688950464,"108":0.4227726012829724,"109":0.10470543203035783,"110":0.4987905527862692,"111":0.09920543311101551,"112":-0.009757776207102222,"113":-0.24949002938465978,"114":-0.010277202154889432,"115":-0.41644001818711485,"116":-0.10630793172702906,"117":-0.34098927489424735,"118":-0.6731320204720285,"119":-0.749638458530431,"120":-0.46823521376046584,"121":-0.22199504017575472,"122":0.12489217803992021,"123":0.1615596552228561,"124":0.12003392944244295,"125":0.22754490121496765,"126":0.2726410592589253,"127":0.007031876396533806,"128":-0.022313989307161622,"129":-0.02125630315700527,"130":0.07032111180762528,"131":-0.10835502033364028,"132":-0.23685022744445988,"133":-0.07969927907721926,"134":-0.37342278113090965,"135":-0.7481239916253101,"136":-0.5154069213973783,"137":0.2967223517965699,"138":0.4254375193376897,"139":0.4127214289724126,"140":0.14470507356690815,"141":0.10007203723202557,"142":0.15399743273789734,"143":-0.1897727437837776,"144":-0.06621410347813907,"145":-0.12021358445936535,"146":0.1558473023360458,"147":0.29098479865979104,"148":-0.30948972625466925,"149":-0.6270691994770093,"150":-0.10021518789617809,"151":0.07153898775962009,"152":-0.17625140958825317,"153":0.4302990421265846,"154":0.21034451721146188,"155":0.08914674085464945,"156":-0.014741576849326705,"157":0.4157975376410037,"158":0.10084865522248768,"159":-0.09403864015330474,"160":-0.29920678821732294,"161":0.06925465567498791,"162":0.016223023959173605,"163":0.18729984744546718,"164":-0.17910990864831375,"165":-0.2023558741968578,"166":-0.2196296546932861,"167":0.2305791058980106,"168":0.2541773477043867,"169":-0.36380198418831833,"170":-0.37580950951302483,"171":-0.21317213516307465,"172":0.11397438723278491,"173":0.12901867863084984,"174":0.22533145300874033,"175":0.12543280235794818,"176":-0.050336895976045085,"177":-0.38552535682944666,"178":0.17550220750224563,"179":-0.27378639284553113,"180":-0.4453647852959781,"181":-0.4117885791561697,"182":-0.24517981007163162,"183":0.16121541562192848,"184":0.19737469154302809,"185":0.05715508479594665,"186":-0.01918962582991321,"187":-0.04731882244850174,"188":0.12831994400515595,"189":0.2177591520453717,"190":0.040062798693448434,"191":-0.3654591247683651,"192":0.20535334747471615,"193":-0.021978501663999398,"194":-0.00588901189369288,"195":-0.2315395677928607,"196":-0.3028673065363284,"197":-0.1786197292267707,"198":0.3290180697187784,"199":-0.05612658187427882,"200":-0.09588720754167772,"201":-0.34781221870658957,"202":0.17641914037159423,"203":-0.47489908930541647,"204":-0.2074845294930154,"205":0.42317643706307634,"206":0.05205704540500919,"207":-0.1761826504785469,"208":0.21562445926873028,"209":-0.03926679159238837,"210":-0.16673800498720961,"211":-0.2192018434565412,"212":0.1068273474241993,"213":0.10841945771405066,"214":0.03602870621933545,"215":0.07696720487663417,"216":-0.06820506617003044,"217":-0.06694382394585599,"218":-0.3616248127689101,"219":-0.26664654237410435,"220":-0.25478208415020553,"221":0.4265347671179421,"222":0.3868683389926854,"223":0.12660645699482131,"224":0.05372102823991011,"225":0.33338336735965646,"226":-0.17936132887546052,"227":0.5134075084988615,"228":-0.047912335055812126,"229":0.3834402070010719,"230":0.027132427413722227,"231":0.007199794640132612,"232":-0.05691418335406752,"233":0.3855330105207344,"234":0.1558260324831251,"235":0.11414393283011406,"236":0.02907499945257657,"237":-0.10627259184755372,"238":0.1701180267200875,"239":0.3613125362796133,"240":0.01778768360790443,"241":0.5408772504795863,"242":0.11466673819822124,"243":0.4718831941669948,"244":-0.08749771959562065,"245":-0.09932268489411278,"246":-0.12298347216519241,"247":0.04757574875181793,"248":0.3277255388738127,"249":-0.01742117298718266,"250":-0.01624112664644493,"251":-0.20559406917259576,"252":-0.052500591257427016,"253":-0.23367839809728794,"254":-0.18580718563113177,"255":0.8517711493300253}},"2":{"bias":-0.5364803658267697,"weights":{"0":-0.007693264443757226,"1":0.18655038352021125,"2":-0.0675506977367836,"3":0.06836032207180363,"4":-0.16159614679596077,"5":0.10373654930993498,"6":-0.047808313126132734,"7":0.059832713809893794,"8":0.2833870283977419,"9":0.13238265296268656,"10":-0.2332623991856972,"11":-0.6821418301489063,"12":-0.04480203077408157,"13":0.5184840295823715,"14":-0.07775944121875003,"15":0.6377031039623233,"16":-0.11358443304739109,"17":-0.2797591865476787,"18":0.36811456950238625,"19":-0.4281862930738783,"20":-0.5102601059191528,"21":-0.05973743383782843,"22":-0.0542473455248046,"23":0.47604316650196826,"24":0.34458619362211,"25":0.331717782327305,"26":0.538490216718704,"27":0.28277756165382856,"28":0.4990151076720939,"29":-0.2793907857751856,"30":-0.31743215592924884,"31":-0.31834560134960993,"32":-0.6258432439099488,"33":0.3165864374319045,"34":-0.13028174538554008,"35":0.09592954488637022,"36":-0.15591035449518517,"37":0.06669467359814824,"38":0.15391386021557585,"39":0.08354621153767314,"40":0.43718847927328375,"41":0.04458491808676932,"42":-0.6162972612949221,"43":-0.5796728742717445,"44":0.15601664515424365,"45":-0.2858431703078674,"46":-0.17021218339084324,"47":-0.07874870960020197,"48":0.5276419800670764,"49":0.6317245586807764,"50":-0.20615923342005024,"51":-0.005800594600937782,"52":0.2524205196545962,"53":0.35319308750966477,"54":0.6001039139832478,"55":0.14202736236062968,"56":-0.04590999770713397,"57":0.12743796154002465,"58":-0.07645377669106304,"59":-0.38185321439315373,"60":0.2918609426065617,"61":0.43398052929302955,"62":0.7169974139480879,"63":-0.039995744536366465,"64":0.5661168213714862,"65":0.19030668939446882,"66":-0.31523571681184803,"67":-0.326822249310757,"68":-0.0759460573144799,"69":-0.4072020014105703,"70":0.16869282524956536,"71":-0.03323817906441369,"72":-0.41508393054516995,"73":-0.47542962012452605,"74":-0.0927023241699863,"75":-0.9808792887511755,"76":-0.6179031315721387,"77":0.4352284626854986,"78":0.2686494995413136,"79":-0.5658538902243007,"80":0.15867879146029187,"81":0.1943714609663598,"82":0.08418087664144984,"83":-0.06982976476786862,"84":-0.24221369796349995,"85":-0.26269193469664903,"86":0.1758609816830038,"87":-0.10020732361229648,"88":-0.2833397031981837,"89":-0.43764848245453913,"90":-0.47400963985779954,"91":-0.5380271799503987,"92":-0.16387324218700508,"93":-0.07362388592539883,"94":0.40441168093736474,"95":-0.5116956788319185,"96":-0.07993730126021333,"97":-0.33556481534480825,"98":0.1443797156363295,"99":0.20567805584483745,"100":0.009493506450192856,"101":-0.2721414560037038,"102":-0.17862558931995381,"103":0.04609986110011516,"104":0.5403371089100723,"105":0.3503377778587211,"106":0.13823669582776318,"107":0.017960996449675214,"108":-0.49537495350933647,"109":-0.18921309651371393,"110":0.617546851440289,"111":-0.04129209557075195,"112":-0.2213693384420348,"113":-0.05650920850459519,"114":0.30779457912042435,"115":0.1695681465177595,"116":-0.1452900990979386,"117":-0.332865141959215,"118":-0.30939358642869114,"119":-0.24528891943205708,"120":-0.1948719335700942,"121":0.14794681496165346,"122":0.23679929844973707,"123":0.44334681319208097,"124":-0.0564945153865353,"125":-0.18957390529964127,"126":-0.16426679047344772,"127":0.22886317599640119,"128":-0.19847056094569696,"129":0.06447323470966829,"130":0.4000125906533217,"131":0.11514597483102386,"132":-0.41766220086080713,"133":-0.34806654872859855,"134":-0.37636266527418766,"135":-0.9487312805012721,"136":-0.2294706525768298,"137":0.23609093295841022,"138":0.05298968055486941,"139":0.1556513705079883,"140":0.18174466631894287,"141":-0.1307040759385396,"142":0.12709145124499444,"143":0.21565044292785454,"144":-0.2050383870555836,"145":-0.016787886552272212,"146":0.23062822704498379,"147":0.24493333391299874,"148":-0.36324659359411793,"149":-0.6081370195675972,"150":-0.49188515179749165,"151":-0.6031379072212106,"152":-0.008606834618255675,"153":-0.06853937929987401,"154":-0.07796283758187131,"155":-0.3668249033744366,"156":-0.7037212958023005,"157":-0.3849100178900743,"158":-0.3014014425375685,"159":0.0027522824100634975,"160":-0.18028907839538558,"161":0.24369664087991136,"162":0.2417013882846031,"163":0.3454700501944462,"164":-0.2022628485358008,"165":-0.3803990496839965,"166":-0.3960753699401278,"167":-0.0039710982027767955,"168":-0.1274161996954606,"169":-0.15092816479335638,"170":-0.28622666076070175,"171":-0.4261554080888842,"172":0.10302294746138609,"173":-0.02720279210236619,"174":-0.2177920644696742,"175":0.2451743374602271,"176":-0.601218635804271,"177":-0.04307501457650476,"178":0.23384752591107857,"179":-0.24379955589403546,"180":-0.3803330670483536,"181":-0.11003119642753553,"182":0.3853346613492298,"183":0.013143244405153789,"184":0.42720808417304196,"185":0.033474884010308736,"186":-0.10399930465341622,"187":-0.2415089063040673,"188":0.2157715834820551,"189":-0.4012883305978879,"190":-0.06799379899114973,"191":-0.0870973021518584,"192":0.3615442989572955,"193":0.16954045461585562,"194":0.25908034952495634,"195":0.08362566328209876,"196":-0.2623490939948387,"197":0.030246398602488594,"198":0.5095199503821748,"199":0.31598095770599616,"200":0.1653966002368298,"201":0.02633960412112489,"202":-0.1860496677240779,"203":-0.3051740212021997,"204":-0.3062605334147405,"205":0.23793407049985038,"206":0.0642097266122745,"207":-0.04523259378259637,"208":0.44222154674806824,"209":0.2496674302564545,"210":0.279269760634532,"211":-0.22522798563526272,"212":-0.04291864520487284,"213":0.14382739425025742,"214":0.4120398578909441,"215":-0.030377920674996298,"216":0.3013457384560369,"217":0.19065213777899348,"218":0.0433598027089348,"219":0.11839162203865153,"220":-0.121525418381239,"221":-0.026795029143055253,"222":0.20400795861899382,"223":0.5135660078816312,"224":-0.24602910921193982,"225":-0.10122909138734289,"226":0.8746098316064335,"227":0.240796877046045,"228":-0.16623425086826338,"229":-0.3643030285754971,"230":0.14142715143140117,"231":-0.41618070878251195,"232":0.06640899499532922,"233":-0.3098349676885103,"234":0.12255787187481369,"235":0.041559853077530996,"236":-0.2659670861473802,"237":0.03265446319170058,"238":0.1561908633091488,"239":0.6668663708305779,"240":0.4662792799121751,"241":0.3702517080916175,"242":0.7276720031517919,"243":0.6937093798169156,"244":-0.3866237385257839,"245":-0.4884612371316207,"246":-0.4837202233697181,"247":-0.17281961768264026,"248":-0.05043542977321648,"249":-0.04710284367748553,"250":-0.15807799310377943,"251":-0.4461981073041723,"252":-0.3284622575333474,"253":0.15897216918436402,"254":0.03966094521769867,"255":0.47217791817808624}},"3":{"bias":-0.6127171509513776,"weights":{"0":0.012285802765375225,"1":0.11612231757282161,"2":0.28914229950798226,"3":0.24641061009248705,"4":0.0853810114540496,"5":0.03631632854099289,"6":-0.1570320221236924,"7":-0.4925563768178056,"8":-0.017137182335255966,"9":0.35662006957281195,"10":0.5443446090414003,"11":0.04405072029830528,"12":-0.11037082614272174,"13":-0.12725370404489436,"14":0.029977242927776596,"15":0.2855658867202373,"16":-0.17370240871386164,"17":-0.33183896569678245,"18":0.19184853049864048,"19":0.04101375511296004,"20":0.291155614222273,"21":0.16833328472283607,"22":0.3039962418991359,"23":0.5566042405356326,"24":0.4101409355887153,"25":-0.2263517472425566,"26":-0.2199884344540352,"27":-0.07863582492959625,"28":0.3027027901540249,"29":0.24709533093298247,"30":-0.22837064838142113,"31":-0.21555107929209152,"32":-0.1829335498710209,"33":-0.5454411809012973,"34":-0.5218780353161332,"35":-0.014068606108785645,"36":-0.33878497863908363,"37":-0.3561213714267774,"38":0.2695415570666167,"39":0.20154827552729734,"40":0.021632322321806924,"41":-0.13929297570886087,"42":-0.31968141554628393,"43":-0.2597985814106443,"44":0.14568974736719217,"45":-0.10177559318592536,"46":-0.11100151161656513,"47":-0.06472178364861446,"48":0.12647797395282873,"49":0.10537793715460536,"50":0.008004738719100419,"51":0.10319257038713349,"52":-0.10904707877240169,"53":0.11464029540605451,"54":-0.19635615502530895,"55":-0.2762064974958856,"56":-0.2306309662411987,"57":0.15207922968665888,"58":0.08555343256414595,"59":0.07958841063380587,"60":-0.08644771014828871,"61":0.14919729402699766,"62":0.4659138348615823,"63":0.36617183690080846,"64":0.09352212779838757,"65":-0.11238601702851765,"66":0.2212537413419361,"67":0.05843176625300328,"68":-0.012440825161076884,"69":-0.018147883038596654,"70":0.16579180482264297,"71":-0.3708558649609448,"72":0.011773326301020398,"73":0.13591724139244413,"74":-0.1465668056611831,"75":-0.33069380927499575,"76":0.06842526756310484,"77":0.4972261426930731,"78":0.34417100277338186,"79":0.49309007686568423,"80":-0.20572433326536654,"81":-0.24442148935401534,"82":-0.17021298384156705,"83":-0.1386328951449313,"84":-0.12717002239283898,"85":0.12956448747425858,"86":0.3912392955866598,"87":0.5214212441667264,"88":-0.003695027183209354,"89":-0.34732116028388177,"90":-0.1561359698957495,"91":0.08877760774730585,"92":0.09727211656786418,"93":0.25551949180865713,"94":0.3115135764213799,"95":0.08004891990202093,"96":0.02989031431569985,"97":0.06068223356186144,"98":-0.2581237504815106,"99":-0.1416242865473847,"100":0.1736669421438848,"101":-0.11547266098377933,"102":-0.10372643146983013,"103":0.04559047776501989,"104":-0.29891449006247983,"105":-0.16754585429279942,"106":0.3846218458000932,"107":0.008281033176914677,"108":0.19474248885822734,"109":0.23425010907277635,"110":0.5539992269427999,"111":0.17529476371607852,"112":-0.13421639291959347,"113":-0.4965473251923109,"114":0.08632155805846314,"115":-0.1568582232777449,"116":-0.28420625211766515,"117":0.035354132118267705,"118":0.23127476866765273,"119":-0.029774029568597343,"120":0.2951445256333065,"121":0.0013735655798799474,"122":0.5080325561568843,"123":0.20114606925665163,"124":0.4261352751743399,"125":0.4361908509562826,"126":0.1781213092655698,"127":0.4428121030996731,"128":-0.24322724694418563,"129":-0.20791567446226533,"130":-0.14702509045997572,"131":0.12117336817220814,"132":0.1643824836282817,"133":-0.14088856642849154,"134":0.24603740821484432,"135":0.010307157217425846,"136":0.5384363680011603,"137":0.35729358424125035,"138":0.23053726518907763,"139":0.09222302542665238,"140":0.11032654186919424,"141":0.3241905529025068,"142":0.5659850727247443,"143":-0.012630507254771231,"144":0.03190555504510636,"145":-0.28315420082374154,"146":-0.0899023236881666,"147":0.16286710028358564,"148":-0.1262920871340285,"149":-0.19428192791128476,"150":0.11722693837879353,"151":0.15139967993265666,"152":0.32586019168244756,"153":-0.18555997170594032,"154":0.3984148678650693,"155":0.2660443936006821,"156":0.13031083957288464,"157":0.48473093060157946,"158":0.11468409658698014,"159":0.7475899829803402,"160":0.22767412502625997,"161":0.06370534732270208,"162":-0.37286820836048623,"163":-0.07783875090252464,"164":-0.19605107031756827,"165":-0.12940011498460632,"166":0.3373671416780544,"167":0.33440019619852784,"168":-0.3013073400535167,"169":-0.1731101366623641,"170":0.48048592377278526,"171":0.334265005393027,"172":-0.01647799055067678,"173":0.06212854430148036,"174":0.11313372223071953,"175":0.510803437871269,"176":0.2902223679225775,"177":0.06651687646963327,"178":-0.30852488339666984,"179":-0.2622287246331235,"180":-0.26273102215967675,"181":-0.24546189737646887,"182":0.010352513834895067,"183":0.03172868809322535,"184":-0.13421117071524294,"185":0.13603940817524174,"186":0.420791138006728,"187":-0.2637254761916332,"188":0.00037303098860172023,"189":0.2651375963329583,"190":0.3225817470314,"191":0.14066288474500654,"192":0.2579484241423834,"193":0.06647837028235358,"194":-0.09810427257916665,"195":-0.07257799190796232,"196":-0.19880651123709184,"197":-0.30179611668597206,"198":0.10976551288205909,"199":0.16912378844235165,"200":0.05971824186615619,"201":0.24198581468731967,"202":0.07748730743172756,"203":-0.46319305093810675,"204":-0.2215248613424459,"205":0.2915975086352188,"206":0.4349229452437196,"207":-0.02574613663293363,"208":0.3415889582996115,"209":-0.2237488819181389,"210":0.23138539916611064,"211":-0.2811096938295846,"212":-0.2773531368215831,"213":-0.06289466924906514,"214":-0.13468270692861475,"215":-0.09188775089376965,"216":-0.2996228686701548,"217":-0.4419602447333841,"218":0.08988233056612611,"219":-0.221435674412381,"220":0.12046083296477267,"221":0.180638169036487,"222":0.5348732880589061,"223":0.1462992910591599,"224":0.13003589318357212,"225":0.3961190542966708,"226":0.233353902210536,"227":0.4072066430560185,"228":-0.37065481340871015,"229":-0.3620647877469036,"230":-0.1431836591697493,"231":-0.5863519834524863,"232":-0.2344898809112266,"233":0.012309740112585201,"234":-0.09101072754312726,"235":-0.1423476756018032,"236":-0.07298465540627125,"237":0.02907822096901765,"238":0.7027724323327272,"239":0.3280043051168185,"240":0.29405430375293445,"241":0.13324520223977832,"242":0.17370797646045708,"243":0.6832071673480292,"244":0.27512985656139477,"245":0.002376389493908442,"246":-0.6247355151408274,"247":-0.26964911410441017,"248":0.1248473150767056,"249":0.11339575669800182,"250":0.05525743679441568,"251":0.140300903824617,"252":-0.26644557864459223,"253":0.3706240680947139,"254":0.4381006384504693,"255":0.3042789471258966}},"4":{"bias":-0.3852654588042941,"weights":{"0":-0.035572574219611845,"1":-0.15598212589714333,"2":0.0849463346425096,"3":0.07217838442809638,"4":-0.21343554388101085,"5":0.5707707060922821,"6":0.22348287497111718,"7":0.36525323606496835,"8":0.16034716182084535,"9":0.37413378036428574,"10":0.03515849041010991,"11":-0.09876476691394538,"12":0.15514974570290233,"13":0.29159952490407054,"14":-0.10374134177315682,"15":-0.14774982808601278,"16":-0.10033241940924006,"17":-0.5086359536457504,"18":-0.11306100514504237,"19":-0.14168862943936006,"20":-0.35111106418139115,"21":0.14113460331229172,"22":0.3897069711298327,"23":0.37888648854361484,"24":0.030832404767213988,"25":0.2948768063254921,"26":-0.03129169853429542,"27":-0.5684827660192039,"28":-0.36139719162125633,"29":0.2163764091143569,"30":0.6374776800927987,"31":-0.08930080130484336,"32":-0.5731301187664883,"33":-0.5204689246808075,"34":0.10678847304171482,"35":0.20407474681076465,"36":0.33732752772894753,"37":0.026903113085855156,"38":0.35987013003446855,"39":0.5021034928789833,"40":0.6576036319390304,"41":-0.10517860826376954,"42":0.043136124156672485,"43":-0.4273769299811055,"44":-0.1687631396842778,"45":-0.32078484597680607,"46":-0.21806619701026467,"47":-0.20206459706726349,"48":-0.1752953925619964,"49":0.06286219825411803,"50":-0.21613227872570065,"51":0.5580758335305659,"52":0.3358528204918252,"53":0.13250086056082033,"54":0.5123786679285061,"55":-0.14429625751843264,"56":0.29225819484544124,"57":0.2658584822729815,"58":0.4993116766602826,"59":0.10569500844291914,"60":0.3617048944444344,"61":-0.17460109496055215,"62":-0.4442164136016794,"63":0.28788491811572464,"64":0.5467084436434654,"65":0.23455901052424413,"66":0.07029384319744632,"67":0.2894254930044936,"68":0.04361189178649922,"69":-0.012289116746815432,"70":-0.19782622790201218,"71":0.1353374249689026,"72":0.12161128901165968,"73":0.07786241615868676,"74":-0.023128394726713783,"75":0.10894774640719125,"76":0.08667297636629837,"77":0.20867168046036288,"78":0.29045166211822465,"79":0.018534958134402264,"80":-0.07270784516278424,"81":-0.037370502356306734,"82":0.013730876438702208,"83":-0.014014816087259779,"84":-0.02248553238615447,"85":-0.321331002854544,"86":0.06698668519237544,"87":0.3143935588717154,"88":0.09954279834269912,"89":0.06545723669892091,"90":-0.1553208414053967,"91":-0.041820930983699836,"92":0.21658373127282313,"93":0.20761206969193177,"94":0.4679343290790597,"95":0.5105049125066118,"96":-0.04908658901824755,"97":0.08317400334142953,"98":0.025703544555051142,"99":0.2193220016916348,"100":0.14165161635526852,"101":-0.011805516127068122,"102":-0.4161717768565104,"103":-0.140958752708717,"104":-0.4795858612480018,"105":-0.3349222412125033,"106":-0.581979288881369,"107":0.016770016090550434,"108":-0.1926224340698134,"109":0.07064455509846727,"110":0.3607410139269876,"111":0.6106825105481382,"112":-0.343613515672433,"113":-0.1935840626105241,"114":0.3886231017669771,"115":0.22074155382864233,"116":-0.08043887984668707,"117":-0.17276905672552878,"118":-0.3726837621160997,"119":-0.7002057338640421,"120":-0.5406787412994017,"121":-0.34646422843787944,"122":-0.7497277353395148,"123":-0.4491290930809781,"124":0.0066727476183469124,"125":0.2748365784504216,"126":0.58976219836542,"127":0.21814772899793952,"128":0.05330061705085633,"129":0.049232932027450146,"130":0.25498641019207996,"131":0.03621443065801669,"132":-0.09753595788060515,"133":0.022920277425499746,"134":0.15903714684028195,"135":-0.09357808095868463,"136":-0.16277973378286592,"137":-0.05318737399121428,"138":-0.5253430677873643,"139":-0.15667017482431347,"140":-0.04605451740076019,"141":-0.01508469946401928,"142":0.2559150422357237,"143":-0.03231537538408053,"144":0.07878920124378734,"145":-0.0864463260475695,"146":0.01963064640455617,"147":0.3061249927709424,"148":0.028271288741643256,"149":-0.5776653669911289,"150":-0.13819386073341378,"151":0.04899648128621224,"152":0.08730483401223614,"153":0.15709820633393717,"154":-0.29762610460742733,"155":-0.3118528370626247,"156":-0.659119959835012,"157":0.16254143912525082,"158":0.2499384237504238,"159":0.02018421935164398,"160":-0.1656668095711931,"161":-0.2115534755360506,"162":0.07038342881869786,"163":-0.3101808481592755,"164":-0.194435288771577,"165":-0.3153712711250501,"166":-0.13441165825487042,"167":0.015351207433482606,"168":0.4912874314076628,"169":-0.44557477992633365,"170":-0.45485772801643437,"171":-0.2406669249968452,"172":-0.18177407239478374,"173":-0.2100471745424231,"174":0.2915335991712465,"175":-0.15434957215961084,"176":-0.010948091630702579,"177":0.05011479611640057,"178":-0.00865832990339277,"179":-0.2590184854184111,"180":-0.5732630217684332,"181":-0.5104622302367757,"182":0.09022779555736564,"183":-0.24592845026863183,"184":0.11275947067728573,"185":-0.272618844453494,"186":-0.30809101565413094,"187":-0.11033629848676409,"188":0.07442742818863882,"189":0.04650488663487074,"190":0.10718298055856489,"191":-0.35426379054387575,"192":0.013254108864884444,"193":0.14515115527882352,"194":-0.09131238452676978,"195":0.032431641181978714,"196":-0.19748260172892707,"197":-0.06267288443424147,"198":-0.08987816266569353,"199":-0.24924655468374324,"200":-0.02799988055409724,"201":-0.6078296380158281,"202":-0.5333771213498286,"203":-0.2087949121515281,"204":0.06149097494117307,"205":-0.07833129303028824,"206":0.26756216463622284,"207":-0.20613772492783525,"208":-0.148850566188742,"209":-0.06796846399451413,"210":0.08735689704475504,"211":-0.11221817929787133,"212":-0.14818962089315768,"213":0.10316789495429804,"214":-0.3826757598050815,"215":0.09314981187361478,"216":-0.31004485257298353,"217":-0.33697194062186553,"218":-0.2665307602584297,"219":0.28072392717128464,"220":-0.10180404640753493,"221":-0.30782096846921997,"222":-0.2183160832624698,"223":0.017702790487395984,"224":0.11852672347696235,"225":0.15670706282550678,"226":0.3994076040690367,"227":0.06714680952307019,"228":-0.047488745011869,"229":0.34806805385333006,"230":0.4329637279689693,"231":0.2400058169652345,"232":0.03366816604350201,"233":-0.08116189753916093,"234":0.149449548201561,"235":0.05276011534484183,"236":-0.4751381465120225,"237":-0.4654432340722571,"238":0.04028948298432462,"239":0.5878528811668067,"240":0.423078631910113,"241":0.44252598743431065,"242":0.01968027240469338,"243":0.6780316156177653,"244":0.343204846708545,"245":0.2761269903943792,"246":0.03993543163162234,"247":0.5042378897692236,"248":0.47774817450225154,"249":0.1574560133817803,"250":-0.028132034594396328,"251":-0.6075800057105584,"252":-0.9054611330038662,"253":-0.1962127805889601,"254":-0.3040847496924808,"255":0.14972006151695622}},"5":{"bias":-0.007942344252516801,"weights":{"0":-0.10712829065520135,"1":0.02785867149192255,"2":-0.48782458279402596,"3":-0.04182203987960221,"4":-0.06320845555110247,"5":-0.2724963402406304,"6":-0.06642749095411529,"7":0.43145565076174486,"8":0.3758752369307944,"9":0.09022835769268724,"10":-0.24574209744508121,"11":-0.5020182894892526,"12":-0.08410015734684727,"13":0.21687989353571724,"14":0.04042916114195676,"15":-0.019070597548636336,"16":-0.13993024755105746,"17":0.029805312780741,"18":-0.040562330120934666,"19":-0.09134921062388382,"20":-0.1646557847933788,"21":-0.22551444906778623,"22":-0.23008917916437646,"23":-0.09034965636446624,"24":-0.1655331739370205,"25":0.3390221272698092,"26":0.45070811578671943,"27":-0.022111667616813272,"28":-0.16204835280290375,"29":0.13220422883802113,"30":0.1939250742610343,"31":-0.0956645560347329,"32":-0.08155438711055107,"33":-0.21791183500551603,"34":0.31086313469030413,"35":0.15454462956875023,"36":0.19667661921994684,"37":0.295016478588462,"38":-0.08024870404134957,"39":-0.07089935360322837,"40":-0.11939016041125362,"41":-0.05407139269098486,"42":0.14308027166657053,"43":0.12295723833164077,"44":-0.154148161274767,"45":0.04578739532501537,"46":0.2951475960310843,"47":0.06561729060672306,"48":-0.12751823266695198,"49":-0.24215440355668594,"50":-0.11861354765936663,"51":-0.001565968099420731,"52":0.07042808201973014,"53":0.026174935443278292,"54":0.3107522396281438,"55":0.20935563731217122,"56":0.12354031953116795,"57":-0.2718153414316395,"58":0.02653883011629107,"59":0.1887275342162557,"60":0.18358051717206175,"61":0.047654646972181254,"62":0.2979174242459982,"63":0.44261281435162736,"64":-0.20547556374129353,"65":-0.32807183971858284,"66":-0.13922479335783497,"67":-0.025937122400006007,"68":-0.12391249133925052,"69":0.07529850408749232,"70":0.06503631894646798,"71":-0.0369990051437223,"72":-0.19508911205132817,"73":-0.17648964721207813,"74":-0.2611256132183372,"75":0.03729740893754518,"76":-0.2533414309553112,"77":-0.14724709173014316,"78":0.2199018123121336,"79":0.0928031482629924,"80":-0.4326132818302512,"81":-0.14765703577534725,"82":-0.00736661281662014,"83":0.05473001070407151,"84":0.17105795294123638,"85":0.09261179278212422,"86":-0.12575006068706257,"87":-0.2945268270563381,"88":-0.21672523827741944,"89":-0.26119007746508277,"90":-0.1599931930383155,"91":0.03811541705164652,"92":-0.123584536472225,"93":-0.19776247408826197,"94":0.04590890137659904,"95":0.06223022903882109,"96":-0.08862769783337575,"97":-0.2736935638138974,"98":0.43388157267633076,"99":0.19930663031402276,"100":0.21984124685359743,"101":0.058029488160412285,"102":-0.06860251654748861,"103":-0.26422469664029363,"104":-0.46990643601318816,"105":-0.34302245626856026,"106":-0.38954359809510514,"107":-0.2658761185880443,"108":0.10394086935859237,"109":0.026306897771643578,"110":0.0866753757091463,"111":0.3535202051205725,"112":-0.03394223533550138,"113":0.16246018143914603,"114":-0.04516215395048908,"115":0.3326277055038591,"116":-0.056398831918059604,"117":-0.27518426750992964,"118":-0.3217753134339259,"119":-0.5041837009883945,"120":-0.6492603443245226,"121":-0.3540084836028046,"122":-0.5214657345799742,"123":-0.22267028109952036,"124":-0.12415550732951235,"125":0.10559373840617779,"126":0.5445825735702261,"127":0.3489548472281987,"128":-0.05743755276931169,"129":0.1844257376217798,"130":0.1820785808459506,"131":-0.16400204247886419,"132":-0.09508853823172256,"133":-0.07866059952063463,"134":-0.44918964839395836,"135":-0.5933695080885014,"136":-0.28047698023300477,"137":-0.4513984964578313,"138":0.00045728423365807826,"139":0.16023687017002766,"140":-0.2533622681063062,"141":0.001536440378802707,"142":0.3315749401155135,"143":0.2941963677188569,"144":0.20041924964253502,"145":-0.20864132378206005,"146":-0.13194151919438912,"147":0.027619997965714595,"148":0.19626894222101418,"149":0.09874914154269061,"150":-0.18522103971230286,"151":-0.35177967630662577,"152":-0.3923012398559626,"153":-0.23627339162818906,"154":-0.0700982667219188,"155":-0.23478490561011156,"156":0.0477651848628028,"157":0.12968604156776073,"158":0.40828695556577366,"159":0.22593052752387993,"160":0.12488547998689785,"161":0.13315864317541357,"162":-0.06558121055490294,"163":0.06009742668755151,"164":0.05654653159752697,"165":-0.02940346947508242,"166":-0.1592356056270411,"167":-0.32102866796139523,"168":-0.01366965660868551,"169":-0.0911466268203855,"170":-0.1886427953515481,"171":0.11827698956588195,"172":-0.12916762052144967,"173":-0.1720135722555699,"174":0.36338973452557066,"175":0.20386807925981615,"176":-0.1488813540459616,"177":-0.2610579042139934,"178":0.007620315455806831,"179":0.2190084528279588,"180":-0.11562978432955788,"181":0.20669337196335394,"182":0.20724775098150944,"183":-0.08735515255128909,"184":-0.23218519267807256,"185":-0.2108432493749356,"186":0.02765296629649466,"187":0.20495045683113333,"188":0.070263902895914,"189":0.040027464886793304,"190":0.3958831433511436,"191":0.3680856968134554,"192":-0.12986905539834337,"193":0.05298706517461733,"194":0.03729545686756185,"195":0.1952214479340721,"196":0.044472215602582375,"197":0.28416965539399514,"198":0.11900959136267034,"199":-0.11063541521705714,"200":0.06889641518035333,"201":0.18926372072861986,"202":0.1874815426516886,"203":0.2313782444787975,"204":0.03558644127875576,"205":0.11671531125506958,"206":-0.04479195378479477,"207":0.41911735026465097,"208":-0.3650645761030891,"209":-0.11283533659614595,"210":0.13750599544155265,"211":0.27494396856962044,"212":0.16260357423975128,"213":0.018899266113175245,"214":0.32664954511592503,"215":-0.08847928566538533,"216":0.14470956180581684,"217":0.45882493919674205,"218":0.4497767425915844,"219":0.39474040119689613,"220":0.1898690544738792,"221":0.14710704344990364,"222":0.22518872698043851,"223":-0.23979060211250974,"224":-0.31659723735589557,"225":-0.23986397319174457,"226":-0.38644824508907644,"227":0.10873183037829981,"228":-0.05669152492460332,"229":-0.006298804293113783,"230":0.035335069477674313,"231":0.33575860935238894,"232":0.10105098926093209,"233":0.37151173934633436,"234":0.5307464680510343,"235":0.05047174665413515,"236":0.046950785215274994,"237":0.1100627747325271,"238":-0.265961032297043,"239":-0.00912812479536205,"240":-0.2614967206592076,"241":-0.1382565830220116,"242":-0.545933861305024,"243":-0.4340037654804263,"244":-0.16728571932832192,"245":0.19498645157750005,"246":0.3172553790009833,"247":0.29059366545715737,"248":0.06440447371263998,"249":0.4904031011512461,"250":0.004592855555565316,"251":0.1133686606909832,"252":0.0854675761329481,"253":0.007149616789562883,"254":0.11137849454070864,"255":-0.5096837311730276}},"6":{"bias":0.5744016207742924,"weights":{"0":-0.2040584899817918,"1":-0.20681587395972223,"2":-0.002690855949429793,"3":-0.3229866764738374,"4":-0.010445351748907376,"5":-0.03603089899601744,"6":-0.25666120052951785,"7":-0.21242248399539654,"8":-0.1420294427423101,"9":-0.1960279776497924,"10":-0.15240901226658438,"11":0.31900446557976614,"12":0.21948270868320754,"13":-0.0422384399252112,"14":0.018914382785379758,"15":0.15120018036621086,"16":-0.21081859884563195,"17":0.06579557537393507,"18":-0.13461258985864835,"19":0.20999997519324154,"20":-0.15764884980664012,"21":-0.5547836758140973,"22":-0.22704726808821948,"23":-0.20549939467701997,"24":0.027110217969456892,"25":0.00440593661566878,"26":-0.07396133747906967,"27":-0.21189886979351663,"28":-0.3259776054775645,"29":0.13169122895934232,"30":0.2825956867712555,"31":0.3577590676145131,"32":0.07127740668566915,"33":0.2439450327675626,"34":0.152878831243966,"35":-0.2621697511291581,"36":-0.5178307284330175,"37":-0.4438127951803006,"38":-0.17052368477195298,"39":-0.10983443204517636,"40":-0.18253209462173015,"41":-0.034962382995539415,"42":-0.013667058945619663,"43":-0.10750837535034093,"44":-0.005045810810294654,"45":0.2766290018874074,"46":0.18327684991305013,"47":0.5414811860309577,"48":0.27400029524856767,"49":-0.14812595288844316,"50":-0.2624008389405101,"51":-0.2666239268059401,"52":-0.3945549422515192,"53":-0.19072394291900954,"54":-0.38666987035217276,"55":-0.33089410228042065,"56":-0.3640813411552238,"57":-0.4998928352802185,"58":-0.2217508204739675,"59":-0.4656859489756803,"60":-0.21700552656108202,"61":-0.36381258187364307,"62":-0.17189715036574987,"63":0.18949106006826402,"64":-0.13953841915057272,"65":-0.2429827348347493,"66":-0.2643919176969054,"67":-0.2520230824927341,"68":-0.5285712782874846,"69":-0.3464007467486911,"70":-0.26121788957956366,"71":-0.18154850295261354,"72":-0.39720426269514497,"73":-0.207766429530014,"74":-0.31615981214516836,"75":0.10780173831048304,"76":0.12754735782011978,"77":-0.4116921852784784,"78":-0.11332301820471186,"79":0.23433670604707038,"80":0.21128969060110142,"81":-0.1736198829377471,"82":-0.1863617155755116,"83":-0.2511945465858293,"84":-0.2202240908611648,"85":-0.06949667569334018,"86":-0.07751453845106535,"87":-0.49313162528773313,"88":0.03742646588694053,"89":-0.10532544874890798,"90":0.01822262003217387,"91":0.24727144046847552,"92":-0.2471588772268238,"93":-0.034387115518387516,"94":-0.1301408007827957,"95":-0.061224582956214364,"96":-0.009718153864600362,"97":-0.003866784166549645,"98":0.021434461797223442,"99":-0.5653170768395858,"100":-0.16321211206486372,"101":-0.16846947243136498,"102":-0.14190030879552704,"103":-0.42410809915475883,"104":-0.09232497506104374,"105":-0.1051437642752701,"106":-0.25697583039679733,"107":0.14411915821795535,"108":0.2547613897915926,"109":-0.31970346129000415,"110":-0.5010265013564958,"111":-0.27088137531869105,"112":0.2141639175585474,"113":0.12263342942039261,"114":-0.40580606003329106,"115":-0.33170653942247796,"116":-0.041519983400199766,"117":0.18423581695110158,"118":-0.18530613712070848,"119":-0.39394849660341097,"120":-0.16613775594260183,"121":0.0971915613468785,"122":-0.1934982398740864,"123":0.08529720614643864,"124":0.23384814043894683,"125":-0.0044564547658317724,"126":0.06742857212696947,"127":-0.1507854553491267,"128":0.061425378785581373,"129":0.03718189273528758,"130":-0.17186927608427793,"131":0.04436088001415292,"132":-0.05044422203738758,"133":0.1855035969650785,"134":0.03217098834323692,"135":0.03869847525607728,"136":-0.38911915490551746,"137":0.08495221845785705,"138":0.31606120274658317,"139":0.10497311454036934,"140":0.2676118374133749,"141":0.14937820795307066,"142":-0.0790878916177305,"143":0.18407079401540977,"144":0.21942730757100715,"145":0.2509221019668191,"146":0.21212195245292936,"147":0.08279334962061664,"148":-0.212410242201582,"149":0.15334391098105782,"150":0.10282847256831937,"151":-0.09974164140880593,"152":-0.27135378978833874,"153":0.16302950581240888,"154":-0.20905880258386195,"155":0.45205191179309895,"156":0.3621888041492465,"157":-0.10267651250003983,"158":-0.08531631980229155,"159":-0.2982891488473937,"160":-0.10821487937020266,"161":-0.08259882143473446,"162":0.27798384690857636,"163":-0.11970283190714494,"164":0.13175411941693171,"165":0.14549434190091026,"166":0.22911354712657095,"167":0.08192695271706801,"168":0.17765163043421167,"169":0.055701640109773055,"170":-0.12797715292533524,"171":-0.0510557311049993,"172":0.3328438211395293,"173":0.18388200917950778,"174":-0.1755221886809963,"175":-0.18726900134756935,"176":-0.22545210688783704,"177":0.028949040481203205,"178":0.35561962280620935,"179":0.2768221815968929,"180":0.37673786327275666,"181":0.22561768143890795,"182":0.2671291817983935,"183":0.10590097454897171,"184":-0.05714014942191011,"185":-0.08976078786543659,"186":-0.06514206178530522,"187":0.1750530939927194,"188":0.16383508293583093,"189":0.3314843356914893,"190":-0.12196292993908689,"191":-0.093516186136858,"192":-0.09807598781841756,"193":-0.20631194509439055,"194":0.3154387746885232,"195":0.4007224190419159,"196":0.25503938130925946,"197":0.3588643473009344,"198":0.1026015863788908,"199":-0.03552351115052263,"200":-0.07482057844161391,"201":-0.2910163644943683,"202":0.11924740620407538,"203":-0.039695759177846124,"204":0.3412997755573918,"205":0.046006689896689656,"206":-0.1803465748984529,"207":0.008582367247347159,"208":-0.04247851889092977,"209":-0.019405478525178058,"210":0.4029293222406629,"211":0.3967184631957857,"212":0.23756549037298821,"213":0.2327392500725756,"214":0.37456305559423236,"215":0.07173823499511602,"216":0.010693080054400112,"217":0.12336983989179104,"218":-0.10887760628270075,"219":-0.1979458477010694,"220":0.3093503773358186,"221":0.2365932822207219,"222":-0.03249066528713708,"223":-0.19823822694097515,"224":0.22843299015360213,"225":0.029388693686825496,"226":-0.144557060951581,"227":-0.01918297799280824,"228":0.14841344670583045,"229":-0.01102610364251738,"230":0.029054685656869996,"231":0.13438716017557228,"232":-0.2090723140684591,"233":0.09073222030011475,"234":-0.03469597656647753,"235":0.05615683491896334,"236":0.16650537499119447,"237":-0.09772892093235826,"238":-0.02197389769581693,"239":-0.1197116198955861,"240":0.01603807641580625,"241":0.13794780479000945,"242":-0.23165937579962786,"243":-0.4289877108243921,"244":0.178025426659401,"245":0.3042172414666118,"246":0.1646744631127124,"247":0.29433226684670677,"248":-0.05603143218658335,"249":-0.24011054172739613,"250":0.005745913718638726,"251":0.04591023808379742,"252":0.27870831040151134,"253":0.1489763266729765,"254":-0.20219529748076479,"255":-0.12226914731152518}},"7":{"bias":-0.6841245617098924,"weights":{"0":0.15953775525461444,"1":0.09938711246972066,"2":0.12852977496873824,"3":0.2672003866309045,"4":-0.17083720143130854,"5":-0.0027283815272751456,"6":-0.5415562329451497,"7":0.004962439101371788,"8":-0.4393896770153136,"9":0.13500595742404617,"10":-0.07230936168933919,"11":0.12282218486667805,"12":0.29222594229810966,"13":0.4055804596630009,"14":0.1648626674966115,"15":0.08364818219936873,"16":-0.14571448519957494,"17":-0.1120865086381725,"18":0.34980790101869186,"19":-0.24139983230609827,"20":-0.18966284932677646,"21":0.2221236367167094,"22":0.08897427187370421,"23":0.3438991585191842,"24":0.5258882562100202,"25":0.6124037938398025,"26":-0.09345359638121072,"27":0.19541383057071157,"28":0.33033704835889954,"29":0.29839835147966437,"30":0.20038035916932728,"31":-0.5301096882900138,"32":-0.2649545750525133,"33":0.2795780036231664,"34":-0.4083904393508057,"35":0.04415274649372482,"36":0.05037855771460211,"37":-0.12133516568058166,"38":-0.07092315846970886,"39":0.00849862135309661,"40":0.4191540857087976,"41":0.271041053088824,"42":-0.32169607407140277,"43":-0.373682822185016,"44":-0.007552048083822047,"45":0.15715676032590745,"46":0.10185137262390112,"47":0.03298985277341756,"48":0.11372577874063096,"49":-0.12473151981900485,"50":0.0034951966512779663,"51":0.039347991702187994,"52":0.1475525763426269,"53":0.20099763998242717,"54":0.29860778345153044,"55":0.08560073543662462,"56":-0.0778380032706659,"57":0.07398594383826997,"58":-0.11815444174041359,"59":0.13363807932206256,"60":-0.2745247394546977,"61":0.19601904784442215,"62":0.5171496694745622,"63":0.08884864118951936,"64":-0.000838194890271278,"65":0.06748946091514232,"66":0.008161827054678642,"67":-0.031114444096924695,"68":0.14758936250950835,"69":0.1464386849723554,"70":-0.151128019926315,"71":-0.3123065244882046,"72":0.06399521478110703,"73":0.09557395853551078,"74":-0.13203283946813238,"75":-0.07119492087306838,"76":-0.3090111234143918,"77":0.16915006392168783,"78":0.11590183556641098,"79":0.10971435918044509,"80":-0.20840271999299073,"81":0.05187274081120232,"82":0.18871145148265314,"83":0.12859980629992873,"84":-0.17795970480120515,"85":0.1592664326405359,"86":0.028944822299200323,"87":0.21722007835048945,"88":0.026721237856590647,"89":-0.0774350083735664,"90":-0.32093314153628094,"91":-0.4714639224263021,"92":-0.2093665276249659,"93":-0.12864417422870156,"94":-0.08571489867814659,"95":-0.21380126906737665,"96":-0.1665254729834845,"97":0.06559615776249961,"98":0.24606649910249848,"99":0.22205855559561666,"100":0.18489602810224984,"101":0.03361527455782013,"102":0.2937597326842385,"103":-0.07156186607842217,"104":0.362611957072929,"105":-0.04172875080761056,"106":0.048936344385350855,"107":-0.43244682187991507,"108":-0.48988208954406715,"109":0.08142612055796455,"110":-0.13725007575709391,"111":-0.26575419465374894,"112":-0.3348584228958249,"113":-0.041748703653880885,"114":0.5719700200801026,"115":0.19497173053233033,"116":-0.0951854271708439,"117":-0.3291846786531185,"118":0.22803349159114444,"119":0.08429730778693889,"120":0.1823597468960715,"121":0.3013915668446312,"122":0.30973326923112576,"123":0.19791839313362056,"124":-0.5463765905179453,"125":-0.004937102974933934,"126":-0.37886345033093455,"127":-0.06272441411907641,"128":0.1933526697044037,"129":0.3312077233190792,"130":0.3199645209223231,"131":-0.28040707307104173,"132":0.19417178158900208,"133":0.2620148857353856,"134":0.01927178952361361,"135":0.17328208733926623,"136":0.4413925298424188,"137":0.4482896275449882,"138":0.1027642953834078,"139":-0.0406845759045128,"140":-0.001287699776340682,"141":-0.2629482580180741,"142":-0.057053572147006924,"143":-0.042713530323170885,"144":-0.05465079804171909,"145":0.2982221592952877,"146":0.4376345707954445,"147":0.20957052242484672,"148":-0.1474247734769405,"149":-0.26042706272939076,"150":-0.07779642500989682,"151":-0.3369309051535871,"152":0.33730522027310905,"153":0.10341960220827881,"154":0.09549903584255569,"155":0.009669116725180891,"156":0.047839009490739146,"157":-0.5036631532600389,"158":0.09299733087116438,"159":0.2256916015527156,"160":0.31217604692190176,"161":0.14462627828983618,"162":0.5127044750519483,"163":0.2512385775925218,"164":0.3589288686600187,"165":0.04361202803985748,"166":-0.11911991553904845,"167":-0.21573651771807636,"168":-0.609046063543173,"169":-0.255733397317352,"170":0.3907932088025496,"171":-0.0012735086252195745,"172":-0.43266988304199633,"173":-0.09306134663090329,"174":-0.5533804913027967,"175":-0.27796044967157846,"176":0.30834584697547046,"177":0.2292869301427155,"178":0.2229652601366692,"179":0.16908156082360404,"180":0.2565146455454665,"181":0.17585243257508298,"182":0.047625708169427565,"183":0.28094901162841646,"184":-0.3439171022052009,"185":-0.25562990074480546,"186":-0.1466302186384083,"187":-0.464860670290882,"188":-0.17805246836536176,"189":-0.13534615829326838,"190":-0.3913161626898316,"191":-0.13093917350259146,"192":-0.20680814318966087,"193":0.17465619870508536,"194":0.17142624140849883,"195":-0.08576126655871398,"196":0.1257219831525898,"197":0.36171916349702804,"198":0.061773132897613554,"199":-0.013280232995533726,"200":0.01597669035238571,"201":0.030733211537662907,"202":-0.10992161863588643,"203":-0.17729719224338505,"204":-0.2371698799141908,"205":-0.6215614036067368,"206":0.12055988647291188,"207":0.007752766088776889,"208":0.06447567960055052,"209":-0.027126569427658585,"210":-0.048285397283087825,"211":0.17266093192916065,"212":0.1250364360660747,"213":-0.13857708549701137,"214":-0.3724537967277695,"215":-0.09763617964656814,"216":-0.18790608870214576,"217":-0.31198008871945243,"218":-0.22642436305198854,"219":-0.21352830771321826,"220":-0.38254219043219184,"221":-0.01974849248010033,"222":0.5293235070209319,"223":0.32595140830272223,"224":-0.2124397220978895,"225":-0.02325415568429123,"226":0.22913114744039537,"227":0.26191035659266076,"228":0.5859783918989773,"229":-0.0671151958049112,"230":0.019702386350858535,"231":0.051491990622791126,"232":0.08114509269456409,"233":-0.10996635246202227,"234":0.0509156603374511,"235":-0.0927749078383317,"236":0.03835995506372827,"237":0.35312014844109413,"238":0.026806353608026537,"239":-0.09433453273914447,"240":-0.01292968656654331,"241":-0.39709800040520987,"242":0.1678927146692324,"243":0.3471375612740196,"244":-0.07502149419964599,"245":-0.15829626742905228,"246":0.20499939146487353,"247":0.38296840949617067,"248":0.4122970529271818,"249":0.368740861756129,"250":0.4760757435227032,"251":0.22957464066969313,"252":0.04306401120018231,"253":0.22897965760451186,"254":0.25950641321966983,"255":0.002221820204544541}},"8":{"bias":0.4020709986189588,"weights":{"0":-0.15184120724771374,"1":-0.07457951934303166,"2":-0.3090268229803717,"3":-0.00585300625264611,"4":0.212634051391808,"5":-0.41114790553986935,"6":-0.14544069376868649,"7":-0.3174071477501188,"8":0.2916318208892257,"9":-0.18737904130384364,"10":0.1840992756320456,"11":-0.47795331939400787,"12":-0.3661493673064341,"13":-0.523290382103525,"14":0.0308162828220382,"15":0.1986995887222707,"16":-0.059716304802817914,"17":0.08374272160154915,"18":0.11361922302968763,"19":-0.2694247336804576,"20":-0.2928749506430131,"21":-0.23456052163503707,"22":-0.15515114801589192,"23":0.12553887990125728,"24":-0.3440876181634452,"25":-0.030025667834747975,"26":0.35810217636017533,"27":0.7603834596834258,"28":0.7362285676707341,"29":-0.09770023088260998,"30":-0.44460176606106205,"31":-0.23024875879373233,"32":-0.036436162162840915,"33":-0.0973514115286144,"34":0.2985779619572871,"35":-0.01010466442595133,"36":-0.35781296750503194,"37":-0.22927961798581603,"38":0.05788653698694152,"39":0.3873832768838102,"40":-0.44287773945284586,"41":-0.21719522632651042,"42":-0.2122408357292067,"43":0.2683007340726648,"44":0.0946287963162223,"45":0.15647042685432644,"46":0.1862124603731637,"47":-0.022068568512003804,"48":0.16870930032958337,"49":0.29475426898245133,"50":-0.011626117258399021,"51":-0.028696467837568802,"52":0.1178246938205263,"53":-0.22903399487520487,"54":-0.12004098692820948,"55":0.1937104578680236,"56":0.24965635537569308,"57":0.4281977439280656,"58":0.387989666517383,"59":0.22455721106436674,"60":0.2276292238564154,"61":0.5802505290290231,"62":0.8223334624691606,"63":-0.03271604962340127,"64":-0.19836186763374422,"65":-0.4993530743606858,"66":-0.18498979977413416,"67":-0.19268623915959185,"68":0.33088867677481554,"69":0.36715240082643164,"70":0.18788179884166922,"71":0.16424337976160597,"72":-0.14495575048592643,"73":0.1982764396225064,"74":-0.18565623624226477,"75":-0.44474640211343713,"76":-0.5097898545056412,"77":-0.1970671226751459,"78":-0.052550513981268795,"79":0.2559106051801947,"80":-0.3262089524320038,"81":-0.0914096635484472,"82":0.2370187826214055,"83":-0.016920412209579155,"84":0.1501893279726429,"85":0.06068308796840174,"86":-0.19116213568342819,"87":-0.24438724768692624,"88":-0.5450294272192254,"89":-0.26960240611378444,"90":-0.0664489513464807,"91":-0.48122177649416664,"92":-0.2555482151709638,"93":0.09603399679032346,"94":0.01722239699655558,"95":-0.6540525860511621,"96":-0.011559701175547502,"97":-0.4861420257291548,"98":0.43561545598458645,"99":0.6580617488248074,"100":-0.12782097654538843,"101":0.2356928233295733,"102":-0.3132330022348754,"103":-0.10041487306514811,"104":-0.07256962490954756,"105":0.17787469389510174,"106":0.9028408325452026,"107":0.3685490717078668,"108":0.26633164223252487,"109":-0.11750780613391365,"110":-0.008074009219388757,"111":-0.4499267124029076,"112":-0.14325209835543418,"113":-0.5022552510218802,"114":-0.17281606790354553,"115":0.7346136322717806,"116":-0.01793330133073096,"117":0.14696973134707375,"118":-0.19513368402725365,"119":-0.050734351091723355,"120":-0.22388645025031953,"121":-0.10632757924904658,"122":0.26344718657175376,"123":0.4463286270797672,"124":-0.07626740318181006,"125":-0.4752064030853467,"126":-0.333833026933728,"127":-0.2603483089260335,"128":-0.5308406790173152,"129":-0.3166155576566857,"130":0.06009580471626205,"131":-0.2717296606835589,"132":-0.19661462155916065,"133":-0.5676832011722196,"134":-0.5737706135279937,"135":-0.5228696814486399,"136":-0.290610702392683,"137":-0.15579376280208335,"138":-0.14838704533915142,"139":0.044144880755771006,"140":-0.010000095364567772,"141":0.17313691052049585,"142":-0.06690436301813167,"143":0.039961996409160344,"144":-0.1384294066170387,"145":-0.18275864525383032,"146":-0.16644058943699971,"147":0.22918515520030516,"148":0.042471008180338374,"149":0.16888102112829098,"150":-0.34312813170558165,"151":0.1905135300587808,"152":-0.11577162653255757,"153":-0.24248992994992682,"154":0.3448154299231186,"155":-0.34771816994008975,"156":0.2941696856892942,"157":0.280258178788469,"158":-0.033660497332463526,"159":0.5849000746885127,"160":0.1089868175755901,"161":-0.11001545393063132,"162":-0.03237824848102256,"163":0.48806618301661203,"164":0.22372775833557315,"165":0.3820085726960471,"166":-0.04585719853037475,"167":0.5964192527131488,"168":-0.23976948511259352,"169":0.28844701484191393,"170":0.2547420446894571,"171":-0.13643417030717434,"172":-0.7450619955282486,"173":-0.18131147646053997,"174":-0.24667683724823983,"175":0.6668298608277999,"176":-0.09135231603094889,"177":-0.1419114740712155,"178":-0.08362030063027215,"179":0.20384862390363506,"180":0.10623790233959707,"181":0.0791814919431332,"182":-0.3455023871040096,"183":-0.5267431067414216,"184":-0.492345992515885,"185":-0.34228963075596974,"186":-0.41034499556888726,"187":-0.35420935171498674,"188":-0.7000168255544791,"189":-0.4278700141998147,"190":-0.345268967689547,"191":0.2289318458623891,"192":0.5595823831234195,"193":0.28713105327908306,"194":-0.2992730921570811,"195":-0.029187543207383933,"196":-0.19291227087473248,"197":0.11180089825676975,"198":0.1944248329016852,"199":0.09972260680411126,"200":-0.21468067660331727,"201":0.109578991442734,"202":-0.2405867238910853,"203":-0.3496071336601109,"204":-0.20278784170880568,"205":0.03698535187218258,"206":0.06070518829144463,"207":0.16855118594615945,"208":0.6379587857367848,"209":0.05901462256919321,"210":-0.22678447849115577,"211":-0.2740113212118684,"212":-0.14688038224096772,"213":0.07052556158676226,"214":0.23784758472330503,"215":-0.007841525731805195,"216":-0.10224618614977263,"217":0.1968278012789889,"218":0.27777200129439517,"219":0.0631931899804903,"220":0.11419516133501961,"221":0.17258813922284766,"222":0.5706228445783911,"223":0.0934187584025705,"224":-0.16972849337101392,"225":0.5253174089118982,"226":0.06697378006607571,"227":0.2710199017390693,"228":0.012912832582342127,"229":-0.4250382216845264,"230":-0.10546011437973728,"231":-0.38218669200567423,"232":-0.2848962853770486,"233":-0.14178954697553525,"234":0.18882216781914465,"235":0.025674252932185445,"236":0.12394390657683448,"237":0.03227242130899334,"238":0.3555815816470857,"239":-0.4079314236247084,"240":-0.17359393069434967,"241":0.20643995163358037,"242":0.15344725045849872,"243":0.013379447709999407,"244":-0.823729936010353,"245":-0.6438274626750871,"246":-0.4703961316400843,"247":-0.7162378943663414,"248":-0.31949056867577075,"249":-0.2405601122478187,"250":-0.16820415667333166,"251":0.12054900985125393,"252":-0.08375192585309972,"253":0.2984397615450676,"254":0.06685218938678668,"255":-0.16842225379253667}},"9":{"bias":-0.3213371654820721,"weights":{"0":-0.31329893618046656,"1":-0.4558366359545891,"2":-0.2152930644868011,"3":-0.07854879865656147,"4":-0.5577043027412985,"5":0.2111753118765396,"6":0.3049570656745007,"7":0.12281691634437267,"8":-0.025538078228104423,"9":0.031142670962854176,"10":0.0385347220004789,"11":0.4918452175596723,"12":0.14670649999605526,"13":0.6787171043880675,"14":0.08022043449382434,"15":-0.4466984791883349,"16":0.20776540139064167,"17":0.013158430305766813,"18":-0.288402316291298,"19":-0.0959243353896638,"20":0.2520291748815862,"21":0.29202885180399146,"22":0.3906392099563781,"23":0.15098331135098006,"24":0.28486515970179566,"25":0.334267172694338,"26":0.2177585321042467,"27":-0.32268502779344665,"28":-0.21395491507739697,"29":0.36305204963121934,"30":0.4600962661373285,"31":-0.3923013815177405,"32":-0.6040947881875627,"33":0.02266047594808175,"34":0.03083336670172901,"35":0.2156046781000458,"36":0.2685227955527233,"37":0.0867899148762307,"38":-0.37969307036138517,"39":-0.5429322910722174,"40":0.6520975586607737,"41":0.2065537428502237,"42":-0.24904247818024594,"43":-0.3669394744726548,"44":-0.175859396864262,"45":0.20914138413518676,"46":-0.0950185615837461,"47":0.13644294007269228,"48":-0.11553840834435489,"49":-0.5970538120668012,"50":-0.17387002792187858,"51":0.1556025038080102,"52":0.13729780330327615,"53":0.16671840443540098,"54":0.23363278735142853,"55":0.345700147211071,"56":-0.1710922400678358,"57":-0.3053007968161606,"58":-0.1736317796888897,"59":-0.31631264466761977,"60":-0.009309892393826706,"61":0.22775705390379994,"62":0.22062481236683618,"63":0.006886758467397673,"64":0.032445221575182655,"65":0.342883705321561,"66":-0.8832414375367517,"67":-0.07183103116978776,"68":-0.5767747272495882,"69":-0.7357642786564245,"70":-0.36274176188347734,"71":0.10821929259197927,"72":-0.07339777365969308,"73":-0.3581705625510529,"74":0.051855926842898734,"75":0.1878734861434089,"76":-0.2650834900699134,"77":-0.17869460446537733,"78":-0.4561503723678247,"79":-0.05172292326606083,"80":0.10405652555080368,"81":0.11389927610092528,"82":0.19188465343823982,"83":-0.38457083454236696,"84":-0.11513892532436307,"85":-0.38807597632621316,"86":0.0039019048434161875,"87":0.04612469135035545,"88":0.32720519803795345,"89":0.4838235989079515,"90":0.2954972531729264,"91":0.19354396323803172,"92":0.0801858054167431,"93":-0.267219712293671,"94":0.06265330343449814,"95":0.43787584862475815,"96":0.2669021153652895,"97":0.18409262879100458,"98":0.1357352976322193,"99":-0.3570756826114675,"100":-0.29690733339216435,"101":-0.002017177164749981,"102":0.28660200190117663,"103":0.12140611945635009,"104":0.4916244713247189,"105":0.6098098985042653,"106":-0.25646860695074497,"107":0.13408972050530765,"108":-0.39167926734945235,"109":-0.4253701129102564,"110":0.01803234970758006,"111":0.3701491254067835,"112":0.0860575595707699,"113":0.993138398582182,"114":-0.3812390225774058,"115":-0.14317911815967796,"116":0.00027062381526023584,"117":-0.11711860004140703,"118":0.25541388897355655,"119":0.491558653727096,"120":0.22128316564758596,"121":0.24589373697520045,"122":-0.4201051671453569,"123":-0.32456829341317944,"124":-0.21489537230547515,"125":-0.1411013413267876,"126":0.3006992462508481,"127":-0.1050737090755431,"128":0.04964572369057469,"129":0.6489546402470711,"130":-0.020858834820022865,"131":0.045769428658771406,"132":0.23689902943888075,"133":0.8430650073729422,"134":0.5787094680960716,"135":0.5827177435048491,"136":0.26995086778500677,"137":0.16683038974019662,"138":0.06854198719529335,"139":0.025537196286862775,"140":0.15779348827436418,"141":0.16361511166534218,"142":-0.2335962075701007,"143":0.3981664044283813,"144":0.40015893235234995,"145":0.10504612864179512,"146":0.013913339519510003,"147":-0.2625361195138074,"148":-0.26014907222129285,"149":0.5247290438317694,"150":0.3563848403425731,"151":0.0950391492368749,"152":0.10921270717416862,"153":0.36625539148469244,"154":-0.056693906222465056,"155":0.3654249988195884,"156":-0.13053458670458343,"157":-0.02411706948513164,"158":0.09988606439583737,"159":-0.031011350614342348,"160":-0.12205548479789424,"161":-0.025749420824369432,"162":-0.18050226685262158,"163":-0.39078426845372755,"164":-0.34556953444226274,"165":0.18902846274618185,"166":0.07107183109277851,"167":-0.25092666562976473,"168":0.2030783928383837,"169":0.16594224324041562,"170":-0.1561537993184185,"171":-0.14696704832106322,"172":0.23008071775777736,"173":-0.3657975724213394,"174":-0.1855270630204187,"175":-0.06110749673056846,"176":-0.03520528772662865,"177":-0.05492418463263818,"178":0.18513883705562414,"179":-0.4617886333724559,"180":-0.03745184773264647,"181":-0.14068845727230625,"182":-0.04633228261858404,"183":0.43088360139608894,"184":0.002619390443029821,"185":0.09304394507792897,"186":-0.14820721736663447,"187":-0.06570965884043047,"188":0.3113320959953697,"189":0.046474304256395906,"190":0.025223484876903863,"191":-0.26681146800362754,"192":-0.163465949793343,"193":0.22538541188520655,"194":0.07039073972161891,"195":0.29610185196300864,"196":-0.32564285517835556,"197":-0.41725177853072287,"198":-0.4690597951230432,"199":-0.28000684445860097,"200":-0.24454691214573357,"201":-0.3167533298509906,"202":-0.058709431703817094,"203":-0.005571218659206842,"204":-0.12008907121040617,"205":-0.039182986236327697,"206":0.030449057564475336,"207":0.13869650191300514,"208":-0.3222892761244167,"209":-0.008650214702895915,"210":0.18778205343690194,"211":0.41346363381094053,"212":0.2800586100239853,"213":-0.34035114927169313,"214":-0.24975486870993263,"215":-0.2158450486907474,"216":-0.22838731752748503,"217":-0.7021624984328665,"218":-0.3339507655974848,"219":-0.300853325213813,"220":0.02216736616970608,"221":0.17753574244819864,"222":-0.1396527853254015,"223":-0.07681332025031729,"224":-0.07512727909684086,"225":-0.37753967765473456,"226":-0.2913830227369635,"227":-0.052475787538344816,"228":0.480888502859827,"229":0.015615363517419503,"230":-0.23561986238847898,"231":-0.028054567712415678,"232":0.08238593103886334,"233":0.3326756945276658,"234":-0.0506528731411222,"235":-0.2188633541886323,"236":0.08238982577176732,"237":0.11004639349357091,"238":-0.12273477829956819,"239":0.09540254219727616,"240":0.20408307428359768,"241":-0.29863079615346494,"242":0.590467874045651,"243":-0.19694410045218308,"244":0.3542838274733395,"245":0.28209176060355184,"246":0.772800363477332,"247":0.31585412587587974,"248":0.21050070100525922,"249":0.33949329015715335,"250":0.3369137277408387,"251":-0.031364334601920875,"252":-0.14808181518750263,"253":-0.218752017087412,"254":-0.2445717246304456,"255":-0.19359632948239988}},"10":{"bias":0.1377321214934613,"weights":{"0":-0.00015439786883411264,"1":-0.0477635561346118,"2":-0.506799333400307,"3":-0.21422477514493304,"4":0.3349724787026741,"5":0.322913400374516,"6":0.09702030941947248,"7":-0.2720631043201587,"8":-0.008752049659737828,"9":-0.16455100354428528,"10":-0.2990817177542194,"11":0.18101382235439967,"12":0.05815588086615515,"13":0.16710562488718195,"14":0.0687329547518185,"15":-0.12773790112155436,"16":0.08129072622249973,"17":-0.08142212753242409,"18":0.25654433284531775,"19":0.06348218912328682,"20":-0.38443546680554913,"21":-0.2019083474099773,"22":-0.17860142663874565,"23":-0.5534110437742278,"24":-0.3233873602988034,"25":-0.4085189436986634,"26":-0.4689651550399232,"27":-0.06685560406925435,"28":-0.2613514097603154,"29":0.009153914931382758,"30":0.29549306391726765,"31":0.5488707250907893,"32":0.28258844655026844,"33":0.12015600708980187,"34":0.1681594546866749,"35":0.24737565133878717,"36":0.4430811924386684,"37":0.08978377547865594,"38":-0.00009387280338620863,"39":0.26594163201988374,"40":-0.2004902078409127,"41":-0.11656781539919267,"42":0.15186551957943203,"43":0.2956869907446302,"44":-0.06783280382656624,"45":0.13732315747194984,"46":-0.06775369438774215,"47":0.3710573151587305,"48":0.2432156449250065,"49":0.1900728771562151,"50":-0.0021669386075221964,"51":-0.10141967975185469,"52":0.01009589255126702,"53":0.09457930004510279,"54":0.3798314297699721,"55":0.08263371133782478,"56":0.2481736050791701,"57":0.14027712394338077,"58":-0.06559749052089352,"59":0.24503006467158883,"60":-0.15115735486697218,"61":-0.16487619916888774,"62":0.08762358750474927,"63":-0.005611192280447562,"64":0.3095387464274057,"65":-0.024901414912085182,"66":0.013244887112055261,"67":0.07635562364548032,"68":-0.2311690780758834,"69":0.3096228427884377,"70":-0.2491508249022893,"71":-0.025074975465803576,"72":0.1396721634099078,"73":0.07871606715957698,"74":-0.15993594277780276,"75":-0.2054969267787122,"76":0.01138912958966867,"77":-0.2549587223216816,"78":-0.13803032257279263,"79":-0.13264883994360707,"80":-0.057202498048898445,"81":0.07555589646486582,"82":0.06112980320794287,"83":0.03226210978983352,"84":0.1952613724449282,"85":0.21159610413055324,"86":0.05891765449181172,"87":0.09834791065591088,"88":0.3549684660665419,"89":-0.15975998174238557,"90":-0.35932637341591095,"91":0.1412316284337563,"92":0.2910988603121306,"93":0.06341503220746593,"94":0.2510386780531191,"95":-0.16237313635745726,"96":-0.30669037900721186,"97":0.045920694670942466,"98":-0.02954955633409451,"99":-0.08488891367527031,"100":0.1565863564095269,"101":0.18105117088230505,"102":0.1252853287934421,"103":-0.39514854738602584,"104":-0.28363640969957715,"105":0.07741651752592216,"106":-0.1503728468675357,"107":0.002861391844451034,"108":0.3484951693696226,"109":0.24150507823804038,"110":0.314870097102184,"111":-0.6202733471122425,"112":0.18069029206671625,"113":0.11981805070733013,"114":0.22761864462770726,"115":0.03695998152582366,"116":-0.09184513520055311,"117":0.14692705998828548,"118":-0.46547728397225546,"119":-0.5892239930285708,"120":-0.4043287504700282,"121":-0.1483755475256629,"122":-0.0017253639613160092,"123":-0.2803752606298602,"124":-0.1094157691893313,"125":0.2524723456275589,"126":0.16227217415340148,"127":-0.34049155088476923,"128":-0.059966794775956504,"129":0.41353461935148944,"130":-0.029882005675253766,"131":0.004001509824934483,"132":0.12711050588282025,"133":-0.06389439387439128,"134":-0.33425111353068476,"135":-0.20854115800721407,"136":-0.3475767304300986,"137":-0.13219879753675384,"138":0.1468992274513428,"139":0.0904834780295025,"140":-0.04134653416550343,"141":0.23963144371131104,"142":-0.3044973357454195,"143":-0.34882119082081137,"144":-0.06607422430628977,"145":0.494586417927627,"146":0.6186914482193069,"147":0.13342528017749386,"148":-0.38710164681442627,"149":-0.43502905058002,"150":-0.35913412487321145,"151":-0.276765851334467,"152":-0.139016534003217,"153":-0.010685780118552604,"154":-0.1253641787079594,"155":-0.15976711231380897,"156":0.10451937353348752,"157":-0.3169787257190264,"158":-0.31893395084400505,"159":-0.26558595282761693,"160":0.14270215042240475,"161":0.056608848379264685,"162":0.13096382596601203,"163":0.0019376990252310113,"164":-0.03845721164011328,"165":-0.3504283696614284,"166":-0.22508968714148614,"167":-0.1448552444159669,"168":-0.10653943163299016,"169":-0.5410635072613589,"170":-0.5941533414974753,"171":-0.3432180156418748,"172":0.36095557082549046,"173":0.1236637787712363,"174":0.04749604294913316,"175":-0.2743887738432516,"176":0.2445065463922829,"177":-0.24671643722049263,"178":0.18506982816431886,"179":0.12463810885378314,"180":-0.07465636357426216,"181":0.15338029593068164,"182":-0.27677140668735944,"183":-0.10712641098851812,"184":-0.10345919284447336,"185":0.041797022364437886,"186":-0.3682840554292717,"187":0.17096061009860325,"188":0.337531103995236,"189":0.3033429224693485,"190":-0.10422286163793547,"191":-0.12017559473050263,"192":-0.18400378496495215,"193":0.12097275908957895,"194":0.15242998960521378,"195":0.20548232270819228,"196":0.35019866622692103,"197":-0.042171577678501874,"198":0.060825848746755326,"199":-0.11655754678681848,"200":-0.43502969299036426,"201":0.03330477029839707,"202":0.04880158268607639,"203":0.2740465738765754,"204":0.021947273904117583,"205":-0.05448835840621675,"206":-0.1292984507266713,"207":-0.29900616387610757,"208":-0.25225765573866654,"209":0.373424062129324,"210":-0.020968540652594223,"211":0.01533199592865764,"212":0.5528630405725974,"213":0.44417233239510506,"214":-0.03033924583301255,"215":0.31972940659949806,"216":0.26822955565289597,"217":0.18793914460670186,"218":0.18206831825641456,"219":0.038805784690703324,"220":0.010012409446523547,"221":-0.3387868709601965,"222":0.09569772171757862,"223":-0.12124791971499814,"224":-0.010326213864170151,"225":0.07703890142983699,"226":0.2743495938519695,"227":-0.09122229165296172,"228":0.26931485109842107,"229":0.43390024011074635,"230":0.49318423944156015,"231":0.21426054278725395,"232":0.01818041647876434,"233":0.29156956347328344,"234":0.17890726750600072,"235":-0.0198887633612634,"236":0.1005460352285003,"237":0.20171650256959825,"238":0.2337987268822399,"239":0.5849074003747878,"240":-0.2775014915456344,"241":0.3111701318791647,"242":-0.07997579330552604,"243":-0.11462022112976594,"244":-0.19973209177303122,"245":-0.35138304657300806,"246":-0.21465914246908782,"247":-0.2097433870134858,"248":-0.31448314183197823,"249":0.1306044847295748,"250":-0.29085374717170803,"251":-0.014836686446054284,"252":0.4371211296702418,"253":0.30798061305604935,"254":0.043395227254284505,"255":0.30761187645783705}},"11":{"bias":0.09486947571039804,"weights":{"0":-0.21704618622293856,"1":-0.36797716117009976,"2":-0.3439469904786665,"3":0.06616936840997255,"4":-0.05212814331067604,"5":0.5096316583135528,"6":0.277680027240324,"7":0.4688331741025762,"8":-0.04713418593467946,"9":0.08261695307281161,"10":-0.023765010056148166,"11":0.2160122961293599,"12":0.05561427226896878,"13":0.07897651336513421,"14":-0.0069335604090362745,"15":-0.192447745139629,"16":-0.19563163615561188,"17":-0.03972075616774179,"18":-0.48639981861848397,"19":-0.27559655148392476,"20":0.16957462345519697,"21":0.2195623460241094,"22":0.22246228779930788,"23":-0.24534359345372947,"24":-0.085301176161234,"25":0.3689149711266638,"26":0.2432935139440031,"27":0.016494919526982815,"28":-0.43725118240953803,"29":0.16935589697431064,"30":0.10903412358727184,"31":-0.2072521895826012,"32":-0.2796897472111189,"33":-0.4391820677575727,"34":0.24573143770333009,"35":0.25773503498256617,"36":0.3597668792137657,"37":0.23250174538347465,"38":-0.14003343532723694,"39":0.0005199913647122287,"40":0.20716247718868688,"41":-0.305445105948066,"42":-0.0953198065478975,"43":-0.11038187634537204,"44":-0.23937511615924595,"45":0.10520206126125761,"46":-0.09773047724265138,"47":-0.2507382826223076,"48":-0.1737380742683833,"49":-0.5087960108536855,"50":-0.35278413500895955,"51":0.1700039858763317,"52":-0.12209404200435008,"53":-0.02782972271481385,"54":0.32926589455147304,"55":0.19045483417634196,"56":0.055819339823576786,"57":-0.45324357497388845,"58":-0.2378120789127851,"59":0.38412394699471814,"60":0.18685739318701627,"61":0.3658472288511744,"62":0.4639321927476047,"63":0.2462359854759007,"64":0.06286332000773785,"65":-0.29365912756234597,"66":-0.1956476106490758,"67":-0.2736184536366584,"68":-0.40864473608750007,"69":-0.11266841316670749,"70":-0.19598286252157218,"71":-0.0524647738307133,"72":-0.37402825827431707,"73":-0.07913038280079983,"74":0.21638862977301515,"75":0.1964628393428522,"76":-0.21175067785242896,"77":-0.15788984416034338,"78":-0.06941116846382928,"79":0.21177602781486574,"80":-0.2248842639843518,"81":-0.12494298418091981,"82":0.368091042305347,"83":0.20100876591204542,"84":-0.0025766731436731305,"85":-0.0010825926217619595,"86":0.020707933208643673,"87":-0.23776105663743707,"88":-0.2409838251749714,"89":0.36610237772062054,"90":0.07851688022680739,"91":0.188092896053782,"92":-0.07778067214662943,"93":-0.31070531900263115,"94":0.13471089425437463,"95":0.15236480253351395,"96":0.2392133294147733,"97":0.43837208955651297,"98":0.29793543646083515,"99":0.05964035064508356,"100":0.13882453479799553,"101":-0.007372591847562012,"102":-0.22490563335382013,"103":0.2313795955307002,"104":-0.06745729487476719,"105":0.17974336652938452,"106":-0.43996310362358065,"107":-0.23001637568341507,"108":-0.013961389183572174,"109":0.0452419442751866,"110":0.31425145027552986,"111":0.21922592758655918,"112":0.09093028567849985,"113":0.26944932009485006,"114":-0.09334060943560894,"115":-0.03190336496322798,"116":-0.24598795902242454,"117":-0.16082563293001004,"118":-0.08153169046465623,"119":0.303690680393434,"120":0.313415334545789,"121":-0.22043820861760774,"122":-0.653868708382818,"123":-0.2601432806832909,"124":0.043908767919091984,"125":-0.04627190503018301,"126":0.28350044948513525,"127":0.2936588013180306,"128":-0.021940049177885022,"129":0.19723707474865937,"130":-0.15331035222968653,"131":-0.22679749246404365,"132":0.03840167213879413,"133":0.2622138096610511,"134":-0.006557187999708889,"135":-0.015624493800662954,"136":0.12679878695942326,"137":-0.2594808920410776,"138":0.04591879274578984,"139":-0.32105088592342684,"140":0.016224077230633613,"141":0.08701416615013491,"142":0.2715982234112039,"143":0.26871151600742793,"144":0.19442391347678378,"145":-0.01711014170297202,"146":-0.05153283542372367,"147":-0.18430204573025435,"148":0.12734363343672336,"149":0.15778637386328595,"150":-0.11529604790286656,"151":-0.20760447196513618,"152":0.08571769511000656,"153":-0.3340641877035162,"154":-0.2764169071968344,"155":0.08051914035210661,"156":0.04057079829033712,"157":0.14732107418208085,"158":0.03163250965800844,"159":-0.11611599523095958,"160":0.1771218173271908,"161":0.11734544328729794,"162":-0.33355742512347836,"163":-0.21361114189263117,"164":0.045780554697278555,"165":0.04575705794081133,"166":-0.21997465376765615,"167":-0.2645882515901108,"168":-0.09153118336292568,"169":-0.03592789115369328,"170":-0.20620411330789074,"171":0.027857188507329975,"172":-0.010002062994007107,"173":-0.4729847256163164,"174":-0.05790390050954841,"175":0.3138819293006645,"176":0.2836698467935697,"177":-0.0645760718791411,"178":0.17921306758537342,"179":-0.18474351383409265,"180":-0.20110766777443745,"181":-0.34024354427157427,"182":-0.5322232883260168,"183":-0.41080362740499426,"184":-0.4654009298017325,"185":0.2564892684518058,"186":0.0352901985089721,"187":-0.22339396966632147,"188":0.2683199433698656,"189":0.12491185238001022,"190":0.2073060899665924,"191":0.41975763844512703,"192":-0.037017106452222115,"193":0.252556837280812,"194":-0.019776841132432516,"195":0.04848865907114062,"196":0.06886843904452578,"197":0.0016457978819012444,"198":-0.19900596355787398,"199":-0.4331858910131369,"200":-0.31994427626855626,"201":-0.2985935756441238,"202":0.08783915013225593,"203":-0.2309132469638258,"204":0.03948422509988577,"205":-0.21991830880096597,"206":-0.0650995961585714,"207":0.8099392295154377,"208":-0.09940849621210598,"209":0.1714442935963025,"210":0.07196027551834314,"211":0.09101695192253684,"212":0.12096897235499898,"213":0.2735148554745725,"214":0.07894980301541175,"215":-0.06638507908909835,"216":-0.33875868375018314,"217":-0.25825707157540206,"218":0.11095863170624987,"219":0.07076451656803247,"220":-0.19165580570723,"221":0.2900050048434705,"222":0.28350272694154216,"223":-0.08486164913566215,"224":0.014868077308832614,"225":0.14573736589714884,"226":-0.4663521744575835,"227":0.07453651566119629,"228":0.49284829332438657,"229":0.2875138318573919,"230":-0.1435578994026686,"231":0.20393546279212674,"232":-0.0038237992623320043,"233":0.6563781147225138,"234":0.2761216090220273,"235":-0.21569478080474505,"236":0.03086658655486824,"237":-0.0814991112083626,"238":-0.011170498504301811,"239":0.028543887009901507,"240":-0.0872882698854802,"241":-0.2860911205677592,"242":-0.23564739504714108,"243":-0.20613572564678048,"244":0.1544732963780693,"245":0.4284505323370155,"246":0.5547009689318977,"247":0.42716445124106195,"248":0.23572886591474881,"249":0.4900182767870273,"250":0.5143729036422898,"251":0.004471467740430667,"252":0.2896031721428143,"253":-0.0667738165007334,"254":-0.048762710535485976,"255":-0.3817519003220482}},"12":{"bias":0.32022854179508,"weights":{"0":0.13062021574224822,"1":0.15292289448219964,"2":0.23355400071911475,"3":0.027659705191831342,"4":-0.16622267079953143,"5":-0.2539554036948827,"6":-0.14704812538625042,"7":-0.14670954401325695,"8":0.014834377547554891,"9":0.01999512527358518,"10":-0.12066551157065039,"11":-0.2592184100363677,"12":-0.045552662269282486,"13":0.47594304616021316,"14":0.45724300810942126,"15":0.19377621764403383,"16":0.12314409012399283,"17":-0.005773983373519372,"18":0.1078467427206627,"19":0.1434284032098147,"20":-0.21395611083496427,"21":-0.04930456910715163,"22":0.012936554620115658,"23":0.657486485580095,"24":0.6439047182565777,"25":0.247657107656667,"26":0.28726430366203765,"27":-0.013357322024944844,"28":0.17528310415010973,"29":-0.33617208559410244,"30":0.13960014737439502,"31":0.1516087074038763,"32":0.15731343850518908,"33":0.23679286666316438,"34":-0.23059002615963664,"35":0.07229460841077284,"36":-0.05581952256013249,"37":0.32373638659060516,"38":0.278117226300611,"39":0.2103202796707025,"40":0.32517072339187875,"41":0.6485469011685493,"42":0.030618414510331104,"43":0.28006612923941915,"44":0.455481857583058,"45":-0.007361623471412496,"46":-0.15859881372542722,"47":-0.16903537198460206,"48":0.12035822861460516,"49":0.2787797579523676,"50":0.013228282419264527,"51":0.3645436527271671,"52":0.10486058209133058,"53":0.3999184297483607,"54":0.38710441046641275,"55":0.37278505483589736,"56":-0.1504054470121305,"57":-0.21468923266565446,"58":-0.6029351304925267,"59":-0.5091813495876847,"60":-0.11450062956647873,"61":0.0654745983608848,"62":-0.08248735687549859,"63":-0.37952954590531207,"64":0.09504539924603875,"65":0.4602580806404656,"66":-0.30043317301184363,"67":0.5036335724703171,"68":0.45748589019211255,"69":0.05392767413384182,"70":0.38204892596543644,"71":0.07808929577182144,"72":-0.37344668685721816,"73":-0.25904196280690106,"74":0.1679037077043341,"75":0.2898260013479016,"76":0.15080147498832353,"77":-0.26049925854701583,"78":0.14871601254494565,"79":-0.5216730501851086,"80":0.1930557340182313,"81":-0.22363195189210006,"82":0.2151285087694192,"83":0.1459238724141347,"84":-0.2980177036072956,"85":-0.4829659991344888,"86":0.1879796214181766,"87":-0.6354133107416107,"88":-0.5470178403889985,"89":-0.26323069238703295,"90":-0.08463491299455374,"91":0.16372974880498758,"92":-0.19916317888019955,"93":0.22145052644993432,"94":0.06064886756843191,"95":-0.15779286808965914,"96":-0.05622696468909269,"97":-0.14803283851690877,"98":0.026250329172386476,"99":-0.17220306668839624,"100":0.0888373140880705,"101":0.1703486232294319,"102":0.3072766092831533,"103":-0.5815657468960719,"104":-0.22642016883889504,"105":-0.11992858248308252,"106":0.1759686961449591,"107":0.3249352795944157,"108":0.14843829722855673,"109":-0.0059967553018685695,"110":0.24744885883797607,"111":0.18075338450166195,"112":-0.17207652356821784,"113":0.032434523818498935,"114":-0.014609897038893494,"115":0.3696215625072133,"116":0.25227438118127704,"117":0.3556234359175686,"118":-0.13013100426358806,"119":-0.12288729745554963,"120":-0.3983987237512993,"121":-0.04229137640683095,"122":-0.16576945620942699,"123":-0.006176840892126564,"124":0.08519812166611564,"125":0.08877509833447596,"126":0.24919131196484698,"127":0.1885438461865659,"128":-0.19546194888910584,"129":0.14373239653819242,"130":0.010385086216148393,"131":0.12858980220629884,"132":-0.12191019620881412,"133":0.010339964964750105,"134":0.49407128049322735,"135":-0.03424916023589508,"136":0.16926176761141148,"137":0.11119624586342552,"138":0.3042661467051597,"139":-0.13793881538315683,"140":-0.13588569867427158,"141":-0.3274702336825366,"142":-0.16113268716908077,"143":-0.10615601893476377,"144":-0.024202509209301604,"145":-0.3165677405178774,"146":-0.1711387223144518,"147":-0.08450127968427691,"148":0.4703246271237544,"149":0.16651721140987152,"150":0.33934704333027804,"151":0.05349995403030678,"152":0.15985842508886028,"153":0.0366945907780572,"154":0.46084897582450707,"155":0.23868732503258017,"156":-0.23561729796551548,"157":-0.3336549557228052,"158":-0.08818690388007831,"159":-0.39558466303692724,"160":-0.07038876434284133,"161":-0.4741134623363981,"162":-0.30943795366142895,"163":-0.17591230416200396,"164":-0.1598423868770932,"165":0.2420734999212136,"166":0.07027942103646326,"167":0.14079337595847746,"168":0.4608100578218008,"169":0.8366642823210035,"170":0.6802293234197228,"171":0.34212986201254686,"172":-0.03682192351335423,"173":-0.2389597662110098,"174":-0.18851029179355364,"175":-0.0960018539270367,"176":-0.4714544111505357,"177":-0.18763827867585617,"178":0.07393321031232332,"179":-0.1405674289344469,"180":0.2627914599508171,"181":0.14806043517398984,"182":0.47642525597353275,"183":-0.004181338596291494,"184":0.014231041164896317,"185":0.2578435310096054,"186":0.1908459516508902,"187":-0.3263629995237622,"188":-0.08921221070262424,"189":-0.22082929488114414,"190":-0.1911657981408595,"191":-0.4152557800635845,"192":-0.42254801433386335,"193":-0.27808165528638074,"194":0.031416041750555485,"195":0.14929404552865763,"196":0.09788809590997793,"197":0.08971873759436565,"198":-0.09422092835801493,"199":-0.2552911578474954,"200":-0.5075718328719444,"201":-0.19905234205544745,"202":-0.18291644142111824,"203":-0.29584354785366135,"204":0.0809043548187253,"205":0.242464076799754,"206":-0.08360032909272683,"207":-0.3054955604211236,"208":-0.3082201401004573,"209":-0.18844021713426054,"210":0.0672728351367629,"211":0.07652939395388898,"212":-0.0993374955229789,"213":-0.042800200007975096,"214":-0.18712381125251057,"215":-0.5406401200771016,"216":-0.29252269400945896,"217":-0.011006959040675914,"218":-0.1100106007285414,"219":0.3581561163880918,"220":-0.02508001617732431,"221":-0.1258826436484137,"222":-0.5656545336801763,"223":0.01373578183742328,"224":0.066129219849253,"225":-0.23190107357237544,"226":0.10241575366652059,"227":-0.15188139368040315,"228":-0.08972061051401096,"229":-0.1811273885303633,"230":-0.00427507199807152,"231":-0.5849246152294095,"232":-0.14185991417450086,"233":-0.2245732838048853,"234":-0.1483611913040899,"235":0.10064431809937535,"236":-0.05449600673959115,"237":-0.045691351872772026,"238":-0.5752713241137589,"239":-0.3850233492446913,"240":0.24336031004134026,"241":0.20106169096736884,"242":0.2640365562622814,"243":-0.197854773958856,"244":-0.32669816929484374,"245":0.03753092743345481,"246":-0.14252729892053645,"247":0.019889219742141664,"248":-0.18689618338962374,"249":-0.18730490542909883,"250":-0.3526753027277132,"251":-0.38381865875415605,"252":-0.7332907708722077,"253":-0.07445202810818093,"254":0.0658937443504488,"255":0.015295790694021963}},"13":{"bias":0.5129155535146547,"weights":{"0":0.19606892986793903,"1":0.025728199628966563,"2":0.26942980963045754,"3":-0.004938633036070589,"4":0.1899132612977626,"5":-0.24705820944659646,"6":-0.02356679054047413,"7":-0.5701075423585164,"8":-0.42181496515681377,"9":-0.3098451934081365,"10":-0.09580907419277548,"11":0.346057907976329,"12":-0.14394932816857106,"13":-0.16913697888485593,"14":0.12448462359821048,"15":0.1623450050523439,"16":0.06406206071290446,"17":0.16034618579633056,"18":0.08754924596417986,"19":0.25862844435657695,"20":-0.028909485786687235,"21":0.014543846991840739,"22":-0.17832617808252332,"23":-0.19723610967972996,"24":-0.3570728626145763,"25":-0.5759418785311605,"26":-0.460626548390617,"27":0.21953728481144594,"28":0.33338034995300575,"29":-0.10077778797988546,"30":-0.1170603710939161,"31":0.4373617080656146,"32":0.6482813284677453,"33":0.5081290999315496,"34":0.2612407755853724,"35":-0.2543704435677961,"36":-0.16153260013222825,"37":-0.08226452498814334,"38":0.05765092813742276,"39":0.14548988912883518,"40":-0.7088155674941023,"41":-0.08572515747762385,"42":0.27409743266497416,"43":0.42959932478199536,"44":0.08555824695860603,"45":-0.07897553504261637,"46":-0.010225140971807609,"47":0.39917994778510474,"48":0.10470076648854086,"49":0.3656943443087441,"50":-0.07813115230190854,"51":-0.35016339003608515,"52":-0.41513379257948446,"53":-0.4615858803105322,"54":-0.6111245694986566,"55":-0.3223879119365453,"56":-0.35306318301800066,"57":0.2885351999336318,"58":0.11280919824924579,"59":0.11186255890022744,"60":-0.07951117608335237,"61":-0.03201928761291794,"62":-0.16865536268072542,"63":-0.5574586245256262,"64":-0.25928650562603967,"65":0.25773788202907133,"66":0.30639801950575785,"67":0.03716955025791101,"68":0.18476359523372912,"69":0.3433752776926373,"70":0.43288295897692236,"71":0.10357238366407488,"72":0.12991619372062918,"73":0.4603700200185536,"74":0.10274107037904338,"75":0.45295592758197145,"76":0.12677869101264086,"77":0.08542706550008058,"78":-0.038323489493865166,"79":-0.014485291242509349,"80":0.07506991791014146,"81":-0.20611627363204846,"82":0.10116213046219126,"83":-0.18345005093908265,"84":-0.14328694324729585,"85":0.2137660300890996,"86":0.2322267556932637,"87":0.1457554669093099,"88":0.10455531822779966,"89":0.09015771410218222,"90":0.2868583339070106,"91":0.48397549472490814,"92":0.23052936160142273,"93":0.09927325072758945,"94":-0.17530610313842904,"95":-0.07167350745407139,"96":0.05845306527786821,"97":-0.04403830878804491,"98":-0.3380914151624365,"99":-0.7188226535729197,"100":-0.04923648956761242,"101":-0.0019503493875035521,"102":0.3682645868497032,"103":0.13252449207968148,"104":0.09599007120145063,"105":0.4712486146366224,"106":0.2857225578783331,"107":-0.05757871558776473,"108":0.43856898993073484,"109":0.0867435012111252,"110":-0.3454878580539353,"111":-0.6011763738636302,"112":0.3122452647370147,"113":-0.15878275566137656,"114":-0.39051893270934585,"115":-0.5656262756782929,"116":-0.22693204174930598,"117":0.10501343646486112,"118":0.3910492986333723,"119":0.23848323343156416,"120":0.608215970207545,"121":0.5045790000372259,"122":0.3495393435453597,"123":0.024380122466933805,"124":0.03322814402888489,"125":0.4187190030589856,"126":-0.22929425466839454,"127":-0.3106890722127223,"128":0.03657224678345351,"129":0.10938745397300402,"130":-0.3116756605095783,"131":-0.31426275441836193,"132":-0.12435947570740774,"133":0.0347753378364996,"134":0.13181790842074786,"135":0.06051958973043048,"136":0.44076987984779614,"137":0.3732884382436135,"138":0.4620339134325982,"139":0.052157867107114175,"140":0.24829871504018847,"141":0.12033248960268689,"142":-0.1859650541086629,"143":-0.3306812043356785,"144":-0.10488829680924236,"145":0.14731888501712867,"146":-0.3143816858007865,"147":-0.2900255263411845,"148":-0.27959188208901803,"149":-0.34418618521668365,"150":-0.09213835960892029,"151":0.07649804736363139,"152":0.31519730630453335,"153":0.1147294497699818,"154":0.35506311326765416,"155":0.30783292128040607,"156":0.5163830280442585,"157":0.30572452443397147,"158":-0.04649609887759743,"159":-0.2613252809157995,"160":0.03066284475815117,"161":0.14136837220290846,"162":-0.306937355613966,"163":-0.505651727886489,"164":-0.1043941213788819,"165":0.0708167341549177,"166":0.2559347159005225,"167":0.22308041332027467,"168":0.04530835344150878,"169":0.09604896650984808,"170":0.11245490830672197,"171":0.4835982050780884,"172":0.2781325578060854,"173":0.16212665980885735,"174":-0.2727528808778297,"175":-0.284890751897051,"176":-0.08683047266331073,"177":0.21511474390499963,"178":-0.18639307269515687,"179":-0.05457488733005214,"180":-0.11360932117046371,"181":-0.2695463995232782,"182":0.21127760652626623,"183":0.11015489773159946,"184":0.34383619764670403,"185":0.058555076609255255,"186":0.11055550114139974,"187":0.3646601081327567,"188":0.02778679099176881,"189":-0.03352801113348551,"190":-0.042966240869193865,"191":-0.13499652652343377,"192":-0.02801764249338636,"193":-0.029284607915512996,"194":-0.02382188453565568,"195":-0.3587130498210947,"196":-0.10232136579377797,"197":-0.12036458557250608,"198":-0.3128558201760235,"199":0.3570571842674999,"200":0.11427463508639421,"201":0.1721988693380944,"202":0.022677052251474254,"203":-0.2586410736484086,"204":0.039192099988691276,"205":-0.022154021938212084,"206":-0.15138643229773666,"207":0.025211178016477997,"208":0.29596957173628485,"209":0.07253354101148887,"210":0.0724031734495883,"211":-0.07736312968935151,"212":-0.17959064877219208,"213":-0.08683051710340113,"214":0.07856680988121707,"215":0.022957217813591158,"216":0.18590269724143138,"217":-0.1377859624853219,"218":-0.6416608601776193,"219":-0.24982659773015803,"220":-0.09858355649400101,"221":-0.33020202845922275,"222":-0.11969091928043837,"223":-0.1769426759967737,"224":0.36721520271328983,"225":0.051031566448949295,"226":-0.033807846693350185,"227":0.08838498598487553,"228":-0.1388547220018706,"229":-0.4142381583365531,"230":-0.49887446072344704,"231":-0.2849944862011249,"232":-0.1863428198074056,"233":-0.4455727922031619,"234":-0.5268677512626407,"235":-0.5207190820041366,"236":-0.03519495021391501,"237":-0.14434949297328992,"238":-0.21041292748317417,"239":-0.25858035746057234,"240":0.1352897152197764,"241":0.4561980293899276,"242":0.3699863827022793,"243":-0.21370352925819572,"244":0.002847333597971555,"245":-0.1127488920998041,"246":-0.23311615337782413,"247":-0.47006873190632154,"248":-0.2555183081497462,"249":-0.6542396270213122,"250":-0.4353013166826517,"251":-0.058413894783201345,"252":-0.1796171603311585,"253":-0.07121942069213505,"254":0.3758909153297851,"255":0.3389262822769582}},"14":{"bias":0.205897881995356,"weights":{"0":-0.18134552781152316,"1":-0.09504901327897575,"2":-0.03817637378629391,"3":-0.004251181336949024,"4":0.026500032342726947,"5":-0.18065352108858657,"6":0.060129266512166754,"7":0.07881402805655044,"8":0.09253067927835616,"9":0.08823974634459421,"10":0.02250045761672769,"11":0.18532697470086873,"12":0.04707190391701844,"13":-0.35334121746534575,"14":-0.019100213168501006,"15":-0.30001101306509637,"16":-0.15149231917108855,"17":-0.25077610420679136,"18":-0.32361106675901946,"19":-0.19229861314510252,"20":-0.15191915594968958,"21":-0.2959802348286448,"22":-0.5371173887081557,"23":-0.5680657502763747,"24":-0.6385463579918297,"25":-0.547523995722034,"26":0.21436473891912497,"27":0.33367554559479035,"28":0.3632889009063208,"29":0.10017415253194929,"30":0.025846169935864898,"31":0.39536945977944304,"32":0.20640839225104401,"33":-0.16668672018725172,"34":-0.05267267782428892,"35":-0.20384806867663363,"36":-0.2000522494057066,"37":-0.2853058619319056,"38":-0.15610533538432944,"39":-0.2424203134281621,"40":-0.1573120137635758,"41":-0.2475516286301769,"42":0.19900331675628558,"43":0.40160252776483013,"44":0.25545383482780476,"45":0.17667494782994506,"46":0.02974041276600009,"47":-0.09513324933390012,"48":-0.08768248556077234,"49":0.060347113809151524,"50":-0.28035821043381876,"51":-0.6470674900190014,"52":-0.2621438972963958,"53":-0.3091920784680376,"54":-0.5381599844119315,"55":-0.436308161874491,"56":-0.26083724800135594,"57":-0.10795765806076031,"58":0.08701578390296984,"59":-0.18456208260053197,"60":0.12195430962239238,"61":0.28242744889608623,"62":0.19779336509647905,"63":-0.11518293445107919,"64":-0.17906804151811204,"65":-0.003324781652796472,"66":0.3321571113567617,"67":-0.22180188941633744,"68":-0.3199677583798444,"69":-0.09469140434565403,"70":-0.03669783572049271,"71":0.02082410021925096,"72":-0.1509782646790804,"73":0.0077530857101720365,"74":-0.19924778924842726,"75":-0.009929910555984266,"76":0.29172783316498957,"77":0.49254808458528515,"78":0.4296320198696203,"79":0.1554189803221781,"80":-0.32016463588683725,"81":-0.35339262999849497,"82":-0.25824191278399705,"83":-0.07776520393813321,"84":0.05788811411305459,"85":0.14379664667158484,"86":-0.18668763290198265,"87":-0.003623597120744558,"88":0.13810708542438885,"89":-0.15621128380952037,"90":0.1526916805039427,"91":0.20804224670648983,"92":0.49549798387119104,"93":0.2338041905340127,"94":0.36344643461125625,"95":0.36068673151793174,"96":0.0743186706554056,"97":-0.09615095177633304,"98":0.0007227469274131842,"99":0.010805867372110312,"100":0.3003347423686449,"101":0.21409702473883097,"102":-0.19788235920433464,"103":0.014613407167871266,"104":-0.08158724398597111,"105":-0.3171198776575114,"106":0.03678074289094742,"107":0.09226986367807236,"108":0.40782069901257073,"109":0.33206513826799694,"110":0.24937955500990283,"111":0.25983749502993736,"112":-0.05940799965591538,"113":-0.20519418553022667,"114":-0.2146996199405436,"115":-0.16237271087639232,"116":-0.3380520604311567,"117":-0.05372521504535115,"118":0.06674142546811905,"119":0.13971242215165877,"120":0.1012475886673962,"121":-0.30234313069286906,"122":0.16617486899768727,"123":0.20522830912122708,"124":0.19504285583898703,"125":-0.01667245380574586,"126":0.22880384952018917,"127":0.21873800727079631,"128":-0.06634330990889528,"129":-0.3692424209634511,"130":0.010990613792697999,"131":-0.1199032020103562,"132":-0.014783561683984984,"133":-0.04711484865361143,"134":-0.10991597159194014,"135":-0.0825086434054304,"136":-0.06802242435096519,"137":-0.2634652950849631,"138":0.13100654117311863,"139":0.2515241047442343,"140":-0.02792648587406062,"141":0.054239371797844146,"142":0.2495491098522728,"143":0.06129658396320561,"144":-0.31817940265375044,"145":-0.5900387233234408,"146":0.21177334344327203,"147":0.03316707191882021,"148":0.06905146444902956,"149":0.2171613366669473,"150":0.03533507165358929,"151":0.010088622928199916,"152":-0.10263465968678516,"153":-0.15333320416120452,"154":0.2445133991494852,"155":-0.202746719694198,"156":0.17504069395124613,"157":-0.05141771639444128,"158":0.17270373936355435,"159":0.28304609574760015,"160":-0.5593494502467252,"161":-0.23923010910871637,"162":-0.10806194438763769,"163":0.1679901427005112,"164":0.3499136889569397,"165":-0.013284361106545428,"166":0.21389026229941993,"167":0.014685710017630322,"168":0.03388046565857929,"169":-0.14721710967132284,"170":0.04344761187963873,"171":-0.3452145599793246,"172":-0.09816756422530919,"173":-0.122411151702077,"174":0.3299431206647668,"175":0.29912950743307837,"176":0.20689327386375403,"177":-0.1755566584635264,"178":0.1420542228027322,"179":-0.0728612923516584,"180":-0.09906398657058565,