{"layers":[{"0":{},"1":{},"2":{},"3":{},"4":{},"5":{},"6":{},"7":{},"8":{},"9":{},"10":{},"11":{},"12":{},"13":{},"14":{},"15":{},"16":{},"17":{},"18":{},"19":{},"20":{},"21":{},"22":{},"23":{},"24":{},"25":{},"26":{},"27":{},"28":{},"29":{},"30":{},"31":{},"32":{},"33":{},"34":{},"35":{},"36":{},"37":{},"38":{},"39":{},"40":{},"41":{},"42":{},"43":{},"44":{},"45":{},"46":{},"47":{},"48":{},"49":{},"50":{},"51":{},"52":{},"53":{},"54":{},"55":{},"56":{},"57":{},"58":{},"59":{},"60":{},"61":{},"62":{},"63":{},"64":{},"65":{},"66":{},"67":{},"68":{},"69":{},"70":{},"71":{},"72":{},"73":{},"74":{},"75":{},"76":{},"77":{},"78":{},"79":{},"80":{},"81":{},"82":{},"83":{},"84":{},"85":{},"86":{},"87":{},"88":{},"89":{},"90":{},"91":{},"92":{},"93":{},"94":{},"95":{},"96":{},"97":{},"98":{},"99":{},"100":{},"101":{},"102":{},"103":{},"104":{},"105":{},"106":{},"107":{},"108":{},"109":{},"110":{},"111":{},"112":{},"113":{},"114":{},"115":{},"116":{},"117":{},"118":{},"119":{},"120":{},"121":{},"122":{},"123":{},"124":{},"125":{},"126":{},"127":{},"128":{},"129":{},"130":{},"131":{},"132":{},"133":{},"134":{},"135":{},"136":{},"137":{},"138":{},"139":{},"140":{},"141":{},"142":{},"143":{},"144":{},"145":{},"146":{},"147":{},"148":{},"149":{},"150":{},"151":{},"152":{},"153":{},"154":{},"155":{},"156":{},"157":{},"158":{},"159":{},"160":{},"161":{},"162":{},"163":{},"164":{},"165":{},"166":{},"167":{},"168":{},"169":{},"170":{},"171":{},"172":{},"173":{},"174":{},"175":{},"176":{},"177":{},"178":{},"179":{},"180":{},"181":{},"182":{},"183":{},"184":{},"185":{},"186":{},"187":{},"188":{},"189":{},"190":{},"191":{},"192":{},"193":{},"194":{},"195":{},"196":{},"197":{},"198":{},"199":{},"200":{},"201":{},"202":{},"203":{},"204":{},"205":{},"206":{},"207":{},"208":{},"209":{},"210":{},"211":{},"212":{},"213":{},"214":{},"215":{},"216":{},"217":{},"218":{},"219":{},"220":{},"221":{},"222":{},"223":{},"224":{},"225":{},"226":{},"227":{},"228":{},"229":{},"230":{},"231":{},"232":{},"233":{},"234":{},"235":{},"236":{},"237":{},"238":{},"239":{},"240":{},"241":{},"242":{},"243":{},"244":{},"245":{},"246":{},"247":{},"248":{},"249":{},"250":{},"251":{},"252":{},"253":{},"254":{},"255":{},"256":{},"257":{},"258":{},"259":{},"260":{},"261":{},"262":{},"263":{},"264":{},"265":{},"266":{},"267":{},"268":{},"269":{},"270":{},"271":{},"272":{},"273":{},"274":{},"275":{},"276":{},"277":{},"278":{},"279":{},"280":{},"281":{},"282":{},"283":{},"284":{},"285":{},"286":{},"287":{},"288":{},"289":{},"290":{},"291":{},"292":{},"293":{},"294":{},"295":{},"296":{},"297":{},"298":{},"299":{},"300":{},"301":{},"302":{},"303":{},"304":{},"305":{},"306":{},"307":{},"308":{},"309":{},"310":{},"311":{},"312":{},"313":{},"314":{},"315":{},"316":{},"317":{},"318":{},"319":{},"320":{},"321":{},"322":{},"323":{},"324":{},"325":{},"326":{},"327":{},"328":{},"329":{},"330":{},"331":{},"332":{},"333":{},"334":{},"335":{},"336":{},"337":{},"338":{},"339":{},"340":{},"341":{},"342":{},"343":{},"344":{},"345":{},"346":{},"347":{},"348":{},"349":{},"350":{},"351":{},"352":{},"353":{},"354":{},"355":{},"356":{},"357":{},"358":{},"359":{},"360":{},"361":{},"362":{},"363":{},"364":{},"365":{},"366":{},"367":{},"368":{},"369":{},"370":{},"371":{},"372":{},"373":{},"374":{},"375":{},"376":{},"377":{},"378":{},"379":{},"380":{},"381":{},"382":{},"383":{},"384":{},"385":{},"386":{},"387":{},"388":{},"389":{},"390":{},"391":{},"392":{},"393":{},"394":{},"395":{},"396":{},"397":{},"398":{},"399":{},"400":{},"401":{},"402":{},"403":{},"404":{},"405":{},"406":{},"407":{},"408":{},"409":{},"410":{},"411":{},"412":{},"413":{},"414":{},"415":{},"416":{},"417":{},"418":{},"419":{},"420":{},"421":{},"422":{},"423":{},"424":{},"425":{},"426":{},"427":{},"428":{},"429":{},"430":{},"431":{},"432":{},"433":{},"434":{},"435":{},"436":{},"437":{},"438":{},"439":{},"440":{},"441":{},"442":{},"443":{},"444":{},"445":{},"446":{},"447":{},"448":{},"449":{},"450":{},"451":{},"452":{},"453":{},"454":{},"455":{},"456":{},"457":{},"458":{},"459":{},"460":{},"461":{},"462":{},"463":{},"464":{},"465":{},"466":{},"467":{},"468":{},"469":{},"470":{},"471":{},"472":{},"473":{},"474":{},"475":{},"476":{},"477":{},"478":{},"479":{},"480":{},"481":{},"482":{},"483":{},"484":{},"485":{},"486":{},"487":{},"488":{},"489":{},"490":{},"491":{},"492":{},"493":{},"494":{},"495":{},"496":{},"497":{},"498":{},"499":{},"500":{},"501":{},"502":{},"503":{},"504":{},"505":{},"506":{},"507":{},"508":{},"509":{},"510":{},"511":{},"512":{},"513":{},"514":{},"515":{},"516":{},"517":{},"518":{},"519":{},"520":{},"521":{},"522":{},"523":{},"524":{},"525":{},"526":{},"527":{},"528":{},"529":{},"530":{},"531":{},"532":{},"533":{},"534":{},"535":{},"536":{},"537":{},"538":{},"539":{},"540":{},"541":{},"542":{},"543":{},"544":{},"545":{},"546":{},"547":{},"548":{},"549":{},"550":{},"551":{},"552":{},"553":{},"554":{},"555":{},"556":{},"557":{},"558":{},"559":{},"560":{},"561":{},"562":{},"563":{},"564":{},"565":{},"566":{},"567":{},"568":{},"569":{},"570":{},"571":{},"572":{},"573":{},"574":{},"575":{}},{"0":{"bias":-0.03220781810490297,"weights":{"0":0.21700834753861825,"1":0.02889242896390434,"2":0.28215139051095667,"3":0.2197626441069843,"4":0.02300018427054869,"5":-0.1879882270351037,"6":-0.18213064150431985,"7":-0.1256005163956806,"8":0.03958134321396002,"9":0.028551535702128622,"10":0.03654577126575399,"11":0.00829794670876602,"12":-0.11447585572803677,"13":-0.24449177378521994,"14":0.07695822605583624,"15":0.014518487356507183,"16":-0.14353789300954992,"17":-0.08414990111251379,"18":0.07309924060338399,"19":0.19483272099211166,"20":-0.0773436773295942,"21":-0.1869863128854049,"22":-0.07967123807217767,"23":0.1759850482486107,"24":-0.015528259008628193,"25":0.2438066639486969,"26":0.1262262968845425,"27":0.22401238240463814,"28":0.16746740665416826,"29":-0.23217279507536476,"30":-0.1458192951692514,"31":0.055329164728720646,"32":0.228075582043416,"33":-0.043816356160698074,"34":0.0824540465572257,"35":0.1333316077388917,"36":-0.1196379061731609,"37":-0.2118960378227939,"38":-0.10092420183787262,"39":-0.07864176569241081,"40":0.04982809634996815,"41":0.04647976889155494,"42":-0.15844192853630687,"43":0.0075462454058661385,"44":-0.07435386201141297,"45":-0.026412004050045398,"46":-0.060974505991320406,"47":0.22564022164445516,"48":-0.02835484353776108,"49":0.07017261846680335,"50":0.2579972120193873,"51":0.06557474789093631,"52":-0.09963885852511808,"53":-0.06734752365113059,"54":-0.018048978545546254,"55":0.06794345296406448,"56":-0.15002081996062228,"57":-0.15735660437743249,"58":0.16666060174619238,"59":0.16824438740737094,"60":0.10926656493721963,"61":-0.09240356193700881,"62":-0.008447421700638832,"63":-0.1653217142361511,"64":0.05012725655604348,"65":-0.09164459227872185,"66":-0.13198331077533806,"67":0.10595427361267554,"68":0.1584496322139825,"69":0.1272036287571861,"70":-0.17003215726844928,"71":0.013550275133815303,"72":0.17207913036467792,"73":-0.05859031682374134,"74":0.13486524667178074,"75":0.21029577291345433,"76":-0.0493625357580584,"77":-0.11658076893028363,"78":-0.08675095018118184,"79":0.22169677003422794,"80":0.03456564610195768,"81":0.045840855887362246,"82":0.0293546238206696,"83":-0.1418011234428543,"84":-0.003876852700458207,"85":0.16961153990373937,"86":0.12917920892890694,"87":-0.1864954404188555,"88":0.03188570295749349,"89":-0.24500063808153316,"90":-0.015210915306015513,"91":-0.08223065265843302,"92":0.048105138626515845,"93":-0.04972798063690152,"94":0.003971067822358215,"95":0.04346746388510533,"96":-0.11242926522090964,"97":0.23463310359991363,"98":0.0211630401746715,"99":0.1824853019355764,"100":0.19679477676691468,"101":-0.03851639463663045,"102":0.10518692192786458,"103":0.14675258698019095,"104":-0.10066030046675285,"105":-0.03743214670793983,"106":-0.14330816003970798,"107":0.2113540845325947,"108":-0.001952429593356234,"109":-0.17959172881329555,"110":0.1389090478523543,"111":-0.16052597057130144,"112":-0.08680921096444176,"113":-0.08055711285684804,"114":-0.17647988969455397,"115":-0.1662849523269337,"116":-0.183769283749768,"117":0.1268995963396851,"118":-0.17256272665208752,"119":0.05839130121857304,"120":-0.16536858101197321,"121":-0.06658099691697614,"122":-0.058861127735344534,"123":-0.14861602370981786,"124":0.07531958776318769,"125":-0.007130661016516963,"126":-0.07333740914145849,"127":-0.12464401194846826,"128":-0.14319098064022548,"129":0.0024155244637874837,"130":-0.14470357521519464,"131":0.029817102734221012,"132":-0.06587982931573803,"133":0.0657429304586272,"134":0.08174378041134159,"135":-0.07095605645008185,"136":0.0785125241575083,"137":-0.04686217656791937,"138":0.18501165538299122,"139":0.018934492410445605,"140":0.18171223483928522,"141":0.04525566038969684,"142":-0.18515523786179505,"143":-0.10599502867521472,"144":-0.12507693847016607,"145":-0.07612514060393068,"146":0.1158773985512218,"147":-0.03502685073827929,"148":-0.05961639478727335,"149":-0.17592830179825397,"150":0.04910836369925912,"151":-0.12114043815368246,"152":0.1702341819128768,"153":-0.19804803283790912,"154":-0.009989153098547872,"155":0.031037811105163262,"156":-0.24737976563047762,"157":-0.01749960696831485,"158":-0.08733730834836789,"159":-0.04454891781326883,"160":0.14299477953856185,"161":0.03982527286597174,"162":0.004517466639002877,"163":-0.012017679975612056,"164":0.06223719896006032,"165":0.09732273907849527,"166":0.02070826197394384,"167":-0.10126008618111429,"168":-0.066960045526562,"169":-0.03236386791535042,"170":-0.12116066713375641,"171":0.0811803269385464,"172":0.12914248372898623,"173":0.06454010255688918,"174":-0.1716279577239465,"175":0.08531182033147333,"176":0.1595815331055626,"177":0.06930243906352306,"178":-0.02863162145820252,"179":-0.11602598563253431,"180":0.0112655783565753,"181":-0.20721222772896797,"182":-0.05763370932282029,"183":0.015763598650558507,"184":-0.06149568728665302,"185":0.2033218682279525,"186":0.07996591021902547,"187":0.18478181779154215,"188":-0.04878033758689666,"189":-0.07437334236599825,"190":0.124534674002385,"191":0.011266643141958995,"192":0.06425839583917917,"193":-0.10203487017455719,"194":-0.08961577687953362,"195":0.0037881217008564863,"196":-0.1657681028442287,"197":0.09568953972918583,"198":-0.14241709503052485,"199":-0.09178940117265669,"200":0.17111528887121538,"201":-0.05760901104323368,"202":-0.047816295808916845,"203":0.00902997934014263,"204":-0.002428939300519739,"205":-0.18167688214391892,"206":-0.15504214381950218,"207":0.05447253590035186,"208":0.21547823850221093,"209":-0.11361391714848643,"210":-0.17681782350364084,"211":0.20714349101231383,"212":-0.10404278971859758,"213":0.136644540888566,"214":0.045395933645933584,"215":0.07719013582223552,"216":0.0950922647157923,"217":-0.15183844350454495,"218":0.03230916517428666,"219":0.05481792473026539,"220":-0.12132825337332083,"221":0.0035071697090560574,"222":-0.08634254443064401,"223":-0.05572187533599185,"224":-0.1709860078767857,"225":-0.19959146366195854,"226":0.12132684651833968,"227":0.08478513265556929,"228":-0.1421847521249989,"229":-0.11771279956717795,"230":0.03818191000253628,"231":-0.11852729102063256,"232":-0.0024981671191965137,"233":-0.08483328594683918,"234":0.023869557875027064,"235":-0.057087344938213026,"236":0.1567857103444739,"237":-0.06601566182835823,"238":0.10681197340620066,"239":-0.1624893556904096,"240":0.0032020581452013672,"241":-0.07576844628315953,"242":-0.19767141138366695,"243":-0.035170473998841364,"244":-0.05412048122892459,"245":-0.1606599227305557,"246":-0.2415431135058143,"247":-0.18217321702581815,"248":-0.02695704162348128,"249":0.10841853040971558,"250":-0.24609112768900415,"251":-0.09420072946247826,"252":-0.1478461214593337,"253":0.18089229638052787,"254":-0.0863418319398313,"255":0.05492859111676043,"256":-0.08698345830338676,"257":-0.09692008131738848,"258":0.07716089606134725,"259":-0.04811813795693881,"260":0.1259296004652361,"261":0.20616073312775024,"262":-0.05401041597991265,"263":0.1241146057541021,"264":-0.12210535862229602,"265":-0.08335096418540398,"266":0.15448920741645167,"267":-0.038665792119206344,"268":-0.2652862069693489,"269":-0.033514227029263,"270":-0.21649572408298218,"271":-0.2368750111244829,"272":0.057854151101959024,"273":-0.0157464538539441,"274":0.002279910204080178,"275":-0.16353025748683653,"276":0.1075374012706308,"277":0.1733661073728352,"278":0.18843307268468368,"279":-0.17948420399139225,"280":0.16680758904431636,"281":0.11091303499342055,"282":0.13777721898238426,"283":0.13901471302475762,"284":-0.02751068122384768,"285":-0.011901239030904774,"286":0.06592280273805705,"287":0.0565308923704209,"288":-0.18528716980047555,"289":0.10569964240113965,"290":0.167641730334053,"291":-0.16339281638780465,"292":-0.2646468384888508,"293":-0.2546881886889076,"294":-0.21783206632095706,"295":0.025514175913098614,"296":0.07098493061922073,"297":-0.004274554445826695,"298":-0.11422404310996773,"299":0.15282467398709618,"300":0.01582553809683936,"301":-0.16379470000508486,"302":-0.05478733720949705,"303":-0.14732525649422515,"304":-0.006905437011119462,"305":-0.10623211882585765,"306":0.2332571142485526,"307":0.1903729955771582,"308":-0.15058227156341483,"309":0.20427142439067428,"310":0.10511498111661492,"311":0.22674397746104288,"312":0.16647369304655998,"313":-0.13742093034701627,"314":-0.03543438095526296,"315":-0.12709112641581272,"316":-0.19422015766624845,"317":0.00976839946449576,"318":-0.27911492025598555,"319":-0.1671031566757915,"320":0.10727630672372825,"321":-0.051239640748451734,"322":0.07590677057993675,"323":-0.02170349534015131,"324":0.054127257583896575,"325":0.13389586645501356,"326":0.06425193226788525,"327":0.137492601933429,"328":-0.049872057996113155,"329":0.0449579604292846,"330":-0.12931770938322662,"331":0.104168212014601,"332":0.1321545326291869,"333":-0.12049068697462924,"334":0.18331018733032067,"335":0.061282655168561496,"336":-0.0683619416162055,"337":0.05426747120308027,"338":-0.17558538104766547,"339":-0.004088408817756653,"340":-0.07105719931394654,"341":-0.07917812889220617,"342":-0.213077562062977,"343":0.08449558776802123,"344":-0.25747083656604325,"345":-0.17530252214361755,"346":0.0262512279108872,"347":-0.0604254891621571,"348":-0.007346834718792937,"349":0.101584916598428,"350":0.06903130983511041,"351":0.056781671589397086,"352":0.09503206887501808,"353":0.15969712562769306,"354":0.17829227068343678,"355":-0.07809685132135771,"356":-0.13660170252743356,"357":0.26567993819474167,"358":-0.06232837012668703,"359":0.24027723082536873,"360":0.10794196548154084,"361":0.00000685155152819098,"362":0.11050613592696056,"363":0.08416178778847569,"364":-0.23059981165411753,"365":-0.22707249773193633,"366":-0.16222918913611478,"367":-0.2717571212044305,"368":-0.3270937661663859,"369":0.10787250275675818,"370":-0.16252704034604248,"371":-0.10022064122579914,"372":0.15744507522799922,"373":-0.13105399039722213,"374":-0.14848788781423772,"375":0.11716357287170512,"376":0.023007022693368552,"377":0.020223514357715675,"378":0.14446542922196756,"379":-0.0784487628526455,"380":-0.04680456529716364,"381":0.09346182768103316,"382":-0.06794726593495144,"383":-0.06574689124529226,"384":-0.07176006213644885,"385":-0.024072378214144288,"386":-0.1208430434597913,"387":-0.12052208656984875,"388":0.05202827686743704,"389":-0.10202677927179495,"390":-0.05898453248476005,"391":-0.20632351811670366,"392":-0.08486723436407245,"393":-0.04629886955559629,"394":0.09085170640004796,"395":0.16564605695064488,"396":0.15699988039847054,"397":-0.010312713169046698,"398":-0.04802307786529229,"399":-0.1845684839949865,"400":-0.08613478149226553,"401":0.08186261074993606,"402":0.1933223849144635,"403":0.1703568863888088,"404":0.26655779776350297,"405":0.1627373825015307,"406":0.20071166382033936,"407":0.0308719890802009,"408":-0.16564193600768756,"409":-0.15268272298055055,"410":0.1498641939948003,"411":0.12489799212340166,"412":-0.0904016656957376,"413":0.08456552152039945,"414":-0.058696104455413324,"415":-0.2720046532670748,"416":-0.22939500983081174,"417":-0.12401818709536297,"418":0.0012259727318480536,"419":0.1560409560852835,"420":0.013651066124315596,"421":0.19153952079942768,"422":-0.08199510091855115,"423":0.08628835958685599,"424":0.21963544950882316,"425":0.2466892247499814,"426":0.011656088411528431,"427":0.10203186252850444,"428":-0.024827849733920316,"429":0.14989067704033246,"430":0.13859503425021508,"431":-0.12259587988935038,"432":0.17027067167101287,"433":0.09169258278122522,"434":0.12283138745768031,"435":-0.09772492013710625,"436":-0.21616274450065423,"437":-0.034831503922738254,"438":0.04625353721225477,"439":-0.1361785483145332,"440":0.04564233523348365,"441":-0.04679520153816751,"442":-0.03281584074416261,"443":-0.1966367053837903,"444":-0.08527664674318738,"445":0.023465363271123245,"446":0.025747135971580584,"447":-0.19435862302001516,"448":0.024443227580085256,"449":0.1597127919441669,"450":0.14688403442621958,"451":0.10516170380912992,"452":0.09447208424848615,"453":0.19257431283010618,"454":0.2291769960998656,"455":0.07308655396543073,"456":-0.07962094092230995,"457":0.011710460786613051,"458":0.08353855898300132,"459":-0.02134798193637081,"460":-0.09684769055278865,"461":0.051308973366740326,"462":-0.04973327292008658,"463":-0.06021365404003635,"464":-0.012222319963357781,"465":-0.15528699434901755,"466":0.07628646352893677,"467":0.011248398081971039,"468":-0.02178324159987994,"469":-0.03914044476562924,"470":-0.14151931755767994,"471":-0.06985731151867078,"472":0.18126704091053716,"473":0.048089310296249584,"474":0.09970442169648033,"475":0.0353411562715791,"476":0.0816423611096939,"477":0.09515433506593515,"478":0.10957281929868687,"479":-0.18540807100011716,"480":0.047922466724863916,"481":-0.055849430899833206,"482":0.0425684788072061,"483":-0.0868588071782646,"484":-0.0531248327113304,"485":0.08046084747034357,"486":0.13411318559697616,"487":-0.14123541308494394,"488":0.14501425716587163,"489":-0.2105717822126864,"490":0.054442645862541106,"491":0.23714025110344655,"492":0.06470418974869627,"493":0.08563325907285027,"494":-0.15150626743770937,"495":-0.16626770431236626,"496":-0.11439789952041207,"497":-0.12852901691687246,"498":-0.014629400084847102,"499":0.11929935555192626,"500":0.1921578591343643,"501":0.03053784191551916,"502":0.02801645600046402,"503":0.13425714118785315,"504":-0.14931706776580894,"505":-0.08476218419010902,"506":0.08531408149786773,"507":-0.25583464577998066,"508":-0.08985805042751731,"509":0.08793779575398905,"510":-0.18504185435013454,"511":-0.13099888765645806,"512":0.1979562157713241,"513":-0.09925900517409904,"514":-0.0563807705827333,"515":-0.18233303901609238,"516":0.19636700265402207,"517":0.0606520026771215,"518":0.0925453525381125,"519":0.09961984256316671,"520":0.06103012272463844,"521":0.13293710441762352,"522":-0.2171736231662382,"523":-0.1052897805234872,"524":0.1484432775428554,"525":0.17459240304568213,"526":-0.12327741633198552,"527":0.10980957277360222,"528":0.07035917077409996,"529":0.1343943577122966,"530":0.06792746455717365,"531":-0.09150610991635118,"532":-0.18984810103925293,"533":-0.0356886244926019,"534":-0.18497021655005633,"535":0.14745624421741865,"536":0.05178326705263079,"537":-0.20294366900701866,"538":0.01744063236170526,"539":-0.07158436139666702,"540":0.04178716673669677,"541":-0.15051391176640236,"542":-0.03131723399758145,"543":0.030475936207254136,"544":-0.20055679884190328,"545":0.05304615229248721,"546":-0.31100740244473507,"547":-0.06788113053543368,"548":-0.18493450093254693,"549":0.10849094481279305,"550":0.040653737778450195,"551":-0.09168860672737356,"552":-0.044284003509734944,"553":0.09732116537186647,"554":-0.1353066484293634,"555":0.05924607131644903,"556":0.1517094847901931,"557":0.1149625758254115,"558":-0.08340379422864296,"559":-0.25758506231087297,"560":0.04417628281831593,"561":-0.20615231480756405,"562":-0.07497727882383395,"563":-0.15688076828007524,"564":-0.01151293613726138,"565":-0.17043565106268838,"566":-0.19326494664646265,"567":0.11535335188075489,"568":0.0666410335102988,"569":-0.1646671894533061,"570":0.02475486773911601,"571":-0.15428230938247495,"572":-0.08683770791522669,"573":-0.027670122405681046,"574":0.16391916866322065,"575":-0.15199381504994}},"1":{"bias":0.20436285032049564,"weights":{"0":0.1965943738083717,"1":0.20657454691437838,"2":0.09158938911295712,"3":0.09819129166470485,"4":0.04018872605558485,"5":-0.09721658995073675,"6":-0.05903580867962043,"7":-0.13676547748484635,"8":-0.17926779710222338,"9":0.1074327730035183,"10":-0.09506401101028299,"11":0.16890968846237,"12":0.06945971934295647,"13":0.09883693026524672,"14":0.026655633372560415,"15":0.07275804625473994,"16":0.10180064753323105,"17":0.10541195834552829,"18":0.19747622765231598,"19":-0.10623260744200688,"20":0.1591364357114995,"21":-0.11972581349343484,"22":0.18586625897008305,"23":0.010241760108983719,"24":0.1540365615456521,"25":-0.13479296505290997,"26":0.19816411456277183,"27":-0.0646877285434243,"28":-0.1231561228172298,"29":0.02930868761393227,"30":-0.28885051326646977,"31":0.0782851724893335,"32":-0.11821564199126482,"33":0.13745737248960405,"34":-0.1255208271490775,"35":-0.029689566432452356,"36":0.0885731567412412,"37":0.09346549876859425,"38":-0.08302387934694305,"39":0.0812215143583695,"40":-0.23507501943787315,"41":-0.28255686697413934,"42":-0.127116561534097,"43":-0.11748239261525721,"44":0.2796886784396519,"45":-0.004002880765742591,"46":0.2405460164183716,"47":0.009161471143275557,"48":0.0863559090508516,"49":-0.039542651678526025,"50":-0.040880388270285506,"51":-0.1910546309968736,"52":0.07461823349171826,"53":-0.26611155181129353,"54":-0.010618921321808517,"55":-0.22866364475771628,"56":0.008289101951366977,"57":0.0794362886755814,"58":0.14254278151457603,"59":0.016365081038855655,"60":0.11704586890343667,"61":0.13141677774091148,"62":0.12449603359020171,"63":0.18536219461827116,"64":-0.030340387280619923,"65":-0.17420541995889385,"66":-0.15681065339674577,"67":0.04675016399826928,"68":-0.12145429245471732,"69":-0.07708939460988364,"70":0.2399087183025092,"71":-0.03776021287019815,"72":-0.04351691935039391,"73":0.20355274813309615,"74":0.12673420537380184,"75":-0.13691213324029963,"76":-0.21072372428550362,"77":0.03918505133704169,"78":0.07019154315622328,"79":-0.009853947458718761,"80":-0.00011523112787535594,"81":0.033679905408254954,"82":0.12276989250892724,"83":-0.05109331519250005,"84":-0.07806525035232374,"85":-0.08964123258393288,"86":0.1706655873920601,"87":-0.08254920611585649,"88":0.19804449065522067,"89":-0.0633003231514605,"90":0.015019169163992152,"91":0.07513525644046376,"92":-0.046610497338006436,"93":-0.20981761012633687,"94":-0.1919483475249192,"95":0.2507573030932774,"96":0.16978884960179838,"97":0.18816684363929242,"98":-0.057458490818149355,"99":0.03101888016578624,"100":-0.04348004248491463,"101":0.033357500739891535,"102":0.1773740144104214,"103":-0.11700510602672351,"104":0.15516744395258197,"105":0.17243079200301986,"106":-0.04178583390118214,"107":0.06924989525256582,"108":0.12220435036467822,"109":-0.11200865985495852,"110":-0.09518718237982966,"111":-0.11138372791624802,"112":-0.05520264487201855,"113":0.06749433818539724,"114":0.23454628630706376,"115":-0.16145471523584123,"116":-0.0540601280429389,"117":-0.0634326245537753,"118":-0.0068791624199116995,"119":-0.04911861212400537,"120":-0.08294561809778468,"121":0.16837116662251886,"122":-0.17579813910705716,"123":0.001064187709488284,"124":-0.24589541962261363,"125":-0.17998068906876688,"126":-0.15079299735897478,"127":-0.10009596403381825,"128":0.014436352493658693,"129":-0.09172352352433745,"130":-0.05196660627789341,"131":0.06473911233740812,"132":0.049881285198468114,"133":0.0527740048049993,"134":-0.024075554801648403,"135":0.23724753117334346,"136":0.03730602132089068,"137":0.10957528071296777,"138":0.0008420594869606678,"139":0.1772233260808345,"140":-0.012604468115957883,"141":-0.029195855027990734,"142":0.1916282880372161,"143":0.10377215367958363,"144":-0.20027286037624253,"145":-0.1279429991211872,"146":0.026341479919326494,"147":-0.0025117572164727584,"148":0.13277782224261067,"149":-0.03576605439951902,"150":-0.1193745633724287,"151":0.1504307046148603,"152":-0.1445613389575593,"153":0.0024180030205544233,"154":-0.17906188714313853,"155":0.13641767050243717,"156":0.024882725739474903,"157":0.12353228376580538,"158":0.10911429860304993,"159":-0.0005192696204978126,"160":-0.002653800838974756,"161":0.07903821005660992,"162":0.29715615224457204,"163":0.0159022273154867,"164":0.17638208678101755,"165":0.004393421747921766,"166":-0.20213987592814084,"167":0.1196064309748846,"168":-0.013173100265939668,"169":-0.19649445628431939,"170":0.07358579245694148,"171":-0.09433163443431086,"172":-0.1680387465116047,"173":-0.12191087716776237,"174":0.16535444764390064,"175":-0.04940252868760698,"176":0.1672212851804182,"177":0.11881541226775381,"178":0.06898489711811677,"179":0.13269426868565457,"180":0.16831739821948768,"181":0.1723818924991401,"182":0.12438967746770742,"183":-0.059311727671505346,"184":-0.17020929585997593,"185":0.051892002562144025,"186":0.22366393247269203,"187":0.24298494656972988,"188":0.16654965756982876,"189":-0.04059318622892034,"190":-0.0819461587737114,"191":-0.02882286404860503,"192":-0.04138500877552466,"193":0.112479275327993,"194":-0.08421030982174879,"195":-0.036469150387631204,"196":-0.1977156426970623,"197":-0.006251376609482933,"198":-0.02548508710992324,"199":-0.12109210398638344,"200":0.19963699663316045,"201":-0.10821804214804048,"202":0.17780279996844292,"203":-0.09731184941620732,"204":0.2205884053105606,"205":0.126197794632079,"206":0.04175560005748974,"207":-0.16264287007460884,"208":-0.030793810135259458,"209":0.11679543637570332,"210":0.02124567416877107,"211":0.19262339242937368,"212":0.1476676217424697,"213":0.10115353260662277,"214":0.16835661439841754,"215":-0.06059206220730943,"216":-0.19714091052320187,"217":-0.03204489925817718,"218":0.039350133013564846,"219":-0.12200097811820254,"220":0.06601613597835994,"221":-0.1977852467492221,"222":-0.25217701567840684,"223":-0.06871055878381477,"224":0.1729899357401349,"225":0.15351776929886427,"226":-0.18897093884760086,"227":0.02221285962035228,"228":-0.053312301055450304,"229":-0.049076045785623114,"230":-0.009644051029164716,"231":0.18249100403022056,"232":0.21520254394195398,"233":-0.15322070900454743,"234":0.08396454816386086,"235":0.015083508687695903,"236":-0.0008222628199857513,"237":0.16361419261422724,"238":0.005804128657474429,"239":-0.007997376703375223,"240":-0.007282136767359281,"241":0.07365940315573935,"242":-0.09933922650883327,"243":-0.05748017749272438,"244":-0.07010535259687634,"245":-0.23452450609171432,"246":0.06749364017979276,"247":0.10701219883306452,"248":0.187119353224671,"249":-0.0755468101572291,"250":-0.09504430150565472,"251":0.10510648930391217,"252":0.07857389115354749,"253":-0.06793915983068238,"254":0.046363052502770195,"255":0.009349840831477095,"256":-0.164742825966208,"257":0.22486939802934072,"258":0.010044053646282386,"259":-0.0751312518939239,"260":0.1585138382867045,"261":-0.025549119920633204,"262":0.14089299578789904,"263":-0.000263131952709053,"264":0.11445190399356385,"265":0.0276221433094356,"266":0.185199533074054,"267":-0.1204912598687233,"268":0.029691424060297955,"269":0.10774203080683847,"270":0.04465743674262161,"271":-0.06913052827129021,"272":0.05998285427472473,"273":-0.07538562076095792,"274":0.08461332103163798,"275":0.2097690843208125,"276":0.039339039740830195,"277":0.06426742542783233,"278":0.2080502490769783,"279":-0.0036725799329265967,"280":0.1578975817398902,"281":0.2251405838336427,"282":0.061331088996630825,"283":-0.16142519922639684,"284":0.2324744193346424,"285":-0.1139436312130878,"286":0.10134894269184283,"287":0.0489773274271893,"288":-0.06846519698533837,"289":0.1343918731311469,"290":0.1653581671125491,"291":-0.13455851148039327,"292":0.03881369291441178,"293":-0.09915060856336738,"294":0.0629022168268421,"295":0.042108155586075904,"296":0.12960621805643238,"297":-0.08895618238979702,"298":-0.04446052084491872,"299":-0.08224383104561857,"300":-0.08449308205876137,"301":-0.020650339193858915,"302":0.15546805723046994,"303":0.22424526346254012,"304":-0.06515669562736877,"305":0.031860228535024314,"306":-0.08968131751986061,"307":-0.18965666561233363,"308":-0.15612204116817616,"309":-0.10393670185933178,"310":-0.0826409277299726,"311":0.04159695116027214,"312":-0.19264430388940362,"313":0.14592024078372481,"314":0.05321032378751789,"315":-0.0925433946720743,"316":-0.10854569983873487,"317":-0.0508691733126989,"318":0.012011831345892326,"319":-0.12279446290857488,"320":0.08708859246746034,"321":-0.006977864975214187,"322":0.06061328351085672,"323":-0.09630395482885422,"324":0.09875583646568892,"325":-0.08505937344580057,"326":0.2792297674678567,"327":0.1055125700120555,"328":-0.004859272140462081,"329":0.08783083113208126,"330":-0.15499973613813137,"331":-0.05608387060625548,"332":-0.08205152098612255,"333":-0.0802119674633669,"334":-0.08595472047046755,"335":0.11240512441786989,"336":-0.18105630018469882,"337":0.14547095967657572,"338":-0.047712616623186245,"339":0.03043223851962604,"340":-0.15754345242954299,"341":-0.25853070030327235,"342":-0.26374674847902824,"343":0.0029038799052602347,"344":0.043759192139409785,"345":0.0714162472602331,"346":0.10359839433753815,"347":-0.0772308679338998,"348":-0.03085700420288743,"349":-0.13825582132893244,"350":0.08668057863066558,"351":0.10959230144580573,"352":0.08629556883970936,"353":0.2250121754768669,"354":-0.16292892082953092,"355":0.09401103441429838,"356":-0.14377619271535372,"357":-0.08316275066464394,"358":-0.037146129119747864,"359":0.06594162755528069,"360":-0.06875789582949851,"361":0.046633366999052836,"362":-0.10386672759965425,"363":-0.18153555185860076,"364":0.01747140359586262,"365":-0.07023286820122,"366":0.046363631074372726,"367":-0.024779101091417923,"368":-0.15184369482897708,"369":-0.1030062059745652,"370":-0.1162940327058552,"371":-0.06863989906204525,"372":-0.04485999035823235,"373":-0.014549434061287461,"374":-0.1404999165776767,"375":0.146634103370904,"376":0.05749704773292148,"377":0.09568103516390801,"378":-0.01781824148336034,"379":-0.25541783867004747,"380":-0.28381827998541737,"381":0.044752182141899285,"382":-0.11420003693945747,"383":-0.18274196621131022,"384":0.15759112195415556,"385":0.10505299678120314,"386":-0.03347245313155222,"387":0.0539115143290218,"388":0.04654132490087125,"389":-0.04543363850001083,"390":-0.04934391399128264,"391":-0.14298332022050467,"392":0.24399249952636398,"393":-0.14020836587453964,"394":0.14699405827546255,"395":0.048967958131775444,"396":-0.06963299488446961,"397":0.1341805229677539,"398":-0.04080408917410762,"399":0.133427096607595,"400":0.19437274849338784,"401":0.12080348937447882,"402":-0.11956769373092004,"403":0.10748268487716327,"404":0.111859641325015,"405":-0.1864408774852138,"406":0.08446045489242618,"407":-0.16286226604623635,"408":0.09514395166046226,"409":-0.09649724595446907,"410":-0.17460557500625973,"411":-0.1457079917918383,"412":0.15686630600824755,"413":0.04958214400485755,"414":0.20512485555564192,"415":-0.08895164045870434,"416":0.20287173829018024,"417":-0.03191571378911769,"418":-0.04467042811106745,"419":0.0476734378472143,"420":0.08280468267221636,"421":-0.0857230111518667,"422":0.11702091404504315,"423":0.13343243982152012,"424":0.2158750642433619,"425":0.14754116513372137,"426":0.18193407851448523,"427":-0.08705752194347957,"428":0.056874519116384796,"429":-0.11695933047136321,"430":0.17473389876273224,"431":0.04875023987327192,"432":0.041949862685625,"433":0.12769191238071267,"434":-0.1950263282660709,"435":-0.19559135664535288,"436":-0.21909972905502423,"437":-0.08077091307127615,"438":-0.10741709936975141,"439":0.013886560379147135,"440":0.05814735858905568,"441":-0.048026128404624835,"442":0.11277563297249199,"443":-0.20105509846936867,"444":-0.10592910580728206,"445":-0.14494224660793906,"446":-0.1941040908433587,"447":-0.0795115121244174,"448":0.08725665648873941,"449":-0.12240508850589864,"450":0.13301939500533275,"451":-0.04983493639734511,"452":-0.05528414463931384,"453":-0.001017268588853246,"454":0.06114766558083269,"455":0.08466869525320264,"456":0.14736205519568066,"457":-0.061249373867361206,"458":0.04614923188003839,"459":-0.06164634925751169,"460":0.012379946713851805,"461":-0.06227640070334615,"462":0.07257714721557783,"463":0.05082834659374168,"464":-0.13893617330801847,"465":0.1646083382601862,"466":0.05025995297337139,"467":-0.11172082936454546,"468":-0.26219564129127254,"469":-0.21332758703774843,"470":-0.19443845718093286,"471":0.06185559172217688,"472":-0.18178651239685853,"473":0.14876915494907153,"474":-0.024658767468728512,"475":0.06971085537515753,"476":-0.1769931052342254,"477":-0.05604880377644918,"478":-0.1356361199604893,"479":0.16382495733240424,"480":-0.029059082426372743,"481":0.04562899206263117,"482":-0.15883715094413658,"483":0.14749646451933504,"484":0.004845485923851851,"485":-0.1433232385449664,"486":-0.1291770779654931,"487":-0.13035990754918111,"488":0.1354100985225462,"489":0.09826103345929883,"490":0.07455927678703793,"491":-0.20404546098856602,"492":0.05548417328872702,"493":-0.0597904238095169,"494":-0.1426927585647377,"495":0.10087765490085439,"496":0.10142179178164083,"497":-0.013477471565888193,"498":-0.05897118432139128,"499":-0.18653646802131119,"500":-0.14845000183885002,"501":-0.09084584868785052,"502":-0.2072044910612384,"503":-0.03551575989753034,"504":0.13894144674810704,"505":-0.05523936729206101,"506":0.06725735907624772,"507":-0.08678339770542602,"508":-0.01822715617905951,"509":-0.0006726003715433,"510":0.06582745706167745,"511":0.13374647604803117,"512":0.1667280769098642,"513":-0.09516423530081583,"514":-0.11088821013437834,"515":0.2308507428063605,"516":-0.10012871609673513,"517":0.10940855222004381,"518":-0.014494625499746627,"519":-0.10256799304146424,"520":0.1177147047258107,"521":0.048487647337169655,"522":-0.03902716733666907,"523":0.031204529170165217,"524":-0.1646270100460873,"525":-0.041764442449727136,"526":0.025971616622306914,"527":-0.14143761102243765,"528":0.025179210861166867,"529":0.2701740419874719,"530":0.21681969538149237,"531":0.12922120126074754,"532":-0.12194348462560113,"533":-0.3158866486966575,"534":-0.1332380721046501,"535":-0.2657228290332458,"536":0.06224495912641095,"537":-0.06915215494478513,"538":0.1567050063504243,"539":0.019670613333149956,"540":-0.11938723459190645,"541":-0.11986035829558957,"542":-0.19545602482389438,"543":0.005282921783187175,"544":-0.15551288774540437,"545":0.20887555762335488,"546":0.14076609235352744,"547":-0.12348760951549484,"548":0.07174087969240826,"549":-0.16029619816601623,"550":0.03240857125336343,"551":0.20388385166422646,"552":0.18578940716564368,"553":0.23204021473180256,"554":0.0982442955100348,"555":0.07786399590800704,"556":0.07341692568656766,"557":-0.050305171717118354,"558":0.018828100899657297,"559":-0.13382984354573915,"560":-0.056617456238812085,"561":0.12428983347655864,"562":-0.03159370046578093,"563":-0.21586169593682128,"564":-0.1702949541513193,"565":-0.004483665585953069,"566":-0.05764674355571358,"567":-0.08487928761157743,"568":0.0877954398773148,"569":0.05790138575194707,"570":-0.13082879076630136,"571":-0.1828553765674861,"572":-0.012910007697175173,"573":0.14518808069801897,"574":-0.06479885987524392,"575":0.2865107793459421}},"2":{"bias":0.1206275860761505,"weights":{"0":-0.03729941707990362,"1":-0.147971830076129,"2":0.17138748198052564,"3":0.1361937111676224,"4":0.1387304600339573,"5":-0.20166514728403648,"6":-0.07939677063917436,"7":-0.10252960470259005,"8":0.07394732550202447,"9":0.08167917054769727,"10":-0.07642794619932045,"11":0.15757073571089955,"12":-0.08752944562953918,"13":0.008411222012299277,"14":-0.008485250240983526,"15":-0.15451870020499286,"16":-0.03784219349356945,"17":-0.09919859662631356,"18":-0.1614892287764414,"19":-0.17957622365395268,"20":-0.02862565948220466,"21":0.09539145270883813,"22":-0.12932429380904906,"23":0.1090045058017521,"24":0.16659011768155468,"25":-0.12689022107939507,"26":-0.19072875971633071,"27":0.0008900541622432553,"28":0.17153115292933835,"29":0.033641983544832464,"30":-0.03155961241403491,"31":-0.20501465261312737,"32":0.15896138216201203,"33":0.000543483368314924,"34":-0.01467471410246682,"35":0.17738445161611796,"36":0.22109470359657443,"37":0.15179811923742734,"38":0.04015890266669216,"39":-0.06163587341439211,"40":-0.1473937815377135,"41":-0.16724633207619552,"42":0.1334899795455219,"43":-0.2398488312529593,"44":-0.11184925890194698,"45":0.12246558010648018,"46":-0.19353641565504004,"47":-0.17203536686603335,"48":0.13289852169780936,"49":0.0133661551069385,"50":0.14851393650107658,"51":0.10100294723003891,"52":0.09872228710728814,"53":0.16762767712908516,"54":0.010403901579895078,"55":0.1000233592214345,"56":-0.06682418326961254,"57":0.09265045481141997,"58":-0.03545175182879122,"59":-0.060534704459004246,"60":-0.07364672671379181,"61":-0.1360942670225807,"62":-0.13507723311899697,"63":0.20808529514923105,"64":0.002531940407710979,"65":0.009672737924451924,"66":0.17078095638251045,"67":0.006870468217497431,"68":-0.0073192830993255836,"69":-0.046506128991134175,"70":0.1439827402230024,"71":-0.10770529445296095,"72":0.01920688291407974,"73":0.17481226766456165,"74":0.040099687830103606,"75":0.18321055586710558,"76":-0.019086964810874362,"77":-0.03831264083036692,"78":0.11966820181723928,"79":-0.11970346015556974,"80":0.1250709633297282,"81":-0.08788344612437252,"82":-0.13812482147397048,"83":0.003425935697384747,"84":-0.048223624039990504,"85":0.06625784750170075,"86":0.19512660485560734,"87":0.14581559610559672,"88":-0.12685415241888415,"89":-0.06315018683846442,"90":-0.1295598495240125,"91":-0.14576582724095405,"92":-0.19113994996360478,"93":0.11092406283990702,"94":-0.056635670601235436,"95":-0.1359497415584159,"96":0.04745720051188203,"97":0.08681455545053528,"98":-0.04670861326271747,"99":0.07545719721066074,"100":0.09002890906066756,"101":-0.08344692313808329,"102":-0.18029047944194926,"103":-0.04504730509538745,"104":-0.13782818367221525,"105":-0.03803824392558215,"106":-0.16772332214806074,"107":-0.10476797297345433,"108":-0.1544244569908,"109":-0.08696383431459752,"110":-0.049293769526267316,"111":-0.15585840973180487,"112":0.04353374658302063,"113":0.11045902502056376,"114":0.060889263142594297,"115":-0.04605628777330227,"116":0.1387400541230599,"117":0.206378903036447,"118":0.06319106855474795,"119":-0.0059162237140993525,"120":-0.0029059773152120983,"121":-0.13251348277897576,"122":-0.2080535350217323,"123":-0.10321612555387934,"124":-0.13087200423779616,"125":0.032006244701667776,"126":0.06605831793196273,"127":-0.11878046907234827,"128":0.00961769332154228,"129":-0.18202102102129042,"130":-0.018682857675473622,"131":0.13478924594214042,"132":0.13826927805838457,"133":0.005760457428354331,"134":-0.06823521394765521,"135":0.015450827599217905,"136":-0.21450480999699573,"137":-0.1209211242157756,"138":-0.11757410557434206,"139":0.2231292164193074,"140":0.19224796113694909,"141":0.1858133186607836,"142":0.080799261021716,"143":-0.09944191765959563,"144":0.07607732994391199,"145":-0.18415467897103588,"146":0.10884156178972633,"147":-0.10839869607305488,"148":-0.0919459966888307,"149":0.002836039544272387,"150":-0.22303531396324752,"151":0.153730532512042,"152":0.03146274759806627,"153":0.18810821057514926,"154":-0.060445372280911014,"155":-0.030307984800410255,"156":0.015300897930445204,"157":0.08362498914744444,"158":-0.07586320180546845,"159":0.014719528214015953,"160":-0.19404138610296454,"161":0.07660854673125898,"162":-0.02310007126693255,"163":0.10637885150633924,"164":-0.11394044575725581,"165":0.03267572450458441,"166":-0.09620113667097367,"167":-0.16368850310661742,"168":0.06802725865526384,"169":0.05331373876009777,"170":0.14701250650919634,"171":-0.05770426368165168,"172":0.1898356691795056,"173":-0.1159071720016054,"174":0.09348697750833744,"175":0.1058650503676722,"176":0.02199202187340717,"177":-0.1019584699315495,"178":0.06620022462592655,"179":-0.039239544716017295,"180":-0.0855078880801297,"181":0.16999474771093484,"182":-0.12408376775410924,"183":-0.03153557951569449,"184":-0.20720445893117045,"185":0.0999627676586395,"186":0.026084178979692986,"187":-0.014544332560060082,"188":-0.05201917369406876,"189":0.07264991596370012,"190":-0.08303572739693386,"191":-0.05941408835544639,"192":0.025129524325951787,"193":-0.05888191761877178,"194":-0.0040882030960283314,"195":0.09075204052456971,"196":0.048628137641030425,"197":-0.17415508620611025,"198":-0.10452168993933461,"199":-0.09663483519100274,"200":-0.08084366279127143,"201":-0.13404636763750977,"202":-0.13735924864816196,"203":-0.13665792597648055,"204":-0.006162749993730912,"205":0.2266048860621367,"206":-0.14441516899781073,"207":-0.1420492013222523,"208":-0.2041644960508816,"209":0.00675470497491988,"210":0.005955287063227484,"211":0.08614714121875273,"212":-0.03283308557767166,"213":0.11048094917760111,"214":-0.05144730547560304,"215":0.0054242835453188025,"216":0.14352295250428082,"217":0.09237570989799776,"218":-0.07682336775759721,"219":0.017333412441036748,"220":-0.05271315935183255,"221":-0.09691381997773361,"222":-0.1266075097206793,"223":0.05324903778510498,"224":0.13847873853567366,"225":0.19170037923039518,"226":-0.0828998262807983,"227":0.04166244592397952,"228":0.19886037434265594,"229":0.03658319668492555,"230":-0.10562850203690496,"231":-0.040243867382930947,"232":0.151556043742062,"233":0.1198414900569284,"234":0.03092338506515652,"235":-0.19286900116373404,"236":0.1810272068626013,"237":0.0946682084945585,"238":0.200851747701863,"239":-0.022193468978341926,"240":0.009196800476519792,"241":-0.060565179823070615,"242":0.1510842490489258,"243":0.013925829335439273,"244":-0.1108953133850784,"245":-0.1629824987362423,"246":-0.057709315974372385,"247":0.1308728012900468,"248":-0.24514952816408517,"249":0.16433202525628776,"250":0.07054126438544975,"251":0.2694867906340648,"252":0.009741455495534963,"253":0.27206498838338533,"254":0.21962723665025802,"255":-0.07923527418856753,"256":-0.17098932477292764,"257":-0.2330639509880907,"258":0.17293566929876703,"259":-0.02972930260473135,"260":0.09654265014512324,"261":0.04621802544783704,"262":-0.016747647421242802,"263":-0.12259733903894689,"264":0.09253357402556826,"265":-0.05242365053864138,"266":0.13322859592222627,"267":-0.15965746339313105,"268":-0.13553148782522018,"269":-0.18849132892936526,"270":-0.15522902213590384,"271":-0.0026129984654996562,"272":-0.1919474107723327,"273":-0.02228589408057977,"274":0.0602564268298413,"275":0.02726810510721844,"276":0.14686714081735974,"277":0.32463738492626404,"278":-0.030196557086635645,"279":-0.08013276722320005,"280":-0.036911603507836024,"281":-0.12210128429862627,"282":-0.07136431551155466,"283":0.050556524762201675,"284":-0.004449144720045773,"285":0.12452966523727103,"286":0.1492607968903437,"287":0.14117815892508123,"288":0.07915896221591423,"289":-0.06818966586233281,"290":-0.1489112649004416,"291":-0.06346830932824939,"292":0.13398158989302575,"293":0.09184765382022012,"294":0.1234202092075602,"295":-0.126127404979283,"296":-0.034564983689724826,"297":0.054402414018596454,"298":-0.009121601142399547,"299":0.2322757599384308,"300":0.0576951063862918,"301":0.23442017072115326,"302":0.1443407132844335,"303":0.11747776421676191,"304":-0.027757755093562188,"305":0.16009226217351452,"306":-0.10810656625967204,"307":0.1314867577551731,"308":0.11018414551596718,"309":-0.20298095714647132,"310":-0.18213893231637915,"311":-0.21457011416408397,"312":0.03760258305348107,"313":0.14312814421562456,"314":-0.10219379105674095,"315":0.05321841265133701,"316":0.0531199513190003,"317":-0.044581718511257376,"318":-0.17827002802702963,"319":-0.08274224345520761,"320":0.0915242381142688,"321":0.04902689516674722,"322":0.09407413085447237,"323":-0.032767009608597956,"324":0.24050223189276476,"325":0.2590469890910749,"326":0.23989965063875576,"327":0.11725569976449972,"328":-0.01681799475235601,"329":-0.0004825189309331073,"330":-0.24013474095262294,"331":0.05068985854429102,"332":-0.23743684662587589,"333":-0.05494740300321297,"334":0.05054664048161761,"335":0.03218984977242305,"336":-0.0954759217024549,"337":0.030705474352522803,"338":0.1976547357374059,"339":0.08979621589129282,"340":0.0471321864442749,"341":-0.0761104406156861,"342":0.08538849402927588,"343":0.11612398405783309,"344":-0.06049908828875005,"345":-0.09256899420633315,"346":-0.004380341650266365,"347":0.2465438685854757,"348":0.034478425685394366,"349":-0.048270999874535724,"350":0.0011769758600140982,"351":0.1543492444421159,"352":-0.1184801645029252,"353":-0.014996899506488796,"354":0.05641777899459822,"355":-0.17260870496425826,"356":0.12099250688608269,"357":-0.2491380767489207,"358":0.06250853882668381,"359":0.07549907198444633,"360":-0.10792159746704019,"361":0.06362774570236956,"362":0.06285758845586095,"363":0.04711088873859567,"364":0.02278455402652715,"365":0.05997233393644164,"366":0.11719811844427083,"367":-0.15758277090640826,"368":0.14740876935845484,"369":0.06673708987585021,"370":-0.07601205276605058,"371":-0.15992910315990047,"372":-0.0020543503692825073,"373":0.20399691409931495,"374":-0.1043253676822145,"375":-0.05120371555758783,"376":-0.005216746265422531,"377":-0.005840189739682554,"378":-0.13725516284103037,"379":-0.26057751154620246,"380":-0.22431047083615469,"381":-0.010292127314263197,"382":0.1220749645702708,"383":-0.24140558015622718,"384":0.04010643269517665,"385":-0.04872613393279133,"386":0.09872557295650106,"387":0.005796048144003538,"388":0.06912763582794881,"389":0.09811628342097502,"390":-0.031051515383473723,"391":-0.03048829064300501,"392":0.11122111317236441,"393":-0.132992803481391,"394":0.12805309096475917,"395":0.15531080114680812,"396":-0.05379852381560741,"397":-0.09278649750523238,"398":-0.11056623173187072,"399":-0.1277017545685541,"400":0.14951556471999927,"401":-0.13541358113388366,"402":0.10211590671171936,"403":0.11733865736293721,"404":-0.14294444090363004,"405":0.11958558796211398,"406":0.09109710051500318,"407":0.03848576341196875,"408":0.10116514921635214,"409":0.04244275805144844,"410":0.13869178585069092,"411":-0.04444966170898682,"412":-0.08724359256238588,"413":-0.04727382442063818,"414":0.03536422259381167,"415":-0.12968637331551872,"416":0.12192939978728196,"417":-0.2611047469047025,"418":-0.030518255964909063,"419":0.10512575520652583,"420":-0.0396363328922463,"421":-0.16852505469118945,"422":0.15602474961413132,"423":0.07484016096817693,"424":0.02985647999030018,"425":0.0836792234340008,"426":-0.01005162885197958,"427":-0.031912127692797616,"428":0.12914384684544822,"429":0.11367538325498001,"430":0.11718473881959648,"431":-0.08005086392611495,"432":0.04366368568634367,"433":0.18344102035125842,"434":-0.11650182703209508,"435":-0.12014839427919846,"436":0.16182570953466688,"437":0.1468161826117938,"438":-0.19316903111606054,"439":-0.009301827719908985,"440":-0.2632736857932238,"441":-0.10062659319303328,"442":0.014870596103826971,"443":0.07640546830990701,"444":0.042211525164429886,"445":-0.02585554758604688,"446":-0.030791512253615434,"447":-0.05037512983188861,"448":-0.1797875267228146,"449":0.15359397843211758,"450":-0.1921897063879856,"451":-0.16787536989043159,"452":-0.07968703215133059,"453":-0.058265528287770124,"454":0.046399722939024474,"455":-0.09623756499038644,"456":-0.12157799632496596,"457":-0.07519208067856939,"458":0.15690917574878713,"459":-0.11157883600618976,"460":0.16161424041640962,"461":0.14881043131897126,"462":0.0980805168442878,"463":-0.1942132929723418,"464":0.022142508940234708,"465":-0.0300878030134146,"466":-0.17577097548529091,"467":0.05581410137211298,"468":0.041929096121305895,"469":-0.08500666078336036,"470":-0.04607775505252451,"471":0.06685814954649036,"472":0.0103092142640592,"473":-0.13175487914802267,"474":-0.03544372417724971,"475":-0.17043441951052066,"476":0.16361133894683075,"477":-0.03203484099308184,"478":0.07761392978618326,"479":-0.15378152366210857,"480":-0.11674946720154983,"481":0.15361505492192368,"482":-0.08372785682409618,"483":0.09193753863767984,"484":-0.07436994820808147,"485":0.16538421765245348,"486":-0.06847620805489936,"487":-0.04643570286747684,"488":0.03631499909265322,"489":-0.09891260744215892,"490":0.11573023932231673,"491":0.18068666470954592,"492":0.11698798155469955,"493":-0.07679387784539982,"494":0.03414866411448539,"495":0.17818403731516688,"496":0.023554675550879672,"497":0.1445521580495848,"498":-0.05452098830627017,"499":0.031965957515900055,"500":-0.2105066147443842,"501":0.035629628864542934,"502":-0.15204629628935282,"503":0.010368283289986428,"504":0.013428686215470017,"505":-0.08229018774510047,"506":-0.02159448212088831,"507":0.053888703807273834,"508":0.23519880910182026,"509":0.012165029452629931,"510":0.1674789165714995,"511":-0.17065814643456476,"512":-0.11922548262427228,"513":-0.1683306093813691,"514":-0.20987420954450628,"515":0.16020470456039412,"516":0.056705259573219396,"517":0.1227923247871846,"518":-0.11838797584157737,"519":-0.16616192383037207,"520":0.20498148797410562,"521":0.1439951223592675,"522":-0.034144210392327984,"523":0.12027070586803143,"524":-0.08221677523413531,"525":-0.04978699911894356,"526":0.10192260605807464,"527":0.07914529664744586,"528":-0.02318838023829159,"529":0.11958308214922464,"530":0.13004647171482672,"531":-0.10840569103152355,"532":-0.02952125412754344,"533":-0.02505016641557699,"534":-0.10362455479285974,"535":-0.028146644213060394,"536":-0.0970456893147311,"537":0.08776356023717387,"538":-0.16693613552543063,"539":-0.16821914638070282,"540":-0.13459661073675358,"541":0.034089785629398205,"542":-0.1590613325583401,"543":0.19475341763663256,"544":0.0018025537507479774,"545":0.1736459228068614,"546":0.08256564656404282,"547":0.21768605337448227,"548":-0.01595376282771084,"549":-0.08877548933985324,"550":-0.11299733488269718,"551":0.011555786173650386,"552":0.1985444803317584,"553":0.19906042335130322,"554":-0.014143137604767438,"555":-0.0953547789795413,"556":-0.1228699173512043,"557":0.13736029942865002,"558":-0.06847021363556807,"559":-0.03223007689697528,"560":0.11595748865860696,"561":-0.1223538445731331,"562":-0.046533876142859996,"563":-0.09944617975803882,"564":0.01713021038676648,"565":-0.1639808680872513,"566":-0.17110642512425736,"567":0.06689919860930027,"568":-0.21899957491200683,"569":0.06185325208096445,"570":0.0725118779418324,"571":-0.0842500395304082,"572":-0.00964002564461992,"573":-0.10654811458107065,"574":0.009199526488293414,"575":0.17620094727360425}},"3":{"bias":-0.04049826183212633,"weights":{"0":-0.18211130950154772,"1":-0.14494605467219596,"2":0.04148432019228024,"3":0.06875351576862242,"4":-0.10077043310997423,"5":-0.09706973474253607,"6":0.06299553955433898,"7":-0.11858213414273767,"8":-0.1412627275149535,"9":0.04679439720589435,"10":-0.1477524035295554,"11":-0.01185289430223317,"12":-0.20012010491649954,"13":-0.0880658886802978,"14":-0.09583454575778588,"15":0.00046460791007279714,"16":-0.19064957574314415,"17":-0.2243863576259263,"18":-0.05685015768327943,"19":0.046861990526507455,"20":0.1289305354001873,"21":0.14351250632379836,"22":-0.06110182786294123,"23":-0.12312465664832996,"24":0.15897346992807715,"25":0.04286843281415288,"26":0.23225384531774887,"27":0.17179635821518788,"28":0.03975268264046114,"29":-0.22349210372759923,"30":-0.19339042274968665,"31":-0.016675025981498684,"32":-0.04188263632722705,"33":0.0905101312600523,"34":-0.022474408411394,"35":-0.11274446653525105,"36":0.12360144577206084,"37":0.11219293671635176,"38":0.2380992662647009,"39":0.061205175682549025,"40":0.07787423974840509,"41":0.03010814921252076,"42":0.04418040008550169,"43":0.20377501989694774,"44":0.19154195598580664,"45":0.05910319384111366,"46":0.11441765261092784,"47":0.0711004299554118,"48":0.20637414474335156,"49":-0.047976652225593004,"50":0.09611440901568334,"51":-0.18886186011878855,"52":-0.07981946374224627,"53":-0.07641065358397646,"54":0.050404814010912305,"55":0.0015637770366958056,"56":0.07188271059724445,"57":0.08945648281574274,"58":0.12627854887065573,"59":0.12098560112649245,"60":-0.03514640172033042,"61":0.07037335051852053,"62":0.16218354041131766,"63":0.14211732622638343,"64":0.17925590509437592,"65":0.0850979970247357,"66":-0.01105053589892896,"67":0.009529741044043296,"68":-0.08181958554437933,"69":-0.05474866680696664,"70":-0.05542298441673841,"71":-0.01162289285257556,"72":-0.08920729735299206,"73":0.030360457873078346,"74":0.06877054511250773,"75":-0.0647764822480415,"76":-0.12802761244088617,"77":-0.0007821839335523935,"78":-0.026085617673318642,"79":-0.15152690555828444,"80":-0.014597986698388264,"81":0.06988251095304901,"82":-0.023411078331783117,"83":-0.030724639049233296,"84":-0.0015023322403686441,"85":0.06797195579620015,"86":0.15699542501229236,"87":0.1856720167962224,"88":0.009529259351086389,"89":-0.15822599334656398,"90":-0.058723814561960144,"91":0.15672496644599315,"92":0.1824375714531615,"93":0.03073981038139671,"94":-0.030716360939353867,"95":0.03432458255674831,"96":-0.15297946080385488,"97":0.13511277932558255,"98":0.17690778460367787,"99":0.08350623966490056,"100":-0.16115419465970293,"101":0.1485037108919102,"102":0.003930444157517685,"103":0.07501739192482974,"104":0.12658633714444617,"105":0.16853536708063438,"106":0.10537687292663897,"107":-0.11066778950586095,"108":-0.19631281631640557,"109":-0.13341336703208337,"110":-0.1478552783661027,"111":-0.17411021153065123,"112":0.1416656072277583,"113":-0.03795667653168549,"114":-0.026068808616429826,"115":-0.07568229923442382,"116":-0.0505428973042083,"117":-0.17800770624292173,"118":0.07927535155455345,"119":-0.16852762889805412,"120":-0.14861492842669136,"121":0.1343894932854268,"122":-0.10441210263129513,"123":-0.10982984383188162,"124":0.1857204967884321,"125":-0.23581242243095596,"126":-0.05191690690854805,"127":0.15490268357804332,"128":0.2035112765756159,"129":0.2109539164323951,"130":0.16477356599389023,"131":0.007537479019401828,"132":-0.08479528052770163,"133":0.06823561356174342,"134":0.14241012689949614,"135":0.04721720466976133,"136":0.03577373373331155,"137":0.031210252422056186,"138":0.0955951714665677,"139":-0.18473429972536592,"140":-0.04946219851552639,"141":-0.1979937788724078,"142":-0.11568068418736621,"143":-0.19333444723688972,"144":-0.07494193077907924,"145":0.07799175036531165,"146":0.11787463440633153,"147":-0.23205570119039018,"148":-0.20832515792543668,"149":-0.14744349213742483,"150":-0.0992583171220995,"151":0.02648295957969634,"152":0.22157437598992988,"153":0.13451141450247633,"154":-0.23403387758328117,"155":0.027684288946806516,"156":0.08109904918300202,"157":-0.0060574666268691365,"158":0.00150997319511495,"159":0.07249873111769557,"160":-0.21454336023897808,"161":0.028451875434975703,"162":-0.15895577881382988,"163":0.02015373435450135,"164":0.010412431275531008,"165":-0.13093648820399015,"166":-0.12132674558087812,"167":-0.0090764122515233,"168":-0.009730807301566606,"169":-0.0490921480912683,"170":0.03764569507049448,"171":0.12071237945606823,"172":-0.12185743881797605,"173":0.0661750365583206,"174":0.16271942010826687,"175":0.1005881057767947,"176":0.041110779812458885,"177":0.04665997232932392,"178":-0.10188541395245089,"179":0.11912729684732576,"180":-0.09168759472839319,"181":-0.06060059341397026,"182":0.0830125690793128,"183":0.18306281329345747,"184":0.00745148431667883,"185":-0.1974907679189717,"186":-0.1875502154862787,"187":0.011409246361472166,"188":-0.21506161963933004,"189":0.1189935085275695,"190":-0.18675056326675213,"191":0.08899399566441393,"192":0.2054799316670208,"193":0.05106962300715881,"194":0.06764781476609803,"195":0.08185180467089366,"196":0.1596699422900114,"197":-0.11721493479896,"198":0.11585499280410688,"199":0.03218275763508836,"200":-0.15110845345815638,"201":-0.16469666413362508,"202":-0.12813571520275807,"203":0.050212128144220096,"204":0.15024604691220528,"205":-0.2026663835174347,"206":-0.027466142762610706,"207":0.12484018965242603,"208":-0.005053677855896852,"209":-0.19037715274735004,"210":0.03333255404883758,"211":0.04081738962181059,"212":-0.17620433453883066,"213":-0.08892655683912863,"214":-0.0865751193065356,"215":0.03776342046786699,"216":0.2038334469416499,"217":-0.06535279166159254,"218":-0.19753066409985554,"219":0.03773475588404646,"220":-0.08176368511692989,"221":0.09222523625143551,"222":0.04169701673544654,"223":0.08516448921717483,"224":-0.1319605987817368,"225":-0.033544303097484594,"226":0.009562033105492068,"227":0.06528621161320278,"228":-0.08567574508394465,"229":-0.22234686598059553,"230":-0.06693403467814757,"231":-0.0571054762728403,"232":0.08893740342746728,"233":0.1741513175044016,"234":-0.1716557970445521,"235":-0.0053896314777272395,"236":0.10905258604491481,"237":-0.046279185577320574,"238":-0.0012302929501251964,"239":-0.2115328369684024,"240":-0.06454773165607405,"241":-0.21280328421576336,"242":0.09420299247066972,"243":0.047279273291405646,"244":-0.10603603917155853,"245":-0.2861956169416033,"246":0.07880017646901324,"247":-0.12385897466728425,"248":-0.00920071975338989,"249":-0.008400027220938612,"250":-0.11957457483268168,"251":0.2213110521788375,"252":0.14520038491100715,"253":0.06986215932126558,"254":-0.14082381506132705,"255":0.16422893303950556,"256":-0.18745992739430337,"257":0.16294791368260533,"258":0.13241438676217282,"259":-0.17798378801002798,"260":-0.015155823015373333,"261":-0.15962050594795574,"262":-0.051168314782658784,"263":0.18954388388514923,"264":-0.19914398096975963,"265":-0.1963062231258629,"266":0.16455144660829754,"267":0.14182413808511582,"268":-0.2009184176076279,"269":-0.14193598945620495,"270":-0.03556945010357604,"271":0.20561568147272485,"272":0.0820097253893893,"273":0.018759691105136422,"274":0.08223630404388324,"275":-0.03879532946442023,"276":0.24941144565220985,"277":0.016278604140779543,"278":0.18229128997831967,"279":-0.06755346454677645,"280":-0.21729301412644095,"281":0.22821121852698345,"282":-0.15160124856635945,"283":-0.06314703721444184,"284":-0.1640762516971831,"285":0.025105231493441883,"286":0.011628360688796061,"287":0.12996164708339927,"288":0.007647551370095468,"289":-0.029807935146470847,"290":0.007036558096815244,"291":-0.16774850624426796,"292":0.029899023648088996,"293":0.16942965240826735,"294":-0.06715435510302491,"295":0.13427120130946388,"296":0.190881049583805,"297":-0.007210371778436471,"298":-0.14805524811676454,"299":-0.00290890761113986,"300":0.269873350889386,"301":-0.012324795137247187,"302":0.04966116762868428,"303":0.15475238987167103,"304":0.07572401609897224,"305":0.09017297934134745,"306":0.12798128724113916,"307":-0.06506541245499985,"308":0.1334110896689379,"309":-0.194874729094726,"310":-0.08441758258105399,"311":-0.18070921401288842,"312":-0.10160087005644743,"313":-0.17817874164435535,"314":-0.15738359215680908,"315":0.11931775846540592,"316":-0.16736102070395747,"317":0.03346129801895773,"318":-0.16980294977136862,"319":-0.08413904244935419,"320":0.055056433027757576,"321":-0.018678249649913176,"322":-0.011221548762607569,"323":0.02377043803224733,"324":0.12849510237404352,"325":0.15779743964795145,"326":0.16002945071082447,"327":-0.037250369592003056,"328":-0.13870616498302246,"329":-0.007646262366479526,"330":-0.10310620071862978,"331":0.02173181931245981,"332":-0.038251761952637874,"333":0.05583853672166545,"334":-0.22908508224719532,"335":0.0932847274841471,"336":0.10191550123967211,"337":0.10515064642108832,"338":0.06671012280673275,"339":-0.19606848943122623,"340":0.09733259442380823,"341":-0.12389680151486959,"342":-0.08552130116618727,"343":0.07407269853532984,"344":-0.1333182259416989,"345":0.04247222996864769,"346":0.1859987846354295,"347":-0.04522583853307866,"348":-0.11535796002631787,"349":0.042456835415082196,"350":0.09609403917257885,"351":0.1400434542823995,"352":-0.10848181487882079,"353":-0.022635469822599903,"354":0.002073497092671654,"355":-0.17270825346715482,"356":-0.21967693813051095,"357":0.1280672127721898,"358":-0.18539265302084282,"359":-0.01727851340135912,"360":-0.022705905936471073,"361":-0.22408625661995507,"362":0.09216865139710474,"363":-0.19067054970917363,"364":-0.19655173698150813,"365":-0.06506987615755924,"366":-0.029144103744480565,"367":-0.06112209771341337,"368":-0.14972992423611473,"369":0.06353925508256499,"370":-0.05912380035257589,"371":-0.02845956059858255,"372":0.02540570208224867,"373":0.1126215995510013,"374":0.08570583708349258,"375":0.22158511115393897,"376":0.12405243380633162,"377":-0.060002666052253746,"378":-0.0892403564460545,"379":0.1497271182029839,"380":0.11185343813594736,"381":-0.08398259988238638,"382":0.17517236651733614,"383":-0.11999943643327844,"384":-0.21234023309356279,"385":-0.1789884943347251,"386":-0.16316213819393122,"387":0.14435202750194862,"388":-0.15206431312767205,"389":-0.1121210054346363,"390":-0.14657505722275682,"391":0.010157343979887117,"392":-0.07771893118572384,"393":0.019311825621666973,"394":-0.13071010883687548,"395":0.163225697630716,"396":0.09067029224753093,"397":-0.07685057834085224,"398":-0.11264147199325815,"399":-0.020844440099599147,"400":0.16311126469859266,"401":0.006237999353322822,"402":0.1857514659854584,"403":-0.09390916038734899,"404":-0.16941336772512558,"405":0.06578975619356198,"406":-0.09234754454598974,"407":-0.22627422084096538,"408":0.03836347100349893,"409":-0.13867449257368705,"410":0.10466340796618136,"411":0.1241806643182413,"412":0.09688609867851647,"413":0.05461132986288817,"414":0.1862668801222845,"415":0.06578407933800484,"416":0.05589652827764738,"417":0.24571978250453225,"418":0.10626827696681533,"419":0.10121592492176654,"420":0.11060719263815838,"421":-0.16823248261548546,"422":0.15424018570136228,"423":0.10189032482520578,"424":0.19671417931270524,"425":-0.16391761789507422,"426":0.23837238232473928,"427":0.15617386766207883,"428":-0.16095327676493973,"429":-0.1444706060371957,"430":-0.05299000135188498,"431":-0.0274114979880445,"432":-0.07411233468370934,"433":0.07469487145112307,"434":0.042474127587033915,"435":-0.1737979331157723,"436":0.017575753302736634,"437":-0.2291403821875889,"438":0.16377919909716498,"439":0.04677780906239506,"440":-0.16263251247644683,"441":0.1040778455519273,"442":0.21711404522060876,"443":-0.2246319334722121,"444":0.01876685681421734,"445":-0.16346662340661253,"446":-0.1376274189865084,"447":0.19794718971644354,"448":-0.22871814704959095,"449":0.09742519424278588,"450":0.23861996525990367,"451":0.20501755073363062,"452":-0.20804706864558103,"453":-0.15098822526705816,"454":0.08441521311968653,"455":-0.02239669304654124,"456":-0.038450807307502353,"457":0.1559554925717995,"458":-0.2217127260563902,"459":-0.09594547382565112,"460":0.0018678755336482946,"461":-0.14458148691926742,"462":0.09777582526677847,"463":-0.0225819264963069,"464":-0.10718904578184793,"465":0.0364519398280402,"466":0.08663788416625555,"467":-0.11347267916320902,"468":-0.09311030939099448,"469":-0.14568574103666726,"470":0.15969753419854307,"471":0.016942829519845753,"472":0.20726942407012702,"473":0.005096752554111706,"474":0.24121725905900318,"475":0.1551466991160898,"476":-0.031845918274006686,"477":-0.012146250372648361,"478":-0.2873350874080166,"479":0.013989312731171596,"480":0.2076157909813075,"481":0.08629859045873255,"482":-0.018397599529944596,"483":-0.06833856641217369,"484":0.15793976326305387,"485":-0.1076135582289499,"486":-0.1148172335127107,"487":0.11693369410363082,"488":0.1418997175121474,"489":0.09658331742532503,"490":-0.017961378068969854,"491":-0.16009385532422052,"492":0.0028630504230674815,"493":0.07964500463122395,"494":0.23567267909321285,"495":-0.16428821157741383,"496":0.0040070631719994355,"497":0.11999051542279365,"498":-0.14295029277291177,"499":0.025824871967266384,"500":0.019202086660699266,"501":-0.22042828166259643,"502":-0.19015414332824437,"503":-0.05045994549427991,"504":0.08900873640634532,"505":-0.07175996751144165,"506":0.03152727096547247,"507":0.06958235414123465,"508":0.0795923147870169,"509":0.12072171067155987,"510":-0.16431540825624458,"511":0.17161209145928896,"512":0.011211576962808424,"513":-0.12932504896307434,"514":-0.009445090943752095,"515":-0.1646217116134501,"516":0.19895425642327733,"517":-0.013924767186558563,"518":-0.11243931409446052,"519":-0.025014930980115396,"520":-0.11030806784503919,"521":-0.16956810952985352,"522":0.03654800865398867,"523":-0.22465842822183557,"524":0.06812107151137275,"525":0.036006016532876994,"526":-0.17167942628770702,"527":0.055858808592769746,"528":-0.09851013482258236,"529":0.04971994228532885,"530":0.19878595481990072,"531":-0.18664147655776306,"532":-0.07803635781617818,"533":-0.09518526914326972,"534":0.14788924426531339,"535":-0.00450698225764141,"536":0.3043237335722478,"537":0.00662591743646923,"538":-0.009794547360526467,"539":-0.17821156574527816,"540":-0.04353714586342838,"541":0.1219845465138699,"542":-0.032179936884689474,"543":-0.13423244228513362,"544":0.1059492518812636,"545":-0.013006804444683866,"546":-0.17687203303544016,"547":-0.11291911994624206,"548":-0.02496524845173812,"549":-0.0054446008632956676,"550":0.006454608164569597,"551":0.1741477002310072,"552":-0.07830133051249613,"553":-0.0035220423795190173,"554":0.024313609785302646,"555":0.2312449280946525,"556":-0.030644021885339663,"557":-0.09910532245505253,"558":-0.02096779487079686,"559":0.09164822444696957,"560":0.19110714363711237,"561":-0.052985063627928104,"562":0.12380690512296279,"563":0.03957048150832481,"564":-0.0013382943582900609,"565":0.045350106398479126,"566":-0.07117433168148782,"567":0.0243256189578364,"568":0.1847165788371959,"569":0.17815651308043126,"570":-0.015390300665852253,"571":-0.037202017390827555,"572":-0.07785245213167144,"573":-0.04389145330218966,"574":0.1569346269359076,"575":-0.1728513700843597}},"4":{"bias":0.058918059856542,"weights":{"0":0.017462883511241485,"1":-0.12823216185192182,"2":0.08443980251224,"3":-0.08697138820332202,"4":0.0903060048372362,"5":0.23179586445448466,"6":-0.12798458922288994,"7":-0.023755713052640848,"8":-0.10569446022557662,"9":-0.018895858860674256,"10":0.049115934929366514,"11":-0.02499097833072779,"12":0.18094247905114239,"13":0.055506064183180846,"14":0.02189484519910244,"15":0.024512684841470178,"16":-0.18635487161959394,"17":0.07252395459707245,"18":-0.02508649356630473,"19":0.0200280410597441,"20":0.019017879196229624,"21":-0.18238875043464917,"22":0.08627207525490413,"23":0.04627186941367545,"24":-0.11950898973995738,"25":0.15752395502597005,"26":-0.15555005710769843,"27":-0.1947468113263791,"28":-0.11205101477840976,"29":0.15580527646212383,"30":0.20487103191018252,"31":-0.005666732310696513,"32":0.13716357254941236,"33":-0.015719139989439624,"34":0.1533549957647684,"35":0.008342166453203086,"36":0.15420260789923332,"37":-0.23403443267896243,"38":-0.1949831319014649,"39":0.12310173138203238,"40":-0.01741405825457432,"41":-0.1122121799290539,"42":-0.022588066335926003,"43":0.16546883390460687,"44":0.013090683963652332,"45":-0.03666970867196968,"46":0.12088135587194487,"47":-0.19946357678361717,"48":0.11194993712127807,"49":-0.07724683392960086,"50":-0.12306295768657648,"51":-0.14951980441102627,"52":0.13756745606961596,"53":0.01885103858316579,"54":0.048855694319513004,"55":-0.0800763186950296,"56":0.08287693921290129,"57":0.13990568054299757,"58":0.15373156329238413,"59":-0.1712897882147366,"60":0.10986902209693998,"61":-0.0528673912181932,"62":-0.020914832603655713,"63":-0.09313254020375716,"64":0.007723941374803198,"65":-0.00799229530446585,"66":0.03550745118633126,"67":-0.020808623721288055,"68":0.18070428011685508,"69":0.016226320428067167,"70":0.05527512426313233,"71":0.1796216522079712,"72":-0.21304422566715114,"73":0.08241065770763423,"74":0.08627152762882515,"75":0.101961010061179,"76":-0.011860627621340982,"77":-0.11494944823739783,"78":0.1251249618243974,"79":-0.19109464109519242,"80":0.034277986469741,"81":-0.0250378456032791,"82":0.1671499697048136,"83":0.0955116396073839,"84":0.03308839204734317,"85":-0.06256333966158316,"86":0.051247000080904485,"87":0.05248631270117526,"88":-0.051734873921836205,"89":0.1990943465242629,"90":0.1656477165829529,"91":0.19501548278856004,"92":-0.02181865244717941,"93":0.23205228286870958,"94":-0.1182211142925006,"95":0.04486749807042078,"96":0.05285272573336349,"97":-0.1363825870062395,"98":-0.13931731298149036,"99":-0.035855451267416766,"100":-0.10759269853806745,"101":-0.1960366201257314,"102":0.1645141225985124,"103":0.07144126262987997,"104":-0.136730655280277,"105":-0.11742940793339102,"106":-0.03592894343653471,"107":0.11686206516023549,"108":0.19270062854728826,"109":-0.0462697216247485,"110":-0.10066726792433167,"111":-0.03312279700396269,"112":-0.0440763788916444,"113":0.008159292841123161,"114":-0.09767761377558888,"115":-0.18706985120648098,"116":0.14919883930614558,"117":0.0007295928687526029,"118":0.06947914157910513,"119":-0.05195218671411278,"120":0.020975288299878596,"121":0.17930153675754718,"122":-0.10317862070979508,"123":0.037288307853723314,"124":0.03988012017409117,"125":-0.16812536533500191,"126":-0.04176982794553442,"127":0.04881365329825008,"128":0.14979527812425641,"129":-0.006429601733433189,"130":0.17274418071030145,"131":0.0044932200358375465,"132":0.05348012421288136,"133":-0.02722457851857171,"134":0.19782086808444319,"135":-0.049961289533543625,"136":-0.1665010353095913,"137":0.07698685304321022,"138":-0.16264560466656838,"139":0.04873186648293663,"140":-0.17420103608715368,"141":-0.2019813512724016,"142":0.16014813768170358,"143":0.08956026707861921,"144":-0.022275324469337426,"145":0.024984995700111885,"146":0.04630488409423647,"147":0.17751169308297998,"148":-0.09837237722750436,"149":-0.22263920537152637,"150":0.03225436147929895,"151":-0.10227820160129732,"152":0.0300859109989249,"153":0.021027119971630367,"154":-0.029234047185150616,"155":0.04060744584159854,"156":-0.19207019676358206,"157":0.08168596900021598,"158":-0.0682089026579962,"159":0.1372957036468233,"160":0.26925378404997635,"161":-0.13387608967835302,"162":0.01886963018412669,"163":-0.0930958033102418,"164":0.029154673886003082,"165":0.06009619406038906,"166":0.03066120737252385,"167":-0.06820169703003737,"168":0.10363371044572686,"169":0.12163957004208145,"170":-0.02305429812914232,"171":-0.0032391634855222988,"172":-0.20059357444047718,"173":-0.047116405831366295,"174":0.14715697603729286,"175":0.09639540985870179,"176":0.050458498551592984,"177":0.03610169738032709,"178":0.06444346901611969,"179":-0.08966179339124769,"180":-0.1705158380420612,"181":0.09700157436063117,"182":0.12338866792783239,"183":-0.03805196828145277,"184":-0.05390652918550834,"185":-0.1430467669751395,"186":-0.10262809888086866,"187":-0.2518791290152415,"188":-0.06874337631523579,"189":0.007242808581701026,"190":0.018143755242034588,"191":0.07724893504849248,"192":0.1567868675792717,"193":-0.03212639446538359,"194":0.1680393885020095,"195":0.1104976988588267,"196":-0.05130576082965148,"197":0.18098166291135637,"198":0.16156400709552776,"199":-0.013466066547821837,"200":0.17235181157318885,"201":-0.061143666312659044,"202":-0.15843939060339818,"203":-0.030142013768512978,"204":0.1924651374230004,"205":-0.02310777219896114,"206":-0.08330291141502333,"207":0.16191893463275858,"208":0.1549877397219174,"209":-0.13731582258882874,"210":0.027808810972478552,"211":0.15791151846418788,"212":-0.17095477992789473,"213":0.06376494091777897,"214":-0.11870945262946918,"215":-0.0029151775387190825,"216":0.0006187726555998404,"217":0.18870229854388482,"218":0.05886383557280456,"219":0.13644614624069454,"220":0.06327458778508124,"221":0.06201010220804738,"222":0.19624510617644333,"223":-0.0010700942596656548,"224":0.21064919994542045,"225":-0.08739770270739126,"226":-0.11358798421242615,"227":0.0006823789560217364,"228":-0.1697344542400996,"229":-0.11943320857066776,"230":0.023220525737901714,"231":0.15335236256570683,"232":-0.020317119679133522,"233":0.13267604822996926,"234":0.14729265158442437,"235":-0.0754781401005087,"236":-0.18468642271128546,"237":0.06318647419001586,"238":-0.0419270945425208,"239":-0.01869853467629635,"240":0.13187273738492222,"241":-0.03336679224794531,"242":0.1443784754180087,"243":-0.05344509823507441,"244":-0.16026373765848842,"245":0.20330755394648534,"246":0.14659534991126788,"247":0.08604006420188334,"248":0.20212592955221445,"249":0.014906890254252346,"250":0.08363932799671873,"251":-0.19459889383724602,"252":0.08866272859338545,"253":0.10910708459742062,"254":-0.010067994982548232,"255":-0.14875144664279114,"256":0.08838519878871746,"257":0.012142807943978786,"258":0.01790772973787072,"259":-0.1261296730332551,"260":-0.008865539135313353,"261":-0.19210797968934534,"262":0.03069519319812994,"263":-0.16758223296642602,"264":0.1613110733987466,"265":0.09926350474905275,"266":0.1365950461601802,"267":0.14734829916818887,"268":0.1442523361159156,"269":-0.027701131384888545,"270":-0.12894497732306381,"271":-0.08806872830805418,"272":0.10982107563892053,"273":-0.12395835926444641,"274":-0.059025485484931195,"275":-0.2264007326214868,"276":-0.13351141813695275,"277":-0.23503310521243034,"278":-0.003023193867038199,"279":0.08096972156761592,"280":0.025006972287936396,"281":0.012724949843170552,"282":0.19748990929206084,"283":-0.1077699499230857,"284":-0.11135166965842762,"285":0.01127432296234777,"286":0.19546227517352105,"287":0.03994388396227284,"288":0.15606369344058393,"289":-0.2158906080540685,"290":-0.13481508845980417,"291":-0.197192434626496,"292":-0.1788894580946787,"293":-0.07252175700004213,"294":0.10026893672916702,"295":-0.024418215851828826,"296":0.15962369112776867,"297":-0.10928161539439006,"298":-0.09719853597832326,"299":-0.1941037728835118,"300":-0.1683780190545074,"301":-0.3158491957779723,"302":-0.05314631719522324,"303":0.03924117783241898,"304":-0.0372584584510012,"305":-0.035223825760258336,"306":0.0265089435657039,"307":-0.14804781225022023,"308":-0.05413150888644005,"309":0.09895820044082249,"310":0.1526104727861158,"311":-0.024584753761735502,"312":-0.02264029847390124,"313":-0.1387064458165281,"314":0.11332750973364854,"315":-0.044000206143640024,"316":-0.04654786186946901,"317":-0.21086907626025322,"318":-0.07648789408572865,"319":0.10272255087317786,"320":0.10137083463456237,"321":-0.1408973247216533,"322":0.10922430788037482,"323":-0.16693800498032418,"324":-0.198555422788493,"325":-0.25325604434129906,"326":0.016346720127559878,"327":-0.13168177407550374,"328":-0.10136133578093634,"329":0.19302546120435782,"330":0.07887954555537802,"331":0.0989417141095306,"332":0.11793193160492883,"333":-0.171049953936125,"334":-0.12580977502402907,"335":0.15451361214930176,"336":0.1270698472609896,"337":-0.031920651315259264,"338":0.12175648050164746,"339":-0.1447661270229176,"340":-0.17328692764073098,"341":-0.006262293131071706,"342":-0.07237537827635128,"343":0.025382190859527965,"344":0.2120816470962038,"345":0.08823013814548086,"346":0.16467367772549912,"347":-0.18974075283440514,"348":0.022026343853838146,"349":-0.18792967886848316,"350":-0.1408132488588199,"351":-0.0492880036085956,"352":0.2906659448429207,"353":0.19876181834807505,"354":0.13663131401454823,"355":0.16448635918522028,"356":-0.16740873081926086,"357":0.04075871737896791,"358":-0.026725811123894386,"359":-0.09962986804255196,"360":-0.11864972596624698,"361":0.0869332061135733,"362":-0.08039452123958982,"363":0.12237956506225944,"364":-0.06485120173118426,"365":-0.17077935338350203,"366":-0.028897039843259132,"367":-0.07237127247675475,"368":-0.17601852504928658,"369":-0.10669684321590346,"370":0.07884961539478019,"371":-0.01694268373786183,"372":0.02667035707066027,"373":0.02838025895617992,"374":0.1164414883773431,"375":-0.068303473294494,"376":0.18098238760724913,"377":0.06574570196851241,"378":0.12033463273699174,"379":-0.17935095416903066,"380":0.01252192826356829,"381":-0.008056004189871126,"382":-0.1989206632940283,"383":-0.02848429494942139,"384":0.1604975857761599,"385":0.14374341590437417,"386":-0.1116508017427721,"387":-0.037642905275230926,"388":0.10919704966810345,"389":0.20422000896614037,"390":0.1949289955090161,"391":-0.11703646255745308,"392":0.09059958900725783,"393":-0.13378006518196442,"394":-0.05818742638740153,"395":-0.1507873638349803,"396":-0.19657918694877635,"397":0.16740971577304437,"398":-0.05079495592821916,"399":-0.08426000774215024,"400":0.015336369692661068,"401":0.046147103837210456,"402":0.00513550442021598,"403":0.007591543213155036,"404":-0.0240568340445712,"405":0.13944004410302083,"406":0.09587865241426173,"407":-0.04495649154613419,"408":-0.16764747611962524,"409":0.2293665352831903,"410":-0.16185614817738914,"411":-0.15001942953031636,"412":-0.18717679379463154,"413":0.0012993416511335888,"414":-0.21810840322733402,"415":-0.07994150065725687,"416":0.023472232219845224,"417":0.09681801088681831,"418":-0.1443793390806028,"419":0.0574850231783412,"420":-0.11978054102202813,"421":-0.08909314345830502,"422":-0.007321990661778515,"423":-0.23149374189323327,"424":0.03249783114730124,"425":-0.08651785748084627,"426":0.08047325293968238,"427":-0.14595952949589378,"428":-0.03633756757376877,"429":0.0867842290436343,"430":-0.0888947478890464,"431":0.09828801683844794,"432":0.043479252846539876,"433":-0.08075235283493024,"434":0.09739828614933049,"435":0.005740564119970615,"436":-0.09778906283537565,"437":-0.17318297624048898,"438":0.026511752249891735,"439":-0.018214369409010285,"440":-0.12958818574110603,"441":0.12252220248205666,"442":-0.009825343208770708,"443":-0.04813616895876756,"444":-0.1672461006964517,"445":-0.024838031157492044,"446":0.14816147018858739,"447":-0.09959572961241975,"448":-0.042838408726574816,"449":-0.19788077083581526,"450":-0.14771265860382954,"451":-0.15569829180175848,"452":-0.023096257864447897,"453":-0.08188349786033815,"454":0.03690032272078664,"455":0.1957630505550045,"456":-0.14676735063158042,"457":0.23416336487057507,"458":0.1625421951179238,"459":-0.13322152662260714,"460":0.05056843460030089,"461":-0.12472838175402921,"462":0.05246690458925102,"463":-0.06260727736674677,"464":-0.1149963882194953,"465":-0.18372972027913048,"466":0.15224491125984452,"467":-0.04882817257836021,"468":-0.18107033372971928,"469":-0.07253644853319861,"470":0.1310036431857244,"471":0.02284023562824901,"472":0.0760973967905252,"473":-0.09891303521711028,"474":-0.23657697679968745,"475":-0.2571709095276929,"476":-0.14749491376334165,"477":0.07700600203041583,"478":-0.0967285887775568,"479":0.08312118120912217,"480":0.178029863728696,"481":-0.013894135483676495,"482":0.10049610195179534,"483":0.1618272359325987,"484":-0.14552852445042572,"485":0.019565577906863463,"486":0.061179353571852356,"487":-0.1908193263738005,"488":0.09787934166201573,"489":0.03447756336254284,"490":0.010728674604848413,"491":0.1405055344001723,"492":-0.006299238463094805,"493":-0.0016319524614910141,"494":0.009062408435721338,"495":-0.039432623087625046,"496":0.015562004706783854,"497":-0.1774038575669234,"498":-0.0008318325928139243,"499":0.06296334751003119,"500":0.1356659527411841,"501":0.12992256283592488,"502":0.057675499329879594,"503":-0.19606117579831878,"504":0.1460247728898324,"505":-0.08527388006522967,"506":-0.06052028245896756,"507":0.032982977783313175,"508":-0.1724849348324384,"509":-0.08870546733093819,"510":0.12259806490459221,"511":0.0757004856674858,"512":0.0971930741769367,"513":0.05311184766417128,"514":-0.1710170524469097,"515":0.09447555974510735,"516":-0.09766690092091748,"517":-0.17532771999011537,"518":-0.11520341882669174,"519":-0.19238080676698985,"520":-0.13661957956214069,"521":-0.18028495043648488,"522":0.04387255055885183,"523":0.10189549322577891,"524":0.08498707773550475,"525":0.1903098643464207,"526":0.07080527238673007,"527":-0.08564041616834299,"528":-0.19410407865200432,"529":0.044314934442402504,"530":-0.09707731829155598,"531":0.0021077363669349896,"532":0.16541319675439817,"533":0.0350614496501759,"534":0.10827772417080253,"535":0.05980570857555064,"536":0.025655449905385402,"537":-0.049988512875273554,"538":0.03720324543797832,"539":0.17177894352891698,"540":-0.07603186636459196,"541":-0.06688408712518899,"542":-0.14628208362085615,"543":0.19998477501919928,"544":0.072687237793176,"545":-0.09708878072596143,"546":-0.19863163184102875,"547":0.018957560669548006,"548":0.13026236593067012,"549":0.09183591520644378,"550":0.11669091817564123,"551":0.06577022314583438,"552":-0.07780570218965863,"553":0.16300214839730354,"554":-0.09636914713922662,"555":-0.03746668248141751,"556":0.20967473378584287,"557":0.019393509917894743,"558":0.235040115568089,"559":-0.09558636349735185,"560":0.10840223414542127,"561":-0.07368747328975243,"562":-0.08982419848590081,"563":0.02127930265703807,"564":0.054858517296964254,"565":0.1902628957207505,"566":0.017880334451769165,"567":0.008484418619190186,"568":-0.08688269187192063,"569":-0.1537053739940046,"570":-0.20605105295292964,"571":0.009838719419185193,"572":-0.02439107718341097,"573":0.1667839208823255,"574":0.11278879041502733,"575":-0.04315676639212847}},"5":{"bias":-0.007339689048757585,"weights":{"0":-0.011704903873756776,"1":0.12585462362959188,"2":0.21617523658896265,"3":0.12928117501680128,"4":-0.017646659456520046,"5":0.0322329291850131,"6":-0.12913153397100338,"7":-0.04416266507879368,"8":-0.11345636631087062,"9":-0.06595067348687846,"10":-0.24960664096852467,"11":0.08564468154831097,"12":0.13584026923563963,"13":0.17482839459278554,"14":-0.01729555135789289,"15":0.017783090608705483,"16":-0.030846464369076943,"17":-0.2088909855750551,"18":0.12651133740254547,"19":-0.13588621469899373,"20":-0.13730022338533385,"21":-0.04136987767857115,"22":0.05938252862126545,"23":0.04068721193211727,"24":0.15563627685729226,"25":-0.00887030800776125,"26":0.20188587536630634,"27":0.17262689835310024,"28":0.008255337990314063,"29":-0.09078149950368813,"30":0.0040803114610812275,"31":-0.1379104824310463,"32":0.11607073074380192,"33":0.07579085106032223,"34":-0.18400945334274174,"35":-0.14820492193487658,"36":0.15315420320003342,"37":-0.11533799908420504,"38":0.0855760416728984,"39":0.17537849970670508,"40":-0.06283132725642943,"41":0.03515468580106533,"42":-0.06008638574840471,"43":0.1094993776541666,"44":-0.11988203584774158,"45":0.12876624994186564,"46":-0.15532400242847258,"47":-0.07406845947349111,"48":0.09072002948589532,"49":0.1895541047907664,"50":0.22427514277294458,"51":-0.07486876016912426,"52":-0.12049148661280079,"53":0.14841514729231015,"54":-0.07777398649137444,"55":0.07366979450214048,"56":0.18604865422992914,"57":-0.012243310386890863,"58":0.11552216592306917,"59":0.2013340135391278,"60":0.19418072683083712,"61":-0.10148034473183522,"62":-0.12977167911535423,"63":-0.06820362050432877,"64":0.1950261644460515,"65":-0.08805977798866353,"66":-0.2179004821070298,"67":-0.011190007446254433,"68":-0.126867424989376,"69":0.0979017437867038,"70":0.08477306186913712,"71":0.0227124834848576,"72":-0.04594424862240476,"73":-0.02701077074577356,"74":0.013111091400927614,"75":-0.07847868850124014,"76":-0.11512891633708326,"77":0.06656336377324168,"78":0.08254296531679653,"79":0.11333158716383743,"80":-0.01235787191039891,"81":0.05973707257993318,"82":0.15648674689049347,"83":0.014456391050534033,"84":0.2154141706068269,"85":-0.03603447361054983,"86":-0.12972650640877245,"87":-0.01151944369598099,"88":0.09890690827721685,"89":-0.05948046627413751,"90":0.1617188885433037,"91":-0.08269034999620845,"92":0.13201221110805433,"93":0.030594915368670542,"94":0.16065701968182045,"95":0.10978871019201708,"96":-0.04899963043740368,"97":0.12311227510535475,"98":-0.13325082450005518,"99":-0.02985564394550704,"100":0.11067350553448657,"101":-0.021738432843746,"102":0.16739725513465495,"103":-0.01642488203058686,"104":-0.01956726935747764,"105":-0.08218128666852019,"106":-0.06641505120252099,"107":-0.12872480845733328,"108":-0.008704242875932501,"109":-0.13424386206969496,"110":0.11112900774545986,"111":0.10033726512691803,"112":-0.15997049442326805,"113":0.16878826166392727,"114":0.04779587745204574,"115":0.009276196270623809,"116":-0.24467940361435986,"117":0.1404046021669276,"118":0.04470566912329635,"119":0.04270696488750475,"120":0.09911569393901003,"121":0.15346744858383735,"122":0.007352818481336922,"123":0.18534995448832348,"124":-0.00577227673353234,"125":0.16003969112295793,"126":0.0583864259483901,"127":0.08298626745667875,"128":-0.07035553461776684,"129":0.05558640453822601,"130":-0.11758194042104525,"131":-0.11756606920990745,"132":-0.148517018248235,"133":0.02321619488104103,"134":-0.08708361553877171,"135":-0.05171514039572159,"136":-0.24580984453992427,"137":-0.12113230312597373,"138":0.09919519191630709,"139":0.12406061328561517,"140":-0.07067578151938361,"141":-0.08821190538899502,"142":0.015888477363323564,"143":-0.06801655154592594,"144":0.09795107611625264,"145":-0.12072479679739115,"146":-0.14513002163767857,"147":-0.06670013549266525,"148":-0.13409803067672818,"149":-0.0352443818711331,"150":-0.03938290431437706,"151":-0.0314496168975733,"152":-0.004836752795585628,"153":-0.10057315835992096,"154":0.0005654272905552864,"155":-0.1916059898532683,"156":-0.19359294573670788,"157":-0.08129745427206722,"158":-0.06813809103033956,"159":0.013866680248406382,"160":0.12403608358236769,"161":-0.10328442674986885,"162":-0.09953353526550059,"163":0.06289403792076423,"164":-0.14527659538461735,"165":0.02978854427433539,"166":-0.11331809020179938,"167":-0.06419539884282674,"168":0.12799467724105737,"169":0.046641987003501785,"170":-0.10795638782885415,"171":0.14855549477040883,"172":-0.14072965160857256,"173":-0.023389877766219987,"174":0.12776971821083621,"175":0.044848871554050485,"176":-0.17516736884186984,"177":-0.005041531779558686,"178":0.19169434227689652,"179":0.15236239892071837,"180":0.11547472206658109,"181":-0.0272382873066367,"182":-0.17649615803380858,"183":-0.09489705650902049,"184":0.059846838270406204,"185":0.014225093601008697,"186":-0.15027708495203412,"187":-0.05141382651828507,"188":-0.14512335240324772,"189":0.04364856983335088,"190":0.10718143905181289,"191":-0.00175744715539482,"192":-0.017166675473087128,"193":0.01861701739171727,"194":-0.16444729388275267,"195":0.13761555147353138,"196":0.08232141032190268,"197":-0.1302989253573864,"198":0.045539351927925596,"199":0.10689677690937964,"200":-0.015606281581026761,"201":-0.035784003853936944,"202":0.07430056281425229,"203":-0.11253145259167897,"204":0.16387892551684707,"205":-0.18353735264347198,"206":-0.14017788273474688,"207":-0.20222710176145509,"208":0.18919410422112892,"209":0.013159478290062485,"210":-0.14450811545560427,"211":-0.13496327685295786,"212":-0.009801041799875893,"213":-0.0033255858742556182,"214":-0.2091984801247523,"215":-0.016683649300710358,"216":0.1789731979354743,"217":0.1616525028239151,"218":-0.21278474789355814,"219":0.17515140454673583,"220":0.01475555581938262,"221":-0.07440149812027076,"222":-0.0997980711330728,"223":0.21346039574085499,"224":0.18726291237946227,"225":-0.06126772258592426,"226":-0.14731888140595473,"227":0.1946379483426231,"228":-0.1569070296557126,"229":0.14647592727871472,"230":-0.13100317350463314,"231":0.1428602967378089,"232":0.10390104930835779,"233":-0.0005954130275359037,"234":-0.03434706593946535,"235":-0.030933559634459755,"236":0.05843604504491723,"237":-0.08256752845145342,"238":0.029045577831657763,"239":0.07649655516461491,"240":-0.17720735192426512,"241":-0.18035036325220938,"242":-0.1706642345621916,"243":-0.10475470882888388,"244":-0.1583387551429684,"245":-0.053401453091609666,"246":0.14326879550561417,"247":0.023946056705613686,"248":-0.1586505263606179,"249":0.14580799589071436,"250":0.0020764471945690552,"251":0.003260177619783348,"252":-0.11717573416999182,"253":0.11909191012434342,"254":0.09050649331833997,"255":-0.0007378336412851494,"256":0.1993382058120426,"257":0.05273286360103056,"258":0.018343045839405894,"259":-0.06366261874945275,"260":0.02714072853923663,"261":-0.05376450631208064,"262":-0.2058411915190983,"263":-0.21944862509137872,"264":-0.18657103797532587,"265":-0.238493701001021,"266":-0.11620014137295111,"267":0.016142301254328983,"268":-0.0817618828604844,"269":0.06105252878648967,"270":0.05443809683148374,"271":0.0175441418969354,"272":0.10940338270163294,"273":-0.14754149715992504,"274":0.04884686874646896,"275":0.07416643425088647,"276":-0.1460268465617723,"277":-0.13584091423632805,"278":-0.1381211444578794,"279":-0.18507925647400847,"280":0.011198321032683202,"281":0.22820632420301254,"282":-0.1119316782877162,"283":0.15093119955153894,"284":-0.058481299678732966,"285":-0.054354312953029386,"286":-0.12428890191015285,"287":0.028188909820137796,"288":-0.10630573904534826,"289":0.011941195108546231,"290":-0.1951332434053106,"291":-0.0467511039629247,"292":0.05378776602139601,"293":-0.03379241904700103,"294":-0.16093355723087863,"295":-0.11959465555285448,"296":0.03538697650229266,"297":-0.05579349227447277,"298":0.09279958074048382,"299":-0.12302882137995429,"300":-0.03917542623181306,"301":-0.21350811806680603,"302":0.024765273921640144,"303":-0.006588210377959017,"304":0.07289368377827599,"305":0.15263993999410747,"306":0.18981141479011776,"307":0.08809546389356901,"308":-0.02022871709231852,"309":0.009998024291211407,"310":-0.21029467864339418,"311":0.1278470778228865,"312":0.1342855439213845,"313":0.03738451339743482,"314":-0.24479015279476313,"315":-0.1923585441778716,"316":0.12391914611752272,"317":0.026105973023989263,"318":-0.03451489603174933,"319":0.21014115847256448,"320":0.15418974506544048,"321":0.03312384321004901,"322":0.07080542995414506,"323":0.1394236472054883,"324":0.001524149554523925,"325":0.007549766191386324,"326":-0.10507549625305797,"327":-0.06612221775637993,"328":0.06399567251447276,"329":0.16567291492841463,"330":0.101053670179617,"331":-0.10916124169661669,"332":-0.10410593121056176,"333":0.06163154481957851,"334":0.1338950694901968,"335":0.06948689177581857,"336":-0.07207901559171456,"337":0.09601212414836761,"338":0.06473511306598295,"339":-0.10092219285122225,"340":-0.15060666590545407,"341":-0.02220539835158,"342":0.19959728771713003,"343":0.045365604099171106,"344":-0.04058223349633582,"345":0.12965919063276798,"346":0.17418608384148007,"347":0.22558228826987575,"348":-0.017867738598878094,"349":0.00426252948980343,"350":-0.07277004551771087,"351":-0.15393587789269292,"352":-0.12143061564557121,"353":-0.02216987006802153,"354":0.040627439317597006,"355":0.1498736545803716,"356":0.17500531473482445,"357":0.19539049154920118,"358":-0.11250395968132178,"359":-0.17797291795511624,"360":-0.17828306571184327,"361":0.06932012168781158,"362":-0.237314805403896,"363":-0.12031336407932929,"364":0.002676543712700424,"365":-0.22844672475883537,"366":0.11950017449076655,"367":0.1359320460430875,"368":-0.10883870963044467,"369":-0.138785080087556,"370":0.06004275838268925,"371":0.018769084305155462,"372":-0.05309613907306221,"373":0.021743307609451683,"374":0.07622066351916376,"375":0.19125822620357988,"376":-0.07850302367618966,"377":0.08650788575148263,"378":0.044167942759840886,"379":0.10788078391692804,"380":-0.10608682666781298,"381":-0.023144499279406698,"382":0.20341469189636185,"383":0.07927514218394807,"384":-0.14121573457250097,"385":-0.21741335316931487,"386":0.1468543841300974,"387":-0.17306058142389638,"388":0.07905143472325751,"389":0.10188080616841215,"390":0.028284006559252402,"391":-0.03640357254073164,"392":0.15866243087186213,"393":-0.12314459973588625,"394":-0.009015399119479298,"395":0.015096464782966704,"396":-0.06480607453663897,"397":-0.14014414888215615,"398":-0.14910635596030442,"399":0.028409715675477645,"400":0.054704602525616534,"401":0.0604976024581712,"402":-0.08548434117841693,"403":0.1969187746291937,"404":0.20916856350499968,"405":-0.19883597584757748,"406":0.0035007864022219394,"407":0.06518778673884189,"408":0.08169902179861768,"409":0.12237884089265626,"410":-0.16584063730506746,"411":0.07412678111087094,"412":-0.10161991812767356,"413":-0.1406264085035462,"414":-0.062377067971010315,"415":-0.02052759952949421,"416":-0.0002637809758521799,"417":0.1658577081841627,"418":0.06872412038009731,"419":-0.04130951897318399,"420":0.00936331741026637,"421":-0.2161652597662435,"422":-0.1184702878843911,"423":-0.048337880954257284,"424":0.22300410146458594,"425":0.2291941109857368,"426":-0.03376872358543777,"427":-0.04752128495783431,"428":0.009709602746969902,"429":-0.1625120585386076,"430":0.09693747888741625,"431":-0.06520306145183022,"432":-0.07250074802841726,"433":-0.10145100673103102,"434":-0.19433116526540842,"435":-0.09374901681138113,"436":-0.21088951850878462,"437":-0.20965978995111598,"438":-0.15921467499226247,"439":0.011460250301031816,"440":-0.051593621709203036,"441":0.10069566669558337,"442":0.01857535047892158,"443":-0.06412075668942259,"444":-0.10373265032679664,"445":-0.047391713346829595,"446":0.02407622334583447,"447":0.09474471804261873,"448":0.08660707527088739,"449":0.100741764027351,"450":-0.09168071540270153,"451":0.08880161817269026,"452":0.1740339476160517,"453":-0.18367587162643473,"454":-0.09423550403294055,"455":0.10318775712481719,"456":-0.07676776745372156,"457":0.17705356981971968,"458":-0.13782804019823328,"459":0.0369982972913616,"460":0.0715812683667658,"461":-0.17436426775404548,"462":0.16386260183410525,"463":-0.18036284615718787,"464":-0.10088293361327527,"465":-0.13014125381383437,"466":-0.03827818501930737,"467":-0.039287188179332466,"468":-0.11433218154247322,"469":-0.17702446505762687,"470":0.08696062514889652,"471":0.11346752626626709,"472":-0.01570448793787013,"473":0.20291949043543062,"474":0.10012505683446231,"475":0.027805811101713443,"476":0.028598188871216696,"477":0.19107992412376149,"478":-0.04202901782462503,"479":-0.072077341203929,"480":0.06199703318175567,"481":0.11453363569536135,"482":0.15786424429428436,"483":-0.09392224892475845,"484":-0.04445905775329715,"485":-0.014924911067924483,"486":-0.19059817362329157,"487":0.07026420890591828,"488":0.17505534739748138,"489":0.13189347885994035,"490":-0.15762351082871576,"491":-0.1910280849654461,"492":-0.10546006065260805,"493":0.020657863529662604,"494":0.21053700842362624,"495":0.0046752998716069385,"496":0.14123055531633794,"497":0.07595581228503716,"498":0.1511447735739401,"499":-0.02289088355008157,"500":-0.12090288543957259,"501":0.004758300286876262,"502":0.202708962152241,"503":-0.03352766451951997,"504":0.2177825935298073,"505":0.22213410343337933,"506":-0.04124527296665996,"507":-0.13093878483646612,"508":-0.08441004168662145,"509":-0.00333425811075148,"510":0.11232054324845792,"511":0.08630964279272695,"512":0.13391698708173297,"513":-0.11704816390817861,"514":-0.0761691275336521,"515":-0.10781304111293771,"516":-0.18302834648405206,"517":-0.07464056280210118,"518":-0.14272621239943195,"519":-0.09848252790886287,"520":0.04681600921933299,"521":0.08146445435852544,"522":0.12301461453569609,"523":0.037684104722353236,"524":-0.024114133236010474,"525":-0.08323516846384074,"526":0.20675368067381955,"527":-0.04978863678547541,"528":0.06447354233848389,"529":-0.051383132742233675,"530":0.055296164789569044,"531":-0.020050468415739927,"532":-0.1241625824895421,"533":-0.010348796214624352,"534":0.17740933824229102,"535":0.2106150144418953,"536":0.20067759736792531,"537":0.20731219593592326,"538":0.04510319336450203,"539":0.17165169501735292,"540":-0.014880480744934409,"541":0.17836677282042798,"542":0.05837631010397713,"543":0.08250321625064347,"544":-0.15785161973534165,"545":0.11111662628439446,"546":-0.1636861656360899,"547":0.02776286443968409,"548":0.023820953682139934,"549":-0.1251500301088503,"550":-0.05219212798010627,"551":0.03881392180210976,"552":0.08434811696253013,"553":-0.14292934679657127,"554":0.06586969868644751,"555":0.11665536420024046,"556":0.02224277526496421,"557":0.020429200361419722,"558":-0.03461826464775735,"559":-0.060417734898537634,"560":-0.16813204852774885,"561":0.16497401599719164,"562":0.16593150088817352,"563":-0.22159683755996704,"564":-0.01136947822443313,"565":0.10438345829927538,"566":0.08932317913109097,"567":-0.1475162578132546,"568":0.11346465581798153,"569":-0.07850415558438109,"570":-0.12975259964205477,"571":-0.2193294124943629,"572":-0.1246966526099428,"573":0.015435023983062774,"574":-0.14958821817760537,"575":-0.05553218495221472}},"6":{"bias":-0.20335577825614218,"weights":{"0":-0.08258180407062463,"1":0.11585692873025011,"2":0.0894050993287051,"3":0.03568865972755361,"4":-0.04945866528127787,"5":-0.0804402207524799,"6":-0.06973448612873004,"7":0.0038359263939827244,"8":-0.01376386378824822,"9":-0.06813327806917678,"10":-0.08682340053876257,"11":0.002406030730190506,"12":0.2281247678736134,"13":0.03659816324253601,"14":0.20084222466252985,"15":-0.014858577112152448,"16":-0.06572522056310127,"17":0.07031327950976897,"18":-0.16687690345627584,"19":-0.11110841000834912,"20":-0.22614573236765131,"21":-0.04640008247607669,"22":0.0310853949521609,"23":0.15457747694211618,"24":-0.060475888748161045,"25":-0.23432779059187425,"26":-0.04835055183625839,"27":-0.025304393405079242,"28":-0.04089088890810479,"29":-0.11565567655858071,"30":0.17160853056811318,"31":0.1579652222303354,"32":-0.015515384372856291,"33":0.09365412341229296,"34":-0.13532031824159155,"35":0.140662017482717,"36":0.18389093377314136,"37":0.20372970095784676,"38":0.14887818102662365,"39":0.07641260753684508,"40":0.06606453326812321,"41":-0.10661490590030413,"42":0.07336572302433804,"43":0.13332387224900263,"44":0.08121854648626162,"45":0.1512105127166731,"46":-0.1531039530396043,"47":-0.19729900142824125,"48":-0.16703462755786522,"49":0.04004051021050127,"50":0.0019163205926161493,"51":0.15123377711144367,"52":-0.10536079783016816,"53":0.1889012724616231,"54":-0.14655553096568047,"55":0.12860747301838155,"56":0.08921918779942421,"57":0.08005237698487169,"58":-0.1775385671812555,"59":-0.09397046268405237,"60":-0.15220174425226618,"61":-0.13951704640300025,"62":0.1766480546724557,"63":0.2036637531578628,"64":0.2475245579563708,"65":0.1772363462095626,"66":0.1965383267992526,"67":-0.04354746853293546,"68":-0.07210636012460843,"69":0.10246942615520373,"70":0.08970243130658184,"71":-0.18290800778987848,"72":0.10010414098487883,"73":-0.05418322694877441,"74":0.1703188735829379,"75":0.008856627659697767,"76":0.18811564653352314,"77":-0.014846548179422875,"78":-0.07435249193807471,"79":-0.148704172476308,"80":0.08624318036794583,"81":0.056997750842656895,"82":0.07250385211736025,"83":0.037083175447198025,"84":-0.08058328983879427,"85":-0.19230823525835808,"86":-0.055017302182577256,"87":0.051749694622441014,"88":0.18549250824915092,"89":0.07805072866274444,"90":0.15255052161583355,"91":0.1296895197884881,"92":0.05907506847290654,"93":-0.07331682735017384,"94":-0.11411357284201055,"95":0.008048937954615748,"96":-0.030948376700987712,"97":-0.2176528757222699,"98":-0.02585636906219144,"99":0.1578782703952852,"100":0.08526354922459485,"101":-0.1376228648336695,"102":0.12395768360087771,"103":0.126763593065799,"104":-0.04593315409462542,"105":-0.04415358613251954,"106":0.12065647480022272,"107":-0.022664538788264424,"108":-0.05685764227254798,"109":0.09204455773296667,"110":0.04551638464515451,"111":0.11382545102060468,"112":-0.04948787085042872,"113":0.021470736943201733,"114":-0.09964678606526853,"115":0.094890604443941,"116":0.091913741268082,"117":0.1723800382229226,"118":0.2140230813493823,"119":-0.09287781647214474,"120":-0.1379754433782463,"121":-0.1883860497596886,"122":0.15107439000720316,"123":-0.013996177483565223,"124":0.16815670431391663,"125":0.20261838207629895,"126":-0.007170558047814123,"127":0.19226616800593405,"128":0.16987090225926396,"129":0.027014775519461534,"130":0.06713530339471065,"131":-0.09528952496663806,"132":-0.16903610411201384,"133":-0.0205041976410765,"134":-0.11089768086587869,"135":-0.17493342554627023,"136":0.00940115850144159,"137":-0.08675239449976561,"138":0.0802941359674335,"139":0.02451646943024015,"140":0.1399832142923074,"141":0.2195903777834638,"142":0.13750140734812558,"143":0.0641381457624481,