{"layers":[{"0":{},"1":{},"2":{},"3":{},"4":{},"5":{},"6":{},"7":{},"8":{},"9":{},"10":{},"11":{},"12":{},"13":{},"14":{},"15":{},"16":{},"17":{},"18":{},"19":{},"20":{},"21":{},"22":{},"23":{},"24":{},"25":{},"26":{},"27":{},"28":{},"29":{},"30":{},"31":{},"32":{},"33":{},"34":{},"35":{},"36":{},"37":{},"38":{},"39":{},"40":{},"41":{},"42":{},"43":{},"44":{},"45":{},"46":{},"47":{},"48":{},"49":{},"50":{},"51":{},"52":{},"53":{},"54":{},"55":{},"56":{},"57":{},"58":{},"59":{},"60":{},"61":{},"62":{},"63":{},"64":{},"65":{},"66":{},"67":{},"68":{},"69":{},"70":{},"71":{},"72":{},"73":{},"74":{},"75":{},"76":{},"77":{},"78":{},"79":{},"80":{},"81":{},"82":{},"83":{},"84":{},"85":{},"86":{},"87":{},"88":{},"89":{},"90":{},"91":{},"92":{},"93":{},"94":{},"95":{},"96":{},"97":{},"98":{},"99":{},"100":{},"101":{},"102":{},"103":{},"104":{},"105":{},"106":{},"107":{},"108":{},"109":{},"110":{},"111":{},"112":{},"113":{},"114":{},"115":{},"116":{},"117":{},"118":{},"119":{},"120":{},"121":{},"122":{},"123":{},"124":{},"125":{},"126":{},"127":{},"128":{},"129":{},"130":{},"131":{},"132":{},"133":{},"134":{},"135":{},"136":{},"137":{},"138":{},"139":{},"140":{},"141":{},"142":{},"143":{},"144":{},"145":{},"146":{},"147":{},"148":{},"149":{},"150":{},"151":{},"152":{},"153":{},"154":{},"155":{},"156":{},"157":{},"158":{},"159":{},"160":{},"161":{},"162":{},"163":{},"164":{},"165":{},"166":{},"167":{},"168":{},"169":{},"170":{},"171":{},"172":{},"173":{},"174":{},"175":{},"176":{},"177":{},"178":{},"179":{},"180":{},"181":{},"182":{},"183":{},"184":{},"185":{},"186":{},"187":{},"188":{},"189":{},"190":{},"191":{},"192":{},"193":{},"194":{},"195":{},"196":{},"197":{},"198":{},"199":{},"200":{},"201":{},"202":{},"203":{},"204":{},"205":{},"206":{},"207":{},"208":{},"209":{},"210":{},"211":{},"212":{},"213":{},"214":{},"215":{},"216":{},"217":{},"218":{},"219":{},"220":{},"221":{},"222":{},"223":{},"224":{},"225":{},"226":{},"227":{},"228":{},"229":{},"230":{},"231":{},"232":{},"233":{},"234":{},"235":{},"236":{},"237":{},"238":{},"239":{},"240":{},"241":{},"242":{},"243":{},"244":{},"245":{},"246":{},"247":{},"248":{},"249":{},"250":{},"251":{},"252":{},"253":{},"254":{},"255":{},"256":{},"257":{},"258":{},"259":{},"260":{},"261":{},"262":{},"263":{},"264":{},"265":{},"266":{},"267":{},"268":{},"269":{},"270":{},"271":{},"272":{},"273":{},"274":{},"275":{},"276":{},"277":{},"278":{},"279":{},"280":{},"281":{},"282":{},"283":{},"284":{},"285":{},"286":{},"287":{},"288":{},"289":{},"290":{},"291":{},"292":{},"293":{},"294":{},"295":{},"296":{},"297":{},"298":{},"299":{},"300":{},"301":{},"302":{},"303":{},"304":{},"305":{},"306":{},"307":{},"308":{},"309":{},"310":{},"311":{},"312":{},"313":{},"314":{},"315":{},"316":{},"317":{},"318":{},"319":{},"320":{},"321":{},"322":{},"323":{},"324":{},"325":{},"326":{},"327":{},"328":{},"329":{},"330":{},"331":{},"332":{},"333":{},"334":{},"335":{},"336":{},"337":{},"338":{},"339":{},"340":{},"341":{},"342":{},"343":{},"344":{},"345":{},"346":{},"347":{},"348":{},"349":{},"350":{},"351":{},"352":{},"353":{},"354":{},"355":{},"356":{},"357":{},"358":{},"359":{},"360":{},"361":{},"362":{},"363":{},"364":{},"365":{},"366":{},"367":{},"368":{},"369":{},"370":{},"371":{},"372":{},"373":{},"374":{},"375":{},"376":{},"377":{},"378":{},"379":{},"380":{},"381":{},"382":{},"383":{},"384":{},"385":{},"386":{},"387":{},"388":{},"389":{},"390":{},"391":{},"392":{},"393":{},"394":{},"395":{},"396":{},"397":{},"398":{},"399":{},"400":{},"401":{},"402":{},"403":{},"404":{},"405":{},"406":{},"407":{},"408":{},"409":{},"410":{},"411":{},"412":{},"413":{},"414":{},"415":{},"416":{},"417":{},"418":{},"419":{},"420":{},"421":{},"422":{},"423":{},"424":{},"425":{},"426":{},"427":{},"428":{},"429":{},"430":{},"431":{},"432":{},"433":{},"434":{},"435":{},"436":{},"437":{},"438":{},"439":{},"440":{},"441":{},"442":{},"443":{},"444":{},"445":{},"446":{},"447":{},"448":{},"449":{},"450":{},"451":{},"452":{},"453":{},"454":{},"455":{},"456":{},"457":{},"458":{},"459":{},"460":{},"461":{},"462":{},"463":{},"464":{},"465":{},"466":{},"467":{},"468":{},"469":{},"470":{},"471":{},"472":{},"473":{},"474":{},"475":{},"476":{},"477":{},"478":{},"479":{},"480":{},"481":{},"482":{},"483":{},"484":{},"485":{},"486":{},"487":{},"488":{},"489":{},"490":{},"491":{},"492":{},"493":{},"494":{},"495":{},"496":{},"497":{},"498":{},"499":{},"500":{},"501":{},"502":{},"503":{},"504":{},"505":{},"506":{},"507":{},"508":{},"509":{},"510":{},"511":{},"512":{},"513":{},"514":{},"515":{},"516":{},"517":{},"518":{},"519":{},"520":{},"521":{},"522":{},"523":{},"524":{},"525":{},"526":{},"527":{},"528":{},"529":{},"530":{},"531":{},"532":{},"533":{},"534":{},"535":{},"536":{},"537":{},"538":{},"539":{},"540":{},"541":{},"542":{},"543":{},"544":{},"545":{},"546":{},"547":{},"548":{},"549":{},"550":{},"551":{},"552":{},"553":{},"554":{},"555":{},"556":{},"557":{},"558":{},"559":{},"560":{},"561":{},"562":{},"563":{},"564":{},"565":{},"566":{},"567":{},"568":{},"569":{},"570":{},"571":{},"572":{},"573":{},"574":{},"575":{}},{"0":{"bias":0.08075036968283518,"weights":{"0":0.16200324284715387,"1":0.16099655521191858,"2":0.060008846810698076,"3":0.13403489135781574,"4":-0.1709339930269479,"5":-0.08644667128434691,"6":0.05798407290160601,"7":-0.19446707210796638,"8":-0.10826235167704473,"9":0.16343484071562492,"10":0.15440074714935936,"11":0.1865387296474016,"12":-0.2053279315773495,"13":0.07261490130631845,"14":0.09171752901187612,"15":-0.12097011465363679,"16":-0.046429226817434055,"17":-0.13977479997911357,"18":-0.05254143091199144,"19":-0.11217705618514438,"20":-0.022158083818609137,"21":0.02188968089990667,"22":0.15162275276249257,"23":-0.16973340403273987,"24":0.09288289115585589,"25":-0.061760366954719925,"26":0.17663987356829491,"27":0.10577093532093287,"28":0.08056249516284515,"29":-0.12164831926239494,"30":-0.21892647898932663,"31":-0.0018581593852408564,"32":0.07201606339876235,"33":0.05882518048439736,"34":0.06673434583930588,"35":0.02855902158508122,"36":-0.15342604940999083,"37":0.1367705332062029,"38":0.15280563687436685,"39":0.17910806884170175,"40":0.08752240135319583,"41":0.05259452194813423,"42":-0.038959581031679597,"43":-0.0650867391003617,"44":-0.27946132360084724,"45":0.10652139300632871,"46":0.059702898143665174,"47":0.16681546285468038,"48":0.1768933653020942,"49":-0.04526544565607955,"50":0.1462979076368458,"51":0.2284520414457723,"52":0.07239050483221404,"53":-0.10368652801708521,"54":-0.08265849791184904,"55":-0.047659312567939274,"56":-0.07246135888333297,"57":0.14788673412429432,"58":0.12169745666062697,"59":-0.1460211430257847,"60":0.0834892766391476,"61":0.03948176547803041,"62":0.05779869139061943,"63":0.0010952372581143333,"64":-0.12417762241294812,"65":0.021395181736864378,"66":0.009360874920529805,"67":-0.12411259568394052,"68":0.052819773027411275,"69":-0.10676695992908207,"70":-0.18344980660355398,"71":0.008769295040108123,"72":-0.02378761319128036,"73":0.22207196563672202,"74":-0.14993105561296213,"75":0.1706968572744178,"76":-0.14017567314308343,"77":-0.1447228638043103,"78":0.003199320693012867,"79":0.08393801871259482,"80":-0.08961027603235296,"81":0.06269877744203982,"82":0.015154024292509402,"83":0.056277745769836365,"84":-0.08602955521718551,"85":0.17792782164104334,"86":0.05868313182911225,"87":0.0715881488155357,"88":-0.02403163284996019,"89":0.019719301399893994,"90":-0.16572457453441974,"91":0.1396974218456937,"92":-0.002512439737453514,"93":-0.04051572418413926,"94":-0.08496719369560257,"95":-0.14172892286781755,"96":0.010696156586690753,"97":0.021236878038696956,"98":0.02817865429486771,"99":-0.008757582681834474,"100":-0.03551515351707193,"101":-0.07890575022848975,"102":0.007832771670154592,"103":-0.282590034397836,"104":0.03283506387448822,"105":-0.13476387651268384,"106":0.04320887414529088,"107":-0.18165570807754483,"108":-0.02291633138932201,"109":0.021579900820776564,"110":0.1572732758324408,"111":-0.20558130605948866,"112":-0.03676767871370452,"113":0.07679295807105711,"114":0.07464069886383146,"115":0.14871161070819436,"116":-0.15864914329468402,"117":0.015011993241854395,"118":-0.1985936772436015,"119":0.0008482088324050901,"120":0.1309299801136151,"121":-0.11991996476084642,"122":-0.1514517900883507,"123":0.008786657931251687,"124":0.11391757485188458,"125":-0.024961382781636836,"126":-0.1851450791305001,"127":0.15169715597154432,"128":-0.0866006878770698,"129":-0.13011098740275134,"130":-0.08637118982959179,"131":-0.12162386967379338,"132":0.1898899202035621,"133":-0.060970352627072774,"134":-0.08650929641139324,"135":0.019920483936345972,"136":0.025281620726068106,"137":-0.11299803686055213,"138":-0.04227629313913702,"139":0.04303197734063328,"140":0.09831331732271714,"141":-0.05296601420274147,"142":0.14266844200374917,"143":-0.04512808528447174,"144":0.15657511034370167,"145":-0.20585239087484675,"146":-0.0917323943296101,"147":-0.016601565134757273,"148":0.12744565851210551,"149":0.011282838168507284,"150":-0.2895013915860177,"151":-0.21144616096282096,"152":0.07545848739890647,"153":0.12345732390172469,"154":0.10571540956759526,"155":0.12056036377438044,"156":0.21522605388164734,"157":-0.1067807169871485,"158":-0.07089981253803097,"159":0.1621192931317565,"160":-0.2295983530912305,"161":-0.005732511463385049,"162":-0.1095054462084962,"163":0.07701575836209387,"164":-0.19687971315595224,"165":-0.10608722272818469,"166":-0.05392449474987238,"167":0.11111218399173678,"168":0.11500231058174876,"169":0.07497844395862098,"170":-0.18090731532450052,"171":-0.007927759475453804,"172":-0.09669911965227686,"173":-0.0447772064238861,"174":-0.06829718309985018,"175":-0.052079243230268434,"176":-0.04839474107752798,"177":0.08517140255131979,"178":0.08503117326945685,"179":0.0865665498090524,"180":-0.1108716570145021,"181":-0.04235140402931011,"182":0.017772055183229975,"183":0.15292143009128845,"184":-0.1352831736574638,"185":-0.1343058538222069,"186":-0.13771443244433978,"187":-0.17173540787123423,"188":-0.19071885331547733,"189":-0.08345256282775748,"190":0.018917593039811654,"191":0.08003411122902122,"192":-0.1550636067613335,"193":0.11243636722857225,"194":0.047729824786637426,"195":-0.2055462914585053,"196":-0.08897783595515889,"197":-0.3115302534427863,"198":-0.261557372131277,"199":-0.011355244725379606,"200":-0.20418066648400904,"201":0.011892181831312703,"202":0.0631642791646829,"203":0.024481172699277666,"204":-0.19772493526522844,"205":0.022879051223262236,"206":0.13245280763533004,"207":0.16493400670436942,"208":-0.11237540260249795,"209":-0.05678464633981553,"210":0.15714705138242865,"211":-0.14637867325748233,"212":0.03916017898619724,"213":0.2202327795110065,"214":0.12225438617667761,"215":0.08943381835085142,"216":-0.1525171391495414,"217":-0.018990760387041485,"218":-0.2226505460050581,"219":-0.2018463066081873,"220":-0.12515249951885193,"221":0.008645481675504076,"222":-0.23232840408264058,"223":0.058920105310208554,"224":-0.2643956597729424,"225":0.09556160747451427,"226":-0.1779250860809074,"227":-0.037316744227835354,"228":-0.059313898348678756,"229":-0.028195985044296056,"230":-0.07872052681198312,"231":-0.1330231462653895,"232":-0.06312404602151465,"233":-0.051304671952997156,"234":0.021609336899520482,"235":0.14169369149413363,"236":0.03906220244235625,"237":-0.04755841693943406,"238":-0.1715485590639859,"239":-0.2333892672430589,"240":-0.017701185680454087,"241":0.1878821624715386,"242":0.04571377045817785,"243":-0.19111609356727685,"244":-0.14178716537129654,"245":0.01172560506690695,"246":-0.021334546939814732,"247":-0.1170322821197093,"248":-0.24272692109397717,"249":-0.24880823879341687,"250":0.09568866663191199,"251":-0.1301339533759849,"252":0.07826056038936087,"253":0.30226590832741385,"254":0.21035209233596489,"255":-0.024931239368485698,"256":0.0103016629554157,"257":0.114375085036238,"258":0.19868303032292567,"259":0.16544274996146155,"260":-0.057679526402882784,"261":-0.1815251854709617,"262":0.19791383269683732,"263":-0.1800781184941265,"264":0.055848868758104825,"265":0.0335578082047153,"266":0.21648139308218492,"267":0.12765728667439108,"268":-0.10627572037565981,"269":-0.16868547692283842,"270":-0.04838322344736113,"271":-0.13611637898748363,"272":-0.07966862895265243,"273":-0.031323551573537216,"274":0.20279254396322383,"275":0.11706041008077349,"276":-0.015603799664753143,"277":0.25891768594585135,"278":-0.048313440885573246,"279":0.13202434784289738,"280":0.0075307390925714235,"281":0.15285225325274077,"282":0.08527152002819555,"283":-0.21889620526846967,"284":0.1333253669673027,"285":-0.11906465960848851,"286":0.015205135130412367,"287":-0.12400354748071299,"288":-0.0948777477325904,"289":-0.08492225244984744,"290":0.12386067140102004,"291":-0.09823079092485339,"292":0.04052752463919447,"293":-0.030328299308125334,"294":-0.11411389691088208,"295":-0.04626744790553218,"296":-0.1811258544349705,"297":0.10594464145139307,"298":0.10133117138724905,"299":0.2694226749962991,"300":0.247972503525357,"301":0.25324305259963314,"302":-0.0865381130278802,"303":0.29142942504970876,"304":0.0893107668957635,"305":-0.13554143765797377,"306":0.0711095808593952,"307":0.1542556972718322,"308":-0.05725177899086401,"309":0.2969525891397993,"310":0.08516991709931006,"311":-0.020070822641657854,"312":0.16497941868210775,"313":-0.08807415889087616,"314":0.009157754292028851,"315":-0.061568999853843925,"316":0.10152599416283234,"317":-0.1639058786156222,"318":0.19079672097000377,"319":-0.13866687471384673,"320":-0.17810404241547767,"321":-0.15514153008076323,"322":0.07736228387038711,"323":-0.11742709921586976,"324":-0.04098820732433286,"325":-0.11052442042990097,"326":-0.06570801964683666,"327":-0.1294388875958246,"328":-0.1262840703979344,"329":0.19679814561064166,"330":0.0038345062408671753,"331":0.1534145530995425,"332":-0.12176431549869798,"333":-0.13970700101950667,"334":0.04719386355280894,"335":0.20145941843119125,"336":-0.1816970365985223,"337":-0.047295642620817,"338":-0.1814937974894695,"339":-0.06729857417330078,"340":-0.17028491628978792,"341":-0.1719660751742676,"342":-0.12580622290354793,"343":0.04711983558020799,"344":-0.050767752517149746,"345":0.027765256496428508,"346":-0.25611045206356103,"347":-0.2588541753628428,"348":0.08672892890489929,"349":0.16859186683184973,"350":-0.14790313657542198,"351":0.03667815299279893,"352":0.10176145413648842,"353":0.13448600990443282,"354":0.11390964994254653,"355":-0.0032844498791260884,"356":0.07061263269492199,"357":0.042613690545230315,"358":-0.09060517937504257,"359":0.19505615040695648,"360":0.014532399323209863,"361":-0.06409216899880746,"362":0.09392667152363982,"363":-0.1539362963289318,"364":0.06425519962591626,"365":0.028055808371451014,"366":-0.04552922587409698,"367":0.15788610798112732,"368":-0.21773571014702703,"369":0.19755681633014097,"370":0.08180605455827947,"371":-0.11490706588617294,"372":0.0659040635297593,"373":-0.0048468672520737555,"374":0.003553168346687092,"375":0.10511847136165019,"376":-0.01860191977185356,"377":-0.10676828509717644,"378":-0.20773395855943363,"379":0.03194472024434712,"380":0.02108658674569881,"381":-0.020527276219265932,"382":0.12783377282698122,"383":-0.11081714834954466,"384":-0.10874132713632625,"385":0.11219238601190488,"386":0.12075081857847116,"387":0.06137555880572149,"388":-0.1500723740969942,"389":0.1198754582588344,"390":-0.1362291744896341,"391":-0.06839714797814254,"392":-0.0722110047811804,"393":0.04521894737079018,"394":-0.16298247525898077,"395":-0.011598120875318895,"396":0.08349910460748639,"397":-0.11011494008399472,"398":-0.0059720631094256115,"399":-0.12883446177388164,"400":-0.014056303255941836,"401":-0.18423912953673838,"402":-0.07189857801463011,"403":-0.03928518650376587,"404":-0.1197627792084989,"405":-0.08776040710143469,"406":0.08456504488946334,"407":0.10629060372838771,"408":0.14576136687633956,"409":-0.15002808226840914,"410":0.039000105845643826,"411":0.059495007517504465,"412":-0.04820672831415972,"413":-0.12501081765958622,"414":0.1216884496813591,"415":-0.06911738476764388,"416":-0.01241560583470258,"417":0.06968215837201662,"418":-0.07734903197109837,"419":-0.09383168980267423,"420":0.05323702324307362,"421":-0.13023847700824503,"422":0.02610564032072346,"423":-0.027036642586735864,"424":-0.06916196160190861,"425":-0.005747574315813333,"426":-0.17790995362293643,"427":-0.004048947099409704,"428":0.004598778378874123,"429":0.02775792445650759,"430":-0.148401464291693,"431":-0.11845983878586563,"432":-0.037424485558641064,"433":0.15187566534263483,"434":0.07906601461449947,"435":0.0066936406178853235,"436":-0.16921716700746325,"437":-0.09147236779826326,"438":0.18203191970076457,"439":0.14070124841050502,"440":-0.175880807774664,"441":-0.12898551624662502,"442":0.13282038195271503,"443":0.1758754924934167,"444":-0.17540608222998572,"445":-0.023208694129846493,"446":-0.032257639744529436,"447":-0.03699804014747531,"448":0.16461737882285715,"449":0.07905939986254973,"450":0.12217911632000956,"451":0.0735511383033436,"452":0.04442783721719513,"453":0.07442313951577152,"454":-0.18116564874227709,"455":-0.001851571961630944,"456":0.036556303233998486,"457":-0.12402980864815928,"458":0.047774238948889144,"459":0.050183657399679345,"460":-0.016859825926002166,"461":-0.008033044510411208,"462":0.17113913006900136,"463":-0.2096940171904,"464":0.11844391005049097,"465":0.1842260734349507,"466":0.19468239432717557,"467":-0.09853115792139774,"468":0.15409470933583455,"469":-0.11923624831361052,"470":-0.13497700959094514,"471":0.1533889357490693,"472":-0.0605697903325015,"473":0.13586308698787716,"474":0.14188666670412242,"475":-0.014164071328389614,"476":-0.07728162968839934,"477":-0.19292309070681685,"478":0.0593027166762973,"479":-0.03877586104034349,"480":0.07044291003674494,"481":-0.004681611480249479,"482":-0.09351745399022234,"483":0.11113824435704747,"484":-0.06369284353154145,"485":0.14725246810440545,"486":-0.003746890013974344,"487":-0.17361877217049346,"488":-0.06463794556705933,"489":0.0031065005293132364,"490":-0.07620118208441186,"491":-0.13859691491875858,"492":-0.14120311691356888,"493":-0.1623646439069853,"494":0.1503253644684045,"495":0.13564816078057593,"496":-0.22214570991755925,"497":0.041259456839435854,"498":0.07169362075784994,"499":0.0931594448925815,"500":0.14165425357192793,"501":0.10856274320319921,"502":0.07097814850271505,"503":0.008137235973860799,"504":0.0339981217872992,"505":0.06816856759303819,"506":-0.07668393702598965,"507":0.12498975372802187,"508":0.19990002454029973,"509":-0.11487103452070654,"510":-0.02282415013393562,"511":0.03312485731667715,"512":-0.004331465853501019,"513":0.006490016250968575,"514":0.036969477006650736,"515":0.001742279469736801,"516":0.17596094276020563,"517":-0.16174979671166329,"518":0.10266727585542082,"519":-0.11933963696379678,"520":0.08548333764394556,"521":0.17815056497735504,"522":0.08402022965918847,"523":-0.12029659876222634,"524":-0.12000817902018329,"525":0.09636285256205836,"526":0.03626431917902955,"527":-0.05526720915191135,"528":0.10972225494692418,"529":0.10397457983898582,"530":-0.07163341908974605,"531":0.19048620960080337,"532":-0.14660618952482166,"533":-0.020378890714938938,"534":-0.1035717184591285,"535":-0.060587372130720386,"536":-0.17513047929086192,"537":-0.038438942521908326,"538":0.03444825275332585,"539":0.2362306402310237,"540":0.1022878815442717,"541":0.07619158203758933,"542":0.10040479296831646,"543":-0.07996019825879205,"544":0.15580203127178024,"545":0.08743601383268751,"546":-0.09936558900080318,"547":0.06467602171034904,"548":-0.008857375743735645,"549":0.15671996103810965,"550":-0.07331368355445661,"551":0.0754332089540114,"552":-0.05606582569277076,"553":-0.055463616499880616,"554":0.12191829865306723,"555":-0.16513181739189173,"556":0.11199324468103501,"557":0.07650554010717539,"558":0.08498165547823064,"559":0.17503150906205375,"560":0.1291788856743125,"561":0.03772123905773936,"562":0.00925159852297626,"563":0.0017785659391327216,"564":0.11311283479882178,"565":-0.05181911604961897,"566":-0.04832210291853185,"567":-0.1842446730980617,"568":-0.2242821681540037,"569":-0.13816998135461128,"570":-0.15486482623929274,"571":0.13622571745356007,"572":-0.1455460306705003,"573":-0.06193802734159983,"574":-0.0018040420793584908,"575":0.005876629500087318}},"1":{"bias":-0.029914179302999465,"weights":{"0":0.15348285219245086,"1":0.09586237017293908,"2":0.12466032389786555,"3":0.2151011480482155,"4":-0.12428045818056933,"5":0.19662807220249195,"6":-0.027803115188836533,"7":0.005134805803528269,"8":0.03110935235261663,"9":-0.07946699795888348,"10":-0.19688964578446094,"11":0.19000707384895416,"12":-0.09103697146468069,"13":0.15307507418281532,"14":0.01004612081103142,"15":0.01310514833235789,"16":0.2029384377414664,"17":0.16269131949267385,"18":0.03160127686416099,"19":-0.21407108142982503,"20":0.005272652861268724,"21":0.13376454686949385,"22":-0.18896605469360675,"23":-0.18180846356867397,"24":-0.18083574198015046,"25":-0.1377338604963603,"26":-0.029858192547975792,"27":0.12990874772756894,"28":-0.04485184089129394,"29":0.0678123959289758,"30":-0.10747500277067254,"31":0.12431998624803538,"32":-0.15849246169287914,"33":-0.127303061766245,"34":0.11481299100951185,"35":-0.0776497291254087,"36":-0.09948810037246715,"37":0.14050887777230803,"38":0.1721322970159257,"39":0.20486072334104852,"40":-0.06404272347359384,"41":0.020423638482866383,"42":0.022906088603997864,"43":-0.21102518015141267,"44":0.11496843951851517,"45":-0.06119273540130215,"46":0.14256738632952057,"47":-0.22496595287065033,"48":0.14366146655244577,"49":-0.14273606334655237,"50":-0.05858233162358417,"51":0.08059854694310396,"52":0.11885048588828748,"53":-0.04337716642028625,"54":0.14323140217021427,"55":-0.11126038413429247,"56":-0.1242515630742001,"57":0.05825479167093437,"58":-0.2156837157759527,"59":-0.2289227032593914,"60":-0.02464258202954431,"61":-0.1538108478781479,"62":-0.08131060858031654,"63":0.14539180938587676,"64":-0.027798774688294715,"65":-0.09225672353753941,"66":0.18965719378121237,"67":-0.15767662957742126,"68":-0.00014540704488115582,"69":0.005189919715601118,"70":-0.009932160668852861,"71":-0.06240445931357407,"72":0.1701442761238364,"73":-0.023926756695426928,"74":0.04785514529326224,"75":-0.04210979976075778,"76":0.20529564364886135,"77":-0.10097590073658672,"78":0.057280670332020195,"79":-0.07899794361216102,"80":-0.06412715243055891,"81":-0.24719552692827337,"82":-0.025320638457268015,"83":-0.10019764768427804,"84":-0.1037279183338481,"85":-0.08734647134322246,"86":-0.05416900537109841,"87":-0.03963874018584346,"88":-0.14700294928156285,"89":0.11825975235737309,"90":-0.11689479039080578,"91":0.05799489881562969,"92":-0.05337183261104099,"93":-0.2109097289669136,"94":0.0008107521685344564,"95":-0.2098616319506441,"96":0.14113147389426822,"97":-0.00897864980315331,"98":-0.0857878312373525,"99":0.1539174929071419,"100":0.19747982495653066,"101":-0.2285751212452565,"102":-0.02852930383242802,"103":0.11997830917192616,"104":0.14267738148459191,"105":-0.05077730807977357,"106":-0.15845393202357874,"107":-0.10992537177178761,"108":0.04075979425706612,"109":0.11298203892944228,"110":-0.02154271500093597,"111":0.10842241120753691,"112":-0.21880342419473203,"113":-0.014867112742641395,"114":-0.035004880701450344,"115":-0.12739679792558947,"116":-0.12159811179967481,"117":-0.014037432737524233,"118":0.0036561177642574507,"119":-0.05415761290242229,"120":-0.11342557735289964,"121":0.09339466529554939,"122":0.10013314293139801,"123":-0.026252381315283606,"124":-0.0008198074596706558,"125":-0.011889994471761806,"126":0.04124003653959979,"127":-0.24986787647176495,"128":-0.2669032179439619,"129":-0.022612061730358513,"130":-0.28582214427881303,"131":0.05327416378640065,"132":-0.17336072897595323,"133":-0.06541286834740427,"134":0.14536199479138875,"135":-0.09990586978322916,"136":0.16562865248058323,"137":-0.16716139324685175,"138":-0.11634114082191863,"139":-0.05625771405297485,"140":0.132294651937298,"141":-0.14228390739799504,"142":-0.11103543079619416,"143":0.13806305561715976,"144":0.0900841286974565,"145":-0.02944853500475062,"146":0.10993754325419879,"147":0.21878904860987594,"148":-0.03402464959284112,"149":-0.18964403393916487,"150":-0.1710419041415379,"151":0.07191934601812038,"152":0.14377285589256622,"153":-0.2396486495287083,"154":-0.0048797984681661155,"155":0.1238401700580405,"156":-0.027415700417723798,"157":-0.17632041056213507,"158":-0.15903071960158338,"159":0.022409835025317838,"160":-0.14898210033551834,"161":-0.03809766899902241,"162":0.08885056607237074,"163":-0.04950967324240454,"164":0.14819163674138192,"165":-0.09810893344469185,"166":0.015394073462285917,"167":-0.11160943765245471,"168":0.16320447590630724,"169":0.1651070018889431,"170":-0.17570831166404413,"171":-0.024901456145959643,"172":0.11749786822175766,"173":0.13449773974271187,"174":-0.0703985484353308,"175":0.06956771598054998,"176":0.20844195907530946,"177":-0.11222278108902886,"178":0.15752392999077247,"179":0.09654357726139987,"180":-0.16403126360493284,"181":0.18030767142473228,"182":-0.017964482691936352,"183":-0.21696648235140156,"184":-0.037116549454725305,"185":-0.0178212480256286,"186":0.00851945262977414,"187":-0.10149794060925077,"188":-0.15245785104169077,"189":0.14208019354229098,"190":-0.13275007457241444,"191":0.04492458762828675,"192":0.011927673902779315,"193":0.05490178789845071,"194":-0.12428984046431774,"195":0.0453194492015965,"196":0.0927048940153745,"197":-0.12745459275668095,"198":0.2013890422017001,"199":0.017204382277541286,"200":0.11776146780405153,"201":0.057203895969639054,"202":-0.06647813807833074,"203":0.04773864503596437,"204":-0.05370034832100661,"205":-0.13182351005442353,"206":0.08097158806775735,"207":-0.03053997175869867,"208":0.10682464517759953,"209":-0.1285386602109176,"210":0.0806802139346446,"211":-0.08192647439590191,"212":-0.00256066202769583,"213":0.03531431826838507,"214":0.1997456805594643,"215":0.019337125695126516,"216":-0.2102086410523122,"217":0.04371626927262613,"218":0.041734478447484645,"219":0.12821444802595855,"220":0.021780608997787543,"221":0.167223903826157,"222":-0.029987725104244314,"223":0.12937641412526296,"224":0.1557005096304682,"225":0.03883759577259556,"226":0.028773676502441104,"227":-0.01661817400877704,"228":-0.05216408919992018,"229":-0.19237339347392923,"230":-0.2353756485150626,"231":-0.24132804976752964,"232":0.0256458463059899,"233":0.13243953189131605,"234":-0.014588026334905163,"235":0.09546994631653125,"236":0.10102175968875587,"237":-0.026478508654906068,"238":-0.08804786668889018,"239":0.07978959911474123,"240":-0.1541662023543477,"241":-0.17000251478669123,"242":-0.09901376385207933,"243":0.06827258389292558,"244":0.153940112864918,"245":0.19747918442044038,"246":0.09922319373342059,"247":0.2265636834578099,"248":-0.017138167697432444,"249":-0.11264909179532998,"250":0.1071167455589852,"251":0.06423014947208919,"252":-0.12601317290617534,"253":0.07856496448846335,"254":0.06415805199284932,"255":-0.10151908931823728,"256":0.16825512346435312,"257":0.15106047756124383,"258":-0.2048394203496488,"259":-0.1578502894817768,"260":-0.10177365248318838,"261":0.1443283739711665,"262":0.17285758106924637,"263":0.17284298593058828,"264":0.18538806284511078,"265":-0.22967887990976518,"266":0.037660650883371984,"267":-0.012224231721100204,"268":-0.06628909672465919,"269":-0.11286193990866654,"270":0.20193088906805987,"271":-0.11585848497473838,"272":0.07526217474011193,"273":0.1122865725773527,"274":0.07171181288082103,"275":-0.02353888613218091,"276":-0.02035599104572862,"277":0.09521357279799068,"278":0.05666398377325973,"279":0.03832641935823114,"280":-0.1293139991134051,"281":0.19896056203543022,"282":0.13311565812836554,"283":-0.11087749152525492,"284":0.10401010384692227,"285":0.040405537324160426,"286":0.1752770924807096,"287":-0.12390361636086318,"288":-0.14399609586862447,"289":0.17329850144439699,"290":0.06911842134994285,"291":0.10853615214809299,"292":-0.15102309990238122,"293":-0.1563081388508547,"294":-0.17243631038066307,"295":-0.11687605939468294,"296":0.06875921859420803,"297":0.11951095909358923,"298":0.12044078331064,"299":-0.016286451522766747,"300":0.004118279519819689,"301":-0.17449817751683008,"302":-0.14685822772148832,"303":-0.13681186073471088,"304":0.04819073977092585,"305":-0.1321806707555214,"306":0.011325460124731878,"307":-0.24161291036758314,"308":0.08889284891036178,"309":0.10714707636762763,"310":-0.034001792218660495,"311":-0.07009555317343598,"312":-0.03250649702109519,"313":-0.08786251898807147,"314":0.12182150727598749,"315":-0.08273564348536493,"316":-0.18085066411279735,"317":-0.05908306550819097,"318":-0.14953994899218637,"319":0.07949537371511745,"320":-0.12663083587101745,"321":-0.12490854509949985,"322":-0.194408440351851,"323":-0.21772136539023548,"324":0.07388477524439448,"325":0.12815921933017002,"326":0.17241068831132245,"327":-0.10164160857274068,"328":-0.036374753811981186,"329":0.12664400138648296,"330":0.03861765119523374,"331":0.09703905811148923,"332":0.016696180666159088,"333":-0.18913328194896734,"334":-0.21198149210545045,"335":-0.10730428996636424,"336":-0.12369913599575993,"337":-0.09334720440243321,"338":0.09657255973344175,"339":0.17353308418770727,"340":0.23051322330773294,"341":-0.05383601542422455,"342":0.12051818174691453,"343":-0.06162458394261552,"344":0.12190622577445571,"345":-0.21444072972900965,"346":0.011984423925826108,"347":-0.0955411473330214,"348":0.0666913778020341,"349":-0.18106347589357158,"350":-0.09709081013856583,"351":0.19739723819345,"352":-0.20655064613960486,"353":-0.05235411777700823,"354":-0.06769720948328903,"355":0.004172514796660843,"356":-0.11090425808319852,"357":0.08799476306730308,"358":0.1342069536828693,"359":-0.05053470503541735,"360":0.15837501319070593,"361":0.18738463073675182,"362":0.15140687097909036,"363":0.11340755520169513,"364":-0.03853571463365106,"365":0.0339538378641366,"366":-0.08003388138468494,"367":0.015469674078407897,"368":-0.08391317222805036,"369":0.008444475266206595,"370":-0.17661851270912018,"371":-0.18603308267225685,"372":-0.23714825617061636,"373":0.16464846631481916,"374":0.0612420562215645,"375":0.11660668968347512,"376":-0.11708770536091462,"377":-0.06487333703364016,"378":0.11482328793356322,"379":-0.022826731535221658,"380":0.13389430385818243,"381":-0.11101513128046536,"382":0.1032368706796696,"383":-0.11017101539972896,"384":-0.034002871294582716,"385":0.20950696894299764,"386":0.10854130257896207,"387":-0.060699729248972045,"388":0.11028557059083025,"389":0.054517748867896024,"390":-0.09396683076644165,"391":0.1495266001565497,"392":-0.11636003821355749,"393":0.010760887448261792,"394":0.09177401411161737,"395":0.07073873486765998,"396":-0.17456807706432934,"397":0.15109577629710183,"398":0.018745145974872684,"399":0.05439283178210261,"400":0.0925674455300317,"401":-0.21947643439334402,"402":-0.21492111108577913,"403":0.010919114913293415,"404":0.05148587336290505,"405":0.19797682996736177,"406":-0.16648827720007695,"407":0.13230620909321028,"408":0.088568552543303,"409":-0.09201764451172732,"410":0.028879579720887064,"411":-0.03819775157792979,"412":0.24689548848284068,"413":0.08529773235536971,"414":0.16443985773836745,"415":-0.057198018756258164,"416":0.1409442091302144,"417":0.04049712704137083,"418":0.08589163396575351,"419":-0.18604816027326684,"420":-0.06753812174171771,"421":0.062147291802811824,"422":-0.044309882289177024,"423":-0.22238396259137155,"424":0.1258673237789801,"425":0.19234394346230155,"426":0.05357345215308447,"427":0.17816374096200915,"428":-0.01987246292953038,"429":0.013619166222934742,"430":0.20373848088610827,"431":0.0768812140464696,"432":0.09293232778133642,"433":0.07198281424670236,"434":0.11055624349760607,"435":-0.019864273620368113,"436":-0.05821595672572788,"437":0.0982573879231779,"438":0.008617368824814692,"439":-0.052728385941389504,"440":0.15705748310893278,"441":0.03388375986199212,"442":-0.1252274139440085,"443":-0.17747281904019585,"444":-0.2271886062468188,"445":-0.11634461721574856,"446":0.09072252126262657,"447":-0.0028021694677317502,"448":0.06396683065106672,"449":0.17041460474403425,"450":-0.010329729063996035,"451":0.11277594001642466,"452":-0.011224149120458202,"453":0.12689750281271145,"454":0.04716057219597487,"455":-0.14350457837303945,"456":-0.04399171257678798,"457":-0.024843073154405648,"458":0.05973942694270978,"459":0.2093462960206009,"460":0.02406085266282415,"461":-0.027818406354982714,"462":0.14171257103483267,"463":0.08284282805503235,"464":0.006702524063248092,"465":-0.08201312676045776,"466":0.0911758505180661,"467":0.09510662076141284,"468":0.11726317100932053,"469":-0.16461506939705628,"470":0.07289356794841646,"471":0.04877363939773026,"472":0.09643938312413218,"473":0.05507964622454591,"474":-0.050745837081133796,"475":0.020091120270477946,"476":0.04449417472719255,"477":-0.2056910796250896,"478":0.05195783369119904,"479":0.09170665038442671,"480":0.1776682745881343,"481":0.009591328805391798,"482":0.02878238889705379,"483":0.17167196299853446,"484":0.18513469006997008,"485":0.1243406382359224,"486":0.21844996240804668,"487":-0.09892788402983889,"488":0.1561386964649745,"489":-0.10557975864939532,"490":-0.1174212386749466,"491":-0.14208042363369644,"492":0.025736227087903095,"493":0.11888429853176834,"494":-0.10842803789467076,"495":-0.1191477771085425,"496":0.04681923542332158,"497":0.12872966289847518,"498":0.14451463053140276,"499":0.02277744631534483,"500":-0.021394296391388602,"501":0.1421228712677815,"502":0.17865717543948462,"503":-0.12008307763005102,"504":0.01711284203227292,"505":-0.026465422425566223,"506":0.1416925908118025,"507":0.10460517309533521,"508":0.04100581005452641,"509":0.2103153735276093,"510":0.2848903239332656,"511":0.11725329960347589,"512":0.007494102522835599,"513":-0.017971881443603538,"514":0.05723746226177084,"515":-0.12101134557855872,"516":0.22416995770972237,"517":0.17391551228091442,"518":-0.1461874099072784,"519":0.13672274729301556,"520":-0.12833430426392028,"521":-0.21873862899451255,"522":0.07983172408266387,"523":0.09038709410058589,"524":0.030378037053568653,"525":-0.13628334613150583,"526":-0.06697986631083018,"527":0.17874984197439386,"528":0.1067376386037138,"529":-0.07724869153767595,"530":0.15722177546191124,"531":0.1569402348442433,"532":0.18353133574686173,"533":0.12916293840905038,"534":0.03533606222190028,"535":0.2400939979784668,"536":-0.009920024310269749,"537":0.1991753372436134,"538":0.057732769531999586,"539":-0.05654771470367505,"540":-0.07253936997515911,"541":0.020100570046597394,"542":0.11729206204075009,"543":0.135431509955336,"544":0.1789381336174314,"545":0.01926357182316588,"546":-0.017746646513410517,"547":0.044496369297656595,"548":0.13966490724215866,"549":0.1587320658106348,"550":0.11950143419791014,"551":-0.09789535712235908,"552":-0.011540774297293718,"553":-0.18593326755251108,"554":0.04133838484573572,"555":-0.12000438234311672,"556":-0.029660612820711182,"557":-0.009875811363287959,"558":0.17860571335921116,"559":-0.07264800078109188,"560":0.03833054560168211,"561":0.07599802252600996,"562":-0.0017770822536802766,"563":-0.051010917859214765,"564":-0.12457440228546833,"565":-0.08996326667611185,"566":0.1953314521535039,"567":0.15181499922859032,"568":-0.07535032272693669,"569":0.09038202306009799,"570":0.14594908878609042,"571":-0.08844716533314426,"572":0.1838136543770246,"573":-0.0851701570117657,"574":-0.16857550946376249,"575":0.12892569759957642}},"2":{"bias":-0.15780908434801644,"weights":{"0":-0.20061230324691637,"1":-0.17770708625042161,"2":-0.07060057515088075,"3":-0.18375554953265202,"4":0.1292750202653509,"5":0.20330037908332832,"6":-0.1280183998962088,"7":0.11100956099402295,"8":0.06878544583479317,"9":0.11953482867393188,"10":-0.15528071214410802,"11":0.23333644964196157,"12":-0.16509723825139175,"13":0.1692348855519901,"14":-0.08705899184814606,"15":-0.03466266265222691,"16":-0.17823467648516428,"17":-0.09952472013550934,"18":0.0002844448893937631,"19":-0.051439598674440014,"20":-0.0659065060007142,"21":0.0628572996380657,"22":0.15551617519277577,"23":-0.005946709864924058,"24":0.06154392225034087,"25":-0.24498205873407636,"26":0.021273436340044333,"27":-0.24126954737247333,"28":-0.01014167736980452,"29":0.07428971322181814,"30":-0.04451109291743428,"31":0.0836710946804997,"32":-0.11952069322838552,"33":-0.0048729297310301815,"34":-0.13920316431188073,"35":-0.10866149694513982,"36":0.014480847281161469,"37":0.062377422747306295,"38":0.14735137229772607,"39":0.02922472261663044,"40":-0.1470629014457715,"41":-0.17488099050429223,"42":0.12572816795217884,"43":0.1426654494524652,"44":-0.09254807800278643,"45":0.19547045637578564,"46":-0.04279383965777835,"47":0.037325885437144914,"48":0.12861199437074142,"49":0.09089426570321843,"50":0.018368971568294024,"51":0.22359545801697983,"52":-0.10703072865818813,"53":-0.14591262855674297,"54":0.10337682771898336,"55":0.026028989283955976,"56":0.1620715953660969,"57":0.18287438313921958,"58":-0.2094107280219246,"59":0.11111723060952199,"60":0.08643277619397655,"61":-0.0899311893784836,"62":-0.05085760358924916,"63":0.026881663780378654,"64":0.1818463481477488,"65":0.0050164254655699686,"66":-0.19000448650345453,"67":0.17201341468797926,"68":-0.04820773503304221,"69":0.022267435653359167,"70":0.156698333782801,"71":-0.0900107956164956,"72":0.04923759673604931,"73":0.1526418850609193,"74":-0.10624897034166582,"75":0.24533598194972592,"76":0.2372477705526159,"77":0.011806671396735193,"78":0.0014226060206853906,"79":-0.10178487248626267,"80":0.13231946482228973,"81":0.09357788303589742,"82":0.011868123473534222,"83":-0.11131738318417439,"84":0.02323010615723376,"85":-0.16723150605549744,"86":-0.2161397986996213,"87":-0.040887764305491625,"88":0.1022939642246271,"89":-0.1071156232473326,"90":0.14077502488070728,"91":-0.07849886005047602,"92":-0.16917931397085859,"93":0.2006274947603716,"94":0.0925739594999511,"95":-0.004615546965918135,"96":-0.13775023028078692,"97":0.12624080306661128,"98":0.15070806027562322,"99":0.01701524715288212,"100":0.09087594387546259,"101":0.20261438268811524,"102":0.07308707820789291,"103":-0.15249204853214587,"104":-0.23844294744865735,"105":-0.23771176715903072,"106":-0.0036731638527174805,"107":-0.11843887088630993,"108":-0.08795182394096794,"109":0.0991328754724517,"110":0.16654959802634528,"111":0.009392937307149865,"112":0.16611370019593646,"113":-0.050145843717150015,"114":-0.05642582000125969,"115":0.18293243630712072,"116":0.12298644643607123,"117":0.002381637288285525,"118":0.21639091522713816,"119":0.11747813478638477,"120":0.05270220984343204,"121":0.1828771001890922,"122":-0.03762839444083458,"123":0.07437134053957559,"124":-0.10512008493134971,"125":-0.13145978858615595,"126":-0.1135862385682323,"127":-0.04450376958525805,"128":-0.19621490269326755,"129":-0.02471069344198642,"130":-0.21696173406451338,"131":-0.10125245413157799,"132":-0.020666936999829338,"133":-0.004343639422247796,"134":-0.15452454998339335,"135":0.16685979538562415,"136":0.07243789010115806,"137":-0.051783982446387156,"138":-0.09402897106070612,"139":0.12811012014056872,"140":0.12598780226883757,"141":0.14505594738501842,"142":-0.16073444724834285,"143":-0.06111373758547272,"144":-0.004065294723631116,"145":0.14298993901393245,"146":-0.15337661336896952,"147":-0.037551716644793516,"148":0.2049251496927491,"149":0.21782035498639182,"150":0.03616206470909983,"151":0.04625229652265345,"152":0.04580739245272316,"153":-0.04451293978137806,"154":0.20854748519050434,"155":0.17914107566352847,"156":0.07608875571968894,"157":0.11913602329228076,"158":-0.1594613107807951,"159":-0.038381996472012986,"160":0.01984300819480836,"161":-0.017127214686474157,"162":-0.05485751579650602,"163":-0.06393665012142767,"164":-0.1894442982683655,"165":0.12826918892099068,"166":-0.15544215543551293,"167":0.09520267069779051,"168":-0.11915445712419917,"169":-0.15803453987962118,"170":0.13632774529445404,"171":0.09460571167571066,"172":-0.019336783706843687,"173":-0.07393389386700198,"174":-0.021618931379246663,"175":-0.08053082233189392,"176":0.15495232605617573,"177":-0.18178211557082727,"178":0.049674158638200405,"179":-0.08124142925634495,"180":0.03669832549071207,"181":-0.03101748626412771,"182":-0.008042897678234054,"183":-0.17850637833869573,"184":-0.07393504860135003,"185":0.11693499260453143,"186":-0.10713300905953729,"187":0.06115346325111722,"188":0.1027864879628176,"189":0.1789782133501603,"190":0.04409364964167643,"191":0.13358616016386526,"192":-0.025469822814493785,"193":0.13620643029945642,"194":-0.05349778533285623,"195":0.03925750474469303,"196":0.15891298320973865,"197":-0.06922814526163878,"198":0.19332895739727507,"199":-0.012951398678772558,"200":0.024084289570526104,"201":-0.22444887820749818,"202":0.08950087384791719,"203":-0.18851704006445422,"204":0.18755263576328338,"205":-0.16613139679472244,"206":-0.16121388731944897,"207":-0.16055129035643131,"208":0.1346943587592943,"209":0.0574014485723046,"210":-0.11017815640838494,"211":-0.20421018333809338,"212":-0.05775720181662985,"213":-0.16231953477660752,"214":0.12896471358770076,"215":0.10201368802263548,"216":0.05084520313336108,"217":0.18315766739524567,"218":-0.09117177180949994,"219":0.05694845368338707,"220":-0.04504654364218796,"221":0.2071769345122391,"222":-0.0941186141839722,"223":0.07248800214500195,"224":-0.18700147221096355,"225":-0.08726604546122169,"226":0.1377896188759905,"227":-0.16579127624912543,"228":-0.08151418372216139,"229":-0.21136942360295558,"230":-0.05427707833683478,"231":0.19391110860396993,"232":0.08328486102642228,"233":-0.09714621526513802,"234":-0.017498462159413503,"235":0.039845358975743504,"236":0.12770150313941805,"237":-0.11471806898812854,"238":-0.0493895948538309,"239":0.07123272961090872,"240":0.034308040656893836,"241":0.07653982294249158,"242":-0.22226041132218613,"243":0.05650870669204746,"244":0.10807365271897064,"245":-0.061515167063105676,"246":0.2517118582293525,"247":0.09874531293049299,"248":-0.01076816359898193,"249":-0.04458736215010173,"250":0.09678073364649302,"251":-0.08480469910815797,"252":-0.08202919396064712,"253":-0.07996140683846054,"254":-0.061089768560180786,"255":-0.19254352335584898,"256":0.03424786739846839,"257":0.1461991959835982,"258":-0.16902101190124658,"259":-0.12092531223081233,"260":0.12898857642205735,"261":0.0033551423698836907,"262":0.07807068387367384,"263":0.13654150561642772,"264":0.18795199973837518,"265":0.03169856106054094,"266":-0.09541117010525949,"267":-0.02379128772907484,"268":-0.01691357293686276,"269":-0.05655416228217385,"270":0.14847378612392292,"271":-0.10030462221537813,"272":-0.11266189248669506,"273":-0.012630159879645966,"274":-0.17587731462577577,"275":-0.06933072091126316,"276":-0.03285285842294171,"277":0.09791923376729514,"278":-0.07964529340426985,"279":0.1811662553609021,"280":0.11748019506146377,"281":0.18920423042294038,"282":0.21236149115849381,"283":-0.16377694708925442,"284":0.15659876553065183,"285":-0.16812118361679992,"286":-0.04758026055382402,"287":0.09478750506571901,"288":0.10748343874144553,"289":0.09082256346888316,"290":0.21209696245811,"291":0.07408055778443107,"292":-0.10730501574594187,"293":0.060456458175174276,"294":-0.09087520200464821,"295":-0.14970926602123394,"296":0.0433315449962617,"297":0.05497416140667277,"298":-0.17990812254955665,"299":-0.07162602741783922,"300":0.03057088528395772,"301":-0.17188830287901197,"302":-0.15632129120718427,"303":-0.001896179639771586,"304":-0.10625300375775021,"305":-0.13336676441004594,"306":0.06696406351559472,"307":0.03258846569749584,"308":-0.1715559200810218,"309":-0.12451456176948976,"310":-0.10798649600171271,"311":0.1360985915352778,"312":-0.10066280041682395,"313":-0.17192212441916066,"314":0.0245738936052606,"315":0.07845832144245415,"316":0.068634442771063,"317":0.08167738560745756,"318":-0.010718230259878113,"319":-0.05389682570771438,"320":-0.054773907630532095,"321":-0.014857979055871062,"322":-0.19223661015036403,"323":-0.1848551495709829,"324":-0.1060470429096916,"325":0.08065391791495521,"326":-0.16487505123397886,"327":-0.02307011714930515,"328":-0.12561897581183348,"329":0.08628537056914513,"330":0.1586547017800808,"331":0.08091461162316754,"332":-0.054529360098924895,"333":0.14376419922272213,"334":0.07121310620651347,"335":0.0686533075990405,"336":-0.04909908263621672,"337":-0.12732865367924762,"338":-0.17256708676714372,"339":-0.1634473446735583,"340":-0.08154163508761693,"341":-0.03519445731809669,"342":-0.016166516543294436,"343":-0.2005033497204652,"344":0.017571863196905957,"345":0.07989486254739046,"346":-0.10495712618786165,"347":0.06114506669577007,"348":-0.16340263679443806,"349":-0.19436239015875223,"350":-0.10635085249893474,"351":-0.14211738831611043,"352":-0.174110779528451,"353":-0.018719386897770147,"354":-0.043578185029719135,"355":-0.026801743096069662,"356":0.010957921108374923,"357":-0.07071132849683351,"358":0.13488275869664915,"359":-0.10146960623362458,"360":-0.13349536591060948,"361":-0.1446609469988261,"362":0.23114791644466043,"363":0.10345628770892745,"364":0.09257252639702314,"365":0.15376736774587646,"366":-0.1349292181905265,"367":0.04792496892586914,"368":-0.003944885797852105,"369":-0.019747941063650208,"370":0.0010387229454778774,"371":-0.18306825895633458,"372":0.10963496554591058,"373":-0.07056384790451035,"374":-0.0655502980721349,"375":0.14544694523044116,"376":-0.1472510081437647,"377":0.06267450983398042,"378":-0.07994531361401908,"379":0.14136592747061555,"380":0.19351318923055716,"381":0.1996285560092285,"382":0.041266998922776445,"383":0.15657821144693193,"384":-0.007332061092289635,"385":-0.03162142680009645,"386":-0.030883725585797037,"387":-0.052616528094948586,"388":-0.00146881010215225,"389":0.1769972269324528,"390":-0.056644909700796685,"391":0.14033658646315977,"392":-0.045453045945249036,"393":0.1452889837542718,"394":-0.1790259035652591,"395":0.12534523187299076,"396":0.09230676848042162,"397":0.0897240973423245,"398":0.16758257672449176,"399":0.029118764994241788,"400":-0.22873761218192354,"401":-0.013083053276663027,"402":-0.07739359862940534,"403":0.056969118834948144,"404":-0.06500412928461353,"405":0.07035643995902476,"406":-0.00787486680767753,"407":0.052051686891903266,"408":0.15665327159983533,"409":-0.018352412249728216,"410":0.1993834833488418,"411":0.15545221056286923,"412":0.23066323500998429,"413":-0.10049394043702801,"414":0.1422230795042468,"415":0.01470348570199797,"416":-0.08970530507548843,"417":0.0572076665817683,"418":-0.08738448115720876,"419":0.07775441971302519,"420":0.020291612947628324,"421":-0.17409592547114094,"422":0.08883992250959973,"423":-0.002817687626652938,"424":-0.05371230075212567,"425":-0.1192483153756711,"426":-0.0415867004390769,"427":0.17141074389240138,"428":-0.12721397992557423,"429":0.24269411942859898,"430":0.12116961802954894,"431":0.23108792523248003,"432":0.09779707346854104,"433":0.10637423664860149,"434":0.16002061428680442,"435":0.15309524662613924,"436":0.014928369775329053,"437":-0.028682708156613442,"438":-0.15527626760781216,"439":0.11323405832848556,"440":-0.178467981121215,"441":0.04551437662430134,"442":0.13445307949192756,"443":0.04513906179986682,"444":0.15615624703460143,"445":-0.18893501575933777,"446":0.0957208877133012,"447":0.08352467542927444,"448":0.04582362779923478,"449":0.06565094906846035,"450":0.16709540846989038,"451":0.24040952755600706,"452":0.2254262549106835,"453":0.20174220757549274,"454":0.2401363940317602,"455":0.12826439033819204,"456":0.06831964048916518,"457":0.0737096345906611,"458":0.20970307381063014,"459":-0.036564278733562626,"460":0.10156738150527223,"461":0.1211094201255187,"462":-0.1846553701244694,"463":0.0649144588801392,"464":0.03451227959655286,"465":0.055003870230412207,"466":-0.01890414698661239,"467":-0.1663212724802435,"468":0.1143504424068883,"469":0.11525094251238992,"470":0.17304267951643537,"471":-0.19036408466324137,"472":0.021727502119536755,"473":0.050709276806537695,"474":0.15371677679634904,"475":-0.07556340391130842,"476":0.14655691012059469,"477":0.12737660382437777,"478":0.10491849579946157,"479":-0.01555913931851443,"480":-0.10239110584884116,"481":-0.06277212389347847,"482":0.09222679806608552,"483":0.07301539930668234,"484":0.06634296461044557,"485":-0.004433925360035243,"486":-0.01788379343344516,"487":0.15399711006004577,"488":0.11448933343209136,"489":-0.09844775451178407,"490":-0.10541671749961382,"491":0.02923928165797607,"492":0.06749660916821298,"493":0.026130856366688618,"494":-0.03906850583390666,"495":-0.01565246819176904,"496":0.02377184259554861,"497":0.11466780007796373,"498":0.1190491509293661,"499":0.15513141123130822,"500":-0.06375335818988687,"501":0.1991139454519579,"502":0.00471841236068764,"503":-0.02954168238527081,"504":-0.1763296579228619,"505":0.030801503786837027,"506":-0.1173484237787028,"507":-0.021156725565211004,"508":-0.10418386401200468,"509":0.0414644164835935,"510":0.23278377358118396,"511":-0.11644831427386561,"512":0.10463025481935952,"513":0.03160588414927825,"514":-0.1146886243029489,"515":-0.06212329414824504,"516":-0.1740153949714554,"517":0.15332556376605225,"518":-0.011378125664584673,"519":0.11289757200981755,"520":-0.03113390097049482,"521":0.04787054651626593,"522":-0.16473257850624087,"523":0.17212447240060583,"524":0.03575240533084245,"525":0.028767637695263297,"526":-0.17166101476194104,"527":0.15901682017953725,"528":-0.00410517499357573,"529":0.09545952799608394,"530":-0.0846659733302774,"531":0.21542505079202498,"532":0.1331089930176163,"533":-0.08018284538032973,"534":-0.12192096826908552,"535":0.08955404901647777,"536":0.0788435373862049,"537":-0.03133337703554928,"538":0.15567907175038295,"539":-0.10417532613118825,"540":0.2311989380383858,"541":0.24130244639400925,"542":-0.07072259468142265,"543":-0.09561511459228296,"544":0.17441177071289582,"545":0.14117935831812453,"546":0.08246671759054416,"547":0.06564137592605619,"548":-0.0737752686352386,"549":-0.06049929952854973,"550":0.08140198553050396,"551":0.21070754619338142,"552":-0.16477177776017837,"553":0.13425361035967298,"554":-0.16807692985994427,"555":-0.08229899838052415,"556":0.13086398944376526,"557":-0.03754216908976427,"558":0.0350595787051648,"559":-0.18342689610425952,"560":-0.001031506069095301,"561":0.006583413166901059,"562":0.06297164393100585,"563":0.10903130230316888,"564":-0.09792331697005906,"565":0.22670991130901752,"566":0.05395468323386593,"567":0.18924882650930272,"568":0.08728893110962409,"569":0.17208577782087983,"570":0.03310263553281183,"571":0.04294513199295953,"572":-0.07970430216917372,"573":0.1548049266927987,"574":0.021370329075354702,"575":0.17927864215856026}},"3":{"bias":0.13054963503760023,"weights":{"0":-0.027231376147442456,"1":-0.2055897486261498,"2":0.09087927247788073,"3":-0.1496674633012516,"4":-0.12114701182435318,"5":-0.214596660530054,"6":-0.09998489236780415,"7":-0.011397982990013291,"8":0.06918360135450013,"9":-0.07764122785057294,"10":-0.055748597004814604,"11":-0.020810767280003493,"12":0.1320418042148019,"13":0.06180790139573917,"14":0.04071795023831019,"15":0.08946053690163201,"16":-0.1701052160304441,"17":-0.12658620258860517,"18":-0.01846996962808099,"19":-0.09895653426579074,"20":0.06984054299788288,"21":-0.10378026964634124,"22":-0.035126909951338776,"23":0.13939231546449413,"24":0.15950148303741524,"25":0.11435270228205642,"26":-0.19096156915489082,"27":-0.242170813680754,"28":-0.10638144996002465,"29":0.168897251115821,"30":-0.15510956473365026,"31":-0.021090737404350125,"32":-0.17324861272611453,"33":-0.15995361872009273,"34":-0.1753001884681473,"35":-0.042540064156849966,"36":-0.1864938620690933,"37":0.030777753727573975,"38":-0.04996787375622223,"39":0.06802121991907391,"40":0.04103044935017814,"41":0.056302804448950625,"42":-0.0787855193751598,"43":0.17857752422205925,"44":0.17322841348959064,"45":-0.20154735002092597,"46":-0.10838039543144921,"47":0.17006405193996585,"48":0.009613335146242321,"49":-0.12121854879947978,"50":0.05358181776587456,"51":0.06421495183425241,"52":-0.2326199184730433,"53":-0.12832659731870916,"54":0.10485494168418091,"55":-0.18883525382495905,"56":0.12145248315905711,"57":-0.06298183922619946,"58":-0.07289965954035235,"59":-0.09677011661401234,"60":0.0856856014609425,"61":-0.0542318636229714,"62":-0.20277479733186093,"63":-0.07484407878343284,"64":0.12932020211114484,"65":-0.16614518248764232,"66":0.052567958581511004,"67":-0.17597205368637744,"68":-0.0006370916047814713,"69":-0.019788167162252023,"70":-0.020032675321486268,"71":-0.12411823252213738,"72":-0.04640514014753583,"73":0.03766473753518195,"74":0.13661803707710415,"75":0.1258506114923649,"76":0.0462058837753098,"77":0.032751729533498426,"78":-0.19965545111302832,"79":0.08233776803614187,"80":0.05749144740657134,"81":0.11187274307918349,"82":-0.12021179344033239,"83":-0.09114680327665552,"84":0.1322719887216206,"85":0.06750817007488105,"86":-0.03686891055576175,"87":0.06162941424693343,"88":0.14051558976190057,"89":-0.11393132561773778,"90":-0.22863262384229197,"91":-0.22575718782119897,"92":-0.2117153102621295,"93":-0.005410971730687508,"94":0.07934517879497002,"95":0.15030180183550407,"96":-0.08006486544489988,"97":0.06629402089221086,"98":-0.22234336492986137,"99":0.0007705702389538937,"100":-0.18584187962048906,"101":-0.044231738459395924,"102":-0.08900742246972967,"103":0.052200173776950055,"104":0.08976511172101473,"105":-0.1318290093131757,"106":0.041306470372912456,"107":0.15741382484458025,"108":-0.1658826462240785,"109":-0.11274121261807805,"110":-0.043776976745220214,"111":0.16928315612828287,"112":0.215246637190614,"113":0.09362780001667029,"114":-0.03680449010785795,"115":0.02872943398704163,"116":-0.11962623048055304,"117":0.05974433909805292,"118":0.16977016718291169,"119":-0.1294612395348797,"120":-0.07728118533196227,"121":-0.047021460105461675,"122":0.11800863061711116,"123":0.005111952161385312,"124":-0.135663105080159,"125":0.030161835570506303,"126":0.07198683741172958,"127":-0.0499937767424375,"128":-0.14086321398913007,"129":0.2180345410303025,"130":-0.06738192551262234,"131":-0.1120632728132642,"132":-0.18559603900315888,"133":0.11956025138235819,"134":-0.09470270361246656,"135":-0.004323834568257993,"136":-0.14556452329328184,"137":-0.144603628631769,"138":0.07021239922367987,"139":-0.18238377385962584,"140":-0.10434319132398752,"141":0.02994401029192462,"142":-0.09656665763787264,"143":-0.16944638339001625,"144":0.039993507106067146,"145":0.04062431423855067,"146":-0.11528382947503624,"147":-0.03765871987955898,"148":-0.018152633436931596,"149":0.029016979143902076,"150":0.1312042839391905,"151":-0.166030386933875,"152":-0.006782552197819449,"153":0.09302783430236768,"154":-0.010654430802237682,"155":0.12788941856888592,"156":-0.06734955193075222,"157":-0.012777876679688474,"158":0.09844227767795596,"159":0.07355300202936979,"160":-0.052990440655964366,"161":0.09197115592086372,"162":0.174333830892027,"163":0.18241978743781478,"164":0.02782373387729621,"165":-0.030266293979793888,"166":0.10470635259357873,"167":-0.1593374784862526,"168":-0.1567276645778175,"169":0.06952893220763534,"170":-0.08265721942950294,"171":-0.026353841487981415,"172":0.13991616830640766,"173":-0.2199275629457618,"174":0.02975408683655935,"175":0.04418389912059399,"176":0.021856973684509624,"177":0.11237747418033207,"178":0.09414621750658944,"179":0.06302203224874274,"180":0.07185144540174548,"181":0.08247341605673386,"182":-0.02828163611293574,"183":-0.05563399798726889,"184":-0.007757231263877757,"185":0.01196579537147722,"186":0.11536246049241132,"187":-0.05342265578402778,"188":-0.0660187626552593,"189":0.19336881827337177,"190":0.1602627712322916,"191":-0.1361809617644756,"192":-0.07545980198256706,"193":0.08075891559361345,"194":0.06041327086099503,"195":-0.08435896456848856,"196":-0.05670207026419081,"197":-0.11744880198317556,"198":-0.058052274917175316,"199":-0.027759752931129273,"200":0.18536805102891507,"201":-0.17247676162537845,"202":-0.13500774991021233,"203":-0.0011305550957919196,"204":0.045506160497909794,"205":-0.11125863869313692,"206":0.12300461216636772,"207":0.2272455322339848,"208":0.07013940256303096,"209":0.17866570334048268,"210":0.14070163585839038,"211":-0.22541198488225184,"212":0.04304006987185694,"213":0.0390016286864174,"214":-0.058992386314740825,"215":-0.0257708618978782,"216":0.10946691438886873,"217":-0.16543413123175443,"218":-0.10980433460218984,"219":-0.19073319218577883,"220":-0.12456240870669553,"221":-0.09698875635813742,"222":0.1588215918272905,"223":0.15018875054547348,"224":0.14034712662276844,"225":-0.1870242018612919,"226":-0.1928999349812288,"227":0.028315885320949925,"228":0.15468301276385363,"229":0.09617581015871196,"230":0.027002707038577132,"231":0.10603744453788354,"232":-0.09989888911290334,"233":0.15089470148234604,"234":-0.21564530442245528,"235":-0.09534546788081691,"236":0.07380925372912803,"237":-0.12533295539581724,"238":-0.10806383082968928,"239":-0.10674390601502028,"240":-0.1388064261107914,"241":-0.12213981683399168,"242":-0.016414433133241264,"243":-0.07251084634436765,"244":-0.07416968410903654,"245":-0.22381803866142175,"246":0.10024935760487108,"247":0.09989312995864427,"248":-0.149364643374208,"249":-0.012112102654105285,"250":-0.10996682841204906,"251":0.11629664419188111,"252":-0.10949067353096512,"253":-0.023229624081145504,"254":-0.11777083436206674,"255":0.017938394003390406,"256":0.1451451166734556,"257":-0.1553512218713872,"258":-0.044083381542859616,"259":0.08477593856473725,"260":-0.15065988115487353,"261":-0.15962401670728352,"262":0.05347243549394708,"263":-0.19391255349021755,"264":-0.003971945205207395,"265":0.00646471578488976,"266":0.02266857916174306,"267":-0.11485389505201078,"268":-0.1667594325430374,"269":0.11236007744601019,"270":-0.1002222122185592,"271":-0.11231579940436245,"272":-0.08818582389100255,"273":0.013425872126896506,"274":0.13892602499560522,"275":0.18680080300769747,"276":0.11869777559355324,"277":0.08807252068806748,"278":0.036064739092109714,"279":0.08773412776427443,"280":-0.15010469171876384,"281":-0.19149584152152926,"282":-0.0640863422890892,"283":0.1485739579713119,"284":0.1455520597948529,"285":-0.20157944702459485,"286":0.15021646821814638,"287":0.040205094766959465,"288":-0.11034044000455605,"289":0.1818655546025506,"290":0.08976013720852487,"291":0.13613870391433125,"292":0.0230418018957699,"293":-0.22647800793729286,"294":0.04779196020862266,"295":0.06393827258095948,"296":-0.20274974298215676,"297":-0.019442504338573606,"298":0.05382901208142133,"299":0.15913016902850627,"300":-0.13572693063025526,"301":0.1222697413370028,"302":-0.04414659080341644,"303":0.02746692745397904,"304":-0.1773028712977198,"305":0.0287297969465449,"306":-0.05851910718332515,"307":-0.03912854665318378,"308":-0.13096979587143057,"309":-0.11328180105974897,"310":-0.14775750077875818,"311":-0.10103563608408128,"312":0.012554641404657061,"313":0.0522348934853719,"314":-0.013855392000934903,"315":-0.21002601452176003,"316":-0.1275944039598187,"317":-0.032246399303972294,"318":-0.12447239337109026,"319":-0.11813915870037581,"320":0.033803817794427246,"321":0.19844949623900845,"322":-0.032146825844114525,"323":-0.09049174239072695,"324":-0.07716069877005914,"325":-0.046236306003497436,"326":-0.225020488558066,"327":0.13526517565755902,"328":-0.028264363403434967,"329":-0.00845600451762504,"330":0.12873682543759982,"331":0.03687855758960529,"332":-0.1271305932603506,"333":-0.02361075870762498,"334":-0.05081559140734824,"335":-0.09579903078321508,"336":-0.024947735710021426,"337":0.001786317889059784,"338":-0.1818205759929585,"339":-0.04108851419600036,"340":0.1004060277006516,"341":-0.1449669423675438,"342":-0.1358533940964884,"343":-0.025554050860692477,"344":0.18178309365742218,"345":0.17378963499129577,"346":0.15853802244146803,"347":-0.08267266884139116,"348":0.22252476479928693,"349":0.07477086413611041,"350":-0.17882067624473647,"351":0.24408201224072837,"352":0.11863049956557059,"353":-0.17637901133635242,"354":-0.10437292403868674,"355":-0.21325393586309152,"356":0.07345441260194122,"357":0.07614181662285645,"358":0.07081863309937135,"359":-0.0694764778541681,"360":-0.124123623591417,"361":-0.20132283091702396,"362":-0.1559655780224719,"363":-0.1895079466683972,"364":-0.041385054495196756,"365":-0.16865694474803708,"366":-0.14070344875414226,"367":-0.061800306949126506,"368":-0.01967556850987547,"369":0.057981955396527535,"370":0.05904883283855311,"371":0.24400219882930776,"372":0.22010581695288428,"373":0.059321348968377055,"374":0.06950241133378408,"375":0.1456379474366993,"376":-0.15108162815103887,"377":-0.0959217050721387,"378":-0.05739927975126426,"379":0.04555930580796228,"380":0.05221532410841607,"381":-0.20764602215816602,"382":-0.12970053880330032,"383":-0.017407796799190273,"384":-0.08026258705759864,"385":0.05889022222786867,"386":-0.20276006700665425,"387":0.08849588539436701,"388":-0.2056039996258585,"389":-0.0242576094236135,"390":-0.03000736529728266,"391":-0.13487529998943062,"392":0.1588222735791743,"393":-0.018752200284601398,"394":0.15274136001538444,"395":-0.10572386495061976,"396":0.11331996797055477,"397":-0.14733311811419578,"398":0.05773673727790576,"399":-0.05516758559974251,"400":0.16314551344217226,"401":0.01417370028672782,"402":-0.006898522601856048,"403":-0.13189832820227707,"404":-0.24290215305594842,"405":-0.03538184942395549,"406":0.11850832542903789,"407":-0.03290382912389141,"408":0.08854405937654046,"409":0.1388801264715955,"410":-0.22277208603275747,"411":-0.11484338239576349,"412":0.12324882085668841,"413":0.1809713092379707,"414":0.08420590787963204,"415":-0.20508186108763998,"416":0.12972543155876626,"417":-0.14714289224481752,"418":-0.156369913315879,"419":0.2322976264654043,"420":-0.011037420921434154,"421":0.28994889474985336,"422":0.274802009944147,"423":0.02534389226050345,"424":0.013638996006836985,"425":-0.19772597930526736,"426":-0.1055631173233861,"427":0.032486293451075635,"428":-0.24112799610258312,"429":-0.1671014986481173,"430":-0.15391961822047995,"431":-0.2152195520821341,"432":0.06618339431086476,"433":-0.018111295103947413,"434":-0.10002754966244742,"435":-0.03047167734756577,"436":0.1501843606727919,"437":0.09257794303129681,"438":0.13434451403725384,"439":0.16350905364367885,"440":-0.028477119698476796,"441":-0.16081364287254749,"442":0.20710979988803913,"443":-0.03775957797680971,"444":0.008543623132766324,"445":-0.04401037948544251,"446":0.11888839909666596,"447":0.24196797695761035,"448":-0.07022625754598094,"449":0.10491565394339958,"450":-0.14342379059570795,"451":-0.17151784452153235,"452":-0.27566764020284795,"453":-0.11183140197494072,"454":0.10266432144177061,"455":0.057987649124333365,"456":-0.018856519936911707,"457":-0.19150106761719782,"458":0.14321896616330515,"459":0.13074382726666742,"460":0.15805104831917333,"461":-0.09191118437134863,"462":0.08640102791064479,"463":-0.17633419548402113,"464":0.061508335224690035,"465":-0.07468133685821642,"466":0.22515072776604253,"467":-0.07081982182208381,"468":0.06030756600048816,"469":-0.10581131754135137,"470":0.013697150130928908,"471":0.026020684263169284,"472":0.13130860809965592,"473":0.11644364143140094,"474":-0.20548227915629036,"475":-0.03655749050869939,"476":-0.19558377310437386,"477":0.1359150585830852,"478":-0.11661398952554894,"479":-0.03326260074389658,"480":-0.0406490959986243,"481":0.0045482301785495305,"482":0.04518650261739156,"483":-0.1207666584985028,"484":0.17815582233778626,"485":-0.056319904077443396,"486":-0.10063067744562801,"487":0.20568461258011936,"488":0.013830593924866524,"489":0.1759191105457975,"490":0.07592210347973534,"491":0.1880525590617234,"492":-0.12398601680583345,"493":0.05132863048702643,"494":0.1629360306939764,"495":0.10893216157674172,"496":0.08552648054742361,"497":0.01881878896927121,"498":0.14549310738089322,"499":-0.024591346352147065,"500":0.1373668272137606,"501":-0.10914295490666184,"502":-0.13476824782618688,"503":0.06213662001203215,"504":-0.1507406833888636,"505":0.13410664645857587,"506":-0.10181865994850352,"507":0.14726359542204784,"508":-0.1304675385532148,"509":-0.2521352066433367,"510":-0.0170816162178553,"511":-0.18898398890642348,"512":-0.02253132462988336,"513":0.134124407976879,"514":0.18395287485898706,"515":-0.18256756633311516,"516":0.0019737716233439277,"517":-0.1948656192250112,"518":0.1043423224329443,"519":0.12706064738750375,"520":-0.05985950108942616,"521":0.02280820278797405,"522":0.14546324914992753,"523":0.07246636693729393,"524":-0.11222953374980357,"525":0.14301197976463853,"526":-0.21882107954495258,"527":-0.1738905285898044,"528":-0.003971653033215061,"529":-0.07385987188492969,"530":0.07056039147737665,"531":0.13587174438461763,"532":-0.007185207219322353,"533":-0.14772096708530308,"534":-0.19914673588520465,"535":-0.12607702348332728,"536":0.15853163127774367,"537":-0.020913051647145964,"538":0.00716672123387557,"539":-0.014995482424796496,"540":0.0015862856934578382,"541":0.08416931748947844,"542":0.03024266605846559,"543":-0.16196741899631403,"544":-0.12101611699028654,"545":0.09212165698107555,"546":0.03262181282315718,"547":-0.08146952442530628,"548":-0.07913451554447963,"549":-0.05548836996582255,"550":-0.18956707820794372,"551":-0.054670953407719124,"552":0.033554279958592274,"553":0.09429907565447895,"554":0.1671353645362467,"555":0.12128753017105362,"556":-0.02751409187667522,"557":-0.0839812795395205,"558":-0.09885952727846134,"559":0.09115735032174614,"560":0.17887903411139194,"561":0.05338714492445051,"562":-0.03970638129836479,"563":-0.12293302792185218,"564":-0.11906314511450179,"565":0.07359977559594119,"566":-0.12044544886826557,"567":0.013870546828712036,"568":-0.17499446721619769,"569":-0.09630101363571665,"570":0.10940490655478757,"571":0.0003847345949735502,"572":-0.03465569400055764,"573":0.12387332291145793,"574":0.13428993656608224,"575":0.07544321994549895}},"4":{"bias":0.07362769483861888,"weights":{"0":-0.13675870426331194,"1":-0.18817074689378113,"2":0.03565618513943795,"3":0.01689379280473567,"4":-0.017219421524799782,"5":0.04807992135934405,"6":-0.1839180537047372,"7":-0.08359369873209332,"8":-0.21813349397345647,"9":0.17953561785114314,"10":-0.04379084756866621,"11":0.10416050774782289,"12":0.14076686815878123,"13":0.02536355614861185,"14":-0.14091127345722818,"15":0.16621514376799137,"16":0.11402588764964879,"17":0.050220529732943296,"18":0.07772139653021959,"19":-0.1496581995898291,"20":0.11809078953094786,"21":0.233736112909383,"22":-0.017797368386895784,"23":0.11258710446304689,"24":0.10388961141458748,"25":-0.09355818977878527,"26":-0.17798447585092697,"27":0.016070083710204876,"28":-0.007572034919446212,"29":-0.11622817678234584,"30":-0.10824775034558695,"31":-0.17678199333356878,"32":0.06934864058594024,"33":-0.21444660936443027,"34":-0.04202659247538442,"35":-0.08841129882409146,"36":-0.2860514451288304,"37":-0.2157548786266911,"38":-0.14156913961993,"39":-0.06026941249267312,"40":-0.02297795940261778,"41":-0.12023321330050056,"42":-0.19150940999420402,"43":-0.026900752559559156,"44":-0.08838339475116871,"45":-0.007001668640233394,"46":-0.06649698093133671,"47":0.05729525163740521,"48":-0.07664723705200197,"49":-0.22115921092842308,"50":0.04471492824691844,"51":0.06824079849389597,"52":-0.23298108748174964,"53":0.14200340286839022,"54":0.04433827400467059,"55":0.09442486286899866,"56":-0.1930680981436986,"57":-0.10507895555768988,"58":-0.11044553897789768,"59":-0.09552901465478851,"60":0.14006275350831596,"61":-0.045347156341209886,"62":0.055046024201708864,"63":-0.08794113918186133,"64":-0.15972341669877832,"65":-0.0014278020010904716,"66":0.06620370318753929,"67":0.06916725643247566,"68":-0.012017887383038217,"69":0.06880962305184189,"70":0.19125940711726153,"71":0.21691510941682934,"72":0.013258412624115418,"73":-0.23433828680701235,"74":-0.06522612056128932,"75":-0.21109190700789307,"76":-0.23643661908459745,"77":0.05565652945270607,"78":0.12842125376294397,"79":-0.15846519669285328,"80":-0.06265624965322782,"81":0.02822468472953732,"82":-0.053389660526635505,"83":0.12090273787563247,"84":-0.06755262847003231,"85":-0.16763101875836406,"86":-0.03021243778190043,"87":-0.09290869418733588,"88":-0.10527410304220713,"89":-0.24346352687762512,"90":-0.06420226313628255,"91":-0.12468789121418154,"92":-0.04638748219451906,"93":-0.08772180674163761,"94":0.11020977998036212,"95":-0.18463994099388842,"96":0.12815156112856807,"97":0.05129280043807176,"98":-0.17403406522912987,"99":-0.09558693551689239,"100":-0.0028797364544695335,"101":0.23864126063942204,"102":-0.15627979784039497,"103":-0.08574415885803112,"104":-0.055446338241676184,"105":-0.07645813501107279,"106":-0.02362203707758549,"107":-0.14887356843865862,"108":0.04790556331383984,"109":-0.04034603217744034,"110":0.1427243291351642,"111":0.09714562932223611,"112":0.10508287427653043,"113":-0.22339613804418845,"114":-0.05393004652889585,"115":-0.005822089029620245,"116":0.10533558928799097,"117":0.035808093267537616,"118":-0.03699786263238767,"119":-0.1343181007443333,"120":0.15505247860550891,"121":0.18375090067903121,"122":-0.12590321803136234,"123":0.056861325540404774,"124":0.10682485664758189,"125":0.2217351370367478,"126":0.25611802688434093,"127":0.10371742075135523,"128":0.15872892269187625,"129":0.16235683814088708,"130":0.2532876037304187,"131":-0.02495241043279832,"132":-0.038651195925176664,"133":0.06862214410223576,"134":0.034087516113618196,"135":-0.023596171443278097,"136":-0.04856896450186845,"137":0.07681621678115555,"138":-0.13925355799809463,"139":-0.055045931834693286,"140":0.17775920709775048,"141":0.09111847616988539,"142":0.10881271025374582,"143":-0.0030559948826816624,"144":-0.15992382001985014,"145":-0.14846919010741566,"146":0.16830281519502865,"147":0.04156759553085256,"148":0.17310602058064872,"149":0.12879907517045158,"150":0.1589516926704404,"151":-0.07072698227365627,"152":0.1918286709379041,"153":-0.0846342278202559,"154":0.052027176925369976,"155":0.14037169381016698,"156":-0.058222030398296806,"157":0.13479048754042827,"158":-0.13380132447827536,"159":0.12823051773640717,"160":-0.0760607721634583,"161":-0.05549968004560779,"162":-0.2496256263933939,"163":0.15072080363771212,"164":-0.19543943241568454,"165":0.07562402171453209,"166":-0.07464139647904254,"167":0.08613604099447328,"168":0.06661743426743207,"169":0.10427358402688368,"170":-0.0542834446475281,"171":-0.04259483453680879,"172":-0.10569665390408738,"173":0.18137454222174065,"174":-0.025945776551035485,"175":-0.17480838187765438,"176":-0.16863043351001988,"177":-0.0783422160171917,"178":0.09330106828748097,"179":0.08935566198077936,"180":-0.18845743066017978,"181":0.21912900575307467,"182":-0.07013764519603896,"183":-0.11628865037922324,"184":-0.07905888716313064,"185":0.1422262945081439,"186":-0.17154787689925866,"187":-0.07535928283983497,"188":-0.05294891335255211,"189":0.001815211172800025,"190":-0.21209044398797366,"191":-0.2158388093257331,"192":0.1355135058803005,"193":0.03724831000058165,"194":-0.0140468813178295,"195":0.15182987517796,"196":-0.11180399850377185,"197":0.02966145030317324,"198":-0.14765124789766157,"199":0.039296739030214536,"200":0.013761170537006168,"201":0.00498742188648532,"202":-0.09132452967943677,"203":-0.07169573936752574,"204":-0.025382545515284856,"205":-0.15128576218147333,"206":0.21197100756570764,"207":0.0535797563248484,"208":0.1662987407019802,"209":-0.01998252824557954,"210":-0.0998806627577387,"211":-0.17491264939673198,"212":-0.1894946262130051,"213":0.08196790970008372,"214":-0.08561433689566611,"215":-0.12788266817475605,"216":0.20993516313102717,"217":0.12444411670778716,"218":0.17658834275675803,"219":0.07698446730701915,"220":-0.08430011831477262,"221":-0.07734118874987518,"222":-0.0024243455856093345,"223":-0.181577140257803,"224":-0.28084220163185225,"225":-0.14505385238078375,"226":-0.025870063229994626,"227":0.08261131716398541,"228":0.03172145614247995,"229":0.19765200477445685,"230":-0.09348873919161296,"231":-0.22339424050734039,"232":-0.11335162549006503,"233":0.08643344920116132,"234":-0.07130708409361257,"235":0.1445288621277235,"236":-0.172525483871304,"237":0.10330234681012627,"238":0.04988262099556907,"239":-0.08683137445025295,"240":-0.14490001908094524,"241":-0.01613339129885594,"242":0.20953889452581068,"243":-0.05078239340542161,"244":0.031258826612605026,"245":-0.18950398330916,"246":-0.27072425728940913,"247":-0.2783409705483888,"248":-0.26056103908880174,"249":-0.21075179280040018,"250":0.1471404285082903,"251":-0.09911028855458597,"252":-0.09462923847208221,"253":0.20088828526463234,"254":0.012648565567820715,"255":0.08273797339641208,"256":0.1340935747460003,"257":0.09575759751059335,"258":-0.005480267942733164,"259":0.040914660760831056,"260":-0.10155845390322743,"261":0.033286851515343566,"262":-0.06282837400194247,"263":-0.16252930605728055,"264":0.1316517752536214,"265":-0.06291320318856472,"266":0.2970314278844069,"267":0.13441987642147923,"268":-0.08784341230331226,"269":0.11331988935817401,"270":-0.2593112280769021,"271":-0.2170833151487721,"272":0.122187397708853,"273":-0.2121462868616263,"274":-0.05466226583446227,"275":0.20651712396023772,"276":0.18774032577840652,"277":0.029055226142879045,"278":0.11436690575729888,"279":0.1446698891842543,"280":0.15169983267746945,"281":0.002648394803655349,"282":0.08406046186426183,"283":0.15861598752450334,"284":-0.05097050624894341,"285":0.14614834244873176,"286":-0.12794144971104887,"287":0.018078267987714964,"288":-0.03689717712311686,"289":-0.006357422215258478,"290":0.2590071935080615,"291":-0.14957631276226682,"292":0.19878635873428557,"293":0.0031933323946674386,"294":-0.06953073730260298,"295":0.14566318482550017,"296":0.13842255677183937,"297":-0.06783279076076379,"298":-0.2607826909942131,"299":-0.11047762581806955,"300":-0.04239594464014306,"301":0.05211821691555003,"302":-0.030148401014763678,"303":-0.20778961320288533,"304":-0.09142958912546477,"305":-0.1229462133000892,"306":0.1783141760842161,"307":-0.08920742694955985,"308":0.1861822644385645,"309":0.07858031054365114,"310":0.1242625574460685,"311":0.05950302683314069,"312":-0.0336838175181261,"313":-0.0672291253031794,"314":0.05887092171607789,"315":-0.0446239471136604,"316":-0.04746272686497377,"317":-0.14575318488310132,"318":0.02733156953295708,"319":0.006542223775222469,"320":-0.17953935963810103,"321":-0.07219137761147054,"322":-0.18927122939772514,"323":-0.15226162982349423,"324":0.09058831863572726,"325":-0.008435775677862722,"326":-0.2686433308498506,"327":-0.2186174265399109,"328":-0.06779364853995401,"329":0.15456566570756886,"330":-0.059276693580496136,"331":0.014273772241999199,"332":0.04390280423162996,"333":0.19074020365795527,"334":0.060671125121246214,"335":0.01185641605884465,"336":0.04562464716003826,"337":0.13522596596669592,"338":0.09832381623340812,"339":0.17499971203800527,"340":0.08335041262046818,"341":0.017255382698070976,"342":-0.008840316580283463,"343":-0.08619631699471252,"344":-0.10347638141734616,"345":-0.15703121149106217,"346":0.08051977007701025,"347":-0.1756714932390412,"348":-0.14408500426031978,"349":-0.11704174572414798,"350":-0.030346125143866264,"351":-0.03558435583207829,"352":0.02997098302390755,"353":0.14676680174291223,"354":0.13255776397756328,"355":0.167360897583136,"356":0.03874541631884314,"357":0.1860523817002474,"358":0.06195408489476552,"359":-0.2072755101223042,"360":0.1805109509437886,"361":0.12738469599225194,"362":0.17340856758253095,"363":-0.08250165450794796,"364":0.17883917525050713,"365":0.30256173912477713,"366":0.05486652239142461,"367":0.1563996909828699,"368":0.06283985918952832,"369":-0.18903722731557182,"370":0.07661657657545276,"371":-0.2543056900150117,"372":0.04369539522007409,"373":-0.1912355004725519,"374":0.010504526823691547,"375":-0.14901897027144725,"376":0.008596347710042675,"377":-0.1580211383746878,"378":0.06362815318871522,"379":-0.12546619308145898,"380":0.07208301683694683,"381":-0.06180261951125029,"382":0.027237607435735455,"383":-0.19655305971390347,"384":0.10262089805919315,"385":0.020689735456315774,"386":0.12216792469525993,"387":0.036881309912437335,"388":0.31655740284222544,"389":-0.030615886360541387,"390":-0.11425120187993372,"391":-0.049349746663661466,"392":-0.12116802062669416,"393":-0.2734564752885398,"394":0.06490205237698098,"395":0.07440660182767814,"396":0.03435371298526902,"397":-0.05906132244523961,"398":-0.10422295672473006,"399":-0.08755091838906938,"400":-0.13949217715481985,"401":0.09435109296047064,"402":0.13391329665539006,"403":0.028131828198523154,"404":0.12070937757523557,"405":-0.05513308881191813,"406":-0.20415087002744767,"407":0.14312349862426518,"408":0.12002854597998838,"409":0.22776268329839433,"410":0.1607453891208829,"411":-0.053959848087518414,"412":0.16829682983918462,"413":0.021042719371958434,"414":0.1768690133169211,"415":0.10848095734867254,"416":-0.13008218237557345,"417":-0.19569080685752954,"418":-0.2565249258923418,"419":-0.06582617221538001,"420":0.035801425512850975,"421":0.16764207991673113,"422":-0.04432691733431707,"423":-0.06526283126930184,"424":0.20692125548791473,"425":0.16565277586205052,"426":0.014064215251493756,"427":0.00915976505087428,"428":-0.000024536120645459572,"429":-0.15512494526634443,"430":0.13119944495700173,"431":-0.19066723922790157,"432":0.06953320841325714,"433":-0.14872035519899707,"434":0.023030372440955547,"435":0.09412465887054164,"436":0.25859445142802456,"437":0.14987378794783324,"438":0.050082640098190565,"439":0.22357817515233477,"440":-0.09549621200109544,"441":-0.10575642529016842,"442":0.15374301048140715,"443":0.10199741559078171,"444":-0.03064311194735141,"445":-0.15032398605234695,"446":0.1100368922286192,"447":-0.1283024981062472,"448":-0.0006296240299869052,"449":-0.07939788768768898,"450":0.11153990997237569,"451":-0.15894118906066135,"452":0.10964177398852795,"453":0.09751193647549623,"454":0.013696746987065554,"455":-0.19734464496778462,"456":-0.07230454383267435,"457":-0.14166480949059568,"458":-0.07852110942150484,"459":0.12334074324524652,"460":0.11799340465284903,"461":-0.16840832448425253,"462":0.2332417133373221,"463":-0.08841665396646711,"464":0.1379991516957694,"465":0.10338297608060706,"466":0.1152792919919954,"467":0.07876321323202481,"468":0.15542988253734205,"469":0.1163912966557643,"470":-0.14193228773649336,"471":0.04392452968448108,"472":-0.08212085864638205,"473":0.14814256174487608,"474":-0.16992649078914782,"475":0.02234639574724529,"476":-0.220923235986098,"477":-0.04082479020569149,"478":0.0017627833789868822,"479":0.07094357109992054,"480":-0.007661448009390869,"481":0.1312885401369158,"482":-0.21521380600195605,"483":-0.01205331421992641,"484":0.0260688090713105,"485":0.0719432359081784,"486":0.15290563300687846,"487":0.1206488573118801,"488":0.25260704918853183,"489":-0.0036103402560809334,"490":0.11989703689191092,"491":0.005068101137105665,"492":0.04916599937778962,"493":0.2053479813202624,"494":-0.13508185108131676,"495":-0.12549683187243962,"496":0.15142030339612236,"497":-0.21650121635027691,"498":-0.17727805352368245,"499":-0.020866248718646053,"500":-0.027710766103132896,"501":0.17635028198252065,"502":-0.15899659424639706,"503":-0.03572152939724,"504":-0.11314580642587412,"505":-0.024418858829018383,"506":-0.1929394651534016,"507":0.03538336920747127,"508":0.024412117469243058,"509":0.059702877810200755,"510":0.012275887654213348,"511":0.11315285583795706,"512":0.12043740530492825,"513":-0.041437199180829956,"514":0.059598545423638995,"515":0.03755962030845793,"516":-0.015556221512556964,"517":0.11058765128202204,"518":-0.03321084290794683,"519":0.14484749525890245,"520":-0.08427218638293686,"521":-0.10019998378051671,"522":-0.002198132764992621,"523":-0.013488847550755393,"524":-0.06207858483351619,"525":0.2663811780993471,"526":-0.069425460630395,"527":0.07867657340105988,"528":0.14441593571131617,"529":-0.10328409367457962,"530":-0.06665249208912466,"531":-0.18070513777498623,"532":0.05088566221810589,"533":-0.11992048964582047,"534":0.1459774319849448,"535":0.03991272491650666,"536":-0.19247405135941442,"537":-0.10850395603176709,"538":-0.1896416831476869,"539":0.08220049132991983,"540":-0.008159701978696431,"541":-0.004339892626030383,"542":-0.039275392876268675,"543":0.19341538083701595,"544":0.20324952630672027,"545":-0.12610630793483948,"546":0.06180662689406756,"547":0.029145159939813,"548":-0.10482099780774258,"549":0.10766447409452694,"550":-0.13939217074031496,"551":-0.06483979382062778,"552":0.1405171538441562,"553":-0.13396378027200506,"554":0.08725756594285881,"555":0.03262144016383536,"556":0.019853005300873677,"557":-0.20021120680126303,"558":0.059522432645353486,"559":-0.07656561635923637,"560":-0.1449209583177258,"561":-0.03300164766203064,"562":0.016024424413186276,"563":0.1087952435643426,"564":-0.16833287202950017,"565":0.10968136126246343,"566":0.02683229998066304,"567":-0.06366107159533416,"568":-0.15727163136299074,"569":-0.10710979480241314,"570":-0.06329791574047167,"571":0.17012970514646875,"572":0.042338710071651665,"573":0.062449154914224266,"574":-0.009158846447699012,"575":0.18724140098471534}},"5":{"bias":0.15477951809771398,"weights":{"0":0.19464376685518678,"1":-0.001430367083195621,"2":0.08331524333791555,"3":0.22800222833090641,"4":-0.16412380616812147,"5":-0.07981223574719006,"6":0.16734815811382717,"7":-0.10218091189084749,"8":-0.18002353887126768,"9":0.10368242772712252,"10":0.11671088261288036,"11":-0.044504765552147135,"12":-0.04530012646285889,"13":-0.1011416340195496,"14":-0.05884756580278927,"15":0.07107286526364542,"16":-0.1391395205159995,"17":0.11998299723842967,"18":-0.058116200810452184,"19":-0.00009046261739611674,"20":0.21242007128372317,"21":-0.01832615521422273,"22":0.0792141803173941,"23":0.2440015418388677,"24":0.07572338434301162,"25":0.047132966718126425,"26":0.0897296079560412,"27":0.03853956538735971,"28":0.1806079667152885,"29":0.13775164389498548,"30":-0.08074559935058685,"31":0.061808035367445835,"32":0.08684333229378992,"33":0.16051967002155565,"34":-0.09845815396615652,"35":-0.05997341965049197,"36":0.12437336380937199,"37":-0.07958354617124441,"38":-0.05079757685311442,"39":0.20057451218859496,"40":-0.16777538272011305,"41":-0.14358032698547163,"42":0.18639108443045982,"43":-0.17615291113252182,"44":-0.1541746692514951,"45":0.09278488476791015,"46":0.07042913950795845,"47":-0.012399310835889629,"48":0.045251723452346966,"49":-0.025623940963775495,"50":0.2571455587044637,"51":-0.00035057783442567285,"52":0.2130706942773169,"53":-0.12173326452385597,"54":-0.10031412383026876,"55":-0.05952391734654179,"56":0.17730070647625346,"57":0.2026809740888311,"58":-0.035372836948414685,"59":0.08894247166491447,"60":0.22596622836165683,"61":0.16477708304796623,"62":-0.07166410486114014,"63":0.08864114483324505,"64":-0.02202458356774681,"65":0.10756277636821494,"66":0.08246225380522454,"67":-0.04468174924720792,"68":0.12283529784967395,"69":0.20259731870048966,"70":-0.1549762612399029,"71":0.04514477623512363,"72":0.17557281353733115,"73":-0.016560604976448852,"74":0.15160629039694085,"75":-0.11279900371761055,"76":-0.1608098395289221,"77":0.22877618793260757,"78":-0.01569897387260015,"79":-0.084413446951572,"80":-0.11242876530151925,"81":0.16045402951482887,"82":0.003744081815733711,"83":-0.14905703201930465,"84":-0.08249101286330539,"85":0.07424745378117376,"86":0.1729956521397682,"87":0.0069670643463940266,"88":-0.02522347696905035,"89":0.14410055360882,"90":-0.12224739490570422,"91":-0.10951046134768315,"92":0.16888242973476356,"93":0.021611341749639176,"94":0.12582150453829619,"95":0.13841804376654213,"96":0.0968023752140328,"97":0.11681827997846503,"98":-0.1478403449080741,"99":0.11186880973365768,"100":-0.11194312071531465,"101":0.14906839947573702,"102":-0.132394287903281,"103":-0.19367520836699278,"104":0.04927626198274901,"105":0.01941220234599031,"106":-0.12957775057475915,"107":-0.13514119366142177,"108":-0.19615561106768822,"109":-0.17773495209381127,"110":-0.15176111542580265,"111":0.024811227703232446,"112":-0.1896530136956003,"113":-0.12648012659142463,"114":-0.027297949957393278,"115":-0.13145890165397833,"116":-0.07688865810054417,"117":-0.12310251441412323,"118":0.07519026051385709,"119":-0.18167383656527428,"120":-0.011352648278746102,"121":-0.19309885345140154,"122":-0.16266160652512954,"123":-0.11535932500164175,"124":-0.027400151346408805,"125":-0.008498960634675297,"126":0.0896018683407715,"127":-0.1181457893617941,"128":0.012712856006224163,"129":-0.19624067478614746,"130":0.13757596769536917,"131":0.1279104274652837,"132":-0.1135150265766921,"133":0.062385573942708834,"134":-0.2493871647963349,"135":-0.21578455201170982,"136":-0.14346037373696938,"137":0.09221212054278613,"138":-0.043131651213507635,"139":-0.1832176938337865,"140":-0.0015681146556289923,"141":0.17458286755505156,"142":0.24557059923146182,"143":-0.14943763434671478,"144":-0.17931932932549877,"145":-0.015745462766137197,"146":-0.27621734265147907,"147":0.06542229477768483,"148":0.08624376146603714,"149":-0.07721434692229638,"150":-0.12806298427427265,"151":-0.25640745401600706,"152":-0.037494287921267376,"153":-0.25519641068254345,"154":-0.05780782892847903,"155":0.07288542490191462,"156":0.027797906423539933,"157":-0.01984828162589166,"158":-0.08812354001969769,"159":0.06238608986956739,"160":-0.1388709977540888,"161":0.11114974734061324,"162":0.021068755877430255,"163":-0.02398903673026189,"164":0.14330487763595945,"165":0.19893817878703937,"166":-0.10930808244072424,"167":-0.1177678894653659,"168":0.04155413874062592,"169":-0.17848415559745281,"170":0.011409830384149432,"171":-0.19673819243027812,"172":-0.028280779372506358,"173":-0.21865243369940957,"174":-0.16683643369348378,"175":-0.15147389687135218,"176":-0.13578973285868293,"177":0.10814511060155038,"178":0.10008107291247735,"179":-0.15146771336584772,"180":-0.04206422898031776,"181":-0.0839290749698664,"182":-0.11500702759321288,"183":0.12584083280179112,"184":-0.040871546801568424,"185":-0.02157803217147183,"186":0.1482727744713403,"187":-0.053040673238632194,"188":-0.12872666312325987,"189":-0.042239761967135886,"190":-0.10199179793369993,"191":-0.15543704899110986,"192":-0.08339112799767885,"193":-0.09119679702046977,"194":-0.08273399868101335,"195":-0.1324533293908778,"196":-0.007709301062487596,"197":0.182609214857654,"198":-0.2250413111129401,"199":-0.1592036922429507,"200":0.04053560120331555,"201":-0.22111665047856374,"202":0.0783826912079465,"203":0.06448368053573712,"204":-0.14797222706252336,"205":0.005285537848467743,"206":0.00013713632219302348,"207":-0.08665557096506221,"208":-0.020055308575663375,"209":0.05423899368554124,"210":0.0010411270402824473,"211":0.19636070869305797,"212":0.00577398172911794,"213":0.12909667026238564,"214":-0.0462633347530985,"215":-0.09103233766834591,"216":-0.061538187461589185,"217":-0.011411976857450119,"218":-0.17129420997175632,"219":-0.08828357398503298,"220":0.11310875860928205,"221":-0.12675774648377364,"222":0.029333687589656057,"223":0.17279291012039888,"224":0.09309697929869354,"225":0.14381482702068632,"226":0.016030074957306815,"227":-0.039500835007330315,"228":0.10508515383878186,"229":0.004936841330859815,"230":-0.18758982142353472,"231":0.1611425582916578,"232":0.0851817767290796,"233":-0.042798144117124175,"234":-0.17764311114535333,"235":-0.03728307434030527,"236":0.0101886254452927,"237":0.2125174945686273,"238":-0.042366777341087354,"239":0.13978896932695323,"240":-0.05120430369513432,"241":-0.03165959176567628,"242":0.13270352500413898,"243":-0.08967075289598128,"244":0.161923875239822,"245":0.1925280262458019,"246":0.17345593005946505,"247":0.014713976579440822,"248":-0.05973488140636462,"249":0.16168759224907242,"250":-0.006514170995374,"251":0.22013531270220008,"252":0.2371426158608217,"253":0.11780937548119813,"254":-0.054824162612188754,"255":0.1562310862495796,"256":0.11110742195835728,"257":-0.09007951116999625,"258":-0.14353966410026564,"259":0.15238760679677857,"260":0.14310047089985423,"261":0.048749071234997866,"262":0.07950089704081803,"263":-0.12781294850497682,"264":-0.15848418454755056,"265":-0.006547838930708577,"266":0.07038849386111277,"267":0.14100687397129943,"268":-0.09601166519389848,"269":-0.13869854670746964,"270":-0.05813520799214396,"271":0.1357303889552543,"272":-0.09967658545469668,"273":0.05103192700256089,"274":0.15854171515219023,"275":0.176606766150523,"276":0.024826081887421827,"277":0.23561820740883074,"278":0.0613665861433143,"279":-0.09235439213689167,"280":0.052555979139720245,"281":0.0008113066302970014,"282":0.035909829941126334,"283":0.1414471933181738,"284":0.2174196994075432,"285":-0.1711858351032404,"286":0.022137105758900585,"287":-0.09910487857899526,"288":-0.011251528624923339,"289":-0.08764929833263815,"290":-0.05227519260364081,"291":0.15066268818788583,"292":0.057816988619404784,"293":0.2006114456596431,"294":-0.02316135612483091,"295":-0.06547781273409015,"296":-0.11691499870832811,"297":0.06738545615536047,"298":0.001962557281383572,"299":-0.0219490715476713,"300":0.2665475526379129,"301":0.01868196983822718,"302":-0.0797799186815219,"303":0.05972287306788643,"304":-0.12222500226360984,"305":-0.11910448402711155,"306":0.010597476573801312,"307":0.0636141297585033,"308":-0.12752869735015293,"309":0.06187457393146621,"310":-0.03184908806761198,"311":-0.12086744235052232,"312":-0.11200326923642712,"313":0.18206650126085544,"314":-0.0577233115372172,"315":-0.13433551870912644,"316":0.2034245604067449,"317":-0.007687247902902747,"318":0.15288664493189147,"319":0.2220152206580671,"320":0.2299625730025457,"321":-0.030247243756073044,"322":-0.020559412615452338,"323":0.0061354517880568985,"324":0.14457874408998608,"325":-0.07477449753640576,"326":0.04509990746709824,"327":-0.19887353168801947,"328":-0.04760272350374274,"329":-0.10801806263211973,"330":0.2064566673157825,"331":0.06359667862377334,"332":-0.12471368269393271,"333":0.10962101279800224,"334":-0.02202773038929829,"335":0.005502020012008284,"336":0.026680986495971323,"337":-0.010952843032915494,"338":-0.060239531002600946,"339":0.08298153015482697,"340":-0.1233031826173197,"341":0.19696055806572035,"342":0.03025089978158867,"343":0.16343851073339094,"344":0.0550319539770466,"345":-0.08700518971963203,"346":-0.023280757329496287,"347":-0.04713540705260124,"348":-0.2584591980349911,"349":0.12350074139903526,"350":-0.18973655381698848,"351":-0.09428617025944235,"352":0.030729564606066895,"353":0.16085910535477116,"354":0.1836676841353213,"355":-0.10518883669861588,"356":-0.13059960860085124,"357":-0.07299650344783759,"358":0.10656534685288055,"359":0.019932837850954142,"360":-0.13459713765902992,"361":0.004618513062513842,"362":0.13941651471290367,"363":0.215732487737633,"364":-0.16721931821267264,"365":-0.19137455305080447,"366":0.16638607013070306,"367":-0.09166779048857414,"368":0.13452318237713598,"369":-0.2239623858781309,"370":-0.15624247152107748,"371":-0.1479927133075453,"372":-0.053314572738986085,"373":-0.007944194363236389,"374":-0.016682407401612566,"375":0.14671952438294855,"376":0.011488854491937775,"377":0.18147286196860757,"378":-0.12539815399209714,"379":0.19609970217857572,"380":-0.046004003251590736,"381":-0.07095969299931966,"382":0.058926733490454165,"383":0.185916627755327,"384":0.20290654209084777,"385":0.15270982476047254,"386":-0.05812743416141276,"387":0.19804278616084062,"388":0.0408861223329453,"389":-0.05647494212788864,"390":-0.06628831101744012,"391":-0.16090960238128657,"392":-0.0006656376563362424,"393":-0.2540853489376478,"394":0.02803586968355668,"395":-0.27918129935518443,"396":-0.039307433717734055,"397":-0.25518331002878897,"398":-0.17638110024193182,"399":-0.08172908196116868,"400":-0.0007088318552236628,"401":0.0766924909212494,"402":-0.22761277334072666,"403":-0.007326712986628739,"404":0.17905751709912554,"405":0.15376885929808906,"406":-0.04159249794074126,"407":-0.21225416586398058,"408":0.008990598291556202,"409":-0.15302705118943974,"410":0.029729649298938055,"411":-0.0285809615125742,"412":0.12149730005950317,"413":-0.036205291439705904,"414":0.13205306903269992,"415":-0.07260880020422612,"416":-0.025727452035730514,"417":-0.06593957976859892,"418":-0.30355695782815384,"419":0.030728071853022752,"420":-0.005307446319685919,"421":-0.11160166088869294,"422":0.13785834482947057,"423":-0.12120909229679917,"424":0.02412700409891821,"425":0.06339942174892449,"426":-0.09310905979494936,"427":0.18039209982024845,"428":-0.04608323971377204,"429":0.20126983561921924,"430":0.19379099236464215,"431":0.021922865493086936,"432":-0.018164029872291734,"433":0.19668069374364952,"434":-0.03346290806290873,"435":-0.1454578355973487,"436":0.11648916909878577,"437":0.009536633651564352,"438":-0.053600819048278424,"439":0.025770203536516892,"440":0.009093288648181945,"441":0.10559347809339886,"442":-0.09944477263328862,"443":-0.01274226393775933,"444":-0.0012791884793888727,"445":0.08808582721397244,"446":0.06395893901705883,"447":0.18678162685714883,"448":-0.07831960770157331,"449":-0.09743081929125318,"450":0.05707223192952726,"451":-0.07325405312214031,"452":-0.028334239031846387,"453":0.06498417668730946,"454":0.23450983928292404,"455":0.23418989417175637,"456":0.097207225911744,"457":-0.15909719383065937,"458":-0.05082184723321316,"459":0.08668801625412387,"460":0.029934676102100818,"461":0.001133418833939036,"462":-0.05898982483429065,"463":0.04437979640219195,"464":-0.2297108199013839,"465":-0.22754251045020168,"466":-0.17552415866168045,"467":-0.09119358450634905,"468":0.026891460557394005,"469":-0.05254203217042638,"470":-0.13877263422446734,"471":-0.05823943186654793,"472":0.15080731876615264,"473":-0.13641110584307456,"474":-0.12443017872871297,"475":-0.026939463732376823,"476":0.15840756581569174,"477":-0.1483612443760002,"478":0.231397297931628,"479":0.011727901020838961,"480":0.06320354684820624,"481":0.1238098451061805,"482":0.03970448247619311,"483":-0.1172240116224673,"484":-0.0067200272459377606,"485":0.16074592123302692,"486":-0.1161867755872927,"487":-0.23395357319803706,"488":-0.1833244828688876,"489":0.0772397134098776,"490":-0.09421490556271311,"491":-0.011617433171571967,"492":0.05046692418622426,"493":-0.19105605959919356,"494":0.032268405647726435,"495":-0.14632110970047643,"496":-0.04013624227045898,"497":-0.011694410565257546,"498":0.1261992205399983,"499":0.018883638134586378,"500":0.18756832257821254,"501":0.08009739484037107,"502":0.017738760452721318,"503":0.19207698757848862,"504":0.12011310119852205,"505":0.04269194639164598,"506":0.028341098040266185,"507":0.035945250038095046,"508":-0.08549959252349258,"509":-0.10824816935192833,"510":-0.0014110188430842923,"511":0.08580036310595646,"512":-0.07372628203371598,"513":0.16522517977153078,"514":0.14532873999668502,"515":0.13506724171604198,"516":0.12346204672331705,"517":-0.21008727549566253,"518":-0.21255460011385555,"519":0.15629070264935727,"520":-0.19416753081942903,"521":0.11102354275208268,"522":-0.13030790584190677,"523":0.11813567154404318,"524":0.1319393219926719,"525":0.10542734115496666,"526":-0.13332434353599054,"527":-0.02292074358665203,"528":0.01361483057441247,"529":-0.16103719385648788,"530":0.07650600576704256,"531":0.010162366130592095,"532":-0.02612854327185399,"533":-0.06665558956087793,"534":0.208219281831921,"535":-0.09966900543620108,"536":-0.14362116592733523,"537":-0.0738518891804828,"538":0.04266268763841593,"539":0.1345489507804167,"540":0.17809057485268498,"541":0.20937386639305053,"542":-0.15605564331574448,"543":0.11521044947857123,"544":-0.2484907100822075,"545":0.12913812963859173,"546":-0.1605672251730822,"547":-0.13332929320642958,"548":0.07767309394501719,"549":0.0372202940563744,"550":-0.12393434212168139,"551":-0.08180938580090512,"552":0.035887870275325376,"553":0.1517280724726084,"554":-0.14723735961670673,"555":-0.15582197077339768,"556":-0.09479975197784915,"557":-0.14205158764502035,"558":-0.2277358627176689,"559":0.17956568238213166,"560":0.05778518829100616,"561":0.17336236781872927,"562":0.006924943613275429,"563":0.15892546671736987,"564":-0.15770827456452627,"565":-0.13415160328076814,"566":-0.0921742693863181,"567":-0.18422181245373137,"568":-0.016868096391899932,"569":0.007815562846267441,"570":-0.21321183907742164,"571":0.04746042460577158,"572":-0.2329597648098054,"573":-0.19493266116079846,"574":-0.1213365579573049,"575":-0.1831431988840506}},"6":{"bias":-0.17555819367428943,"weights":{"0":-0.13627127154886745,"1":-0.04194307390166531,"2":-0.037291711485476414,"3":0.11994420400847351,"4":-0.07782803720156416,"5":-0.0199486021693341,"6":-0.01254497154399554,"7":-0.11490491357583074,"8":-0.01459099167514403,"9":0.10557512065179767,"10":-0.20134553428420038,"11":-0.169209875525697,"12":0.06338299968146735,"13":0.19780576223558266,"14":-0.09722372188075366,"15":0.08942442248794379,"16":0.02357837580932749,"17":-0.12129978301161079,"18":-0.1721942661529065,"19":0.05205050432941583,"20":-0.15024902625060077,"21":0.06428123919750026,"22":-0.0645251243050379,"23":-0.1251122674820658,"24":0.0069990076096089,"25":0.13104892868909754,"26":-0.001955272662085402,"27":0.07355281201901016,"28":-0.00026115217839018593,"29":0.22287952083897916,"30":-0.07991579605287012,"31":-0.08478771285562418,"32":0.1538555498116122,"33":-0.09123276374645926,"34":0.1226382722165845,"35":-0.08856927593346785,"36":0.15430798784793165,"37":-0.09982879927464483,"38":0.036798635270934736,"39":0.06579946302124634,"40":0.13032619754563354,"41":0.17595803264564772,"42":-0.0680636464810585,"43":0.16847295044707575,"44":0.15093088130607463,"45":0.02333813693625925,"46":0.021548308929024443,"47":0.0688735234044489,"48":0.04560267228937667,"49":-0.04452304909235377,"50":0.14662152039878576,"51":0.030301383139221982,"52":0.025358897477284155,"53":-0.06660618338694821,"54":0.08245037525660777,"55":-0.04828919695192026,"56":-0.1483703283130217,"57":0.12240497488587182,"58":0.07245031929301414,"59":0.1955702580425293,"60":-0.02741887348182504,"61":0.04492554431886779,"62":0.09933736477871832,"63":-0.003968040918736748,"64":0.166631937351742,"65":-0.13413651239745727,"66":0.11097763985619778,"67":0.04276906919645529,"68":-0.13973435118755714,"69":-0.17605056365864669,"70":0.11055419149338552,"71":-0.20352087508743505,"72":0.18000773163947748,"73":-0.11166124099153392,"74":-0.12153870737640798,"75":0.028030243927418704,"76":-0.11639448840593178,"77":-0.1586748578230517,"78":-0.0030295974099417253,"79":0.1762492863313509,"80":0.06933036745888715,"81":-0.0809785504791853,"82":0.11005403944203561,"83":-0.11482474924087635,"84":-0.0945288887723215,"85":-0.11032305631432132,"86":0.17846605635067733,"87":-0.0019675211884163523,"88":0.08591742043538916,"89":-0.04363631047088119,"90":0.1399499778388473,"91":0.07724954537314427,"92":0.07328599002807823,"93":0.07924788596678735,"94":-0.05885153044270186,"95":-0.09995579194676452,"96":-0.15619923657780843,"97":-0.14364237570111402,"98":-0.06879683753865407,"99":0.09796714886926873,"100":0.1292382125165387,"101":0.007493109939755416,"102":0.14780555460037356,"103":0.08384488324000512,"104":-0.05377204304398219,"105":-0.14270977651759623,"106":-0.08347069284838875,"107":0.032064201579116776,"108":-0.006376636836794839,"109":0.1460565090727139,"110":0.018548782778715907,"111":0.007589565631027212,"112":-0.13361551091568238,"113":0.10586764706250584,"114":-0.0427800342978695,"115":-0.01242304752836132,"116":-0.12444863240233614,"117":-0.19294364342310175,"118":0.027083031235640133,"119":0.12354733836800587,"120":-0.07097686358203081,"121":0.19573930621626104,"122":0.10898821328995831,"123":-0.13303548189712913,"124":0.07273230064017287,"125":-0.10409704463617424,"126":0.09301393619338486,"127":-0.05771613614515818,"128":0.19961994601682426,"129":-0.043086857497831324,"130":-0.01685167054491246,"131":-0.1435362524495884,"132":0.06422147239810862,"133":0.1798705647080591,"134":0.131169468173188,"135":-0.008648538510184088,"136":-0.2035898020438771,"137":0.04167410408083393,"138":-0.004526379067125302,"139":0.05207744630316791,"140":-0.13785799145405384,